429 30
accordion -0.054693409230654855 0.055382941031210026 0.29369889866222576 0.20504529357432888 -0.06238684583600421 -0.08176208679524231 -0.16813585376401785 -0.03227758894506085 -0.056853933317663294 -0.09950853797297515 -0.0774992477848934 0.3330926173091689 0.15468978902379532 0.058541283123910146 -0.006583247059781225 -0.26297965134060297 -0.20665787444787656 -0.02144796983382019 0.11840422655596532 0.1402521065012274 0.10487052313972305 -0.09336723261944053 -0.12393331307297194 0.1747738302020134 0.28460132450286174 -0.25978831086018284 -0.126900622518141 0.5212926131754925 -0.09710047693649154 0.10419523184685246
aircraft -0.16609208450464102 0.19738003396111206 0.023551121792830122 0.19843595221697666 0.24242361970439738 0.06088350426639523 -0.01461543685877971 -0.21471447603037966 0.12042850544624603 0.23201468126000185 -0.004906318899842676 -0.07481860815459336 0.01383306212436902 0.0449198684944732 0.179514975227506 0.23966734790317032 -0.09466500579431267 0.1899675982945973 -0.4516696318312722 -0.27844137416493336 0.12879156089776375 0.14733164904718907 -0.3840749613696599 -0.1291483215456341 -0.08119989674116943 0.09142988164598348 0.07512817380621967 -0.26068044309547306 -0.02726785416271919 -0.023111826509393467
airplane 0.020883941855229383 0.14143459926261012 0.27035887441244205 0.023306468957674256 0.21039531293442637 -0.020727171923406503 -0.05604437181919312 -0.34916966396383886 -0.04359284383489732 0.19977896691854122 0.1760402615608284 0.006840900403447721 -0.04568626573952823 0.1347537124411914 0.2303862488898796 -0.008954883225803583 0.014477023509449957 0.09011194308581678 -0.5189689536015085 -0.1565016007593784 0.27981917654317306 -0.1638105433464433 -0.22029177408619577 -0.11350795002354305 0.16607695252911744 0.15067991648521792 0.00710516765307723 -0.14712306918131401 0.1285363073266365 -0.18087096807639566
alpaca 0.20524070311694034 0.08222226496607067 0.2800505551346556 -0.17627862475785722 0.024255924171038945 -0.2625759375542681 0.1304963642057762 -0.2294531463614547 0.08793655906381628 -0.04671946169248273 0.033224797889526404 0.09345285465326607 -0.1323119374921275 0.2688471326384284 -0.3583637012127067 0.005995563824724507 0.03633441244882986 -0.22505604846037852 0.0788663939974234 0.37097554755965534 0.32686776923558825 -0.010004384253548817 0.05828748908274065 -0.11439518241458488 0.17604752801009846 -0.03868384751505178 -0.05440359919350377 0.25782954805854114 0.05749664007951511 0.19982890080637167
ambulance 0.19599806408404846 0.040949386327458016 0.417875663536265 0.040667406730389696 0.28769484123678774 -0.0754653607900758 0.06404072398232188 -0.23307068272763784 0.1150017636317532 0.14770549761340843 -0.06238614332213266 0.2510840557882264 -0.1935830444619909 0.27772952691066544 0.0722054383317568 0.0036595877658037656 0.0579148627375717 -0.08953573068965912 -0.3350324744140424 -0.13621854803279906 0.3624738641406102 -0.22173035509621788 -0.03363562382557107 0.04966272208361179 -0.019033267781658793 -0.13100173097543524 0.030534340602037264 -0.022551763967282056 0.2527489544264564 0.07593219306995432
animal 0.14487154201536748 0.23840788613271308 -0.4311572057455298 0.36052769279416036 0.036347293145023746 -0.13153337881757995 -0.017106222547851963 0.0944534813580797 0.14552900263556862 -0.03802870548048638 -0.08742278642772183 -0.32783644498848147 0.03684477070420722 0.13270812153231842 0.1801453834347723 0.1839690130905264 -0.003502779400142472 -0.13071639842922927 -0.16677772925577003 0.06573268717550121 0.0373145538226402 0.31723817808128196 -0.059073476062065144 0.04275991022500769 -0.025308523794405027 0.027108053217513105 -0.06994809060640789 -0.02376333224450091 -0.3971885947360082 0.1851314956216953
ant 0.10806461907919684 0.1642675436545031 -0.17877776442689114 0.15414040224141232 0.24055412142872923 0.13877766023285878 -0.2100021401953721 -0.10079292338678933 0.24075006722138456 -0.08077171134057862 0.10700763021182913 -0.28180038882285674 0.006134719485889742 -0.05058500449086881 0.19324022496409626 -0.1619498162851941 0.06338994929517204 -0.5448229513328021 -0.22136397000275235 0.07575299252922418 -0.00919132289427817 -0.17218038550588172 0.21702939899079576 0.09891893042930314 -0.04270848890368833 -0.11813227179049748 -0.06927942314462955 -0.0009837694763692906 -0.03518849078498309 0.29781336747989584
antelope 0.18467742377492735 0.1965315543231556 0.078541372191916 -0.03407562843228087 0.02745243543455887 -0.14701091066256225 -0.14271172241409308 -0.0715174444862953 -0.02498954817836682 0.19547424309681455 -0.23713179834895473 -0.013016830021710397 -0.00740397331480304 0.42511964524030943 -0.08740195848503464 -0.03540975661606587 -0.052032645277711995 -0.19897980296238443 0.2157886327911392 0.30984902814196363 -0.21910671787320918 0.13647824551980123 0.08892609292083933 -0.05101518737063692 0.05069546722589998 -0.24706710335515628 -0.4468250515228712 0.16630909019490764 -0.16722423611285298 0.07923820689823324
apple -0.11676439909599706 -0.07722684692684335 0.04111541116349407 0.10821525772992273 -0.41795664372780283 0.14479690850607552 -0.047741277062390806 0.6822098983114797 0.04459565520395425 -0.023364033333337253 -0.05624770344459631 -0.168030390920326 -0.0451725165142554 -0.05346588437810713 0.09404510171331609 -0.04512085165479506 0.10009602614089613 0.024041093067902405 -0.27500274661336965 -0.1174464436407211 -0.0818792779509665 0.1466922582961881 0.09785826208455092 0.18153516161474334 -0.011343063487684822 -0.15870043308268736 -0.01281173668338352 -0.2033594911906753 -0.11867813454778608 0.04749227170826938
armadillo 0.16928939215274197 -0.18263872444220758 0.210503504542508 -0.29242582315899424 0.062370964907230673 0.21178570685587447 -0.08360493856603823 0.05897101909007176 0.11472701387198679 -0.08397938360567682 0.11840640100336942 0.3390569694454698 -0.2237876539918113 0.21018716905808787 -0.3655168325077835 0.008926202651007603 -0.04724130077185191 -0.19663988652441527 -0.1265141874447941 0.2004212599868004 -0.1119592159227574 0.024291534059593826 0.02645375037351319 -0.44516940038608815 0.16785251855701405 -0.0011854903886711675 -0.12073298223674621 -0.04711275767113723 0.13320557579262554 0.004765784098491218
artichoke 0.013409973562565878 0.09523047907826605 0.12076796002718054 -0.2579690868130492 -0.12516551109509583 0.2447809365076427 -0.29056120676374514 -0.2615568788147126 -0.05523924883521388 -0.11536394998591247 -0.06293346056228623 -0.027353478103810235 0.15334753268003665 0.14846228005915366 -0.16527574481321192 -0.1670293622629533 0.05345191531324191 -0.12499924545292816 -0.019188798593826446 0.39356777676754645 -0.24542498348058497 0.017810713914555392 0.18416017185724157 -0.1528369476090383 0.12956517949815263 -0.3312271396672754 -0.19666433364650143 0.11745754000281025 0.292282366032241 -0.05817866551407579
axe 0.059650339529939964 -0.37235618850788443 -0.28371848747495426 0.023278898363229418 -0.015213964559547374 0.064915271217092 0.13377049757018997 -0.045725157841975825 0.2920892579470791 -0.029437688196086872 -0.1080518484134439 0.30534214291980966 0.07054795233734489 -0.017315493697897675 -0.1492222665713696 -0.005324333669375945 -0.1282699622618469 0.12063372257831734 -0.2433103680407665 -0.26788911066415566 0.004839881992916183 -0.018780399513504863 -0.10205243936754851 -0.06854613016583534 -0.3015628431327238 -0.1956125650570235 -0.035785824915895326 0.3770788097620608 0.2738627068014421 0.09233402524306433
backpack 0.024847907829009 0.0563195136771952 0.5206700892075774 -0.30599879165596827 0.11320439740975226 0.11451374084213567 0.09537280832068866 -0.36281907972124994 -0.20516137402911439 0.08527213715986491 0.14044171297532443 0.12771978883298263 0.01923588243377253 -0.011460852885085174 -0.14656354104344751 -0.027391121901027368 0.15956473702382026 -0.17131047800659993 -0.36558680159972884 -0.06411920275925384 0.13924775230467362 -0.1718670807155448 -0.0005754693701873261 -0.1363568094729154 -0.08513299300076778 -0.01740378586262353 -0.1302497853143473 0.10888123781679146 0.1888085257099187 -0.15674888416053065
bagel 0.08533188270094048 0.06747461505155197 0.17794439912191737 -0.26881979994817295 0.14954699473923175 -0.2916026146167212 0.116058266111452 -0.1812884970018304 -0.15146835232414252 -0.08580821598252297 0.09582972060062217 0.17532189174686905 -0.26387915468170436 0.14888125483213888 -0.20194503615583445 0.19226618985167715 -0.07151652009844589 -0.06104706186291101 0.45474940100007233 0.33148574325490365 0.06408527564693312 -0.25471602075658484 0.025566739465031 0.17693632224500092 -0.01597408861562957 0.2025558550209243 -0.0660284247936895 0.01746449073837613 0.04761469035994554 0.12668311756754255
ball -0.17273783837771584 -0.20869847158681404 -0.127562937803113 0.2835662011726514 0.05983245799040316 0.11164949742991748 0.032094043768274176 0.3794193756555561 0.11468555198200563 -0.18068639023428001 0.024772864343805944 0.21461160202700655 -0.04132566779682583 0.044443419882119646 0.15043946289421056 0.13830397845093928 0.10449846452841322 0.3213270895246365 0.01144159079027935 -0.1517202973687351 -0.021931864889734424 0.2273219295225796 -0.30601643003114204 -0.011601173715065033 -0.008075316901811935 0.2588368705148132 -0.028080834359955148 -0.053176994838178976 -0.2954660643213846 -0.29956355906668436
balloon -0.19533603824282492 0.3366050578736882 0.23052352485343555 0.06302712836440036 0.013016313652218139 0.05005204694840528 0.19450265734343983 -0.22236903372236175 0.045421438771162025 0.16964747984447623 0.16868145682683391 -0.1010611842100486 -0.07258260299794671 -0.22700702558228522 -0.0162992863242714 -0.030325084474501506 0.058155218663948155 0.048286039674423464 -0.5208571392531676 -0.1045056107711573 0.11593575219483977 -0.026086259255481425 -0.4080762760726796 -0.0012642638973064345 0.18444946535954637 -0.18048906993429348 0.1730571564550275 -0.029155057612967314 0.07206972486535909 0.053011224436527386
banana 0.03931677899285848 0.10599936157311363 -0.22618140826660435 0.03174990750589525 -0.27813859808416536 -0.037380247533889674 -0.32033359091396185 0.13943647144916468 -0.017105362637421868 -0.036381016156622016 0.2280264428997467 -0.38301800466961977 0.15829168626700985 -0.21866089911641703 0.14346615983653496 -0.1439025510336728 0.21899423253526917 0.018032212518567316 -0.053466209471141196 0.0418474365826696 0.10730603808212685 -0.18440087253242324 0.11011969323659 0.10542391360741055 -0.12392531187382834 0.018477674198167697 0.22947692766128086 -0.36156115570726294 0.003775468669731505 -0.31466096806756744
band-aid -0.22333080016652185 0.03297156253137985 0.4631100386160935 -0.22350600636432413 0.05079756276325555 0.14521814126041283 0.05999979083652751 -0.21231205613098972 -0.03993110176984452 -0.044755194295706784 0.0011039999971762416 0.15635148658815515 -0.14958815702594036 0.002760857206391092 -0.26423235238053655 -0.26236412063634884 -0.005837312272272975 -0.11422892900820808 0.17117578512848747 0.03337202458460564 -0.06589938647090379 -0.1340122393576511 0.272486146903983 -0.07129063193831653 0.3166144868768891 -0.10838728168888914 0.00913015670427435 0.30078047959232074 0.23278665033114115 0.14600725793541258
banjo -0.10004793349347224 0.10490336720467734 0.3746439556340768 0.17302154352816784 -0.19418074801248872 -0.11072448979790525 -0.14286529081574853 0.20378942964829264 -0.11569435370775331 -0.18698375931658234 -0.018019940724169806 0.18166193907163697 0.142628725928839 0.018330088660810255 0.061761546217047644 -0.20995321108346568 -0.045189609761612355 0.013258342036110034 0.032390470461056656 0.017794870529731263 0.20139900650139395 -0.025990281088486458 -0.04363812717205629 0.20692595314990045 0.38258887033108174 -0.17334084802842775 -0.21210532791639586 0.4037021891822775 -0.2658978012852164 -0.04366133973566088
barge 0.4176359664982522 -8.335881220289265e-05 0.041745132588862734 -0.07181483507917458 0.2914856850712967 -0.19059886606876422 -0.09226817140005743 -0.3050982906943293 -0.24148135895177586 0.1336408763907292 0.11225843671390037 0.2952736777829838 0.047890492749019804 0.13615654841236013 0.12554037582899238 -0.034242279613746346 -0.10381085553922655 -0.06654702753779036 -0.07413160594536787 0.08392082234601875 0.04263554392750311 -0.3248637611927829 0.12211455394046292 -0.1229237165558806 -0.0513574482292511 0.1445570844202701 0.12192123214694486 -0.05405201298482648 0.4172873291300796 -0.0386478183651431
barrel 0.27105666143645657 -0.2058940858319684 -0.10857334866203153 0.17370728697395763 0.31525346300677004 -0.15816162416862567 -0.08607418089433083 0.18463704788653765 -0.2155126729676997 0.04560125518865183 -0.14244244497086125 0.4099535093338319 0.21801496306115165 0.05423505749604706 -0.08030350439405073 0.0017875046552377572 -0.0487617013143746 0.11689768649429023 0.07495567922972858 -0.00010453521271458739 0.15911122538841121 -0.015900153989822655 -0.3838098378906064 0.05754238199371913 -0.3474822771557429 -0.18410089519827635 -0.13932124628541265 -0.08115985309427637 -0.040941636204556736 -0.04807509014642852
bat -0.2074325335380151 -0.07354215794994093 -0.09307360915385368 0.10428351107804537 -0.03460290756694371 0.30502477099395237 -0.07744892122302825 0.26445465575213495 0.2376577533208796 -0.17889249097552443 -0.029339981473918315 -0.06385522892243048 0.00844344047216167 0.07455138852187895 0.041191976012209086 0.1099266197537893 0.36205250611763906 0.17779786979797885 -0.15750279381881999 -0.08835519535047509 -0.29423095824215356 0.3102681008170619 -0.2917804277740601 -0.056562145993407496 0.01006306100069156 -0.01857396236277946 -0.04982004797221548 -0.009018952215749979 -0.3498265795551849 -0.23906482099246928
bathtub 0.06323758022099536 -0.198095657626231 -0.0257450255475665 -0.4096584183177704 -0.029566068827311685 0.022027333017127542 0.04887907955876873 -0.3540564093464429 -0.0284541789572057 -0.07630612932307397 0.33530502690419745 0.2843137847777126 -0.105760595094129 -0.1727851372876818 -0.044448164045418195 -0.11878558411688123 -0.030079659830383586 0.016796193031677106 0.23135288191654477 -0.16243472083759902 0.011500232438303474 -0.45772713774042323 0.03536250937450184 -0.2588298126210217 0.07158263071467871 0.09248549962064775 0.12290623581129789 0.019879357055357302 0.09546626060392682 -0.06979508126310509
beaker -0.2920080013778431 0.11180296262953272 0.39042935181238003 -0.19387645594608827 -0.11413078481553013 0.38112911576995256 -0.14985070034279455 -0.22119866077525838 -0.15392464604035394 0.08968971552204236 0.022579085997002403 0.11535626331294314 0.06327647153401705 -0.09273867838000348 -0.3544568693708464 -0.08986783558501092 -0.16945185145219557 0.04537721435823686 -0.06375117358847188 0.06196843880788522 -0.1512843263931122 0.11557730765442975 0.2349035399148634 -0.11274108531259361 0.17512933874949346 0.01873280678712369 0.008131783862821545 0.14632616388256037 0.2860050489396297 -0.11642312670516262
bear -0.099251235443922 0.15475938290805144 -0.07141176200867487 0.2692902577604505 -0.06633895874238062 0.012657453951279542 0.15243448066470813 0.21401042219767571 -0.009867555435485417 0.2819094928297997 -0.25361010272678847 -0.31540167874707065 -0.09158633942807089 0.26664609567713277 -0.07390696978774307 0.07080197606242629 0.08768929798898624 0.06168040679305066 -0.15614519386469486 -0.1001684051663831 -0.14771501193438052 0.47591203880363603 -0.0265330392095559 0.11517054584977202 -0.24577466487897306 0.05123643788633232 -0.23334083958449922 0.025390215097456443 -0.23122594550552092 -0.043314864623824965
bed -0.09483384540346773 -0.11439628089867344 -0.048835755072901985 0.14126445142869626 0.1654727563740365 -0.08312229734531748 0.2671904930934457 0.012944420397935188 0.06202736579281846 -0.2130398428738113 -0.025703797256931525 -0.051156228551184624 -0.21794016934213503 -0.16844354611914514 0.3635362491706854 0.09318773238649154 0.09772631114121078 0.12306092835720958 -0.028064778544104482 -0.27569419795000066 0.047872602113182346 -0.21644683913910753 -0.24917859339184092 0.18650917648460494 0.0029232720475873995 -0.030351592438634785 0.507719209871929 -0.11048712467519636 0.03499280057322781 0.2466962644806931
bee 0.10178592797366731 0.44356436021099677 0.07238573642822933 0.16233915118430908 -0.005061787898210549 -0.254691488351395 -0.0021068682040875928 0.02813124546068914 0.05490403323273155 0.11336376481785694 0.14987539819105009 -0.3031567646166137 0.06083975233079102 -0.30914345988276754 0.42291885710237814 0.012737285825228607 0.10848229380232031 -0.13182932118394078 -0.3322678945110939 -0.1937158466384337 -0.07525260092947197 -0.17293618227022156 0.14318226366834563 0.08832316160444167 0.050085486899602634 0.05161006100643898 0.016282794723075377 0.09675095103634962 0.0075833259354414284 -0.17685632433948037
beehive 0.055824025549972185 -0.06671780968376409 0.028334508350466595 -0.18354424767883787 -0.008374557919988432 -0.015597776521914268 -0.0820148956326902 -0.3939563138956501 0.1260900806331418 -0.008462056832773507 0.19215200403601918 0.2741830425660262 0.014991756645970888 -0.16496965030672625 -0.07084742582551308 -0.26980697887553623 -0.15259249132587482 0.017820618985108647 0.3305772395205733 0.0504983525730879 -0.0872998198137427 -0.30148374921463356 0.1554077716798122 -0.08949283139820978 0.20893888741942382 -0.11883950572181501 0.16604445697350176 0.38194013978824315 0.23317138126163495 0.10330320149056714
beer 0.061301160779157655 0.010958323965455891 -0.07131074567779745 0.26297553957466835 0.17514425834930109 -0.09679425502310914 0.021264258718117605 0.3658725207248172 -0.22761818348400342 0.14909423851550319 0.006394431489442733 -0.031235968582247628 -0.05469914727038234 -0.22152278980325069 0.016664717402846328 -0.06459674713815572 -0.03781253188133423 -0.07338888310952349 0.13970210964885202 0.24029301259706198 0.14716509545445539 0.03688882376924597 -0.10415870273972144 0.19527076093100776 -0.37333065965813816 -0.03981511292324972 0.0681836172073821 -0.5426309659671654 -0.10155520263746541 0.09750580600005894
beetle 0.10475069962441368 0.35920035929348487 -0.08349607317316322 0.02074333500344137 -0.20388265146994167 0.040896242607934445 0.10490545531036097 -0.04551177085085197 -0.021375577472464845 0.1229172749490975 -0.0400259676645291 -0.2911368936767322 0.11981392120347048 -0.16443019151057842 0.20710318888943813 0.08960968087464867 -0.03756713534476652 -0.278005818198252 -0.32536435637435385 -0.03719004782359843 -0.00040329209482145264 -0.07395653481469214 0.41273997042479527 0.050681290535788744 -0.31405571466418064 -0.13321480450405515 -0.013047601269082922 -0.08817985960127135 0.1531831213388903 0.29986065433773174
belt 0.01255547334463076 -0.1533379726005892 -0.07286433746965208 0.015205635592571078 -0.0234483930818816 0.0809831242231078 0.23904232192763028 0.1482525764434615 0.08585396923103593 -0.30818901094456097 -0.18679454094494496 -0.06693203605267792 0.31041163143441053 -0.14748275617320533 0.1362694547388864 0.22837181542447257 0.2984880761729346 0.16373489065855504 -0.12723475193330094 -0.28879094288085483 0.4066997825860379 0.03814249932356549 -0.11172160136315178 0.12721571953665667 -0.2917763165586116 0.04033575022852666 -0.08398136885998227 -0.013542502607390582 0.05758293389106436 -0.21372302754362257
bench -0.1356911581260659 -0.1544275480170858 0.003391898170332165 0.2750078885649938 0.1898058914267628 0.107451369510422 0.22014363684868773 -0.01353260050258021 0.04357869637622721 -0.09818267522872272 -0.26458334243647835 0.18518614075468776 0.09092687687989533 0.14966573013386283 0.3421801227132587 -0.08652614135626911 0.11459677566938824 0.22718347912255207 0.12507877608093412 0.026802212142442418 0.39091252715640074 -0.11315305802003947 -0.10772675780912135 0.20439711781151987 0.3420074385831206 0.13058454034707653 0.12344179409727168 0.2294082953869585 -0.08632540623753157 0.07317930348420032
bicycle 0.2542526105147104 -0.1250690994987541 0.022317912277522573 0.10823443284161538 0.2345829324739442 -0.07966660223210671 0.2149707818964254 0.08563047700847286 -0.01162570559415366 -0.11638034423847231 -0.01193041007036325 -0.048568521166834314 0.011950570379150708 0.03686127689122303 0.16582518892375825 0.03872050595250122 0.1773716614943561 0.12703115599900758 -0.45897300701125104 -0.038835980372657106 0.2816014169107994 0.13979788292349757 0.24859776157522892 0.03668711088173853 0.19214637101985774 0.33382041623377745 0.01924359653907436 0.06960045960804286 0.38957038774538083 -0.13715839312130704
bidet 0.13365436559191876 -0.06803067834633972 0.16183121772826015 -0.5047786352920998 -0.08012991845252544 0.11460646148192688 0.15676315884121758 -0.3776863048091492 -0.13246537806757772 -0.09262174999459558 0.19546472825084263 0.18741749025754983 0.006628340684463904 0.06964479913427044 -0.005869559313512413 0.16289120191344839 0.21847839729515292 -0.1194982834609394 -0.12491224731768286 -0.11494124964206863 -0.04718953167087496 -0.21545603078430167 0.24866111678312622 -0.23901765208096848 0.07664232365199933 0.1484265921958882 -0.01949852623793008 0.01124287191494433 0.1948139963315238 -0.2324209580058595
billboard -0.22134474402630003 0.025513837944947125 0.37860410233506514 0.15285195437310603 -0.019286770701622016 -0.062352341727009895 0.2597643984128984 0.29999266012233633 0.05365992240872847 -0.04868607323530249 0.17816603517298743 0.1669534483552995 -0.19190362791499718 -0.33469348363503454 0.11983661761267518 -0.11743144367780974 -0.02789164868557983 0.19118119164192882 0.013351374527365277 -0.33887329771174046 0.00536750805350282 -0.04897852249798044 -0.05402299308688633 0.3936260825767127 0.07694014778514248 -0.005149272297267326 -0.15295898481110923 0.1899560606541741 0.03598030448904576 -0.026527083710050036
binoculars -0.10001125113867372 -0.20152819255566398 0.20909345990821748 -0.16687043952052982 0.09005175598790992 0.09719340216290513 -0.000384387057997192 -0.155375480491061 -0.2347271519052128 0.1295671384213849 -0.13749815717884575 0.19066681754060613 -0.032942455703494314 0.05104978183358619 -0.4079901750012431 -0.24846103222321 -0.22445689587683448 0.17700545680891822 0.09058130720365651 0.33386609124029615 0.06876314821694894 -0.026614183552035757 -0.21933764695904528 0.15271321552915382 0.27146959907182583 -0.06805659658799243 0.0066328671168550644 0.08708441847366556 0.3146115464639261 0.11794223718460256
bird -0.01439974076640245 0.378679625042305 -0.19220462961545204 0.2830106830196367 -0.09109200307131578 -0.19282089924859688 -0.1024791676153556 0.023316053858106058 0.19061430300052967 0.13873772131159048 0.11890949015349042 -0.3848405325819036 -0.027929340678477178 -0.05744399950009668 0.23701085766546715 0.10600404464861854 -0.05749743664721024 0.06521653230546623 -0.18274326709514 -0.26438055010301953 -0.19753610462651722 0.26783183187329124 -0.01696347623132378 -0.2014510941689328 0.06371952080654336 0.08772566404439004 0.06567556798660833 0.04232809693414675 -0.329400520961808 -0.06838890742637604
blender 0.017339527998724354 0.14856385951468298 0.028559610584215262 -0.16891190887838103 0.19683759815261334 0.20683927848483752 0.01625923271593798 -0.07707719488326419 0.11826277386840801 -0.06329690188266554 -0.15851197488022442 -0.1244369373215334 -0.07821784921238219 0.11477269524938015 -0.2330563665155259 0.04103456100135704 0.13909605668718877 -0.2785567299998046 0.4052758308589139 0.41074546807474765 0.01985273099552658 0.012319812063952471 0.25151437026435175 -0.14830521609070688 0.3588216863937352 0.10869656384042593 0.11555581265497362 0.017872172437592024 -0.09363279396533107 0.21896572919790308
boat 0.1618149596188675 0.14058635677670162 -0.21514122655633539 0.32793109773699963 0.24262883163635662 -0.21506580076779938 -0.21877282197191392 -0.1625781263490372 0.01390579131743091 0.16674033711811023 0.26518439368278574 -0.019727190447921067 0.06816416598441255 0.05224848359740836 0.29965008305837254 0.04169095492295728 -0.0916953549820068 0.1265279279211817 -0.22409727174557748 -0.3004787166496994 0.10835969072557107 -0.028489391796982396 0.005288143984989295 -0.13153543934509326 -0.12158623277188642 0.3348149119674977 0.15028682338270621 -0.09567894618527219 0.016926221694591365 -0.2635915659678484
bomb 0.021239553975994065 0.0037550550589152093 -0.0388139646688109 0.03141956096308494 0.011173536692752735 0.03731717880512561 0.19729292192824988 -0.05456974752217289 0.06561829950290846 0.023712803091278444 0.17907175540638906 -0.011760445084235788 -0.0002097910653608078 -0.09303247891901498 0.07429976245666318 0.20320223561592946 0.10656628895542372 0.05735248161562725 -0.664306305767661 -0.14850257543063006 0.2411041167224037 -0.02494304128307212 -0.4314469339421612 0.1652141093271498 -0.14904746314686496 -0.030581246817445968 0.11324060129499748 -0.2283678661938772 0.13327946541573243 0.07067842144575444
book -0.1754913886161351 -0.08146455202587446 -0.25262901302193513 0.5103763608130356 0.08086837373110076 -0.11618813499453444 0.15343100500681012 0.2733117524759724 0.06787111462164108 -0.05889132584088218 0.02588491764907314 -0.0699280771570836 -0.15142512956113036 -0.05728803976247886 0.30143597472606787 0.03565953395318547 -0.08453973640205774 0.10794601355896107 -0.10072830784177206 -0.23122144198879718 -0.025583425310004862 0.20551226927983474 -0.23752180529645447 0.3168913318599388 -0.20622047671687124 0.0952728460721365 0.00956300945901364 -0.023405248482379102 -0.22700823085840618 0.04569735167121928
bookcase 0.011023513470153725 -0.012559239796659826 0.22723341431984467 -0.05893993065694169 0.051578215836949215 0.29819582045601994 -0.05939461103737679 0.06209913513646829 -0.12835098780673923 -0.08715908224870829 0.061848961342846905 0.24675700668460465 0.11705991002878885 -0.1103744708332804 -0.09293141246532746 -0.3594790369240904 0.2205593882560755 -0.055173658480934355 0.14481236510519524 0.2930564844730566 -0.05217270882158767 -0.23649805530585427 0.27624485200624055 0.006432753944395524 0.30505669760975307 -0.006401823547679741 0.28850440707332137 0.06402920010716981 0.3445148480064167 0.020972884588511567
boot -0.11307890367735603 -0.16512536087480126 0.09052792340301918 0.12713598188581335 0.06227691820942311 0.2706317353616128 0.22026848052727216 0.33089328517648403 -0.11343270826394078 0.23749978793888804 -0.295764817630214 0.173255360627004 0.037165151866621844 0.2348649875474314 0.02072801163235523 -0.03816289760118438 0.2748262689994124 0.1934696716464425 -0.07599501562918669 -0.1471248425066595 -0.013645785614077118 0.03140840659834322 0.23224814643032954 -0.15898495875567506 -0.07139089571383539 0.2885854212680467 0.3332356600990972 -0.017687740798570235 0.16737058921094333 -0.08212142034255501
bottle 0.11690191155903917 -0.1465530780151559 0.016621397084378986 0.1607692340957961 0.30864022060297336 0.03103917794905449 -0.013357889111928232 0.30825032609492714 0.01642560794363108 0.007409432946454463 0.1906650130956348 0.07887652992159562 -0.09221595887572513 -0.25137773928498985 0.015968526939414796 -0.19412851723843028 0.09199327253754855 -0.16711472559142482 0.010774182523585462 0.0763263445142727 0.24932723862425168 -0.12951477907617975 -0.1396784224015096 0.13923533829155962 -0.39780667482645704 -0.13945870148785292 -0.055536557796324396 -0.49084856598064397 0.011718046644180816 0.11295960679294036
bowl -0.2728633491161273 -0.0634667727344973 0.07968939064160876 -0.04028173644676727 -0.04932750891595432 -0.13178492114119808 0.09013642562050933 0.31967632868615076 -0.034644547475408065 -0.2101120179775793 -0.11374200497443217 -0.22906166460123112 -0.0021146558878953055 -0.25405429205483987 0.1943224537163649 0.28883634537443514 0.0006002553307413955 0.33623276405310365 0.21233481399433596 -0.08649778649909778 -0.07983134399776838 0.1364987590581583 0.08399975315727003 0.1204995516477101 -0.11716994758664875 0.3792296100124251 -0.06957221283663723 -0.2306937774745335 -0.018281068197099546 -0.24248114999708828
box -0.06388716744587963 -0.03609276713327017 -0.048041534227980444 0.25355502554569526 -0.1017932075894034 -0.008246169483946478 0.11615158374916794 0.5391746798163191 0.01344942473010337 -0.0483139184710592 -0.06582133857398405 0.19856413967217418 0.07614172251561413 -0.16607834594830584 0.17102730070894287 0.31208944654935333 -0.03626720197987067 0.0770870356038481 -0.2691267506223731 -0.27579727554167266 0.029822568125623464 0.005789985890932451 -0.27576937448195504 0.2617054297065318 -0.03797864503490894 0.14589608991783792 0.1145759553095682 0.028156029400246783 -0.26057484191271946 -0.03635761917005231
boy -0.15027492891586472 0.14179848969049416 -0.03657114220148991 0.3980217929382377 0.11355138298813745 -0.16078245842089336 0.28364331402736925 0.22513133553534376 0.12227350417828678 -0.05119297626334192 0.2003391028686656 -0.04280686810528206 -0.16117542749396685 -0.12354709961037144 0.10467729395627723 0.1052649934280665 0.17726144601553476 -0.0009948624976637381 -0.1705844817113917 -0.3435031971506609 0.035543301800747565 0.18602322929184917 -0.20851276321609385 0.33120459643862504 -0.10518698153089166 0.12224181784712909 -0.008724003404513491 0.17947519684536598 -0.2605298769881798 -0.10545635678802563
brassiere 0.1829047360316943 0.06614963678136997 0.15862835541250886 -0.21492660013138762 -0.0827051957057466 -0.059926095161309124 -0.146011629257319 -0.33148791645701553 -0.17447890202813002 0.11124025879194381 0.0703950965171027 -0.005909760040946708 0.02546131254307264 0.2098783645483778 -0.3685698932890233 -0.3073104402762289 -0.08921008323883989 -0.15357857531660718 0.11710210700195507 0.3054107546680453 0.09866660343771443 -0.07923158940029401 0.1439355793391522 -0.21466399664023564 0.26171906860554567 -0.16583289591171693 0.0577985168919852 0.2090561854393463 0.13224891115261975 0.21098238753264847
bread -0.09311137891787932 0.07848900007184827 -0.1730883518102401 0.027663785287782836 -0.17460196414071166 -0.1102399497798941 0.0022006939704587243 0.3200314255801883 -0.03450089580680066 -0.22274297280303648 0.1888985509179057 -0.1360912799782146 -0.08638952635600372 -0.12885699743269613 -0.1592205138831547 0.1815279664398989 0.03010427951216997 -0.06730783239009755 0.2538658101210902 0.3420913305213418 0.09889385614184248 -0.029043582085011503 -0.146272603173284 0.1749941518373769 -0.23475159348998217 0.21025953084327978 0.22582728210311662 -0.4139897278607478 -0.17078178764030674 0.14689990807921724
briefcase -0.10480518287136424 -0.011313750086832337 0.17432109115382077 -0.21001131329705006 -0.18695810569552668 0.2309326679098314 0.1826411434801564 -0.22803992572112824 -0.09391119102947695 0.09664543767464166 0.2898874068914513 0.07648561305020926 -0.09148116902524887 -0.21016446311030004 -0.15604515831179902 -0.14961846035374732 0.07664368993518905 0.05834644290953399 -0.45981526117874844 -0.03616087458671168 0.13487074890535902 -0.06264917522708936 -0.1865650654182309 -0.19373489976397693 -0.09431474742300786 -0.3009578700614253 0.062004839778880494 -0.21036110213016013 0.2582057322485425 -0.052205241649276694
broccoli -0.03517219057528166 0.10604699488934259 -0.13739035813066564 -0.3115717190253416 -0.36704471982244113 0.050159831501101204 -0.086172633630135 -0.1128467057174105 0.07489876510338993 -0.25251529417305985 -0.11346952632462556 -0.12810840605244858 0.027177675132874238 0.2578370371198899 -0.09797195154738612 0.18627068897657115 -0.025065050317175774 -0.21004702595101438 0.10037940212564879 0.3396063684621222 -0.328620076517292 -0.026785929814393553 0.14308396619078775 -0.19317703732631175 -0.22348589642786845 -0.18864858718134583 -0.13516690525846034 0.007828915347672213 0.18267471056079929 0.17349338056260755
building 0.039409082230312864 -0.09416404943734141 -0.31426402814111204 0.26446145601210264 0.11795954480009081 -0.1437470818603277 -0.041221230764460215 0.0023462584121669967 0.19673919924556485 0.3033749926860363 -0.03955725883666908 -0.040149238594293375 -0.02185357205212049 -0.1189027253520143 0.31135234961303143 0.1035815071347595 -0.24629541259037932 0.3509736624144941 -0.20011290170355592 -0.09519750634902048 0.10399149920572649 -0.00048151464589946217 -0.3761584500712693 0.19565429933591608 0.01810467882361609 0.07263565324861025 0.18042785357215263 -0.2573145567699357 0.015492791957629154 0.015516578968968811
bull 0.1443463040020192 0.0917362844599605 -0.03598773230382414 0.34007842606786287 0.17522160896353067 -0.2817926361425124 0.09253827282838206 0.031514886571329184 -0.13373629584813687 0.24469517464980645 -0.08107164932211453 -0.09811343270933882 -0.08363533296017821 0.29561694221422186 -0.12801230673195177 -0.017738134536795656 -0.134001638595249 -0.19765122519350317 -0.0918302624790726 -0.03337940060149896 0.3068557045650557 0.29341321385234365 0.11171597265659876 0.014237631105748369 -0.4386081623017877 -0.012945602503702554 -0.26676679105647594 -0.017591795992697116 -0.04608707015565254 0.058658242980077734
burrito 0.06607496728658087 0.2798825113056362 0.14110884252470607 -0.36518533256232866 -0.1378691115466636 -0.05986351182795518 -0.09791426317762845 -0.25827025971803735 0.021134392371185855 -0.31371838332404417 0.08355403053080564 0.009847286699890802 -0.02720685546097118 0.1589861011582244 -0.1619322009980311 0.3119144614403457 -0.11239935017136106 -0.2441258988362741 0.11068819409729062 0.18334514985087544 -0.008409248366413404 -0.15702849860075377 0.29737673588977265 -0.2989816402151994 0.08015099099004222 0.04826064585383797 0.06403617229934179 0.014713727669811692 0.14783330026262095 0.2325871843890514
bus 0.21378967864053627 -0.01170080272567225 0.13001727720399417 0.09540343287305174 0.04149479600083738 -0.16869868464999632 0.15597765983547904 0.127274449353201 -0.10339700728279076 0.374386300616701 -0.04644607726361429 -0.015624422263613921 -0.22472230776572272 0.1180330473604957 0.3827819663213741 0.08253250386701624 -0.04845254251712491 0.18879834901922832 -0.4733774842185927 -0.26461735703644673 0.034893604297973294 0.005385117252513743 0.03165038684087043 0.2088007872591339 0.19893879490044203 0.15169548401273833 0.02682822943804191 -0.20727801548606864 0.04617793891719214 0.00819342230037337
bust -0.2059527416923996 0.1958757207193776 -0.0262400911301755 0.24096734243436527 -0.09884218314421266 0.14988956047921487 -0.07654351582145243 -0.283840501169864 -0.07652736136428426 0.3753513328672328 0.042831355210033166 -0.06535689123636486 0.03474361627242079 -0.175593511546874 -0.03477582810289144 -0.45490297074549674 -0.28452344713099853 0.16018013115977753 0.06634280797020721 -0.00040911688995569335 0.022152991186516757 -0.012819841789384358 0.19480207682070447 -0.10174238235564459 0.15102569687320605 -0.0833583329647099 0.2938017930159984 0.16784199722406348 0.17730171506431147 0.11451152614319762
butterfly 0.05334494461190822 0.10172841037070286 -0.33132404363247075 0.23547181366424033 0.17681241695639419 0.056287838868638335 -0.09287893529043713 0.1991686786430141 0.2560499979736093 -0.23614869494917617 0.025023444090485965 -0.02845827246393113 0.18859891179091023 -0.09663696013966007 0.39136314912313686 0.016746139271765343 0.2399469574076669 -0.15393182810820574 0.017335540262466382 -0.16859277642805529 -0.33408100222372544 -0.037762642254787815 -0.04833084779505677 -0.3333347959921289 -0.15211062635019773 -0.07341918383436509 -0.01656051310013253 0.11204957240001083 -0.152491571300921 -0.12903834402604156
cabbage -0.09316305873794821 0.12184774302873501 -0.226007591869427 -0.27959272613874814 -0.4507682311353421 0.08559056770957661 -0.20888479347625225 -0.026499933481102578 0.13644989642773186 -0.28491379989412574 0.018073354438600298 -0.2575994754984461 0.09111409657208386 0.2016404623351731 0.01111936405649182 0.2316783865486332 0.08524253739887837 -0.0016459674643991352 0.04547189908971675 0.2436200402171759 -0.3359584153282309 0.02627130655369703 -0.13386011914362161 -0.18412967239392788 -0.15745162377352276 -0.0513454399830445 -0.09955963464494666 -0.21495002343586536 0.02193948055935384 -0.07098766635868417
cabinetry 0.1688580591407568 0.028382499749595544 -0.1121014354113308 -0.14502281923850607 0.18676552074053468 -0.028043713525578613 0.07810287514346488 -0.48645634513369285 -0.20363981892882455 0.34617115278281246 -0.05610602184325923 0.09518789962800245 0.08942432901801119 0.12028307406227053 -0.11973573857775378 -0.2106955606635467 0.05002041523602898 -0.11304662050972264 0.2587490670641674 0.07646714766104638 -0.1200426983111139 -0.12105048834331661 0.15049281584122617 -0.32376018123165456 0.23951763745826238 -0.039060528296845365 0.24507077065609512 0.19562673725777585 0.04607744443208854 -0.0031423276925394974
cake -0.11055303873803622 -0.0029067939682083533 -0.34252718887061406 0.09310707432384058 -0.2669879451134967 0.1308585758920578 -0.06311509302258692 0.38647789618281503 0.10829930789848043 -0.23767653858644752 0.1828503853388351 -0.20976676755801615 -0.002374067748067077 -0.24132880008283963 -0.07925976580967715 0.014601373703738544 0.05423229427941989 -0.12360713723005923 0.24577100198504898 0.3082365667347838 -0.1365730725708538 0.044244294086784826 0.11804363925592946 0.30965411600650045 0.010519004154590627 0.19972768890264975 0.13674902096261607 -0.07664834783880016 -0.18960950504908583 0.07094399095595187
calculator -0.2360298715392653 -0.1620091496448291 0.18648402391953348 0.08118819819915347 0.05265315015939332 0.09205834219754948 -0.15159150947461353 -0.030347662886152278 -0.07202955419507721 -0.18873303117336204 -0.03982593337237163 0.36753152996865673 -0.05960915693300886 0.14712248327598432 -0.08507816844481411 0.02106582090733557 -0.4387008885576408 0.14325573665731103 0.12839657413977398 0.22789400656722433 -0.2541645088719625 0.14218084806721176 0.0007759467224206425 0.007305562096870896 0.0722582746663734 0.01558882368124607 0.12593895890359666 0.03706292342889233 0.4328002058214847 0.2342797935001264
camel 0.24734432314869315 0.2345569583461746 0.0836756252168667 0.07232471968181957 -0.06975493773855691 -0.408839449522711 0.22299414085166094 -0.03541780170366925 0.03390652493638064 0.12796215179776188 0.17212602349084374 -0.12242269891774156 -0.28483860262169325 0.32333711249567737 -0.11651603586193336 -0.027663307413422267 0.07050071740442071 -0.2455305470984267 -0.013467023142695196 0.2711112443157391 0.25440705185022067 0.19072348985191875 0.19373950181947605 -0.1047706957255606 -0.07719489835202319 0.008332868465778218 -0.26375415243963063 -0.04350557602130078 -0.10904482016550596 0.09213182537997232
camera -0.14201103047479688 -0.26947084129483817 0.05523164301721264 0.1995139350213774 0.09146433060908682 0.06117203738241642 0.23688860797862885 0.26312795322281374 -0.022766378436601904 -0.1501477379768801 -0.03479915877598711 0.2770633084003999 -0.13329946256279737 -0.08931807315808178 0.08391986960708822 0.2046834788052185 -0.21311257919613935 0.13110682795071985 -0.40463743291617854 -0.3024230083674058 0.07699816092399739 0.1152120305008097 -0.1758200239661029 0.28550222098887035 0.13141404254290745 0.22589662409391525 0.0393124717549384 0.13471751533968127 0.00521374372930112 0.11719783582356474
canary 0.050927915309251275 0.12465586246929193 -0.0834402541351577 -0.13444692727814317 -0.061770726824888454 -0.029958139595263767 -0.12499513805665863 -0.1460194578398007 0.11741457767629879 0.45208689207666924 0.00018369005385389904 -0.12349756708370072 -0.02976762615696533 -0.37637316654884573 -0.19646530993915332 -0.02020204265874364 -0.45541211755730193 0.04363996465077034 -0.08560652207100429 0.011291995663374946 -0.12521687618017913 0.02939165240710607 -0.24854637278921207 -0.21932611243956832 0.17684150398906404 -0.23390034267659882 0.10084646525503839 -0.17315588966067721 -0.02249324173423505 0.1742869087536698
candle -0.17698760581926667 -0.22247325686854805 -0.07832883516906913 -0.09849043938159963 -0.14132832105594048 0.1360392032705042 0.029571097347815687 -0.06489803930889736 -0.23099137167381217 -0.20356822251449416 -0.006201050366701964 0.1307622284751305 -0.019054293565883326 -0.32336941742607417 0.17265736835170928 0.017216632554153944 -0.19292737064016827 0.2474313928955747 -0.02621726084033278 -0.04961186301027179 -0.41200969841679014 -0.12085028206456745 -0.28560437751537826 0.024353951922428927 0.02241010495689307 -0.18164370965567275 0.34037580508074194 -0.13063178389883953 0.27782652498171606 -0.033017949752344546
candy -0.11357485203876533 0.10026895940731757 0.14301239596530207 -0.02558883604498857 -0.27033212706681764 0.06270059352742591 0.08093947534876988 0.456544093917362 0.21426302541350029 -0.11335887138978 0.2985020715551687 -0.12253727409950631 -0.15550908631120752 -0.3631811860728265 -0.05423164646325622 -0.06208793545503056 0.1379394301070635 -0.16875327815885455 -0.024154616447869648 -0.044776075467235325 0.017912096864394454 -0.12513214661019337 -0.04996167103953288 0.3686999159497697 -0.09289186805378213 -0.08092951255194777 -0.017790036122849504 -0.20543454949135878 -0.1537373354387299 0.22879235389607833
cannon 0.07002720931626383 -0.0343805195814149 0.012585186022906808 0.09126899347716391 0.2659532601377075 -0.06544865819206258 -0.1525557281461647 -0.09019056759518569 -0.017591506712363612 0.059261973893481305 0.057907167571999506 0.3585049313521969 0.132910868660024 0.043850488883786655 0.08535534581620317 0.19239812880051127 -0.18876111639807366 0.27069604469213343 -0.16759131444302788 -0.05488404389494305 0.01965416201282151 0.11936399576086178 -0.5461563054932719 -0.21111535364992157 -0.16953667798840955 -0.012638858618197628 -0.26414144940689444 -0.18131795447668986 -0.054851525285698415 -0.21761779383806854
canoe 0.24212375282045773 -0.14952043841827337 -0.12060037403020508 0.056299698392504406 0.20231284000076843 -0.08734512299714499 -0.33567771998954504 -0.2584458945994886 0.09087884092854759 0.08490734190590675 0.3058100622109142 0.0220765504628662 -0.1067898932576192 0.22219159126122767 0.20913641748982162 -0.30184764050537405 -0.07519646844189116 0.05854407675920524 -0.13307749807008667 0.0295808630502828 0.017380753255307354 -0.20692397269419985 0.1928573865640346 -0.265454676562452 0.05128055333810897 0.2196237893255624 0.028212515489816344 -0.0489387233344337 0.3220738901479646 -0.17871818132122239
cantaloupe -0.12703359737223374 -0.0460385472926038 0.10672843145646747 -0.2314961209001885 -0.11464376115070003 0.08579046530777192 -0.25614573220981757 -0.45106162357447266 -0.2755887800310071 0.27393860511977364 0.05204783478583772 0.007627387898813627 0.14590979859179243 0.07119753755423865 -0.22463339935006274 -0.39977907049709305 -0.08418696413083032 0.14376652201017773 0.3108385979373329 -0.05329904565039735 0.05335135357549227 -0.19671224741502197 0.02239772790332708 -0.10620721258412666 0.02533271758417221 -0.1122064942266361 -0.05893064186629462 0.058377244159281645 0.015686737917359438 -0.1894460138549611
car 0.13952759973362872 0.03194430027446113 -0.017800907971127388 0.18808181176216407 0.07208500757640114 -0.17084628775541624 0.27815727678800356 0.2567409014216212 0.05743405162854086 0.1485465338624454 -0.03249545271142695 -0.0712086393351843 -0.05010056817844294 0.04466525418417526 0.27522029075130494 0.2358304615231011 0.11198457791567525 0.09353231506099911 -0.4915448727230191 -0.32589891853800085 0.2332642480906639 -0.025172522564812505 -0.05169446659814174 0.18421926105937303 -0.1101802783780233 0.2671687928133396 0.14362513220819545 -0.1425999404529524 0.0968295498272176 0.06450759899277675
carnivore 0.037944954739044114 0.23677381063149966 -0.020769380419439924 0.072532134349527 0.201312284352781 0.24914539735275362 -0.10850562325059125 -0.31984994690509133 0.005727337955586341 -0.07118042833923115 -0.16278361976066652 -0.01907827079216837 0.15210774097824137 -0.022144909804768693 -0.1935460223521624 -0.17469838289110382 -0.05860412613679395 -0.06275514816770877 0.1547611477551095 0.4108156946135402 0.033830339298444145 0.09112172306396857 -0.0963931257691483 -0.26338806512826934 0.4120995885056282 -0.13253822894841102 0.2418302718690799 0.1725914353935745 0.13251330044704052 0.12301264926561611
carrot -0.21893089425847934 -0.047251716247315424 -0.17496414883987274 -0.13347621996195952 -0.4803827182485147 0.35770721863867955 -0.13004021531728974 0.1716614999451307 -0.017317910175945167 -0.21210745681020451 -0.04007601571964217 -0.009445390420630532 0.15024918881422422 0.12260416847664969 -0.043635741500654135 0.15703440823514045 -0.04358719721755762 0.012660883337964056 0.07934261923276696 0.4026300464341671 -0.29530530843268704 0.1466342937939215 0.044790476522073235 0.1960864420318997 -0.051288305065093444 0.031657496684583085 -0.23986611012750536 -0.05316228865599874 -0.03895532772015949 -0.0033367544402804214
cart 0.3486108044829346 0.009399685338298729 0.021420952313514006 0.01835443546714899 -0.08347098149776447 -0.33159150150363303 0.12086403448582628 0.323186594977778 0.1472194457434541 0.0017124038694748686 -0.07864871099168311 -0.2551922169282897 -0.08337247789164808 0.374150910822708 0.07471066722168505 0.03235942988942376 0.21020239353873332 -0.10520848977622334 -0.12849391990431513 0.2122966653749716 0.2494242885612098 0.04330840229364012 0.3210614554393769 -0.06325651373251814 -0.06714447896628602 0.18247419065505152 -0.07753854509220484 -0.09287080901052756 0.12413885447455575 0.19798237166397745
castle 0.09125094252639367 -0.13883749722743446 -0.31867412022680575 0.1846698448081178 -0.1347018359635945 -0.30905185943616875 0.02109383183719167 0.06820331030070133 0.17881686991860693 0.3560368974372254 -0.05486799991289652 -0.1178985844948552 -0.09286863797645588 -0.1176174406500274 0.13775925372005865 -0.044545296695680116 -0.371890641313979 0.3930966450151761 -0.04196952948235507 -0.0666057489598658 0.033328403854659794 0.10558542400947848 -0.30025502963574663 0.08415038404039277 -0.1959805987097524 -0.11279080813396443 -0.06394152459045077 -0.15996413197873346 0.09743902974469171 0.009889292813184574
cat 0.0076508351248626896 0.15255356525833108 -0.1192755528512159 0.2141365250495845 0.014647246553296639 0.017778511166762778 0.2005030118733211 0.29670010321096674 0.18283795458903598 0.20688446099582275 -0.18332971053187133 -0.22101286555399036 -0.15205125734440925 0.06631388213461904 0.04690648950576547 0.1993478256747911 -0.027928157325978427 -0.1610214151971062 -0.09873956648015625 -0.3043057795259682 -0.036616498962397416 0.3160604932996328 0.03720316444327127 0.09034502597210074 0.15718677273760642 0.08386691698879849 -0.13157183278069143 0.07611438710035703 -0.48840202342918343 0.16265661396103495
caterpillar 0.25053939678288717 0.004915281249768772 -0.24822268488499502 -0.13747542425701637 0.1529270426102247 0.16059830494395783 0.12533123663110166 -0.029184530008328873 -0.05982414328905225 -0.045603424778351935 -0.15371076588330312 0.03436675921935463 -0.010210143184295993 0.04883211326853769 0.21333217497055176 0.19220516905991855 0.16433220439209975 -0.19461291716293075 0.05965341235513326 0.09713844797247703 -0.40556246271894886 -0.007800458833073179 0.14121015906703127 -0.49798898235396877 0.21019056717762888 0.09960451593294839 0.30999874900020485 -0.12011079793700735 -0.0238404043592965 -0.0008464766834341211
cattle 0.30774752802705363 0.07532064449034336 -0.22876499983311652 -0.006363001127678604 0.12310297492250753 -0.43408021837029 0.0739518215743712 -0.09597516357366481 -0.0038923818412079365 0.24417916828709568 -0.03930691687741123 -0.28573138001077514 -0.1924573215798361 0.30359162200373224 -0.06875689787490205 0.06859886562367457 -0.02728742553568071 -0.07108392452837066 0.17231792441112406 0.38076474275154276 0.07862782087618767 0.14305629952272475 0.0018559179944270382 0.1258885714282733 -0.00827651042252105 0.1282247700356903 -0.21595056305999155 -0.17041017300474393 -0.1411365754315403 0.11154104723909257
cello -0.11610348503937759 0.07681427743149571 0.3544532267976868 0.1841413921158269 -0.04485188491167946 -0.14854755143533116 -0.19695741276269907 -0.06356059858891187 -0.03776565622362567 -0.06805192666001338 0.020046255644744437 0.06496509274321291 0.02933952381309304 0.14417850481718866 0.10261913639899001 -0.4163862399989439 -0.019251135130249977 0.01680911389208689 0.14621590384186273 0.19310498279369076 0.18955068418288742 -0.19964089088245038 0.007009343906161174 0.2612201139765535 0.3180055973351514 -0.06954328130260728 -0.19665327875036612 0.38818946732824344 0.09605960914688993 -0.17314839961746814
centipede 0.013456745389714527 -0.0948582919904467 0.08934013683785594 -0.2790139292072883 -0.19234833118360467 -0.05296923880527148 -0.4389777941319657 -0.20711075770901996 0.1371482190936888 0.24951154230967457 0.07816986820746637 0.23860591953404053 -0.051234033562012025 0.2907377700108772 -0.12279951720281175 -0.08840288142311792 -0.27755216671289673 -0.05738035919112791 0.08521446030959867 0.06218799987685509 -0.08154112361650527 -0.20883644861374315 0.017461590778845466 -0.25949738820872215 0.031241608529121397 -0.2646519639365094 -0.2596382510361349 -0.07238911248791906 0.016400063631387834 -0.14877217321487501
chainsaw 0.026533862177877947 -0.2867443921248255 -0.00922429448821237 -0.31436365556257445 0.03410649476675267 0.03706627223367888 -0.0028378789558427663 -0.32021508801977266 -0.007577299356595463 -0.024492751097066796 -0.1338237672814049 0.24268996830462006 0.14264384622181647 0.21010430962941254 -0.18031748632872785 -0.1657336837538661 0.2887728102091277 -0.04724732004584517 0.14303994352438312 0.019156377923052064 0.121314293782651 -0.3713555640019379 -0.05482224977965076 0.09926013384207649 -0.016854040850526348 -0.3577190821687635 -0.007072572448009244 0.32483724697458805 0.07028560778563736 0.021381754951136284
chair -0.06059734260364317 -0.36258335807237596 -0.1085972704139838 0.2871454458486244 0.15509541856997125 -0.10467404942337769 0.09755808590112815 0.19758733668234973 0.1486892247657027 -0.21063650369419834 -0.07576494142001523 0.10735601905644446 -0.15797239946299363 0.09537520462958755 0.4180521503750912 -0.16755025646520172 0.010307215592789085 0.23624892586249316 0.04272138928421102 -0.16555284035646384 0.061958027442249486 -0.21699419355493688 -0.09255431997238028 0.1121205034493418 0.0914342747744163 0.11597324159723038 0.34067471999972065 0.10517729028965005 0.15370842647691543 0.19141099330215017
cheese 0.04652931031763799 0.01396317027921764 -0.12279710306378787 -0.11689276174223905 -0.2562422148011034 -0.21931783440818065 0.012663242699137829 0.33015267955093996 0.030105369952083037 -0.29412885787327087 0.2143893264789834 -0.17357959778703133 -0.15406962837328736 0.08142642743778661 -0.17705201419377212 0.2349846132596311 0.09707538597206906 -0.12293406139070753 0.17417455176012103 0.34603084508392473 0.16941890259163345 0.012814815084281261 -0.11486121145206346 0.19219455958900372 -0.049497019984852925 0.22940675095704288 -0.02144698646663778 -0.30323132620490945 -0.23920884283181693 0.08493983398853158
cheetah -0.08226572071397793 0.4141928362007759 0.29169946617865344 0.1912229890817431 0.14522480130271934 0.21682006788765368 0.1032499697583661 -0.09539292519388529 0.010099245368291038 0.28600279515229404 -0.18782936541649736 -0.03450381161417638 -0.07210143574541744 0.0689642320546017 -0.14090761226299772 -0.17940922139614982 0.03461423263473783 -0.26548768196734174 -0.10351166839795893 -0.04832395440679013 -0.07197056512662568 0.13327134722239312 0.25552583134933077 -0.053593862965362324 0.06526320070152168 -0.3148636877219648 0.018004213616796487 0.2503898355931032 0.025245107442017814 0.2981601966457785
chicken -0.07025206338131626 0.10192067334837054 -0.14347429739563725 -0.10660155816060951 -0.2017123370526959 -0.202861093213162 0.003140896172625264 0.14531285642094036 -0.178754228451746 -0.10115150250895084 0.2366322387087675 -0.10674606958546297 -0.024340862268903175 -0.0023827059984951335 -0.01898594909660009 0.3432728867934936 -0.03460226859792197 -0.020574563843155175 0.2266907847706575 0.03069442819909941 -0.11650335973922624 0.14462514484305117 -0.09542189869044156 0.08786210944577455 -0.009704876186111119 0.38597203906200034 -0.02586081466429103 -0.25947814283037957 -0.5459147627854659 0.03220976610697417
chime 0.0738355649966989 -0.2450622532676528 0.09007428341255286 -0.5589984122752643 -0.13192096409775808 -0.22905965297965897 -0.01738998491163488 -0.3088528502184928 -0.028818593405063094 0.2246149984933768 -0.05203048377595398 0.08310501410026103 -0.019936082187720156 -0.13880702163172698 -0.008681886971563338 0.13021319477263424 -0.31559338004990645 0.22519261576877556 0.15946848143233594 0.07622153673562941 -0.15183224536229986 -0.22870306039305255 -0.09964467732406883 -0.10893113287447187 0.18058701504269725 -0.06523182660725209 -0.02307366467778086 -0.08119444146793953 0.16499191361536938 0.02874292256979977
chisel 0.1095968229898184 -0.2665124202890817 -0.05936400623930211 -0.31188558423920526 -0.047403109161137 0.09929356953934597 0.09610763643713037 -0.18443069919038999 0.12717641440044095 -0.14977842197498006 -0.044549163208209015 0.47312403544205306 -0.03385377813839124 0.19005494603540846 -0.2816189584938178 0.040855281604485254 -0.029612498225064794 -0.03742459339939646 0.07896524619696592 -0.031369233718120865 -0.06528714564842612 -0.2395004986106438 0.0520572749153928 -0.17753391085762488 -0.16980689100292293 -0.21247628507421493 -0.08818040856787121 0.30521900488719 0.29251994179640683 0.11086125593552829
chopsticks -0.31242577461209253 -0.046156593294205066 0.25565277696075966 -0.05926358965613587 0.23594076140425022 0.1346982269861615 -0.003990193634951544 -0.06644109800662949 -0.021500195332175075 -0.30828293605575785 -0.21367904574949917 -0.12503790169830498 -0.06868625351397269 0.05031901519052942 -0.060667939801834554 -0.09319203733357304 0.11803813741046941 -0.05803298903213897 0.31513173030947755 0.20513317020480024 -0.14848871767020813 -0.09463960515010192 0.22694243114851204 -0.09550275478007107 0.03733849387522419 0.08351767948338348 0.3693313434215927 0.03893602015189891 0.38768334815214567 0.17271657485439956
clock 0.04496415111510047 -0.25107457068420286 -0.011460379534629776 0.03533158137067864 -0.147565059722741 -0.18812072943770713 -0.09802481851230063 0.19729502710241645 -0.028476912288877592 0.22276643944446886 -0.10109779788152366 0.18755912297210287 -0.05031107618410982 -0.07022141249901996 0.25177041436278524 0.18016533907723534 -0.4645892736845696 0.4329093853490461 -0.06127968177835395 -0.07897738806156561 -0.226169040286094 0.1303833269164561 -0.18207415793471332 0.14133768573813124 0.08877642578125089 0.1148669702649838 -0.05951018771400243 -0.18466903608695864 0.1252238804742076 -0.1406733565788189
closet 0.01011699866421322 -0.04415170399002844 -0.09801880326964156 -0.268570852617805 -0.02995019039847948 -0.11915439957386251 0.41749850490660645 -0.2080211831455904 0.09159152300756795 0.2295757808006224 0.02071899018716125 0.06748349211634026 -0.21309330595469306 -0.2990452887057734 -0.12332488853833287 0.1130181665141946 0.02570882829091674 0.1627796165775695 0.23114040070077654 -0.1966525456420655 -0.104535271356532 -0.23815659240643455 -0.06102365556416157 -0.052184829370020974 0.05323098167411247 0.03552551136939526 0.4811095670363509 0.07388212722923569 0.07782921360312638 0.11922032457126926
clothing -0.10049697586631798 0.04036682099442302 -0.25936388759099055 0.10798641359199597 0.29634672695708775 0.17430254155427458 0.2939212930300084 0.05425369279308606 0.07994164296115931 0.09213966830529503 -0.2692194101373236 -0.19666736230907472 0.06575367467287463 -0.11756102757796265 0.03934453826585939 0.0771299201392768 0.260943269130001 -0.006329332894335018 0.29267152844628364 -0.08785025087738348 0.18790429550946544 -0.04135673817121076 0.06668084495078734 0.16276748242047007 0.10257958121408711 0.25419886119981344 0.32863780884972427 -0.06158013504594845 -0.2690697009891382 0.24764630411094993
coat -0.03540089063290688 -0.00617651578062161 -0.27812774695505893 0.09492422027977618 -0.16660037759659455 0.04212657980967593 0.3112934004876627 -0.07893745395503278 0.03565469287291471 0.30513931122709875 -0.24167903057450232 -0.38310568912247084 0.07582387907645745 0.057441786429329254 -0.15385183211385864 -0.06764346276641933 0.17972856200906073 0.2336313301056377 0.16670951035445658 -0.25703995443832156 0.2614572871381365 0.2979949664449972 0.1799783746209628 0.07452678300779031 -0.10661632572180593 0.0870937510864199 0.06801803016373115 0.12545853737247972 -0.11368749199908992 -0.12134464410239729
cocktail -0.11271498083771253 -0.20534005024271873 0.045519875392972364 -0.15646228385752534 0.3898842391503082 0.26304353916074713 -0.021524619991546895 -0.05452456798729286 -0.2170076567618557 0.04819532831261005 -0.07350039335456261 -0.1728157608292462 0.0611447335096006 -0.03600351279482811 -0.0411497921745843 -0.1823090375300379 0.3670025345014538 -0.14006437914958134 0.36201134891379644 0.041427344121455566 -0.03054562391262924 -0.16408479258537564 -0.04227553395947414 0.3080420133069157 -0.1679106842037007 0.10625559728785386 -0.12008294246012957 -0.2711780878229782 -0.14362837724605493 -0.0980336290251902
coconut 0.19217813124744973 0.10244329226933355 -0.08966865251431735 -0.08457550743183531 -0.18627334807565005 -0.04547908419064792 -0.29732786513664466 0.185720252657327 -0.004607081724879718 -0.10265206029163892 0.349545214038283 -0.3626157263649186 0.07869895780999087 -0.2843589884511973 0.06478354750615455 -0.11284004108710517 0.2436465111281189 -0.1807646296133494 0.04280156860466113 0.1838114596385952 0.008043001070719863 -0.0872631243802418 0.28263112532689355 0.22162852651155085 0.0032889605766791715 0.0756828298369566 0.06691772339975052 -0.3042223265542839 -0.1529161531837885 -0.13789374333424012
coffee -0.09533223865403992 -0.17437881612663714 -0.2521026616011154 0.10214408295474703 0.07480548608574634 0.04283668966404454 -0.1458759105059381 0.22060301099979507 0.1959072953553563 -0.06597665282053701 0.05699010292569008 -0.1837532478700369 -0.15405147085134663 -0.09907425673024291 0.2578009328746219 -0.06312486644278399 0.07250362127657961 0.06851812931614609 0.3271694332805765 0.3072526216644598 -0.022294231536689666 -0.14755157381323888 -0.032826208068788734 0.3969492467548468 -0.06980658487597412 0.15278383966695439 0.08082622641255799 -0.42277021655530084 -0.11607489305951332 0.07830463672808961
coffeemaker -0.014024783621110874 -0.18528776992166593 0.13374959245529613 -0.17120157345269768 -0.1000990591356212 0.10257737100821213 -0.194474786679264 0.002443611319203257 -0.15017964113971827 0.12464438712558784 0.014677966495105246 0.1966277542441802 -0.08440020605707654 0.05226710181689673 -0.18945454425192385 -0.5152518964796253 -0.00016727156946804895 0.06955215847308087 0.4017115522594848 0.1608746280315866 -0.17241620082913098 -0.20062020291559024 0.12245560409384797 -0.2314465270682961 0.05306548017338532 -0.3269123959542452 -0.05617375442838145 0.05015040610173213 0.10536976960149055 -0.12088685501981966
coin -0.363292869764283 -0.021950851731079482 -0.13422965608821788 0.33670358215702717 -0.03522763646625907 0.26542559555420425 -0.010103217856105658 0.07747257294498593 -0.059397231557154075 0.12377146095798103 -0.14931514142703173 -0.13367727030377521 0.02132851830674073 -0.12244750578145046 -0.1614093153554272 -0.10469062774996754 -0.20149199300385004 0.36487302961539586 -0.11561277068972056 -0.12288086886408485 -0.10112626163362665 0.4863400895988318 -0.037690700601034896 -0.18182305058830675 -0.04024480811734093 0.06709277909685045 0.21002859834962298 0.007605898890712498 0.04376321522818411 -0.10603291150371764
container 0.13081702450202065 0.05671289502467349 0.07562408940929491 0.004200558241270976 0.34190809120258686 0.11329024292134672 -0.06359284859654947 0.11516872437954503 -0.013574160245558837 -0.02576157400058329 0.09385273133026849 0.11272062875534188 0.09362106601798266 -0.23276472645198729 0.17379593875200036 0.24278687665481297 0.09593222309817938 -0.10332107022198375 -0.23609328827757364 0.10572330103877309 0.20436995918069262 -0.18474487433037826 -0.3340100004294688 0.09787733883252335 -0.05374655400792906 0.07652917772148785 0.0961157236878273 -0.5918147393062081 0.009039050257801759 -0.016931368119748713
cookie -0.25341036093793623 0.06820548918835982 0.11251031088957923 0.01031628594194702 -0.3317500266270512 0.16395104893894372 0.1044474519241792 0.1760918696730011 0.13678697454271319 0.07122449781815259 0.30362454562501784 -0.0890724073857957 -0.23097209250990977 -0.16028875715000615 -0.31258343025538327 -0.2385098269559153 -0.0527260722319568 -0.19882155562690143 0.2065506122339659 0.2068064002958042 0.010926085243511168 0.08227838988176808 0.1560882801067129 0.13596842757975144 0.2695676476984774 0.20646841550462122 0.11429021213569465 0.033468997292208626 -0.19069524857506065 0.19658066098344662
cosmetics -0.019734225338056705 0.13042013671207534 -0.11827821416836104 -0.08357685653520337 0.2762324130104881 0.2298500152261563 0.16964580464109896 -0.07127926416589285 0.1990889747560052 -0.0820559135080106 -0.14655129895070476 -0.06346228394877179 0.052075035164075634 -0.256327117722245 -0.10787937808135513 0.004601390484823193 0.21298004972193715 -0.2866834984997269 0.24629744313049137 0.12141313905862604 0.07861239908292621 -0.24615938544642132 -0.07190240521385709 0.1954791870970754 0.12904318545741153 -0.14877377657904886 0.26475839828396475 -0.03375248402034471 -0.09498487981166905 0.46317325125702863
couch -0.3300873715677435 -0.06817505375888501 0.05165481822617511 -0.09319303936279374 -0.28968274406586964 0.10378983875970889 0.08591979922563851 -0.1553267090192887 -0.12058833312378259 -0.40537794743393935 0.1042662742837229 -0.054040875506323964 -0.06114740432399267 0.04326194648990702 0.13667777738322662 0.04363287224705509 -0.087468612451498 0.2771924893553584 0.025818095826027863 0.06583333463924747 -0.09240716924817963 -0.17461064083904232 -0.00376990540538661 0.18757070013815547 -0.07062543591800934 0.21927969695093924 0.31153054359077814 0.08115675797332877 0.32982340265135784 0.31745794032618013
countertop -0.18700173757372263 -0.06248436911507965 0.4124938804592419 -0.3065033551523292 0.0625990435048604 0.31534655927775107 0.017774272447970144 -0.22545471628639466 -0.10918376100233855 -0.2605938483303606 0.10795960548376689 0.1825337318707117 -0.19679226612205192 -0.07383422485350405 -0.3559946185905789 -0.10142412086471227 -0.08842945200353662 -0.05611398476480003 0.11290838968153975 0.09788908116040733 0.09126987383634609 -0.08134328306170228 0.15668149771202658 -0.19133383753660582 0.21528281516521947 0.012184570954101203 0.053569946992511754 0.012828197348109992 0.26399671993139423 0.08884395165639329
crab 0.29832645981794037 0.14820453938752629 -0.046178359433295346 -0.1301561822095074 -0.03441821427408963 -0.0666472454846069 -0.22531086857596366 0.18589778090355155 -0.12402577914770761 -0.24535957744273906 0.2449973977070066 -0.041871679675774987 0.30550444017027406 -0.20025566064959108 0.026322090433271758 0.12027424210502623 0.20720432465965116 -0.21330691703504842 -0.009450287365692513 -0.23059003565726366 -0.16560441813615434 -0.10430057826930358 0.3652425277960103 -0.011668864397273031 0.0762141201764041 0.2117717532685534 0.019783487521080598 0.2193067346986869 -0.2623985100158015 -0.10736575881159098
cream 0.006014206156971683 -0.0108481529910601 -0.055203817250630394 -0.0011143338435306068 -0.3334408626361571 -0.12331108268038588 0.07874626889213295 0.305404965091234 0.03682965726510263 -0.16356135297831237 0.25306453589180533 -0.2593319908999014 -0.042856943726739906 -0.20067041940944713 0.009856983332502931 0.048856002026300624 0.1760621440383935 -0.01072294458612528 0.0656253417263618 0.2137161544035522 0.35263354954214154 0.002671715131014041 0.011499933561826202 0.4128823240293946 0.06574151799832118 0.2103063876144965 0.10425288935050038 -0.31720334455353627 -0.16901770630589857 -0.04777846485919058
crocodile 0.08403204636156661 0.34627129198345 -0.06925558400249379 0.23607083153758465 -0.1097819116710492 0.07844299551141531 -0.08265332879889369 -0.039149375018678385 -0.02739200321762747 -0.0018895941364906678 0.06766108496943768 0.02045193266172476 0.012785899533508319 0.1255728786004857 -0.16311592379186576 -0.01731578633916292 -0.1547812716649437 -0.36320631738208126 -0.26746779956456573 -0.05536200790181828 -0.1516022885577494 0.31200265436734287 0.2463486469804063 -0.3755050833382384 -0.11875088232713368 -0.2878752010304793 -0.08385955867332248 0.21993754534318724 -0.10001786091513645 0.14989118857910239
croissant -0.014960203637822743 0.04939534055128904 0.1200597257269767 -0.06499781970720567 0.11415571366059249 0.3655520502049126 -0.05541582041918876 -0.252998432773287 -0.02807512836419584 0.12736676000613512 -0.05629598391697343 0.22886480784295807 0.06644426755591452 -0.027838409804458574 -0.4026233687682167 -0.2568049373527585 -0.15331759797905498 -0.1596793931047804 0.00777137062801539 0.24184290089209673 0.010731475289749945 0.018892443860710297 0.09738180638136948 -0.36218742485382177 0.25468546546859683 -0.11619667170385718 0.11415951720395313 0.2207967544537996 0.2492219922511122 0.09058902072124894
crown 0.0036133769219839663 -0.3349962842247902 -0.2943728605612342 0.25371010698488156 -0.009601175241918298 -0.07501401641849001 0.10537958243131859 0.18623286519295568 0.1754579287240085 0.23514467255639743 -0.1845536457053156 -0.3052221437166912 -0.04620902049879978 -0.08441490972097523 0.13092648427442188 -0.20140635039560212 -0.09630999219275996 0.34689296353757304 -0.15981574664073678 -0.24177355379858295 0.14969424656509125 0.26214970339391547 0.04965420992218876 0.05480158755857877 -0.15232648659560635 -0.01327084969100224 0.04339350786761705 -0.06936517061502274 0.24624079843088392 -0.06366121811624322
crutch -0.0840665838209812 -0.08165919973685103 0.24652389845884767 -0.4608230391024046 -0.17074935600297728 0.21556457139699958 -0.09772712148353853 -0.3350740913463284 -0.12049680661709831 -0.019371621959945465 0.10756144073088932 0.17956783723934977 0.03002162194161116 0.02088038510858351 -0.35892837166969144 -0.16628748939233925 -0.030200569899823535 -0.17369773628503724 -0.015270297728928047 0.1768593886350059 -0.06480341988608447 -0.2631520677101592 0.07303284189185263 -0.21136954564981347 -0.02958864627362308 -0.12105429382996548 -0.08772430065815855 0.09811135441998944 0.28185461992026833 -0.028437153723342056
cucumber -0.04893261727347969 -0.05176282003755626 -0.2060717596034932 -0.2799486320476863 -0.43745462645978783 -0.058048821462292594 -0.3031703826207101 -0.21410889590404297 -0.047054131209900554 0.055725030702061126 0.16968662293974793 -0.16811594248226003 0.11902174081510257 -0.004502154257165694 -0.11621820237101935 0.053623076239910715 -0.14544687666543013 0.2153871316666371 -0.0015133263993420598 0.12419277840897268 -0.185575742395492 -0.03324620264327683 -0.31486476957682574 -0.05468616509225002 -0.25367920832132074 -0.049080541345749594 -0.12660006267508697 -0.19919318387664608 0.05911156211736589 -0.31944545042707156
cupboard -0.012683139488291296 -0.24286452216019477 -0.014887350152630305 -0.36298892845651265 -0.09521917271512849 -0.07840948160469632 -0.04700045843518338 -0.2099559177699477 0.19276291069564644 0.05963737360014007 0.16897639497496936 0.08032302680359169 -0.1062301273558276 -0.1954383346367842 0.00932340528160904 -0.13273541599176386 0.0762942765877015 0.2711904934452143 0.12966739235135555 -0.1388529176192037 -0.06971951617421746 -0.42686760640754157 -0.1629406279746448 -0.16224821564319847 0.2430306098201692 -0.09627630707219241 0.3877994329410601 0.02733513427340921 0.14499410968764256 -0.0925233556148974
curtain 0.04788578527122408 -0.33004394911839763 -0.1558764503881119 -0.3041234374067284 -0.1097241004551671 -0.11434947236888686 -0.043280895542164494 -0.22162825191462876 0.12286057814994707 0.08927535745059392 0.1589040712856871 0.11542847476054495 -0.030611773079842704 -0.3083451959367571 0.13752793021249388 -0.026441719806431476 -0.19886293769777497 0.3558912875075796 0.07087644200835241 -0.21075795709918943 0.049008910423087824 -0.38103933189512773 -0.23765668442667992 -0.0618408664640768 0.041360539540328076 -0.014834799672791726 0.13637784600537595 -0.13238929940265 0.17880324913595652 -0.1582499644165413
dagger -0.05913325890698594 -0.33974868442096107 -0.1218385419547129 -0.1941872411327561 0.07651585525742907 0.01429631647971431 0.04598485439600432 -0.2724953868247437 0.09393886590936697 -0.2382837571008126 -0.09605890630459558 0.029215970038933933 0.17114389173084021 -0.018123387041026277 -0.23781928243016703 -0.08375106143002746 0.035831201882604136 0.07127239910555065 -0.033342996461750735 -0.15481609340936417 0.04253673002616168 -0.05677006628778752 -0.15671207670589768 -0.19635201792551168 -0.3913302009045097 -0.2323272174088011 -0.17531834573291824 0.36940359092519354 0.31340542829172124 -0.07138347620616946
deer 0.14423355811735256 0.12104950470913325 0.018422368619568953 0.04714984759109684 -0.0041569692384828645 -0.1824898981194682 0.06099132516710052 0.2052979133654827 0.025635972157751093 0.2526317664748692 -0.2549613803138077 -0.1575050244312695 -0.10264051022397108 0.35447865913527254 -0.01775918751738041 0.10145756584294884 -0.07417155431179011 -0.06878255361217982 0.05833850342879385 0.06734258355787628 -0.23261874088277895 0.3695829711504662 0.09233710963005007 -0.10313839924323707 -0.015769320568952784 0.04889987411267731 -0.5044642445358091 0.03331857278433036 -0.2997509362881915 0.07469361063648292
desk -0.19167549174655849 -0.24633320635319494 0.05199000615408046 0.14501267141732982 -0.04062261179354626 0.10890601030063361 0.11737455542313112 0.1307030916636565 0.08889793174273679 -0.20722110716744918 -0.0700212793598271 0.23774567097547358 -0.24044558535129382 0.013541251107012403 0.15485158153757964 -0.03618857123962547 -0.09816845454250905 0.13145266910346604 -0.01644619520095123 -0.058000925488119304 -0.24343420471911278 -0.1886158270325351 -0.07261566884516178 0.23711325200729003 -0.029641803356436236 -0.011879901523073897 0.47831785171958296 0.10089635619099992 0.3472192855222353 0.3024732436201611
dessert -0.020122752711329118 -0.04007865338899031 -0.02564502236365698 -0.08831924398040476 -0.1334941340258705 0.10675509901774245 -0.09387393323315756 0.360617106839149 -0.08443839047748783 -0.2799499341772533 0.11794764276424846 -0.18327514879027765 0.023227909628464705 -0.20500592866892187 -0.20755945773767598 -0.1468215407238642 0.19623194408835556 -0.05439064569827477 0.2869429078842148 0.4805438632163323 0.08314574701992523 -0.1074071803790044 0.08308323166811397 0.21989987606573694 0.07452680188451943 0.08938137356505083 0.21724588352617033 -0.2721361377633625 0.030702040360401566 0.13067694995777684
diaper 0.18066131419872272 0.13216327672035563 0.19898789604590564 -0.10095550226919775 -0.10540136799831276 -0.3570432960688365 0.15373071962120632 -0.1483575159490017 0.07704173859947772 -0.05270038015706961 0.1183756644612312 -0.10367348733015423 -0.3346889061051949 0.30548990411287547 -0.35259353507182084 -0.1825946804069174 0.03423902509984261 -0.18465785026515408 0.1874124012711326 0.21279122390196825 0.1759216819423801 0.023535013387915412 0.10080632430030287 -0.16664953602551769 0.05260389178716562 -0.08676011484251911 -0.18102205506534816 0.28804388100622746 0.04605521148462525 0.07830357183477542
dice -0.17077673944929478 -0.12251653504832392 0.00629173946281561 0.26959503254970646 -0.05139790612961578 -0.003826556423698374 -0.03908240676262803 0.08901705572599311 -0.26656609656254854 -0.08005269479398705 0.08017010862075626 0.2551090643951504 -0.08658922012935089 -0.07281015827558439 -0.2749615478088047 -0.16069778272748927 -0.4063381766158255 0.1546576155313126 -0.16975556563406552 0.15340006916934934 -0.09727239968304033 0.27428846646480176 0.001985624763667668 -0.30118649906599865 -0.06374126104278892 -0.08242691615616245 0.27544088695415236 0.13409780163178522 0.27953885424955505 0.09030350634072348
dinosaur 0.16393898783233965 0.04663552884444372 -0.1118411880292606 0.07079777508800415 -0.3458024604358974 -0.371322072861816 -0.10361202838815657 -0.04549459542250413 -0.25749753233919925 -0.060355189996217945 0.25241285887863485 -0.06097540274554214 -0.021729502516392975 0.05154282197840239 0.15311558963935037 -0.053572443071924616 -0.15156705136107085 0.11637521242217634 -0.2482788158780686 0.16161864353185104 -0.2866694191045512 0.15858779084757316 -0.055761363086307004 -0.23504458480648985 0.1556678297176755 0.0647901138001284 -0.1011843135967757 0.2412496339919793 -0.11967645889266544 -0.33939156837000956
dishwasher 0.014523158668499929 0.2881587865137406 0.052849653192191225 -0.3182651760600779 -0.007908314955939022 0.11210415171031861 0.024329267727879723 -0.4832844990896793 0.0776053459847395 0.028499465282426358 0.11322876255351746 -0.00466216193381318 -0.006225963575264752 -0.0058550236515924415 -0.2961212423142418 0.011977758324446896 0.052720552755231284 -0.10885505715409506 0.014895498779857899 0.09727968709002179 0.028505002947012116 -0.19795490952522116 0.008396148493193365 -0.43679723593464614 0.1608490821335069 -0.05787275957376799 0.32103054704932465 0.07355041004869846 0.23205417838157794 0.10762940268397342
dog 0.00784017312694984 0.20108447065577986 -0.169601734870573 0.28550703840105723 0.006727352945762112 -0.33690455783245304 0.23995262864216632 0.161535619600188 0.19913889243652833 0.11132372471738282 -0.01910972505245675 -0.33170909778861946 -0.20434387233576445 0.16263940731097 0.018283565374506507 0.22518139070370316 -0.09598337164393471 -0.05440820079957553 -0.0019498746108521253 -0.17631892455014958 0.1522382082525519 0.2736540838402596 -0.009110174970784339 0.06353395441441172 -0.08225456563115635 0.29361979417463174 -0.06024006806975414 0.094561150537808 -0.2982340728290071 0.17426613037916658
doll 0.005899339508024113 -0.023433710676107042 -0.08731283351280082 -0.04692356164637759 0.08693115319381697 -0.09482043080762866 0.3373776293623236 0.046182837800708615 0.05293568012372223 0.2011262330204002 0.03335987454362042 0.03711024085028894 -0.1178311496070096 0.01126058482363323 -0.08376075483878719 -0.10984022003502313 0.1821045066499098 -0.05331431433692814 0.2556816562653519 -0.29017200737213017 0.020031784864716524 -0.23583833889041736 -0.18299576389434408 0.3229070222744498 0.17923304739554158 0.18294491957674466 -0.13495607800518666 0.4153818964224147 -0.37245775672734255 0.06182356519018341
dolphin 0.029864190430271147 0.3192984970618292 -0.11052071563887661 0.3444660401838799 0.22719517728740338 -0.0751996237012416 -0.21908265977865313 -0.2573992431001731 -0.21943655044406282 -0.07977564926621387 0.11878881537538351 0.13023954520572933 0.07504996755926092 0.16902865991984567 -0.06588687924271845 0.07642154901784041 -0.28442242314999355 -0.09569632305176393 0.17663981071032456 -0.03928787343733853 -0.06565480323491463 0.27650152683223106 0.22000142097098532 -0.25545241540540825 -0.21829614769211655 0.16567707126262002 -0.08725092613462461 0.15112076391099658 0.022256570591990262 -0.20376295910970654
door 0.044682429263295215 -0.099631423356983 -0.10470551127973707 -0.03839782253974577 0.0757489647050093 -0.24384074156289987 0.3512694905325013 0.13545580846336938 0.2804054456844514 0.18107326482495698 0.0060498031432090395 0.04216568475990683 -0.1894565070610351 -0.14943992284373614 0.17535167577358968 0.24401952515492972 0.04292185936943064 0.2640874687892808 -0.06861157129528182 -0.3793077800668319 0.0904318457870936 -0.2245965296296172 -0.2763559822777507 0.0956829367896286 0.002036099054644292 0.20230446142254946 0.2906769468679551 -0.09332402095453629 0.03094918172329359 0.08687917136430488
doughnut 0.3134022488370748 0.1023409944259553 -0.2093371796945994 -0.13651893582128383 -0.08508828105292837 0.1011939074351683 0.04374286759974503 -0.17203840356539457 0.0003053564406644744 -0.18980310890449154 0.24760985774404615 -0.20465781355834284 0.06087810731479136 -0.1992930137869521 -0.05077647783798647 -0.1512448361776819 0.07129137236341074 -0.2386894034759681 0.09423688922957202 0.29434403643400747 0.14516216844151236 -0.181893858432487 0.401945152073433 0.010058237323951719 0.08555024724008939 0.0797592822567816 0.20636252880661446 0.019047784656788167 0.24592038624626375 0.28505931873277934
dragonfly -0.2131233491768152 0.02253142890501265 0.20391252823800746 -0.17072729064392583 0.12627741458865535 0.3907352206492716 -0.16166566270322627 -0.3913103156324276 -0.03472319409198386 0.05797188843209944 -0.006909436229593726 0.30911239751887226 0.17205746714768183 0.21783181502589238 -0.09775034825595756 0.0031781148636501407 0.0005109687741219619 0.07149124583994916 0.18562479841376223 0.07430880834099207 -0.03651990225917072 -0.02817071792876101 -0.038859894882556166 -0.4894908414506118 -0.04018252275474521 0.1181848115984867 0.040211442476957474 -0.08072147173645074 0.11003344246834075 -0.1566135974790015
drawer -0.2612290861805784 0.12334755596162968 0.08019154737916848 0.03848157883685262 0.0017309039061385873 0.12971902666368537 -0.04013346009883637 -0.16055450590025722 -0.02247905356660276 -0.162804676909793 0.14055923926403666 0.22470225768399948 -0.09703321089278949 -0.06354596482836362 -0.04090407373368341 0.015540071840141507 0.03469766033484161 -0.0860708642864262 0.06847938240165957 -0.1494131006016692 -0.5253557404867731 -0.18084716665695721 -0.0713627592653809 -0.0343734189618547 -0.14415272438337218 -0.10263161033419038 0.5134917683991802 0.1609772681542586 0.28333660451592674 0.0017878841257009418
dress -0.13687750960728925 -0.1393986639844005 -0.19332114832690908 0.0630029000696096 0.18105320625345864 0.23837508025014953 0.35380375805449543 -0.010260192140147919 -0.09057586189141854 0.057345693719516935 -0.20663243144572963 -0.11171205617001491 0.14080188781675965 -0.1214278550294924 0.03613604150013867 -0.14362512264221255 0.3545740891330471 0.12372068162376344 0.3922844027065002 -0.3605000553973497 0.15421231326049456 0.005345821182219652 0.04390500621226535 0.11789802990199225 -0.06675480024639523 0.1342439741409666 0.022102236614249933 0.1147779184867041 -0.2507356924800133 -0.1375086274386378
drill 0.21064298793859404 -0.19709339370595644 -0.35602296821395896 0.10512862565206271 0.28912313779586596 0.05572458550161618 0.22719989250479605 -0.09585604363153895 -0.15056502466609473 -0.04081620071277802 -0.09545685171056237 0.5400912074943833 0.19896982316328227 -0.006437555728681916 0.10522516115954154 0.1145304985728843 0.06535611935729083 0.06673530985514226 -0.03335147559705284 -0.10737244543246775 -0.07475608225643277 -0.16916922839509688 -0.2520705265085406 -0.021561961355485024 -0.21525215692551364 -0.14324430882996664 0.09357052592240252 0.15647867365599574 0.13986759296717413 -0.05721490690708859
drink -0.0159393157502743 -0.09745208577860619 -0.05500582042373979 0.14643723298691522 0.26794449389243113 0.026963167050001798 -0.0679308138548262 0.29478405061102547 0.047387417216932924 0.011666833274008175 -0.01987548008217182 -0.2929127401552201 -0.14875722684480588 -0.0857282807684056 0.08845146661932023 -0.08356683186818223 0.11766308249006963 -0.22004801880770627 0.17037134643007956 0.17530655006029994 0.23936938835966065 -0.0245785583040855 0.08546509706649891 0.2457089387413447 -0.23149900295060655 0.10953488839172365 -0.02154523510021197 -0.5685835674509171 -0.1401212228903533 0.11093901552048666
drum 0.1995555480023904 -0.14008250571011435 -0.012688041590222994 0.27950708277569275 0.1142316026461539 -0.2800916984558947 -0.12354115211089302 0.32875736244309584 0.13960695506545784 -0.17722704136209064 -0.2191141393646877 0.14895977182567144 0.2589274155683006 -0.14393448314061322 0.34036661819810127 0.03624928331722024 -0.06814378005057455 0.08640323995817584 -0.13505604223365605 -0.1278279698834545 0.04626682505926865 -0.022456898234391513 -0.06951469899313954 0.2542988119500711 0.09417929780028994 -0.18425672198469265 -0.16678664987585395 0.3434497011529812 0.026384286765109812 -0.11521807638833097
duck -0.21804464636365925 -0.002780658800144426 -0.09200293299637483 -0.008583141649341132 -0.1614443102493529 -0.15179000865543354 0.024119679751738454 0.04184981617791547 0.04222920766957562 0.08823330615107898 0.1709923105278687 -0.0476081885016128 -0.13312612624856682 0.09973583830525827 0.05091158983174933 0.15268440176670234 -0.11244843357493267 0.13794207774960754 0.24176576098343786 -0.09353995261360405 -0.19352835569660662 0.241877163898497 -0.03245364118797986 -0.11701444190249753 0.2351543512448578 0.4353726612216147 -0.08773404145415799 0.035640292198951345 -0.5744125419996268 -0.06696784710936478
dumbbell 0.06864024017362232 0.17861513601590043 0.22906375921858593 -0.14814091653360992 0.0022877844933315095 -0.0006355470059573822 -0.11163200060403512 -0.39874289697022736 0.029703297836598693 -0.07717147895156043 -0.15170744280568133 -0.07589915217469989 0.16048745710893658 0.11876696207074817 -0.1175180384211717 -0.1363650054236111 0.1786770154228912 -0.08046667824129693 0.07737751814828255 0.2971522532851284 0.2533365459634176 -0.22120003722303386 0.16925750315434565 -0.11289006762947358 0.29561144229987485 -0.15748906695300385 0.2793576445348941 0.30392596884304335 0.14249440085610407 0.13975354381564986
eagle -0.13889064457161426 0.26531656733054576 -0.03385684741909429 0.29201453653331444 0.011926748147971416 -0.001549016499377984 -0.05228558796405979 -0.04646343655973516 -0.11251108041162436 0.24925035708383458 0.012478754243131291 -0.25701833476203134 0.12059694753177874 -0.017070184438793438 -0.09502562201966537 0.035809508079824005 -0.11173084530742022 0.22129804693501948 -0.1837197550190683 -0.3815470746369908 -0.09193367195266376 0.5023191795584041 0.06863893029468104 -0.27518291079674345 -0.16317257936826163 0.09231190523442162 0.1033179314717239 0.06969234021128853 -0.10796935464261026 -0.09152861830166648
earrings -0.039377311386670576 -0.177786821592038 -0.08320800552526313 -0.21159399892726086 0.010162813142240719 0.2622402294474663 0.030086987833080767 -0.37354467871427005 0.16736450151962917 0.14811430450617627 0.09445767422966098 0.001884221421267035 -0.011301954476227448 -0.13107193077849158 -0.1778772088534088 -0.429697438048548 -0.020625499193263824 0.09067905522529345 0.15382608802924486 0.0039375332345794245 -0.13513123149965184 -0.11560340101112418 0.1818468290897429 -0.2720120684737874 0.11636784841356679 -0.07376670165255876 -0.011057009580598293 0.1880249368532517 0.42396595928896313 -0.09029923570738907
egg -0.06854696606364276 0.05710170613897387 -0.23416449585467056 0.042568430793352395 -0.2953296124261563 -0.21366690163476346 -0.142768802448651 0.16967643412013864 -0.011473162064803397 -0.22833962785557588 0.362539017551091 -0.23919747474471423 0.039100483723109154 -0.23948651020510603 0.08315632780085194 0.12355782018876085 -0.01872426002240511 0.11878618214245446 0.10687362694536189 0.20281602494720236 -0.07589921309862571 0.18830405274346845 -0.17388675252803087 -0.0308896668552855 0.05045622044283607 0.2255699283287883 0.04179075035071591 -0.2244443325651977 -0.399891460947106 -0.16271168507732647
elephant 0.15425301875588388 0.20030610889315165 -0.1781913932983939 0.3206407918632809 -0.23363843307906534 -0.26311500167371904 0.030577478351015857 0.06910293592736998 0.010774687480065942 0.3150092242208178 0.015793859169865546 -0.05143917458685672 -0.11775978174205222 0.047987315405002444 -0.03276533252126381 -0.10784335403675632 -0.3323783813004655 -0.017407086278494445 -0.11728630453813939 0.010676899777266793 0.016680165144541195 0.28813924732927215 0.013496295514249534 -0.10979653741593445 -0.33065453129657724 -0.3696368805443272 -0.2252161479902229 -0.0011999007987184415 -0.07973237373868536 0.13283312296070604
envelope -0.08843315406397984 0.05529263023399295 -0.13819919506704656 0.020614155796111176 -0.08042300325983558 0.11312791427146142 0.001725142095884976 -0.3347344072987987 0.028586754439653722 0.2812834604616969 0.12446549431769284 0.1149662489633672 -0.07710814847541371 -0.08357180423419458 -0.045540315726508365 -0.10867163705505783 -0.24411981282067297 0.20668958389692443 -0.2700033841509865 0.24119023403542722 0.053939509901679485 -0.10533354870471923 -0.4684249965388852 0.054669893678070194 0.20590356361203896 -0.2158166714322102 0.21900338524028656 -0.16271704602165513 0.2506288637769224 0.08240283339139726
eraser 0.17094839993743313 -0.12461628792256695 -0.14070151732998826 -0.01984784099765063 0.035159620761045604 0.27855544119207803 -0.1496402350535475 -0.1725784387082885 0.16140559890983394 0.011726233569050306 -0.138267605098117 0.22349614444808982 0.08882518139792438 0.11229770480305916 -0.19380403959007245 -0.26071736106449106 -0.0758108623667338 -0.2377752521812201 -0.09945713605997883 0.3556955437148719 -0.0686143434549165 -0.07638948067972359 -0.013506101608439179 -0.11555435278769147 0.13154891413307232 -0.42283066038788614 0.0004675136892045153 0.25587356814858814 0.23227583742317964 0.21088225535143976
falcon -0.08572549227114626 0.1329598942886827 0.22085689149794943 0.06024607684780963 0.21937233845709447 0.2115843980475981 -0.1241834614712364 -0.27259651957572384 0.14906738369974903 0.03366825179643274 0.15186966885883574 -0.06225241725970007 0.06859081558530163 0.017267888154519375 -0.0006593621803866799 0.05439346856465158 -0.14402503360905794 0.19726948754031998 -0.4043508118324584 -0.4577126625337216 0.16999918547449616 0.22632200847461142 0.04674373517638654 -0.33589105184242707 -0.0596757512194029 0.13747071096795294 -0.04205260028869736 -0.00921628570326094 0.1177155047551766 0.12541387182086194
fax 0.10478853038108535 0.05889442154998172 0.1547742525927142 0.048295906183864847 -0.11400013226324016 0.12939261832572993 0.0880482403188788 0.09750131721598741 -0.17554086819311002 -0.12007414798856893 -0.0037570174721880995 0.40169563055189467 0.024560873877111856 -0.08118951786298467 -0.11839120731790562 0.04393540466000261 -0.23341971610390075 -0.26755250344709736 -0.2204975905529584 0.019672893185702776 -0.08654627468909304 0.009517033517022653 0.25706354352646926 0.3925403368054911 0.17392393251022173 -0.12042872925702702 -0.10644012202296553 0.3673385326744123 0.1529984541640529 0.2554682729301857
fedora 0.1868932927072225 -0.04897827565803725 0.06419952275125405 -0.20162240302686327 -0.08119224992868472 0.3137891048371161 0.08997849477956792 -0.14093372009870567 -0.3024161352417838 0.1570496781314021 -0.10790497176236852 -0.07703334559345322 0.14108866948106358 -0.03889736505634816 -0.3169309821301026 -0.3277064236899047 0.24156881733806423 -0.14027584927055423 -0.03791443018815842 -0.08323204265343645 0.04918114465921069 0.1624267180936163 0.10321862843601114 -0.1513752064830434 0.04903449671060573 -0.3944865412990817 -0.24645090765588626 -0.019671022857628458 -0.07983775724745833 -0.21826644823623512
fireplace -0.05425561153480552 -0.08370149083838246 0.13309596924269465 -0.32346435924844963 0.04383666520478509 -0.08167084851376498 0.03296665870723727 -0.17083340906099848 0.2749043154737312 0.10268351491584962 0.07943086724657608 0.21948490744870938 -0.19454499899735792 -0.042997056366891225 0.047401233571452914 -0.051944308218622115 -0.07685530453378207 0.14271028440125297 0.4234222444493573 -0.21045369966697486 -0.1342861871556276 -0.49382482685709916 -0.07540624075093892 -0.09371963681486856 0.20416081494350796 0.002063806267959472 0.14806192660994966 0.0533117916636266 0.22371006660456605 0.02985125905292125
fish 0.131442893237755 0.1866252688314262 -0.30141861607101755 0.22690766384855418 0.19394853733184703 -0.18519461308390625 -0.2181525491188978 0.19003290138455317 -0.14303273052340384 -0.17408295807246157 0.11293592335850516 -0.14368099104519066 0.13715710613666104 -0.083207532278812 0.1625290261117949 0.3298906894246754 -0.03401889400122643 -0.10600116345161005 0.07673202023411706 -0.06999807266900036 -0.2424297149421771 0.20444212670711745 -0.07117984789885165 -0.05023220213571412 -0.15703944099994968 0.23238495628639189 0.06323874871173628 -0.17007514735468116 -0.39274449879342826 -0.08728953176468678
flag -0.17304868540196683 -0.03892873064190501 -0.11910047862527656 0.2726395850980498 -0.07410093369604195 0.07639764015163286 0.12376398211548201 0.024927659034547196 0.0885719282780573 0.3625173848372534 -0.3799636684623342 -0.2798602208628322 0.05358968377867541 0.19415184432155544 0.09435575827429327 -0.01258261402713251 0.07293047560815566 0.4012379170144731 -0.1293665690293525 -0.1596088093884446 0.05033575590977656 0.3217484123877934 0.013838374461805917 0.05546709811442088 -0.2194230037247308 0.06392728824402454 0.05166569898605639 0.0037138990779471987 0.13146010993142046 -0.22610940034613836
flashlight 0.13165677119270705 -0.16608818935746217 -0.162432370094205 -0.37590436132725 -0.05274602983410313 -0.004892392218570577 0.061406462581639 -0.25818054645352706 -0.37637094571510643 -0.026619591414039037 0.019675265641180252 0.2471407225163721 -0.0711989240237654 0.1048557932922203 0.06122425770611403 0.24266364093338028 -0.1623374908002316 -0.17178402795664127 -0.06592380108426676 -0.16177072859368102 -0.4998098363957331 -0.21705922427640267 0.04654261876883538 -0.19309325878754371 -0.011838134459295222 0.038564489854864804 0.052905708720865335 0.061395951129624385 0.0252800329657914 -0.0064546259071028905
flower -0.052064861026516834 0.0944691911469564 -0.12748610929896273 0.08155895244114614 -0.017926977847894713 -0.11997350367758648 0.07734483845370417 0.10938035345719606 0.12270645452028357 -0.004526117940864341 -0.19298320882447167 -0.38422922180020713 0.12646198139939924 -0.3806085956554438 0.44290237290418843 0.08589999016250462 0.2716148004200498 -0.01893768128764791 -0.13820645574396911 -0.18750270849853612 -0.2579056067624774 -0.05169679745192571 -0.04929304166745407 0.2629436671424948 -0.07946656122043913 -0.19517945523304547 0.07295262577484138 -0.007407264119215776 -0.07248930987946303 -0.21037977341700412
flowerpot 0.0736285078320605 0.001945309508345661 0.0920997086597955 -0.32801302590205644 -0.21602042234073895 -0.05492430973405049 -0.24515960911144025 -0.2695126682031861 -0.013979578566879786 -0.0773681418370782 0.15648600911286392 -0.009422535733364124 0.09971012138288231 -0.04874264457081882 -0.20086132841049692 -0.1084218774973331 -0.02328625441532207 -0.014723650248843105 -0.01677780713121859 -0.008110432959216915 -0.2973919755665288 0.0421345659261413 0.20264346082564305 -0.4908881068746754 -0.10531947119912967 -0.2514272521949199 -0.14794226903070667 0.18926816132805468 0.1752758034306661 -0.2545662090225959
flute -0.042081682216223375 -0.07292996079049324 0.21591786785118236 0.15447413443050048 0.04328549770135286 -0.3055029351576066 -0.13407440462652664 -0.0709501783663025 -0.019999010914825345 -0.12545563240392618 -0.08290361624168861 -0.11235914986989438 0.10734058494202289 -0.09735419851444006 0.2533401271180994 -0.4053033546895729 -0.012171983007191424 -0.06202771254590284 0.13569028347263992 0.11676008672103068 0.11748518177298015 -0.22034240060194937 -0.06692861671900596 0.24566073842429548 0.2328791178147122 -0.21497921866930533 -0.1936653480642512 0.45172947884443587 -0.028065303475309503 -0.11444897099990636
food -0.014524615992050502 0.1632301244104188 -0.3008961804155 0.21209664408842224 0.1685557975178196 -0.0678313444322977 0.027676686798400414 0.2708287360968203 0.09475888621565585 -0.09066846847757443 -0.10472972630658457 -0.361009425324144 -0.01307128438371223 -0.053812561223915346 0.17483143148118827 0.29763703821123955 0.061562032446637376 -0.13679658614361134 0.10022723594362719 0.031182445041853437 -0.0073278032783595255 0.11373288568613432 -0.03322823983244931 0.08870193643039123 -0.08052254729192392 0.27617602716799494 0.22894611608607507 -0.31988146874903495 -0.31476902737272194 0.2402482189089657
football -0.3334687633121747 -0.04570452104500973 0.09551228812478038 0.3495984487551283 0.055277372803461525 0.05748223170055891 0.18236824881177996 0.2374975069895701 -0.03547478459324931 0.029516130179664073 -0.21362943829954828 0.0259650749381338 -0.08626160196541956 0.02989631891119258 0.09898443492513413 0.1535163940262078 -0.0736423920001345 0.43580466440617194 0.09545316457799323 -0.00402125789030467 0.07062770509101651 0.3914632738886741 -0.007218392763217161 0.08976871270291502 -0.15733799597450324 0.34040018985601267 -0.0005110848920519324 -0.11309677808563276 -0.022883938980125678 -0.21081344546282246
footwear -0.130513395458538 0.11639216457011503 -0.03917965071640204 -0.09500497385345283 0.23739968600003156 0.2776467845443698 0.16131102874450676 -0.10801926467823697 0.04470678417098011 -0.0014499980546926624 -0.27301697583197293 -0.07928386957623641 0.11890192856328584 -0.06091630461575406 -0.08849684999921298 0.059299260181476715 0.2171379608418799 -0.008750187623092414 0.3459167922820997 0.03667368144641683 0.10362132353783127 -0.15280253589086848 0.28061690485409874 -0.11730884359946404 0.20820765409730876 0.26208771864856817 0.46450850244712105 0.025787527032958647 0.03764246690131852 0.2258056580462863
fork -0.0003608801045920045 -0.22753399017732268 -0.11342155885662918 -0.05636220764936539 0.011576305609377965 -0.046665200504670025 0.11454766619564392 0.12053934418193266 0.0007983964129702195 -0.4453178129033412 0.026591727571780556 -0.21369494799600994 0.09496623639996843 -0.07807330370560833 -0.1267193525737125 0.17132728444833256 0.10717992254794768 -0.025206263939038537 -0.28674686940500904 0.1015241095880312 0.01180243522706438 0.12724494199747882 0.043443568228959645 -0.03989086753039806 -0.2149566410486396 0.15809318671268272 0.318302270434211 0.010360921426364937 0.5376760364210151 0.10409751849382856
fountain -0.009322965696850686 -0.43623115800996426 -0.3193527289685355 0.17661297820086524 0.2615202659497677 -0.09356437691327829 -0.03107342818045214 -0.04948203917905075 0.15760137335575067 0.32552506751608995 -0.2149445900713417 -0.13979173023407787 -0.24104456236717176 0.042591599189745505 -0.01441216373358817 -0.22012054669666006 -0.3192227701110074 0.0229758529413083 0.12262297489232644 0.074338872841809 0.08686314396068845 0.08952156723501165 0.06670726666031926 0.09444198275578748 -0.15903067992284772 0.022660698115580614 -0.031224032026927324 -0.14782384350108585 0.2945510535805976 -0.05862818996712956
fox -0.22696205459953925 0.08137663577113742 0.07313102221056259 0.1834590441818072 -0.0473173766831596 -0.06291870507711306 0.12432352883701238 0.22351228137012297 0.16621383077930976 0.1488130097966912 -0.14923445763257046 -0.07058752564687473 -0.1429100257629448 0.027505025566117648 0.030415357869474663 0.2905109172286732 -0.241978491163444 0.13463936591034278 -0.007542433155718426 -0.22515519102689752 -0.1729483879663761 0.3790533285374193 0.03200710827420728 0.2302122679773503 -0.09292718768913111 0.24062109039917634 -0.33723387151742945 0.13632708733915055 -0.3040971566929552 0.036779056649185744
frog -0.11928427191594637 0.11388703553278129 -0.1563583805450935 0.13527412328831614 -0.4067460125696534 0.08394615656832907 -0.08769492272439475 0.2784776636223191 0.03658758452020259 -0.17175741839868422 -0.008419327850129325 -0.262334537081245 0.10160173232494145 0.012141240934829517 -0.041332641088635415 0.05542462201163221 0.0037232887440634254 -0.307524289903287 -0.09022409868175096 -0.15082376511158432 -0.17275938205818173 0.3024986850767134 0.13682768544085822 -0.18958192378969846 -0.1950946538449553 -0.13465777688844913 -0.18422779592149183 0.16910755365895191 -0.34193789151618253 -0.1421378657894596
fruit -0.11100108314219422 0.04336045359493148 -0.1703710060626408 0.0351431754526931 -0.17728159924771777 0.0807684652690783 -0.12287949642414969 0.3262194535065503 -0.026129603780943114 -0.05372196319877565 -0.10521912372389551 -0.4952080553443864 0.035541373757353716 -0.07351139918164763 0.047001954680452956 -0.014432926421430748 0.3128372882781095 -0.024349800000863158 0.0621654000935486 0.2316803894250848 -0.18497737776042952 0.14005934967650685 -0.06578471241807426 0.29600770037554336 -0.1503575080537997 -0.07312952961686729 0.02759944479668 -0.3781704401723401 -0.2169453289710274 -0.08083121070766755
furniture 0.06523173111465977 -0.11662388047006753 -0.2953544168193736 0.13113396898738028 0.34909360104189585 -0.09089603290787368 0.11260773775224654 -0.11537334063194342 0.13823855425885237 0.1723276403199561 -0.20008146230236026 -0.07175454936892177 -0.03322219881778531 0.004027227870011755 0.19663764896880645 -0.055833007693089985 0.04546662735766887 0.14478373692570912 0.20535471867433205 0.059190222071948975 0.08759291488873115 -0.22498211239223412 -0.11265978228734727 0.11281952952079663 0.17276718138805258 0.09374550184775654 0.5153948941453348 -0.06634592825691372 0.054933216560883964 0.34727512901952806
giraffe 0.027311889872350684 0.3178557135447754 -0.03270483578435036 0.2659996418055101 -0.11044913729115305 -0.013247746263063187 -0.09074093453327087 -0.08168230220516134 -0.0324658490102799 0.20974839636354908 -0.04485992472850091 0.06363737430013344 0.04173977347810488 0.27943362046172027 -0.16832499921592697 -0.2976727530665909 -0.03522757789903461 -0.1425416301539728 0.2524180091186194 0.27945324246335856 -0.011793541724781571 0.16231534044572898 0.18975159175845918 -0.07931757092575006 -0.12674379278977146 -0.3945186072729361 -0.16948235609462833 0.26401979654896574 -0.12849894593687386 0.18009873368269028
girl -0.10162571039714512 0.08513617227466472 0.018388760577783603 0.1786089749170901 0.19374162165373818 -0.18032411905765505 0.3453915827670316 0.19173154420087898 0.18313960689571435 0.017508241308922753 0.11306350979727264 -0.08291578965853263 -0.2183879172426379 -0.35675912070230087 0.18854761534901168 0.06568873042734893 0.1463392118747159 -0.06597341059321851 0.05886891545201562 -0.4866496858744015 -0.06778136532298223 -0.0599741077401088 -0.13875671042835347 0.2935375789142468 -0.1204199209189907 0.046517654325206714 -0.039518857815325686 0.092076386839198 -0.20456055962223121 -0.08668958577929523
glasses -0.02197594062890939 -0.24708298820699473 0.1026622510179836 0.020946970187546547 0.2130904259970956 0.040188325890571135 0.3123316168203342 0.2105487226365055 -0.324876145520275 0.19817964899318455 -0.12105220422735528 0.051586557345491016 -0.08091776211363433 -0.2762060520321261 -0.15847937036912854 -0.2684703015517069 0.006895801800143147 0.03293676777564719 0.2971834033088419 0.0605914725627332 0.2457370692107581 -0.08586302227272184 -0.0468373932132961 0.3921032532563778 -0.12322130449264453 -0.022534064081449763 -0.006730282197080897 -0.19463372586748998 0.04043184615171532 0.15603544819139914
glove -0.04944386868983725 -0.08090589222145979 0.13084910852569803 -0.18258654611649905 -0.13293354263055676 0.323122016261806 0.061834700626734816 0.30427135993420695 0.06695573673140427 -0.09477663075501691 -0.02531284789038788 0.447947577291433 0.11192139364434817 -0.039441862281966694 -0.16160871422207845 0.25384904900377453 0.25002933181697173 0.0915094465890849 -0.12891183159571837 -0.25770599524277354 -0.13056342519138406 -0.08688096077412981 -0.10467908850258283 -0.12277013341165083 0.18080241345918738 0.11600021442164182 0.1643281957914718 0.19791718824950533 -0.1814721371704742 -0.22992779910680414
goat 0.2671839720048699 0.17248815874165016 -0.07168509799838127 -0.1465959434182505 -0.10731802968519685 -0.4651186443815026 0.16141830959522208 -0.01850260232993426 0.05753491759036618 0.10449824931002938 0.19613501531800087 -0.17263047416045105 -0.25909499127359764 0.25083344801256374 -0.14696953327888096 0.18142972503517038 0.09016095337846587 -0.20965750930835925 0.15807579100857536 0.14034455972254858 0.056610396124852226 0.10420219771501497 0.05014949651989157 0.04409408014518259 -0.04420750541638123 0.07982525538515893 -0.27542785815564075 -0.03901722236300208 -0.37741503050915465 0.08644361648876377
