429 30
accordion -0.43000659346580505 -0.227412149310112 1.3005071878433228 1.1060975790023804 -0.3825697898864746 -1.4716911315917969 -0.8060781359672546 -0.24916446208953857 0.9775197505950928 -1.0016814470291138 -1.2735084295272827 2.098952531814575 -0.2984392046928406 0.46691206097602844 0.7424267530441284 -1.4729679822921753 0.022267501801252365 -0.09908939152956009 0.20970794558525085 1.5185304880142212 0.8164443969726562 -0.8511755466461182 -0.19702664017677307 1.3037234544754028 2.759204149246216 -1.7002822160720825 -0.9427481293678284 2.029919147491455 0.13119618594646454 -0.07273625582456589
aircraft -0.6665678024291992 0.9129483699798584 0.13012444972991943 1.3894603252410889 1.0635265111923218 0.2436307817697525 -0.3634287416934967 -1.2026582956314087 1.3341047763824463 1.648903250694275 0.26824063062667847 0.0791969746351242 0.8056290149688721 0.2751636505126953 0.9442506432533264 1.688689112663269 -1.2215672731399536 1.6778422594070435 -3.6005210876464844 -1.4424179792404175 1.7821049690246582 1.1612740755081177 -2.6245205402374268 -0.828216552734375 -0.6715131998062134 1.0599757432937622 0.053567126393318176 -1.4573367834091187 -0.4407680332660675 0.22019457817077637
airplane -0.006752227433025837 1.191320538520813 0.5159227252006531 0.009168020449578762 0.15851402282714844 0.11685790866613388 -0.1061910018324852 -1.2878648042678833 -0.006975625641644001 0.74364173412323 1.40445077419281 0.49422183632850647 0.6736510992050171 0.8541977405548096 0.9618690013885498 -0.12351661920547485 0.022234298288822174 0.3828275501728058 -2.6255130767822266 -0.6554869413375854 1.0735715627670288 -0.7791287899017334 -0.5410814881324768 -0.11674070358276367 0.4393062889575958 0.32055220007896423 -0.048608675599098206 -0.36585021018981934 0.09211736172437668 -0.34156590700149536
alpaca 0.8802722692489624 0.49909451603889465 0.956122875213623 0.07254671305418015 -0.012104158289730549 -0.5072982311248779 0.6409444808959961 -0.5048737525939941 -0.11978912353515625 -0.4684402048587799 0.4834797978401184 0.7054179310798645 -1.7975316047668457 0.9019010663032532 -1.8765242099761963 -0.1655273288488388 0.020370567217469215 -0.8630487322807312 0.14115175604820251 0.9844063520431519 0.6187310218811035 0.5789111852645874 0.33840155601501465 -0.16632983088493347 0.6079179644584656 -0.17144891619682312 -0.0980936735868454 0.4218556582927704 0.3350701630115509 0.37300166487693787
ambulance 0.49218860268592834 0.7077482342720032 0.8209553360939026 -0.6902310848236084 0.4194481372833252 0.11196787655353546 0.8405217528343201 -1.414416790008545 0.4301978647708893 0.19890455901622772 0.44727611541748047 -0.06369594484567642 -0.9039183259010315 0.41062498092651367 -0.24879920482635498 0.03965258225798607 -1.18930184841156 -1.1820951700210571 -2.31315279006958 -0.9818535447120667 1.938213586807251 -1.28048574924469 0.07108991593122482 0.4038088023662567 0.5389402508735657 1.3630245923995972 -0.09744037687778473 0.19879770278930664 1.4750604629516602 2.0752367973327637
animal 1.1145581007003784 1.7824584245681763 -3.0366153717041016 2.5020906925201416 0.5749397277832031 -0.3677347004413605 -0.04186258092522621 0.539462685585022 1.1594858169555664 0.07887372374534607 -0.5947516560554504 -2.3243908882141113 -0.6646915078163147 1.3056640625 0.9801430702209473 1.4360618591308594 0.017607277259230614 -0.8805036544799805 -0.8230487108230591 0.2939697802066803 -0.1340620517730713 1.864322543144226 -0.8119547367095947 0.3685038089752197 0.005023312289267778 -0.3419247567653656 -0.17636452615261078 -0.07156151533126831 -2.6962051391601562 1.2587263584136963
ant -0.009459059685468674 0.9362949132919312 -0.6158560514450073 0.5981237888336182 -0.006447543855756521 0.12121829390525818 -0.11705324053764343 0.17070908844470978 0.8456123471260071 -0.006576880346983671 0.5110026597976685 -0.3572245240211487 0.009962324053049088 -0.23884527385234833 0.5851790308952332 -0.14776214957237244 0.019864603877067566 -1.2064107656478882 -0.39415881037712097 0.4718013405799866 -0.1543082743883133 -0.9273329377174377 0.7667539119720459 -0.08098487555980682 0.1540406197309494 -0.16372311115264893 -0.10194076597690582 0.13419628143310547 -0.0007968601421453059 1.225029706954956
antelope 2.2379508018493652 1.677956461906433 -0.05618804693222046 -0.543316662311554 -0.004788923542946577 -0.5797364711761475 -0.1391756385564804 -0.16858437657356262 -0.1261177361011505 0.6951327323913574 -0.7798983454704285 0.015175377018749714 -0.6120374202728271 1.9112722873687744 -0.3943239152431488 0.7012564539909363 -0.9187800288200378 -1.0738905668258667 0.423312246799469 1.2624646425247192 -1.3086849451065063 0.4479182958602905 1.2308070659637451 -0.4634164273738861 0.15685415267944336 -1.9733890295028687 -2.3802993297576904 0.20151886343955994 -0.7526154518127441 0.8872812390327454
apple -0.7885332703590393 -0.025403281673789024 -0.3292246162891388 -0.2695332169532776 -3.145507335662842 1.12956964969635 -0.042322371155023575 4.1400933265686035 -0.4638635218143463 0.029452981427311897 -0.7678728103637695 -0.8127812147140503 -0.5591303706169128 0.0031090236734598875 0.07962319999933243 -0.1550171673297882 -0.23469966650009155 -0.6423460245132446 -2.3185410499572754 -0.6131681799888611 -0.9615805149078369 -0.03906291350722313 2.2660298347473145 1.7045812606811523 0.03190736845135689 -1.0059278011322021 0.19200800359249115 -1.7516162395477295 -0.4761331379413605 0.6525421738624573
armadillo -0.0025702116545289755 0.0769357979297638 1.0095587968826294 -0.8682336807250977 -0.010220365598797798 1.1303611993789673 0.21956537663936615 -0.2028486728668213 -0.12466826289892197 -0.7325271368026733 0.040206894278526306 0.2613133192062378 -0.9552657008171082 1.6129004955291748 -0.9252984523773193 -0.276015043258667 0.36414724588394165 -0.5045964121818542 -0.019355302676558495 -0.026611831039190292 0.2407030612230301 -0.23132041096687317 0.020355766639113426 -1.5007261037826538 0.6344653964042664 -0.4120676815509796 -0.0994146317243576 0.05337172746658325 0.03641171380877495 -0.007234828546643257
artichoke -0.005286462139338255 0.6183285117149353 0.4899289011955261 -1.3849444389343262 -0.37882283329963684 0.7077220678329468 -0.4804602861404419 -0.39542555809020996 -0.0351194329559803 -0.007117838133126497 -0.23369812965393066 0.15061219036579132 0.2762688994407654 0.058898258954286575 -0.09906236827373505 -0.1463039219379425 0.0158647820353508 -0.6584020853042603 0.1405700147151947 1.1038795709609985 -1.5651419162750244 -0.2052762359380722 0.6279739737510681 -0.1652916520833969 1.0500506162643433 -0.8506511449813843 -0.09984717518091202 0.13231484591960907 0.7263275384902954 -0.013929697684943676
axe -0.6021550297737122 -2.1544017791748047 -1.9714585542678833 -0.3406282365322113 -0.006171915214508772 -0.3770484924316406 -0.1083436906337738 -0.20199336111545563 1.0046206712722778 0.04239814355969429 -0.0025051275733858347 1.109578251838684 -0.535829484462738 -0.056077077984809875 -1.2234022617340088 -0.103286974132061 -0.2463110238313675 0.20351217687129974 -1.1406333446502686 -1.1162364482879639 0.9135186672210693 -0.617382287979126 -0.0344933457672596 -0.12565068900585175 -1.64750337600708 -0.17627094686031342 -0.10347697138786316 1.7156305313110352 0.7920675277709961 -0.019460786134004593
backpack -0.004488948732614517 0.5656645894050598 0.39007270336151123 -0.5300073623657227 -0.004412810783833265 0.51600581407547 -0.047161925584077835 -1.2581934928894043 -0.13258212804794312 -0.0716409683227539 -0.20658710598945618 0.2909744679927826 -0.18267643451690674 0.056607600301504135 -1.4354268312454224 -0.0038381004706025124 0.07615561038255692 -0.6593048572540283 -1.1411432027816772 -0.25828298926353455 0.4031723439693451 -0.8308311104774475 -0.2879045605659485 -0.15980757772922516 0.15549758076667786 -0.17274777591228485 -0.09958203136920929 0.13513097167015076 0.22309231758117676 -0.43917807936668396
bagel -0.004352080635726452 -0.009017636068165302 0.20777639746665955 -1.4868518114089966 -0.00850637722760439 -1.4414362907409668 0.6838304400444031 -0.8488320708274841 -0.11603095382452011 -0.0020109685137867928 -0.12233532220125198 -0.679884135723114 -0.31788596510887146 0.13866326212882996 -1.9239004850387573 -0.15239839255809784 -0.2909963130950928 -0.09894327074289322 1.403377890586853 0.47653189301490784 0.9606736302375793 -0.23058301210403442 -0.9930773377418518 -0.16000795364379883 0.17878732085227966 -0.17031222581863403 -0.09293423593044281 -0.10674741864204407 0.7032107710838318 1.3211803436279297
ball -0.7381542325019836 -0.648617148399353 -0.5281525254249573 2.061828374862671 0.25200846791267395 1.0592114925384521 0.9953130483627319 2.17830228805542 0.32027530670166016 -0.7124416828155518 -0.13622115552425385 1.381247878074646 0.07998494803905487 0.056453119963407516 1.5044294595718384 0.44242939352989197 1.2787113189697266 2.81514048576355 -0.36746394634246826 -0.08980895578861237 -0.559514045715332 1.0027296543121338 -2.998965263366699 -0.18404732644557953 -0.7704095244407654 1.9838409423828125 -0.3993086814880371 0.2918318212032318 -1.4447523355484009 -2.138294219970703
balloon -0.36140504479408264 0.9956154823303223 1.3573075532913208 -0.05045674368739128 -0.009877272881567478 -0.23935583233833313 1.2893699407577515 -0.6386628150939941 -0.44100889563560486 0.684277355670929 0.4772244095802307 -0.3902130424976349 -0.23964077234268188 0.05328289419412613 0.11570966243743896 -0.15148970484733582 0.0699244886636734 0.29808443784713745 -2.245387554168701 -0.11374446749687195 0.46989959478378296 0.36328575015068054 -1.9526128768920898 -0.16386502981185913 0.16631615161895752 -0.5384814143180847 0.6692004799842834 -0.1617491990327835 -0.0798315703868866 -0.03428398072719574
banana -0.9550322890281677 0.9162248373031616 -1.8362038135528564 -0.2521827518939972 -0.8399616479873657 0.1163368970155716 -2.564208984375 1.016295075416565 -0.49743807315826416 -0.3193008601665497 0.24121417105197906 -2.3324851989746094 1.1333012580871582 -0.21552890539169312 -0.10758474469184875 -0.9889878034591675 0.3495720624923706 -0.1153670996427536 -0.7351475358009338 -0.04783535376191139 0.36848700046539307 -2.2401607036590576 0.3178198039531708 0.9572333693504333 -1.1605077981948853 0.6997256278991699 -0.30027058720588684 -1.2073057889938354 -0.39814481139183044 -1.5985318422317505
band-aid -0.36478301882743835 0.509362518787384 3.2274556159973145 -0.49555715918540955 -0.011766581796109676 0.3243985176086426 -0.10645491629838943 -0.6469948291778564 -0.12271330505609512 -0.007701548747718334 0.0020876596681773663 0.3380320370197296 -0.2917684018611908 0.0633447989821434 -0.1956080198287964 -1.4113390445709229 0.01407450158149004 -0.10006388276815414 0.26950603723526 0.15777647495269775 -0.9489479064941406 -0.3566659092903137 0.5540151596069336 -0.1604776680469513 1.1771270036697388 -0.1677679419517517 -0.09769494831562042 1.2875542640686035 0.4990140497684479 -0.01558529119938612
banjo -0.27876707911491394 0.8831228017807007 2.5935840606689453 1.4508886337280273 -1.325216293334961 -1.6050745248794556 -0.8876708745956421 0.15274591743946075 0.918870210647583 -1.493355631828308 -0.45599788427352905 1.0878151655197144 -0.19611570239067078 -0.2356930673122406 -0.3795322775840759 -0.8483045697212219 0.2820490896701813 0.8312214612960815 0.24871951341629028 0.7519976496696472 1.4891964197158813 -0.8999125957489014 -1.1696666479110718 0.08664576709270477 1.3934012651443481 -0.6483796238899231 -1.8510401248931885 2.188432216644287 -0.5608588457107544 -0.34727299213409424
barge 2.3428778648376465 -0.03987320140004158 -1.2012478113174438 -0.639423668384552 0.9853474497795105 -0.3779653310775757 -0.19143453240394592 -0.9331359267234802 -0.12650266289710999 0.190700501203537 1.02676522731781 1.1821266412734985 0.08310817927122116 1.3397407531738281 0.37777212262153625 0.1415202021598816 -0.06604917347431183 -0.09857362508773804 0.05699468404054642 0.1473868191242218 0.4643813371658325 -1.3420543670654297 1.175241231918335 -0.3219324052333832 0.2878686785697937 0.37178662419319153 -0.09834058582782745 -0.18462032079696655 0.9954277276992798 -0.05616115406155586
barrel 2.330322265625 -0.27014440298080444 0.5590620636940002 1.511535406112671 2.9435055255889893 -0.1100844219326973 -0.30255159735679626 1.9128179550170898 0.42431801557540894 0.0300498828291893 -2.0788865089416504 3.028782367706299 2.2959794998168945 0.05512069910764694 -1.0549613237380981 -0.19485777616500854 0.2526768743991852 0.22828467190265656 0.31455686688423157 0.2783716320991516 0.9910663962364197 0.8524118065834045 -2.519746780395508 0.3802470862865448 -1.7192728519439697 -1.546698808670044 -1.3064823150634766 -0.4066098928451538 -0.45023179054260254 0.4419999420642853
bat -0.9987817406654358 1.1380435228347778 0.0011027827858924866 0.886162281036377 -0.06815501302480698 0.9792413115501404 -0.10647560656070709 0.7729781270027161 1.3906075954437256 -0.5585192441940308 -0.5443084836006165 -0.3905540406703949 -0.17163358628749847 -0.05702327564358711 0.3386642634868622 0.5468187928199768 3.1262083053588867 1.5737026929855347 -0.789537250995636 0.2501508891582489 -0.8231762051582336 1.027600884437561 -2.3834543228149414 -0.4562159478664398 0.16193024814128876 0.07280093431472778 -0.8412119150161743 0.39647185802459717 -1.862518548965454 -1.7477573156356812
bathtub 0.3874664604663849 -1.158252239227295 0.20561274886131287 -1.1894598007202148 -0.01323759276419878 0.15737350285053253 0.2094525694847107 -0.2978430688381195 0.11107542365789413 -0.006206844002008438 0.9189631342887878 0.45740240812301636 -2.740100383758545 -0.49945497512817383 -0.1251160204410553 -0.43687015771865845 -1.2004765272140503 -0.6278404593467712 0.5837002396583557 0.1470038890838623 -0.37211570143699646 -1.4624210596084595 0.48809391260147095 -0.7218087911605835 0.16118523478507996 -1.0047152042388916 1.1349903345108032 0.13417105376720428 0.2203800231218338 -0.010416951030492783
beaker -0.2851455509662628 -0.2755916714668274 1.070135235786438 -1.0420368909835815 -0.010391812771558762 1.3206171989440918 -0.8324384093284607 -0.3709874153137207 -0.14208900928497314 0.3055528402328491 -0.2853220999240875 0.5249438285827637 1.2648905515670776 0.06394069641828537 -1.2636221647262573 -0.4696514308452606 -0.55918288230896 -0.09564490616321564 0.1447160243988037 0.13990779221057892 -0.8638259768486023 1.1042296886444092 0.48256003856658936 -0.16480004787445068 0.16206957399845123 -0.17126546800136566 -0.09264067560434341 0.4093081057071686 0.46838313341140747 -0.015848670154809952
bear -0.08792775869369507 1.765323519706726 0.24138006567955017 1.7136914730072021 -0.012226901017129421 0.10120536386966705 0.7545771598815918 1.202555775642395 0.009961809031665325 2.3181076049804688 -2.3589704036712646 -2.6485424041748047 -0.0048446618020534515 0.8749099969863892 0.6282269954681396 1.2861753702163696 0.34233376383781433 0.4121803939342499 -0.29896804690361023 -0.5005585551261902 -0.27474939823150635 2.0790557861328125 -0.2810916602611542 0.5514777898788452 -1.4497648477554321 0.2878945767879486 -1.7327438592910767 0.5807821154594421 -1.6853734254837036 -0.46530207991600037
bed -0.09479415416717529 0.02804107964038849 -0.25544121861457825 0.9360355138778687 0.6084854602813721 -0.005683910101652145 1.7399379014968872 -0.07998375594615936 0.6926724910736084 -1.15632963180542 -0.06950394064188004 -0.02566116489470005 -0.9157623052597046 -1.153613567352295 1.59293794631958 0.38853898644447327 0.10809130221605301 0.24504946172237396 0.14563557505607605 -1.4441198110580444 0.00292241876013577 -1.203354835510254 -1.7633776664733887 1.1670866012573242 -0.16701701283454895 0.39436760544776917 2.4644477367401123 -0.33438318967819214 0.1694353222846985 1.5304522514343262
bee -0.0009096828289330006 1.553255319595337 0.5891790986061096 0.468300461769104 -0.011882618069648743 -0.8137609958648682 0.34016159176826477 0.37410208582878113 -0.12475135922431946 0.5667218565940857 1.3554683923721313 -1.3708751201629639 0.12832625210285187 -1.2312473058700562 2.00235915184021 -0.29364410042762756 0.3647496700286865 -0.3781306743621826 -0.778679609298706 -0.1742425560951233 -0.14965730905532837 -0.587584912776947 0.1866045594215393 -0.29059770703315735 0.6420304775238037 0.012797235511243343 -0.09454531967639923 0.07638632506132126 0.2206428050994873 -0.017465658485889435
beehive -0.12627914547920227 -0.2869361937046051 -0.015511905774474144 -0.788830041885376 -0.010527956299483776 -0.05843675509095192 -0.19128933548927307 -0.7081096172332764 -0.12155484408140182 0.0844464972615242 0.15315207839012146 0.43664273619651794 -0.5951148867607117 0.06415200978517532 0.2153356671333313 -0.6684426069259644 -0.3929041624069214 -0.1442091464996338 1.0609883069992065 0.1352713406085968 -0.49903690814971924 -1.1772133111953735 0.6073785424232483 -0.17632874846458435 0.16401317715644836 -0.41661760210990906 -0.08842504769563675 0.18405164778232574 1.045717477798462 0.7136980295181274
beer -0.23385444283485413 -0.1985183209180832 0.6834179759025574 1.0676134824752808 1.4317322969436646 -0.6790619492530823 -0.10458678752183914 2.448622941970825 -0.44060322642326355 0.3967476785182953 -0.5874742269515991 -0.33537420630455017 0.22749339044094086 -1.2911810874938965 0.029738398268818855 -1.1146948337554932 0.26459068059921265 -0.6373170614242554 0.8548839688301086 0.34905949234962463 1.4807137250900269 0.43166476488113403 -0.5605589151382446 -0.19358302652835846 -1.7911667823791504 0.46287447214126587 -0.7353939414024353 -3.357692241668701 -0.41621312499046326 2.041027307510376
beetle 0.0005635163397528231 2.456942558288574 0.2642122209072113 -0.0011559268459677696 -1.4440025091171265 0.13065782189369202 1.102915644645691 0.10213533043861389 -0.2363927811384201 0.4359065294265747 -0.6994381546974182 -0.006423658691346645 1.461023211479187 -0.622292697429657 1.3737587928771973 0.10946785658597946 0.5280597805976868 -0.39110079407691956 -1.322218656539917 0.5965536236763 -1.7975186109542847 -0.1665174663066864 0.6313962340354919 -0.28158602118492126 -2.0387847423553467 -0.31372421979904175 0.5752992033958435 -0.33763131499290466 0.2231721729040146 1.4135637283325195
belt -0.8877599835395813 -0.7000303864479065 -0.42024266719818115 -0.2192254662513733 0.8472759127616882 0.24577856063842773 0.48223400115966797 0.9930035471916199 -0.1263010948896408 -0.8329325318336487 -1.3357495069503784 -0.08427304029464722 1.8071075677871704 0.2595881223678589 -0.11005058884620667 0.9133480787277222 1.8915003538131714 1.2145781517028809 -0.5678612589836121 -2.124340772628784 2.82141375541687 -0.26393747329711914 -0.1564084142446518 0.8004674911499023 -1.371645450592041 -0.023365648463368416 -0.6326112747192383 -0.059382352977991104 0.3180520534515381 -1.1559467315673828
bench -0.6929797530174255 -1.1368646621704102 -0.019523916766047478 0.7978751063346863 1.1754333972930908 0.4248431921005249 0.8645471930503845 -0.2523503601551056 -0.07959295809268951 -0.006021217908710241 -1.1122450828552246 0.6874237060546875 0.41649243235588074 0.11976276338100433 1.8420989513397217 -0.13066481053829193 0.8322553038597107 1.0563035011291504 0.5354516506195068 0.027318574488162994 1.5243189334869385 -0.15626579523086548 -0.21418102085590363 0.5266433358192444 0.9979861378669739 0.45484787225723267 0.817287802696228 1.0035792589187622 -0.32158684730529785 -0.014866841956973076
bicycle 0.2392784059047699 -1.1362159252166748 0.20580413937568665 0.8238260746002197 1.4420603513717651 -0.512528121471405 1.3848234415054321 0.48964178562164307 -1.2275772094726562 -0.3831285536289215 -0.4045247733592987 -0.2119046151638031 0.07816247642040253 0.8678016066551208 0.9130432605743408 -0.15295250713825226 1.567199468612671 0.3871854841709137 -2.663926601409912 -0.2668692469596863 1.2195377349853516 0.8021990656852722 1.4548945426940918 -0.15310004353523254 1.6666619777679443 1.7828311920166016 0.45407676696777344 0.008084926754236221 2.3585469722747803 -1.9315345287322998
bidet 1.1701349020004272 -0.3740840256214142 0.41403353214263916 -1.8694709539413452 -0.9001187086105347 0.11934331804513931 0.25861603021621704 -1.0901293754577637 -1.3207932710647583 0.2530738413333893 1.842686653137207 0.6212694644927979 -2.5292840003967285 -1.8869305849075317 -0.45300671458244324 0.42603203654289246 -1.3891819715499878 0.15599611401557922 0.10528188198804855 0.02637050300836563 -0.23549401760101318 -1.437907099723816 0.18397758901119232 -0.35245445370674133 0.16039453446865082 -1.0958091020584106 -0.2274257093667984 0.13795912265777588 2.0034499168395996 -1.2019959688186646
billboard -1.0120846033096313 0.33157920837402344 1.5570251941680908 0.8750426769256592 -0.006947625428438187 -0.12477477639913559 0.9149960875511169 0.9117598533630371 -0.11751855909824371 -0.043398886919021606 0.9616508483886719 0.16112422943115234 -1.2098468542099 -1.4477442502975464 0.453830748796463 -0.5659154653549194 0.022213933989405632 0.39701980352401733 0.14377450942993164 -0.8974770903587341 -0.12358123064041138 -0.17569924890995026 -0.4567164182662964 1.2802343368530273 0.8323820233345032 0.08651061356067657 -0.2714903652667999 0.4922413229942322 0.19685283303260803 -0.0618901289999485
binoculars -0.9997615218162537 -1.0282890796661377 0.2084919661283493 -0.6398073434829712 0.24498513340950012 0.37195098400115967 0.4410272538661957 -0.2051953375339508 -0.5592423677444458 0.32959961891174316 -0.004922162741422653 1.3803305625915527 -0.31920984387397766 0.014415089040994644 -0.6032899022102356 -1.7929103374481201 -0.7915381193161011 -0.10251326858997345 -0.19325831532478333 0.14664135873317719 0.03048308566212654 -0.6642336845397949 -0.06764934211969376 -0.0849333107471466 0.21500177681446075 -1.592057466506958 0.3074360191822052 0.06251778453588486 0.6477555632591248 1.0976308584213257
bird -0.6396213173866272 1.58716881275177 -0.6145501136779785 1.521378517150879 -0.2311413586139679 -1.8572696447372437 -0.30930888652801514 0.4166492521762848 1.7988642454147339 0.7958272695541382 1.0694466829299927 -2.070699691772461 0.0036940020509064198 -0.8276312947273254 1.4559218883514404 0.5537964105606079 0.43743985891342163 0.07655870169401169 -1.1342378854751587 -1.225844383239746 -0.8638790249824524 2.3261959552764893 -0.7949481010437012 -1.7229316234588623 0.9455578327178955 -0.12254685908555984 0.4010382294654846 -0.012110933661460876 -2.2620620727539062 0.2380858212709427
blender -0.0029940949752926826 -0.0027142430189996958 0.20792442560195923 -0.8699822425842285 1.030155897140503 0.12098435312509537 -0.11101744323968887 -0.2057141661643982 -0.12311799079179764 -0.22161297500133514 0.0475432351231575 -0.09929952025413513 -0.6381770372390747 0.23449991643428802 -0.6765305995941162 -0.14506377279758453 0.02145048789680004 -1.5631470680236816 1.5528874397277832 0.7758106589317322 0.5473001599311829 -0.10792208462953568 0.8788295984268188 -0.33708375692367554 0.9449184536933899 0.17181789875030518 0.0978841632604599 0.01052691787481308 -0.236191987991333 1.4640244245529175
boat 0.30371952056884766 0.18007764220237732 -1.94473135471344 1.1191784143447876 1.4131698608398438 -0.9868553280830383 -1.6650127172470093 -0.5761575102806091 0.24622225761413574 1.3402674198150635 1.905478596687317 -0.07659700512886047 0.0922468975186348 1.078799843788147 1.5481071472167969 -0.05954030156135559 -0.4608970284461975 0.9886142611503601 -1.7615209817886353 -1.7831820249557495 0.5928126573562622 -0.3076319992542267 0.42822396755218506 -0.17052653431892395 -0.7907153367996216 3.0022497177124023 0.317086786031723 -0.7638243436813354 -0.4072752594947815 -1.694338083267212
bomb 0.5880059003829956 0.8097425699234009 0.05645252391695976 0.38513052463531494 0.9076308608055115 -0.5075162649154663 1.3284882307052612 -0.555432140827179 0.7220057845115662 0.06731754541397095 0.4468413293361664 0.38788312673568726 0.22382275760173798 0.16703134775161743 0.8591261506080627 1.3374974727630615 1.3257752656936646 0.8651795387268066 -2.9137377738952637 -0.5866181254386902 0.8181971907615662 -1.0043507814407349 -2.861912965774536 1.2144571542739868 -0.7662935853004456 0.5924599170684814 0.8489270210266113 -0.9254091382026672 -0.0697418600320816 -0.755354642868042
book -1.422769546508789 -0.6691045761108398 -1.9290432929992676 2.7886459827423096 0.25785133242607117 -0.9638189673423767 1.3871804475784302 1.8841969966888428 0.13888919353485107 -0.5256019830703735 0.7878540754318237 -0.4054073989391327 -1.1853128671646118 0.09077509492635727 1.4393417835235596 0.11318817734718323 -1.0153592824935913 0.7649238109588623 -0.5199235081672668 -2.042557716369629 0.07583211362361908 1.1708612442016602 -1.8098502159118652 2.217397689819336 -0.8402122259140015 0.32392099499702454 0.4509378671646118 -0.4118151366710663 -1.6385419368743896 0.5095161199569702
bookcase -0.49529892206192017 -0.30897656083106995 0.8104470372200012 -0.40396812558174133 0.5207306146621704 0.22003786265850067 -0.11189534515142441 -0.20765595138072968 -0.19243673980236053 -0.4747268259525299 0.003958771470934153 1.089798092842102 0.08277660608291626 0.1790480762720108 -0.9806248545646667 -0.8909191489219666 0.031103959307074547 0.2235543429851532 1.2905263900756836 0.14988918602466583 0.23765307664871216 -0.7023028135299683 0.4512239396572113 -0.15994182229042053 2.167001247406006 -0.1745927780866623 0.16715703904628754 0.13226652145385742 0.481707900762558 0.044214919209480286
boot -0.1801857054233551 -0.9253341555595398 0.1894538402557373 0.1253674030303955 0.046722184866666794 0.489378422498703 1.5335617065429688 1.5633013248443604 -0.7424391508102417 0.6768937110900879 -2.7710535526275635 0.7010098695755005 -0.004746880382299423 1.1509308815002441 -0.5615449547767639 -0.1527465283870697 1.626727819442749 1.1280105113983154 -0.344503790140152 -0.3689482510089874 0.45585697889328003 -0.10945231467485428 0.1798507422208786 -0.8299658298492432 0.1067429780960083 1.5048120021820068 1.1228753328323364 -0.122916080057621 0.8451396226882935 -0.6450725793838501
bottle 0.12827062606811523 -0.4930720627307892 1.0442063808441162 0.6210582852363586 2.533327102661133 -0.18178895115852356 -0.03167625889182091 1.647132158279419 0.24676552414894104 -0.31119900941848755 0.13861112296581268 -0.25357362627983093 -1.1146756410598755 -1.6395636796951294 -0.18978635966777802 -0.6773566603660583 0.48990342020988464 -0.11743445694446564 0.5073438286781311 -0.09862343966960907 1.3067702054977417 -0.33228975534439087 -1.0274608135223389 -0.2392645627260208 -1.1842128038406372 -1.2182502746582031 -0.27454909682273865 -2.542776584625244 0.21828746795654297 1.1897120475769043
bowl -1.3970787525177002 -0.49400225281715393 0.8535076975822449 0.005235589575022459 0.018177488818764687 -0.2121758610010147 -0.016278279945254326 2.789461851119995 0.6436673402786255 -2.624270439147949 -0.9068142771720886 -0.10990935564041138 -1.6853160858154297 -1.4035389423370361 1.3315435647964478 3.353823661804199 0.14137227833271027 4.185510635375977 1.100683569908142 -0.5071556568145752 -0.033928386867046356 0.19878797233104706 1.238171100616455 -0.16459313035011292 -1.6534242630004883 1.0434454679489136 -0.7010672092437744 -1.2176896333694458 -0.41968342661857605 -2.8895466327667236
box 0.04207349196076393 -0.33064767718315125 -0.42043960094451904 0.8066908717155457 -0.0037484674248844385 -0.4714643657207489 0.825433075428009 2.887564182281494 0.35938575863838196 -0.26305824518203735 0.034603625535964966 1.2223472595214844 0.09219196438789368 0.8579718470573425 1.5352509021759033 2.0582962036132812 0.019321998581290245 0.603567898273468 -1.4498939514160156 -1.3861662149429321 0.316340833902359 0.05859693884849548 -1.091444969177246 1.9511892795562744 -0.007717731408774853 -0.05320090800523758 1.4435545206069946 -0.0263900738209486 -1.8546996116638184 -0.1473217010498047
boy -0.702970564365387 1.428269863128662 0.053564686328172684 2.126399278640747 0.932313084602356 -1.303706169128418 1.7887016534805298 1.0238441228866577 -0.1113496720790863 -0.08258439600467682 1.273429274559021 -0.7755918502807617 -1.5831769704818726 -1.1434544324874878 0.15404437482357025 0.12366853654384613 0.9482253789901733 -0.0791567713022232 -0.8522083759307861 -2.252110242843628 -0.3225201666355133 0.6197510361671448 -1.300229549407959 2.450554370880127 -0.4936174154281616 0.7139643430709839 -0.049529507756233215 0.44313231110572815 -1.8436143398284912 -1.3714696168899536
brassiere 0.4148362874984741 0.00040701008401811123 0.18833684921264648 -0.6711670756340027 -0.5766637325286865 0.09973999112844467 -0.6967728137969971 -1.5143879652023315 -0.12946049869060516 -0.006574680097401142 0.5699906349182129 0.15299198031425476 -0.4286364018917084 0.05987928435206413 -0.7955538034439087 -1.301653265953064 -0.3430260419845581 -0.10282144695520401 0.15405164659023285 1.593875765800476 -0.032066553831100464 -0.33932527899742126 0.4599668085575104 -0.16713768243789673 0.16029171645641327 -0.5944461226463318 -0.09636399149894714 0.4368321895599365 0.2741225063800812 -0.017739076167345047
bread -0.8086372017860413 0.49248090386390686 -0.4278201460838318 0.4263235330581665 -0.767371654510498 -0.975500226020813 0.36956870555877686 1.9903943538665771 -0.09307407587766647 -1.878970742225647 0.8725283145904541 -1.6073204278945923 0.6488051414489746 -1.1415435075759888 -0.48890841007232666 0.2604528069496155 0.013060906901955605 -0.7118121385574341 1.3255348205566406 1.8093116283416748 0.7645620107650757 -0.10857531428337097 -0.8246340751647949 -0.12768247723579407 -0.6717818379402161 1.461021900177002 1.1309860944747925 -2.2707951068878174 -0.5294355750083923 1.6797618865966797
briefcase 0.0005647141952067614 0.5605113506317139 0.8595198392868042 -0.21762056648731232 -0.5804190039634705 0.11817377060651779 0.9655390977859497 -1.3306376934051514 -0.3550674319267273 -0.33207520842552185 0.22016890347003937 0.4540731906890869 0.002004204783588648 0.6536906957626343 0.026325756683945656 0.33627721667289734 1.0657405853271484 0.8553918600082397 -0.7228437066078186 0.14968985319137573 0.14709721505641937 -0.11629541218280792 -1.4707894325256348 -0.755221962928772 0.1588788479566574 -0.17128346860408783 0.66644686460495 0.13536986708641052 0.2218066304922104 -1.1457706689834595
broccoli -0.0037022680044174194 -0.5298876762390137 0.20261579751968384 -0.21724608540534973 -1.3819551467895508 0.7081456184387207 -1.32264244556427 -1.0640840530395508 -0.12528569996356964 -1.3296985626220703 -0.17274905741214752 -0.6363345384597778 0.6495711803436279 1.56166410446167 -0.07744361460208893 -0.5386760830879211 -0.8245258331298828 -1.1140246391296387 0.11753957718610764 1.644904375076294 -1.6463558673858643 0.25395113229751587 -0.15927745401859283 -0.18606571853160858 0.7118644714355469 -0.04422151669859886 0.5760730504989624 0.13363398611545563 0.29632675647735596 0.0013249744661152363
building -0.01845751516520977 -0.9289274215698242 -2.491229772567749 1.8629910945892334 1.0299698114395142 -1.3038668632507324 -0.23251654207706451 0.1592501997947693 0.8661938905715942 2.3968138694763184 -0.9952039122581482 0.11301923543214798 0.14397263526916504 0.05952369421720505 2.2956478595733643 0.7775794863700867 -2.4774999618530273 2.5959482192993164 -2.1213412284851074 -1.2443771362304688 0.6158610582351685 -0.051647014915943146 -2.8245418071746826 1.5100767612457275 0.055424414575099945 0.5571454763412476 1.5324066877365112 -1.9641185998916626 -0.21116426587104797 -0.2415003925561905
bull 1.2862141132354736 0.22881057858467102 0.19103410840034485 1.756675362586975 1.6898126602172852 -1.9038742780685425 0.23791073262691498 0.20948763191699982 -0.23429390788078308 2.2192578315734863 -0.9679993987083435 -0.34278133511543274 -0.9880757331848145 0.10787142813205719 -0.6039935350418091 0.5084760785102844 0.19321249425411224 -1.2505083084106445 -0.11486168205738068 0.05705700442194939 0.907380998134613 1.4314424991607666 0.2426213175058365 -0.23456397652626038 -2.638359785079956 -0.24076201021671295 -0.3161710202693939 0.5146671533584595 -0.5865383744239807 -0.28400567173957825
burrito -0.006335961166769266 0.9749026298522949 0.4771135151386261 -1.9828768968582153 -0.8726368546485901 -0.3689122498035431 -0.10786593705415726 -0.4582218527793884 -0.05405580624938011 -1.2789912223815918 -1.023769736289978 0.15291057527065277 0.937275230884552 1.70789635181427 -1.1640448570251465 1.5431925058364868 -0.6144726276397705 -0.7272818684577942 0.1434292048215866 0.2757222354412079 -0.031612884253263474 -1.1479368209838867 0.8176723122596741 -0.17167170345783234 0.1583990603685379 -0.16047756373882294 0.003966683521866798 0.12304984778165817 0.35207822918891907 0.8243950009346008
bus 0.17205709218978882 0.08447037637233734 0.3345867097377777 0.20410721004009247 -0.010427042841911316 -1.0988638401031494 1.1920758485794067 0.5502937436103821 0.19725824892520905 2.70965313911438 0.3827590048313141 -0.4093395471572876 -0.8617480993270874 0.008944288827478886 1.5578633546829224 0.5945852994918823 -0.276881605386734 0.12913881242275238 -2.739750385284424 -1.3284112215042114 1.076167106628418 -0.20558258891105652 0.741028904914856 1.1359463930130005 1.0136430263519287 2.0805656909942627 0.4070340692996979 -0.8496806025505066 0.5465216636657715 -0.01023296918720007
bust -0.005165905691683292 0.15397797524929047 -0.07978418469429016 0.9247236847877502 -0.02781303972005844 0.1167972981929779 0.10352255403995514 -1.0299607515335083 -0.12589028477668762 0.30679258704185486 -0.04862642660737038 0.04478681460022926 -1.1230345964431763 -0.14551092684268951 -0.01913830079138279 -0.19544504582881927 -0.5115501880645752 -0.09079824388027191 0.2577313184738159 0.14446750283241272 -0.1695505976676941 0.2935902774333954 0.19294480979442596 -0.33298951387405396 0.1596239060163498 -0.17406809329986572 0.6509389281272888 0.25739818811416626 0.4874362051486969 0.15337680280208588
butterfly -0.002850522054359317 0.0016288186889141798 -1.0196620225906372 0.6871891617774963 -0.2682740092277527 -0.061274148523807526 -0.1045118197798729 0.2234008014202118 1.1131126880645752 -0.6681532859802246 0.02888636104762554 -0.5280968546867371 1.1525269746780396 -0.7096700072288513 1.4426308870315552 -0.2383464276790619 0.4365735948085785 -0.7386569380760193 -0.1549868881702423 -0.25679245591163635 -2.175680160522461 -0.10714267194271088 -0.9033562541007996 -1.0899864435195923 -0.8775631785392761 0.9290953874588013 -0.09582506120204926 0.7912781834602356 0.08975418657064438 0.006328404415398836
cabbage -0.014889989979565144 0.3514459431171417 -0.3866351544857025 -0.6158014535903931 -3.5779478549957275 1.2724276781082153 -1.5870568752288818 -0.9429112672805786 -0.12259487062692642 -1.6243019104003906 -0.1602853238582611 -1.5790247917175293 0.8759056925773621 1.2184137105941772 0.7766503691673279 -0.07937449961900711 -0.308221697807312 -0.7628735303878784 -0.44952163100242615 1.0173876285552979 -1.8816107511520386 0.2955860495567322 -0.04144849628210068 -0.15228751301765442 0.003829102497547865 1.344193935394287 0.3872230350971222 -0.6272498369216919 -0.05378802865743637 -0.125206857919693
cabinetry 1.5008786916732788 -0.0020621330477297306 -0.1898578256368637 -0.21307747066020966 0.07167056947946548 0.11778446286916733 0.9191507697105408 -2.312265634536743 -1.8885095119476318 1.9639488458633423 -0.44052988290786743 0.15303270518779755 -1.3804304599761963 -0.0948915034532547 -1.364111065864563 -1.8773711919784546 -0.18805518746376038 1.1356329917907715 0.07048193365335464 0.962786078453064 -0.6672035455703735 -0.6245165467262268 0.7721309065818787 -1.1081043481826782 0.6800715327262878 -0.17339353263378143 1.2908728122711182 0.6561625003814697 1.102845311164856 -0.12906010448932648
cake -0.43886852264404297 0.797052800655365 -1.2859934568405151 0.18000739812850952 -1.3748525381088257 1.171467661857605 -0.7337221503257751 1.6748820543289185 0.9196956753730774 -0.7844682335853577 1.500917673110962 -0.9143810868263245 0.8353608250617981 -1.6464648246765137 -0.4418754279613495 -0.14951258897781372 0.40958064794540405 -0.9861317276954651 0.6160221099853516 1.418853521347046 -0.08892253041267395 -0.4590449631214142 0.6141626834869385 2.169994831085205 -0.18264006078243256 1.9608447551727295 1.0277472734451294 -0.5237858891487122 -0.8733482360839844 0.5868037343025208
calculator -0.8621988296508789 -1.021288514137268 0.23031342029571533 -0.2668757736682892 -0.010015822947025299 0.45722684264183044 0.451364129781723 -0.20551487803459167 -0.12512655556201935 -0.009142779745161533 0.2575165331363678 0.761538028717041 -0.6409313678741455 0.46445751190185547 0.9255349636077881 -0.15446746349334717 -3.6437900066375732 0.9479093551635742 0.7481415867805481 0.825006902217865 -1.0222903490066528 0.18327097594738007 0.515449583530426 -0.15652848780155182 0.8153604865074158 0.17425847053527832 -0.048980675637722015 0.37602856755256653 2.406407117843628 1.526810884475708
camel 1.9212799072265625 1.1301761865615845 -0.8589354753494263 0.7874894142150879 -0.12007004022598267 -1.6436792612075806 0.9988711476325989 0.08100328594446182 -0.07162168622016907 0.3988598585128784 2.297785520553589 0.1502843201160431 -1.6329917907714844 1.7589319944381714 -1.3670192956924438 -0.21685069799423218 -0.06227387115359306 -0.4433212876319885 0.05001186206936836 0.8109287619590759 0.449535071849823 1.139897108078003 0.560633659362793 -0.15922048687934875 -0.06166785582900047 -0.17214424908161163 -1.5167537927627563 -0.07534439116716385 -0.038051143288612366 0.7799624800682068
camera -0.9986661076545715 -0.7369686365127563 0.0007619298994541168 1.022773027420044 0.6112349629402161 0.7869452238082886 1.7852556705474854 1.4760477542877197 -0.5426580905914307 -0.328296422958374 0.13420496881008148 2.076943874359131 -1.2323400974273682 -0.18584048748016357 0.04919007793068886 0.7762565016746521 -1.638198971748352 0.26950183510780334 -2.2541396617889404 -1.1823946237564087 0.11544215679168701 0.4662691056728363 -0.7544690370559692 1.7232640981674194 0.3539535701274872 0.32278773188591003 0.42411816120147705 0.43422335386276245 0.23746564984321594 1.415786862373352
canary -0.2512802183628082 1.1914829015731812 -0.06125103682279587 -0.043413933366537094 0.5211393237113953 -0.044898077845573425 0.14044712483882904 -0.2799757719039917 0.40382128953933716 1.9402250051498413 0.4426213204860687 -0.14426766335964203 -0.5969657301902771 -1.336207628250122 -0.18818429112434387 -0.1522853672504425 -0.4537895917892456 -0.24391967058181763 -0.07218018919229507 0.14340616762638092 -1.5889225006103516 -0.08928075432777405 -0.9253256320953369 -0.7286330461502075 0.9658988118171692 -0.8231310248374939 -0.05473310872912407 -0.480032354593277 0.1915014237165451 0.09552986919879913
candle -0.14433810114860535 -0.5384494662284851 0.1149173453450203 0.35741904377937317 -0.6415140628814697 0.30134883522987366 0.13791736960411072 0.004044197499752045 -0.4340192377567291 -0.6863631010055542 0.1827520877122879 0.44866496324539185 -0.9480732679367065 -1.1489648818969727 1.1373854875564575 -0.3977417051792145 -0.4559847116470337 0.7193846702575684 0.14369232952594757 0.48076191544532776 -1.9898349046707153 -0.052135467529296875 -0.41220492124557495 0.10384005308151245 0.21735700964927673 -0.5299038887023926 0.42701858282089233 -0.3429141044616699 0.791459858417511 -0.023649144917726517
candy -0.9811561107635498 0.6509467959403992 0.31782516837120056 -0.1980113685131073 -0.4837396442890167 0.8319298028945923 0.32882559299468994 1.520601749420166 0.814066469669342 -0.44320306181907654 2.090580701828003 -0.5468708276748657 -1.4661160707473755 -0.2754703760147095 -0.1921759694814682 -0.0452834814786911 0.26354312896728516 -0.7218528389930725 0.0506262332201004 -0.25219887495040894 0.10761966556310654 -0.862348198890686 -0.02105272002518177 2.4459211826324463 0.15702557563781738 -0.2622876763343811 -0.13695493340492249 -0.7546634078025818 -0.9603397250175476 1.1478677988052368
cannon 1.4135712385177612 1.0617396831512451 0.2081013023853302 0.8660064935684204 1.0098240375518799 0.0661582425236702 -0.5904868245124817 -0.4158048629760742 -0.1272115707397461 0.49460554122924805 0.9153271317481995 2.2758121490478516 1.6278661489486694 0.05235527828335762 0.08469247817993164 1.0458873510360718 -0.5724256634712219 2.116086006164551 -0.9309206604957581 0.09663277119398117 0.6478219032287598 0.25221526622772217 -2.58929705619812 -0.17965121567249298 -1.6363439559936523 -0.10624843835830688 -1.7863072156906128 -0.635456919670105 -0.08118019253015518 -1.378949522972107
canoe -0.0011380298528820276 -1.2881081104278564 -1.4625228643417358 -0.023287897929549217 0.2475271373987198 -0.12883970141410828 -1.321238398551941 -0.6547204256057739 0.9639827609062195 0.85172438621521 1.5268150568008423 0.43036752939224243 -1.4435127973556519 0.40718874335289 0.2959895133972168 -0.8219733834266663 -0.16729357838630676 0.2796471118927002 -0.2014462649822235 0.1420137882232666 -0.0825665295124054 -1.287765622138977 1.217418909072876 -0.827849268913269 0.4822763502597809 1.2462890148162842 0.024541441351175308 -0.11855440586805344 0.2205318808555603 -1.322248101234436
cantaloupe 0.2988698482513428 0.0011070258915424347 -0.5900188684463501 -0.3745126724243164 -0.2129354029893875 0.8661066889762878 -0.764611005783081 -1.186342716217041 -2.132138967514038 0.19197587668895721 0.03275168687105179 0.010904470458626747 0.07900319248437881 1.6664526462554932 -0.19209106266498566 -2.24121356010437 0.020699946209788322 0.7591667771339417 0.4815569221973419 0.04949451982975006 -0.031830836087465286 -1.5072728395462036 0.09947410225868225 -0.5300812721252441 -0.3187946379184723 -1.3363547325134277 -0.09452080726623535 0.6393807530403137 0.22096015512943268 -1.7786582708358765
car 2.008419990539551 0.08098550885915756 0.44267183542251587 1.3906289339065552 0.8076951503753662 -1.4054560661315918 2.0926506519317627 1.6619656085968018 0.30125731229782104 0.9315045475959778 -0.8509967923164368 -0.2536756694316864 -0.6168060898780823 0.17017892003059387 2.19189190864563 2.4570107460021973 1.248628854751587 1.0500799417495728 -3.1111741065979004 -2.1777963638305664 1.6796646118164062 -0.008579517714679241 -0.5479586720466614 1.0194957256317139 -0.40402522683143616 1.5383774042129517 1.4584286212921143 -0.935867965221405 0.33723026514053345 0.12344486266374588
carnivore -0.002655909862369299 0.5680434703826904 0.20591740310192108 -0.1599845588207245 -0.006957400124520063 0.22266152501106262 -0.10465005785226822 -0.6865557432174683 -0.11835937947034836 -0.002724217949435115 -0.0036420270334929228 0.026571888476610184 -0.5308671593666077 0.10127205401659012 -0.03695956990122795 0.593599796295166 0.021682724356651306 -0.10275764018297195 0.14330598711967468 0.5268747806549072 0.5960637331008911 -0.2078719139099121 0.2501721978187561 -0.8693662881851196 0.5341557264328003 -0.1744661033153534 0.5562628507614136 0.1371750384569168 0.22020110487937927 0.24262312054634094
carrot 0.07295596599578857 -0.004814391024410725 -0.5345752239227295 -0.17729629576206207 -3.308671712875366 2.6965584754943848 -0.1655653864145279 -0.20118796825408936 -0.13727721571922302 -0.2982134222984314 0.9595934152603149 0.0775606632232666 0.07989046722650528 0.4648234248161316 0.6313457489013672 0.023590087890625 -0.02892586775124073 -0.21999724209308624 -0.03022165223956108 1.7496224641799927 -1.563691258430481 0.18431906402111053 0.4901692271232605 1.1983733177185059 0.15804608166217804 1.1974371671676636 0.914503812789917 -0.3545856475830078 0.21314509212970734 -0.9790844321250916
cart 3.2966833114624023 -0.626997172832489 -0.4346286356449127 -0.23269668221473694 -0.06249931454658508 -0.620259165763855 1.556968331336975 1.467936635017395 -0.11714871227741241 0.011119347997009754 0.5681527853012085 -1.0315220355987549 -1.1415722370147705 2.9970057010650635 0.2835167646408081 -0.017186664044857025 0.11183442920446396 -0.22292616963386536 -0.4409436285495758 0.4977904260158539 1.2374110221862793 -0.002798437839373946 1.9873942136764526 -0.15375486016273499 0.15790991485118866 0.338350772857666 0.024460986256599426 -0.5379637479782104 0.35304349660873413 1.0558446645736694
castle 0.9023005962371826 -0.5560434460639954 -2.02083158493042 1.299291968345642 -0.9153839945793152 -2.2005584239959717 0.03503626212477684 0.28474268317222595 0.41586488485336304 2.6214864253997803 -0.27730849385261536 -0.3471051752567291 0.08339108526706696 -0.6656771302223206 0.7681422829627991 -0.23240253329277039 -2.0012362003326416 2.9980905055999756 -0.13807135820388794 -0.6847270727157593 -0.28996339440345764 0.2240816205739975 -1.0457333326339722 0.5318115949630737 -1.3746787309646606 -0.5898746848106384 -0.07624032348394394 -0.7207314968109131 0.24806854128837585 -0.4121004045009613
cat -0.5251665711402893 0.8871735334396362 -0.31716543436050415 1.272934913635254 -0.1367199718952179 -0.6827296018600464 1.1163649559020996 1.5938705205917358 2.318908214569092 1.6357190608978271 -0.8984394073486328 -0.6096623539924622 -1.3626782894134521 0.34740692377090454 -0.179931640625 0.7227604985237122 -0.21779894828796387 -1.5333181619644165 -0.8018680214881897 -1.407495379447937 -0.03446262702345848 1.2845301628112793 -0.20203723013401031 -0.08757808059453964 0.14986519515514374 0.3859456181526184 -0.4893304109573364 0.48378708958625793 -2.761704921722412 1.4404839277267456
caterpillar -0.00048113521188497543 -0.54512619972229 0.058391448110342026 0.09740225970745087 0.3384645879268646 0.2829742729663849 -0.10207583010196686 0.06931190192699432 0.2339884638786316 -0.27118197083473206 -0.40948042273521423 -0.3960718512535095 -0.4629085659980774 0.056420136243104935 0.8029847741127014 -0.15338467061519623 -0.7068685293197632 -2.103536605834961 -0.41525283455848694 0.832416296005249 -1.6889305114746094 -0.542471170425415 -0.05157989636063576 -1.7847950458526611 0.2268708199262619 1.9697521924972534 -0.09268549829721451 -0.09038667380809784 0.4508814215660095 2.221689224243164
cattle 1.71406888961792 0.3096398711204529 -1.9355510473251343 -0.07241028547286987 1.1776365041732788 -2.5307323932647705 0.24358654022216797 0.07400599122047424 -0.12183131277561188 1.1187927722930908 -0.5284345746040344 -1.7933822870254517 -2.5273311138153076 3.4176645278930664 -1.4677574634552002 0.5329064726829529 0.5166705846786499 -0.939274787902832 0.16511563956737518 1.772193193435669 0.12952293455600739 1.173397421836853 -0.8235098123550415 1.3050910234451294 0.2634967863559723 -0.013641783967614174 -0.3841620087623596 -0.47752270102500916 -1.7519497871398926 0.7999641299247742
cello 0.12967121601104736 -0.5214400887489319 1.3218601942062378 0.6365065574645996 0.2621489465236664 0.04032096266746521 -1.9150152206420898 -0.6586884260177612 -0.12559708952903748 -2.15744686126709 0.6997809410095215 0.36843299865722656 0.29306966066360474 -0.47512292861938477 0.20646150410175323 -2.099950075149536 -0.46417036652565 -0.1768089234828949 1.0328792333602905 0.8200410008430481 0.7813498973846436 -1.9942747354507446 -1.579427719116211 1.820283055305481 0.7609319090843201 -0.5468519926071167 -0.30153292417526245 3.0019710063934326 -0.26078280806541443 -1.0494303703308105
centipede -0.04316148906946182 0.8523710370063782 0.15544523298740387 -0.15506170690059662 0.2830103039741516 0.19260656833648682 -1.5460987091064453 -0.22976486384868622 0.5396535992622375 0.5526527166366577 1.0647462606430054 0.8306632041931152 -0.29708200693130493 0.5005183219909668 -1.1155065298080444 -0.2607228457927704 -0.8472751975059509 0.23230639100074768 0.8384554386138916 0.09452863782644272 -0.34034356474876404 -0.8093424439430237 0.15716181695461273 -0.1814470738172531 0.16031262278556824 -0.9492369294166565 -0.8222669959068298 -0.14663930237293243 0.21809081733226776 -0.01584058627486229
chainsaw -0.05295795947313309 -1.0367454290390015 -0.40734001994132996 -0.19200526177883148 -0.004002037458121777 0.23183667659759521 -0.10461422801017761 -0.9486846923828125 0.04354991018772125 -0.0002475911460351199 -0.21969391405582428 0.8531700372695923 0.7212198376655579 0.062181416898965836 -0.568527102470398 -0.179597407579422 0.7802634239196777 -0.16176898777484894 0.368765264749527 0.14212457835674286 0.9770461320877075 -0.7248703241348267 0.1607934981584549 0.027458563446998596 0.15723389387130737 -0.4401894211769104 -0.0922393724322319 0.5581156015396118 0.5948175191879272 -0.015689227730035782
chair -0.002198659349232912 -1.3944765329360962 0.2078620344400406 1.6980613470077515 0.4063842296600342 0.12168926000595093 1.0651683807373047 0.6585217118263245 1.296614170074463 -0.519809901714325 -0.5038753151893616 0.23619511723518372 -0.03741396963596344 0.0630912333726883 2.4808449745178223 -0.5019667148590088 -0.0898028090596199 1.6710736751556396 0.29346945881843567 -0.29065024852752686 0.6401078701019287 -0.6375989317893982 -0.8044100999832153 0.13414883613586426 0.24851785600185394 0.826784610748291 2.5137650966644287 0.5320377349853516 0.852406919002533 1.2866405248641968
cheese 0.19782106578350067 0.11878859996795654 -0.8879011273384094 -0.21667049825191498 -2.0662012100219727 -1.8749085664749146 -0.23808158934116364 1.852571964263916 -0.28608977794647217 -2.815584421157837 1.4578773975372314 -1.6077262163162231 0.12707705795764923 0.05962717533111572 -1.90926992893219 1.0884162187576294 0.05293834209442139 -1.5390146970748901 0.7994628548622131 1.955628514289856 0.7408440709114075 1.6998655796051025 -0.41106897592544556 0.8046431541442871 -0.1493222713470459 1.8073638677597046 -0.10623768717050552 -1.9460214376449585 -0.3702448606491089 1.734911322593689
cheetah -0.0012624601367861032 2.2070565223693848 1.9745616912841797 0.5944527983665466 -0.9238731265068054 0.11853001266717911 0.5606106519699097 -0.20293128490447998 -0.6830695271492004 0.9058469533920288 -0.6093013882637024 -0.3731343448162079 -1.1560378074645996 -1.0648049116134644 -0.8697240948677063 0.212427020072937 -0.5779721736907959 -1.774667501449585 -0.8227019906044006 -0.015529782511293888 0.04029679298400879 0.0878545492887497 1.271917700767517 -1.3252304792404175 -0.6592139005661011 -1.1554172039031982 -0.09319085627794266 0.7504737973213196 0.31082749366760254 2.1198110580444336
chicken -0.6305812001228333 -0.2643997073173523 -1.0496927499771118 -0.5239425897598267 -1.1898181438446045 -2.024364709854126 -0.40164315700531006 0.09797412157058716 -1.979198932647705 -0.640018105506897 1.480413794517517 -0.9655211567878723 0.5743398666381836 0.1314866840839386 0.08437658846378326 1.5426585674285889 0.010221847333014011 -0.38552892208099365 1.1910624504089355 0.5088775157928467 -0.2816149890422821 1.3585865497589111 -0.5773983597755432 -0.19078898429870605 -0.9482303261756897 2.9907546043395996 -0.04691837355494499 -1.3140966892242432 -3.8908047676086426 -0.15043921768665314
chime 0.561814546585083 0.15758898854255676 1.2418010234832764 -1.8265235424041748 -0.6203797459602356 -0.054825570434331894 0.23351718485355377 -0.7325472235679626 0.10878341645002365 2.539267063140869 -0.5502209663391113 0.6238235235214233 -0.08034317195415497 -0.4719218611717224 -0.48846617341041565 -0.16661879420280457 -0.5281552076339722 0.8946225643157959 0.41995683312416077 0.14296172559261322 -0.22574067115783691 -1.5426706075668335 -0.6040834188461304 -0.6472793221473694 0.26524481177330017 -0.47080957889556885 -0.5818386077880859 0.08899752050638199 1.3689407110214233 -0.13494856655597687
chisel -1.1629441976547241 -2.600060224533081 -0.4949667155742645 -1.4677554368972778 1.3060879707336426 0.11854547262191772 -0.10537275671958923 -0.2975190281867981 -0.16748639941215515 -0.3955342173576355 -0.20630496740341187 1.7090190649032593 0.03172540292143822 0.06016961485147476 -1.1545159816741943 -0.4615328311920166 0.01962381601333618 -1.6618391275405884 -0.13033676147460938 -0.14826974272727966 -0.03869473934173584 -0.7614370584487915 1.4711393117904663 -0.2592221200466156 0.1562245637178421 -0.1704649180173874 -0.8339067101478577 1.7074339389801025 1.5785752534866333 0.891933262348175
chopsticks -1.249513030052185 -0.20717492699623108 0.6256422400474548 -1.2266305685043335 0.5480396151542664 0.11900527030229568 -0.10231257230043411 -0.0014921898255124688 -0.031208563596010208 -1.1413187980651855 -0.6551735997200012 0.1206575334072113 -0.3316071927547455 1.2143332958221436 1.0379185676574707 0.4507748782634735 1.3283675909042358 -0.049893610179424286 2.2893600463867188 1.3025504350662231 -0.03823848441243172 -2.0273776054382324 0.23892554640769958 -0.8496537208557129 0.3481230139732361 0.8237964510917664 0.9650080800056458 -0.057947710156440735 1.3185285329818726 0.11238828301429749
clock 0.058846354484558105 -0.9714570641517639 -0.07374943047761917 -0.09935208410024643 -0.8030540943145752 -0.10042403638362885 0.3875105082988739 1.0954093933105469 0.032655537128448486 3.0395233631134033 -0.3664395809173584 0.7203465700149536 0.051308657974004745 -0.9361604452133179 2.010605573654175 0.5548121333122253 -3.029123306274414 2.9578857421875 -0.6077781915664673 0.14403727650642395 -1.7072622776031494 8.457707008346915e-05 -0.672053873538971 1.0712790489196777 1.0932663679122925 0.7259161472320557 -0.8801475167274475 -0.7688663005828857 0.7583475112915039 -1.1221566200256348
closet 0.9134573340415955 -0.004996886011213064 -0.03799863159656525 -0.7051611542701721 -0.13018615543842316 0.11009472608566284 1.5389469861984253 -0.20650507509708405 0.9575672149658203 0.92851722240448 0.6222580075263977 0.7157726287841797 -1.2720606327056885 -0.07494942098855972 0.040356144309043884 0.5007695555686951 0.01892566680908203 0.9710719585418701 1.3863892555236816 -0.8256760835647583 0.03836095333099365 -1.6145896911621094 -0.16754989326000214 -0.13881084322929382 -0.2649232745170593 -0.8346717953681946 1.151675820350647 0.1313137710094452 0.12538619339466095 0.6886023283004761
clothing -0.34882333874702454 0.5122087001800537 -2.8899877071380615 1.4912841320037842 2.091242790222168 1.9333378076553345 2.3264946937561035 -0.03964156657457352 -0.5260912775993347 0.8965853452682495 -2.4811882972717285 -0.7800642251968384 -0.20394036173820496 -0.20117256045341492 -0.5330316424369812 -0.10834531486034393 1.5170695781707764 -0.407164603471756 1.0523970127105713 -0.43380022048950195 1.198402762413025 -0.3429403007030487 0.32468336820602417 2.013911247253418 0.48910149931907654 0.9155826568603516 3.0523486137390137 -0.5375120639801025 -1.454957365989685 0.14442643523216248
coat -0.3886943459510803 -0.8267412185668945 -1.3021267652511597 0.45787715911865234 -0.6077635288238525 0.4767853915691376 2.0390775203704834 -0.08122484385967255 -0.004195937886834145 1.89676034450531 -1.7333706617355347 -2.694598436355591 0.971225917339325 0.41954442858695984 -0.8623194694519043 -0.21346339583396912 1.5050745010375977 1.7292354106903076 1.0165551900863647 -1.7944018840789795 2.186293363571167 2.3201704025268555 0.2859829068183899 0.0018944883486256003 -0.8509390354156494 -0.03182106092572212 -0.09232428669929504 0.3985748291015625 -0.653718888759613 0.48209908604621887
cocktail 0.23140829801559448 -1.3736238479614258 -0.015840014442801476 -0.21347709000110626 1.2802339792251587 0.11644582450389862 0.09392548352479935 0.15371178090572357 -2.9685959815979004 -0.0025777106638997793 -0.4315508306026459 -0.23291046917438507 0.8271965384483337 0.05689886584877968 0.1921888291835785 -0.7106590270996094 2.100597381591797 -0.33061620593070984 1.6395002603530884 0.14874540269374847 0.2574145495891571 -0.41007158160209656 -0.3585346043109894 1.1029397249221802 -1.4819024801254272 -0.17261077463626862 0.03252995386719704 -0.9127966165542603 -0.3164518475532532 -1.337965965270996
coconut 0.8990373015403748 1.062493920326233 -1.2991441488265991 -0.7799190878868103 -1.219534993171692 -0.3006995618343353 -3.584376096725464 0.5051137804985046 0.13770003616809845 -0.09144837409257889 1.5508440732955933 -1.8300367593765259 0.46832066774368286 -1.3006610870361328 -0.8223260641098022 -0.15070797502994537 1.1623059511184692 -0.9325491189956665 0.5554555654525757 0.8633750677108765 -0.17427170276641846 -0.751997709274292 1.39131760597229 2.792212963104248 -1.454813838005066 0.49483785033226013 -0.8340002298355103 -0.975037157535553 -0.7939751744270325 -0.11603294312953949
coffee -0.8662453889846802 -1.7137717008590698 -2.0519907474517822 0.025402793660759926 0.40167859196662903 -0.1788666695356369 -1.4419673681259155 1.213779091835022 2.759716033935547 -0.48820167779922485 0.7458246946334839 -0.3698484003543854 -0.006089554633945227 0.4155253767967224 0.7961887717247009 -0.48004117608070374 1.1936883926391602 0.7792816758155823 2.2149837017059326 1.279443621635437 0.6427611708641052 -1.3240959644317627 -0.830509603023529 2.895866870880127 -1.0754255056381226 0.38854584097862244 0.13242803514003754 -2.9977288246154785 -0.9807942509651184 1.1549822092056274
coffeemaker -0.0019168124999850988 -0.1377304494380951 0.2127402424812317 -0.23553110659122467 -0.010596046224236488 0.7989206314086914 -0.10511614382266998 -0.8390582203865051 -0.12738332152366638 0.6406474113464355 -0.0005050002364441752 0.18362995982170105 0.07732702791690826 0.6355053186416626 -0.3690524101257324 -2.027475357055664 0.3868093490600586 -0.09788627922534943 1.731012225151062 0.3082033395767212 -0.03696194663643837 -0.17347902059555054 0.8476032018661499 -0.1649644374847412 0.15977036952972412 -0.709885835647583 -0.09581054747104645 0.538159191608429 0.3017422556877136 -0.02123960666358471
coin -0.3577430546283722 -0.6406562328338623 0.04043533653020859 1.208392858505249 0.11776227504014969 0.40557658672332764 -0.11378077417612076 -0.027558645233511925 0.2493109256029129 -0.004222069401293993 -0.17013679444789886 -0.32905226945877075 0.08379741758108139 0.06279737502336502 0.050850287079811096 0.36972764134407043 -0.770215630531311 1.815426230430603 0.139815554022789 -0.321480393409729 0.4522482454776764 2.50341534614563 0.07760699093341827 -0.7156745791435242 -0.02741345949470997 -0.2587420344352722 0.5508706569671631 0.13192816078662872 0.22849015891551971 0.00632659625262022
container 1.288682460784912 0.23872609436511993 0.49541062116622925 -0.05216067656874657 2.0949225425720215 0.2919870913028717 -0.2659227252006531 0.15030018985271454 -0.13957656919956207 -0.29856592416763306 0.05855690687894821 0.6650392413139343 0.08417270332574844 -0.12733560800552368 0.7389430999755859 1.2215194702148438 0.7055070996284485 -0.09429456293582916 -0.5790450572967529 0.18196411430835724 1.0509541034698486 -0.6527683138847351 -0.9166923761367798 0.4451588988304138 0.04516683518886566 -0.5589198470115662 -0.09077286720275879 -2.246051788330078 -0.22822995483875275 0.12794101238250732
cookie -0.8976060748100281 0.8275459408760071 0.1172465980052948 -0.2546546459197998 -1.211142897605896 0.3685922920703888 -0.11171702295541763 0.22994673252105713 1.9783825874328613 0.36551257967948914 1.1416676044464111 0.11563653498888016 -0.395428866147995 -0.1456732451915741 -1.5269966125488281 -0.0977705717086792 -0.124474436044693 -1.0189684629440308 0.14535346627235413 0.14847701787948608 0.636848509311676 -0.5530598163604736 0.6370729207992554 0.5795115232467651 0.16101492941379547 1.295037031173706 -0.2977904975414276 0.13075098395347595 -0.14452311396598816 0.6235366463661194
cosmetics -0.007832223549485207 0.8403005003929138 -0.9739145636558533 -0.031546011567115784 1.8819677829742432 1.263137698173523 0.188748300075531 -0.1997774988412857 0.5444016456604004 -0.004860340151935816 -0.3092077076435089 -0.9906883239746094 -0.7386529445648193 -1.1272896528244019 -0.8293343186378479 0.15136946737766266 0.23551295697689056 -1.7440245151519775 1.5920721292495728 0.14517199993133545 0.23067279160022736 -1.1965423822402954 0.17544087767601013 0.7977975010871887 2.462827205657959 -0.3114607334136963 1.491618275642395 -0.002791266655549407 -0.42664697766304016 2.576418399810791
couch -1.7155392169952393 0.6272488832473755 0.34345173835754395 -0.04267778620123863 -1.610511064529419 0.7294082641601562 1.0957309007644653 -0.5690410137176514 -0.12330332398414612 -1.4197719097137451 -0.14446444809436798 -0.03705624118447304 -0.24544303119182587 0.06540946662425995 0.5754503607749939 -0.3470083773136139 -0.9691446423530579 0.7755595445632935 0.5181172490119934 0.7158803343772888 -0.9418799877166748 -1.4969167709350586 -1.0350154638290405 0.22113682329654694 -0.550105094909668 0.7767074704170227 1.0237116813659668 0.13046638667583466 0.741719126701355 1.1693447828292847
countertop -0.026240848004817963 -0.004010703414678574 1.65931236743927 -1.0051589012145996 -0.009405960328876972 0.1258295774459839 -0.11189419031143188 -1.0527392625808716 0.4598228931427002 -0.3646230399608612 0.021043986082077026 0.949696958065033 -0.05737774819135666 0.0640575960278511 -1.3569754362106323 0.8945919275283813 0.01570849120616913 0.022930026054382324 1.0353937149047852 0.9422509074211121 0.8773369789123535 -0.39739498496055603 -0.46594175696372986 -0.48019465804100037 0.1578211933374405 -0.29666033387184143 0.05207744240760803 0.3938907980918884 0.7726155519485474 -0.01886516809463501
crab 2.687661647796631 0.010906207375228405 -1.1565526723861694 -0.9772902131080627 -0.029984651133418083 -0.5749268531799316 -2.0049262046813965 0.7243173122406006 -1.6613789796829224 -0.6844639182090759 1.3459548950195312 -0.937700092792511 1.7560886144638062 -0.43030837178230286 0.2471257448196411 0.9060686230659485 -0.8110508918762207 -0.7737914323806763 0.14241012930870056 -0.03170241415500641 -1.6245917081832886 -0.4350351393222809 2.652228593826294 0.4491724669933319 -1.2401032447814941 1.1450908184051514 -0.09550122171640396 1.052352786064148 -0.652016282081604 -1.5254572629928589
cream 0.1636788696050644 -0.08131365478038788 0.012278765439987183 -0.19018031656742096 -2.4988138675689697 -0.5686126947402954 -0.42304685711860657 0.8317792415618896 1.115059494972229 -1.0392138957977295 2.25891375541687 -2.0342183113098145 0.5948824882507324 -2.121783494949341 -0.6326402425765991 0.09884249418973923 1.1595356464385986 -0.4620653986930847 0.7155147194862366 0.2018861621618271 3.160799741744995 0.43832412362098694 0.3708518147468567 3.117004156112671 -0.6356000304222107 2.0450010299682617 -0.8240986466407776 -2.1431596279144287 -0.6340511441230774 0.2654391825199127
crocodile 0.2604745030403137 1.9260149002075195 -0.41272830963134766 0.9339045882225037 -0.6312305331230164 0.12218791991472244 -0.4337732195854187 -0.19585078954696655 -0.12469656765460968 0.0026477002538740635 0.3006654381752014 0.215846985578537 0.07519419491291046 0.06290595978498459 -0.3301255404949188 0.3451996147632599 -0.1801488846540451 -0.782965898513794 -0.5761351585388184 -0.2745988368988037 -0.22700226306915283 0.7978706955909729 1.1964396238327026 -2.2383804321289062 -0.46834906935691833 -1.8641128540039062 -0.10927577316761017 0.19040919840335846 -0.9260354042053223 0.18629620969295502
croissant -0.0038229688070714474 0.07416863739490509 0.32901909947395325 -0.3016948401927948 0.43298617005348206 0.28760796785354614 -0.9562203288078308 -0.8945327997207642 -0.12915150821208954 -0.0014645103365182877 0.001783283893018961 0.15945914387702942 -0.17801479995250702 0.04946509003639221 -0.9405255913734436 -0.2813047766685486 -0.40745240449905396 -0.2657169699668884 0.14420729875564575 0.660012423992157 0.4474235475063324 -0.727642297744751 0.7178069949150085 -0.23157338798046112 1.861480474472046 -0.22582055628299713 0.20903393626213074 1.387832522392273 0.6575728058815002 -0.015562092885375023
crown 0.21905110776424408 -2.075239658355713 -1.4935094118118286 0.981696367263794 0.38350772857666016 -0.5745478272438049 0.1933160126209259 0.7468254566192627 0.7653986811637878 0.7088391780853271 -0.7105095982551575 -1.9416148662567139 0.9067092537879944 -1.0721529722213745 1.139078974723816 -0.6866850256919861 -0.8439188003540039 2.539381742477417 -0.16217531263828278 -1.4675642251968384 1.142810344696045 1.8115264177322388 0.17988179624080658 -0.20645232498645782 -0.8509085774421692 -0.059039175510406494 -0.08838199824094772 -0.08858940005302429 1.5303705930709839 -0.014702108688652515
crutch -0.00441984087228775 -0.9395350813865662 0.20278263092041016 -1.744738221168518 -0.01112289261072874 0.11936617642641068 -0.45100829005241394 -1.0509401559829712 -0.13032960891723633 -0.00815197266638279 0.6241999268531799 0.14981117844581604 0.8868306279182434 0.05938243865966797 -0.9640429019927979 -0.879568874835968 0.026302896440029144 -1.2442525625228882 0.14064782857894897 0.4461066424846649 0.5482879281044006 -0.575559139251709 1.0062235593795776 -0.3762175738811493 0.15545597672462463 -0.17127671837806702 -0.09547364711761475 0.1352163851261139 1.1902248859405518 -0.23429718613624573
cucumber 0.46440863609313965 0.09511901438236237 -1.3955546617507935 -0.893984854221344 -3.3312790393829346 0.1309891641139984 -0.8663384318351746 -1.495492935180664 -1.920972228050232 0.07345210015773773 0.8642029166221619 -1.5450280904769897 0.4352886974811554 -0.011034360155463219 0.6509473919868469 -0.15725666284561157 -1.6521745920181274 0.602958619594574 -0.1833287626504898 0.6460623741149902 -0.9112139344215393 -0.01154135912656784 -0.27666816115379333 -0.6915726661682129 -1.2918506860733032 0.13237477838993073 1.0534619092941284 -0.9714487791061401 0.9474149942398071 -1.3280290365219116
cupboard 1.0206289291381836 -0.4854578375816345 0.203477680683136 -0.9235419631004333 -0.5433099865913391 0.11502420157194138 0.15923048555850983 -0.3729984760284424 0.8755172491073608 0.4409463703632355 -0.00018698688654694706 0.21061338484287262 0.06763660907745361 -0.3979770243167877 0.3956478238105774 -0.4089753031730652 -0.4562831223011017 0.19276919960975647 0.2805763781070709 -0.35997718572616577 -1.2965118885040283 -0.9338030815124512 0.1759018898010254 -0.5534041523933411 0.16125161945819855 -0.5868736505508423 1.5225982666015625 0.41452884674072266 0.4956989586353302 -0.018090279772877693
curtain 0.006652542855590582 -1.7000420093536377 -0.4576423764228821 -0.9337382316589355 -0.009760859422385693 0.0253731831908226 0.0891709253191948 -0.5347417593002319 0.19274798035621643 0.23442929983139038 -0.9705825448036194 0.6762903332710266 -1.7951120138168335 -1.6838277578353882 0.746877908706665 -0.23695534467697144 -2.053370714187622 1.35158371925354 0.12661531567573547 -1.0724378824234009 -0.5257263779640198 -1.1226755380630493 0.10180259495973587 -0.16841545701026917 -0.3365229368209839 -1.1059035062789917 1.0501477718353271 -0.3157956898212433 0.8642958402633667 -0.018039118498563766
dagger -0.019558804109692574 -1.4883992671966553 -1.112681269645691 -1.275547742843628 -0.3376513123512268 -0.8195980191230774 -0.10346835851669312 -0.6455984711647034 -0.11981217563152313 -0.01881573162972927 0.3780956268310547 0.3916177451610565 1.175920844078064 0.060667648911476135 -1.8558348417282104 -0.2717701196670532 0.05639273673295975 0.004094539675861597 -0.1578167825937271 -0.5555609464645386 0.9625915884971619 -0.8611035346984863 -0.3417639434337616 -0.1661255955696106 -3.37507963180542 -0.30911892652511597 -0.09764652699232101 0.9727739691734314 1.1303220987319946 -0.8476523160934448
deer 1.4880043268203735 1.4222896099090576 -0.07362127304077148 -0.08142077177762985 0.12981931865215302 -1.483483910560608 0.7060005068778992 0.832149088382721 0.6562809348106384 2.160494089126587 -1.3940755128860474 -0.9425883889198303 -0.7430434823036194 3.5223731994628906 -0.6513739824295044 1.19465172290802 -1.551077961921692 -0.0679500550031662 0.19562360644340515 -0.5853290557861328 -1.2849568128585815 2.641050338745117 0.08440260589122772 -0.5147130489349365 -0.249508798122406 -0.17058426141738892 -2.5387678146362305 0.17357535660266876 -2.093773126602173 1.0525476932525635
desk -0.9804517030715942 -1.128645658493042 0.2848369777202606 0.38816243410110474 -0.21219222247600555 1.1061323881149292 0.5180845856666565 0.4839841425418854 2.1815342903137207 -0.45556211471557617 0.32015347480773926 1.1745662689208984 -1.921879529953003 0.82244873046875 0.6673061847686768 -0.15170800685882568 -0.5220727920532227 0.8779348731040955 0.15252594649791718 0.009823177941143513 -0.9152827262878418 0.024565186351537704 0.17378124594688416 1.4354835748672485 0.7011842131614685 -0.14127084612846375 3.4565117359161377 0.13306088745594025 1.0429352521896362 2.583603858947754
dessert -1.0109435319900513 0.6992474794387817 0.4397084712982178 -0.10996430367231369 -0.4789019823074341 0.914391279220581 -0.8712245225906372 2.153327703475952 0.07246973365545273 -1.2479400634765625 0.6257906556129456 -0.3005485534667969 0.7559038996696472 -1.8706271648406982 -1.3824818134307861 -0.44467541575431824 1.0743372440338135 -0.4905072748661041 1.2231433391571045 2.8898813724517822 0.6361055970191956 -0.8818197846412659 0.899384617805481 0.9669695496559143 0.28729110956192017 0.9833415746688843 -0.02988797426223755 -1.1822551488876343 0.22293496131896973 1.481205701828003
diaper -0.0017259704181924462 0.4649925231933594 0.8789727687835693 -0.7915890216827393 -0.23329991102218628 -1.0028576850891113 0.8133658766746521 -0.7600809931755066 1.420189619064331 -0.005419935565441847 0.696773886680603 0.036068323999643326 -2.7554640769958496 0.9171212315559387 -1.409118413925171 -0.6162728667259216 0.020997779443860054 -0.11830882728099823 0.14378580451011658 0.6850966215133667 1.1799449920654297 0.15046051144599915 0.19705025851726532 -0.16812612116336823 0.16101928055286407 -0.6633792519569397 -0.27118703722953796 1.1064691543579102 -0.2515026032924652 -0.013010567054152489
dice 0.01625218242406845 -0.8984495401382446 -0.21423271298408508 1.0712002515792847 -0.8337512612342834 0.1479133814573288 -0.10930537432432175 -0.25082501769065857 -0.14244724810123444 -0.3048139810562134 0.11109775304794312 0.5944351553916931 -0.027049442753195763 0.06881757825613022 0.29860737919807434 -0.7621541619300842 -0.8292484283447266 0.6689053773880005 0.05521474778652191 0.4007487893104553 -0.23254330456256866 0.5409569144248962 -0.02632853016257286 -0.4697858691215515 -0.46519455313682556 -0.6888492107391357 0.29818233847618103 0.2653141915798187 0.9418291449546814 0.5227215886116028
dinosaur -0.004811222665011883 0.5976572036743164 -0.5029495358467102 0.8218568563461304 -0.7131175398826599 -0.6531944274902344 0.37260153889656067 -0.1988605558872223 -0.29946988821029663 0.9334073662757874 2.873124599456787 0.15007762610912323 -1.3052394390106201 0.06421562284231186 -0.1695200502872467 -0.33783742785453796 0.09315821528434753 -0.01379376370459795 -0.4193013608455658 0.7565780878067017 0.3297633230686188 0.5205968618392944 0.10723353922367096 -0.5600300431251526 1.4893944263458252 -0.633114218711853 -0.10144438594579697 0.1371128261089325 -0.9182958006858826 -1.0309518575668335
dishwasher -0.005696976091712713 1.7224029302597046 0.20364826917648315 -1.0864068269729614 -0.008225343190133572 0.11158755421638489 0.036875102669000626 -1.4622020721435547 -0.12227892130613327 -0.003951646387577057 0.3411412835121155 0.29795292019844055 -0.1712312400341034 0.14958737790584564 -0.7366392612457275 0.7119313478469849 0.024468783289194107 -0.4283510446548462 0.14099262654781342 0.14218254387378693 -0.4532880485057831 -1.1054024696350098 -0.17495150864124298 -1.048128366470337 0.15935562551021576 -0.5412908792495728 0.8481103181838989 0.1325555443763733 0.2594071924686432 0.02442954108119011
dog 0.08257529884576797 0.6965457201004028 -0.5644378066062927 1.4705013036727905 0.36680012941360474 -2.0189387798309326 1.931494951248169 1.0907762050628662 2.094419240951538 1.3104150295257568 0.061955563724040985 -1.540877103805542 -1.761160969734192 1.2981131076812744 0.32879889011383057 1.539364218711853 0.1280357986688614 -0.009372375905513763 -0.1566704511642456 -0.5338495373725891 1.0097297430038452 1.6631603240966797 -0.17034167051315308 0.30074506998062134 -0.25252994894981384 1.3900279998779297 -0.061829373240470886 0.3738909065723419 -2.6293952465057373 1.1044782400131226
doll -0.0020437545608729124 0.5912274122238159 -0.22716300189495087 0.4166315495967865 -0.4125586450099945 0.07739634066820145 1.6335763931274414 -0.07204560935497284 0.07542787492275238 1.488619327545166 -0.0003935919958166778 0.4576835036277771 -1.071201205253601 0.3270616829395294 1.2381469011306763 -0.15505947172641754 0.23606811463832855 -0.9203631281852722 0.7075928449630737 -0.3703494071960449 -0.27451446652412415 -1.9688756465911865 0.18257881700992584 1.2089990377426147 0.1570814549922943 0.36795857548713684 -0.09199409931898117 1.3612189292907715 -1.428751826286316 -0.012831183150410652
dolphin 0.09357264637947083 2.166987419128418 -0.6911023855209351 1.720855951309204 0.8332486748695374 0.24286146461963654 -1.3668001890182495 -1.909656286239624 -0.48720234632492065 -0.05073034018278122 0.025932680815458298 0.466683954000473 -0.4236680567264557 0.31757432222366333 0.008895284496247768 1.4467711448669434 -1.994728446006775 -0.3475920557975769 0.5973871946334839 -0.1463475227355957 -1.064592957496643 1.0076051950454712 0.5503898859024048 -0.279124915599823 -0.16115981340408325 0.2618834972381592 -0.09097298234701157 0.6758167743682861 -0.04882181063294411 -1.6852827072143555
door 0.9474998116493225 -0.7255645990371704 -0.20080700516700745 0.1509750634431839 0.584185004234314 -1.6966708898544312 2.298888921737671 1.0273785591125488 2.1395153999328613 0.9358978271484375 -0.0016459200996905565 0.650380551815033 -1.6185964345932007 -1.0813467502593994 1.4307024478912354 1.6215265989303589 0.2564474940299988 1.2289975881576538 -0.5269531607627869 -2.57253098487854 0.1190108060836792 -0.7026557922363281 -1.8196306228637695 0.14431342482566833 0.04269549995660782 0.4430350065231323 2.120918035507202 -0.4449390470981598 0.07278645783662796 0.7607426047325134
doughnut -0.006404294166713953 0.41943222284317017 -0.19156835973262787 -0.3717457354068756 -0.30006587505340576 0.3416866362094879 -0.7884396314620972 -0.553031325340271 0.8580091595649719 -0.624825656414032 1.0573056936264038 0.15282601118087769 0.3527505099773407 0.06711238622665405 -0.09223971515893936 -0.5123201012611389 1.4833364486694336 -0.09821434319019318 0.30344337224960327 1.0557804107666016 0.9380154013633728 -0.8622772693634033 0.37366577982902527 0.5300924181938171 0.15930886566638947 0.47927939891815186 0.46723681688308716 0.5137873888015747 -0.32716748118400574 0.02008170820772648
dragonfly -0.10082289576530457 0.3044981062412262 0.27102142572402954 0.03373923525214195 -0.01157938688993454 1.867669939994812 -0.4650939106941223 -1.1277267932891846 -0.05769406259059906 -0.0022623108234256506 0.34257471561431885 1.016441822052002 1.4644924402236938 0.23176038265228271 -0.32775232195854187 -0.27301061153411865 -0.529144287109375 -0.027192210778594017 0.031216217204928398 1.0308862924575806 -0.2974695563316345 -0.10855051875114441 -0.4494873583316803 -1.102269172668457 -0.20107775926589966 1.0653071403503418 -0.09823374450206757 0.3706936538219452 0.4972483813762665 0.3273448646068573
drawer -1.1756513118743896 0.5204665064811707 0.888014554977417 0.4107888340950012 -0.22552332282066345 0.743598997592926 0.03824586048722267 -0.2120719999074936 1.1014060974121094 -1.0467040538787842 2.306654453277588 1.7643247842788696 -1.2002339363098145 -0.413704514503479 -0.7261936068534851 -0.21952076256275177 0.03047998435795307 -0.09716541320085526 0.557129979133606 -0.0406976118683815 -2.630544900894165 -0.27784809470176697 0.04287552461028099 -0.06671172380447388 0.6425174474716187 -0.591192364692688 3.394296169281006 0.39935925602912903 0.3139011859893799 -0.6139769554138184
dress -0.7259170413017273 -0.6046869158744812 -2.010796070098877 0.6544756293296814 0.9248581528663635 1.3239686489105225 2.9849863052368164 -0.2050633281469345 -2.0950534343719482 0.863044798374176 -1.3179562091827393 -0.42583516240119934 0.9013878107070923 -0.9844202399253845 0.10408606380224228 -0.8307851552963257 3.1744771003723145 1.0337917804718018 1.9150173664093018 -2.114715337753296 1.1835427284240723 -0.0477776899933815 0.21984060108661652 1.5259501934051514 -0.9775426983833313 0.3218470811843872 0.35159313678741455 0.529196560382843 -0.9160585403442383 -1.3940346240997314
drill 0.17937858402729034 -1.7195069789886475 -2.4738032817840576 0.5496327877044678 1.730264663696289 0.12093713134527206 -0.14369046688079834 -0.14038695394992828 -1.9224482774734497 0.030090469866991043 -0.3383229970932007 2.5924549102783203 2.000437021255493 0.14609076082706451 0.3115066885948181 0.5131796598434448 0.07511325925588608 -0.07847438007593155 -0.13781625032424927 -0.14660298824310303 0.8252165913581848 -0.2888575494289398 0.11376585811376572 -0.143463134765625 -0.39659383893013 0.1891237199306488 -0.6635696291923523 0.5498154163360596 0.6205981969833374 -0.03009730949997902
drink 0.6714004874229431 -0.5261127948760986 -0.5310311913490295 0.8538677096366882 2.112762689590454 -0.2457815557718277 -0.10459758341312408 1.9107221364974976 0.12771515548229218 0.584325909614563 0.5574544668197632 -1.1666643619537354 -1.1194437742233276 -1.0796905755996704 0.46873536705970764 -0.14525549113750458 0.7343984246253967 -1.4149847030639648 1.8705494403839111 0.7924150228500366 0.7711009979248047 -0.5451903343200684 0.6637895703315735 1.404141902923584 -2.73164701461792 -0.1324758231639862 0.4582911729812622 -2.7977375984191895 -0.3435947895050049 0.22907420992851257
drum 1.5206482410430908 -0.6746252775192261 0.7333352565765381 1.4750676155090332 0.25400006771087646 -1.6436128616333008 -0.8430547714233398 1.632168173789978 -0.1332067996263504 -1.232923150062561 -1.4526100158691406 0.16790492832660675 2.1181159019470215 -0.7720286250114441 2.0233049392700195 -0.20611417293548584 -0.8655232787132263 0.24081280827522278 -0.04275982081890106 -1.479630708694458 0.5838607549667358 -0.1056244745850563 -0.3982219398021698 1.0517840385437012 0.5593255758285522 -1.3787662982940674 -0.5225312113761902 1.0372610092163086 0.32867783308029175 -0.3275076448917389
duck -2.6892101764678955 -0.30165040493011475 -0.8917808532714844 0.012419965118169785 -0.46409863233566284 -1.0533427000045776 -0.17387685179710388 0.13372106850147247 -0.07031036168336868 0.3808806538581848 0.34136176109313965 0.16937363147735596 -0.24667169153690338 1.4360357522964478 0.036130744963884354 -0.11319242417812347 -0.24812065064907074 -0.1018996313214302 0.16517584025859833 -0.018617970868945122 -0.9702203869819641 1.1445834636688232 -0.5532839894294739 -0.5826733708381653 0.8300195336341858 2.7995617389678955 -0.7398422360420227 0.11978892982006073 -3.3951914310455322 -0.018561843782663345
dumbbell 0.2445412129163742 0.22420577704906464 0.21234868466854095 -0.3212498128414154 0.05010736733675003 0.12104877084493637 -0.1059902161359787 -2.0914268493652344 -0.12990134954452515 -0.007180232089012861 -0.2958908975124359 -0.16005182266235352 1.0072922706604004 0.060807038098573685 -0.34348422288894653 -0.1565994769334793 0.44893336296081543 -0.1005043014883995 0.14698952436447144 1.8416032791137695 0.06803939491510391 -0.7903507947921753 0.18230821192264557 -0.3599250912666321 1.1413146257400513 -0.17000068724155426 0.8679279685020447 1.5496631860733032 0.2279900461435318 -0.018549514934420586
eagle -0.650370717048645 0.7779778838157654 0.2921411991119385 1.5411763191223145 0.705015242099762 -0.6121185421943665 -0.9187005162239075 -0.27946946024894714 0.04504210129380226 0.6563836932182312 0.03581498935818672 -1.986125111579895 0.8638074994087219 -0.5313475131988525 -0.7293152809143066 0.9160082936286926 -0.3797723650932312 0.7794540524482727 -0.7831857204437256 -2.3330159187316895 0.17154096066951752 4.202029228210449 -0.07101338356733322 -1.707688331604004 -0.6676725745201111 0.5215592384338379 0.5757300853729248 0.1346929967403412 -0.08541584014892578 -0.014736497774720192
earrings -0.0038903341628611088 -0.42729151248931885 0.20990203320980072 -0.1097991019487381 -0.009326814673841 0.11942459642887115 -0.10714508593082428 -1.8781616687774658 -0.1175452321767807 -0.0029851351864635944 -0.0007872451678849757 -0.18601562082767487 0.08270224928855896 -1.8495851755142212 -0.4395318925380707 -2.863290786743164 0.018043816089630127 -0.09120827913284302 0.7384411692619324 0.09653747826814651 -0.34124812483787537 -0.1107451543211937 0.18915101885795593 -0.16714130342006683 0.15817119181156158 0.08514130860567093 -0.15895316004753113 0.5270224809646606 1.6443849802017212 -0.01617693342268467
egg -0.09163741022348404 0.2446407824754715 -1.172954797744751 0.17707131803035736 -1.841331958770752 -1.0388160943984985 -0.3743167221546173 1.0349165201187134 0.17811760306358337 -0.6760488748550415 2.719369649887085 -0.7091301083564758 0.8626925945281982 -1.6993893384933472 0.3724711537361145 0.525753915309906 0.01886509545147419 0.6944080591201782 0.4762389659881592 1.3860931396484375 -0.1445835381746292 1.2633241415023804 -1.0230673551559448 -0.578942596912384 0.06364700198173523 1.3360671997070312 -0.3382658362388611 -1.1113674640655518 -2.3042829036712646 -0.492456316947937
elephant 1.6177968978881836 1.6025604009628296 -1.3026201725006104 1.9512733221054077 -1.662404179573059 -1.9704465866088867 0.8543562293052673 0.34102141857147217 -0.2413981407880783 2.919675827026367 0.1669636219739914 -0.01564898155629635 -0.9609525799751282 0.09328066557645798 0.1977771818637848 -0.28554442524909973 -1.5188151597976685 -0.08517351001501083 -0.43121129274368286 0.2574683725833893 -1.1173112392425537 1.512278437614441 0.18109364807605743 -0.8277986645698547 -2.4702036380767822 -2.1055898666381836 -0.6807323694229126 0.1993870586156845 -0.763500452041626 0.1732635200023651
envelope -0.07701662182807922 -0.3029969334602356 -0.8746208548545837 -0.3010863959789276 0.10429643839597702 -0.06489718705415726 -0.8187516927719116 -0.8828591108322144 -0.2958482503890991 1.4250656366348267 -0.1374296098947525 0.7165179252624512 0.18603438138961792 0.27122607827186584 -0.1932772547006607 -0.7371853590011597 -1.0967780351638794 1.2019758224487305 -0.857844889163971 0.444941908121109 -0.03996076062321663 -0.33281195163726807 -1.578627109527588 0.030878424644470215 1.2053195238113403 -1.4166375398635864 1.7577637434005737 -0.7767809629440308 0.32603928446769714 -0.013127430342137814
eraser -0.29856500029563904 -1.5730913877487183 -0.6595039367675781 -0.6177465319633484 0.26258668303489685 0.8468511700630188 -1.8542182445526123 -0.20782113075256348 1.1483185291290283 -0.008546479977667332 -1.4370052814483643 0.15592795610427856 -0.3078140318393707 1.8264541625976562 -0.1982298493385315 -0.4496048092842102 0.02145337127149105 -0.9887434840202332 -0.3377901315689087 1.1828174591064453 1.0073665380477905 -0.5451529026031494 1.7979532480239868 -0.16834259033203125 0.48688122630119324 -1.8004014492034912 -0.09134303778409958 1.2061187028884888 0.5035431385040283 0.1098286360502243
falcon -0.3638530671596527 0.7123628258705139 2.3138155937194824 0.3571692705154419 1.0067766904830933 -0.15656839311122894 -0.458139568567276 -0.8994990587234497 0.37394824624061584 -0.3113926351070404 1.382055401802063 -0.6028376221656799 0.2653574049472809 -0.23583954572677612 -0.65967857837677 0.3406546413898468 -0.74663907289505 0.838867723941803 -1.1077096462249756 -2.061523675918579 1.2817474603652954 2.285158634185791 -0.8830894231796265 -1.4217530488967896 0.16079957783222198 0.12975557148456573 -0.339000403881073 -0.5761372447013855 0.7196559309959412 0.8548499941825867
fax -0.77297043800354 -1.0711413621902466 0.39249640703201294 -0.9992257952690125 -0.0067749316804111 1.687727689743042 -1.1358253955841064 -0.4452913701534271 0.12714147567749023 -1.5969089269638062 0.8203707933425903 2.0200130939483643 0.08279260993003845 0.06009732931852341 -1.6883867979049683 -0.0688757374882698 -0.40779557824134827 -0.3428371548652649 0.12588581442832947 0.14719775319099426 -1.0854606628417969 -0.8685905933380127 0.4218180775642395 3.051802158355713 0.38025224208831787 1.3208942413330078 -0.3562254309654236 1.426358699798584 0.14377233386039734 0.06722093373537064
fedora 0.362347275018692 -0.46518129110336304 -0.017241284251213074 -1.8987061977386475 -2.2158069610595703 1.5330504179000854 1.4583226442337036 -0.44551581144332886 -0.1306789219379425 0.9061470627784729 -0.0018822768470272422 -0.16983801126480103 1.5625778436660767 0.06196213513612747 -1.0033177137374878 -1.2238659858703613 0.9132954478263855 -0.10024326294660568 0.5694875121116638 -1.1913646459579468 1.393628716468811 -0.04321974888443947 1.058521032333374 -0.7359287142753601 0.19059236347675323 -2.881814479827881 -0.09456829726696014 0.2787787914276123 -0.11347940564155579 -0.39434248208999634
fireplace -0.22617965936660767 0.0144163453951478 0.23630639910697937 -0.8158862590789795 0.14285284280776978 0.060327768325805664 0.25927308201789856 -0.20304298400878906 0.05329238250851631 0.3047536611557007 -0.005686930380761623 0.6716454029083252 -0.7801594734191895 -0.25550520420074463 0.08658438175916672 -0.48952847719192505 -0.024817369878292084 0.4122210741043091 0.674953818321228 -0.6192184090614319 -1.6264346837997437 -1.46988844871521 -0.2898145914077759 -0.1653006374835968 0.5058385133743286 -0.17861972749233246 1.0811288356781006 0.1332639902830124 0.9236388206481934 0.43517032265663147
fish 0.7808862328529358 1.134475588798523 -3.0022311210632324 1.7796201705932617 1.4400404691696167 -1.472797155380249 -1.954912781715393 1.1277408599853516 -1.48042631149292 -2.2249956130981445 0.15977799892425537 -1.2623189687728882 1.5954160690307617 -1.3394451141357422 0.9347213506698608 2.601635694503784 -0.13800711929798126 -1.7808221578598022 0.34067869186401367 -0.5857849717140198 -2.3218259811401367 1.7122347354888916 -0.0954212099313736 -0.3090784549713135 -0.7964985966682434 1.8259940147399902 0.7767120003700256 -1.0475146770477295 -2.683203935623169 -0.785171389579773
flag -1.3478929996490479 -0.6424053907394409 -0.27267226576805115 1.3118867874145508 -0.004524982534348965 0.14107082784175873 0.2697277069091797 0.39625951647758484 -0.12275844067335129 1.621247410774231 -2.6393685340881348 -1.7614109516143799 1.2238320112228394 1.3362354040145874 0.9014971256256104 -0.005387068726122379 -0.2302996665239334 3.1621384620666504 -0.4710903763771057 -1.5541863441467285 0.8787326216697693 2.3268420696258545 0.25776880979537964 0.13969828188419342 -1.3584039211273193 0.2293408066034317 0.02957994118332863 0.0010349021758884192 0.7160166501998901 -1.443705677986145
flashlight 0.44586899876594543 -0.3617668151855469 -1.3425266742706299 -0.5652032494544983 -0.007746279705315828 0.11439812928438187 -0.10409250110387802 -0.334351509809494 -0.9997182488441467 -2.3206074237823486 -0.40254485607147217 1.7275973558425903 0.39359185099601746 -0.4414050281047821 -1.246335744857788 0.6100764274597168 0.026889663189649582 -0.10121581703424454 0.1341037005186081 0.14254377782344818 -2.3595004081726074 0.5988245010375977 -0.560256838798523 -0.5400136709213257 0.160770446062088 -0.5846633315086365 0.424938440322876 0.24372437596321106 1.3972347974777222 0.058871109038591385
flower 0.07444509863853455 0.45014697313308716 0.40065571665763855 0.054459262639284134 0.027082128450274467 -0.601749837398529 0.041926309466362 0.6518876552581787 0.8752610683441162 -0.6529793739318848 -1.242892861366272 -3.5676896572113037 2.046902656555176 -3.16259503364563 2.5271193981170654 -0.34277114272117615 0.8048626184463501 -0.09228599071502686 -0.3564911484718323 -1.1934772729873657 -1.7891209125518799 -0.17922832071781158 -1.1680405139923096 1.3379043340682983 -0.05572662875056267 -1.2819428443908691 0.20194150507450104 -0.3922688663005829 -0.2710360586643219 -1.3868390321731567
flowerpot 0.17905597388744354 0.30939990282058716 0.5423653721809387 -1.202392339706421 -1.1833467483520508 0.1209908276796341 -1.1882610321044922 -0.34707850217819214 -0.12872977554798126 -0.005184245761483908 0.670893669128418 0.15313786268234253 0.7645921111106873 0.023005636408925056 -0.9258357286453247 -1.0631860494613647 0.025720031931996346 -1.1042687892913818 -0.20861846208572388 0.14450782537460327 -1.098810076713562 -0.0823756754398346 0.18086963891983032 -2.3640215396881104 -0.7266554236412048 -0.6955186724662781 -0.8212364912033081 0.22697535157203674 0.2223379909992218 -0.44723445177078247
flute 0.3838193118572235 -0.46977758407592773 1.0355268716812134 0.6386197805404663 0.5605579018592834 -1.304671287536621 -1.3718101978302002 -0.20139586925506592 -1.6362041234970093 -2.5835816860198975 -0.24507425725460052 -1.231526494026184 0.9222834706306458 -0.3052115738391876 2.3792917728424072 -0.9274916648864746 -0.17496679723262787 -0.4362417757511139 0.8881553411483765 0.1445421278476715 0.534794807434082 -0.6820890307426453 -0.711661696434021 1.2045128345489502 2.1533687114715576 -1.5509711503982544 -0.6169130802154541 2.7158241271972656 0.15407413244247437 -0.3681248426437378
food 0.33153480291366577 1.5061954259872437 -3.4062931537628174 1.591575026512146 1.5559396743774414 -0.5314126014709473 0.23005008697509766 2.23083233833313 0.7998622059822083 -0.14621634781360626 -0.6246705651283264 -2.409923791885376 0.08829318732023239 0.030037585645914078 1.0278215408325195 2.571681022644043 0.25570446252822876 -1.3718689680099487 0.7235628962516785 0.24893903732299805 -0.1124272271990776 0.25478488206863403 0.26398637890815735 0.7178061008453369 -0.8729197978973389 2.037875175476074 2.336327314376831 -2.4461371898651123 -2.285231828689575 2.412187337875366
football -3.3161470890045166 -1.2823889255523682 0.9805461168289185 2.3324928283691406 0.41260626912117004 0.007630585692822933 1.4472577571868896 1.3028244972229004 -0.8243515491485596 0.1957629919052124 -2.373924970626831 0.48245155811309814 -0.8196917772293091 0.723300576210022 0.751380443572998 1.3987065553665161 -0.2923862636089325 3.9817326068878174 0.3463609218597412 -0.32345256209373474 0.25426703691482544 2.5405850410461426 0.18379433453083038 0.6120977401733398 -1.5152770280838013 2.7239367961883545 -0.3082594573497772 -0.7240930795669556 0.21093879640102386 -2.186223030090332
footwear 0.003314794972538948 1.334214448928833 -1.0712350606918335 0.15820537507534027 0.12539401650428772 2.327838182449341 1.4572679996490479 -0.43045517802238464 -0.637724757194519 0.534674882888794 -2.9634265899658203 0.2646661698818207 0.12575897574424744 0.15661484003067017 -1.4362194538116455 -0.11313705891370773 0.8457685112953186 -0.40995508432388306 0.814581036567688 0.4256930947303772 0.29433947801589966 -1.2312657833099365 1.8102771043777466 0.21228143572807312 1.5971006155014038 0.6982396245002747 3.3876404762268066 -0.5761042237281799 0.696693480014801 -0.018683701753616333
fork -0.19124983251094818 -1.3484421968460083 -0.1697903722524643 -0.40397247672080994 0.12203674018383026 -0.8146572113037109 0.2679615616798401 0.8023049831390381 0.954094409942627 -1.4411382675170898 -0.3224445879459381 -0.7856771945953369 0.7699449062347412 -0.45413854718208313 0.08803564310073853 0.22694595158100128 2.6196839809417725 -0.18138070404529572 -0.8688718676567078 0.6690155267715454 0.09470678120851517 0.10953296720981598 0.12798552215099335 -1.2431888580322266 -1.3017449378967285 1.6709731817245483 0.5399776101112366 0.13511797785758972 2.097824811935425 -0.012601304799318314
fountain 0.5776275396347046 -2.7102677822113037 -1.3583520650863647 0.22886569797992706 0.6076145768165588 -0.8435500860214233 -0.7702454328536987 0.19162578880786896 1.0497182607650757 1.1015576124191284 -0.601294219493866 -0.4638189375400543 0.062416452914476395 -0.551015317440033 0.43574830889701843 -0.11595950275659561 -2.39904522895813 -0.3614419400691986 0.20584626495838165 0.18730278313159943 -0.1809670776128769 0.7720236778259277 0.023462707176804543 0.03981398046016693 -0.7537603974342346 -1.043928861618042 0.5960461497306824 -0.032091837376356125 0.25302261114120483 -0.07871516048908234
fox -1.7315049171447754 1.0825642347335815 0.3898521363735199 1.203542709350586 -0.2636928856372833 0.02085404470562935 0.3331338167190552 1.0651944875717163 2.0480713844299316 1.1221399307250977 -0.32362785935401917 -0.05914393439888954 -1.7589184045791626 0.3291719853878021 -0.19139090180397034 2.016139268875122 -1.6572723388671875 1.4260048866271973 0.08387444168329239 -1.543276309967041 -0.2586926817893982 2.1032636165618896 0.2600119709968567 1.1410605907440186 -0.4480128586292267 1.4027118682861328 -2.686195135116577 0.6268991827964783 -1.5684345960617065 0.5008015036582947
frog -0.3698916435241699 0.20462194085121155 -0.6566660404205322 0.4085693359375 -1.4304945468902588 -0.06754297763109207 -0.8253515958786011 0.8119317293167114 0.19100187718868256 -0.006276505999267101 -0.3666009306907654 -0.8309322595596313 0.2786896526813507 0.05894937738776207 -0.4414147138595581 -0.21855933964252472 0.31431201100349426 -1.268323302268982 -0.7953498959541321 -0.16125017404556274 -0.18391107022762299 1.016178846359253 1.13473641872406 -0.49966126680374146 -0.5783811807632446 -0.22616401314735413 -0.2072957158088684 0.41354840993881226 -1.8318076133728027 -0.4717140793800354
fruit -0.8400399684906006 1.4568473100662231 -0.04974048212170601 0.38002175092697144 -1.3137651681900024 0.8924219012260437 -0.8414559364318848 2.0449416637420654 -0.6299283504486084 0.013526919297873974 -1.3993815183639526 -4.3282599449157715 0.08380395174026489 -0.9588273167610168 1.169716715812683 0.29649555683135986 3.233689785003662 -0.7416006326675415 0.2580788731575012 1.7847434282302856 -1.1119548082351685 0.2215370535850525 -0.20775219798088074 2.0461971759796143 -0.8954145312309265 -0.13993437588214874 -0.5459102392196655 -2.1206982135772705 -1.7264939546585083 -1.121397614479065
furniture 0.98935467004776 -0.0833606868982315 -1.9773929119110107 1.1939356327056885 1.5276905298233032 0.11578549444675446 0.48444873094558716 -0.2159004807472229 0.742780864238739 1.3424177169799805 -2.5077707767486572 0.14835989475250244 -0.5692296624183655 0.23620058596134186 0.7769229412078857 -0.6450771689414978 0.04613145440816879 0.8709879517555237 0.3769527077674866 0.5190435647964478 -0.037039998918771744 -1.3099886178970337 -0.45071718096733093 1.2569769620895386 0.7569851875305176 -0.02812058851122856 4.154669284820557 -0.12170524150133133 0.10599710047245026 0.5084412097930908
giraffe 1.6123121976852417 1.9626551866531372 -0.2346028834581375 1.0360032320022583 -1.1774276494979858 0.11601675301790237 -0.06951821595430374 -0.06913064420223236 -0.7965332865715027 0.5458498001098633 0.2769733965396881 0.4215678870677948 -0.20754021406173706 0.0715079978108406 -0.08411900699138641 0.12938204407691956 -0.7276394963264465 -0.23600000143051147 0.9777698516845703 1.3188287019729614 -0.8796159029006958 0.679047703742981 1.0841296911239624 -1.0733704566955566 -1.6089285612106323 -1.9843165874481201 -1.1943209171295166 0.9860289096832275 0.042421504855155945 0.7588413953781128
girl -1.1685060262680054 1.447139859199524 0.20564934611320496 1.045540690422058 1.214323878288269 -1.346955418586731 2.9483253955841064 1.3082892894744873 0.7428067922592163 0.15555121004581451 1.355437159538269 -1.0181883573532104 -1.5607579946517944 -3.427945375442505 0.8522660136222839 -0.07935778051614761 0.6520016193389893 -0.8368563055992126 0.2871816158294678 -3.615286350250244 -0.8904221057891846 -0.5931274890899658 -1.0060069561004639 2.4116690158843994 -0.19890040159225464 0.21270348131656647 -0.43183934688568115 0.28781047463417053 -1.3059895038604736 -0.33739161491394043
glasses -0.0778718963265419 -1.5185160636901855 0.4506804347038269 0.05236992985010147 1.294491171836853 0.2790178656578064 2.0544180870056152 1.2911163568496704 -1.3838709592819214 0.1572950780391693 -0.3606759011745453 -0.06663855910301208 0.38243672251701355 -1.863422155380249 0.10592979937791824 -2.545236349105835 -0.0029034235049039125 -0.02840648591518402 1.3325607776641846 -0.08632708340883255 0.9830759167671204 0.011432635597884655 -0.19539862871170044 0.7775307297706604 0.15942054986953735 -0.3610263168811798 -0.45349815487861633 -1.0888757705688477 0.219440758228302 1.3979437351226807
glove 0.17794543504714966 -0.42355433106422424 0.8006522059440613 -0.48691967129707336 0.020412210375070572 1.5519311428070068 0.33719876408576965 0.8297714591026306 0.6159440875053406 -0.007548503577709198 0.00036374444607645273 2.151029586791992 -0.2872645854949951 0.446547269821167 0.20135369896888733 1.8812295198440552 2.4775021076202393 1.9540671110153198 0.07917656749486923 0.1449493020772934 -0.06967036426067352 -0.12061996012926102 -1.1676299571990967 -0.7142326235771179 0.9860831499099731 -0.17136046290397644 0.8918565511703491 0.6183749437332153 -0.7124952673912048 -0.7456300854682922
goat 1.0700526237487793 0.08691690117120743 -0.6973027586936951 -0.359828382730484 -0.0812196135520935 -3.5534427165985107 0.1827368140220642 0.08538639545440674 -0.10660640150308609 -0.9516844153404236 1.0147769451141357 -0.5717433094978333 -2.2950680255889893 1.6381646394729614 -1.6824712753295898 0.5741987228393555 0.02424389123916626 -1.149617314338684 0.3674810230731964 0.6702860593795776 -0.041164010763168335 2.2893662452697754 0.1860595941543579 0.23856042325496674 0.08089924603700638 0.25926098227500916 -1.7815771102905273 -0.12139596790075302 -1.740979552268982 1.0887150764465332
goggles -0.512490451335907 -1.1966599225997925 0.9478981494903564 -0.1582537740468979 1.2858538627624512 0.8956251740455627 0.6751024723052979 -0.017574097961187363 -2.2050817012786865 0.9152188301086426 -1.231630563735962 0.06086859479546547 0.8157629370689392 0.05637208744883537 -1.6047453880310059 -3.5362019538879395 0.733226478099823 0.7358518838882446 0.7698284983634949 0.776717483997345 1.9138292074203491 -0.024708153679966927 0.17935720086097717 -0.6243442893028259 0.832470715045929 -0.14401549100875854 0.031470660120248795 -1.4642833471298218 0.22147394716739655 0.5945934057235718
goldfish 0.4135735332965851 1.5660195350646973 0.3966703712940216 -0.8522700071334839 -0.004274717532098293 0.39805498719215393 -0.9171133637428284 0.2697743773460388 -0.562848687171936 -1.6968296766281128 -1.4432576894760132 0.37613701820373535 0.34503868222236633 -0.6061195731163025 -0.057731643319129944 1.584373950958252 0.21014218032360077 -0.3848763108253479 0.2373649626970291 0.25430285930633545 -2.3099100589752197 0.4058520495891571 0.6699920296669006 -1.013189673423767 0.1608291119337082 -0.5355954766273499 -0.13521844148635864 0.18304310739040375 0.13427777588367462 -0.46514713764190674
gondola 1.0897575616836548 0.28100624680519104 1.8657106161117554 -1.0006781816482544 -0.008550886064767838 0.11850497126579285 1.4116014242172241 -0.5243123173713684 -0.7243105173110962 1.7262210845947266 -0.45114272832870483 0.6443983316421509 1.47731614112854 0.3373929560184479 0.39793887734413147 0.6118336319923401 0.6135985851287842 1.0300990343093872 -0.16451825201511383 0.2980709671974182 1.0806045532226562 -0.7202329039573669 -0.7127730250358582 0.15563669800758362 0.7331097722053528 0.16762642562389374 0.6224648952484131 0.4201853573322296 2.6349592208862305 0.5683366656303406
goose -4.8200273513793945 0.3873395025730133 0.34390023350715637 -0.228313609957695 0.7195377945899963 -1.4787263870239258 -0.10613958537578583 -0.8470120429992676 -1.1321855783462524 1.0160640478134155 1.4177517890930176 0.03855236619710922 -1.181149959564209 0.26261648535728455 -0.46570467948913574 -0.7806704640388489 0.029403463006019592 -0.07182815670967102 0.05642100051045418 -0.2520900368690491 -0.9324906468391418 1.4359363317489624 0.06175778806209564 -1.0461931228637695 1.0759543180465698 2.447535276412964 -0.18842244148254395 -0.05518403649330139 -1.8667092323303223 -0.09588437527418137
grape -1.4796059131622314 -0.6122612357139587 0.5464996695518494 0.353482723236084 -0.7938043475151062 1.6136407852172852 -0.912151575088501 2.4488067626953125 -2.543915033340454 -0.3406544029712677 -0.4075694978237152 0.2072548270225525 -0.11047160625457764 0.8335254788398743 0.573150634765625 -2.1134183406829834 0.7964501976966858 -0.1296907514333725 0.4105411171913147 1.3457497358322144 -1.6389070749282837 0.06080923229455948 0.27773329615592957 0.639624834060669 0.5710383653640747 -1.3249523639678955 -0.09877515584230423 -2.613539218902588 0.8454558253288269 -0.44253864884376526
