429 30
accordion -0.08190802073651121 -0.0875846501501474 -0.09442593002201063 -0.09824598725996245 -0.08084100762627788 -0.09360261140025733 -0.08342716338781134 -0.08931493920662509 0.24415017686803922 -0.09790988821090468 -0.08888138049622867 -0.06607245795096434 0.24251164514684154 0.14832780876741683 -0.08678285906464775 -0.0648242716717468 -0.08842840279652382 -0.09249085908451782 -0.08418017187544705 -0.012770257318041609 0.13759361300261885 -0.05019631845977087 -0.09450866930830175 0.06984327915463083 0.273654282117932 -0.07885503189289864 -0.07656122338994722 -0.07313407727360229 -0.06402671684095426 0.06363165663357358
aircraft 0.01888306942117473 0.2780057828655821 -0.093474896178215 0.16504163119128248 0.11829916119139575 -0.09341515121739283 -0.056813951918005055 -0.0660232419507424 0.26164541837063654 -0.10392786549232655 0.20442440074995252 -0.017117805269190878 -0.03828517340601466 -0.08121256970551274 -0.08425511788839381 -0.07385255067680196 0.09428376431665741 0.09857380472593168 0.07381159785083324 0.1843024403713727 -0.005644374056837062 -0.05920140176814987 -0.09365970582240776 0.2044305457069661 -0.10955835840750426 0.06715079448802677 0.1041373752922904 0.012047172673815063 -0.0829385119428558 0.1733476024862183
airplane -0.05073862577864797 0.09898541867491045 -0.08562350335190137 0.04390313363502718 0.008188211173501868 -0.07390852955166081 -0.029790259146318925 -0.09393860925413021 0.09589163391776374 -0.09900608148744772 0.04316046485924319 -0.09113371850794742 -0.055223125274507914 -0.061317281799618005 -0.024994725977215027 -0.07533838461555291 0.024717607441964114 0.02187769379207262 0.0698187017009592 0.27611103663782666 -0.09432616488310797 -0.0792508194890092 -0.09384909496976326 0.09465315091898895 -0.016460503277974967 -0.07451259242573882 0.08608854986731504 0.012858847065538137 0.030819344273425833 0.11581140464160536
alpaca 0.039639913686717904 -0.023113652887676975 0.06621964557709685 -0.004617059345258692 -0.05251197275227857 -0.005009079625968587 -0.08115567520116967 0.19461234932356547 -0.08524680733391989 0.01777624642502068 -0.0886373934244924 -0.09346762976245794 -0.004155893688490111 -0.06812797849994325 0.07573608770723787 -0.026558520062252226 -0.08836984759743664 -0.08853168542603278 0.12511752256403907 -0.041942814087956054 -0.036957115224625976 -0.06296894947050702 -0.09403407329080042 -0.002162957133008988 -0.06537989199521785 -0.09741052861860153 -0.008992403961005183 0.02727248457609493 0.0032145094364924715 -0.08552461556961818
ambulance -0.03647624100964625 0.05750361573449779 0.0319916415817336 -0.06477683933003331 0.026206139197597157 -0.09379783054571873 -0.036060739249953386 -0.0030702755762922963 0.20042577601001726 -0.10490701588126582 0.008605847667263286 -0.09324097090193252 -0.05362139726025437 -0.08380238766502848 -0.08708271187578068 -0.04227389587046864 -0.08154894407387894 0.09511652391402195 0.14436027889764913 0.2138550796406528 -0.09397587193122094 -0.07995234468776935 -0.0944027599545853 -0.032986186134162786 -0.10997422121021797 -0.0506183011511727 0.1805547837646928 0.13543904765134493 -0.1000364283007897 -0.09109936991334369
animal 0.1970115758532871 0.044515343182238196 0.32110607421465837 -0.07820377139040331 0.06657689564831383 -0.054747335933140504 -0.08323692154074722 0.2587341733493662 0.03550353679863395 -0.1042668789268064 0.10346062132165701 0.01100239524985282 -0.01714851427584157 0.05279925437208279 0.02132424953306879 0.007802428400010811 0.02787926304220167 0.10926918050008742 0.051459041176405096 0.052795608453155514 0.03688730642504739 -0.03175863623355409 0.04546462314757364 0.1400534063781573 0.07952724644461785 0.004404069499688443 0.0561048786798939 -0.002113636478047651 -0.09958913984429009 -0.009365042284197466
ant 0.1668665826820598 -0.012887778436835832 0.03697052056800785 -0.07278445621311891 -0.06210933790709898 0.038360075236166996 0.007771028429143871 0.08314678050168163 -0.06329228598112926 -0.07381391872247163 -0.04418738503446895 0.023047127717347574 -0.07625088074260379 0.03512406350806983 0.009109037856347122 0.007414687429744683 -0.05937500733678473 -0.013420717387724582 -0.08271981991596962 0.06822833315819832 0.060521693490251466 -0.08320858137426305 -0.09387244996057542 0.004208017755177722 0.089873280656904 0.12478907233831922 -0.009435211807520001 -0.013974565643931701 -0.09939621425131188 0.02763912447291767
antelope -0.07113090933013565 -0.08747745033539896 0.18095786841778505 -0.09834255900019451 -0.09323111352033756 -0.0943989087529926 -0.068323416972692 0.2393108088611448 -0.020820613324461543 -0.08385485551216816 0.14710845394050442 -0.0544910032698132 -0.08496072279222001 0.1096515095907112 0.03125018779426317 -0.08766872194727622 -0.08037861134338845 -0.09899777549829801 0.09492015533375066 -0.09240740430452948 0.10426872389454701 -0.020948296929284717 -0.05530325588905442 0.17154968321282116 -0.09789940745086523 0.07925404426113289 -0.09362259800843022 -0.09083031876761834 -0.09929685144588844 -0.10519380870666134
apple 0.002111792231203006 -0.08770767928889488 -0.08765573933783245 -0.07713441827508255 -0.012141702161543757 0.14419522683610733 0.46698918287216024 0.14475608256774963 -0.0812251174822583 0.03737576397886732 -0.012965594384809046 -0.08080239648589575 -0.08023122173527718 -0.03664660892006169 0.0296900831576078 -0.008706772621781671 -0.0882880386390894 0.01746506402736447 0.017886289363352046 0.0918208539158133 -0.057831895824578546 0.15595299306797836 0.07406696970183262 0.08965602336119279 -0.002499440223059801 0.17849089614578245 0.0550882619598919 -0.04985099373875385 0.14974890824437403 0.05464540451694897
armadillo -0.08164186830151716 0.029123035439753874 -0.06303795519952143 -0.00615597554575616 0.006634570945079672 -0.02681352447900078 -0.08361230643931508 0.14008828572850254 -0.02451641433034542 0.06847879068516569 0.04307596639697494 0.10345443483058339 -0.09251509938175585 0.08754194878653075 0.004335496474269244 -0.09189499037558306 -0.0885996198951437 -0.03607289320757404 -0.006838705132650278 -0.09273943607518108 -0.09398602133522221 -0.06779957116553806 -0.09402168051582889 0.07638529322626082 -0.07886572222601551 -0.09714305695666654 0.08241161093411661 -0.022458397364742203 -0.09059427973247053 0.010987195905268705
artichoke -0.08149003702501945 -0.07170754423927848 -0.037017579760198344 0.038012748383130825 0.04911721250845642 0.09280731530969201 0.0013454478199454863 0.07428807074775177 -0.08557941085214282 -0.10484761317879986 0.0047434913891246005 -0.0366142875672242 -0.09257092843798403 -0.09592752661408625 -0.08682757986396553 -0.0927254819983063 -0.019563667186957116 0.07787651536528314 -0.08418363799457443 -0.10349882978862386 -0.062463172874765695 0.14323991490340812 -0.0839620476384513 -0.010427064853211213 0.08049476660170753 0.031097258077445598 -0.0936929916054413 -0.09094292486032265 -0.015030438722853886 -0.0956013845329766
axe -0.07252671403186725 -0.03592388657878857 -0.09396959122661235 0.050142745159983876 -0.09008201635839956 -0.03141266271487963 -0.004098168591346682 0.010220193649766937 -0.0849030112795789 -0.07506038632973763 -0.03528143980840473 0.14656222172722516 0.04595964112950813 0.09970139361923326 -0.08714846439053128 0.29791361513808606 -0.07943218646498133 -0.036569347407509244 0.0861782990229147 0.11361561039141067 0.0682021351437753 -0.07658557176731026 0.044724139595564934 -0.07999037038860422 -0.11001733520392441 0.009283371894426995 0.003948295487607231 -0.07719357432747224 -0.09975288688187753 0.16048571940856093
backpack -0.08183689536597906 0.13164209384454598 0.022193616254406568 0.0009775524664964626 -0.06167377472700853 0.01779189287205309 0.06343539716670847 -0.07019129680026182 0.124732249501091 -0.07462267589557484 0.04545631797181291 -0.09293135746485316 -0.07889117667201417 -0.009554681643127071 -0.07386370569197595 0.010184937522564825 -0.06102538105235727 0.08509379246254388 -0.060146659134398275 0.06039900424243787 -0.09391051054276267 -0.052526597634275335 -0.020605202948532613 -0.00568392677711661 -0.10154680053859921 -0.0975311864958979 0.1541146294185034 -0.07854214767452695 -0.020149863002523735 -0.03043115701547951
bagel 0.09274804953601257 -0.08744781041568153 -0.06130706666178611 0.0304623278017007 0.023691097353890692 -0.08299734135776055 -0.08338910032422216 -0.07851203088373077 -0.03436551671762946 0.17339368230489557 -0.08835138958506819 -0.09319235029137 0.03939978199718859 -0.04865971519670358 0.12433965920135925 0.01987987818458887 -0.06402994535634253 -0.09799611138944578 0.12640911956394182 -0.1024097215305252 0.10085564810607127 0.057769650322292074 -0.09404976170446774 -0.09739927112405505 0.09048681476009414 -0.096843430219683 -0.010504647271990237 0.018717643183698892 -0.09977180267451595 -0.10352327028996286
ball 0.04194634866499415 0.17585703211611395 -0.04176024021122604 0.12750889818339745 0.06490132103427561 0.09923433702900607 -0.06572447163932219 0.06412794797530269 0.17820678965602485 0.12216654925789991 -0.08813755219760608 0.16743519476334692 0.19142819489583618 0.004865008529915557 0.06504448352412773 0.0444743245739409 -0.02167249302871449 -0.07982229526737425 -0.040180718746353816 -0.10156601756578743 0.0049981747379354985 0.22867989146735013 0.05167972756564891 -0.008394531380977687 -0.06905817733701007 0.05248953308502223 0.10049151492810089 0.036019710051476146 -0.04380348271158587 0.017680123028212227
balloon -0.024244744788617448 0.025565848639710596 0.06531347553636022 -0.019923781616701792 -0.07381944872319139 0.12062904133649198 -0.014911525991944027 -0.09352410899208 0.196276663523604 -0.10333798373758048 0.11051580235310657 -0.08929105978571016 -0.039933947489358794 -0.07977732593737259 -0.023966909772885493 -0.09251613746463562 -0.0009533646736272764 0.0070302656668676635 -0.04442869138670238 0.07784366689743245 -0.09390296391873437 0.012852298510514075 -0.04743855389614035 0.16947529166791347 -0.08512399406824146 -0.09116787208908891 0.10789745392679088 0.09579708940832758 0.0008610860335302597 0.14221880049613672
banana -0.07178326179302025 -0.017004791224786767 0.05661770180956608 0.02076936351926387 -0.08464093501420551 0.11866162133674214 0.27114623797139886 0.05063833380108702 -0.04209581254624071 0.024497073439803677 0.17474919300660546 0.046377399373569425 -0.07909183272706333 -0.07603349684879072 0.016477038601877592 -0.017396823082687838 0.03251038980519104 0.1852873108863833 -0.05374159787451837 0.023940853520864742 -0.07231410547189664 0.0507275463357779 -0.06650270315947109 -0.09469039147753422 0.17223484837580483 -0.09442424722509016 -0.039862926078697965 -0.09075989673441658 0.06771757708466641 0.11410615139409917
band-aid 0.07575039453415562 -0.030862259049672245 -0.08323195846892208 0.021895776360250432 -0.09345816858964187 -0.07019655929027906 0.09035026141991628 -0.06888519605640916 -0.06299978591967939 0.022664146070963606 -0.08892530628447295 -0.07668987378531952 -0.022435667303146133 -0.019866442139404993 -0.07580924964016984 -0.06258159346371676 -0.0885617747471871 -0.09877746012786012 -0.008824933678138419 -0.03426191127919521 0.029202533206261587 -0.021430265913828645 -0.08870207600478915 -0.028481967645417255 -0.04334435484149344 -0.06800677286402837 0.009429973675783122 -0.038741113520755155 -0.07141993701350904 -0.10550436473590954
banjo -0.07050403466473183 -0.05922239822678967 -0.09418877193192378 -0.049766265187361484 -0.09345816858964187 0.07814692680767182 -0.02100793234597733 0.02540354042547834 0.21019475679232721 -0.09497158923813127 -0.08880423317124068 -0.09325891510327777 0.25045688872539196 0.0804260270224342 -0.08470061958146057 -0.08570041720885178 -0.08856723174546385 -0.09891740671720499 -0.0475077466725669 0.0017920615818781428 0.06301960671086876 -0.02325480602179549 -0.09452634436303232 0.14978984277659785 0.24875542386265967 -0.09747873373871406 -0.0500282656697658 -0.07183159577486872 -0.018051441975801535 0.04107713043516227
barge -0.08171383229037506 0.09684760181508316 0.019407909226231437 -0.07778524213188015 0.009960027238522361 -0.09415581111238489 -0.08314102743590399 -0.09334539924270494 -0.041819654673502585 0.10377966410453196 0.07961889556792451 -0.017990170984071248 -0.09274850266979028 -0.09605176330178261 0.0783593033936844 -0.06654107644619449 0.014726745111329827 -0.023898749051691648 0.08744250669570466 0.2400277145398832 0.016695064398080963 -0.0323854203148935 0.04389839173419792 -0.06769789873985246 -0.10760858628083214 -0.09116553646133715 -0.049565624030601815 -0.09070691766644798 0.020816656604928062 0.00334200792263177
barrel 0.04379517765459633 0.11724914244033532 -0.08966219077570099 -0.07704354804737427 -0.05415800049148798 -0.09365191846818298 -0.08330986757538014 -0.04256153487578474 0.022187827558263037 0.0899150977829624 0.2280780739859618 -0.09298574071449074 0.19468803538698345 -0.08077431267887035 -0.002376000381879124 0.15499317463389045 -0.06591399301844308 -0.09881594120988575 -0.012417267095174283 -0.09099092173136669 0.3534024715279511 0.17601513990861656 -0.04327792076371666 -0.09816096112609811 -0.04719390994434746 -0.025658006312940383 0.07034390305392052 -0.08552470807915453 0.15917719412550846 0.1327787716262883
bat 0.08688987927138776 0.18293691789240366 -0.0011033863454305546 0.0668786616251744 0.07950365338592146 0.1318079383766591 -0.05048576358915275 0.1067172481570693 0.19904537368732914 -0.047514128501549006 -0.08687616376081518 0.08681343399506872 -0.003714543421920861 0.08875523174529022 -0.056871787337743764 0.11022137494379568 -0.058016520181498554 -0.09889231689358817 -0.0840325740207523 -0.09022587857489377 -0.05529636551248465 0.12271550934715095 0.019893565255030762 0.07917752230707376 0.00849864278962228 0.04399982986985471 -0.05037751664757098 -0.017905905804579028 -0.0989073415772906 -0.015434281653821552
bathtub -0.01013081700754639 -0.08759107958411777 -0.005392797077790992 -0.09838425418802023 -0.03825141819312376 -0.0017442487763636228 -0.024698726523573605 -0.05868734707986043 -0.08608051331978431 -0.05571330391739637 -0.08858240188484841 0.16008915653597935 -0.09227982184638014 -0.04982977720436522 0.022537516021998372 -0.05224425326288561 -0.08814562395566562 -0.06640277463045628 -0.08391796291926429 0.07826422400376125 0.050374944219675845 -0.037259020031031445 -0.036077022912284956 -0.06805268975668803 -0.06630581759691166 0.23399830740446265 -0.06950175402653916 0.07981731930337442 0.09445451776553547 0.020649946284766036
beaker -0.07417746243606986 0.012556527644847196 -0.0939433699385489 0.09060432448764788 -0.02304210261312789 -0.04892947557717987 0.11733620945894414 -0.09036897177736967 -0.013530572518731633 -0.10426595867506111 0.049214766093153936 0.029528631633949108 -0.020915106728064896 -0.007892612289601463 0.0344516592082681 -0.0593716503809604 -0.033560692115444594 -0.005643746061195348 -0.05511246828315568 -0.10357334660111524 -0.09374044870861947 -0.014309942587693083 -0.002748020464197225 -0.01683290637128232 -0.06870158081507242 -0.05582086101468712 0.00012345748196578344 -0.005206110557817847 -0.010557768193269229 -0.053521166793215974
bear 0.057783951198307204 0.04090053668231274 0.04112260585871685 0.09444736165532157 0.018394457704567515 0.0042995035315003755 0.02725193026809801 0.10079809011234912 0.09458416000184373 -0.08813341983217941 0.14087103290292355 0.024764650988124366 -0.07166182513071283 0.21323514486015496 -0.04264832077678023 -0.016931995073605502 -0.03920723330085374 -0.008466485501885859 0.09411478065196183 -0.08631525540152364 0.040861221095969236 0.12897536229304668 0.21861611168418973 0.22139361406604682 -0.03735168371104392 0.011951649035461951 0.0015370382769742316 0.07478952492231669 -0.047417601596113274 -0.10542511419836455
bed -0.012597379906961534 0.0545615770809742 0.03843497666755711 -0.09807438449952749 0.12465188750806053 0.040529580048709254 -0.08005783597100166 -0.0933593329118006 0.020632120366189215 -0.03082096771476183 -0.08794295388752933 0.030730632759231578 0.07859739246459609 0.034204964650866844 0.007308523112737323 0.056764375157698325 0.059985129455796184 0.18286308368470924 -0.03452393744420843 0.09134406881022833 -0.060605911332258074 -0.06143010532551533 -0.03481015124450972 -0.08581685064178532 0.06665325804198878 0.1639347287273279 0.16598277236988077 0.2016553070050337 -0.046213755849882736 -0.047871364581487934
bee 0.13839581359881944 0.047547883551026196 0.017592102245565587 0.012116345470873082 -0.010577298899286202 0.15952083176752327 0.016429662689528318 0.0730208655659212 0.01104065141047066 -0.10478480723563745 -0.052670965590373583 -0.04034989615196051 -0.053677534675446135 -0.011151785752638034 0.08242804311021769 -0.09225905995416431 -0.03648575037434805 -0.058055026937869 -0.05487892197780933 0.208957116928645 -0.04208850071825593 -0.048262492795546154 -0.08100907816470032 -0.04482414812226044 0.028970946039011573 0.0002963539307123498 -0.09351182267242264 0.11829784161213683 0.02330650784381252 0.09849571722450623
beehive 0.07170589840722547 -0.08070471482375807 -0.09348137113743295 -0.003359744296279129 -0.0005045650442516641 -0.036860878326169536 -0.08344144971070608 0.010187015177446619 -0.08564673739368316 0.006604933741519479 -0.08873069383671996 -0.052810528881381685 -0.03745675331474744 -0.0064186860378634795 -0.06132038926966791 -0.051410785168756044 0.04611495515714792 -0.031065402009317435 0.010523237801704551 0.058332188819281164 -0.012057684642764839 -0.049059266108673144 -0.02811137321449656 -0.06396829134938357 0.05053323086566316 -0.03185459864221543 -0.09321473621369435 0.005668349911684132 -0.007031791720874003 0.05550855536200397
beer 0.15254639498631833 -0.046157415383072685 -0.09389931352959562 0.020876779749828833 -0.005227469934322184 -0.07805704912419788 0.023539745898927638 0.0020951736430147483 -0.04994827333808649 0.08569305688978106 0.28297751794395587 -0.04265106490212833 -0.019459198470230324 -0.07148661944189247 0.26244690720800856 0.11762159891151264 0.017339205998855942 0.07206530058568453 -0.01893606282411202 -0.1032842519986722 0.09312006546206422 0.031780126991816864 -0.09282189612671364 -0.04581962169813675 0.10593399997578337 0.03751534491404247 -0.029704726158888937 0.13415048110014258 0.21311914805281792 -0.08277885817257831
beetle -0.03177397693388967 0.10481043517195977 0.11142825809562526 -0.09779739840665212 -0.08143771573950315 0.12441212832335358 0.06506444451129775 0.11139827026972082 -0.07862217152427094 -0.10025275754099831 -0.05086061835831741 -0.08417839765791703 -0.0924249704893986 -0.09061231645953495 -0.0831914525258903 -0.091856653758413 -0.08791990300691795 0.18102113084908758 -0.08322097882575033 -0.022425563334427107 0.1491687082707024 0.053874288505046955 -0.09440187232082344 0.052521003805574326 0.04295580799812275 0.24818831756472642 0.11111486813613265 0.08602293709943107 -0.07306898079031769 -0.01588564557696601
belt -0.0666357070438924 0.10687812349610083 -0.08097135799787489 0.20796414897145302 0.1355746622235549 0.0906549885297286 0.11007268507934266 -0.051764414664997656 0.12641263330545813 0.0732902373807433 -0.011332651925449974 -0.09106083359182386 0.11015640288132403 0.022425890539553153 -0.07666755938460054 0.16278193835862337 -0.08789191253101405 0.14633843602494137 0.04208497397527985 0.0012372177175132512 0.0911480997892638 -0.08756257391241093 0.0628233791698441 -0.10013178410794678 -0.04096234804875118 -0.08986300195033863 -0.023307057793902446 -0.020298214475919632 -0.010293748585162563 -0.011979776008248875
bench -0.026110690048936378 0.02286403892501261 -0.04877472017555146 -0.034259426247798236 0.22063311517801554 -0.022663765551764227 -0.08156506859358273 -0.08549068690930924 0.045782999958490854 -0.004848482423311377 -0.08798734715597216 0.013122292934756056 0.2441818835359943 0.06350118513853613 0.03306685944099842 -0.04228381482552196 -0.038333385301282955 0.03232598917816709 -0.08315750525937594 0.14421732841541277 0.07988082564188852 -0.0389799649089686 0.03229941521276891 -0.06535979433741987 0.001618766627558408 0.001871339058676434 -0.006852067217204196 0.0030054254653645415 -0.008152728343421 -0.10527229059853192
bicycle -0.04393405997250055 -0.02467340754044711 0.015384601535459187 0.27126399672693235 -0.07249321978848024 0.07077896723671608 -0.04742888698796847 -0.027797337035946244 0.13219387299465069 0.1572554889061975 -0.05408818621778848 -0.09311133867222895 0.018064443191553557 -0.09608631176157428 0.11742524580600885 -0.040998575179958086 -0.007942740499737633 -0.03531208588547684 0.09854236502221321 0.2327431417176779 -0.06476444044391287 -0.08924957694784573 0.008904268896596824 -0.10050993050160616 -0.10961121465943667 -0.07829408183910076 0.2885719654828094 -0.02698842407693074 -0.027640778088548888 -0.10517098798812399
bidet -0.08184396843414646 -0.08727418300812079 -0.08515988690468057 -0.09835683545566673 0.03252368595760957 0.10875683033713093 0.07587109045621351 -0.0938934877264806 -0.08607614975978686 -0.08229339005581786 -0.08881214890281412 0.31522401816506174 -0.0921289479752479 -0.08976617689003114 -0.08728514427596941 -0.04933367610191595 -0.039076154042189386 -0.09911520828052546 -0.08426034127348707 0.024511516656842276 0.030268098260706866 -0.0896420671640501 -0.061936661046763083 -0.08085278420877148 -0.11016779364209399 0.09618781279283321 -0.057184921440646276 0.0006335064434320052 0.13512224995397557 -0.08542270232096635
billboard 0.03952576953064147 -0.0411894847162201 -0.09372997865186992 -0.032816084470172355 -0.07943130856430244 0.14179333272376876 0.09207396087690312 -0.03531150752178092 -0.0030158048991872676 -0.04702479750304271 -0.08849468755962292 -0.009878120968360136 0.23346246181019414 0.04444325323599017 0.10928743697634441 0.009093638358911058 -0.006225283108280413 -0.09548241248022836 -0.029935525185047676 0.025776539586211965 -0.06931746109736138 -0.06991475642036303 -0.09421494895147701 0.0041052707213875455 -0.024106918262938964 -0.09702841812667584 0.07022200984287923 0.19623488834914643 -0.0260293205222858 0.06480539553075891
binoculars -0.04773145924153954 -0.05005411537399665 -0.0912748897553923 -0.09805247171253065 -0.06694489849236931 -0.09402910208448159 0.04557785234611543 -0.09373843297937962 0.12403974256356187 -0.10425323991326119 0.06255631649662766 -0.018793931622530527 0.13895696383835043 -0.057978966686486014 -0.052752639648092896 0.054984250063496595 -0.021829261104555128 -0.026573490600959773 -0.06434456966805702 -0.051389105610621474 -0.015950790093314564 -0.06366415746013869 0.021660893291405293 -0.09953105359261405 -0.0963039575298942 0.0788751064149448 0.08072732378006477 -0.033566614129921665 0.13299181157794054 -0.05483926786687472
bird 0.1580385562212214 0.039280333636376244 -0.0026177542644718614 0.07633662613977679 0.13232350133276147 0.07927143738330569 -0.08306370042651941 0.25624706433715905 0.04759759640665954 -0.10457122700430352 0.04847794707829651 -0.0014313051902351216 -0.054987059085187875 -0.01007928689980762 0.09511946344847805 -0.09174543988101687 0.0958721970607295 -0.08324784695199426 -0.07446222704285463 0.1267711011265783 -0.06709806917007193 -0.06619610558423075 0.03274371357888908 0.2738613535195952 0.033497085871345256 0.021760050355621847 -0.09305207528418606 0.15490938409442243 -0.07971104496109283 0.06931602078333299
blender 0.08421969163008516 -0.08731523881994037 -0.03582534524404268 -0.06548375325126174 -0.08101467477695355 -0.08587941387532433 -0.0006227709665541858 -0.093771348963786 0.04009703823523178 0.18356782090258397 0.034382292573492214 -0.09341665074945701 -0.006974079221215087 0.07899038489028351 0.016939042035133207 0.07917149637856341 -0.08216548443570681 0.07665036946937691 -0.08409048551326527 -0.10351937337625645 -0.0482152650862403 -0.08950607170941402 -0.0942359696977458 0.07457786115409579 0.0485412708193721 0.02902370649386248 -0.09391421123829867 -0.0740498101093208 -0.02279963628967342 -0.07530874859916603
boat -0.07702039800566719 0.0911287663113568 0.016284537745581164 0.148092430428972 0.0027613363442963736 -0.030158024013257748 0.025246926116531357 -0.0068893244367262026 -0.07192848627447013 0.018242004979491997 0.14349174517522628 0.016740171057956634 -0.09186041093727551 -0.08019447584764218 0.11678809396675154 -0.08831776243030567 0.12764068724387198 -0.0040165351026391904 0.04402899034675112 0.34284481098642683 -0.029440466029392334 0.048476285287644645 0.06238462290148306 0.07586119029939203 -0.05408241629727549 -0.09692148646938728 0.07957937663649255 -0.018580246519735718 -0.046703486241763945 0.21366087099569198
bomb -0.07763784935496104 0.12833483671313553 -0.049223638328956744 -0.04668178309254708 0.06891699495889225 0.0849244594467779 0.021829139956706087 -0.09338416452579915 0.2414455014029398 -0.04025017590637029 0.004410405549359827 -0.09334814917240639 -0.06543647236098636 -0.08978821094901764 -0.020652525322588666 0.13892794258162028 -0.08359331883912366 0.1521378584063363 0.03698753691851773 0.18244111901579635 0.030724551361288394 0.08405828223346191 -0.08645257002290392 -0.03490589715416882 -0.02054743392162555 0.019681417829516608 0.12035701199981151 0.13661504291522567 -0.09933176529786324 0.1841048389414538
book 0.11436270842172527 0.05075516881498351 -0.04673241185927618 -0.027248903160104712 0.02756273438117433 0.011654501346329981 0.03190301846491822 0.06769101450461792 0.031475881072769836 -0.08004152991762223 -0.04965560737162191 0.122660941068598 0.18005253279793224 0.14426911564711856 0.142952988045932 0.12894590807980888 0.13889422555311615 0.07398428281571778 0.0866818311322466 0.03128459420696219 -0.0001463577974068871 0.03264588830490997 0.04435918463495637 0.04467897665096603 0.031528216526564797 0.01721122333260996 0.18251851452254653 0.11870507462608183 -0.04606000998782755 0.10327382898437953
bookcase 0.012237303656131049 -0.08690347370768738 0.0037738326158264788 -0.09763814312915649 -0.00028530219888040073 -0.09380479419567056 -0.010426453680449616 -0.0892506744450631 -0.08553624175527504 0.040435413687659905 -0.08848606679387626 -0.08709479227161435 -0.0046023578372412725 -0.0223589285510724 0.041187111431996465 -0.058498471468229035 0.122492383117484 -0.010212320410249462 -0.08383583209154613 0.00045442317250831056 -0.09380654972754404 -0.08484557695582247 -0.027534356841637637 -0.07679989052732442 -0.050335282949071254 0.09903147715240333 0.10063824464262147 -0.0381162070000236 0.002342835454467624 -0.030900538932527383
boot -0.015124378847170628 -0.004247557446272243 -0.09429465587320739 0.21784591514887322 0.03593054438530055 0.029974016660518854 -0.08046757934729995 -0.03581562842753152 -0.08591008580797022 0.10510294905714966 -0.0884056230943578 -0.0928054262504007 -0.024353418413394855 -0.020036328434755744 0.038969605300229804 -0.020708872934597274 -0.043298153760796 0.020803819708446105 0.024974904149485277 0.09752573947361992 0.04295953506879713 0.0863129525363831 0.08354944132331645 -0.06896627122087673 -0.11014363780178231 0.17344776835309395 0.06857221051262423 -0.03740453741541345 0.13754756416442263 -0.052039705594301745
bottle 0.11785936859691018 -0.016043356669842714 -0.09312197165632032 -0.05867169573124154 0.034294974988073476 0.016536010698274255 -0.033176065013948625 -0.005340221646439647 -0.0091918758204151 0.031168433320501752 0.29891527351285085 -0.04252534245563682 -0.0040724740000798775 -0.060599106632199945 0.10347424581715857 0.22919483101140983 -0.024705609841548758 -0.06946986458490323 -0.06591277128483373 -0.0929590056711341 -0.005609853293380428 -0.038656485097489174 -0.09461238695227218 -0.09963761011092563 0.07717010086009972 0.0007579044436458947 0.04377374410546731 0.1834648410429748 0.15442158015326957 -0.013689723157274689
bowl 0.06787198552531273 0.15541033121729397 -0.06218214166368396 0.2626748816185281 0.2000008651756162 0.24900207637173633 0.15428230359585504 -0.014224072595701832 -0.08503734165693011 0.13086543578254392 -0.053478600756315296 0.06679893437231221 0.21045160603492552 -0.09633043118705098 -0.08690007098388292 0.025021215572931927 0.13550847321243362 -0.0991765685427521 0.004701787022827154 -0.10286717034812727 0.013937273731575203 -0.08960408247690728 -0.09440470526023564 0.08699991742444907 0.06977168857367103 0.08591622221166538 0.012422607646739331 -0.030371273610094566 0.053514358120828116 -0.10556110992441506
box -3.364192494999703e-05 0.1395241262159654 -0.06521751484321363 -0.09804001897708466 -0.019235653172562463 0.10154821637039416 0.10461013659858799 -0.0854122966952027 0.08427865804092532 0.22768871644546043 -0.034576424035071524 0.1472707867489004 0.13407650855551936 0.11024649866544133 0.039220341990527416 0.09107308955445434 -0.08817109747485075 -0.057536371407237455 0.11591994606005185 0.05352649009433636 0.009007647771597268 -0.014113004596742367 -0.06042739259880253 0.08468261235844315 -0.03488828301896832 0.11141683864175404 0.03599259767706009 0.10272795616374152 0.04708351540097878 0.17338008099076815
boy 0.10018014262457332 0.0009520254954889399 0.11137403941561608 0.016416700405197705 -0.05768669860327309 0.1668399418230151 0.0943482138075676 0.018006305731887027 0.18233676420010192 -0.029774482958248093 -0.07256593748140724 -0.08431386406751924 0.14308025163149077 0.12756577650545722 0.13802488554521922 0.08744592244719387 -0.0024646362646486178 -0.01967767164355906 -0.03967693547211604 -0.01428373586626867 0.043828359770250416 0.01708042500584105 0.11439133887665444 0.026796397688934975 -0.07766162325615036 -0.09209552496419281 0.06009645724337646 0.2600912187170651 -0.08416518796141173 0.16045086924850643
brassiere -0.05751204301900943 -0.08740891158864435 -0.05782153597415168 -0.09708381806443324 -0.09345816858964187 -0.09448343984128618 -0.08329408758045169 -0.09375121295619182 -0.04403177105343662 -0.052642425902073936 0.12439365982740012 0.013046070562009253 0.07102906094315685 -0.09637746512492165 0.038571060121553584 -0.09289502564399293 0.022352564574012086 0.09493018425860766 -0.0841221287690493 -0.10361249205742155 -0.09412353231980106 -0.08966913978469762 0.05930412238804539 0.06487930536441014 0.10217199437118538 -0.09670244223527374 -0.07012842487779805 -0.03026410030952053 0.035044432085137474 -0.09711219393939656
bread 0.17595229610141083 -0.07073405788630992 0.019038597995616063 0.00576383326199691 0.009131281868114745 -0.02764774195039049 -0.003606502994452996 -0.01636225179178678 -0.08603685678269953 0.20709579639684658 -0.023695062706844194 -0.004465739589460863 -0.09233505888942599 -0.061271940357921384 0.15599086772583062 0.09914516729301409 -0.012017714046885583 0.051568086718581416 -0.03239465195626594 -0.10356050484635711 0.0242562397784315 0.07714266654052929 -0.09169773399091845 0.022994880962422626 0.3827851207937827 -0.07773641545763788 0.005927985510627678 0.036835666598971514 0.07883021599917227 0.008121264335682669
briefcase -0.08171098606572896 0.15150915555009647 -0.0939935394208094 -0.09549768157492584 0.028950564597144395 0.09051158572084649 0.01045612126650002 -0.09309637888882098 -0.060483270026197467 -0.035923596885397854 -0.08587003343297456 -0.08616565711182006 -0.08650190616773876 -0.0922808157375874 -0.0847316713869959 -0.010607588629442471 -0.08814199840568979 0.15089000527463053 -0.03364768896693068 0.07852872947184977 -0.09411620514338903 0.10218861684657987 -0.05039052797454715 -0.07586294249197442 -0.07048142180470848 -0.06798647379868472 0.1594719850957287 0.07680582737719023 -0.02473185202802605 0.11378752606498083
broccoli -0.08106996491014633 -0.0876588983628739 0.029049199417377627 0.14909661242740446 0.12732907482706785 -0.01783477848735011 -0.07475116233515701 0.024028177870737598 -0.08592000548679536 -0.10387001141904476 -0.08245687581003153 -0.06626724457038523 -0.05628933265231904 -0.07220349349274895 -0.06399285592368201 -0.09195015980225696 -0.014573848116176158 0.17765743161063233 -0.08343638264843996 -0.10361824144343036 -0.0940688994010527 0.17454138659009247 -0.06193130423459024 0.13789048949757246 0.1591383361014856 0.006472301328215982 -0.09384328762519319 -0.09105384610872945 -0.013640648597126501 -0.10526835685043068
building 0.0361513649027555 0.05836831474356277 -0.04656292083984287 -0.021890147547338454 0.025740858268192748 -0.07738560401100933 -0.012910071088719409 -0.058033902461381036 0.11522563310898341 -0.03600017747694484 0.22134158416295016 0.1181019933351166 0.17239341957412038 -0.08126160038910549 -0.03276494055603048 -0.05085505193357691 0.26353967692823976 0.11946395579463229 0.23410448080594073 0.2605590374246956 0.041177672407541645 0.09581825134209922 -0.023045142367925025 -0.07866073425783386 -0.03595309869615344 0.12463331715701705 -0.0248190540574391 0.10238064039094882 -0.0962527975723053 0.13581822932363152
bull 0.02606108244396951 -0.025181489440287076 -0.0018876467052960108 0.03547289474068991 -0.08626966788798027 -0.0369456691279184 0.004158544175233392 0.12210865005890949 0.03889748287968848 -0.10444647071277459 0.1857969243215013 -0.046691958253769296 -0.03372181587557929 -0.03895994887452076 0.15902704792702507 0.08293719122505755 -0.06010789006229762 -0.024038899069169808 0.07444209587881362 -0.05387929859847622 0.2581130755324996 -0.021178425744928172 0.129521809263493 0.1300571254734881 -0.10479281666627967 -0.09247035255845812 0.04115251303352294 0.08921343960672698 -0.05049647159639149 -0.06712558803416128
burrito -0.08164907915975557 -0.05805125538654129 0.11762126000198354 -0.005578848001545455 -0.050268184889459465 -0.022956310905246316 -0.024738180001083323 -0.09306754465581142 -0.07896192146895634 0.19018134697561126 -0.0577407930360481 -0.09002564250647736 -0.06882347640874081 -0.09289882345832233 0.048002648203581647 -0.06890973444180813 -0.06647012976445461 -0.022012912354318924 -0.008529769621703273 -0.04096994123615101 0.015347955836522407 -0.0857441098849693 -0.09452883360733225 0.18274692764348957 0.057123682707009744 -0.0813779545502091 -0.03194168727721722 -0.0910532863275189 -0.09968872000643343 0.004650642961559269
bus 0.0283528757434705 0.03573634740499255 -0.0904030973964651 -0.008873752760535826 -0.040542540347056594 0.0025445690421206507 0.11923870538925407 -0.03266474821350174 0.19010331012430862 -0.05414716720554253 -0.03545327777859785 -0.010474295870842596 -0.0868915648438231 -0.0831297701058244 0.15209016968370004 -0.04060932722025671 0.020575099357338145 -0.023843731584932637 0.24818839232203102 0.36271855944291403 -0.09406234030738146 0.003259404914509738 -0.022347603897363438 0.05006718031958175 -0.10098965810359982 0.03092757765496851 0.035754814507973666 0.2016339621054918 -0.002973320943279272 -0.09064974561598173
bust -0.06435256864000043 -0.025434408383045566 -0.0878949260452351 -0.045652299317940834 -0.03167295638793959 -0.07521190247993735 -0.08341092524531987 -0.038687727948412645 -0.08474259320635869 -0.0500154098023795 0.10993454911650756 0.11191137955409287 0.135938867510379 -0.055550234986336086 0.048920882394715225 -0.09282197428447617 0.07291167308561519 0.041191764489121235 -0.0840328743699744 0.017675804343637642 -0.08426247090595619 -0.060045758478567725 0.04397349415851197 0.040975933037386524 0.034834946623418656 -0.05000439647680996 -0.0003215161471800219 0.14516573391048856 -0.05385782388408692 -0.1022030013749444
butterfly 0.013881972634374243 0.0238960961105397 0.06938379635656326 0.05406065417435311 0.10602450989858868 0.1452571026486565 -0.08153614294015021 0.07499159600147963 -0.04438516831091747 -0.04732979816538171 -0.0888067545751352 0.0254877753394254 -0.03602820144436586 0.009965064289630728 0.04260413442145264 -0.06330674772155216 -0.003080006753871873 0.009476455386704632 -0.08414022367577162 -0.02355392785025604 0.1288740239017988 0.01135374986308541 -0.00529081397127412 -0.06061628980761014 0.07944405733382612 0.07277316619806731 -0.08012727816402375 0.08201296173595755 -0.0988953216895615 0.11178540413364553
cabbage -0.08166729636783189 -0.08732289291604224 0.06207198243571424 0.2685160714885328 0.14955255744462115 0.08653636169844811 -0.0336103785456959 0.057518012325192165 -0.08605894947926641 -0.09333523031843367 -0.033324181693699134 -0.025736969582235713 -0.08990130504919347 -0.02371590254073712 -0.04414114204086345 -0.09242915591816984 -0.038640872907935865 0.19261839450820767 -0.08399286333082105 -0.09824779229969123 -0.09422917805169438 0.2149173722118003 -0.012655553690485691 0.14169338968979583 0.2532807072638389 0.0019465732416296324 -0.09376433997007165 -0.09040157551247978 -0.0399665476158877 -0.06983160990785452
cabinetry 0.08615993641051085 -0.08770767928889488 -0.04027955721177427 -0.09843371491672454 0.01735307859532074 -0.09448343984128618 -0.08365909114635901 -0.09393860925413021 -0.08612268183025557 -0.09828375849630744 -0.08841803931953636 -0.09356345126494556 0.04076049463823912 -0.09637746512492165 -0.06355016130724771 -0.09289502564399293 -0.04370642437402429 0.19447385260434194 -0.0842594663740883 0.1557620697870027 0.03670206201332101 0.018599635054871028 -0.03141181183633113 -0.10055815953552942 -0.11020863612216919 0.06413278050920479 -0.06862852158686064 -0.09121728189226601 0.0019397034281660832 0.059280442864538034
cake 0.03418529542905692 -0.08743868611383676 -0.057164323882084166 -0.08632258330065004 -0.08068570639466213 0.02854510245387962 0.2182389516976546 -0.009939232241136823 -0.0686057948537208 0.11750275458731692 -0.08869537685992442 0.12562241412139585 -0.05709691840877107 -0.044983747983468866 0.027147133187146916 0.20918108900082844 -0.01742882724888306 0.14912117848373568 -0.0028646834078341213 -0.10359746335372762 -0.09383542127501195 -0.007010686912137799 0.03564308713807374 0.19104610786644988 0.28148140407648675 -0.09712072927149398 -0.07232210328316639 -0.03698761190657616 -0.0576734140802432 0.08956551193900898
calculator -0.08173532628691217 -0.08740909214558809 -0.08697154142948454 -0.0880484866267495 -0.04268685043731937 -0.09448343984128618 0.16690721876100573 -0.09376193496020681 0.10283338723073725 -0.023484580807711805 -0.08861381760285558 0.1009946163265096 -0.05880619441222872 0.003178827345425965 0.12056218842649132 -0.09163477793592797 0.16775849181217037 -0.09808494965189096 0.01807505831867562 -0.10336655855818862 0.07167779628584608 0.07021907944992825 -0.07095276061261206 -0.10025212835078717 -0.10970997229511444 0.09114176984025356 0.17713745876010456 -0.07752887021253585 -0.09974913832285967 -0.05264619884521244
camel 0.03138572903902647 0.011746459061538731 0.13677810970286947 0.019184043573041657 -0.06761278921039399 -0.08605396061785274 -0.03239331576097589 0.34699029318712643 -0.08362054692902261 -0.05048101601092431 -0.03954507525698194 -0.09343385556159325 -0.04906616759087141 -0.06486830476582367 0.13928670509267466 0.08939690555671007 -0.07591101918291498 -0.07472296418017438 0.17364808330224288 0.011717135177003115 0.05780789373939107 -0.0011833481690734999 -0.058448787525826315 0.010671824839558763 -0.10971269528554506 -0.03729293235556928 -0.04784210162428634 0.059411381233540714 -0.015797693983354375 -0.07611609760181334
camera -0.023360314923340137 0.10558608181079097 0.039913127430662755 -0.05680996262991785 -0.08188237952997408 -0.08787056329717532 0.21015944606581288 -0.06718805214139675 0.1939598854921547 -0.020361514018914558 -0.06268780907766476 0.11162898785074007 0.14164811757310738 0.07697734346172885 0.002286229654863992 0.0869407927643623 -0.06004005906788153 -0.04102646630021703 0.004948587423780236 0.0687356697982356 -0.03237850663170929 -0.08936784618512537 0.014098087397895307 -0.0287341207410857 -0.10940696843881184 0.13135724049982 0.29696347557215225 0.021115848054141344 -0.05691164327309723 -0.0010096505318108939
canary 0.12533154925143156 -0.037339748445237256 -0.086507981597304 -0.09774486087166226 0.03125944534515982 0.018530540038028682 -0.03308994839089334 -0.017765481298707204 0.003835940793418623 -0.10456451525911321 0.006254960618104663 -0.03808594921735184 -0.09263664289842065 -0.09570911022790213 -0.012743552426921045 -0.09222829585596994 0.1826095844745266 -0.023319579248574154 0.0398444841958969 -0.04823770659695005 -0.09362995763801574 -0.01601042781944512 -0.021119629850339022 0.06587492305129801 -0.05294532688906051 0.0024165974820433483 -0.05393580692621712 0.1384402459338457 -0.008786339169251232 0.20558248531228304
candle -0.048359989124847645 0.017244228273520505 -0.013439470103740124 -0.09709498010563188 -0.04156185811916111 0.03967981094044267 0.05586813618421231 -0.05469790135934908 0.044702134432074575 0.0068149570123205265 -0.08859643974491874 0.17326847911500276 -0.07549428866759493 -0.03396494592478085 -0.022214853386279647 0.013283110163478148 0.15830604469058226 -0.0008036912710928447 -0.06682577012878994 -0.09714673990864744 -0.09415654237846043 -0.01855258723807112 -0.08430862535699189 -0.06851870976970892 0.0065262736059894634 0.0791464303926092 0.1584717558564707 0.0015487513604399278 -0.014731017215391289 0.07279136899863581
candy 0.0625337513205937 -0.07414868080943128 0.06662037300823395 -0.0983177982595411 0.0033667672911789426 0.1016250645966769 0.2720169649382048 -0.009196904068180045 -0.040934207796229354 0.04194665233902146 -0.06857549121872986 -0.09342495053044275 0.011230180223379547 0.045107481475592286 -0.012402116383400302 0.2266391086878666 -0.08854980849899188 0.0754542316035365 -0.0005539827436154728 -0.10356028337217973 -0.0825643573297088 0.016928128488816484 -0.05255104437742506 0.01218343406209292 0.009500823703722685 -0.05702849482179314 0.06527409413680464 0.10763484552355157 -0.025776080417844384 0.10502185438011896
cannon -0.06491259741268864 0.23251298343224253 -0.07037051287112123 0.0471956667385129 0.016389148861147833 -0.0515741885090948 -0.05321843158888481 -0.008746725972787915 0.15516707873878294 0.057381172255522646 0.12695312080232918 -0.028284671098620852 0.028168568542364977 -0.09531273758706056 -0.04785396461594219 -0.006146018765205987 -0.002743404605424852 -0.08836475340641915 0.025795579303245112 -0.05440399032176371 0.15317739898744423 0.19765036961186616 -0.029576805151467007 -0.047082779419271005 -0.06135683546935148 -0.055455346079862175 -0.0269263770272187 -0.003256025054030844 -0.06897510193718082 0.2158441775256849
canoe -0.06279952132545438 -0.03138063871065308 -0.04224828656300064 0.03433551299299432 -0.04210423843975415 0.01009848946240313 -0.07577840106607589 0.05661362102608401 -0.08596065622765219 -0.029648274651774723 0.12499950252003002 0.0672167739567086 -0.09246732468353067 -0.08901271356801985 0.1452545808942196 -0.09273979468257915 0.15588018697574874 -0.07675792695231719 -0.007948162283761554 0.25971390457354404 -0.0936761536451439 0.04163400974722748 -0.04078896301310392 -0.07968091669600778 -0.07856372319017459 -0.09699713908895621 0.050410962028796295 -0.0696672398428969 -0.09845828870582361 0.03246646455434245
cantaloupe -0.08159145991022031 -0.08770764785691634 -0.0423402499756681 0.0272814683798074 -0.07136165189073702 -0.0006223898433425928 0.008343593830474096 -0.06947978985522185 -0.07269653929235607 -0.07662769651697138 0.13550941153975582 0.1281820892041135 -0.08597946514964264 0.011373333564498544 -0.08702916739726513 -0.09288069919197166 -0.024072031955378312 0.0861981274965583 -0.08418803058988476 -0.10378113713509787 -0.09432082786307873 0.1721913395022584 0.09632630713906394 -0.10012656291452947 -0.05566230531709034 -0.09744831746917328 -0.001608394540818296 -0.09140788185961692 0.15195616190703204 -0.08561204566160746
car -0.008901821831068583 0.1370026776084304 -0.03850268902643397 0.034276559236890776 0.028371608901815518 0.07219522437908221 0.0026315191919189826 -0.025461256363861817 0.1992525312077287 0.11493932438338356 0.09135895265222066 -0.09035870389883839 -0.03311085930076747 -0.05826502704444757 0.05896375644815297 0.07772539590443038 -0.008898657661667387 -0.022451166292868207 0.14093631655161384 0.3655144777656231 0.024022961107820925 -0.01629357713497301 0.06860290599672776 0.03012557616393358 -0.09435426009647405 0.15095357114158228 0.1579741199462406 0.2043753323515938 0.008705493078558151 -0.08764279627475502
carnivore -0.021379220847321273 -0.02892523000353326 0.008971422708170557 -0.07691661918584305 0.08604790735441696 -0.07153838721262802 -0.08349759454053805 -0.03318806470599313 -0.039207148493944265 -0.10490902344059126 -0.006657863643413116 -0.014309641627956053 -0.0927608670729064 -0.06885287541668657 -0.08748038769191256 -0.09288169261704811 -0.008340281018790354 0.13680569848262283 0.020954915129436553 0.03454240890903255 -0.09378458412128804 -0.06216383830599648 0.07837778297813958 0.08576440019533346 -0.04150019916612352 0.005310832454301247 0.015180266554605944 -0.0034802123785402437 -0.10007126895932857 0.011902317298552427
carrot -0.08141558625268583 -0.057103750190229605 -0.05976117548832878 0.0723875232675894 -0.02310775135508311 0.007781760840443486 0.15534818157706828 -0.09344454266484738 -0.04363088304145806 -0.1042921680289314 -0.08822059282258768 0.06793858072161815 -0.09219968756735729 -0.0953704281844136 -0.013365173216588859 -0.02065002623238804 -0.0257677491713762 0.13934010884628395 -0.01625581623420201 -0.1034895687582401 -0.09404425238103628 0.1966808566053594 0.031437491370040975 0.24582739726478842 0.23106639834153622 -0.026643437410039165 -0.09378186086140425 -0.07438685385508184 0.03664253261935699 -0.07573760238230363
cart -0.010600981241514198 -0.08699149812892884 0.10677706284491074 -0.07888285335784058 -0.011964198569867291 -0.0745565741246639 0.035705918657141615 0.08541101977577091 -0.07258590938623316 0.03886903404581514 -0.007727167349244204 -0.09323407564037592 -0.09277190219669519 -0.08681722090795231 0.16699419637933377 0.039083946887779254 -0.0880682755869704 -0.0005551533030860056 0.24576208992179036 0.15250753258108113 0.012328986607566598 0.04812616964377006 0.032186530998679325 -0.004694312343224895 -0.04185360465851932 0.06305074562486607 0.09204203103753314 -0.05305509209062679 -0.05292377042134069 -0.08597964402991393
castle -0.020120110586883327 -0.0871932413214215 -0.09375951446103178 0.003140057601334008 -0.06347833281385716 -0.025381970982121124 -0.019732673417328872 0.12784889634149732 -0.024485776329286165 -0.0789461132964951 0.10978691356134283 0.1521950682490779 0.08481404504668134 -0.0950010416815288 -0.053755259071414215 -0.0010506157324357101 0.15562329056907098 0.08565399725653908 0.19777144314715306 0.08331395619823705 0.1375754303104165 0.18618753270433627 0.10817399456171367 -0.09240070374284867 -0.0342300662672773 -0.029720923944606337 -0.08843123669638188 0.15739568608496485 -0.08499359158284907 0.13715574420927715
cat 0.23234367607013132 0.04933165671254932 -0.0019292577305217672 -0.07658269338475372 -0.017889302223179002 0.01633116718897469 -0.0723720830546783 0.07307571009946634 0.018508368741090915 -0.04847468192059376 -0.0363456461018838 -0.08995987615964306 -0.011660206981133573 0.24852047076010184 0.005558159001153026 -0.005115369750134785 -0.061658335143720495 0.06852641176665285 0.19630167552746317 -0.018166662961944254 -0.041868562609859036 -0.04400323420426312 0.0884344916886878 0.25292105181886904 -0.03428808124307691 0.15247174359132898 -0.09358045975564205 0.14082349619874493 -0.014577740743488062 0.07681236267830803
caterpillar 0.012920645133324499 -0.08530631915932237 0.017339389175680765 0.05658689550238711 0.08667418910594461 0.0852466916686429 -0.08351741123608841 -0.006783719887449515 0.06389424603876233 -0.0017731534364602433 -0.08800100746449276 -0.047637960578103204 -0.09248788922837844 -0.07030069081185725 0.15549550465212586 -0.08974074492477235 -0.08455718706877556 0.1225902589050036 -0.030430698855708663 -0.055737400102308404 -0.07594050879079581 0.01819774650072644 -0.09477360794961599 -0.10008854704086304 0.036757700444497506 0.2386072904811603 -0.09352984639216534 0.1198594450033125 -0.08793649284371331 0.03882461767995712
cattle 0.19917574444094388 -0.08766702649735122 0.31931527667068565 -0.07110803957902738 -0.08519902292037723 -0.05323560730433962 -0.057040599423354786 0.11207157338559423 0.09984557891993981 -0.10455549812374947 0.12392412144696827 -0.04849386881546256 -0.050608332465315355 -0.06500959326029321 0.30608148161379173 0.06508018990885098 -0.024461782244891442 0.02738647308533815 0.28814993114430054 -0.08734731155768635 -0.03953874459059158 0.06846001926816021 0.04041484154360817 0.03663554818150591 -0.08913587787325389 -0.09060934670306066 -0.07103609161432625 -0.08454929887354591 -0.09881875718183276 -0.10512963501167832
cello -0.06707296970455498 -0.08748612036588094 -0.0943078541820905 -0.06863144861193587 -0.09316117638208855 -0.09407824078699775 -0.08347719067303465 -0.09373348511436973 0.0941626970548708 -0.10481124378952442 -0.08871533904969471 -0.09318604009478626 0.19010678750382634 0.14745260200687985 -0.06616087227534764 -0.0927507587641427 -0.07943609907894539 -0.0989816339713028 -0.0841255024785989 0.05286697222608376 0.24043149437448802 0.06736210746780424 -0.09453604904945885 0.07030446733130671 0.2669434193502345 -0.09746716698039666 -0.09364990920035392 -0.08970699028829096 0.24970535993672743 -0.10528442181845099
centipede 0.015487731639494207 0.035248560453038764 -0.09147445905900958 -9.311823521578005e-05 0.013631201731258086 0.012040545924117086 -0.08304167087100203 0.10174533590883998 -0.06936018100088831 -0.05137692946509481 -0.0415938932735226 -0.09309009130496097 -0.09266435403056908 -0.032675588821743616 -0.0873052612564066 0.004076664656093305 -0.020225894342227185 -0.03064605543548581 0.012775791731484437 -0.009676548001029404 -0.07398961626534403 0.015138121496678694 -0.043857642306135584 0.06413068571643407 0.009471334473298494 -0.04001700104536824 -0.09342518988747191 -0.01802154871517576 -0.0695449992260683 0.10097958168022443
chainsaw -0.04506327680202647 -0.04753643835750724 -0.09372204347496021 -0.05391284955488608 0.009236202919450855 -0.049265801855976184 -0.02681656136228269 -0.04916477142258611 -0.036154280237610296 -0.10393906317526644 0.0007171944242266899 -0.05830502883212961 0.061498596237363576 0.035636802252312166 -0.08710624195503837 0.13572782169366662 -0.07204325462438504 0.01613419471808084 -0.05009377348311406 0.16500049146912563 0.07417346960959786 -0.053002369845321855 0.06868270232256143 -0.10031780761982943 -0.08659574424370478 -0.032176583816632034 -0.06756633078881479 -0.09064118837673094 0.08851628765779869 -0.011690491681085683
chair -0.04705284460552551 -0.02690154082995251 -0.0735803324301534 -0.031812668318829944 0.09994029121867652 0.006353258379551588 -0.08304350539131224 -0.07030194111748589 -0.059062979834236175 -0.017024907650634014 -0.08841018353235355 -0.05186677880628571 0.14959067656938518 0.10718903944402457 0.026574320738368292 -0.017293614893660648 0.17006861603234275 0.007848560930207898 -0.0335115452355741 0.19674813084762305 0.011407557269433693 0.07018245054824525 0.004342010727306843 -0.10022177265290592 0.07472158065933283 0.14033777758547158 0.21235295258130327 0.08276140021580479 -0.06458485467129783 -0.10246229414187163
cheese 0.09859646966134046 -0.08736519062380459 0.19777685870495804 0.1130394279495019 -0.02487717929476906 -0.020384349329428154 0.014753923377191162 0.065902110991083 -0.08576906872793373 0.261778662091742 -0.08875513228178125 -0.092369109897269 -0.09194885373079742 -0.06898350793121506 0.2243215238412382 0.10778069438205806 -0.08830461327114258 -0.042486088504692564 0.18070253966117714 -0.1033225107701619 -0.032944381164645306 0.14713471674643688 -0.0511568773944035 -0.033728621361013865 0.32766649633956685 -0.09042461079733224 -0.08176721206617259 -0.028828256421953635 0.046363816774295574 -0.06622279842601027
cheetah -0.07091410357751161 -0.043800574490407584 -0.052660101275881166 -0.09797305174804415 -0.06011795018739672 -0.017213248281746713 -0.028514555532263345 0.061219524244591594 0.032726212913874585 -0.10490887216452138 0.02511805443301132 -0.0933681208837971 -0.08120854349988219 0.04829773693543979 -0.08700563310404705 -0.09260350396120753 -0.08809995884321044 0.08208910257610567 -0.08376891758526185 -0.02975353415840159 0.15701119658054769 -0.08964099088318392 0.11916100161379242 0.1913417083733772 -0.10695557348070527 0.16227061711489552 -0.04285360013989686 0.1240798718531643 -0.06450113852594952 -0.022276013689852235
chicken 0.19648286137404813 -0.005330119365167543 0.31939960219974006 0.18289614556317513 -0.08287982845607322 0.015363721146119535 -0.00791826328597882 -0.037465530694223356 -0.08612268183025557 0.17215818154560986 -0.07620451097523329 0.06111145742470294 0.011454779293636282 -0.050781469854927305 0.10879877712340627 -0.06338503499922185 0.13592733392628337 -0.044415578486197836 0.0837438275870469 -0.08871436405388149 -0.094207883993102 0.05793354159956162 -0.03530567901651342 0.1910836261389471 0.10412477269215996 -0.09728376852457526 -0.0482611188015201 -0.04926268318004551 0.05592218137192833 0.011264844297612186
chime -0.0812073136411666 -0.08737982680191402 -0.09154609381210779 -0.08899844171025782 -0.056275435936822146 -0.029213059288207128 0.014099577035525099 -0.07127728444377494 0.13272527205616227 -0.03558254376542213 -0.08077947922106134 0.05723049023878468 -0.08844424004314998 -0.08051438479412783 -0.0861121608196437 -0.05063862601640479 0.06324269711041815 -0.09883779815386562 0.09566971376203065 0.01358102582604284 0.012772560301171462 0.021352105966321207 0.00017036751359939304 -0.10038134838439648 -0.11004704449314998 0.09930685270822152 -0.09385262954109896 0.021653340952713505 0.0708185990061513 -0.04104012794455684
chisel -0.06920767479589679 -0.03263238695712866 -0.07874070070693831 -0.08202262467160723 -0.04368924545920839 -0.08457694421428101 -0.05240652044335702 -0.08624933205155075 -0.08612268183025557 0.12106840687992543 -0.08849743178069364 0.18569193532089698 0.048617723445839055 -0.025260492597632876 -0.046754772286311995 0.24273520520135705 -0.07548171350881967 -0.09918611308561598 -0.0839772295056329 0.02052221916479996 0.1584518290711561 -0.08966913978469762 0.07329761453802072 -0.10050479860956875 -0.10948147473248607 -0.09174731364439966 -0.09372844117723454 -0.06681196425325192 -0.07218532294831663 0.002273774755743756
chopsticks 0.07519743646531353 -0.0876626954146038 -0.09422426287129758 0.07084301555984311 0.25015848040899213 -0.021326497713566997 -0.08338074011633123 -0.09393860925413021 -0.08566391777449947 0.07922029845285293 -0.08871759948559613 -0.09347316459033123 -0.0428733550875569 -0.09327858839878038 -0.08748038769191256 0.015860276205542638 -0.04920771401214579 -0.052779723953172764 -0.08422245304100232 -0.07596679806551442 0.10729706445671218 -0.08966913978469762 -0.07907538734720786 -0.011543686380326131 0.1648349538046857 0.1783468510135345 0.061473878526853876 -0.09126851025270134 -0.09997059180036112 -0.10539036771460251
clock -0.08096981232491128 -0.02800796341490592 -0.0924122011202992 -0.03434814922143416 -0.09257899691056386 0.0035967358899476223 0.15169355926337547 -0.0044533707161680015 0.2583532311335786 0.007900681138555367 -0.08821202786769036 0.22888225253513472 -0.003715235154776385 -0.09260140046178086 0.03785640126281777 -0.08954895118225241 0.22563792091176246 -0.09871964719698542 0.2337269264254637 -0.04745095517531321 -0.05872920921428999 0.2487614232977729 -0.0001179039190253513 -0.09920199591296368 -0.0957454913323171 0.1560215024980903 -0.05547663362698223 0.08288806967751518 -0.007837232281982413 0.038653924362941586
closet -0.03295181681871848 -0.07765591152731467 -0.016449323281849917 -0.09815981353935237 0.010856265971833262 -0.09032035116016182 -0.08353632273434736 -0.07081270348214101 -0.05307938769751541 0.05168669563020867 -0.08866516530522238 0.013169034311993618 -0.05908623092990675 0.03609830335575603 -0.08586185684839243 0.0975510524576288 0.026601821861092334 0.05225759614706995 0.05060310411684343 -0.006403482236477723 0.0457190550674417 -0.08020164026795129 0.08781226151531393 -0.10005069322774936 -0.110067765211873 0.2553191609947064 -0.04992409811314732 0.1654970801207349 0.06048259492027025 -0.02524175242859247
clothing 0.3453185730431091 -0.07005646849720674 0.10034885529784436 -0.030489902165853882 0.12663808311388888 -0.05988567992990043 -0.05365365507873371 -0.09332655460487847 -0.07071191037909634 -0.054884200328188575 -0.0037209471069863873 -0.055946302143941716 0.19895905755426788 -0.03567246789135486 0.0645129362341471 0.027505903520144794 -0.05008402836874311 0.31513314399001796 0.05807141436133984 0.13820439115927938 0.007547103256647697 -0.07947072362838192 0.15351588094373972 -0.08850039943258896 -0.10934366664761642 0.02182384624171406 0.02952924351300112 -0.07308199555402178 0.15947984371963017 -0.06033893522675172
coat -0.014140108873079331 -0.00638816594226647 0.002205196607286313 0.1542016338408325 0.15778333846403403 -0.05612252143720989 -0.08365889382514471 0.0872626898110297 -0.02255144421779223 -0.04905966557366363 -0.05800099987853443 0.006760623500459136 -0.00875038331488154 0.10744392653145532 -0.08730927042153164 0.025466930344422937 0.010771482522762289 0.2369276719654052 0.22940629713054025 -0.10328126867555928 -0.05367570542876861 -0.012044871587194188 0.36898499981803023 -0.005962242197570775 -0.10119147219356335 -0.07867991642655672 -0.09355762700640864 0.11863072981394288 0.06495751358163536 -0.10530960724428352
cocktail 0.0716884897970281 -0.04773282049169905 0.04865536254758626 -0.020131087365570424 0.16338031369637887 -0.03863559719870875 0.011136844040740416 -0.09374973324491233 -0.022669681126597178 -0.04963069928081377 0.06416947045536976 0.0034606048592868534 0.004135817466613506 0.01003988672683659 -0.021134654887974055 0.174935338763755 0.0683040405349688 -0.020086032840851767 -0.08387966232984712 -0.0792022302687596 -0.09387523696010877 -0.031867691212193454 0.1629367224617623 -0.10055815953552942 0.04612489972655719 -0.04901946359206545 -0.05336743309659477 -0.08936974195636171 0.231994231903887 -0.024099182684480448
coconut -0.08154590600128453 -0.08070437513351651 0.2676954699393708 -0.09792069866228204 -0.09321780137823073 0.009348091072798572 0.34909972159864205 0.21782897915352264 -0.08568645815208464 0.13817216052595588 0.07088563650829292 0.037668268614731715 -0.09222223849592724 -0.07516627383829458 -0.04721399231831562 0.16913980326221492 0.014335866638468999 0.06753481271825897 0.03099394347759418 -0.1032789446603243 -0.09353095620382085 -0.0482857605477281 -0.0700784761625491 -0.09996551033467907 0.1833822880408755 -0.011395215974377535 -0.09245991728314522 -0.0822766949845995 0.01786422548874172 -0.027020526996742938
coffee 0.16328439468023828 -0.023867662287485672 -0.03953297570524752 -0.09825171038109605 -0.02421324751210502 -0.012725046702572547 0.07744404156018576 0.00030157622796019127 -0.08599451711225535 0.08064628926468609 0.05287599280863403 0.025377361599819834 -0.006154968701295129 -0.003061311214087319 0.10341579439086677 0.3511862681181862 0.27955375368886093 0.18254906990796108 0.05943449042298008 -0.09969131833353904 -0.09415145664296046 0.050189131126731706 -0.06435780221406087 -0.10039971468946804 0.2039940825145472 0.09104706831836631 -0.07963785966954616 -0.09115243838667174 -0.030476273412491862 -0.10550591230481825
coffeemaker 0.08932005208165338 -0.08763779462410294 -0.09437028276268807 -0.09843367450482357 -0.08832031765841439 -0.08406683240790667 -0.0836472655813116 -0.07564297931074429 -0.08609876243815605 0.18380557936692557 -0.08886379616629592 -0.0461247826042717 -0.062134005891346177 -0.0869266063125539 -0.08727253017157487 0.1424865128473746 -0.045600108945341236 -0.09903480503180992 -0.0535204657034542 -0.10055292616140589 0.03217765151312613 -0.057595939219967994 -0.06993123794203056 -0.10054692036236987 0.11726624760208826 -0.013416451143304167 -0.09394369110391967 -0.0897881631316262 0.10724702991968173 -0.00909262306284515
coin -0.05848956242157316 0.08214758690233938 -0.09417386208764675 0.08680672758065017 0.08198335097467661 -0.07388279132499485 -0.0691565227305639 0.0055249663088323304 -0.002720023224131118 0.039325050695904494 0.10533119872163346 0.3058284084264359 0.07779621758943008 0.05213033223096104 0.0383162389134424 -0.07585811583194936 -0.011862411785905464 0.0346265114875116 -0.018680628114837308 -0.1023768222732898 -0.08128871238942222 -0.07858428135576451 0.039099429169679525 0.06894807802060321 -0.01718391585129914 0.0028819113511075424 0.015495828495364105 0.048284660614475984 -0.08978054970010388 -0.05371045454818119
container 0.02129762883270136 0.1099789313097971 -0.06123737251786332 -0.09786762170819552 0.07898829593872607 -0.05484438028833008 -0.02756687740273778 -0.06474516462245343 0.20087668701283964 0.10429846374617507 0.1989963730326545 -0.012657437702536613 -0.057041357437625576 -0.08190997127061334 0.028373970815908683 0.13859848010443207 -0.05133694185568365 0.0028433302161041617 0.010164895477798199 0.020960267230475577 -0.06063786691970881 -0.0673512603371101 -0.09452648837754099 -0.03429169190541053 0.05927620712493187 0.08934056336378823 -0.09290577462160124 -0.00282514136435887 0.0973954364706263 0.012910427351414467
cookie 0.11483158800896139 -0.07134412509030749 -0.05344674152616622 -0.07653791191727348 -0.09338729803504234 0.005658412726177575 0.11335726325498985 -0.01847456512002409 -0.08539162146568627 0.09150814207940464 -0.08866439548542922 -0.07887407174485546 -0.09235805244467431 -8.431534661492285e-05 -0.08714472046365308 0.10524498290183534 -0.062017988877832116 0.06913390144227209 0.13912272476306864 -0.054185863894655094 -0.08016134841575931 0.030990810394174128 -0.047380761263044295 0.09733544388526322 0.014176328423359908 -0.0694226985510679 -0.016176387297136333 0.04984224536715766 -0.041593342711239045 0.09813573615252548
cosmetics 0.25105155820812225 -0.078329516246948 0.10075149322924909 -0.09808318260545423 0.07770773372485192 -0.02238869468779907 -0.029933460199784843 -0.07885685456538771 -0.04750503995271539 -0.041813574509004345 0.020518063883435484 -0.0934677904317604 0.26687078707650613 -0.09617535065356837 -0.05940614829191523 0.041642271444445655 -0.0700145256828569 0.22254855521830505 -0.05223864148886447 -0.08763160449702748 0.04264179911049303 -0.0894854326804039 -0.0944493350251421 -0.02568973032968938 -0.043466910963187944 -0.036968904922245895 -0.04951448520878271 -0.04548429421216101 0.05945196237502894 0.026647879525866506
couch -0.07902105257809543 0.003925933269856317 -0.02802052755262113 -0.038985176300982846 0.029539591593453107 0.00983017122869428 0.023329442641018404 -0.09393643180369432 -0.08417792161435762 -0.08872976252105391 -0.08823022149688912 -0.016676916157858643 0.018517083526514756 -0.02220557796493465 -0.08714961489821872 -0.09256431332545574 0.10004864946476583 0.16095317015849697 -0.07814670812877987 -0.06627479726812635 -0.08973725801436823 0.01525616900243987 -0.07342581880119142 0.02699273453109458 0.14971790632921034 0.08051586380858831 0.29092122201880855 0.03862770761510114 -0.0995156552590867 -0.04869386376890846
countertop -0.08187975650195775 -0.0706399276616471 -0.06943469919530515 0.008499142610698136 0.03045395537456173 -0.08380621587840174 -0.08175543679512307 -0.08689460403162771 -0.08611423680434907 -0.01891956394191467 -0.08875807002335322 0.034658341322387404 -0.09245815835466878 -0.09629621626141943 -0.08701073132058998 -0.09269146480311542 -0.08819299144378023 -0.09699168195755328 -0.07918931835781118 0.04179237861863174 0.1951285920798197 0.11372924076069645 -0.09413400681443083 -0.06662518372050469 0.09111648929657984 0.11637116111165718 0.00908416489242567 -0.09108532622634492 -0.08210196193180742 -0.005103449094527037
crab -0.08185560146583698 -0.0458547616714935 0.3098778665037903 -0.07263159560442048 -0.09332031410295656 0.022549211471685936 0.16474963810530632 0.060432332255005106 -0.08590273117648044 0.16116427363480576 -0.04595976930862077 0.2429365842367364 -0.08739114059120529 -0.013158198074660576 -0.008963141787417132 -0.09287506865331689 0.07273997510897616 -0.0985953504523117 -0.07311576903957685 0.025093379277147342 -0.0938463832335115 -0.08033114871658956 0.08847830143620433 -0.04133888095190431 -0.006858790088062699 -0.097209576573045 -0.02800573556419973 -0.09101735150692888 0.14353128394232506 0.10553856235336562
cream -0.0142025665854927 -0.0875725130033413 0.06785839365149336 0.062049015767564546 -0.08652076022366714 0.052238616208401124 0.17642531462454905 0.017488197823099433 -0.04054280640626941 0.20838739339674933 -0.08877360917918713 -0.02978996825884835 0.032845506137202926 -0.09603764894707267 -0.027693731703373654 0.2586137023222955 -0.04336096145709461 0.14461081674843992 0.3340539492904193 -0.059009111223351354 -0.09432348551475686 0.0016895254338126179 -0.02546925428078985 -0.05974621339908496 0.2875672038600687 -0.0974382735428521 -0.0838846135424826 0.023611109632145796 0.1266931557128159 -0.0837034579529657
crocodile -0.0374111550210044 0.05703353384967945 -0.05956716500964162 -0.06591449282992214 -0.0058449979712614794 -0.09324735568974472 -0.04359166367024716 0.31256637233026585 -0.08560585589828583 -0.023086134448014946 0.03368791631027017 0.03140421586221317 -0.09190677370143134 0.009674157684223035 -0.013350144496811102 -0.06567221468762395 -0.08833849721189922 -0.043468641499017475 -0.0805487535576806 -0.03516593200713076 0.10190508919705088 -0.08952648157618164 -0.013633293377024243 0.2355003198267096 -0.06069919516170673 0.01800816546149336 0.03091157280578678 -0.038991866680882656 -0.07495358430917715 0.11163900381572281
croissant -0.04199613332063237 -0.08718351579036653 -0.09423541305872216 -0.09625430864832323 -0.08656714749956199 -0.09422501212643998 -0.04680104472005841 -0.07328362882774918 0.047861937176449126 0.10176494275332817 -0.08172610945765993 -0.03366524100108096 -0.09256263073181084 -0.0020862067003317173 -0.08721764237255862 0.027556325904363535 -0.08835140865784186 0.09880080839135286 0.02917244617070015 -0.01049611967618638 -0.029853434661597726 0.0005936394225335306 -0.09462566292187174 0.14064240043480625 -0.04780811519310575 -0.08835769346710307 -0.005159487503801006 -0.028529711932932862 -0.09956531958078343 0.03178954631080743
crown -0.07316350765232438 -0.08663985606636655 -0.09404138392280582 0.17429382165119633 0.049160577570565835 0.011314794634948049 -0.00887461689840075 0.09176458605376027 0.10454962585478235 -0.046023592426363495 0.15237743251052158 0.20265217086923604 0.0768680603257857 -0.03513241805169174 -0.018865482899831695 0.08150074207124207 0.09229443944314931 0.055797473155895234 0.0878724845447325 0.010610181440035641 0.0006155365334632879 -0.04684305285855312 0.19057592983368327 -0.09996080240806993 -0.029908654655433922 -0.0450624716713591 -0.017750960679353084 0.13799226656074437 -0.06313825598481053 -0.10517174444226417
crutch -0.07758594520073407 -0.08728366351828847 -0.09381733353592506 0.07613538128830895 -0.08689571391506756 -0.0815171781873148 -0.03985090826366916 -0.02804281573305038 0.07212062961359365 -0.017453716141739416 -0.08658274421964328 0.03849265771513252 -0.09225854366251639 -0.09582443763831996 -0.011444469889331739 0.14615411338702344 -0.08809230320306201 0.0015470310797668443 -0.015229202327454701 -0.007020195016837294 -0.09401202233931083 -0.08177646481507392 0.006539547190327719 -0.10036263248145133 -0.10958076168662262 -0.0901932168928801 0.15008019635763814 -0.09032938335857611 -0.02193388321149526 -0.0654267333155687
cucumber -0.0817720099379125 -0.0680179729465518 0.07612878461179994 0.1809808361052081 -0.09293893336603277 0.07129269417075201 -0.040307143139004596 -0.08513749140724458 -0.08612268183025557 -0.07273618863992132 0.05385347721280923 0.07676581663062167 -0.09256056988001016 -0.09617183428055086 -0.08695816296900434 -0.09232085385523064 0.012238054995452856 0.1523410631675615 -0.03735381243870027 -0.03412885152348617 -0.06113415642134507 0.3610236048519423 0.17614982466189713 -0.09507622091816834 0.13978622009738315 -0.09741007550527364 -0.09382568366898121 -0.09064761141738355 0.05158043775508151 0.1411423653539618
cupboard -0.08149215059957637 -0.0854084658163447 0.0904484452729848 -0.09796567779988863 -0.0737250024836675 0.002029071601371169 -0.08364413966208176 -0.06528366012192034 -0.0860566532287227 0.06575616310548241 -0.08845931863209441 0.06124145379205181 -0.09108436188131157 0.005147639045801801 -0.08740460230042393 -0.047997252342500754 0.14772767058798947 0.017740291354713614 -0.08348416413403645 0.06886225691079653 -0.09326263571837745 -0.06634031953223513 0.03995602502243694 -0.10006905155524706 -0.05431756841103644 0.1783708969651789 -0.09346565191688913 0.13684553818458425 0.05839982023194681 0.019439018511681325
curtain -0.08182079638872504 -0.08701558088034941 -0.07939349682586566 -0.07844259010004428 -0.053340656360824086 0.052053116514311396 0.014356308743903921 -0.062423845035410985 -0.07875803269510841 -0.1042764943480416 -0.0029018283521514815 0.24051383931975273 0.08264183918203656 -0.09622081838540594 -0.08737328576328203 -0.03528811458473253 0.09522226463347487 -0.016437611418113816 0.05323649815816409 0.1485277134761425 -0.05685109686713729 -0.08101902557318992 -0.016456131636694113 -0.10038989146530097 -0.11002877075045248 0.15761023169910046 -0.02742084661265174 0.08402429030220329 0.03487230589292121 0.036382405424039414
dagger -0.0814820843810831 -0.05614809654557815 -0.09414847220431656 0.20133510831866613 -0.05773171064837184 0.009431733103912368 -0.0723922894772288 -0.06572395014319021 -0.04690300179079087 -0.10464036815438706 -0.05749447231889066 0.043979161563467185 -0.04773344542572477 0.022121610432271992 -0.08741701868644067 0.27910938449521855 -0.049645148576657874 0.12169782470239808 -0.013896117826050403 -0.06728107916987022 0.05223773139011271 -0.08916150498283751 0.009538390287153753 -0.08809889791944688 -0.0847794081697536 -0.08656741678150078 0.085708986167591 -0.0524668803508978 -0.09782567456204302 0.19206730996207275
deer 0.06980070142481301 -0.0212887627958249 0.1458780695250783 -0.020384615692034973 -0.09244642816165852 -0.09429293225737685 -0.08360706209726235 0.20100066694262994 -0.03762856882560594 -0.04221519131095569 0.2646320050032802 0.07617201338364386 -0.07149280967761769 0.24193573394972828 0.07617148413030064 -0.09269806767693996 -0.08081306795678292 -0.09851136345546396 0.24208813202780263 -0.05535607413078577 0.014684304040966555 0.1208744952918332 -0.002514560625457823 0.27931774228396966 -0.11013105128917798 0.05086970884517327 -0.057162065434211665 -0.08828983734158329 -0.038995255867752425 -0.10541952463725773
desk -0.07603943846738447 -0.08700260850890323 -0.01963609537267496 -0.09840355834656568 0.014036046619868544 -0.08947804134079042 0.11466269491200307 -0.09386556321835729 -0.06306411295778566 0.030114290093087567 -0.0888789880724937 -0.057022325540369324 -0.03848765761218199 0.22338797149796127 -0.008611650912746448 0.05986613822152842 0.1624320829453148 0.11255463157671897 -0.07920692409128507 0.02474467180372865 -0.09269977561465884 0.05652169837160693 -0.05197990361638062 -0.10040454277828337 -0.10979959354999992 0.27772511285764906 0.265331256761548 0.030153535449523136 -0.10006174248160832 0.009761939380176707
dessert 0.13247639203682096 -0.08762935962645713 -0.06897963573662089 -0.0910815530007297 0.021905463101589612 -0.04468716444085718 0.2015422663672702 -0.06603587019281318 -0.08566228632847857 0.17191040942469307 -0.08844824103094162 -0.040619066699366345 -0.09292259472277661 -0.08440080040564772 0.05186122465575979 0.22020171097571967 -0.08811593107193469 0.028885054672426604 -0.0835247695346096 -0.10323151180757231 -0.09412280660183756 -0.011467389941640774 -0.08336759795065017 -0.022898752955948357 0.32948226214565796 -0.09078267159008385 0.03952801136198426 -0.09139743429680854 0.10522143848074829 -0.01545713354279869
diaper -0.0070488424443332556 -0.0874560691507631 -0.030879422387385193 -0.07733741098724783 -0.03228571229166727 -0.014607292977028502 -0.08292309343559698 0.0037107321969213026 -0.08542995679615088 -0.09015476308436472 -0.08864603011321913 -0.05744952410560264 -0.04234792222192421 0.024143364400840268 0.1445775391269604 0.028925998132876093 -0.08847818932307165 -0.019305420548307705 0.06954899176662437 -0.07891204421840975 0.07708419911649404 0.004786718119847283 -0.0048697710049634725 0.041835493459524746 -0.02965566159844091 -0.06366975814708971 0.0018950429693677681 0.14300746152193364 -0.06472269891259091 -0.10512915983135178
dice -0.08157962440738369 0.017333453576968173 -0.09401974903202079 -0.03176365410506709 -0.05121594948559197 -0.0666164794266839 -0.08327634774010118 0.05445984490108999 -0.04331428350141661 0.00868497443808061 -0.029426407046374625 0.1991134302786734 -0.037774513977796374 0.04734055983152319 0.0743966458514947 -0.053007271659646006 -0.029386549605050813 0.048747051905284874 0.019196752553397714 -0.10339781237648123 -0.042267815991220675 0.05097520316788544 -0.028997503589710368 -0.05708790874005048 -0.009242954428521001 -0.0017045574681257853 0.1232958060968461 0.04137179538313557 -0.08587877597220836 0.03945345225511825
dinosaur 0.03994459730483145 0.007312245584755238 -0.05049674382734663 0.10070153250990406 -0.05395289346491012 0.01876263288088693 -0.07318946733055255 0.281791836381192 -0.054045361749323846 -0.07497549259155194 -0.08892416135058247 0.09162680766074387 -0.04130002106003963 -0.007679772677888639 0.11607676201365419 -0.09093257039726214 -0.06148363142312591 -0.09909621901700524 0.0787435213520813 0.20005481153498722 -0.09253525668246569 -0.08812873061985442 -0.09408294262152843 0.02237683412584169 0.006575617216350187 -0.0920619754060177 -0.011088519211542303 -0.0005379102077383623 -0.05350837938578049 0.03888262442084178
dishwasher 0.05897644923174116 -0.0875272639149291 0.09325839589076305 -0.06169532592205719 -0.04203894379914164 -0.08117256449598899 -0.08341878574506142 -0.0932819489656994 -0.00035665204391327314 -0.01919165376666912 -0.08874880563145143 -0.09318599132864931 -0.09250145596124443 -0.06942437233780245 -0.07197643200194503 -0.0755990999640372 -0.07168807039036075 -0.036137417883639035 -0.07403879800993816 0.03849297759608046 0.17956134180420735 -0.07271249260054657 -0.0940645562438517 0.01944831720266061 0.0024238942618988427 0.15565733808931662 -0.06497226052509343 0.049253860694214786 -0.0997113977398265 0.10369842119903222
dog 0.2130684412319714 -0.06529354603795266 0.08938633888281713 0.008873740656709305 0.05368297875151371 -0.022787421034604117 -0.07994151651067384 0.037536106495794766 0.044183104212812956 -0.030345096684735947 -0.04525140192490425 -0.06430584017600396 -0.0018209823743281172 0.08803989762352878 0.14757073307213298 -0.011246362746944294 -0.03155406156817596 0.02597884613383618 0.26569486624861566 -0.011295746387342407 0.06368507018771288 0.032841912220301604 0.12369537636107282 0.26384387594385306 -0.015786903705163485 -0.02177600976265378 0.042498608700543054 0.21483018272998589 -0.09965376221346717 -0.0027514256271057662
doll 0.11960036137528512 -0.08734694835713942 0.029737350084899958 -0.09769883039919158 -0.03822205660388125 0.05792825070372643 -0.05119215253455332 -0.07764323191638668 -0.03552312753389166 -0.05112524164212085 -0.08186848599026682 -0.08606685408760717 0.053361825006982416 0.2456510311167485 0.014331604445724589 0.015489836791579559 -0.008313344611999646 -0.004521697725130544 -0.046137440355603444 0.11587163122038313 -0.0643893030109727 -0.00798845130342119 0.12393647820088277 0.04069500714889425 -0.053001826640509925 -0.06433351082035366 0.011139731421765161 0.07627055790565368 0.016246468212544392 0.017725085663821298
dolphin -0.08109567894674963 0.06433376948011339 0.09699080521104256 0.01830055248806827 0.03704826939101833 -0.05743144058070305 -0.018123344576579506 0.03265116318431771 -0.08573120256244762 -0.08522593591113661 0.04351019346211528 -0.05877422958104866 -0.0009345184850589676 -0.09595611112973358 0.07607016173679625 -0.08237559706258873 0.09312522707246372 -0.08678709398982613 -0.06581166505784669 -0.05605018275927205 0.10034712563828166 -0.06788925968295148 0.10355511311725006 0.23778027131851723 -0.1098677524613026 -0.09721841273328576 0.0792073396490298 -0.09043871973969968 -0.09408461446361199 0.1798024252783925
door 0.06384563915092514 0.011746352007644425 -0.011888703860634332 -0.09260619963767107 0.012836310096196419 0.03557263064093811 -0.08362570839547352 -0.08236179906500903 0.0724266719926734 0.1149136314487498 -0.08102412722112022 -0.007434187615218568 0.07380234971959233 -0.049633148022725004 -0.08655080347191257 0.12886039672300217 0.11984933775584579 -0.03550199537652053 0.1023387431617988 0.22465757518843543 0.06509478880761133 -0.08664129692020453 0.05751418127522717 -0.0695131333939295 -0.11007171795496361 0.19418374534416213 0.01838440608105361 0.32278369208573443 -0.019461852328555497 0.07775519456038744
doughnut -0.08143123371695186 -0.0038114116459493173 0.07710897006807765 -0.09781986840144861 -0.06011446887710299 -0.05037434493152837 0.02364210589171532 -0.04037942240845906 0.007461320924135659 0.11444098027046808 -0.050450972514293015 0.01548717110440915 -0.028127488168389798 -0.02499747764914971 -0.07291889228348748 0.13778483756803672 -0.03100181581947676 0.1673301565345948 -0.012173497142921593 -0.08532654474954732 0.007491715218716085 -0.04437219133353579 -0.04095673705277084 0.06247591249755125 0.10191796371490908 -0.061493729223180915 -0.010235950232193836 -0.08083632086444754 -0.09985208135405911 -0.09415371839563934
dragonfly 0.007981441967263532 0.16482590238975067 -0.04255136849015705 0.09433816668312811 0.01335100875019607 -0.020111057207091484 -0.08310376161501809 -0.03128225422241714 0.019034357463482515 -0.05726529304537175 -0.0437138280155431 0.08049295560533527 -0.08720638975969353 -0.02578355792521839 -0.08726138180162174 -0.09234707710551991 -0.04498881885647408 -0.040526339328215595 -0.08426028822503351 -0.011483057762720413 0.06767463943194844 0.03975812906202533 -0.04418241088180417 -0.04846485342969332 -0.10980557261293342 0.08729333056837482 -0.07332120228034798 -0.09092427303530944 -0.09973557483892496 0.08040983468227064
drawer -0.08191932214399503 -0.08487833596109928 0.11944185146823343 -0.09485180226987155 0.018440869685207206 -0.07706023325718526 0.06114533319934629 -0.09351985115504091 -0.009627305183137662 0.06918422643916118 -0.08869308337177648 -0.09323350173757293 -0.06251156233055195 0.14007533698203434 -0.015742453168151708 0.04472782819566061 0.15662888897287428 0.05716873472299251 -0.0843047641441974 -0.1037451599308988 -0.050022655983830606 0.020684624935315133 -0.08165561677763253 -0.10049389214828411 -0.11013964274216587 0.13701815161181116 0.011936385328625424 0.057053988601574186 -0.03642061382711911 0.21444631718330975
dress 0.10013348359648523 0.008661034068962924 0.012660475201255602 0.09836013208276405 0.1781807781016427 0.08246238457600871 -0.08296768061055271 -0.0924706826526131 -0.0723867942896434 -0.08004455624886515 -0.08873030147197362 0.021613280796655258 0.2251305725050655 0.04915487629258369 -0.02963759572891841 0.07714114515879077 -0.013387361570653301 0.16351215350835913 -0.06699893597901822 0.009541997682637306 -0.061742199894994486 -0.08927383285765364 0.3767327701361584 -0.10052814809569412 -0.1096287191935261 -0.09585853587176704 -0.013894747647764646 0.01829302626430137 0.18963083190893867 -0.03204643558227788
drill -0.08179124312057848 0.17107684515767405 -0.07584308118463731 -0.03923058500130994 0.07797401793456893 -0.09432750674078645 -0.08313876540770457 -0.07928744179812161 -0.009428621390218241 0.07668396111909427 -0.011329415603875915 0.1707639779624281 0.09735180187203599 -0.02981380353183325 0.019363532754085578 0.18942747148358388 -0.03806419004913228 -0.09476260808635632 -0.05054253723186409 0.17272556636166067 0.12500027050137388 -0.06706950478093694 0.055161894290527605 -0.10055815953552942 -0.10946271887733638 -0.09009132268746908 -0.09318365346289269 -0.09116518350984978 0.07778731343066035 0.059988447911996895
drink 0.2700089912086585 -0.08159398373093094 0.026982054597623054 -0.08104051430396071 -0.001364248990114093 0.042160150852563666 0.09867496987921139 -0.05749366733613162 -0.08478091862919125 -0.0764693041041575 0.23366065458697982 0.032489528242700676 -0.015138544470562046 -0.09624933089379893 0.17599752770955787 0.30897495053247387 0.04112514020382444 0.01570151581695048 0.05769850447289275 -0.09457643663882667 0.03325027388968075 -0.07786271134465966 -0.06617237395748472 -0.044872388254018306 0.11502127802897429 0.058304321817707734 0.002968431193012427 0.014469711717925063 0.12630525827916578 -0.10530959313877492
drum -0.08191619202060588 0.006399009986994315 0.024031097531212173 -0.06338881559356199 -0.06868539305838997 0.06277896147376999 0.06559187434380502 0.06563070466426912 0.21831253830884126 0.06183672239693308 -0.04638566263983503 -0.0575847290566553 0.21512152748222887 0.11552484856866785 -0.05332573826016592 -0.022185442594033156 0.026925141091730304 -0.09914143052155514 -0.0042682917208420965 0.09675592315457102 0.20340527451514556 0.0413978570913005 0.03133758538190742 -0.10051194341156558 0.12247385958592248 -0.045095971305362345 -0.05169886639517621 -0.0213952780800361 -0.01604232860167647 -0.0111281046346296
duck 0.2970528471695917 0.044472521624515274 0.09173365197888889 0.2181371017413891 -0.08600841932875317 0.026813563357863515 -0.0829601643849409 0.09014469593459173 -0.07667450245333861 0.0325274742738181 -0.08838598903056373 0.03560810700285196 0.04972658768307416 0.09762537156116613 0.08627429189472059 -0.0783956214942661 0.1711277249134698 -0.09876120041696837 -0.015668753265108096 -0.010364665728891949 -0.06407371018928348 0.05471892726130173 -0.020978096367149812 0.1562319837997541 -0.08551530075667951 -0.06590709807150553 -0.03862159911708746 -0.09095930027820293 -0.06848386867332183 0.047107805698090886
dumbbell -0.08088533773102931 -0.010294175504537699 0.02588011592385813 -0.09763586759054974 0.1790038084410773 -0.07644023474576195 -0.08359104882665486 -0.09393860925413021 0.023215915514785808 0.08417165635337526 -0.08180753063514903 -0.08469100670224894 0.03067094508688339 0.001314310842850289 -0.06836876002645655 -0.0926146396892795 -0.08849247339423183 0.013870803640231074 -0.08384937289729709 0.08556139624583502 -0.062411334085176115 -0.08309724223609034 -0.007631547370303443 -0.10013668581239826 0.030827359385279682 -0.07036994228883002 -0.049141056520693976 -0.07769689747583738 -0.010163389881556047 -0.10556557397409848
eagle -0.023742966716169194 0.08744102316974828 -0.09326821345213031 0.21528297903983665 0.13378243180438149 -0.07169896393663151 -0.07822996303855123 0.04195606533480549 0.08535922711040352 -0.035466324410779126 0.16779777190348452 0.15101187566953375 -0.062227439236331616 0.02244641194760037 0.12723029551578544 -0.09177687242269793 -0.0037807156666879475 0.012744629611777964 -0.05681482695805809 -0.0873386000470371 -0.01289599898434054 -0.07764850061960822 0.19158829733757277 0.24258946164739942 -0.08863412244682173 -0.092343882278753 -0.05561311087239415 0.19992462434017205 -0.09772132918272991 0.018413903359454316
earrings -0.08096219020344009 -0.08731896289938683 0.0021539177919131115 0.08110660180368275 -0.09267840578004279 0.10038771921644313 -0.0812141809264319 -0.07773033672923557 0.004593989419008682 -0.10436284939761871 0.00046645773392907754 0.14637550326572332 0.17846083902754126 -0.0959608038732183 0.05178160949805494 -0.06974328076762969 -0.08809294517258384 0.09049838361190356 -0.08348298699154598 -0.10317604495893125 -0.09277646712021652 -0.07034600862247888 0.08723323170575054 -0.10008034532291721 -0.05691043020098937 -0.09163070673407196 -0.09269408957069807 0.04077252415263314 0.05343065844530969 -0.085726830082321
egg 0.07070122231389621 -1.9167433666971953e-05 0.08720390525380854 0.17724248117633706 -0.06779710513546013 0.10447859438435318 -0.040018649363676294 0.20843900209672034 -0.06899057537206359 0.12390731145865634 -0.0882389243866118 0.05188547046414954 -0.007198390069448688 -0.09619666647356687 0.07018102819197179 -0.004119579130033032 0.11449049979393007 -0.09865281561886807 0.03673092873386311 -0.03331944996828839 -0.05706266006703337 0.010194306778247567 -0.09449464114677383 0.07317198000456251 0.26039514674324504 -0.06370316307957107 -0.09329039307939128 -0.04020784245682971 0.0539825789148685 0.09439354375328927
elephant -0.06671733872639483 -0.08722879961982616 0.026318452211556882 -0.09756212791598881 -0.09304712535131983 -0.022396320219039728 -0.06957858065014173 0.3807108534885581 -0.06702273745038019 -0.10469243144191184 0.09288022142998731 0.06428590184785275 -0.028547254722883705 -0.06469809319133252 0.006159752477670425 -0.059072558270095665 -0.02808153792869987 0.021649981923966027 0.067849173562983 -0.024118101873255565 0.23600611696144233 0.19966232403164785 0.07267317740744113 0.11546467501977832 -0.09247388211834663 0.014459164166907115 -0.015004847122241765 0.1779457681060259 -0.0784813704041319 0.0785359633163155
envelope -0.08152726344055063 -0.019369331762927048 -0.0035316651252584163 -0.09822273673354985 -0.08115158126730708 -0.011067901828185076 -0.004866247343341841 -0.09393185939330637 0.10172043847568857 -0.023832563608615187 0.14171789508621396 -0.023608631109512092 -0.009675477190165736 -0.09040760213546362 -0.054162732956621405 -0.09224041005920929 0.17013365539059191 0.11283883496136003 0.051919274102947166 0.0807143747176876 -0.04019772307191517 0.042461042255326174 -0.07249273294095145 -0.05110864816859168 -0.051426853864918264 0.030965754720661487 0.013727899310198462 -0.02936578226018558 -0.07558906857815775 0.1307595869511834
eraser -0.05535105928470829 0.022179865721409543 -0.08122676903176913 -0.06843902953056216 -0.06330086010311176 -0.03494525594143454 -0.08348344031404266 0.012158429110945616 -0.07993544590840654 -0.014513242122055705 0.09840069430247718 0.18303884336302376 -0.033353241669851645 0.1500005505707134 -0.04806543723177386 0.0904332531329244 -0.08774554849818532 -0.013635022814297921 -0.07724237756216945 -0.0384380136993463 0.04847849271693681 -0.06907892696437251 -0.07209531594562292 -0.10013417374516023 -0.10489417097007947 0.08889782139659298 -0.07793462912302375 -0.09115553920207699 -0.077163294035218 -0.0013654482669987105
falcon -0.08089639413370965 0.09593955421373868 -0.09400920171435588 0.1800439992412099 0.16003934282317658 -0.07543917789755178 -0.08289271753644001 -0.057481578480989844 0.10747058312604234 -0.09783182070252763 0.14514714424764505 -0.006654184706380564 -0.04380757736605953 -0.0827270498252702 0.005028011646713336 -0.0616542226344498 -0.03303728915634626 -0.043837952729632854 -0.06609317562530019 -0.03851038624935552 -0.007132546711432865 -0.08957158362632733 -0.094149123287521 0.19613278188937663 0.000533050736238515 -0.051398818742194874 0.0945513413804367 0.22790782057924722 -0.0998005550408906 0.006810891729701413
fax -0.043137035494467686 -0.03521581565201013 -0.0703139390054373 -0.09792315524034707 -0.09329844956741448 -0.09397645131941122 0.22380786233986102 -0.09382680973274377 -0.08562007029434532 0.03179412215815324 -0.07767777122822495 0.05238231582254471 0.021328467019493744 0.17213715483557884 0.03150512429118361 0.003318508976608939 -0.08846789382974916 -0.09918611308561598 -0.05992835771534704 0.059460619214429675 -0.07959577033976137 0.05976501962337107 -0.09474036080360117 -0.07126275430443987 -0.0952827529329025 0.10755775985976415 0.02846934408003918 -0.00974792966821008 -0.09979193163739773 -0.004749512450117178
fedora -0.08160768890101917 0.038370449648998634 -0.004823830334292482 -0.09697222312921501 -0.046881930218965175 -0.02423421324159267 -0.07760513320546512 -0.09289435924766014 0.047329212293631115 -0.09723066522054896 -0.06560082789091612 -0.09274216421840402 0.05901761400187673 0.18091811052258183 -0.08692090055788791 0.041889187134207986 -0.08779287867184157 -0.026803302372377782 0.10903381136262848 -0.050112702028795426 -0.09393325183940548 -0.0888833324188571 0.1948118053839751 -0.0411849827439226 0.0114548949063439 -0.0967477206284028 -0.09364231101160429 -0.04907791639338604 0.20793773956834413 -0.10434065585254257
fireplace 0.059772304351851595 -0.051603440506986765 -0.054254426101597614 -0.09737449833835045 0.011041444504240067 0.012399398812750134 -0.08275804129266104 -0.09341923644953976 -0.08402637846338012 0.05471867602478029 -0.088275836106155 -0.05629032395075573 0.08007224926172306 0.020194302703227605 -0.0589061283738081 -0.0541712192429597 0.18424561502699072 -0.050413120568838336 -0.0811700398039287 -0.0038483610617255936 -0.029179110416270932 -0.05544277247868002 -0.06867519930486773 -0.05007624099917936 -0.0747148145281439 0.09651613885175879 -0.08308080761199112 0.1337068497621331 -0.019941931400119153 0.06100735393835408
fish 0.046958035552416115 0.1145273712918065 0.31829902228694135 -0.04118210749775514 0.1832921568694096 0.009289829049550556 0.006053208701428996 0.10233024544767534 -0.040791550247149914 0.18145642164990575 0.0857469075255233 0.1524448496892417 -0.06745577438362926 -0.06198964201773001 0.19368325926470262 -0.04622394575787491 0.15694291921945236 -0.06368258664432597 -0.08379767204253286 -0.09066679856715705 0.019493733182382223 -0.07851245642759926 0.1081295424908313 0.15471466778116186 0.146984161614349 -0.0506953428979567 -0.06042337997513438 -0.07889186598375536 -0.002288060730903237 0.2043565699939953
flag -0.0506252762918639 0.13172256543340527 -0.09421120665490683 0.23554399907643805 0.09188609971538103 -0.05694425889499785 -0.009169838599240523 0.06730881563211093 0.0570142710577191 -0.01400411850547498 0.0257342401788143 0.09967413124497379 0.03899774521457496 0.09936669373613893 -0.08669345227139488 -0.07867445365563318 0.05776140596324475 0.13636457055875714 0.16649899130074094 -0.0424873560737226 0.0161069267725865 0.09657252014172873 0.211622461937222 -0.059641082357417705 -0.09639630489547103 0.050987764585849395 -0.038064770638220405 0.10371845173353253 -0.06164071199700537 -0.10515535020631654
flashlight -0.08188080959397898 0.1876501879319865 0.14893715925965453 -0.098391374924604 -0.09335664632252802 -0.09395396829672195 -0.07875360017804335 -0.09376118061304682 -0.06318138226408437 0.07160273860986223 -0.019970031870356945 0.2117135089403448 -0.09219547566570314 -0.07140396354184354 0.041968044886223445 0.10225384768539943 0.031106007410178074 -0.07843225397674099 -0.08399813103864076 -0.0996283459389415 -0.07915501607516139 -0.08764568955232087 -0.0052379540522311495 -0.10049775563020434 -0.11017255253028128 -0.020690442099802926 0.1954125467081559 -0.09128023475306628 -0.030713142506019205 0.04906741899847124
flower -0.062258440062694195 0.0671192624004999 0.17265979167342763 -0.05312093895903512 -0.02382864404443359 0.31878405389735315 0.06319292833101736 0.12696515820907553 0.12302842912878556 -0.1043875345202006 0.0022078951977111344 -0.056094650019249334 0.06540771036256972 0.08050781619768499 -0.08671938697798465 -0.014054361689880182 0.20941174568177368 0.05050171464247136 -0.08387026455484053 -0.04979135094282972 -0.0663996083890363 -0.008665633064234497 0.023479030753001066 -0.10003022373826748 0.13010851511234256 0.017281294223891568 -0.07532209926808496 0.11364877096947856 0.0001623370304715038 0.005370572165860978
flowerpot -0.0818876726135114 0.09042904558833433 -0.0743260739753556 0.1598681941044771 -0.09345816858964187 0.07036461925625712 0.048436751298336966 0.08508468656626245 -0.08584252133850642 -0.005947802394123245 -0.04307339868013699 -0.02187603794438281 -0.09264322401083908 -0.0915347097973988 -0.07509021392413985 0.031060331623680923 0.021372057956051436 -0.09916511001144251 -0.06267013970719638 -0.042547466835376156 0.03802547048966291 -0.003272562560885272 -0.09434333722650907 0.03334567495554798 -0.031743237242178285 -0.097579916613137 -0.0934175200935634 -0.08242196094298831 -0.011091242453347392 0.1664924145991647
flute -0.08103669244399213 -0.0870849469143798 -0.021388814669934017 -0.09352582758815939 -0.09143727130956915 -0.06763837472716674 -0.038128884611873984 0.04602144520604052 0.17480837201615426 -0.09753037855280998 -0.07517234982390499 -0.08673191353893672 0.07031235982551426 0.3123239329740626 -0.041446126130996505 -0.09218656729020037 -0.03156221001651574 -0.09867215451242953 -0.0837477900746075 0.13022368803696838 0.10773919704020138 0.04776057235979565 -0.05565916891305149 -0.1003537881184633 0.29621449040765657 -0.09730437289295704 -0.09338480181145101 -0.0306300434599227 0.23379563601831102 -0.05574092105676309
food 0.3827264318007421 -0.07981510313825053 0.23202059962278448 -0.08281679883970416 0.19687993122979014 -0.06904929358591867 0.052998070687323026 -0.0572966222912866 -0.04944594764379428 0.09917647840795679 0.10962761736661356 0.05816722828380353 -0.033257749596129524 -0.09589787699582643 0.17316234531238286 0.05367801138481859 0.006433584611195588 0.23807594850557529 0.0734578423745522 0.03204398512368856 0.04386573804919356 -0.06688728052426726 0.026328294854734948 0.16478157131641413 0.18197187768812154 0.14129106780953335 -0.033167083795863306 -0.009673560151326288 -0.0029494396899337953 0.03946862096845011
football 0.021013293689421148 0.156433437050274 -0.09437145428388405 0.3741053038234194 0.16063971753228187 0.015965462851105974 0.07529952147959185 0.0035150459130424876 -0.0701226630988128 0.011042334130387351 -0.08247207437493005 0.03908378461475265 0.29312784632377026 -0.048742620202929646 0.025830740858339613 -0.09275492464999283 0.04044324807166161 0.026946629808204153 0.10117526496863707 -0.10349440162394945 0.1479920542136259 0.17316879096677382 -0.0716613873961494 -0.012924508683676542 -0.11010768677674541 0.08620077146273421 0.12439935057902562 0.12151051251046929 -0.033863969193101834 -0.10556557397409848
footwear 0.2685548369877076 -0.08735114127988804 -0.045415451321337556 0.007782128566287563 0.0535420793567754 -0.07813232654045454 -0.08171986054717725 -0.09383274084981505 -0.08435958666883418 0.06688233713393552 -0.08871173109541605 -0.09338016394830831 0.07444376724479206 -0.09623913402644999 0.025747156471630443 -0.09242138862415508 -0.08862929357881659 0.25293601722522346 -0.0018248689324272243 0.12301670458339105 0.06309820073912022 -0.015167370166860112 -0.007157776243588971 -0.10038170031442373 -0.10996379125617486 -0.04448886043583065 0.015911205840191414 -0.09126932018553723 0.17746414035108307 -0.10548252020059547
fork -0.08116940318084502 -0.08760184244103113 -0.04698310325754159 0.20068402300331895 0.10791592163338033 0.024591190391363343 0.02060197293134645 -0.034238498104223816 0.04737517958886368 0.2144098831542209 -0.03465044768552755 -0.03256968026894227 -0.09269780131174389 -0.08893209889751334 -0.04399566815087223 0.18776948664787185 -0.03504194744148515 0.025069851517272815 -0.08370327424746957 -0.04271150634111474 -0.03320176754876239 -0.07252238238345106 0.09045308344991654 -0.03924473796349692 0.020846535415965442 0.03311729918370496 0.2163634220396736 -0.014214918106481504 -0.09928665668551968 -0.015154969808658833
fountain -0.07295202371348466 -0.08747407155944661 0.03540111047746269 0.002310686377390441 -0.08640547759059933 0.013915438419525625 -0.05995284621332989 -0.01195932275688586 0.0463235397755933 -0.10386068132474541 0.2590658942321556 0.25816979342245017 0.06694572895733798 -0.058795833192082994 0.10622454271106281 0.14371517862725455 0.17056663074866035 -0.0850673544975643 -0.009013513230418218 -0.0733612298017987 0.1369651078240556 0.01977437037676492 0.07247376070709145 -0.10041016975035144 -0.10250910027429486 -0.01942690969003859 -0.06743013558923978 -0.026301813338503444 -0.06903276075290898 -0.037758662566759506
fox 0.17978212446550998 0.10194099552860644 -0.058223358648976695 0.05674660344286372 -0.0199227827106314 -0.07622583667639546 0.16283026059935563 0.02587831621181631 -0.04491598681092532 -0.08128616113885512 0.05487633599834084 0.08101779967454928 0.16765620240187248 0.2345026691412038 -0.026751159221115053 -0.05972788868409786 0.016030439201289295 -0.09851494783086506 0.1701591145376182 -0.09960603832637412 0.020371113960465145 -0.04740496227994229 -0.05093803864715199 0.29516712074565654 -0.10980959948634236 0.027088493246469246 0.08306689605608661 0.13577075002539865 -0.09960854696540858 -0.10431839623408887
frog -0.028056559276270664 -0.044217549408734555 0.024469359704676404 0.07807432495217304 -0.019595214263880927 0.044138803276300834 0.11898355478454502 0.1959651152716924 -0.08577768762795747 -0.0065911057148457615 0.025907725131996767 -0.008120370138068635 -0.06492785930913234 0.2282563214558207 0.003404662863267188 -0.0021372374643997415 -0.08724039771338421 0.05024470294698435 -0.08330664934802248 -0.07176606089730021 -0.06368030359753402 0.03961644735036708 0.04647951053543683 0.11826237208411587 0.017277185646545862 0.03679393342505035 -0.09331517007274304 -0.052298682213111125 -0.0663907385794529 0.12136130910011479
fruit 0.22229115069637603 -0.06447799094256094 0.16910428479603348 -0.02759591424104438 0.05986277185429746 0.17501452778283155 0.2613592721348452 0.0808746521790734 0.08657941092788833 -0.09763261656592001 0.07774350897761917 0.016674851712599283 -0.09279938672392822 -0.020635986706260667 -0.035279237139934264 0.12460877601533223 -0.010828905255347751 0.04296480755646879 -0.08324831932239088 -0.10361862933687523 -0.09364595203024154 0.14013210741200716 0.07722881470511396 0.057402068472111475 0.29248417275577354 -0.017913266443512595 -0.0623394243992604 -0.0826171994533669 0.1087867943164187 -0.10530785647241497
furniture 0.197059503058277 -0.08738207670291447 0.04163412583554706 -0.09773274274397126 0.055130923846594806 -0.09429319868582625 -0.083165841132529 -0.09224817975422193 -0.07647593703732154 -0.042928754926003586 0.016117572383358793 -0.09278454720257076 0.2258567602447267 -0.07076465415487018 0.0190329667982945 -0.07245745108966269 0.12882911722932228 0.23069693767876107 -0.043074261985756195 0.22705666942969213 0.018629100052636818 0.09582162765722738 0.005277645293722834 -0.10046496363595288 -0.09443272957163694 0.20702253772030893 0.019926113917718015 -0.02833025405800845 -0.0323007682284265 -0.03395538768590604
giraffe -0.06348657880801754 -0.08633964876787927 0.04603516084001024 -0.09670305592724336 -0.06192386703521156 -0.09402046388387594 -0.06755050020816565 0.31859729464064285 -0.08463616375021132 -0.08142199194344373 -0.06716767486418411 -0.0929954077326149 -0.017705458043517874 -0.0284789649935453 -0.04807668612559107 -0.021303112632067255 -0.04358280594830167 -0.09832545973585967 -0.03486482174842774 -0.04568788870742361 0.30468853570371385 0.004844239000750095 0.13707520264921888 0.17718845887343557 0.026110630681419198 0.06763978373756277 -0.0925837716906493 -0.0902674911532126 -0.07374304151836619 -0.07821485420131963
girl 0.16598920190397687 0.005001355517492816 0.12857409215703341 -0.08188420295690352 -0.0114415779276889 0.2383478092929946 0.0637570529445272 -0.016099286252793294 0.08912421375421223 -0.04822686039018728 -0.034556507893272886 -0.09344228218761166 0.21680553464917252 0.1680196479527311 0.06474893242669008 0.07232655272570351 0.0966844067219241 -0.010714996088426907 -0.08377948899648652 -0.006356551456196388 -0.017526763411072253 -0.08948545064602889 0.045068375510167555 -0.06347819450378724 -0.10993438241267431 -0.09712907760952703 0.005488101058918944 0.4504609756269606 0.006905315966461168 0.10405151788211751
glasses 0.07401646731280496 -0.0870115188798814 -0.09102703811607805 -0.09734439522075108 -0.031135356435473122 -0.09323979114834288 -0.006887622505822565 -0.0928335893067992 0.09345521904196853 -0.058627969713637075 0.04313930936274508 0.0344500885582999 0.15604899096549676 -0.06195889284531897 0.11404043224563024 0.1234074336832455 -0.003449375628891878 -0.027248910089974484 0.008210396059599756 -0.10302263486266595 -0.087085792452197 -0.061390260689545645 0.09641379487545786 -0.10001385134414503 0.029457250706274946 -0.010325385233989858 0.08619795894729711 0.10899993090443881 0.32088183795942116 -0.10486975647209021
