429 30
accordion -0.045877701881155586 0.10146378951293128 0.04467376897187457 -0.059312703287433835 -0.09121863887220072 -0.08709094907198725 0.08599611336549472 0.23464527021059703 -0.10168345284199799 -0.09990813276667364 -0.037854731719376096 -0.007832066005001168 -0.09220100252919408 -0.08401777007947937 -0.09841833173269293 -0.07632113301401387 -0.030273854334770135 -0.09456734567161039 -0.09029034534235876 -0.10623372717373258 -0.0790917092766482 -0.08704499052725012 0.21488620790854368 0.26411042185246003 -0.09009663075120966 -0.025306420281200337 -0.08384247109065003 0.19963475778310788 -0.03092648364870847 -0.09054806253512894
aircraft 0.23440528733529697 -0.06849832027742313 0.07628876110560774 0.11846327843429107 0.1569402758760433 0.013091781865692306 -0.015846280546079394 -0.07979965774822251 -0.06714934846202449 0.14496615346911887 -0.06569000436376074 -0.07732443507892223 0.2900650351854952 0.047589190887043054 0.06595371153442806 0.010044172463954469 -0.08058708062592417 -0.07975826863191035 -0.05805354795502002 -0.10583610265693427 -0.052692761718681085 -0.0858143849827015 -0.1190549153137175 -0.08722424806900382 -0.06757678801121354 0.33267533048567255 0.3307217298307562 0.021228860726758326 0.043602866502615995 0.20455144019432756
airplane 0.11424389613815478 -0.07337335532515352 0.05742932597293012 0.1442082351737511 0.0717291410813674 -0.030120481047123674 -0.010915714943984975 -0.006770125093696532 -0.04594756868095756 -0.021192635094090022 -0.022839247279882745 -0.027747349681870263 0.23465889864802608 -0.01383871335920918 -0.09855685248911611 -0.08753474772593176 -0.08877277905948763 -0.031245816951501578 -0.016799713793526946 -0.06230494947559392 -0.07058132625036455 -0.0877818336436179 -0.1003579943929673 -0.060714946499645935 -0.0854804524167493 0.28440231571169616 -0.00813506260099516 0.04362585596760133 -0.021296590621892375 0.0025857704787930653
alpaca 0.05120174071512478 -0.09048642999375577 -0.08142658141400669 0.012049656369900862 -0.05463470499893139 -0.05868622632848273 0.008273363984652737 0.03962450106053275 -0.09767590270356288 -0.027528218888208757 -0.004184979680970105 -0.09859471502867068 -0.08905755325037366 -0.08895240139343566 0.0032815538910917256 -0.046485769093623175 0.13634454306282584 0.10973269516221204 -0.0898464640269079 0.0674489860261418 -0.03627397041663495 0.07715700704780998 -0.027915030349744425 0.21738017477104327 -0.09033878380621296 -0.04016408257764963 -0.09559239891520994 -0.09055160586639402 -0.06698664573679503 -0.0834401653213009
ambulance 0.059537551439414985 -0.07238721632609384 0.08838076471298723 0.18305210838984493 -0.043728143490455805 -0.06801952508801087 -0.09028466349236627 -0.08013988256908584 -0.09036417240490849 -0.0407980095255878 -0.0267967551184389 -0.060449996044119464 0.44530776227467433 -0.08856845901771966 -0.008080237952708407 -0.016895000068431806 0.13937264456129073 -0.09473349143685197 -0.0670812304017658 -0.09050502330164283 -0.09230210665621646 0.0109037463961936 -0.0612518453264512 0.11368906919714299 -0.08896678025104422 0.1115920319339239 -0.09543386360952218 -0.09786233803082978 -0.10055704119156576 -0.023074750934131343
animal 0.008763658211383548 -0.033080453531796755 0.21039715357778274 -0.08625377109764433 -0.053218755168160874 0.11012568222815834 0.0732225665351165 -0.06669191331590017 0.007753474302615722 0.22026802278773838 -0.00421989080218934 -0.028631597793784703 0.008151253332031492 0.11119420674723395 -0.0051600503863336675 0.010970995113941145 0.22205326568423386 0.3052262420356455 -0.09007002685246981 0.18430635932631642 -0.058158585265752905 -0.03502088607553843 -0.09766898448133765 0.05636113470699038 -0.062238112069902166 0.05863012467102786 0.07466693769519706 0.1496248354229625 -0.03432743792530247 0.012474458261447871
ant -0.09197513975937639 -0.018361588403437278 0.08842874872177924 -0.0037414067600647014 -0.03706299937986339 0.14493315531705844 -0.07359104480780511 -0.08901212412513759 -0.06996460231397413 -0.024399599740150168 0.08858882057455283 -0.019302205874220824 0.045441239387975105 0.020653474405394407 -0.024714109977531432 0.04287600333143266 0.05234990473600063 0.07649592200202639 -0.08953300305548131 0.09930003310361392 -0.09169815769736447 0.025816521849574836 -0.07506457402155793 -0.04081725612453905 -0.09031793454360713 -0.006680519011771906 -0.08727396320686863 0.19171565995910983 -0.021370970844289166 -0.06926761969161575
antelope 0.12965930157924765 -0.005438813643141534 0.1987195755327676 -0.0861764873869698 -0.030857802195578047 -0.0969781994748445 0.0044120620802168735 0.017013981989334518 -0.014056601713081245 -0.09937978542314947 -0.08960742101258003 -0.09808718658861099 -0.09209000194309369 -0.06755469082290232 0.0012458064394501808 0.18111328285380185 0.2972343902737011 0.06650806893745784 -0.09000914950221918 -0.08161952729013536 -0.0921143976341914 -0.08521083325250722 -0.1027977992547603 0.028768417971349346 -0.09034792327734434 -0.09642205807732751 0.05695826728276608 0.0497953907152897 -0.05403218633743003 -0.08600446940214779
apple -0.06417017355991494 0.020662116322294245 -0.021905019937021587 -0.02856269220015026 0.11934914592080208 -0.08762416281304103 0.03886180887392649 -0.07811891724750145 0.312302410023719 -0.02473298341710171 0.29054813750117103 -0.050222711290586426 -0.041902103404896224 -0.0887266821231719 0.09660335523519349 0.3974958849172516 0.06885304788509597 -0.0947626620716223 0.1323872276961545 0.031589145487633766 0.051801637735181566 0.036166458838524804 -0.10823985619204944 -0.08736906309717983 0.13754724876736396 0.02403341224148261 -0.09543459180499528 0.15635172930965693 -0.07984863490905685 -0.0906261033085482
armadillo -0.025541685766723412 -0.08712052784045103 -0.09228173349927198 -0.04186910528822007 -0.049046103997213014 -0.09688843907013242 0.05003441950561034 -0.06889058768118012 0.010775039357294236 -0.08820625821279211 0.038975926651802655 0.03585599658859231 0.054574446166512386 0.0557174298683595 -0.002562285640344027 0.02844331005648207 0.10263405720902308 0.1061005194041426 -0.056916978921438446 -0.1057513561736567 -0.06385424662181283 -0.08782749007476091 -0.007555852851806088 -0.08746443642125064 -0.06406049847618699 -0.004092980502868243 -0.01161195816638193 -0.0971308343243706 0.04093185685524482 -0.0223498776837083
artichoke -0.08121588119603625 -0.0841430579548645 -0.04906654842942592 -0.051194978547431505 -0.020297267332271735 -0.09640006675912634 -0.09069048401535817 -0.10161656369027529 0.14755928328705253 -0.09769983941235304 -0.0897472892290024 -0.06628384725500552 -0.09738329634860209 0.04810522768027314 0.06536072335061956 -0.014956840136410741 -0.06186155702439386 -0.02324444174569176 -0.012779066245419935 -0.06695820874573684 0.03297667963039382 -0.06904987538783905 0.062001926573696346 0.046004786493483656 0.06405453018245796 -0.09709041669372205 -0.09521721282021717 0.14504944164377423 0.07280369032483457 -0.0701469550357546
axe -0.09081515238199453 -0.09030251098932775 0.18970409152597437 -0.04298984243720282 -0.08994808203665103 -0.0012247830957047802 0.02919316466951602 -0.021664276273658325 0.08734219055562609 -0.06555672082964296 -0.03626092049484733 0.08950997383772416 0.1348114891548765 -0.08859014698829058 0.06326278368159799 -0.017310535907965482 -0.0531748277570304 -0.09455262690117908 0.03349297863095587 -0.10566366684282794 0.09460849921811479 0.31332523244982724 -0.10215219812463804 -0.08443061657796624 -0.08385645448818567 0.03893212974935137 0.036713698771728476 -0.02539739595842985 0.028878771384432542 -0.07586331826095215
backpack -0.06322836425512941 -0.09104866899788049 -0.045321153617904564 0.1521125404327562 -0.078781236185251 -0.08541502220715166 -0.04503064638755101 0.06791743538028383 0.12141809951326689 -0.007834005587266914 -0.04892341873842048 -0.020794794047495683 0.17805718560200218 0.015619335804503472 -0.0570160339351115 -0.02376323307357743 -0.07622864585795716 -0.045806455061307885 -0.018543049300149998 0.02930602327389524 -0.09220550274342744 -0.04776842069794939 -0.1194959671148027 -0.03891987174765795 -0.04657642962195867 0.08697431539543846 0.046752766501213336 -0.08605151423618065 -0.031905339062578336 -0.040243722292907576
bagel 0.16762887743820787 0.05705181785698287 -0.09167997489866317 -0.06499674221199747 0.06310175320692286 -0.02143434031013945 -0.08909934778662226 0.1108701021341915 -0.09724292434708934 -0.09964993886748208 -0.08955351185158458 -0.026729601175279113 -0.027820182583917653 -0.08855940423261416 -0.06120588188026109 -0.09526247371869695 0.035682432217895105 -0.07624885885005807 -0.08248190640922735 0.10539590555248866 0.032959950341316026 -0.047204779727590504 0.0484891688911031 0.06922872952676505 -0.02141452283344929 0.02785775777728204 -0.0956638625241363 -0.09753545091664435 0.04472511463030288 -0.01940629081729111
ball -0.04644001135370614 0.13987518890169762 -0.08652859875054297 0.010250372911481707 -0.08252612020666485 8.917567253679698e-05 0.0912837374268883 -0.05423047541536032 0.010787394321283826 -0.08224993216039775 0.21644045893163186 0.005259771411184565 0.01176940453638303 0.1300520056819778 -0.0900165210177302 -0.09522992920830843 0.0736446201423075 -0.009693141584220173 0.17039600552193573 -0.07534648424025243 0.10833613309874321 0.14915073458283298 0.19902470478794018 -0.06982555746819752 0.04607090338561812 0.02346146923619963 0.28596503798360096 0.03510131482042149 0.04994824244049134 0.1257614640152956
balloon 0.10464537470233387 -0.0912704342753138 -0.06707110770748462 0.09805085771991652 0.0872953605626197 -0.0329540878641619 0.05972872530414514 0.07613575707539194 0.03731529681589229 0.03264111522903902 -0.037996822153205025 -0.08167949101467654 -0.004073733097208927 -0.0458725471201381 0.0067880262385157375 -0.09525259113339518 -0.040683871510093804 0.023030984049883903 -0.08960438395123686 -0.10501243567353039 0.1742733571106853 -0.08719432306739905 -0.08142288093187913 -0.08488510551110207 -0.08630358519665848 0.29478612867623377 0.053661929498548804 0.08867158718852387 -0.05385016349127393 0.05238715273392227
banana -0.0924292632741041 -0.06501251327686143 0.015613065467605516 0.023214987590369225 0.18645979098560417 -0.0963951672958939 -0.07447426716553021 0.009384941988838016 0.07270249319820936 -0.0993525454145484 -0.08998046405708934 0.08285154982578825 0.09762141134827575 -0.03932125233312003 -0.011659729806900627 0.054707008324532055 0.047570153174065634 0.13205859927242306 0.280253206488684 0.17129093903199605 0.04672040835600328 -0.05964307920148295 -0.03134080307764994 -0.06986684433519179 0.09018901890143304 -0.09351976675194498 -0.0952613957732066 0.1422969560176609 0.03057659387506151 -0.038327442334276186
band-aid -0.016382132862273194 -0.06568558124500178 -0.0921491300525458 0.12698508145431647 -0.0313550978441077 -0.03489932268265673 -0.005734210005723608 -0.1046387706565515 -0.09132547834374652 -0.10014306383521754 0.11318888954960991 -0.0597513979620459 -0.029561456147226224 -0.08897462658384991 -0.06716457875006966 -0.04027332171594259 0.007697437027635932 -0.09468912052458142 0.007270577664835954 0.010378126614407741 -0.037945872526731705 -0.010242058302244127 -0.064500908677511 -0.0002386666587946167 -0.0370179950355148 -0.08571632662589576 -0.05752070449184897 -0.09764838356371766 -0.09985391566802568 -0.0904316939571786
banjo -0.028810942805547288 0.02143624664367714 0.009604253775114166 0.0562337123320359 -0.09015349544359083 -0.07519251248024163 0.10603140715203567 0.2521716214246951 -0.10201306062112499 -0.10025719758416313 0.10322392656021667 -0.02101765923238088 -0.07672042674004327 -0.08806635560295592 -0.0984016139546537 -0.047423206160307665 0.05471719931589256 -0.08713006085580079 -0.07633393702161423 -0.10631432916953527 -0.08376384534565698 -0.08772395981028742 0.2024589840755115 0.2135086633254187 -0.0877975567815473 -0.07626451516998334 -0.07477440335536327 0.15177620196329042 0.1024477902199229 -0.05188579651234994
barge -0.03171562823129455 -0.08132823767449744 0.07495272201320909 -0.05599412865502246 -0.09097384101953811 -0.09150161956333878 -0.09085686489274705 -0.03463920066911824 -0.10213664518748472 -0.016984834885386643 -0.07092455008070377 0.06827948754826589 0.17162557535465894 -0.04191261002852724 -0.09812001459228573 -0.0718301808223227 -0.04623329141486275 0.03251251733344122 0.09923198060240283 0.1096517398576759 -0.08772975748150809 -0.03936267085993973 -0.03423217352531383 0.058225765907376104 0.02228598655156883 0.11323420699890786 0.04336198002606483 -0.09748012619138902 0.00894608223464568 -0.0702740734236948
barrel -0.027394262529270637 0.2319910121932371 0.11784448213382753 -0.06433920351531769 -0.08871319660318319 -0.09599859388691799 0.0005194971081181629 0.1611522010118481 -0.03012217043822904 -0.08404391988889738 -0.08914191767861343 -0.09788400847535667 -0.02136043974965218 0.23826840064731936 0.009365847735200558 -0.016133358278216766 -0.09214733999208419 0.04808942218895478 -0.06973401856423948 -0.10622877961196793 0.028813006678210018 0.20301971324922966 -0.05756881386525703 0.1524796157173142 0.22582256489453384 0.027436987773950074 0.25860133052304535 -0.09688174575450484 -0.0037432004021440875 -0.08223064460803384
bat -0.09241011930827255 -0.061332067592759 -0.06518030986208176 0.07302349064568972 -0.03481376983760982 -0.03447592724947698 0.13319603273338604 -0.1044032097744136 0.049225523841600616 -0.06554540935923359 0.10100432388769219 -0.08682432550154245 -0.06922740404073892 0.1076848794013745 -0.08779009024496368 -0.09510959121338818 0.11360045681336176 0.09284471158073826 0.06282250277738222 -0.07955856068564748 0.05844794052568985 0.0922254049597682 0.068204135192368 -0.08756229272199097 0.01361759355339668 0.08506084869549928 0.13833832809503743 0.1653708697179552 0.009081936750839325 0.17253652288502053
bathtub 0.06500193496534612 0.0775321574815056 -0.09207027182419085 -0.07402621007625898 -0.09084649834569652 0.07161188690135396 -0.05948439318897576 -0.07483845100063904 -0.09678236384655711 -0.09819691201412993 -0.08958970532858636 0.16091375184224424 0.01623257684198206 -0.0886588337792771 0.17530701362527118 -0.02210285113260611 -0.002075832017099903 0.013913104105052627 -0.08894051444422435 -0.06575919705631598 0.1499508741238592 -0.07519978723875172 0.144041575504039 -0.08751161010836386 -0.09041644144629013 -0.09505676496849964 -0.09414481655483084 -0.0980129468696071 -0.03452658241412252 -0.02044849046545355
beaker -0.07287131138663383 -0.006862698199095899 -0.09199938088128039 -0.06483688316948485 0.04611448747225434 -0.02865210609888382 0.1046250115484855 -0.0038464397368409547 0.050891523952007744 0.03741564097512436 -0.033830114721689994 -0.04599130725709888 -0.09732370029433583 -0.08891720962135712 -0.013783865338759593 -0.06719588391751921 -0.09278665002984812 -0.046382279862709215 -0.058239859559790746 -0.10018836824361119 0.04515953396284001 -0.0795159151247498 -0.11987082659630488 -0.04377508041736451 -0.06277587439947205 -0.01353448537268901 0.15385474371469385 -0.04423978457998129 -0.0005629575396857526 -0.007064349627581664
bear 0.038391212472264194 -0.034647426101442724 0.11089264442303613 0.05836163783257815 0.028399581142188088 -0.006654739681437896 0.2620775074266893 -0.054072983016287615 0.04497964029119419 0.17956746561836565 0.02143665281320734 -0.08300265130930834 -0.09566617092241644 -0.015325942149456121 0.10558556431870124 0.021027451620446492 0.2642107736341304 0.13449723542140624 0.13512702444033256 -0.10300942418074015 0.048379045575708504 -0.03771639695217274 -0.104263504946422 -0.08666213829503717 0.016661965203764086 0.04089282914270479 0.12377037300824674 -0.030360401688945583 -0.037583818253346654 0.10390892198485872
bed -0.007826353691276431 0.08683237332056704 -0.08928190117125621 0.08430497522355752 -0.09065016199592832 0.19782859621286997 -0.09072484356869734 -0.019274834586020192 0.021234392909089853 0.13047640196520283 0.0879024856290338 0.16465483493829222 0.13328611858728603 0.0674635612676196 -0.0018774700214777727 -0.08681791876751849 0.0013018982663731203 -0.03491793346984684 -0.090243009424603 0.06836385441367368 0.005866432586494927 0.05272461496916838 0.05447135897537634 0.05774066661181185 0.012953848156901862 0.09383344078861608 -0.09539258903618665 0.006073911283283836 -0.07113821625043565 0.026220699719598454
bee -0.04206787342804392 -0.025632835325154157 0.010594028305807262 0.1573915994988435 -0.006688750330810519 0.11224960071335263 -0.04079024743940213 -0.052791773250567095 -0.07170127824456832 -0.0943370887400972 0.087081114266288 -0.09784887404651127 0.007228846746876231 0.008852780813812718 0.06863540655606049 0.0036712566435104345 -0.030202279023116927 0.09817484339661495 0.038340740930474106 0.03419102577230372 0.012261520558531091 -0.0656395150601131 -0.11859243739373164 -0.004046783782434749 -0.06974287198499662 0.13365821466599698 -0.09485789115377924 0.19711745056612615 0.05819730128249788 -0.0328613641747708
beehive 0.12323281697237037 -0.0030362907199819877 -0.03683521338524355 0.033084583614480655 -0.09023841638595133 0.02329408538291531 -0.08068973337013832 -0.036353719057030436 -0.06253235894174221 -0.02078290107886227 0.004254061776222312 0.006518041014037927 -0.030834134309435015 -0.05484452996655987 -0.007513278672764476 -0.03929428682117693 -0.06762364092080796 -0.06933802000203279 -0.03606973860616808 0.01058104854998812 0.10610632923297868 -0.06155516014194761 0.025032368178412492 -0.08660790949891445 -0.08477540606609689 -0.0965876500083514 -0.09535111456861216 0.029536054683105075 0.029873028763546187 -0.0418241058420463
beer -0.02330150122682303 0.3139952157336474 -0.08559434694801205 -0.006511765344219734 0.23042549800306913 -0.005798832855161741 0.0016597267171790879 0.1531161651232783 -0.013930539340644216 -0.06679251566776595 0.005723476044068046 0.036623498638753756 -0.04763420146978963 0.00986062865331491 0.13906003696850824 0.05782072638426536 -0.03928869554951795 0.168367885017847 -0.030921800769394648 0.13541601375029264 0.014509531300282983 -0.019713557351534218 -0.12010650619214211 0.06860001212277045 0.18294467906455775 -0.058214584791057455 0.035391383706896644 -0.0975430586370275 -0.014076257838940707 -0.07905452093648334
beetle -0.05594195954566652 -0.04539502179791035 0.12792683397701918 0.1099872555646163 0.06448385627992595 0.09776190280480243 -0.08978379361745104 0.002592408181974556 -0.09590238153639855 0.07323772374192637 0.012538390701239676 -0.09370333988235872 -0.08181936420527758 0.15490196215167298 0.2807158598952593 0.07578891782406687 0.019981568673002194 0.025687418178926814 -0.02503018592788293 -0.06201018340905849 -0.09052549030774279 -0.0836904612800393 -0.08633401877049734 -0.07705367784373825 0.13587178208319722 -0.06617898693233357 -0.08683734044906624 0.040893505593611566 0.06402525466766865 -0.08971557547115215
belt -0.0921985056907434 0.10267157072240016 -0.00038124516793745024 0.10562460090861096 0.0077756067133377205 -0.08021164981742358 0.03743126265495612 0.15253638339422085 0.0518618728062118 0.07372390827081404 -0.007615043254477414 -0.09825107048368996 0.08655042864335491 0.01982396379272304 0.0627651624630713 -0.06609564515642594 -0.08803901159153374 -0.09427824329691821 0.23054504577603574 -0.07973130687387558 -0.02381502855273895 0.13034641260708732 0.03460243980526277 -0.031020717172964708 0.02997451403408548 0.10980189782721596 0.001412603131701027 -0.02290409744174138 0.15715273246329087 -0.01198002248929944
bench -0.0882457644004249 0.33980052814178635 0.05256008440155701 -0.03640260555730828 -0.08877150911143204 0.13074738601497818 -0.01946428148735538 0.020276961370779903 -0.09031890669689291 0.06677210395181721 0.14639178673420788 -0.06310930604146942 0.01926228949453479 0.06323385604168061 -0.09832568218773985 -0.09514994663192541 -0.07612232116658965 -0.09085952099860567 0.005200169530434423 -0.1062321383732338 -0.027688380721038984 -0.01837157451970274 0.07568666869420415 -0.008646795662167132 -0.03642928517538514 0.1451799198139759 -0.032388399529222754 0.04131251417978016 -0.03801023564393467 -0.04520187786526253
bicycle -0.09217338358280003 -0.0897774333677188 -0.06549955628800873 -0.03048047478953714 0.03231496940587297 -0.06458088399727431 -0.0020871331593288727 -0.04692202586052209 -0.0619532867883193 0.13072558823215502 0.10792203518443667 -0.004378152342224766 0.2296193088366722 -0.08819498633918557 0.0183395502590425 -0.0952192058769682 -0.03395603013122854 -0.045781210864615646 0.27541012738835374 0.010339901357577785 -0.0842965623837666 -0.08762615332006098 0.19337708378932558 0.17180955793133051 -0.046343121153322814 0.22041058113068243 -0.053909457041024046 -0.08960266689172175 0.0049635514200362845 -0.07521164817216743
bidet 0.09417439245808049 -0.09092006933819402 -0.09235983653175742 -0.04984008143905145 0.015931285401839156 -0.03811301577532202 -0.0908312281692324 -0.07989364312800412 -0.10189335762465745 -0.10031239636463471 -0.09006388829630345 0.08873127718843431 -0.06953382801755237 -0.016921660880249493 0.27737681400579156 -0.09540829674536684 -0.05234402321231958 -0.09479552016813625 -0.09005062142627807 -0.1064026375610828 0.1428782916839155 -0.08715986853983951 0.08041598195044651 -0.07353603385404459 0.09962215077876627 -0.09713418409985004 0.019216156328392596 -0.014908716063056241 0.09892059826397039 0.0063375973847427875
billboard -0.061444413891377746 0.03982244491581023 -0.07540168844195085 0.17265877876385585 -0.038719507872665 0.10477731849244837 0.10280799704715154 0.038978019221828794 -0.06631087423949918 -0.10027508725033055 0.23219584292910317 0.040436758098757124 -0.010235120247023078 -0.03793878195037672 -0.03685078345809221 -0.07782772904510936 0.006412712775537291 -0.07121426111199185 -0.047555368094092255 -0.04729074644621706 0.12408749338496926 0.039686738693002044 -0.10591089852280056 0.11895418718899876 -0.021541127822548026 0.05603357872553989 -0.09098662832050017 0.059413479742726545 -0.06352633337138482 -0.06602808552393034
binoculars -0.04392709098373555 -0.04362476833089241 -0.03739234295566198 -0.0858444219685018 -0.0906182627232733 -0.0031942561830805424 -0.09054513468585992 0.12762987792042735 0.2459311427701048 0.05893785467781252 -0.03841571804206695 -0.009816198090191608 -0.017551504527045167 -0.0888115036727689 -0.03423520418970136 -0.05315069615755091 -0.09297575076252203 -0.07378404144714763 -0.09037034712146935 -0.06333865091203919 0.03793863351938071 -0.030196435422601905 -0.09547879997982624 -0.05269206697813532 0.05079656858830409 0.030049286298524765 0.155056881710881 -0.03967869501079043 -0.10049640568725693 -0.0904526274981956
bird 0.15504963746041187 -0.09103601758388659 0.03882699931046561 0.022996204552369778 -0.06593721805942741 0.2366765432279009 0.07491998832421067 -0.0677996652307709 -0.10048592669612524 -0.012758502230698876 0.10661254256871835 -0.05031632936062782 -0.06273873973840458 0.0667170543082918 0.004656552859800793 0.12175128719763331 -0.016439087055249543 0.27959864075818935 -0.0696797882028764 -0.0727302037441757 -0.04321928420556293 -0.03826062894193988 -0.11959333360943923 -0.07004857082917111 -0.058460949139825136 0.11657695937757252 0.005167577214288638 0.2903272391353547 0.15661492422000345 0.18773633420449506
blender -0.09248168351650188 0.15140265413423926 -0.09213398972701266 -0.03244874994628283 -0.0634101207856762 -0.048494124004499775 -0.011418945983998818 -0.022504305301618132 -0.04237889576820488 -0.020305097890410788 -0.08954131575949258 -0.09493520205405132 -0.06353600013848622 -0.08906075197867537 -0.026627159280038518 0.13016682083145095 -0.017463939666134704 0.008599517923383626 -0.090149811425946 0.10641923048877241 -0.06892953643553261 0.040814379595511416 0.12901640327014705 -0.004891946798809147 0.09321403165890053 -0.04342391478245713 -0.09495685282400816 0.033384417267146436 -0.08515737301955223 -0.07003669533009615
boat -0.0204308629096106 -0.08615763761748486 0.1739171188908432 0.07292129505841907 -0.07708038756323944 -0.0618409202941234 -0.03113440481423357 -0.03537825291030907 -0.10171012724446943 -0.04301396414455589 -0.02222079785271733 0.19024717448068623 0.2919673323301519 -0.03203795932151331 -0.07935850037542748 0.04209639675574087 -0.03802310479570589 0.15973463688345604 0.280347170998594 0.12828447809704183 -0.02220665015783057 -0.0875157602428793 -0.07017398257153389 -0.06224841666440594 -0.09016187062202738 0.17899096505711554 0.08720786058872804 -0.032568400712858214 0.1190140772525434 0.07476167529702205
bomb -0.018115091868734716 -0.0873951578722427 -0.005211635386332486 0.1534158889582743 -0.0009519398489089146 0.0647827640355943 -0.04285189440170428 0.015678226727189683 0.10320576396749272 -0.011739952321038133 -0.015516919260427822 -0.018206395699881934 0.20098227207391373 0.09331764239172281 0.08304321459611043 -0.09529283824055972 -0.08146863443741452 -0.05197707086834534 -0.042164229469542645 -0.005533706288556068 -0.0712414695070205 0.0009268875799860553 -0.04382051046379196 0.009169538243894748 0.14912314879792424 0.3359196104621607 0.07800137551701466 -0.04199343508000908 -0.04920051470891851 0.09036399130820069
book 0.06749444877486228 0.08782128801255006 0.056163008947586246 0.029015075522974273 -0.03649920814642896 0.1893623070513113 0.152306724424279 0.06789100577488447 0.07578054882134569 0.04362973707266168 0.15565954574895072 0.20836021952531703 0.054790574556843795 0.0048114303530745 -0.0024604490148649643 -0.028969932120839193 0.05116172450994227 0.04502850490437969 -0.03387903235786655 0.05568193466758582 0.09222541031939292 0.1196664812083343 -0.09096061469267896 0.0911909135146609 -0.014208064341139987 0.1172111697317733 0.08239199580096941 0.09874532394871736 -0.0194572036181989 0.003352646432806396
bookcase -0.0571824396699646 0.00539639794829416 -0.09180248834943393 -0.0209963077281834 -0.09071004545115298 0.09822304348776525 -0.07726042424248951 -0.09810031198189102 -0.0009216972298534201 0.10242398874171396 0.0020883284162821784 0.0937795488663755 -0.023962178119195227 -0.08879883504113094 -0.09848688117383696 -0.07997618736882925 -0.09257016339512696 -0.07623725937542054 -0.09015218079225196 0.09272627398680126 -0.027666208569446855 -0.03666465977268726 0.029413571976299503 0.031791460612937424 -0.027793532656401707 -0.07920040940172728 -0.08724677341639611 -0.03177774145316492 -0.08823846103503262 -0.04395352562539541
boot -0.06531030299359217 0.10113588209028865 -0.07802186743004323 0.035779718833426094 -0.0686376688346704 0.13497007896405822 -0.0899612743969259 -0.03789054718413153 0.04650689749517767 0.08495712500963602 0.07482158402556859 -0.07721692810932836 -0.05645609237360948 -0.0890071974913651 0.024703734125207405 0.13907000823311716 -0.0930949852955904 -0.0430559854647915 0.2910873745865395 -0.03091819025772251 -0.044842279858542784 0.025465908006627003 0.11018929139460976 -0.0007078965039911606 0.004645577315180346 0.07236602302081148 0.06626878449045126 -0.09803795875854106 0.03758709262095754 -0.07998364762029511
bottle -0.042877106873464806 0.2736859102212099 -0.09090957545813959 0.051903873462140745 0.17627796498639905 -0.04884377365937951 -0.010994628102494164 0.111462088564163 0.07197475242742793 -0.10033133847967685 -0.04335938157558006 0.08468836566130011 0.042716786173400315 0.029657104325116538 0.11978953214882021 -0.06046962656190869 -0.08713569259094753 0.18650098183511496 -0.09038956910882677 -0.01430724169986936 0.04943589587373697 -0.007022204423481329 -0.0923000117474187 0.02769589857372056 0.10138154773857579 0.04319546886036741 -0.03925170307069551 -0.060488674257298945 -0.014617647352195373 -0.06010931897946178
bowl 0.02796717074322261 0.10530528173524059 -0.09203864131635107 0.3798856846751278 0.38745635569128223 0.0560473203139327 -0.0389919323430254 -0.10488931276406072 -0.0883895778510411 -0.07134615886676848 0.2113612998437167 0.10224241536899109 -0.09670874961962189 -0.07656066651619274 -0.05820974467714494 -0.08748962549828346 -0.04948462123397876 -0.09474485113623027 0.2007986000306012 0.006454774407718754 0.07632413757146075 0.00011934876813941744 0.05229798724242912 0.028905115630355794 -0.09040115031963007 -0.09679138140146745 0.09102469297075001 0.008771425667592135 0.3142550485918762 0.0797294393582635
box -0.09176183819315374 -0.003744847904784995 -0.07313439393883683 0.12613198788673252 -0.0206327213004864 0.12700987584094883 0.207559058355975 0.00020920241197170745 0.06557401289416138 -0.06369703787581457 0.04136479233098452 0.05742732127313908 -0.021725837809644315 -0.046982586372936626 -0.0972132758023638 0.16762336515869206 -0.0920394571691464 0.01947932425646283 -0.08994379915151866 -0.035790754312654986 0.2021260206190776 0.0972577320558039 0.10087870740333545 0.10591786363127978 0.224925561117095 0.2619910788704706 0.12139628319816054 0.03067685195267363 0.08635039076660461 -0.08424545801321616
boy -0.0631231780152579 -0.03364047149244519 -0.06892134704441219 0.2298918805574397 -0.08984670598315092 0.12649751214512106 0.24839789094664744 0.1336588499088882 0.024420696382262 -0.0213297000628367 0.06232584023008602 0.02326468547706053 0.04126557878154194 -0.08279941932353664 0.06583502040064157 -0.08744589476932435 0.11060738330739707 0.07028324505575816 0.006328378093451422 0.042430701520037084 0.16593896553766418 0.09100884170832835 -0.019602610577548026 0.12336834868812287 -0.046319024799568786 0.12252392111857814 0.029433385977786806 0.05061998438621115 -0.059515152397037405 0.11344765541250838
brassiere -0.010025854503471897 -0.08995507067123071 -0.06484202593927758 -0.030871250613399785 -0.07630576888686101 0.09601103744850464 -0.09069524382980133 0.022706189381643975 0.06595735069578434 0.19254695634173252 -0.08992719262556499 0.03255448307621723 -0.09738294398449991 -0.06401610600404117 0.030383887079678366 -0.0953828201267842 -0.0930940122306936 -0.006521755895270591 -0.0772532016475995 -0.034695762237282976 -0.05271070146031192 -0.08800581755654378 -0.10947222419725504 -0.05514252173540786 -0.08054557144695397 -0.09706775812738026 -0.021702140385399398 -0.09810074438098976 -0.05812486416039122 -0.0906645192546586
bread 0.1908469268197483 0.21754375174790688 -0.09176479540476658 0.012143220178276085 0.18568566901216993 -0.02664982974732083 -0.03182906683852261 -0.008501381118635166 0.05554967929402897 -0.08040987940780012 -0.06248288319366357 -0.00858065160354072 -0.08729121810174939 0.007814629920741462 0.0029555581486880138 0.018191077458433565 0.05145655736006683 0.05597404298506298 -0.05550129622502446 0.3044098658475777 0.12955022401706934 0.08047159344775782 0.1156490000693016 -0.08648796591195833 0.08405392778983997 -0.06846940942715918 -0.09307587620974546 -0.07189006459548059 0.012171295496436398 -0.03290352131541096
briefcase -0.03227502009579486 -0.06379851910661603 -0.09199408009693882 0.11792032785464042 -0.06315185195060191 0.01677730101558168 -0.04834805022016541 0.00499776105972361 0.11365001608019565 -0.0674344750052933 0.013376157435117601 0.059070214261706215 0.039587824759447415 0.1056295810540143 0.11726060458732933 -0.09418801179255026 -0.09291881928541741 -0.09464732586752368 -0.05104597933909719 -0.09284432199227152 -0.0631816628346937 -0.08090631501520906 -0.030819256638316396 -0.06399460925645159 0.014326275957429312 0.1220087358161095 0.00017328337226413048 -0.09775285983664454 -0.04871882972434867 0.06718728096833355
broccoli -0.024670786024686916 -0.09121184320319281 -0.08385115283476911 -0.08664837416247659 -0.06872171180761985 -0.08483525926097865 -0.08367734836118497 -0.10480742755648466 0.14573610799962108 -0.08357652346192125 -0.0898211653787816 -0.09864637900724849 -0.09725672200397498 0.13879738346252293 0.1383972933258504 0.010218753113896566 -0.06919462467977622 -0.09466668671697405 -0.07570770417583408 0.09020410826371009 0.20252692250464252 -0.08037222943526903 0.0447646481251601 0.16566987544798456 0.10098156412736144 -0.0971134943368684 -0.09570221190778855 0.02713927514861096 0.012515706813543512 -0.039333679019690544
building 0.17808131054057957 0.06267586424863354 0.2831806471419944 -0.05828694909809538 0.026425040849986866 0.11759893281110502 -0.07031568541852422 -0.060252393387219015 -0.09073220632968422 0.09735075669733434 -0.012840391619004543 0.1866299081588907 0.2733051926156702 0.00458509242155439 -0.03555522774263107 -0.03821177910299845 -0.0925129558813612 -0.029931578526980508 0.07638922159999487 -0.06098284728345245 0.22836876553603713 -0.06973116817237854 -0.11953351605735599 0.01634777232184675 0.214277285139591 0.18937965322365988 0.12037315861264418 0.09483400948396958 -0.05399392768880551 0.059890355756595064
bull -0.04382730795362233 0.04682705000996528 0.17207021873337225 0.05654590891533502 -0.0743114481303535 0.12262254464875888 0.07864096955992961 0.06884672902306842 -0.025101881084134543 -0.03898638779907634 -0.056837637186437515 -0.06371891916499767 -0.07707784207414686 -0.08456173702187714 0.08891409313319637 0.043601531895824074 0.052995518388045865 0.25292487455696594 0.04127440208595642 -0.07979154358428632 -0.09169999842003995 0.07227273916888195 -0.09205226967558149 0.03688102959280869 -0.005376493990870186 0.0634071381058084 0.12825242002572446 -0.09758871017679437 -0.04576514601404945 0.023267637931473035
burrito 0.03800151353377632 -0.09084827724074952 -0.04686316164713778 -0.06226523498082051 0.05036764208592762 -0.06849846151049047 -0.08775069024810501 0.031244304293315078 -0.10202894456627071 -0.09992409655538283 -0.06469658804047274 -0.0972458394978227 -0.049068554353340586 -0.07734601230657565 0.07165389121769025 0.06425201940956021 0.03933621246704906 0.027517129910144655 -0.07733573259835125 0.08630332891014802 -0.03812049491641701 -0.08764033906092786 0.002419712032362006 -0.04162238655320258 -0.04668585035877864 0.002142110685502726 -0.09540697825830166 -0.07381481772198321 0.18004935243033454 0.03438944294772402
bus 0.1468492805507805 -0.025765459185223494 -0.03528688178491431 0.05394720919909752 -0.055127538668912096 0.11192798764398576 0.008271944833383662 -0.10445651935051968 -0.10163156284108024 -0.0760768182297293 0.2255846683064788 -0.013919256587288643 0.2738982642789651 -0.06928058746481304 -0.012754020654586746 0.14099219019143816 0.004390956485819094 0.03605969427844174 0.18778690292137498 -0.05514876650397874 -0.09169518687114164 -0.07534064008919453 -0.12008632536869734 0.0522731108653969 0.17440931897593837 0.2965542241985279 -0.09497913943380236 -0.04517335654644471 -0.040471294382969224 -0.0468825494954073
bust 0.009510449000965154 -0.02621361046009996 -0.031596074209560475 -0.023392891085884437 0.012628202475119452 0.21287186679941691 -0.06812247687261737 -0.04618811178172018 -0.01333260917123989 0.1591034378854886 -0.06433204147124205 0.13116665495681565 -0.08080379764376264 -0.02537425105808725 0.008567324707886865 -0.09485374445735023 -0.08745730826904835 0.11280746169358358 -0.05623279565968179 -0.0929027691111922 0.08867259016111066 -0.0809853262621148 -0.08654713563835631 -0.024005906711595283 -0.08134860027954698 -0.012032071663862973 0.009462162697070248 -0.043051537570333795 0.001264249806939605 -0.09016329532665156
butterfly -0.06607101607452083 -0.05061226013033215 0.11101156929938459 0.0534075143194171 -0.0904151676981953 0.07593597403463503 -0.0677857268853761 -0.08420021209106078 -0.02517066818094145 0.0037421615776498966 0.06327076123272772 -0.05923520255779163 -0.08756241895276312 0.2120846256395642 0.12583994166939272 -0.0528682307933389 0.011758572126654777 0.0029941291969469677 -0.041097683029166936 -0.013563982092563159 0.09359669445095647 0.030616425359530696 0.11133691728616715 -0.05087151712055165 -0.05897509512268789 -0.057545692884225084 -0.027520435193991808 0.12135771296041131 0.08241772224923159 0.05953172788295128
cabbage 0.08798899660797305 -0.09102755922058052 -0.08843116668178372 -0.08635538552420916 0.00037146044924632926 -0.09635111093171943 -0.08408559539806094 -0.10490689378031648 0.20115131040931497 -0.08791253877031763 -0.08833127897343175 -0.08737424035734737 -0.09722022197627712 0.21366365682102298 0.1554686813389805 0.06618794209134532 0.01711423196947752 -0.05671788342384153 -0.016434758174812818 0.027234429730786602 0.2573004848858446 -0.08735663803727102 0.07092145925880285 0.13827436230310441 0.1288392364049387 -0.09683804597784564 -0.09564708658763456 0.008865381829553513 0.13975036498241805 0.03594812183039454
cabinetry 0.09359636379823777 0.00788716703654422 -0.03034467496843916 -0.08664837416247659 -0.0749950167743914 0.03281853547043916 -0.09085686489274705 -0.015375641342700037 -0.10215995009823385 0.2535204400036784 -0.0900656283046522 -0.012948974516673718 0.004196128832812517 -0.08916118541507621 -0.08802150372925788 0.09042854839789445 -0.0930949852955904 -0.04745821774530674 -0.09038956910882677 -0.10567325883147219 0.022564408508936915 -0.08802206626281896 0.02897054634188899 0.03729754214233343 -0.07057670683506434 -0.0011794295556635864 -0.0953471562713707 -0.09810187618874862 -0.10075384979351157 -0.059529960908797884
cake -0.06271922912843879 0.01384822846280553 -0.08403864410903227 -0.045173210838648364 0.04943031771654979 -0.02494805032903574 -0.019104726991412378 -0.04846606661524954 0.037814019963639665 -0.08023514432080815 -0.0287016025614056 0.0026929692067066743 -0.09718430253047226 -0.03348422472777584 -0.09824411966424887 0.0936115210395586 0.20701897749042528 0.005355847347146299 -0.005036410663911051 0.2482415949909237 0.1458096237617268 0.19594452624930975 0.12701135957360934 -0.07501175917106338 0.21764865428619912 -0.09689686575441116 -0.064546139804852 0.13026564199690596 -0.09907676358488957 -0.00377923983428736
calculator 0.00899392802671386 -0.08891329781194257 -0.05250738503065523 -0.0864372371443356 -0.09113434981615486 -0.03796079093184217 -0.08537428492576435 -0.10421846425785171 0.06253442461836563 0.05265240031528669 0.13271098484545893 0.11843377933221938 -0.07922034309301738 -0.08906555213881953 -0.09867368255414037 -0.09505161334048683 -0.06949808513482189 -0.09501415207891703 -0.08935323813377773 0.06106863218345809 0.01693922679627099 -0.007354035381985529 -0.03739911810558607 0.10125438229802519 0.22049694097092362 -0.01704387950213759 0.15655914515663147 -0.09747480476544008 -0.014504849870149869 -0.07822777558179951
camel 0.132608732009714 -0.04135271549705267 0.017809844848543817 -0.0372894164894557 0.022220855303045305 -0.04821849561022525 0.010060968662922271 -0.006757711694066451 -0.10201114546800898 -0.049965234194839656 -0.0028546171936477543 -0.09401223693895724 -0.02898394506019929 -0.08837769913025323 0.11913710657068342 -0.02250191646946988 0.27424216959881365 0.21736334796316603 -0.018359912002850243 0.03812160730251635 -0.09238842066250655 0.069626205706928 -0.11726474285862047 0.14246638488887514 -0.09031151718852559 0.05976168910939879 -0.03374809253409742 -0.09648536389181926 -0.07066652584737698 -0.06051342439031792
camera -0.05324052579947098 -0.07051664556024961 -0.08118405367958975 0.07156271650468807 -0.06452096144154432 0.08431611236621221 0.018387721862936322 0.015258909266921358 0.20436390157275958 0.03235278543090628 0.21055452069519645 0.13930962806748456 0.20710595988766234 -0.08780667922547865 -0.07599303114152182 0.061657209837389704 -0.019747145359359647 -0.09450855110193668 -0.09010387925162441 -0.021489190614966885 -0.02482663714310419 0.03309423008354033 0.0669727793759352 -0.022696384878056725 -0.02939661427789698 0.1302031823781026 0.2660623263173862 -0.02041967279445895 -0.10032194543038665 -0.09015521245798849
canary 0.2020124083032922 -0.04434344322944905 -0.05497324801413304 -0.035913691249214806 -0.039361602864357796 0.13182774413638146 0.03526754115063861 -0.08139601092311263 -0.052862508458753024 -0.019775353765511174 -0.002555919243302124 0.026428750015051416 -0.0008910860255418073 0.04085591081963778 -0.06290319514602291 0.03184433946461384 -0.09225771415594472 0.1372327580158798 -0.09015287378612132 -0.08390464883757355 0.013345560125285306 -0.08733058604611099 -0.1200718358733711 -0.08767486736211007 0.16251198953088133 -0.011395348577121062 -0.029928910204532828 -0.017956577155955843 -0.07181610098494219 0.08420058395481526
candle 0.018382665513170977 -0.0611933539041556 -0.09228407765053384 -0.0453426032385097 -0.013233358410966652 0.055821341344204176 -0.08180898980173078 -0.10446258263518579 0.13443759360652438 -0.04900606741784105 0.07297752217063581 0.17066282018386805 -0.06790838850260769 0.06073559884349902 -0.025149689241753627 -0.08747427883819943 -0.08319677563401626 -0.06862005467911068 -0.08991302606931008 0.04116531946494107 0.0838331674622854 0.03282128555475408 -0.08861208630133338 -0.060610334181243536 0.1514597396227123 0.02041567843456315 0.03805884547609513 0.01045378775733683 -0.07217752333439377 0.04257086670983619
candy -0.09112635347241814 -0.06875438108008171 -0.09198718824576087 0.10742670597367097 0.1175074715791808 0.032470142181829996 -0.004941263408102513 0.06620116392315689 0.22853505294661047 -0.09401642994560944 0.03757938162764958 -0.03522145592955271 -0.012630923071526122 -0.07496164930219235 0.017041744771422448 0.06934403433838346 0.21432870845538 -0.07902792643163346 -0.09019180578158764 0.11397116883561496 0.19522670820113924 0.07141769218131588 -0.0979017774641449 0.05187697565850634 0.06290443329810265 -0.010229757900086912 -0.09495920368460765 -0.012266506838498642 -0.10077423741822605 0.020474931888804396
cannon 0.12150302183844403 0.02276268559513793 0.04585768339617707 0.049787142560726895 -0.05004150087131624 -0.09457422632387269 -0.06136788240534289 0.07779173964742912 -0.09292215813212726 -0.10025100734382886 -0.03334767842174242 -0.08665169305411459 0.0914808105905792 0.1847969512952364 0.0027676875645084656 -0.08123179710654668 -0.01697356446702895 -0.052330305967166646 -0.02243215404753676 -0.10533667639016889 0.09727765562088753 0.035071508502896 -0.021843391995776278 -0.04178918691501069 0.05127834540030898 0.0897043951273977 0.29331570728869416 -0.07257224852353757 0.05603134252794442 0.0834464803622236
canoe -0.06945040133881206 -0.0711240276945034 0.1432009420394041 -0.07217951235654262 -0.0838207159080322 -0.055640560746075866 -0.09044486362684291 -0.1044826410927037 -0.02241712236535063 -0.025716154720419288 -0.03245367990581457 0.2425445015522233 0.13539297386545684 -0.08309403773573047 -0.09839563049724648 -0.019098432764437474 -0.006633386230041033 0.1482249026938292 0.2538550561598122 0.05304298114299845 -0.07917544650597866 -0.08763366494120724 -0.06026228366844846 -0.07346008526079675 -0.09042093159916573 0.02252106447377305 -0.06613159055881619 -0.06002165661849243 0.017433433270627127 -0.0484744031259796
cantaloupe -0.08070900001547886 -0.09116912498909825 -0.026054526420360567 -0.08659184853508016 -0.057053794426170215 -0.09710080599219895 -0.09074669524547595 0.0491870428377083 0.07196745632031515 -0.10013221637705501 -0.090012004151917 -0.04261768416435753 0.10178581891994 0.18618192606257222 0.003797156590992441 0.11767141095391405 -0.09297396301345033 -0.030042577026093743 0.2963856506303998 -0.08275193069734477 -0.04651707870681817 -0.08737263596778579 -0.11956169260144531 -0.039129363518819286 0.025585012375248708 -0.07328225643148387 -0.09554322299218054 -0.09762976718171842 -0.02934405485215255 -0.062024841361753943
car -0.003965243789659326 0.0005486940844164146 0.039221598494806116 0.1922442683816893 0.03713235352028437 0.16160429258461764 -0.012322068807791948 -0.06422905559393335 -0.041959736918960745 0.09877964167452503 0.08167020769935505 -0.013619030962341598 0.20971269033049308 -0.07278377176396583 0.17646287059418922 0.05842797286435373 -0.0375352089373467 0.07036480451398673 0.1101330825524668 -0.09497885906813794 -0.03800914162948651 -0.032741052953564706 0.08714952080425968 0.10664568788154763 0.22619281311268674 0.37717610761927045 -0.009212348677298306 -0.08443098227154366 -0.051862308220989334 -0.0073488477172879065
carnivore 0.06663289038735576 -0.09123474110456997 0.09886143057766489 -0.010221301542351034 -0.09086845928766618 0.06949673376223336 -0.08040636016651154 -0.035583787753814274 -0.008157724156251324 0.1348044627220373 -0.03794611253918154 -0.033339619607016625 -0.04815058887686266 0.012072868435137482 -0.08067405986282108 -0.062052792064932236 -0.05046881516100494 0.13930208091695792 -0.02633677763144828 -0.017735560552110573 -0.09207267823910813 -0.08737353265486292 -0.008217177343194838 -0.08749145602444208 -0.07858177809513524 -0.044086178418068056 -0.04597689397586706 -0.05843558811632877 -0.07703815399674305 0.05198751973655087
carrot 0.006448755357166394 -0.0911526323937127 -0.05075970441676422 -0.08623056578958027 -0.025149387260980895 -0.0967752374625888 -0.01660403219222744 -0.10471457805207426 0.18976380688369868 -0.09979372517403388 -0.0014971656129833624 -0.09804598763595085 -0.09730651803936899 0.12337486556918739 -0.09202328386994127 0.07115957960075649 -0.03141629615022109 -0.09445309747261502 -0.023415012302780275 0.09274258587844698 0.16258362445244798 0.10044472840871331 0.12825189813354793 0.10603466812867325 0.21655804488386393 -0.09675463924249753 -0.04941273850380869 0.09180540710858619 -0.06277082314944706 -0.08627326917443348
cart -0.03747284109967626 -0.016794636703662914 0.17523883290337283 -0.08483313790463999 0.09319523987328662 -0.029445645400858467 -0.04947033591362118 -0.08008377391927839 0.00835121246920129 0.036551761857895465 0.04550363013595952 -0.09844299018166161 -0.03323846038950115 -0.08916118541507621 0.002038410771176969 0.056424715628825346 0.2120384320496556 0.10442759049636292 0.07872823332988901 0.028491405401600514 -0.08086676907509655 -0.02946033418125589 0.026923796293937794 0.09456057967974611 0.060653158508431886 0.20958315817532938 -0.09580381677986528 -0.09793135997891057 -0.10043713720845192 -0.07611187321428833
castle 0.24486389791966348 -0.009531570771614817 0.25051245276378914 -0.08513056892334256 -0.0456654268878695 0.15339870985913664 -0.030662207273294932 0.055040991734949044 -0.081669265278357 -0.06614879282608804 -0.01694944394322626 0.06655134530817058 -0.010992896937017048 -0.014884903326822312 0.1309282501090191 -0.018198932950354803 0.015366497093920337 -0.05884693172347608 0.167990994910081 -0.08420730162858814 0.2919710516170222 0.04109374369680307 -0.1201371989742588 -0.017032936168817635 0.15332924602510473 -0.01108686683096746 0.05192488834520153 -0.032248653410012755 -0.06884162670855104 0.007039275859865104
cat 0.12517693733972154 0.008163425700941189 0.08134386140553777 0.09382282208370586 -0.0673135756567779 0.1132593518851451 0.23492860938057972 -0.029456326667279646 -0.020607170228567492 0.14324483985101238 0.1607749516298678 -0.094429434281144 0.043393955071310844 -0.07877665348346181 -0.057704443345867974 0.2183321443873189 0.14893114593132373 0.12311547528445535 -0.08971925968118404 -0.053004032408846595 -0.05433579662237513 0.06932190628304384 0.04511866793115371 -0.08662683521154188 -0.010030391879084196 -0.017321064788833777 -0.04495642403801874 0.04890845456391266 -0.08329046387268094 0.10188507870798012
caterpillar -0.09246069590947373 -0.06662595261563378 -0.016488436765012337 -0.06876626885605458 -0.053724515636613124 0.03888980651466708 -0.09043725603689645 -0.0855116915185558 -0.0509018299352712 -0.007131634232407342 0.15938298128157033 -0.040218325113733154 -0.02132173031180101 0.0759394505701161 0.10443254565232135 -0.03626716620667742 0.00014306942773867684 0.06474137587053555 -0.08716158406721364 0.15203395788910742 0.014823873306383 -0.07567313262262858 0.12804870906361102 -0.05817271022103316 0.06538612816617928 -0.015561275475438103 -0.09561136889479159 -0.04251349558448442 0.08085410138096523 0.05935273116817777
cattle 0.11420047010932109 0.08560051662721575 0.3384782937389171 -0.0866483720619123 0.0888722880610208 -0.0059439619422962196 0.12680023518571534 -0.10475329239760617 -0.07658995175339195 -0.07340783504689087 -0.08735055087989552 -0.07735725086503242 -0.09713053089866978 -0.07245120201200685 -0.09830545999955737 -0.09505220650136882 0.2833367587669348 0.15351953903208174 -0.045663259620752655 0.19384155322374205 -0.0924609788228279 -0.01125735251193464 -0.11965003489838189 0.1682482562572284 -0.013527063734802952 0.0552860867082724 -0.023275202783579425 -0.09751698336291698 -0.03100395261210266 0.07610748148933139
cello -0.08098523050554916 0.09175368939556655 0.35345254348609517 -0.004868413218477308 -0.08855189336555559 -0.09135357391164764 0.07995663965764273 0.2931656590765125 -0.10187488447845668 -0.10025892534050626 -0.07504169782812069 -0.07428509724158572 -0.06818960376151062 -0.08287938484532147 -0.09844230043783385 0.10621777497915887 -0.09308067521696065 -0.09465594678756405 -0.08992653552850946 -0.01428842542363116 -0.09220316235037292 -0.08775355469041644 0.19752361005499952 0.057016615634330005 -0.09062007955271056 -0.08959866744789564 -0.09235901751176516 0.12759439860697283 -0.08746943965821839 -0.0903943065441706
centipede 0.07396933478796365 -0.05714430454778265 0.01965288825374232 0.0482643181174721 0.0032036188971952388 -0.08301770527346373 -0.005169613195245253 -0.10490466970011082 -0.10150169073880025 -0.08513066001703716 -0.03514336391429703 0.0014928681099880855 -0.004012275499309357 -0.004007000326033398 -0.05011214266734322 -0.0356082542724461 0.03354428882821551 0.13958445862770918 -0.08733649498287387 -0.10589930725874215 -0.07010827721866446 0.02405826021078058 -0.06358769735778448 -0.08755808021993063 -0.04032844920088505 -0.07453320488337853 -0.07618232037255339 0.06673105777940438 0.08788713124024498 -0.03170678444199494
chainsaw -0.09145949779802973 0.06355510359136302 0.04491636035939991 -0.08611764341439689 -0.09070309597956389 -0.05921794474323608 -0.029902289334474388 0.1331181532753708 -0.10114275503455031 0.052986585395307824 -0.09001075654936205 0.039215820522229064 0.12256511528121626 -0.02657565443479393 0.11048258786315364 0.019486044643515468 -0.07607664223511632 -0.09484770808647114 -0.008171349209091341 -0.10585537591814226 -0.05536905979151672 0.14452982778765064 -0.10614621154260398 0.0062847960674523055 -0.019723988101984457 -0.047153239792843374 -0.0940380670311395 0.005187367485492952 -0.03531198664014591 -0.08276805006279929
chair -0.017723623165134816 0.1796160658952303 0.02403684687468106 -0.0542387867112656 -0.08321258767586856 0.15351140716579845 -0.09049060037438243 -0.08782049202231593 0.05142223643894978 0.14420201564225998 0.14180921371918784 0.22580953586935032 0.1035990100607961 0.014138534934710574 -0.07066219183699776 -0.09529268333067682 -0.022359268577012866 -0.061955791277099964 -0.005490797856422804 -0.10548199278440101 -0.01625571479327154 -0.027167728697860487 0.1772704515048097 0.0908651431668705 -0.020136919381541947 0.0725724844866159 -0.09487306191997666 0.004945602544883137 -0.042422602334100834 -0.001955772368653446
cheese 0.27093975064737985 0.07489676018303956 -0.08856796086394633 -0.0828765583543779 0.20355645658722107 -0.08596634369230269 -0.015543291750131973 -0.025229927229002747 0.0009846904096376568 -0.06776771050615646 -0.044265534704730096 -0.09402076958596256 -0.09709228790244896 0.007655943765013001 0.0007225737144910287 0.07559250728842694 0.18920819497021008 0.021856744898057036 -0.036705142717024616 0.323417477068644 0.023618094934430216 0.1306206260240671 0.1460266842992205 0.10075405634413863 0.05128734448894465 -0.09206001419115833 -0.0949394915039125 -0.09779691727692177 0.029903882781725594 -0.018134414058151915
cheetah 0.06981609677158186 -0.05061986093757034 0.11427019105163905 0.14137210310224876 -0.09070185004822913 0.058077357768703375 -0.07177044068855527 0.038538900427382554 -0.07557965379096344 0.15749719239145818 -0.001489819418178741 -0.09854242140769702 -0.006285989574928782 -0.0887021384693729 0.20286589612506775 0.21906355825550264 0.0012561682037143527 0.03302165872109332 -0.09000921070963949 -0.10570458568268012 -0.053376830196143914 -0.0878685932542759 -0.10521834435554352 -0.060242579912747306 -0.09040127787041566 -0.08486303792501233 -0.05817241214640258 -0.009265327474402951 -0.0934098931297643 -0.08395977242781565
chicken 0.23505732890779626 -0.06177209005264569 -0.08051091371039237 -0.0861438476577921 0.09142467335819461 0.0337199553127094 0.21370177949262648 -0.05103907134556815 -0.03502484554391182 -0.09972448096182049 0.03723374316209215 -0.010829480444259491 -0.03693275323341286 0.21794114570498657 -0.09628268901015995 0.0849977403213999 0.04878688338447832 0.017253084964768267 0.061379643334165464 0.39352468508194294 -0.0013105826909554006 -0.00924871084953242 -0.034252433996667025 0.01969146801870791 -0.07485465694319038 -0.045704770528139455 -0.05997421251133718 -0.06315159891641071 0.1588697886275901 0.03612281100366898
chime 0.18211328625499326 -0.06997602405826998 -0.04217741216088169 -0.00230053412862465 -0.09106898888377726 -0.04184769182078755 -0.0906271000630912 -0.09663288609106235 -0.08475561667545592 -0.10033133847967685 0.05491600066502105 -0.02100270805636375 -0.08902879300206293 -0.08904802064774736 0.06687659395265588 -0.07955500101155878 -0.03820733150030338 -0.0944914008610268 0.007589552782432067 -0.10610712608143019 0.1275644473859965 -0.010022582384507425 -0.03127818511488919 0.008507621048152444 0.2098510692026284 -0.038798483399111024 -0.06432843365222733 -0.09706436417462183 0.0004384623793623964 -0.09006509201538206
chisel -0.09241700242019177 -0.011256340440458916 0.12050103313415143 -0.0601740592371858 -0.0779082859783294 -0.09653004177596068 -0.05714420022434884 0.006843776334638526 -0.051914256624603326 -0.051483963969285736 -0.06952796540379465 0.013252439706561179 0.05438129133084269 -0.08812646500714988 -0.07931346527949312 -0.02350138296853589 -0.09252946721071742 -0.09262570249280026 -0.04318886920773745 -0.10250738715825544 -0.08851300271931405 0.3678948043580228 -0.00911808796059794 -0.05213821397755872 -0.047718833871640734 0.05223487808796751 -0.007237466119202778 -0.028227041673837633 0.027676307818248376 -0.09044734531738804
chopsticks -0.09258436625222861 0.10773536958481475 -0.06336610861944003 -0.08404728745467437 0.29141644557357327 0.05723573428255302 -0.09074204409295412 -0.10445543786725132 -0.09749254157689018 0.08000732573387132 -0.015608871914715213 -0.03667626963522426 -0.07592848607023349 -0.08890697047103807 -0.01243266637162777 -0.09522040628589551 -0.07797493027743786 -0.07771044482906513 -0.07514989320410778 -0.002838036800897566 -0.06200819169414186 -0.020311788047089642 0.23130769142402674 -0.08760625629675974 -0.09065487985980296 0.014101674087682993 -0.09546126366395111 -0.03105648703847802 0.03167581836039482 0.03450471977051608
clock 0.21810872252328706 -0.08965797226610682 -0.026105745259251197 -0.06585363827018766 -0.08799917020765295 0.02116937384260007 -0.06408621239958906 -0.07704945946003697 -0.042554261125319286 -0.09779846312109866 0.19262005496790707 0.13955535828369914 -0.00928209338625037 -0.05878045418390313 -0.09825997747314133 -0.042669170454163165 0.0015108975085645962 -0.06800886588027633 0.10208467500401011 -0.10555546608043992 0.14228471914370208 -0.03368985575232475 -0.08230261697755278 0.09513807407087577 0.4412345342735257 0.015693252235950122 0.17647277593966954 -0.030263022868041143 0.05287987504445374 -0.013466291265452594
closet 0.13197655855498175 -0.006705798504376742 -0.0910223143741079 0.06837839149534398 -0.051150888984120714 0.20303247365349086 -0.024962545162848515 -0.0340524400549964 -0.0636038348457908 0.17615964932798822 -0.08952559415912152 0.02635821819697841 0.0117327486938977 -0.06874417541593593 0.007627729696478519 -0.09437366182239115 -0.03889214711916963 -0.061097853812316735 -0.09010796488769182 -0.05775202837414889 0.10384453602801948 0.1562193433992233 0.13319520270526944 -0.08280177840443084 -0.00527247020284702 -0.07750715949996675 -0.06385068681242918 -0.0978028318637527 -0.07817364614494986 -0.006906356351590456
clothing -0.09010766399549104 0.24562551635881966 0.010734348974524171 -0.06951638004220838 0.03713028322902125 0.17106844543910313 0.07295813691394469 0.15133117335293358 -0.04603725069321444 0.40478540295692256 -0.07806402567660634 -0.08660276155315176 0.12713264529278412 0.01367219347974403 -0.09824570176356233 0.10958031199610414 -0.049709982455507805 -0.006957251680006368 0.02670545359327738 0.14125715689431712 0.115218198654788 0.007733061934929914 -0.07745452076008888 0.06594668343062222 -0.08969771978617742 0.03347421588361748 -0.09559313294772527 -0.07808814097957463 -0.10020896364128754 -0.03353885864267836
coat 0.14988451119738536 0.024551642641087407 0.09455570893139537 -0.00940158307343628 -0.00579612922640854 0.10239426298552107 0.1407666037015967 0.10533040341561571 -0.013277871671996821 0.41100669498618897 -0.0018544244230499227 -0.09843979412387133 -0.09706713895715509 -0.004195555442001559 -0.022254303430793123 -0.09537735008452303 0.08982656761946804 -0.027561307903397843 0.26299933231824824 -0.09101523009624032 -0.07636225668433066 0.15691619676003077 -0.11922567703802944 -0.07683448158228103 -0.07378339078135142 -0.06204457354013862 -0.0669643297406247 -0.0977881573765802 0.01603987681208775 0.11894359418430482
cocktail -0.09253491064031054 0.1323224324558882 -0.08740377055529681 -0.07326730536970481 0.1461806048718656 0.039498705888586484 0.029435572402171237 0.12428814399149699 0.15633965566830332 0.04506363081903734 -0.0688129009930255 -0.028874969714508026 0.024909902145200738 0.2569421273145156 -0.0663233037907751 -0.0521764863771001 -0.09296909399903447 -0.037713139723133636 0.011717129204689527 0.06198219829100188 -0.06539843763961582 0.037967345103083146 -0.11987516371432512 0.06769749869922816 -0.02344816660203315 -0.04267852644824731 -0.07751006995195091 -0.03312829762825134 -0.050987939906292246 0.0004699077640379407
coconut -0.09246440109430364 -0.07645168956107576 -0.09176812421450577 -0.00564325311549474 0.27383419649537094 -0.09698599135553998 -0.09063325732739788 -0.024260271254535944 -0.018466330451476654 -0.09950084920046394 -0.08965958773495157 0.03512634413757194 -0.00508902730689944 0.10480099706364214 0.01040469150800907 0.08305482205865311 0.37048470112595183 0.026115851599111783 0.08934393561179343 0.18116656227502673 -0.08894676447859291 0.010228397351086937 -0.056195584661659984 -0.0021074968773470673 0.048324298554243854 -0.09696413073648089 -0.09551579119272034 0.17511619817858753 -0.06423383036671035 0.04096715064424415
coffee -0.00023637374247404563 0.263268538503133 -0.07519416261269463 -0.08017030653744918 0.27948011451246263 0.06341423472708248 -0.07917380433246152 -0.02393886688388512 -0.03041168564506889 -0.02994288807664185 -0.06639684813210506 0.1945421940567972 0.012652133321644696 -0.03346459035257076 -0.0860931004622117 -0.07896163403958067 0.05994884203369547 -0.007783347981683317 -0.03677648846009018 0.21496193007061742 -0.01063244476084454 0.11340715592505672 -0.09348627611926381 0.14134208316582242 0.11155858201526062 -0.07754629259621149 -0.09106387710674893 0.24428880325376587 -0.08167461093325756 -0.003050296958901528
coffeemaker -0.006477174927715879 0.130331446704863 -0.09220227503384419 0.002159532740079698 0.15461306814552842 -0.031623270413638584 -0.09040375542551508 -0.0038601721123564118 -0.10144755050919514 -0.10020263733208741 -0.09000765335842426 -0.02536458635314542 -0.036922176382483934 -0.08907095076698882 -0.08817724932007734 -0.09527187792741053 -0.061811765684720944 -0.09488050180432257 -0.08930864665305166 0.1019391702830714 -0.034185676802268763 -0.05721290995940954 0.10589428851439607 -0.07823490735905887 -0.07655095697668583 -0.09709159972195944 -0.09570241808744587 -0.024306152111997922 0.0027074097763074593 0.019344235637092196
coin -0.005464042836723545 0.014785135434751278 -0.03208048897333612 -0.08183163857932528 0.10892895259608429 0.10262935791516624 0.08275068137209401 -0.09508514719508668 0.023045305059966777 0.14793909172295996 0.016556224990654463 0.09091169459003504 -0.0969213180663861 -0.08192981716576712 0.029651746939962798 -0.06511379074200657 -0.07682913258663297 0.05361608141175237 -0.0018264491042885665 -0.10390511028666057 0.09069581568978978 -0.0036610865578051194 -0.07702410887607584 -0.05840311151655458 -0.07350827682941193 0.07891195007685299 0.18254691033028153 -0.09573756260914193 0.1327868234476311 0.006049676636093482
container -0.09244741249707115 0.09560463149573817 -0.0654566436580165 0.0830983293351039 0.16059417299647824 -0.0696197788419038 -0.09065561567737573 -0.016930972697965275 -0.04561787897127994 -0.057742729940004324 -0.08982471938747906 -0.05615142024188716 0.10985970440765089 -0.028616448221389333 -0.01862546685218032 -0.02264173626126829 -0.09212552836752402 0.12039616440624379 -0.08994684677234717 0.06965329525675484 0.008641641328810738 -0.0228659264134782 0.006979595322974146 0.06147986307146681 0.15579708329843625 0.18548984307461291 0.10713878832135151 -0.0056386112747451155 -0.04424528509256244 0.00921753114276766
cookie 0.05539509897267817 -0.09002587210195749 -0.06620199442645743 0.07459582677233793 -0.03206970311770156 0.03866669089132263 0.019121114194948136 -0.05498480857653963 -0.024333076753984998 -0.06032058065450939 -0.01041105508480813 -0.04772359007972043 0.08652610272101324 -0.08829372496266172 -0.0981948626258982 0.0995372956869118 0.18930743538366157 -0.06577509465191986 -0.01236720350328857 0.11045783447440755 -0.02459301980036859 0.11168068327468973 0.020511219369497447 -0.08678215675265767 0.09301471603713334 -0.09538103738125565 -0.06834804814168995 -0.00030537402197375156 -0.09987124894423137 -0.02737519250288505
cosmetics -0.09237359406553061 0.026876805124185103 0.006000602957553113 0.02696104606380759 0.04868566400182044 0.04381248330529517 -0.09001218136167276 0.1950764945262599 0.0012278494576706217 0.22195918361535133 -0.08923611599630375 -0.07444551142268299 0.13618663003871248 -0.07703459416948735 -0.03793913474031981 -0.007861334229497145 -0.03445188158464319 0.019087012410050126 -0.09021635095171325 0.2116445220640287 0.18479751578778578 -0.08548099269692791 -0.10214626273315386 -0.05665245485897283 -0.08997571775871753 -0.08798057517124917 -0.09505825881273033 0.006468368552497433 -0.10021098841014323 -0.07133561944283417
couch -0.09232202467801538 -0.0813412531699233 -0.04667844658754476 -0.06344702693918088 0.014700138284122399 0.03401422050232634 -0.08447422319038873 -0.07411282852182541 0.06686031490855329 0.10490932331539833 0.10637858296008845 0.13278599003431615 -0.025965168220367076 0.05482067652937992 0.024837384782959663 -0.09513304487292432 0.021798975527922298 -0.09444201994042264 0.011287969512972736 0.06773902715374608 0.08301662121385446 -0.08030352007873384 0.07096907595785462 -0.017736150666490008 0.03051374142864197 -0.04482789365487556 -0.08190304644440977 -0.012159628052040045 0.015200523967967915 -0.04415370525984702
countertop -0.042644332673542014 -0.046191733320368814 -0.08972312756186106 -0.05371481936682599 0.07804194332364317 -0.08372809796347433 -0.09062729001153197 -0.10483446743443027 -0.061746353663416624 -0.10022262768534462 -0.08934356948685165 0.09208598382955376 -0.025059349009162703 -0.08715626198117365 -0.025053136867764707 -0.09513779932315829 -0.09305056814758672 -0.09476753838234094 -0.0030600254750600317 -0.05728330357984516 0.05320367570954082 -0.08777975872185202 0.24531958965179945 -0.030928121726631914 -0.08899793244751417 0.04090507558336204 -0.0778977340779574 -0.09725025877327058 0.023493159101883685 0.057571395799338086
crab -0.09263029061665293 -0.09136366454890116 -0.06338846442590228 -0.003920996179191768 -0.02572333377393786 -0.09688098908032575 -0.017621213038310955 0.06576979202505007 -0.06797029407938955 -0.10011904398258661 0.05948466599760417 0.03968486671255549 0.08808312870985273 0.25154698167461803 -0.04942889228884727 0.1379629700678553 0.17356116734610694 -0.05590053577234099 0.026309593868691993 0.21033950394878229 0.03447329986286258 -0.08785106621435604 0.09745401156080469 -0.08648450712205005 -0.09056420930042472 -0.09699954291396908 -0.07454455093746504 0.13008268835447634 0.017336630458178955 0.059145501691098314
cream 0.19074872155192832 0.007986649540506346 -0.09218963816354207 0.07886758896353337 0.28060264647040334 -0.06122615648628326 -0.09044814945769027 0.10863794414691003 -0.04895596067267961 -0.019506633298737586 -0.0215294875298079 -0.07194341834210058 0.023251557103697973 0.008166245517526292 -0.05016148739176381 0.01770824880489983 0.29731416327092036 -0.09474221378772925 0.1493023755025081 0.2023911883045386 -0.08828232150663973 0.30853544665362503 0.02086053093245719 0.07874575828794651 0.13017277111274486 -0.09641911901244053 -0.09554807085139452 0.005800849883216605 -0.10040174728672525 -0.048765375049857417
crocodile 0.012376182898350638 -0.08033548710011361 -0.04188321375485389 -0.06847878637470896 -0.08752400157961808 -0.02830678485537477 -0.012252947793039376 0.053020888339061885 -0.10175352835989387 -0.02868426785994554 -0.018571500451983927 0.04420694214376976 0.04169652493426804 -0.0345739701174266 0.13905876808031473 0.24532233123385408 0.09016085287487288 0.2904438949318409 -0.08987578300081249 -0.06618453756152924 -0.0917876261847475 -0.08314514666568272 -0.082121821279847 -0.07903151922788043 -0.09038476660627778 -0.053648607497936936 0.0965739584384691 -0.044839609733727255 0.07262501083210943 -0.08163836130413878
croissant -0.07209955188266516 0.023576109710776904 -0.052054471251078725 0.03501924575602088 -0.09085353035110598 -0.0968173568744142 -0.062335188432267076 -0.0689643626773004 -0.03960431312203719 -0.08057371207386613 -0.004145076486463185 -0.03367923502762913 -0.07517283602015597 -0.08865804962646075 -0.013755098307740587 -0.004866015125347867 0.1064676689678147 -0.0502547596703762 -0.08974576422246612 0.003167828065723294 -0.03371769914936846 0.01457570847748899 0.15819777637203067 -0.08741730978917606 0.03812217034394232 -0.023668627889253228 -0.09550336230373242 -0.060674583073547714 -0.09733334499009019 -0.09044845730653903
crown 0.0671800149413272 -0.08567088751507673 0.14804829528943889 -0.07367962724901146 0.0494904396426667 0.14177804812796002 -0.019672103668788393 0.029006018911730668 0.0636514135384083 0.13947706001520854 0.10444882106440086 0.11297450475085691 -0.07154896855797209 -0.08070140347948371 0.15849284260568655 -0.07114443023320859 -0.08977237912573191 0.0073745566356103074 0.23527025184154643 -0.10545670736971235 0.016446422344110524 0.03307854428804273 -0.06373637014911733 0.019956590519616964 0.08181504135595337 0.02603508336676908 0.005259387953449121 -0.04491927420761419 0.07567174495194241 -0.0035147267336291432
crutch -0.04102025596121307 -0.09041176294106112 -0.023020372659130497 -0.048402769207707044 0.048650268699579995 -0.08879106307451834 -0.09047062732029222 -0.07020436279455158 0.24317548492350766 -0.053102418338204546 -0.05756728128950924 -0.020596939316740764 0.03858171329326268 -0.08914073157335702 0.057024428445308147 -0.07456695978306684 -0.024575377633030825 -0.09432505970161231 0.04273508439952302 -0.030263777867809018 -0.06842545181777016 0.09005440404423522 -0.07191570275009478 -0.05265319475528563 -0.055728963988588454 0.03188708719197633 -0.09500946753121735 -0.09769915350471375 -0.06794585216654968 -0.09021019214556969
cucumber 0.13333864324714223 -0.09105527075784316 0.06029589466517977 -0.08621929390670859 -0.008946344517602985 -0.08046120026363528 -0.09000026218668959 -0.009946219025679985 0.1353960549818628 -0.10002394340165031 -0.08967154913881555 -0.07945193900805808 -0.09378229026552005 0.173169227199509 0.07647850465562529 0.045857765366987956 -0.041215940538690106 -0.09437275831491014 0.2965614918205868 0.040173249248371526 0.1296584969109511 -0.06913102579658419 0.09263388931923884 -0.011754002321959977 0.14716151443432293 -0.09661468516611901 -0.06092823695197256 -0.06977473614943852 -0.002700691879881909 0.03868569802023395
cupboard 0.0800800331936259 -0.04879903977165582 0.0006863405920441401 0.041472109880605665 -0.05268961626953778 0.14985455487154437 -0.043378695874707725 -0.1040106315110462 -0.049524276494277805 0.04346738616747954 -0.018362025376719878 0.08857116353348812 -0.010438300969011348 -0.0319515413571753 -0.024867169615875446 -0.09417665010401233 -0.05737429671298945 -0.07114127708400536 -0.07043450954366753 -0.0853680421474615 0.10797373195231341 0.054297134750686704 0.1417374748953641 -0.08672662887224596 0.003381906589555858 -0.0880329533315074 -0.09444308302058106 -0.02791152260697915 -0.06029153249057921 -0.07628626290490526
curtain 0.07829916530991016 -0.010506677956544594 -0.0847884740736662 -0.028787105929508477 -0.044313743739716464 0.1337492081711193 -0.09052607556910011 -0.07657424622265155 -0.08094686928169334 -0.056409378887068276 0.017273689436658073 0.15886837085787028 0.06261155059250831 0.05982001253238396 0.18061413849469157 -0.09502965112675937 -0.09265607334113726 -0.0948687866894004 0.010275012728901875 -0.10623750721292229 0.25319008854189157 -0.08688265866582583 -0.030266680873881967 -0.06904883928273572 0.061052106974014676 -0.07538455790367068 -0.005399665225751212 -0.0690396679667369 -0.05401403372310884 -0.005260074095874823
dagger -0.009573011681458844 -0.09099686472648219 0.025253001076637475 -0.06549348689591677 -0.04179325178032794 0.02237174558134918 -0.06585481088578879 0.09875909859570368 0.11135199277813185 -0.030587800501001187 -0.08948466599304544 -0.07393315607480387 -0.07971623211220091 0.025585592725936166 0.16906371640338552 -0.09509062001096248 -0.09274695051224438 -0.09483272594804293 -0.009230436757355766 -0.10576310812879364 0.06070445782710755 0.2802217760294482 -0.11996773783425786 -0.08740775378475572 -0.0904703865915095 0.10664094707406839 0.04922270745760257 -0.07748819478057335 0.11477044764827021 -0.08612015266568934
deer 0.16638715346956218 -0.03197927145250699 0.29363992556225227 -0.08653936515724464 -0.0009377149444236023 -0.07592002368243542 0.26630353955522595 -0.08886369968527684 0.03159817079688761 -0.0621582688506543 -0.017350245653407485 -0.0980488340907826 0.0004308450336525123 0.01724741118423174 -0.03295097664054689 0.24582347528670753 0.3917665940831452 0.05054393613625431 -0.03323747580886115 -0.06149195110533567 -0.08051019584031219 -0.08739179353164306 -0.11889926389819365 -0.00957827646749583 -0.07910869122195177 -0.017603434151636406 0.14614776726567924 -0.0631844355723925 0.05155660831347676 -0.011201576278468831
desk -0.04781542354587297 0.06835151765878668 -0.0915820438087814 -0.07166998070229151 -0.09048106490475019 0.11219086454671022 -0.08532557360194694 -0.10484865158559989 0.2341182277817118 0.13022547932493317 0.06705610515247352 0.2655074042314814 -0.0030993605317596114 -0.08892632403233797 -0.0977997756735273 -0.08080745313770252 2.4728907795141004e-05 -0.0947602730256796 -0.0899204972550801 -0.025584460475981292 0.08368662757183049 0.05431261184746826 0.03020814642390571 0.1580306509501453 0.11406563795131047 0.06415120746413285 -0.0949174833764675 -0.09469848039805034 -0.10003782352011606 0.006588269586553206
dessert -0.031939891697577216 0.1980202373007888 -0.09208000631492716 -0.07174311916732785 0.23151166629672695 -0.09674216021611842 -0.04875665308835222 -0.10087497836841852 0.02414639948579581 -0.09664902363769887 -0.0519349954725493 -0.09753958802768073 -0.09691186985159168 -0.006026060228340354 -0.09740272806193755 0.052472245777274405 0.1389831793653648 -0.020882974033951677 -0.027818083552134 0.2067104503235048 -0.013078360321043201 0.04698269554269811 0.15121874104456487 -0.0874185008881841 0.21061614199973513 -0.08077293335721991 -0.09527912443565165 0.04065525513937988 -0.05829642702689937 -0.08979548210076804
diaper 0.03853655025811471 0.05037397651650656 0.03749904103235205 -0.022991358930197072 -0.08169281492958907 0.0486923601632377 0.0008510943240603984 0.08878613827151179 -0.037964788530746946 -0.10010233668839694 -0.0005469436629542389 -0.083619906979818 -0.09685451178126782 -0.08898580787843517 -0.032630536457964175 -0.031747177762623556 0.19500477676438563 0.0019523135544220432 -0.0900587190995063 -0.10494624883228863 -0.09109377795501432 0.07278627157751956 0.06348450555654991 -0.0454010938537783 -0.09057646104822509 0.07367564920370806 -0.07633898423772342 -0.09788190197021819 -0.04040983678506965 0.0425497463997729
dice -0.05972006996791437 -0.007689420596920968 -0.09071100084725103 -0.08637748779434058 -0.017302090143249366 0.10200935576955349 -0.020324871512819486 -0.0696286465164826 0.011747141280713034 0.00011335004288301537 0.003146130380455796 0.14259364427950683 -0.06915975017796011 -0.027614335422603928 0.04674538223622277 -0.08484013738425716 0.004937179461337254 0.09619905091211747 -0.07654439819831156 -0.0927446756598173 0.028319642913490563 0.019934657412076527 0.04566285400720332 -0.0226872522222428 -0.02875553356196415 0.00030420961666745956 0.12895384806238752 -0.0975085938701872 0.0379040308390851 -0.016147836024009484
dinosaur 0.0938217417156641 -0.09104891216449384 -0.0844220408680425 -0.021301700733339604 -0.07415995164539262 0.07605506586995632 0.02578471393504185 -0.09226365116454026 -0.09138372928587413 -0.0656049511029199 0.04626760935179421 0.02081624048842346 -0.038421964661462187 -0.033909999326318455 -0.09870708773273484 -0.06998928701389942 0.0714470393582996 0.23181297922591046 0.060088566293150555 -0.06278505252389617 -0.055948954217880834 -0.002057061618113342 -0.08967126567703286 0.06355132304739718 -0.08557212802349115 0.14437664680388512 -0.06212514704532289 0.05724226178052887 0.18152413442915682 -0.09038193426470942
dishwasher 0.0034405386723658222 -0.08420689002240582 0.0008033203963590926 -0.0014176383843901522 -0.023441764278646676 0.05453700944569169 -0.014967709039241252 -0.07348799708792347 -0.09578928300645514 -0.08813894348542686 -0.08996783927663862 -0.07706077346902546 0.049329363251396474 -0.056250842090623636 0.012688807127635947 -0.09513683187417274 -0.08153267259493793 -0.04140613028705726 -0.09038931706860105 0.06615807594409973 0.08784168544101614 -0.0878019569118699 0.11970309784761556 -0.07835581591670329 -0.05464339048627134 0.0007802430400069198 -0.09542695884511115 -0.09806322339303335 -0.10047347935067971 0.2190637812472678
dog 0.16517658404524702 0.040503879615476635 0.16010203190024522 0.06403989580270747 -0.0018500372076197932 0.1943721447737065 0.19461446205793007 -0.011804981618170647 -0.05346010471021169 0.09703263307049968 0.09591708398549194 -0.08306509292165404 -0.04471006114973309 -0.08514063543361895 -0.0763623694332728 0.001964142886043352 0.2586482015362766 0.1433417200482246 -0.08368199028830187 0.0526113421105351 -0.05525430054154044 0.046413256922007616 0.02375296156959856 -0.010110007404172146 -0.057439752930445 0.13997756170000777 8.086323285280957e-05 -0.06142006740916691 0.009361451115206525 0.15824276451931235
doll -0.044362645204111824 0.05561366665679999 -0.02653356927918533 0.00037070091335984534 -0.09030024925022968 0.06269577687519053 0.24050647492034496 0.06253611394333676 -0.026085711875394806 0.0792437221757255 0.0007726082308772204 -0.0465775419504563 -0.010432298793938026 -0.02319524445980695 -0.05581267296444836 -0.05521688857788842 0.08256196566486988 0.047302761596660824 -0.07644614701677407 -0.09748615813819198 0.17877629069566434 0.028233378200552037 -0.04629073525043501 -0.001240119969637332 0.020541791206235692 0.07147539707613484 -0.09580230170832763 -0.0017702553537070882 -0.10021354001282021 -0.07628168196808817
dolphin -0.03283118547814518 -0.09100698710334776 0.08781302072587098 0.04482166583741324 -0.0854140768650811 -0.09696755990016866 -0.02678880501730305 0.06224670725982925 -0.0406135884607571 -0.006213343185932397 -0.08947477921746477 0.12402837416106242 -0.04401377962340758 -0.08803041885798404 -0.0018723944687036706 -0.06526093377175085 -0.03533857564550963 0.23408024868517854 -0.0014038926399472928 0.06250377812213 -0.05339706979762551 -0.08741084081127258 -0.04004384841063344 -0.028132560685527847 -0.09065487985980296 -0.09662423150191915 0.26327962111719017 -0.053981803078977236 0.0707191741572287 0.17873998369598842
door 0.1370506420901228 0.029844484170381994 0.00022442354985765102 0.17714065882236074 -0.08001056553715104 0.2703564421978808 -0.013722111622425861 -0.09528292366382307 -0.08363351881084459 0.07771714950353063 0.01630180455990396 -0.019126656862236302 0.19932957859364134 -0.04830718460172194 0.10953744981384726 -0.06300481508488079 -0.047016888310005236 -0.060061942256468596 -0.07829055113760115 -0.0726701652975452 0.20802374615899497 0.17287805891920377 0.15462884467287008 -0.053324388608955935 0.15299425954201398 0.13740547524403973 -0.0638032287244016 -0.07258997539247804 -0.10004517799765097 0.022649572509945134
doughnut -0.09213395817791614 0.012901554390949095 0.015747267089968122 -0.08575392459644869 0.019342632874491963 -0.038284303159525 -0.09041609985674134 0.02338511969671789 -0.10007842119187471 -0.0364397959782598 -0.04231071226722037 -0.01941656442266231 -0.050747936225420225 -0.019881196502546487 -0.08563664715241115 -0.09479961942362039 0.20554005490907673 -0.047853008932466 -0.062291924612610475 0.09850641032215285 -0.013160437352087561 0.05816637555428074 0.1906527140542372 -0.002745447112539294 0.036043723134998915 -0.03273056405626272 -0.07934071665341662 0.05244740043155255 -0.05526869701214902 -0.010836086391041638
dragonfly 0.013888831192211298 -0.04277530612096758 0.025303973651043178 -0.030804771724392284 0.00891192948243437 -0.0708440138581453 -0.04193055635397515 -0.1038556871276413 -0.09816797071012912 -0.03198232114760867 0.021251645575411867 -0.09228787266736906 0.020902561227228462 0.12794902385197668 -0.014467178326870356 -0.04297761463454788 -0.0393983917686431 -0.08059923784758591 -0.0044546504710255355 -0.09901062817082275 -0.09216480430898488 0.059264331151420525 -0.0029902428684258006 -0.08768979816452648 -0.09032725111516457 -0.012334242360843515 0.1372500728142192 0.031255005831745966 0.05853547668196971 0.055799527004258
drawer -0.09223305931758388 -0.015407791995831394 -0.09235983653175742 -0.06274575125258051 -0.09115012063192236 0.06091420776378887 -0.0030297584760941264 -0.10496610999476724 0.1273900717084028 0.0038290804189063934 -0.08765695476945755 0.08974820759605857 -0.09709048021286713 -0.07996211749573091 -0.03407091656043437 -0.07086959280706785 -0.058270981181392734 -0.09409777923451589 -0.09038956910882677 0.07328149739127088 0.1323656197841459 0.12665885655772938 0.07884893842323709 0.053726739162361335 0.0395109935156019 -0.043433631794675964 -0.09136080946595687 -0.09783225596963549 -0.07754217391790352 0.1863681722057235
dress -0.08857080534620274 0.1662394298631872 -0.08866786520018825 -0.015077236483589412 -0.05601507169861701 0.1927125725837534 0.11638780545323425 0.21368791210479512 -0.0011684291999049963 0.2660627653525812 0.06339860171822541 -0.09831696912504852 0.03478663566540075 0.23500084659001838 -0.09182063532967889 -0.08353743895523953 -0.07180441255879695 -0.0526446563212153 0.21906284312102894 -0.06975197080390864 0.07505997431686641 0.1606260585281591 -0.1032875713145767 -0.041514531056752915 -0.059121363704811955 -0.06521056436727855 -0.09014731043341527 -0.05727523577706723 -0.0010174949952730537 -0.039970965592965764
drill -0.09204301419061071 0.12550362765464956 0.12009051441175136 -0.08256176373293747 -0.09088358175967634 -0.08902515885906045 -0.035053140605323746 0.045066896089741876 -0.10154697933845624 -0.06760950227048773 -0.0456041115735158 0.05132066327461936 0.08648459672036714 0.04078952793203965 -0.09200684467207876 -0.009505120448568934 -0.09285170063701773 -0.0600153753119585 0.08891773944184442 0.00455403832945805 -0.09215464583376327 0.2876790653345921 -0.030546395589016565 0.040582710371268226 -0.008250008176389658 0.1147228799842698 0.13866060900029561 -0.060306576279605076 0.08719480246760127 -0.05987371482494947
drink -0.08604328493580475 0.2336636071830711 -0.053766076204915 0.039548325116145464 0.3235553466161056 0.1831332013421164 -0.07959704324160424 0.06638475200968329 0.011547424957411033 -0.040807772451524164 -0.07539586581020269 0.05864096274255437 -0.07347369664062879 -0.052713332070150096 -0.042238461857929864 0.10350594386293019 -0.04205304778462534 0.24680342399345329 0.007288024877496929 0.17436465372183874 -0.09090569293290404 0.06611432388878423 -0.11989017078246714 0.11334797201564659 0.08980816878850527 -0.050318377042234706 -0.07627141594141819 -0.0057531868698512826 -0.10042872420450742 -0.013330395009515742
drum -0.0925461550662574 -0.053280585912215045 0.13538388953960112 0.09169907055748441 -0.09112891977719835 -0.08780641314079761 -0.006874322743503551 0.12019689784172784 -0.0016274828957074114 0.0875209970841407 0.02501940871531843 0.06943900091868895 -0.08692137788958633 -0.08662843501485426 0.021436163372009133 -0.07740766861741193 -0.07138713825895865 -0.0391041041436198 -0.02721986537850154 -0.09367535088810208 0.0371658639136264 0.013688455104063569 0.18937300691927217 0.3135926870748662 0.09893154168354273 -0.022321377501828887 0.08138870594142554 0.15132684858380957 0.00831715613193504 0.028199873123295773
duck 0.19206776422089264 -0.015293258140468434 -0.02247601962410806 -0.0863852675281186 -0.09033259872514622 0.052504167080177425 0.37172707821482337 -0.09940926145920084 -0.10190801822032167 -0.08766665516054675 0.14544344307262314 -0.008738227482099847 0.01110279579350414 0.12453127350271576 -0.09800768903021187 0.036552749457457595 0.029970732365507482 -0.00886211164489603 0.028543379705958574 0.13143055280571003 -0.04253371727131893 -0.05220438286495108 -0.009706401293167124 -0.06264837523177437 -0.06642628625134911 -0.00512829309340135 0.0007157330749962805 0.10440920675128582 0.11228147336897809 -0.027922166793780952
dumbbell -0.09240385824896381 0.17227786842540765 -0.07105942365050265 -0.08595400242505788 -0.0904549874132158 -0.02688411492594776 -0.09061552802907392 0.059833265219846464 -0.10201131412265889 -0.010624140461753933 0.03890446821143043 -0.09848462270590431 -0.09260776310946504 0.08014107329682468 -0.047434262658239995 -0.03832314908582624 -0.09287226683568534 -0.08964165964115205 -0.015669802248987057 -0.10603166868017606 -0.09226203446466331 -0.08775874623402383 0.08412953351187442 -0.036063032589550105 -0.048550869738776196 0.08221596797382055 -0.09333973503992889 -0.09637255036605996 -0.05854644391474142 -0.0030363642326186723
eagle 0.02449743771777035 -0.08340051835812864 0.010164275909736916 -0.004846750291752317 -0.020367932717523008 0.10516124065047625 0.19265910535170727 -0.04079773282049696 -0.10198955651519608 0.2181923888374872 -0.026325358980569858 -0.039373729757866384 -0.09683851391597138 -0.02071105355508648 0.13341674020729 0.09079854617758812 -0.09243921734229787 0.14900129530929399 -0.008175990668536078 -0.10410041967569998 0.06314082333406021 -0.08301230888942944 -0.12019365986836791 -0.07696187336553924 -0.0826770928263736 0.11184984997977154 0.19444520813738098 -0.09128050648028985 0.24141071517796445 0.19219941468265905
earrings -0.09199874071455322 -0.09071588966675775 -0.07189318545601976 -0.0020442354094297828 -0.09099082439930269 0.1303875727326273 -0.09038186345194923 0.16972958467392937 0.09887013996918893 0.04337510794319513 -0.06678741734423882 -0.022044440219402255 -0.0936973984105431 -0.05528892883852193 -0.031456063563575345 -0.09460267135834997 -0.08635800813043047 0.09402028640434779 0.20418108864479995 0.023090391153807874 -0.013442355925663545 -0.08768928119248152 -0.11637086356183417 0.08121277746231118 -0.08672041653347198 -0.09668422308916606 -0.08585624674146684 -0.0950584431608566 0.0630716184066451 -0.08985889259690297
egg 0.2349097371758125 -0.07345309284359106 -0.0919822725105504 -0.037160674425504706 0.08357967192633953 0.03387780667357371 -0.06147654556582363 -0.012314699014279024 -0.07781704385505604 -0.09976731526457586 0.075676297095189 -0.018374281295013454 -0.09667501125475012 0.14660254848346022 -0.0971118792703022 0.03262913846436072 0.03820803729582663 0.13234017558010472 0.01800465385847848 0.19865564824638865 -0.028430905708864723 0.14850861037331994 0.006515808340291935 -0.009949826965636836 0.03802632754558794 -0.0565354199656425 -0.056461299721536164 0.1338803037587253 0.2608849099445079 -0.03561246404140963
elephant 0.18522952539521634 -0.060794983534016245 0.234837542991223 -0.0860590725762686 -0.09093024845565087 0.13960589519551447 -0.038951394704421716 0.07867032785016455 -0.06451904549921698 -0.08726830670377259 -0.0062863336609861025 0.004747724937405176 -0.07256302309728932 -0.025575223747659814 0.24493815482343614 0.12002339539599725 0.217814077188638 0.23952247675541485 -0.0038775734773279663 -0.10597276777198468 0.0627222905809642 0.020256212045802902 -0.12021451244895724 -0.07838603027331803 0.03569628986048354 -0.05170525514186079 0.07692831350272417 -0.059162272871607045 -0.08693104079756458 -0.083168825685641
envelope 0.09254550732733398 -0.07057686766175023 0.049477437406667796 -0.0863489742996524 0.03556789785715385 -0.04101862364939418 -0.0906035967234779 0.015807553147545585 0.052927471754416686 0.06648685454673321 -0.06564640511499274 0.03887625101533409 0.023570799355650617 -0.05007305539570303 -0.09778644869526774 -0.09540109088414418 -0.0929378189882615 -0.09491106798131971 -0.07942959012048707 -0.08815203084476114 0.22730593810678126 -0.08597280726499086 -0.11843437250799349 -0.08744300197070595 0.1522853016556762 0.17922709513239227 0.06245931499913119 0.09229917157484044 -0.10012161644591637 0.05556598479306017
eraser -0.07085040658767708 -0.025174954516135887 0.19156608477458933 -0.08636739805925857 -0.09070898473992871 -0.01843424617936717 -0.03635360074061183 -0.10407133407612215 0.14152630428324373 -0.08530338116141933 -0.07704569385710386 -0.07144560512075515 -0.0970646438661773 -0.0822692864972784 -0.054507767546508615 0.09310490073239626 -0.07360107893531695 -0.03245177830816658 -0.08932867840365576 -0.1039725259720297 -0.09219810456959886 0.11268024994913944 -0.05689487562347079 -0.08709401328748635 -0.0410657608947841 0.07698060207092348 0.029291562678314405 0.13271037214839754 0.020486970968603024 -0.09028165045550522
falcon -0.011726173030744705 -0.0907924758345831 -0.06995414272842986 0.0807611708498082 0.04014180570148391 0.02177875739754069 0.008141808662009524 -0.024110066614627362 -0.07480450710683344 0.06179163431274321 0.07863773187580195 0.007236215035676075 0.12072389172882163 0.07953886897771585 0.05056323306797903 -0.029249730315460208 -0.08959809900194092 0.043352862913291504 -0.09005285864390485 -0.10637301889256107 -0.05897805955716989 -0.08789147168797595 -0.11077897242485742 -0.0705519782196 -0.09018977086858215 0.20080402129047756 0.10411267363466332 -0.09307888627326856 0.17770990660711103 0.1471574567345225
fax -0.09266222916705849 -0.09102249478753488 -0.09023488590097561 -0.07593971016799271 -0.09053350437025626 -0.034227442210210665 0.18066089929526497 -0.10455288464567518 0.15680011181947753 -0.09981732371613179 0.024958861043820797 0.11265973699937616 0.123921673631376 -0.07096212519462937 -0.09829700675589167 -0.0781442936925352 -0.09275505398990566 -0.09489621574153766 -0.09034296252786522 0.18246870869594042 0.06616263047924932 -0.016531244197812763 -0.10467140971740366 0.06998957826185914 0.01481817048318784 0.026634883476669126 -0.03676654797790693 -0.06512427761606486 -0.10048832741648744 -0.09052008924402355
fedora -0.04902530843839953 -0.048770418829738045 -0.0721212931526519 -0.07765503204596166 -0.09084983791646327 -0.03648819609556398 0.16520323653814822 0.16930310467372653 0.198131456684108 0.12075344600693 0.09391935309196431 -0.09716324176348182 -0.07668341193576635 -0.03065479605903274 -0.09809924267864154 0.013792301228655955 -0.09289546417080626 -0.05648412416597902 0.0005922521433384298 -0.10580843579424054 -0.09209017889820592 0.0758176120800574 -0.08635076266848526 -0.05102433884235937 -0.02200543655202034 -0.09665714746341303 -0.09561867757274109 -0.09738971269013243 -0.07070680469957277 0.06852882970683567
fireplace 0.003948210821057003 0.04696165233386269 -0.03642857645896184 0.061572859932445524 -0.09076673408773599 0.1293165142260108 -0.05899499678684823 -0.08311558608091449 -0.035853709190563465 0.02452443815659121 -0.0241239339662125 -0.005751089367619353 -0.0040815217332915545 -0.05809729563284224 -0.05365049583062956 -0.06381481862856386 -0.06458758382728759 -0.09472306827296191 -0.08970560843729444 -0.06356451301048674 0.2143165968040173 0.018345166250969804 0.041384346673505455 -0.08216147561296205 0.035950409765082944 -0.09679994959247283 -0.09525835826122214 0.050362667217282005 -0.0738644475780711 0.03391343456823048
fish -0.005892868610494671 0.029829808476670036 0.061867329213374685 -0.013914066711661328 0.0037991281614934945 -0.046316670124666816 0.05144904618652116 -0.05186998441361131 -0.06936705406322015 -0.03165594557354176 -0.07637531184143895 0.13836083361667315 -0.06715614441557595 0.2924874588879508 0.022657526693917917 0.17705334151143876 0.013842136628115493 0.20524653425242365 -0.058607236083610945 0.3152880777224663 0.036438649063609385 -0.0001411239253762573 0.11027011623335788 -0.009643198464081671 -0.07055263969913057 -0.08778820712973895 0.1716723715527952 0.053115219626984476 0.13724447775917803 0.26699736842947613
flag -0.026288455686433412 0.04140642643081349 0.18996828740458419 0.0034761962436811586 0.049088519307367504 0.06746506010952893 0.094729887497428 -0.09579711764739052 -0.03843886436012994 0.2735967222180497 0.07860350528637133 0.024869253033414012 -0.05317155024082281 -0.08794877448546538 0.09660242026494563 -0.08457869632869905 -0.015514309652680061 -0.09288809691018059 0.31483308110581915 -0.10640150614106741 -0.024658163017593434 0.010979036544992327 -0.12024410732093396 -0.044041488502364376 0.0035149061073140703 0.0461004214204712 0.11457802936153226 -0.052552926449735186 0.03632495791788311 0.18458062596309444
flashlight -0.09209253435238948 -0.09081701736878577 -0.053996003754351006 -0.08254583115120817 -0.09084035096196968 -0.024898021072826543 -0.09042828893786085 -0.10472065124992938 0.1911771145887241 0.001974333189712348 -0.054625042616797674 0.21143132965518355 -0.09667174642421106 0.20950183711343762 0.035780769092893405 -0.053784063368938886 -0.0381326924914987 -0.08206385517544346 -0.09012017586587193 0.04916165250977135 -0.05101721572900227 -0.011611439101517388 0.014935140290741498 -0.08625072177684805 0.004071021401972544 0.00277239750384195 0.1653105835478904 -0.0975044248524609 0.0629622936712345 -0.02679650852907397
flower -0.08565183605858287 -0.09124804413139094 -0.019035679725822922 0.2612553907383442 -0.03235376711407844 0.08512437744959067 -0.05591664898550946 -0.05896470143937828 0.07400612555398126 0.13217248808251433 -0.03737942039359413 -0.0199619108635731 -0.09722716402927906 0.07647093106833316 0.11023527153669715 -0.09515802402224718 -0.04569046605444173 0.07859219208131964 0.04994934822381224 -0.019126370535546857 0.10461737241736292 -0.020584966318437852 -0.09273114990296355 0.18574275169931007 0.08491062767123708 -0.09700450524768972 -0.045690338116820654 0.3815134181702666 -0.03912664020757243 0.09863311861874167
flowerpot -0.018142840450019446 -0.09109095801002184 -0.08611092427091667 0.05236893768096512 0.05346781977296423 -0.0754093546201819 1.9797250379723845e-05 -0.10486195350370893 -0.10173888217748474 -0.10007129047174372 -0.08969595276881977 -0.0059645464143854516 -0.07018317320264039 0.05685866123125742 0.031253901939158855 -0.035509731782577755 -0.021856246235715065 0.03968372243863698 -0.08984480898087135 -0.10561159983931165 -0.024234942891335154 0.1317687194007484 -0.11446758918543962 -0.02896694650020592 -0.09002187402328547 -0.0965874635490923 0.09068635061230536 0.10066521856911058 0.25047999336580423 -0.04141916772331315
flute -0.09248546932751543 0.0775307717220311 0.28235586981620286 0.05728121292758576 -0.08559247722327352 -0.09240318445121667 -0.0031758726211683157 0.1853575789751296 -0.06708459968537296 -0.07817189663935396 -0.06152273761968672 -0.04981644584801926 -0.09690245219159367 -0.0885582211717676 0.1095343276810553 0.06078838873456496 -0.017779884478373913 -0.08484498783081408 -0.08999676336385888 -0.03994382537006394 -0.05887148755782387 -0.08760336198546569 0.2410832728505363 0.1181238334335146 0.02572303735808917 -0.09679021435172552 -0.09567668037535625 0.26637149822825207 -0.10058751037257371 -0.07428284914533985
food -0.02858781466027988 0.16099119142348478 0.13118178263187133 -0.05056288022423705 0.2121945131400296 0.21281757174145186 -0.035956108992067005 -0.012568459957086841 -0.04202820679371927 0.2089484047804757 -0.016859895498147655 -0.06249689218117188 0.022529626505171096 0.01643690885061733 -0.09297469540265181 0.2178498666983955 0.06261325680163976 0.1867660792921781 -0.08243060722133104 0.4284322667709533 0.13141378668002895 -0.03671505633863669 0.00014345183240688835 -0.017151159817480187 0.014025424236334145 0.08464996266335899 -0.08360405785141982 0.01974123958292523 -0.012689112604958091 0.1746896257986659
football -0.09245585370795151 0.26547466758654986 -0.028394765298705025 0.07360737956547886 0.12033161599643377 0.1358852478777412 0.06651141687956014 -0.08327886152140868 -0.10193213903095648 0.04618459336263341 0.21116382077065066 0.05552786243102054 -0.02741772797990539 -0.08901941070327364 -0.059005512881406895 -0.05288491834267349 0.014630900903467138 -0.09329013985597545 0.35273143226696907 -0.09882551032270777 0.014204363689740101 -0.012349347673744314 -0.026755984464445298 0.08580000863267324 -0.08548028441428289 -0.014527574038992828 0.3570717291918632 -0.09807994706518085 0.07062385727963874 0.1530750837840015
footwear -0.0925926054003599 0.14369233850576799 -0.0867360296218834 -0.08139848543767705 -0.028262207916235228 0.035578918255967464 -0.07412912018544907 0.0944942652018808 -0.062248549557798905 0.34363621167196795 -0.08997652126551031 -0.09864842323970513 0.06670047601255509 -0.08908782800389077 -0.09857592612511082 0.25854424638577345 -0.09308671881078061 -0.09496871916328366 0.08035776960062956 0.0022334171304213895 0.09511526978835268 -0.07465397122572984 0.0362065148326464 0.09987917463060009 -0.08996912953156223 -0.07373257608601999 -0.09568704809549756 -0.09794279032606518 -0.0970956848923515 -0.09058950731205015
fork -0.05633339485747185 -0.08236240763956022 -0.09171954195780056 -0.08597461396678248 0.089296313764323 -0.031120460945031143 -0.07202734880800098 -0.0992754094071876 0.07695984683004937 0.04904792305081011 -0.048498324497692154 0.041946768440847035 -0.04039187184216731 -0.05258993269332974 0.28978707480718396 -0.09457846608995352 -0.03589146863199244 -0.028251875258878168 0.0011795136343787697 0.08122261710378552 -0.08928994134279465 0.1546736873164337 0.2704267130273482 -0.08727470926633688 0.004870813317479764 0.1552570124495233 -0.07652966808059519 0.0003265740381451541 0.07875856592115243 -0.0016103342538634124
fountain 0.06520293687273894 -0.05744794865769844 0.23986941929803204 -0.08046998328477305 -0.000401259068816132 0.1407146697340938 -0.08682344133099083 -0.010402334243560551 0.08964291859304978 -0.037436733048887394 -0.08366438372049284 0.23617311340638067 -0.095551773112529 -0.08887198182150675 -0.05532541155018593 -0.05888673862817748 -0.05365867903427273 0.09250540086025116 0.014835864381556442 -0.04912368465958489 -0.04965859543552805 0.09060782295148244 -0.07561863154687624 0.09980362569539347 0.11295819908451381 -0.023976742325666597 0.08925584613307819 -0.02161197690714627 0.043225405656836725 -0.08817241522935135
fox 0.04185127022524083 -0.010588754987588954 0.012665104276100122 0.1358667478443846 0.0339588224085339 0.09849253196581387 0.2673821279115172 -0.10456831348087865 -0.0680522396302428 0.06370097712605342 0.16373650328176173 0.013087517633197432 0.07836394602436592 -0.08852269262844063 -0.07483375151366073 0.09669353359035104 0.22901842672105727 -0.00848852424728647 -0.03872586803508557 -0.10520992896419645 0.10941230054992838 -0.024943238301406347 -0.12013684552341768 0.03248700334580815 -0.0895005157388881 -0.08591460605853782 0.2332699812469828 0.018374029250298792 -0.021426100697118394 0.03905093746920189
frog -0.03175232581352309 -0.04616372177870187 -0.053921076741318186 -0.08389009766873992 -0.053787985090135326 -0.06935582714079173 0.142133747250634 -0.007898650878761912 0.0897265149507469 -0.006738729681641085 0.027881678214017647 0.04731575160970179 -0.09631029120471171 -0.0238797386826505 0.15730890313753815 0.22109568269743374 0.10589586787765863 0.13497700872573712 0.02252701311994656 -0.048896929330632694 -0.01981088072512209 0.020025082391762504 0.02159246237345672 -0.0724206320877374 -0.009777290424219067 -0.08981961364808685 -0.049735987771109304 0.1039022692220751 0.08172930031655215 0.009638793675069484
fruit -0.07346980086859714 0.03868890201361124 -0.09077264053478035 -0.02666187681637746 0.29104669823233886 -0.0535317103081797 0.0699878700036689 -0.10445692875870405 0.2118570202734733 0.04793083395538374 -0.08334446006723233 -0.09856546905040295 -0.09714864059931748 0.14295733322961257 -0.027235382470117954 -0.010119295726029843 0.13570864642299943 0.18254048125697078 0.1771021631042044 0.17659826425218383 0.08795288011692246 0.02270877257312029 -0.12000314768019009 -0.08737162660220546 0.1740880231286199 -0.0939509860391157 -0.07413286350225515 0.24559772820897655 -0.027614059367458803 0.08815039915869817
furniture -0.017246329201550472 0.20291978192573096 0.10056240859288039 -0.08583080809472604 -0.05723906253736074 0.1456654707636955 -0.09019769691127848 -0.04959200871021034 -0.10168244313152244 0.358236373144618 -0.08951148827812269 0.09308676930450514 0.08279148093721389 -0.06886839289172317 -0.08143019200693265 0.051757895116114117 -0.09201598795503407 -0.027068958414438345 -0.08386791580044792 -0.041114858909612424 0.12452646191633994 -0.05015730724700286 0.01048369685298394 0.12176293798895658 0.07805637748006616 0.054563722016416155 -0.09496844421157043 0.012142869945738023 -0.10027260589082479 -0.022609106532876372
giraffe 0.15728096065282918 0.10261405335625944 0.12539603647503256 -0.08654893541187418 -0.09041122466204746 -0.09685351741614985 -0.03895394500273173 0.21717505060316517 -0.1016406785401235 -0.015984950988888552 -0.08993184792760425 -0.0925381066018758 -0.08736314507073913 -0.005479862296668119 0.1826556794226904 0.1409505506236138 0.12642552718275604 0.20173278249378415 -0.04197089097900284 -0.10524726086008507 -0.06080839112357437 -0.08681392504806491 -0.09546761372864647 -0.037352602825835204 -0.06728929926890644 -0.09678869945992045 -0.08300326120515068 0.012441442676854028 -0.06699276269616217 -0.09058109814783592
girl -0.0375485152541125 -0.07895533849058624 -0.09153501192266299 0.3394845517276325 -0.09108861632953277 0.2288390215580287 0.20837335065827267 0.17961315516406687 -0.028521885379528704 -3.444203986813859e-05 0.12090277810009979 -0.008587096219892048 0.120743542799924 0.0031469746131660716 0.12879621741774516 -0.08017998270853625 0.05298905707579725 0.026548734475922736 -0.03176457209848322 0.027767295988478175 0.20573537308556086 0.11396366357330136 -0.10981447652614472 0.09123589226194191 0.006939635341639387 -0.03539768773354122 -0.0952165365059405 0.09970002874716703 -0.10051483557738788 0.06534635794209002
glasses -0.03431097207217812 0.21390124122941911 -0.08525437726132906 0.06508828128081334 0.03934272336161122 0.04821941548089564 -0.015633700033920665 0.23487263493980007 0.21858132629608884 0.09183700340313669 0.06796798497439172 0.04051561282162582 -0.09572644467684928 -0.08570920038930942 0.023953512328734095 -0.051479144661297105 -0.0921839916605952 -0.003379087149648165 -0.07836347568645356 0.03285502007169964 -0.0175266816260088 -0.02641724394100497 -0.07980641337473703 0.03330860845111592 0.14769097472896875 -0.09452243781979579 -0.0054807989385990685 -0.09444289412409736 -0.09969746513207446 -0.06678865042877062
