429 30
accordion -0.0636190253035565 0.026567521808084745 -0.0013004717103514405 -0.17401086554803646 -0.002178437969774026 -0.14359255621623254 -0.062117001711217465 0.038893585775699714 -0.09402521303747775 0.017953477405133023 0.010361458350010778 0.11095744576057913 0.04069998974211685 0.06649117068553867 -0.06531016271340671 0.1160147273454341 0.08642222852155475 0.11049075192201536 -0.06229674408383849 0.017331179100471626 -0.037862209755298304 0.0018441981288575744 0.1397326829826014 -0.03232569032167123 -0.06681685739978761 0.007415445275051542 -0.2526676509971527 -0.05285058625233931 -0.12623691040980548 -0.04784730544370035
aircraft -0.05941543918684472 0.06121345874710393 0.21971820824375443 0.08861012516596571 0.04556674336922941 -0.18326766843382153 -0.05588766426455775 -0.09872194243238085 -0.10064213425292586 0.10258795654268589 0.08333034059171045 0.1337794094826437 -0.23645948718905993 -0.00867027298342287 0.06331319301269127 -0.14734139113050967 -0.048129725557954285 0.1889557722433674 0.14776958929260153 0.1706032513278654 0.1848777751946332 -0.02433399923380261 0.06667762116483937 -0.04887996908638325 0.060046538850802356 -0.04083378898352017 -0.32407990923491325 0.20694384974801203 -0.03069132086218112 0.24987238179138774
airplane -0.034596016443367794 0.05527635971398264 0.1776076355471833 0.09840633207704105 0.0503888208383586 -0.25589831020405085 -0.0765555557480485 -0.12989122730590916 -0.02215640533127968 0.04032529471704181 0.021690400780839558 0.11301505102644126 -0.30777430245014203 0.0376515639900983 0.11163615689349976 -0.11798194032228931 0.0001137530320636269 0.14440720460590056 0.14537099657636268 0.21160609100619598 0.14889233577927383 -0.017684629821960583 -0.04651070802289449 0.010582559003959376 0.10027007084569729 0.009764051239744288 -0.2414950502339947 0.18691206097883836 -0.0849274480659268 0.15513326668277297
alpaca 0.17298024352245167 0.060372910750255804 -0.018773982888479465 -0.06898768322297613 -0.035535451476728916 0.11711494723699493 -0.10588514398328679 -0.00036873186096027005 -0.009455811325706578 -0.03974636390829455 0.014163198446420342 0.049243967199214964 0.10617249838759643 -0.16718479309811662 -0.0036551204218006187 0.12668324567277484 0.11754578288664187 0.08205125569143638 -0.07108606122523582 -0.10395604674519403 0.16404183786687065 -0.1752109537913391 -0.05736882299177243 0.02334794117607404 -0.20072061103839192 -0.2145240924539149 0.00011307094927605299 0.05277919040904397 0.07576923588538324 0.10066931732729312
ambulance -0.13420489940848612 -0.07774951377604612 -0.005334296104849914 0.0001213197827957914 0.2351524953782938 -0.26442260291348213 -0.0037928031828224416 0.024472932360008505 -0.14292363357967058 -0.038271730140810596 -0.2855089020786155 -0.2916449776158567 -0.19647720133594163 0.16310853458912927 -0.14781182918266106 -0.11864688237962334 -0.09257682026688006 0.14556523331242668 -0.10422773992153087 -0.11050293967602919 0.09170155727674376 -0.051539123963707786 -0.1214303073540998 0.03051719405569473 0.19100376012684556 -0.048099327802858756 0.06820705737814697 0.18973305876667862 0.1820624040171534 0.058879865677775894
animal 0.02338429023574952 -0.04580026005510472 -0.13748967244405141 0.2200073195850115 -0.04375237771113742 0.3008285202187251 -0.02947227432498278 -0.24765405560171144 -0.05328371416323883 0.09470612631535492 0.1680296570895532 0.42533717044827424 -0.13118606216952966 0.03312812405728942 -0.1222279080417437 0.0999748498971876 0.1724428261313588 0.10245317035199351 0.22150291089924365 0.03454457538271623 0.19667130338462557 0.3595154248933693 -0.2734957631936237 -0.16839282365603214 0.22022004532094602 -0.28231984670295174 0.09330506235062783 -0.15652882724024483 0.12134297762490484 -0.038072731975387575
ant -0.01652806375250258 -0.0061701010847334025 -0.03173946161577341 -0.0216480354676492 0.06435331243234906 -0.005816479291124625 0.22239186183168977 0.14150348809902186 0.18638024647330279 -0.2720436256691958 -0.10776421516242315 0.10647801258727019 0.03145830460088944 0.022098360294012496 0.0518809358393842 -0.15825675188043628 0.09865664289051859 0.13613717667180214 0.013858173235758373 -0.22906385586062694 -0.1512611393473534 0.07650276756046065 0.12696091546195443 -0.015305054822855971 0.2175322405905656 -0.15325632499435773 0.04675529303137621 -0.1957326869618975 -0.09193147291917964 -0.11747061531394101
antelope 0.37029734405047654 0.10708825835536333 0.09494614449287693 0.058163500390804 -0.04871891950934223 0.2744350746264021 -0.03500239544597678 0.07052315884253811 -0.10300827483727089 0.12089590191862044 -0.06064018163824656 0.031804019931692844 0.019356788126895497 -0.149977119032677 -0.142223387889155 -0.015834179812714066 0.004025754028214711 0.1648645153625694 0.09174380533136012 -0.18256406738967162 -0.13845860408875518 0.21766850232652485 -0.014119509473517727 -0.12231205572679361 -0.0869791552155126 0.13013051966579592 -0.08420384089760177 0.12309833994606545 0.10374921528062583 0.06912945791539664
apple 0.020254125481697877 0.03344137606777473 0.00707277257872863 -0.024885716110285935 -0.14501828715277243 0.010813585394504074 -0.11064191183214218 0.038932216642382896 -0.06447784998166278 0.13999814136147978 -0.07241491388087964 0.029709405225092266 -0.16545406518543151 0.11349952806215832 0.07304730560688323 0.005150771281969021 -0.13124836427667783 0.18416881911054095 -0.12349947347261264 -0.18824653564597255 -0.10661836371409783 0.02731996779796151 0.22748394027141225 -0.07981296261246605 -0.044050846647065746 0.11161372518298045 0.050924774106250535 -0.24822531295057412 0.1659601803800321 0.05966909082087347
armadillo -0.057052875971877734 0.06183832167380414 -0.07875014880831364 -0.10310571220999018 -0.009433264358477762 0.024806363393780326 0.017810883265269726 0.16519697613737866 -0.022661652675057247 -0.2352040096209529 0.17308779764713567 -0.15696902380657446 0.027739217872662463 -0.028854790631390445 -0.03420133302106767 -0.1059631756039746 -0.013168231384816542 -0.18112585263760936 0.12080030135990734 -0.0505985749834975 -0.08256210916910668 -0.16327078887634516 -0.024617640334166496 -0.01131098291250245 -0.019470267422697328 -0.11974742480558022 0.07661938511639481 -0.1765185061608539 0.002990434351704259 0.15606538195499983
artichoke 0.015075151303984282 0.0772799480454433 0.05942569225766746 0.01942126398079094 -0.030282668966781237 -0.026192193361324854 0.09085163560551955 0.04614572028249521 -0.04571589747020404 -0.29235178098094894 -0.0383842254423884 0.04435975212270388 0.03860046943493349 0.04443859718724777 0.08772513016455821 -0.15770406602127576 -0.054475604962141426 -0.006203485837212109 -0.011633838241291926 0.10301640915370741 -0.151226152753546 -0.04050396463011478 0.09353885601321676 0.13667925494493396 -0.14773376497656185 0.13053718273793394 0.11454265679469904 -0.058253834728658034 0.25552354645307335 0.2644224600234172
axe 0.19829405556557628 -0.0006729299363662311 0.06672230971944666 -0.24482343231623876 0.07186427689432177 0.06845773348158007 -0.12134198499740732 0.08719711222267076 0.03353669508430194 -0.19764995866906301 -0.0958587141302476 -0.16052895104922674 0.1393416626149546 -0.09926607022027147 0.028584937222978102 0.009877314491854692 -0.0966023171436624 -0.06854687263610451 0.006582558552888251 -0.17984989481018998 -0.012971261269509494 0.04834850848915875 -0.13782368714229642 -0.021504919311020335 0.07398847215956177 0.07352502083231535 -0.005388348571196303 0.1748708639112883 -0.0031580226694624407 0.195274830086462
backpack 0.12280562695476074 0.05271374716983477 0.06448290403728159 -0.07500253592694701 0.07460440409541869 0.09072276100462902 -0.14001742735081496 -0.025872821387098864 0.0004537694655041796 0.0975739329385996 0.007380789461613249 -0.052393294042011734 -0.007318673418064377 0.11413450522351377 -0.08489442611533524 -0.019087081001081974 0.06945967312975972 0.04108648016780832 -0.1601064699947849 -0.08772279457553912 0.11279251499581337 -0.19392518443142456 -0.06487069644905503 -0.08557337737911 0.08177799130203935 0.0400887857130609 0.07061831453295413 0.10708188659302051 -0.052346707972010964 -0.025740457466759518
bagel -0.05468934462394375 -0.04302426470823046 0.07054756836305455 0.11639193640096329 -0.10710580661510039 -0.04617212995201601 0.2944680231548198 0.08309232289459129 0.26312817671918554 -0.06430757653782312 -0.08532604138727626 -0.3343031829897606 0.029817756062311046 -0.07706052384219499 0.05415165235848197 -0.02312833365157724 -0.12621257735833338 0.1092355793368006 0.012915266822899354 -0.08974810512950208 -0.12538791174029768 -0.1287309294007101 -0.1682005040208377 -0.12584060916451534 -0.07211092723882792 0.046398112194494016 -0.10550599328147238 0.07524058363339937 0.12504091497685274 0.05517936237991546
ball -0.0355404104751761 0.022095316180279434 0.07620551451969135 0.2371827068095517 -0.13344166797338625 0.006750268364010921 -0.017766983977482623 -0.1526655085115991 0.05033580916666823 0.03557565799394333 0.12034945478883481 0.08759131260106373 0.012600402634951338 -0.18785965828736967 -0.16587106670907334 0.2561745719587862 -0.05488510946518259 0.07588432740164931 -0.24602619287202748 0.1440661599904389 0.12098446261257333 -0.12819877897984958 0.1630368084062305 -0.15622372284284194 0.026563254830651667 -0.05305810485982824 -0.00839476743521609 0.03700673017668199 -0.14952321589004197 -0.1300003417218385
balloon -0.16280153227770874 0.09735756177505492 0.16269098911564908 0.033216230966435 -0.052717245695050735 -0.020649405834012615 0.016854515475119566 -0.02938009951254579 0.029485609587391853 0.15018352985428904 -0.0021245958158753763 0.039799751396141246 0.026169162007681174 -0.007115390438174366 -0.08532750426257284 0.06766515948553246 -0.13973188520749888 -0.013142157779692644 -0.1203175116370766 0.1686602793020958 -0.08268570747789357 -0.030250748780992556 0.15296211765364787 -0.11065121685027823 0.1014801426024494 -0.05729254529548829 -0.134695107784499 0.07179447891786722 0.01197667997088887 0.11230559868464558
banana 0.018978694910923653 -0.039751207857299596 0.02163187884745037 -0.08266733120767608 -0.060662461083221084 -0.0005358137646273963 -0.036854461360345155 0.07773574551118168 0.02663304023575278 -0.033428569215025086 -0.0077415753866586215 -0.07096208631680476 -0.17229882823011314 -0.01163847617599532 0.021138369345310284 -0.022122400208366633 -0.14217126544434738 0.03383610876495272 -0.17665784436059592 -0.09676606952327978 -0.03872231325097984 0.07596448563080914 0.14558886420298098 -0.05859349508077695 -0.024038676344723345 0.027532353003073745 0.012402278790934635 -0.11251995044138148 0.08025853929235574 0.07799447046121373
band-aid -0.013047049185410402 0.18602235877672577 -0.016735372312719862 -0.14958403646467713 -0.047822318187904805 -0.06017045897385304 -0.032316491562031556 -0.05935241390837539 -0.03125813032302793 -0.1625319821341343 0.03268538456405204 0.01799357560895136 -0.1060513547252999 -0.11510344258742078 -0.05592370824186408 0.0386855237693653 0.1779073306630895 0.2393523982294907 0.057776344633713624 -0.04672248935912216 -0.10384467850564481 0.08579636391266855 0.01596776087339335 0.13650872973574668 -0.18458243267449623 0.12618474027429624 0.103983718525623 0.11575265073645898 -0.10343003539422656 0.04675594440304567
banjo -0.0672899729974244 0.07606326464891655 0.15381309961427092 -0.1119057496530221 0.16224998927733156 -0.21870095721800215 -0.10625014585384492 0.19475007715199805 -0.0650426256964112 -0.05015873038811678 -0.08021400809453084 0.24258269452585116 -0.03959389868964433 -0.028399933427895225 -0.0021728635910765112 0.15517267552565173 -0.04024070517236841 -0.0404928979723842 -0.05597354496537825 -0.0829827289881144 -0.09477443751282337 0.143968821372736 0.1044040470108535 0.10517427193284866 -0.022768003793286935 0.13934468975971123 -0.10790590045466641 -0.00446005770983391 -0.10574192117742098 0.03005651653228136
barge 0.22301648791485934 0.10313057014126958 -0.14512055945793634 0.15114868127420536 -0.032632807808671734 0.09987216064175217 -0.1864770264971402 -0.0013587973687117709 -0.10368425203622876 -0.1320309372668276 -0.020282363500804052 -0.13032805101468894 -0.10130464601410161 -0.032220390761666766 0.1433283595052033 -0.0832249829320545 0.03948229374560276 0.11237896540265158 0.18065371313567588 0.11018594538931843 0.13394840846266953 -0.07966779638263187 0.05146972806573291 0.11722722827399787 0.07452286581534581 0.006534745340822081 -0.07128799472686599 -0.12054587506080068 -0.07064006444994281 0.07778239030894293
barrel -0.04650939241077491 0.0009431653737957058 0.08203202994208213 -0.07950145769559165 0.08051656780138994 0.002212524856939607 -0.018820019450837656 -0.012049476495797122 0.0060617111608455 0.10028365840323282 -0.1749555789550619 0.1147289454760195 -0.05293766750279345 -0.07957936969233473 0.06597490537896111 -0.1219830449709031 -0.06931019228597281 -0.15530812344966183 -0.023235030681840487 -0.09146517946297195 0.03589476420553758 -0.04476321839242901 0.02334273807300149 0.044886382939640215 -0.10180726864206464 0.08173769279136887 0.023677404736910365 0.07248171164644142 0.0024094227322592823 -0.02280600708878653
bat 0.13829625817072946 0.13774443275638207 -0.09024599578845312 -0.01990749768397915 -0.11277983715968892 -0.055524247187229106 -0.05812334302834986 0.15298123965077814 0.06186697332260385 -0.09192416368195272 -0.027773558963075644 0.019363975694738342 -0.08427103910772851 0.09669375511401902 -0.018669101603766978 0.043362011356457224 0.03515680552054627 0.14661335137869932 0.23588499051299974 0.09056486538614489 -0.13247639242067166 -0.017022560679528623 0.025821803890497232 0.035617603849586364 -0.04111997560622075 -0.008606913295542118 0.0487045067599331 -0.1743775470078331 -0.12408952065000384 -0.21197034970771556
bathtub -0.2210122034414736 0.06110454378831653 -0.18082530328086382 0.019143052672649367 -0.1632138031685394 0.10313585493850218 0.0071520777515978965 -0.04597668096531583 0.1646063850755114 -0.06175138672945631 -0.05517359522708684 -0.03786988669257312 0.025667982986889933 -0.24490276109293357 -0.11101128477708629 0.03836224213288505 0.002137660580324412 0.02901433432931321 -0.014713913920800964 0.12598083797091575 0.03185109712587461 -0.20775900168786934 0.1228872008408157 -0.07018355792770489 -0.1957324751524232 -0.31416814698133433 0.10613154119040988 -0.07187371427689532 0.00995438400982315 -0.1216526742463866
beaker -0.07688762606926787 0.033407223799938886 0.025346947430314317 -0.06193611753134381 0.12528489375136587 -0.019560218858889884 0.09269935279253616 0.04134549664412109 0.0007373497793377384 -0.21398122839837677 -0.02880175946452723 -0.29593649854157106 0.1887602854004152 -0.004935113673743759 -0.050221755325727334 -0.04080830312041769 -0.01653180374878699 -0.015023074843577565 0.08603488264496095 -0.0721599311950326 -0.01398767494886286 -0.22039430181516811 -0.03878620333820074 0.0763540711872468 -0.018506605183545816 0.15089679864593292 0.03307693195513239 -0.06916201319132945 -0.010780001679400995 -0.06008068477619946
bear 0.05546264015879039 0.05877000920339413 0.08498576426939777 0.01907388429475712 0.2354407628724676 0.04864520715193238 -0.03018064855883633 -0.0562374027965572 -0.17760204626358275 0.15471813873571721 -0.029459696332100046 0.04620998802963463 0.017185663367402928 0.03689642421133885 -0.22671276121115413 0.08382734439860985 0.12512343045834157 -0.09346290796578818 0.01158178566135391 0.024725422539673036 0.05911165140364035 0.07505587316378114 -0.07307946439224164 0.0023488458948730875 -0.03316471583851779 -0.1824698553385521 0.061855365240657975 -0.17928741367246978 -0.16042384212847083 0.15959999606251496
bed -0.0640816984097853 -0.05679730997574677 -0.14146197710464692 0.2201684704335183 -0.15108678071991488 0.0984183240233093 0.08154030589091614 -0.17799312628825312 -0.12823033463652309 0.11233817320232892 -0.1235047112648747 0.2827134589179083 0.07759610972968373 0.01119687808436282 -0.085409583047775 0.05357240995091397 0.0755304178028254 -0.15876111528995923 0.23921363629953574 0.06083707540348016 -0.046775928047455166 -0.38118809029016815 -0.012643289699587834 0.07762396254195984 -0.048079070825255116 0.011928607649960756 0.11149061368073444 0.04081616811082915 -0.01007511626617852 0.003731574218373287
bee 0.0770701046867538 -0.14483059699144402 -0.1843145961719238 0.006850465712418469 0.10765652262126657 -0.013776167480051638 0.09969079978821775 -0.05420858964771363 0.17936803578032898 -0.11756286698100271 -0.049102724618025444 0.13747100280880786 -0.006515750767683712 0.08056218051889823 0.0736968126337434 -0.013215525750476485 -0.05194126111352995 0.12297713273439038 0.07530945698956001 0.1275319758880419 -0.12277558989734424 0.2514765083761067 0.17436764774799463 0.3035108873141212 -0.05096402638916524 -0.295952134882266 0.0680424314832586 -0.17121211427173363 0.06739878186570805 0.0949030780208477
beehive 0.22778483400432006 -0.048058481362128425 -0.1529110231203817 0.13118303251577715 -0.03315729187579357 -0.21153708810219793 -0.026340553080734193 0.12076149902405689 -0.011448917684267286 -0.12430302443925004 0.04562587483494776 0.10635223401155762 -0.1102491084312105 -0.006202984149275684 0.08685111074135103 0.040076030323966914 0.11073371597484574 0.1137160672240736 -0.01274248036000149 -0.033785611877103286 -0.07930084701127378 0.07317242950898234 0.1530409850709595 -0.009033554398383468 0.1144211208753285 -0.1956644214807871 -0.03223917008692866 -0.016670467497365993 0.064247800285116 -9.821221783025615e-05
beer -0.04785396774644218 -0.1581741611586001 0.09264316081037904 -0.21040162996557946 0.04401378331566538 0.08101794427143844 0.11877139398181491 -0.08842531310036347 0.011359381982263066 0.19068986686954395 0.13231916743682157 -0.10348290448976316 0.15200300000936584 0.15154858618717484 0.162379689321798 -0.030355528895722843 -0.044346915215899466 -0.16618760818281134 0.07008760750855791 -0.10518309624836743 0.26889441627274635 0.10120311388449654 -0.04197444623152267 -0.10216782972645262 -0.09512284573291749 0.19528180690897504 0.03906627474897284 -0.11861441043663878 -0.028503962657679398 -0.008910296225951537
beetle 0.24417812721151963 -0.009599733765577042 0.08371511729871049 0.0771119641119051 0.10358956918889738 0.0898613430519923 0.2188642843979348 -0.1191484933220982 0.0997003188289734 -0.19324706309714512 0.047546599479975755 0.06870041737200028 0.1854005019389406 -0.03492714885940113 0.19792342397421384 -0.09439504923329892 0.05100098236696364 0.23488082031391397 0.16261975726040181 0.059263347717124035 -0.10917046453810401 0.11120641466951266 -0.03968332414562046 0.14472049652983104 -0.035242101910580644 -0.08281792981140099 0.07027591817362544 -0.2651207287146578 0.09383832003245988 0.05898935915504358
belt -0.12328061294486375 0.0022640863875192895 0.04356706032024282 -0.07179205745938304 0.05753559807824542 -0.14056360661548076 -0.011000387831136512 0.2428696543997394 0.045666983997815117 -0.13120868540885583 0.07241249260586864 0.08857852487141249 0.05863478085952116 0.12875261250622433 0.15240762066371727 0.016834613155200295 0.09330666140488414 0.019227545069416842 -0.2203238525401467 -0.022409939320867402 0.04124708731359221 -0.05974463134525553 -0.011259530559506223 0.015617617854828634 0.09308320266867706 0.06640103407215167 0.15092274026560612 0.16641383676556415 -0.1490946871806493 -0.13399902997353466
bench 0.09859288906410367 0.07676302800906362 -0.10496338786177936 0.12755811442834025 0.07414766572298759 0.16318724597052214 -0.2109020609925607 -0.16011807015556262 0.02105081014491002 0.07830406481445425 -0.015931947327659787 0.018071187601805788 -0.1376350713477014 0.12770720993485912 -0.019051183543742897 -0.053325510703241916 -0.08379367398927237 -0.12886332745508922 -0.02643001115093275 0.04266536916190161 -0.1196386423092738 -0.14001931256992142 0.06272604871753716 -0.02998426861198359 0.05017112606942691 -0.09950056096873786 -0.031580989218364164 0.06505574217507146 -0.09225737953407041 -0.1600812247524673
bicycle -0.07099912652398997 0.07998937441208671 0.026896444243996405 0.0458736505707298 0.16855579348638475 0.1217719659062505 -0.24605619690025682 -0.27607082038506525 0.12909869173086702 0.10313947749388612 0.08877339664917225 -0.09866256257607482 -0.02706164962633283 0.1938335015278031 0.037492665684339135 0.15614172152861974 -0.26320893337251977 0.056160460012979495 -0.07233159183577925 0.2510962189880906 0.09220567906755968 -0.016575022521908917 -0.008797880312791833 0.03934311134584448 -0.023371841803891326 -0.014924836876432188 0.06174107045355396 0.14692957047972702 0.06767420388831971 -0.07497075084163973
bidet -0.1386812628918997 -0.0727436760116808 -0.16698407154267178 0.10975953292904293 -0.1358332082738655 -0.019178430113653968 0.05759699232107515 0.10138775731645229 0.12270568471578633 -0.1361402681617523 -0.19457209377839105 -0.11963074844132938 0.007868658661992945 0.0029595935091482712 0.07073841867458658 -0.1520464228981286 -0.11894625143902163 0.07657680221604483 0.30220222468843505 -0.030649311678760786 0.04342877889022458 -0.14139532074301725 0.013538691646193366 0.1020206850513454 -0.04342152479901753 -0.24025753897673538 0.13552466413548245 -0.020250194239843356 -0.027518686161327154 -0.15887585985355474
billboard -0.3159705258926162 0.055451249392521156 0.0036418392151793275 0.03161735150043623 0.11441154839800707 0.0420124730980233 0.05726416316192035 -0.047624726631138675 0.021716645560713597 0.005538821077813121 0.08514614087481502 0.05784578925600347 -0.09944333561054836 0.13152910766158157 0.22727389397174033 -0.0625033600688953 -0.01327181866066055 0.041071714172311646 0.08937143091522758 0.15882137221747594 0.13732722400149538 -0.07147898535926499 -0.12040217375614594 0.05223223547249113 -0.024346217949490132 0.09969640190920788 0.08884829765654619 0.0908873203870469 0.24594708998350734 -0.07778294885177996
binoculars 0.09447464032648299 0.03766136731567731 -0.07259005254629369 -0.24114221296772098 0.07552874675541048 -0.15898823169143803 0.06193109141983812 0.10220177610870472 0.05406106282318499 -0.08447639547682581 -0.017153329219088874 0.04275899935876895 -0.028660816383821813 -0.0834277139781557 0.07107536830210094 -0.08781941141144359 0.01479034381053066 0.09266733741856455 -0.057686176119499555 -0.03990419648653825 0.03328514998649186 -0.048069274409735026 0.135344207082192 -0.02676630875917463 -0.017038518120088702 -0.09766664164425091 -0.13729655190582324 0.08230400305062763 -0.10635602444748797 -0.025590499179871166
bird -0.09256123441599944 0.021131893022744774 -0.13161653709024979 0.10554906755856565 0.07025671965111879 0.2944809052590971 -0.013087013473009418 -0.057398186352989405 0.024861335260895127 0.04970275657139098 -0.056640273381591985 0.11218472352274475 -0.1502046014012421 0.03604042150651754 0.09657987892672518 0.06447535026326394 0.04760973458406157 0.18766245679345284 0.21269778091938535 -0.05709172472816461 -0.09840447175008589 0.19796099874629722 -0.16765099804556877 -0.2578972989090808 0.2368593230117607 -0.14382485233984962 -0.1604506560745661 -0.18106311121194132 0.15773223081049936 -0.18902027759401782
blender 0.014867557621560556 0.11275892798306643 0.040573951316769344 -0.005468154579425027 0.005408284864616309 -0.1056117239168904 0.13551658384501933 0.21847512789927898 -0.03228387900806309 0.0556385608250564 -0.021068592744628748 -0.005027099372339727 0.202785698532329 -0.05681111767243928 0.20535086138703376 -0.05810266444140242 0.10664260644429994 -0.04404945249165144 0.10029102626300983 -0.11815359864124013 0.19934473566949593 0.07310784795618373 0.042811518166866507 0.19182360500122092 -0.10888759496671659 -0.1033407823828357 0.08758119263573817 -0.04300908960880776 0.13569050354983875 0.14318628548201137
boat 0.12078028491679886 0.14818772242640024 -0.2591418135792782 0.04540416904973308 -0.1478412212065467 0.08008319221430146 -0.11630459239511762 -0.16164233647960474 -0.15066931125364258 -0.0335928773182993 0.0789958597494605 -0.1770588533277697 -0.1712652872553436 -0.01075877192323192 0.005113482216052817 0.07890201121950036 -7.196910985563692e-05 0.10348128820794791 0.16266567667283655 0.29670589184138735 -0.006221044673605055 0.17411448273115668 -0.023494505737200938 0.016336249969082523 0.1662460184727661 0.08227186605916044 -0.2212886039807746 0.35036481484120185 0.00806916938008472 -0.04883694591746633
bomb -0.055446995251617615 -0.133147451701689 0.01351555382836266 -0.11853670486099181 0.1717656973709683 0.059825257816336457 0.08123251831740773 0.241191525772942 0.03734813422013089 0.10138520481568426 -0.0006314947152709188 -0.2582918366407698 -0.006306271980824244 0.2153842200832008 0.001422799958107611 0.011160177254125573 0.020664350877552574 0.06763047830749941 0.12231271395835353 -0.059669929722780984 -0.02837008096313906 -0.03839031391066308 -0.2628267489932999 0.10481370143513948 -0.19724216438496223 -0.12784285035263032 0.1835891207721027 -0.16467542215655073 -0.12470660702896913 0.11512889480440751
book -0.26148574987184625 0.010136216591555905 -0.15045248487018625 0.0659142863436019 -0.07896559727831956 0.031068194295082435 -0.08654551518851937 -0.06996638620757545 0.0961782510950306 0.12080376399576116 0.14788883923209603 0.12098827930265674 0.14569250468447256 0.03158909764100042 -0.10578560211921484 0.12973524156074104 0.014139752553457454 -0.20709047042254985 0.11355424326490472 -0.06744801230264842 0.12110643162441576 -0.01321879576843808 -0.1295820420332305 0.11647173823575037 0.18405563511368725 0.038568415533885965 -0.03210622890146025 0.009730866804438094 0.09184939711025657 -0.031117755256962826
bookcase -0.3301614661488877 -0.013618219549348365 -0.14303825499491613 0.08941578495650307 -0.0625222208998272 -0.03575917117946397 -0.12236820594242638 -0.05852664371352353 0.060766918464601576 -0.03635707797207561 0.08277111393177289 0.09016427157435893 0.23046343940887407 0.07517038828268899 -0.2405354803579772 0.11731401688414504 0.11120976978061843 -0.2677564055006218 0.11523868443348695 -0.09506683874620168 0.07009528520523972 -0.10339538552732627 -0.16746662774785342 0.1720430742854826 0.15675241214637597 0.030397131259171654 -0.006432287136611426 0.06299339856737085 -0.028407924162515575 -0.06084513988314138
boot 0.024081467972484727 0.03602818800059772 0.07577775716827238 -0.01241962673521924 0.005923119086067085 -0.07584082446869514 -0.10824194956195003 -0.010607340118455422 -0.0067193283974854474 0.005848491788007332 -0.09261833373470289 0.013122501166492344 0.09169052004524562 0.21006832002640463 0.10500443032755634 0.0028284957791287458 -0.06091971050748031 -0.014450203805605098 -0.2893748108583972 -0.04705908479164859 -0.04712500688555607 -0.0137369554872755 -0.15792685013703714 -0.14771975305471793 0.18422205953201432 -0.11594836872007916 0.1515473513203149 0.007377107302671018 -0.09941802941098436 -0.1427599406769003
bottle -0.17019074811583154 -0.2442244796633911 0.006258379913988945 -0.1086720045102512 -0.027893383707725133 0.08229798134480563 0.04392698631104653 -0.1163023083351165 0.007058184646253571 0.21237122827848842 0.21456722635922068 0.05610769148225025 0.10346016762205203 0.094061472415746 0.05498070869572181 0.04631920105265509 -0.1162594620676066 -0.245966802103367 0.03942499069425875 -0.0842099280402827 0.2058592000814365 0.0908757797825258 0.0869599595974725 -0.14950181036197271 -0.0337065298792989 0.11079452727290456 0.04230386684286259 -0.019576458308059083 0.06042180963853307 0.007397366899354408
bowl 0.03734160347798467 -0.10583903387455479 0.06826441566438068 0.037182740603478044 -0.06957650208636694 0.01466348813827191 0.009367106947593892 -0.09944692447566829 0.06569537249510468 0.060704241800381836 0.20272855011476726 -0.07731472297426156 0.015788242139537015 -0.05903089701677335 -0.09468461171161584 -0.022587572357010244 -0.15226598002024747 -0.0456649397670841 0.1471756121688485 -0.13327114446992627 0.02459901771607724 -0.06800199090528578 0.19362855080344557 -0.09963003837995865 -0.0077476156175389724 0.00870247769943029 0.065902609689699 -0.21554297005662165 -0.0347580873583067 0.0961336537319009
box -0.14361091724986189 -0.11710552779351226 0.014611281604262435 0.09165574554414922 0.10957503945086983 0.0407893079332175 0.016753678129806823 0.004290250622728353 -0.04599717945211594 0.17370424944853505 -0.059363399223268415 0.0660544155211949 0.08838050491507457 0.07124723014441822 -0.117003846809817 0.08455932376065876 -0.1460404285244587 -0.07401755590262457 0.06302228330939459 -0.14113586314384052 0.03688263370436393 -0.07081164658251266 -0.13563745399881885 -0.026599290080367818 0.044299116268586916 -0.04519157585597569 0.025841696484760854 0.016056525610314492 -0.022594557245176613 0.10046215261435476
boy -0.15804458339585953 -0.037738321676413125 0.03506545970303805 0.12018422342669507 -0.18405882362999232 0.14982606650596653 -0.06488001384403429 -0.2044414170067066 0.09476543025618962 0.17758704510018164 0.19531038473963128 0.07083567005021561 -0.04128151187111843 0.10674942166025013 -0.026502991539482094 0.24350304949072213 -0.026526068626111107 -0.03086457948558602 -0.12354776205596661 0.19041723379246348 0.075213717620767 0.009676043572392382 0.06214436609536506 -0.17828802413073308 0.18233388540637677 -0.011922581771270471 -0.009992159282265574 0.08560373078414936 -0.0026065194280116078 -0.06054449130638963
brassiere 0.1259880138242823 -0.06623927860839708 -0.162279826875026 -0.11528759552674465 -0.18420767997691823 -0.03706131002007778 0.06720054077171768 0.0832557917525191 -0.0424478741236016 -0.054234715792678106 0.08473731327775078 -0.008558899597450768 0.1531408002465815 0.07053958004253998 0.1857896482078195 0.14761187189337788 0.04494610562935706 0.22027992690761664 -0.2264359671878022 0.06360136263825353 -0.0016826872285546693 -0.06206134992228522 0.15155383838165207 0.10532260879379228 0.09017014566797484 -0.20877823116577487 0.03938122886773695 0.14728474147162027 0.12106782321628407 0.11768653681222481
bread 0.01921797330276734 -0.18644485592893306 -0.005746279972806563 0.16589655772949247 -0.23660873475471625 -0.016432856180742725 0.2455159617494554 0.10121860953221806 0.14373753909787063 0.08760583913538339 -0.0529142601736011 -0.31465118569964096 -0.06901637259271642 0.006389625643228294 0.03401330993044042 -0.05542371065022028 -0.11563519733688599 0.08794731926745646 0.11712588255515777 -0.10838474345423244 0.06918945907211674 -0.07434568610704737 -0.04020985860817241 -0.03671521700054483 -0.017129917644785653 0.16590799152624433 -0.1436316204918789 -0.03121838317221919 0.1111080333177848 -0.06956576680988016
briefcase 0.11447089940286775 -0.1038359667658336 0.02368719955564037 -0.05376974279271215 0.01702336174869159 -0.14867062614513568 0.013291929802307915 0.15429010032516283 -0.14135398307117547 0.06446730380410982 -0.09094023659190442 -0.1399045861942523 -0.028623196940604154 0.00926484281272037 -0.07712694577210641 0.013431232226211811 0.10247795029226116 -0.08505069829253634 -0.06749539772863127 -0.2014152691670881 0.0038207433323491366 -0.15402829105439544 -0.18080625641514367 -0.019797309854727854 0.1864921660486329 -0.04353034626560225 0.04570626980013441 0.12754136187461557 -0.12694690606960377 0.03714461350141843
broccoli 0.11879815466736401 -0.11654903237048159 -0.05482339582190817 0.05125735141921485 -0.06815043435497752 -0.05257590449472967 0.16345601972064394 0.04897319983861452 -0.1334499093986027 -0.2630960620781927 0.018013337320180126 -0.020706815614863084 -0.03550136450814711 0.016696070111911102 -0.019708293956343884 -0.12082773963028416 0.03405432245912677 0.1743125013745146 0.02314294029401724 0.11432960171407305 0.010145906265242437 -0.0462271023420294 0.29929640736153085 0.06878426313127989 0.042796892679293416 0.09380691061796378 -0.10045455881566132 -0.059201424386357414 0.03973235161577747 0.07910251044844382
building -0.25618146741065406 0.04969017739739961 -0.19020271790921459 0.14854371094500135 0.011922544630563841 0.09511325188096975 -0.260173716471031 -0.3517640209249007 -0.034435983496704015 0.08159509509327245 0.07797985536209318 0.04333974926747285 -0.16441946949669792 0.030769830859676883 0.1368887640427107 -0.07081328216513386 -0.06755858787667998 -0.3311772691947861 0.08992918569821531 0.1950521192104735 0.1713562792075423 -0.06647307282040223 0.02947355028051965 -0.042454147873421104 0.0722616141734254 0.024104369296673894 -0.11022335103467115 0.232054495546062 0.2982194381736926 -0.19951720025620778
bull -0.10802770166279184 0.030994140573193985 -0.06805183087598868 -0.04799449906257367 -0.01425352362666892 0.10522440110430961 -0.09320586858048699 0.03230013981695141 0.14039284434288168 -0.11868542896273779 0.015681913747901684 0.03175580218733645 0.006889752264111063 -0.16619219706395139 0.04922104560955224 0.12671362773173922 0.12986581011968742 0.18792303411057049 -0.05871331403598736 0.09241070927522535 0.010104988873137195 0.19014580440269482 -0.14250989147855714 -0.04267337489344828 -0.17559401859488555 -0.08265137158607848 0.2309282411704476 0.08146865384910229 0.005982996320696388 -0.09044064984431516
burrito -0.020825879510252346 0.06570542255198575 -0.25484774244965075 0.09571450526579772 0.08699346393161109 -0.09843855915040305 0.001159984043351219 0.1882800051785443 -0.06118651273385505 -0.03928533387325975 0.09004183973993465 -0.3154693918637506 -0.07245137132762715 0.0585900368313657 -0.029797514574431236 0.05351102402400643 -0.003132857751706205 0.06477560767231377 0.09109001648064591 -0.013937460418794956 -0.05401411120722622 -0.1720770365381654 0.00674061150092046 0.07500636712918617 -0.09515318056588347 0.03529176950707744 -0.03451297597342112 -0.1169517798083131 0.07776889485122059 -0.056433775115512175
bus -0.23490598197387447 0.10757648072672123 0.12531207577878925 0.14219949625725747 0.18793548566978652 0.06698007134694935 0.021039659839459976 -0.12095712312444719 0.006747877368956058 -0.009624313581319023 0.03035579690246101 -0.015647520971944957 -0.14211666117493682 0.24502172969894295 0.0894804260727252 -0.023563596001240392 -0.06102712210531896 0.11486509150690664 0.010158401940872986 0.1450714283341722 -0.040534261663590705 -0.11252787825702573 -0.09060740156576444 -0.08309717660551659 0.052590167642968706 0.04976157141284332 0.09750941982531332 0.3239136275948471 0.19131048237791287 0.0754940033954475
bust 0.12532962043872503 0.10426387603763844 -0.17284909976674975 -0.19524929431807922 -0.07575592952372795 -0.12932388983761053 -0.11766862090662178 -0.025157764674473098 0.12673794278133818 -0.07773356187866971 0.23946157708464352 0.015013536400532365 -0.03792635655748607 -0.061618921083555024 0.04052640872392752 -0.05769249877438379 0.10027188222945971 -0.046134067093092895 -0.1907104596675825 -0.061323902251401795 -0.00617221495901952 -0.050179359566308264 -0.16741710341754157 -0.08532347313762852 -0.1523692800745504 -0.0033696878165641432 -0.07261851639251232 0.12924084452368506 0.059047627537375004 -0.055226521176664004
butterfly 0.13469063190363495 -0.0698749957074659 -0.10569672103578213 0.1485613734683993 0.012932618219633324 -0.08820961254507856 0.0779753963054337 0.020260392981101914 0.21334514238814667 -0.12402528047171753 0.0967878374799829 0.10455577277479385 0.08495949294668707 0.08753420975824171 0.1867135776403254 -0.07788388780511714 -0.05287176283081181 0.035195623258110764 0.0021485548222807465 -0.020514968586961533 -0.12548444168100722 0.244133495306409 -0.04868768880618744 0.10725486838892707 0.07425190664958203 -0.3028542460309928 0.027175055645810457 -0.22363884425065647 0.04503337548308074 -0.1301682144041162
cabbage 0.11165645028680427 -0.10195037432810805 0.0024872658775354274 0.19714414330835173 0.02437974764693345 0.037611525598539 0.10280888846093103 0.04913049389725282 -0.10447223356136873 -0.22792202828317482 0.05697837516797352 -0.0676345660832304 0.045842773063064085 -0.010359743720833649 0.04785164514073118 0.008205616471838094 -0.09598409734073574 0.162695204868515 -0.030624081228968904 0.032884199795813675 0.03278573505351548 -0.11780252640422807 0.2632529586781488 0.039712741364244845 -0.06228495614226715 0.1120838599969549 -0.035948410194491284 -0.15944396218487625 -0.007209842137097513 0.17033158471070584
cabinetry -0.2869912050164383 -0.21338986969845467 -0.09483653599397475 0.11018329181259821 -0.1475453975526305 -0.041263876842324305 -0.15617230797614132 -0.19656956720703542 -0.13497466372462819 -0.039747357622010676 -0.16185324518768293 0.017254579250641628 0.1897906622332926 -0.05921893520036367 -0.10062623263408298 -0.06520194806890817 0.05654192611258873 -0.1760772989577001 0.1346825095227026 -0.13146142059861457 0.0448706830730742 -0.20136209852792145 0.11069782433231665 -0.07348977136500554 -0.017204516520555293 -0.04157983382208964 0.06436179458872097 0.05197101976959219 0.06808239393440568 -0.05437441461670988
cake -0.027308102339541923 -0.15317162134312237 0.11262179671836453 0.05967093064642002 -0.3099836740015746 -0.0778619397798011 0.1685647393225023 0.061144921694715366 0.2300917018053044 0.33832328082514346 0.005048350530369415 -0.08141470705700483 -0.16180052027197042 -0.0002880183673999361 -0.055178588245763084 0.09022675840747214 -0.173216975622088 -0.17412124533037637 0.009619126297505349 -0.004971120311963073 -0.24280429798290917 0.07459132675961619 0.05745038521136943 -0.05047860848689021 0.08526692999811142 -0.12559897000711778 -0.033292908047009746 -0.08189827463218675 0.002542117948986082 0.0874145144241114
calculator 0.007863890898795507 0.10794317486222167 0.00034655269325621223 -0.06490053280529538 -0.1099167373942838 0.0045102684213661065 0.13702262880468255 -0.0022219036507909484 0.07509508566569537 -0.10176914717836541 -0.09845915076360616 -0.05786274352932386 0.18125152481836734 0.01810999289071452 -0.02133740002906232 -0.06221156243134185 0.010653301093300604 0.07323455927747233 0.0032126303566344574 -0.030927439357530208 -0.21137424688826964 0.0002736109713943947 -0.16183722577174361 0.030041699090902995 -0.14481627660301066 -0.034306884456503664 0.0357521430859421 0.008937864073406788 0.0632214219201023 0.04500205346833079
camel 0.12028539580866822 0.02447878280278388 -0.11488176843069016 -0.0874281762343925 0.11396420799925563 -0.029599543241928053 0.0008923543104739506 -0.04787062453375672 0.04855832491025758 -0.044085045896651305 -0.05065405931014488 0.10937598875248647 -0.15636516992324595 -0.032931850427415144 -0.07248228457242961 0.16133393669563198 0.027913073305964375 0.14576107952775083 -0.08095078518897562 -0.14175919909659276 0.16098760661498066 -0.03804654012638135 -0.10936067236451912 0.06337975135950422 -0.08833589911676508 -0.1233905091603979 0.10011331969855383 0.05836164974275391 0.04364356157645552 0.02619460264292295
camera -0.06966322109452716 -0.08004002192396925 -0.08241920746224593 -0.14890897230168815 0.1281229952216231 0.09056099621814312 -0.0137468728322667 0.09059711649277435 0.021681513353411154 0.10510444109290613 0.03210250948542058 -0.0470166160930373 0.14648694042939253 0.10429160754202998 0.019043719219210914 0.13233915717598102 -0.12278480420117635 -0.014677844924345465 0.032055605839959984 0.00020740202117217323 0.08312252176417852 0.024661470735082066 0.09313462507999583 0.0052790380619912244 0.2654995454774975 0.003147340573539014 0.0015636529093298662 0.12098574787607767 -0.018653163476339947 -0.049880750675886015
canary 0.023505661051612337 0.011268809178574065 -0.1302217644537936 -0.00722083731568109 0.14066197005420533 0.11277812083682494 0.03190633648829607 0.2405826567176966 0.02746549782875168 -0.0027008562813198643 -0.14841888116762195 -0.12620035707739022 -0.0072719354216575416 -0.14555454596142983 -0.002077230944336354 -0.05624469921273513 0.020452815792013197 0.20244783069146177 0.1351558084785692 -0.12151919090051672 -0.2911201464799602 0.061067839409593164 -0.09730791279836319 -0.02499699853598535 0.0422864307981936 -0.1790841448039613 -0.11930914512296244 -0.044149660437928964 0.17516181984237456 -0.056145082587352874
candle -0.0802591609333419 -0.11055355806785015 -0.004092148056441185 -0.022248041777196702 -0.28832224196395084 0.05303231743388835 0.13677868290999798 -0.045616504017593235 0.16874330382449568 0.17306861899420187 0.05054239249435775 0.06026005313270813 -0.019364563569204463 0.012378077538286611 0.01599120187751249 -0.048737013022150666 -0.09766890844630535 -0.30514944728200005 0.07075254169489222 0.057034445884100914 -0.13207179942146308 0.02588458473838961 0.12421869063942902 -0.008135014843262109 -0.031242862688903254 0.009366030525311674 -0.023411592015835526 -0.0630453412348293 -0.00801236139874193 0.041895649294719214
candy 0.015040062387180364 0.025133388269720253 0.17352689999428392 0.12821311541301314 -0.12602712325812684 -0.0831641600390636 0.26150936094428623 0.16192408851294204 0.1499290012938214 0.06916015126414408 0.00244174401709617 -0.22180454228251723 -0.1931454701175108 -0.0002665698931310532 -0.1342033901325338 0.07579800376530708 -0.07027699505401727 -0.09093008322012493 -0.07298533346049507 0.03760678782833417 -0.006360599466598032 -0.14094449349138466 0.0015953822668065964 -0.029350503584586827 -0.0512570794511759 -0.16300211815215154 0.08362206402869353 -0.0041774066659061755 0.03260676704266825 0.0680470537742927
cannon 0.0735793714027429 0.11690975478857663 0.2651043919306693 0.02840064510433454 0.2135105676780052 0.016574377969135145 -0.030294490763455775 -0.006689967164987453 0.0957692818199712 0.03166947760209384 -0.2252773045077383 0.00343642921916281 -0.09298385800273345 -0.20665946243653815 0.04187578536943114 0.03045180869252908 -0.09652148197641783 -0.14571183206077193 -0.07492389772641497 0.15268739193256578 -0.00994102279255165 0.19476701002317115 0.08167652741456959 0.16142904688928442 -0.045794286861886864 0.05689351181823588 -0.09119305252935955 0.145762679027503 -0.04634187111519866 0.0679957230495424
canoe 0.2141813851680227 0.14342417764677584 -0.06171764384190299 -0.052270703022810124 -0.29615725548487765 0.13170022457982458 -0.09030359484941719 0.031214032370473703 -0.10398326344503632 -0.021465618739682828 -0.06520939536999515 -0.1936541006460852 -0.1200334380036907 0.037821764520546655 -0.12111876611455118 0.06898692859947714 0.010650223532405509 0.1942865484896565 0.25891706270190235 0.20557282803385266 -0.09165199617725846 0.10810502038723031 -0.033614043478504864 0.01944564315484221 0.09446772726348257 0.17697427082502654 -0.18432613736871928 0.14996328990631622 0.038684859293983485 -0.037410749413952664
cantaloupe -0.04716370861847114 -0.05787203595661244 -0.05551541018281938 0.05875543892562651 -0.01699174998133062 -0.05916709541205484 -0.1276220667793373 0.1723340366280967 -0.10597483102314949 -0.1788261637127123 -0.10889753680079146 -0.13309928834222542 0.012575827652007779 0.03282801464401929 -0.0872795436800334 -0.07942288864065701 -0.01471391568300359 -0.06135919374611191 -0.2155374661193009 -0.08415343000420855 -0.04976426328959137 -0.05040392312415354 0.06624126081071365 0.19202403213838892 0.009883522168966008 -0.017184402156660075 0.02475947731215061 -0.01046710828532075 0.10694382581273071 0.1314042332096278
car -0.17869531609993516 0.011733143065746252 0.03611776907666784 0.12394625432945822 0.20324776003183492 0.05905822495698241 -0.09318017763736272 -0.25265132184736894 -0.07456659833976623 0.08944322957075201 -0.012287675927695066 -0.04666121093890204 -0.1397808160685591 0.2803801180496767 0.1579243256656686 0.09906277419027766 -0.13806718450624375 -0.031042668725515466 0.010133091757360739 0.3499639410699729 0.14789273455534738 0.053601920679084966 -0.06479858628501306 -0.10449189194623199 0.06907687387498408 -0.07593327654007911 0.04765970238454749 0.2120459419680963 0.2329464337906625 -0.10069067498692114
carnivore -0.06232349416721745 -0.15327869842347241 -0.13127320408195303 0.11937224322337316 0.05023277039767791 0.24305978994789576 -0.09464556101241199 -0.15610057021450768 -0.24480810521272056 0.1718312506103802 0.12717661827811635 0.15876049862510988 0.11139197869767929 0.130633860152098 -0.2738257320452078 0.18362360044784115 -0.08836421398447575 -0.005855864117936538 0.09562461749107434 0.15778479303680998 0.06344948529177602 0.12178031570907864 -0.1923515962415961 -0.19589423839658762 -0.025411219310187284 -0.22785803825939888 0.17531597592211054 -0.056982534464993025 -0.05501782815071012 -0.00624277702962963
carrot 0.0504537917370277 0.01607053666983442 -0.07917411233786194 0.16203136163324594 0.006318754887580992 -0.02463552016363739 0.16280626869279208 0.15965835827217428 -0.15618697651756117 -0.09511682220612412 0.16006911686490524 -0.058055815217242596 -0.08570621358580752 0.05861680610145321 -0.07912386563003712 -0.10249711790412258 -0.031683373941563335 0.050555891041023204 -0.07402889421792308 -0.042493779011266795 0.046406220668732116 -0.019262749526166998 0.21394231026700766 0.0953960187721613 0.047719026297011975 0.09933857051940534 -0.04379667454346642 -0.04378469398686963 0.02157822131659981 0.08231245368802605
cart -0.05325211581493477 0.03804319148041201 -0.07386729541475613 0.05352278256199279 0.13683163461577053 0.08088630180092575 -0.10293657303179513 -0.008799202253589666 0.1043782035185177 0.10792349474381267 0.02736807166280401 0.05929833503049035 -0.19678218683354554 -0.09122627689932501 -0.07846979342333257 0.19608292076313857 -0.15901300099026083 -0.054548047741284376 0.0025000298878624675 0.19439978649470965 0.12098114105068655 0.15500358518859247 -0.10083706443206451 0.14544321172519575 -0.14458254726597783 -0.05653878687718175 0.19484225760451548 0.16943071225272752 -0.029331775868899117 0.05173444618534279
castle -0.1612438614308053 0.26248125017046103 -0.17663320882376032 0.04650859624808632 0.1482856708453352 0.15638462425840405 -0.08893238798615771 -0.05118893569764499 -0.05451493529627002 -0.16933183325434684 -0.03900850591510847 0.04180187398489462 0.021050957851146104 -0.16760926037164775 0.10440149600610864 -0.1918835675161944 -0.01826993497428907 -0.19648651790600824 0.004040860238902472 0.11180600965109508 -0.09229074354748538 0.09362345133686555 -0.04489682249590723 0.1334460135461459 -0.021733303813806896 0.10617577740434452 -0.17281739769101928 0.042053784431142355 0.01196179984589609 -0.013487583635674911
cat -0.10799143209602816 -0.15691675320946155 -0.11789426764200268 0.10433690998688464 0.03420787342967078 0.21140599781488292 -0.08400646448206835 -0.10299657219267096 -0.1339512133715147 0.11055399072514659 0.061590056878774495 0.171458451910273 0.10419550790098639 0.12006661797830503 -0.20242362739710118 0.10930639233910204 -0.171644271165697 -0.010663448124934761 0.18599421793763335 0.03357980726810241 0.027622103422028903 0.031085253359113704 -0.146239454507427 -0.09102106945541377 -0.015884530188049847 -0.1837856188797015 0.17235296955711096 -0.11982876401724495 -0.01405099632840215 0.1410620522034204
caterpillar 0.10097255989698752 0.017869697167568692 -0.13959179608439604 0.19271001560949844 -0.02384167246633637 0.041486107861965583 0.20659470240216973 -0.07297438320704144 0.03252135973191182 -0.18325500209974588 0.02501682300995135 -0.0763804077576097 -0.06288439941273784 0.05963828476913392 -0.026767337097721312 -0.0883933489698797 0.18542534754082182 0.14553374931349988 0.053839140696421636 -0.005506305741126384 -0.19847682672790576 0.035409678999206405 -0.038465101968646165 0.19691341846172375 0.061947763093995065 -0.049366011725181125 0.0331854946866818 -0.08221999387522026 -0.022671937043538957 -0.1192088547656894
cattle 0.05526370457607154 0.010929323121396174 0.11757792911942416 0.014248634812736062 -0.036013476967934395 0.12749733111108918 -0.11639208642813519 -0.03774380414995104 0.23214189258941925 -0.05098752698236548 -0.0065477001796044095 0.1421170178204385 -0.1339634073928579 -0.03276955041294749 0.10438391219270803 0.10461991251785072 0.11378042255099223 0.09347291849910459 0.08186575576507456 0.09432109536210576 0.17474397323406549 0.2351150927178205 -0.19648265896677997 -0.051624826758318906 -0.22088885145891435 -0.023935523917533657 0.18925455618498424 0.024164780886927282 -0.04622598048289905 -0.10038476858234861
cello -0.17512745488955334 0.06763541529919781 0.06541742389992647 -0.24743057504136873 -0.007930847929690836 -0.17603333812841915 -0.04295984236773019 0.045348254202678545 -0.2193145667617223 -0.0009634078650445075 -0.041610737136405854 0.12432569338289384 0.12378179021434609 0.01813608525482511 0.07889105851868643 0.13827818853953644 0.09358038329155374 -0.01783330707153479 -0.07659487948545599 0.18027578122015656 -0.16871065775054928 -0.026509142138658216 0.19671694219417116 0.08789963927269143 0.010328062459562902 0.05531976838988029 -0.09180589643946946 -0.1074661782886501 -0.10915688821801454 -0.08105144445836629
centipede -0.11021615442819374 -0.1356970259347813 -0.21638670045667757 0.17293708827950094 0.0003125287993160473 0.010451400357974925 0.22599734642078914 0.03873502743772951 0.051174393349083296 -0.1543477480971114 -0.2846374249883217 -0.05758043831744684 -0.07204597548644594 -0.025584319403871444 -0.05550037045679445 0.0001341020380979157 0.20224013278365394 0.07722345994100212 0.009882756578643948 0.1344841465950623 -0.13007289607159997 -0.1679430930270797 -0.04509793047455203 0.0621722612906641 0.013295720585403932 -0.32839113794851327 0.052259105335767005 -0.011133957092339785 -0.018637496743311478 -0.03653932742065695
chainsaw 0.17550549636637305 0.12707754372598581 0.1852531153945708 -0.07597860286167568 -0.06313467913095025 -0.10217022373620128 0.09347658253204263 0.1771459723140716 0.06636304578934561 -0.07066250365620184 -0.03512464767849807 -0.05946416532823597 -0.2345753902412834 -0.10118978978069737 -0.032541620565892514 -0.08613434843388255 -0.029454566560536997 -0.0609306099397211 -0.06785274898745018 0.09518116737378837 0.07434614454634009 0.10448123572375476 0.042957816438879616 0.09190793014406026 0.04184197118534396 0.1381822296803362 -0.1080838007906023 -0.09031478187129212 -0.038835078283083746 -0.1285774853583396
chair -0.1903787132616816 -0.08904612213997708 -0.07657398267349291 0.03292598194807876 -0.11061106976461599 0.1540861664007519 -0.16344382088427625 -0.3365191538045546 -0.05733645257009258 0.21828540302489113 0.028667207717020183 0.14021414066730215 0.08248984084487045 0.16033222833776561 -0.0334188493892403 0.021410100073735044 -0.09709091732300741 -0.22368658355083587 0.07667983739784767 0.037533190045342904 0.011496302205211306 -0.1969029253079219 0.07154169435303703 -0.07088236889688442 0.08727018601082616 0.04743973275048815 -0.08188938916849481 0.04689159996423507 -0.045028647939212685 -0.05110975612249274
cheese 0.09155140612312768 -0.058329191492029316 -0.0334362366409352 0.016070491830134172 -0.14272425279696951 0.021229720115447857 0.21705154593372586 0.1964837907789007 -0.0037562433224885357 0.07978582773994519 -0.03513857147702345 -0.16786705261509186 -0.1533135833272658 0.06166598023601559 0.07236644838809171 -0.1549130410004138 -0.19969857641140604 0.05743251195711888 0.0961962567175888 -0.026331200548202833 0.11753266716423516 -0.05003385626526805 0.1212360382590991 0.010829674943785901 -0.16679735781073854 0.18634658504555118 -0.009549267966112471 -0.011707263003047426 0.037123886562692575 -0.075785918799853
cheetah 0.11796186094587087 -0.05961287283827229 -0.11504150249924527 -0.02160094327625444 0.30929528213297847 -0.08193498536596264 -0.04360738164465743 0.18198432307514606 -0.30819946839989043 -0.021437853788129253 0.12090326620095697 0.19157823845644706 -0.016839167079538 -0.20635195821902008 -0.11204273993692693 0.13537931508035073 -0.0980463307544401 -0.016526852955318073 -0.08021765666096588 -0.12863139477408206 0.05281182128338353 0.02552641096009873 -0.08943526802771912 -0.1706149328162868 -0.04225645745098134 -0.20754478253981962 0.09150601942595206 -0.058450003654971196 -0.13212011277226396 0.20736492180434538
chicken 0.017816077411553957 0.09300120742455056 0.031687458812684435 0.07123827778812226 0.08766737105763953 0.18703588715559025 0.02189806713469933 0.038875740251558016 0.09853144388481701 -0.06601207694922158 -0.1202011424834839 -0.12528373193263537 -0.050063028851781655 -0.012757500143350996 0.01812531129301681 -0.017473758250575528 0.05608255882624724 -0.053122841884365564 0.12790579914170128 -0.05601091446450634 0.0528701139073965 0.04036302506636102 -0.19703158248806873 -0.1692908732414202 0.09973898300980055 -0.03467941493830517 -0.0636391303495939 -0.20797264251467243 -0.03334796036912389 -0.23973775701320413
chime 0.021520923533516357 -0.08804180618721133 -0.042240760553814184 -0.050209760453061754 0.22757957040643315 0.18170034108346372 0.00738324901371793 0.12501146107118785 0.05122845137524061 -0.04463116734203559 0.007721710008492243 -0.03492930185418424 0.0683979020232243 0.06630417934491267 0.022179415318324007 -0.00795491553129563 -0.052282819211387214 0.03185649329993215 -0.046964945706955606 -0.05513940195471371 -0.1466741017367124 -0.09671182055714987 0.027910885284286428 0.09160259045146843 0.03161707420938143 0.02284819709449321 0.05660344066968105 0.031633891307826685 -0.20580542915154243 0.06432169779477942
chisel 0.10776494143845466 -0.022571908745892728 0.024747192992758228 -0.06331866650521667 -0.03240076286558148 -0.028327991106271624 -0.18721032031614432 0.1632495806097598 0.05054474485454621 -0.1757804961085304 0.1449220233032263 -0.08153303966697122 -0.10324167543507382 -0.01760304893368011 0.030129640597823585 0.017463724454005694 0.07692187674839455 0.25453761891387 0.15518512575382712 -0.028261567167902162 -0.06754484774800214 -0.00440208951572436 -0.18468423501495448 0.08656883425105477 -0.21097960912069205 0.08650593655783309 -0.09071950957250127 -0.10996529941346223 -0.17567503753260125 0.06780724408996712
chopsticks -0.022393743301808357 0.01804212617481608 0.18726691067592627 0.087377510865982 0.0057013517008765 -0.1252424773787342 0.10866510903630924 -0.03187230989959347 -0.03281404593699122 0.0625950999369279 0.1097898474847816 -0.15401776097317457 0.09602788167339739 0.06159875009180728 0.04552374187308274 -0.0175486055547742 0.03318208188185895 0.07157811919043562 0.1468216375689145 -0.1084210130209961 0.06987339385180336 -0.09515536971520482 0.17934611804629283 -0.03367195005128108 -0.09588838703782238 0.1523591044600871 0.05324502676215977 -0.16688904637909463 -0.1030941247386768 0.1235902509999841
clock -0.3317836477095921 0.21288828474094326 0.01670680147583216 0.06745448750660084 0.1314218256611754 0.004795546903391779 -0.09660340922767455 -0.11990700582424269 -0.0562184085422035 0.039377657833344036 0.1854631658792948 0.04278941683723211 0.006974969610456247 0.016575120394533932 0.07304088287110216 -0.10455460510498873 0.08543071868535249 -0.10153758555754554 0.11837227110467194 -0.08661102373443622 -0.030001299661379235 -0.001629610537980232 0.1431709717954 -0.07870360029728103 0.08542614458068425 0.05005575789881534 0.09281395919336813 0.11455155979040073 0.1276436814261319 0.049034244630384936
closet -0.05518893271891422 -0.0513325496365248 -0.06838177531374182 0.21566874582290105 -0.0382541931715548 -0.28473633089304534 -0.16819623607028003 0.1100521223371089 -0.01497404723710571 -0.05798306296240768 -0.033054871879300805 0.019232506386219754 0.19762991035207508 -0.03675023375275739 -0.027322588902794365 0.06383142377521354 0.16150023172236053 -0.15618666869771475 -0.13186863664833182 -0.12596601452193723 -0.05043814286712074 -0.1249896149692408 -0.004805649232500563 0.11652963730977675 0.02008341494653086 -0.008100652560549098 -0.02873053027852815 0.2562094917826873 -0.027569765014086024 -0.2535917240289621
clothing -0.16219907021624497 -0.08350667781980088 0.03775579889533209 -0.0033252768702195946 -0.17639423299525625 0.09349129070825776 -0.13190785761724697 -0.3505827727691661 0.0040152118756048025 0.3163853248249456 0.22649363276668363 0.22068768270018943 0.006444838101026913 0.14117218427287667 0.11519902001905195 0.2463833946165394 -0.046670367433199626 -0.1304107974863404 -0.04729004554437389 0.24659315707358706 0.2094242277319149 0.11558020328442273 0.053553618535199056 -0.20925027022731874 0.284739983933646 -0.04308687446321894 -0.1123074028596318 0.1049528520045932 0.2064796934488379 -0.14031163472635605
coat -0.07681739313866191 -0.09809626847048349 0.08101646633069978 -0.1521871807219434 -0.022774030385229235 0.04116127957403805 -0.025795419445816238 -0.08769353838430757 -0.036088098469388145 0.054587231390893214 -0.06790305612417596 0.09636299083206233 0.07683341772668172 0.2532016032021145 0.061630601529046 -0.057071728767544065 0.04053853468359853 -0.047564766907824435 -0.2059350668346192 0.07695573368804123 -0.19019533861819798 0.07326330807188455 -0.2073445441445294 -0.053202804784530155 0.14817001571692529 0.04035591366970527 0.03530138273780723 0.32293841072808943 -0.10000899194184014 -0.20203233099447418
cocktail 0.023871536603140685 -0.2560164336534371 0.07759182583143596 -0.24508563105930115 -0.043951982328833475 0.06866765304442451 0.047204356469830365 -0.04928082432968704 0.0623125270044162 0.06813748801100375 0.12133942190908967 -0.09182997596797814 0.1713041553574447 0.007253439331408359 0.19458079929215433 -0.09738066110952795 -0.13828248783290467 -0.2191025605330921 -0.06258436615603427 -0.08649034556654979 0.12719762515478442 0.17457485750546384 -0.05585236863496402 -0.03920348401672693 -0.1091275502645372 0.1602548191309448 -0.06816604139328444 -0.13114438084552796 -0.0419711128351853 0.1345181266394841
coconut 0.013110974804937437 -0.05427114016035667 0.0342584736490459 -0.0599431489152784 -0.09169183106551869 -0.04197806380947972 -0.13046123083455832 0.11198993098705454 -0.1203790438881511 -0.057320159494004166 -0.18163013950154522 -0.07736215755414465 -0.2792256511952838 0.016315334112889306 0.06953455713662278 -0.06825553783432003 0.03965789574961699 -0.017757841893857186 -0.12015673072555717 0.0007659045491344207 -0.08958493784071857 0.062046149579245376 0.0864854170236483 -0.12982103669683395 -0.07276985978786679 0.09427939886085801 -0.003921806191436535 0.008819662810748431 -0.013696645888230942 0.05288751222653807
coffee 0.04682109316635599 -0.10023178089168999 0.22787812089160636 -0.12632376038055337 0.06337001598436681 -0.07989335822955586 -0.055565795472529336 -0.14849345361981253 0.0746279497026187 0.06685235840081014 0.2448796742019561 -0.3585421785355226 0.16562187600513734 0.0005273011075581568 -0.10663593770422934 -0.140326008424644 -0.10099616893688856 0.0005699698854001749 0.08059580144236367 -0.18252202050910488 -0.0490389742773144 -0.08777843657216336 -0.13228772967500135 -0.018074855692941386 0.10267499184572042 0.14261024161239794 -0.2360682163069799 -0.08609118767326235 0.1264240857597044 -0.03116223821194653
coffeemaker -0.00680035224884242 0.01633686326031861 0.028688855851398225 -0.09986964512229844 0.05485854513349849 -0.11630822364827734 0.014216721109284427 0.05833557101872809 0.059851320485311686 0.03406451262645395 0.0013971039488299597 -0.17290419334539014 0.14912411888949867 -0.14814475029513718 0.04566456192928259 -0.10251297796858196 0.020190304176711468 -0.08024435888737069 0.13227522722275997 -0.2960298493179479 0.1267581714977641 -0.10259773054351605 -0.0009740209823598018 0.025797152291587445 -0.13240441054509566 -0.12584191628483646 -0.0665651194028553 0.07821568772498659 0.0634565837790863 0.059555390294249194
coin 0.012565939557516129 -0.022269430161703355 -0.045432269912024766 -0.0539590678847586 -0.032753942494542596 0.04282931364367954 0.10230184652921465 0.063763339626961 0.21978506843262802 -0.09546812066614936 -0.031565871569556564 -0.0009179731234080788 0.04758449936769362 -0.08294862196648657 -0.045635276556067264 0.031808300721790146 -0.05424831803838898 0.043852805991512187 0.020544831508829332 -0.017025618631153483 -0.0767958895401606 0.0637940073926659 -0.15054364774270937 0.05713186196647689 0.031298499430740735 0.006071182811623601 0.03614332783710773 0.06805120067196486 -0.0546269247877849 -0.04071041811497641
container 0.014677008589055828 -0.004133373645659611 0.028124322169891563 -0.17214975191947648 0.13285030978948248 -0.04959351972839063 0.02393959194810959 0.013303001833509463 -0.1025873888686177 -0.03783910457605756 -0.07984334697516562 0.027417716427209374 -0.020611042635215557 0.10302481736121123 0.05049412471915662 -0.09539292670828413 -0.0341963991874015 -0.08814862933493674 0.03983651017323123 -0.12327310151273092 -0.03693745386782059 0.04677784262169825 -0.0012179373607953908 -0.002304585566254754 -0.17205298175158934 0.12820738255935016 0.09167132616231723 -0.11221868005565093 -0.06337217613718432 0.05954031339426313
cookie -0.08800085588144968 -0.027186683759588257 0.16233466895779503 -0.010986109102583751 -0.17801055853216036 -0.12711315427196818 0.2529558510838509 0.17710901009933153 0.018092605089746763 0.2242084562589912 0.020611176523627227 -0.3074314324857417 -0.09494154879800137 0.045711432295860464 -0.1802215836139053 0.04892831546321785 0.04809201041512217 0.05293412935195587 0.08200991312516064 -0.08703459371399792 -0.12447022401057901 -0.0746574682129196 -0.10605463208921256 0.015105953678519801 0.04117654112602657 0.13401315789744792 0.09799619393272059 -0.02728088997568706 0.15964293173736904 0.028714538626525545
cosmetics 0.06732013989910218 -0.0983589158605306 -0.034554032732332735 -0.10299917035762189 0.07564453703246353 -0.10177090430681295 0.05576621352548116 -0.0022762371619388746 0.14945042876813455 -0.02334604780158438 -0.006195913717595803 0.10981776435442761 0.2839157921368364 -0.025478722071470956 -0.013323173682994358 0.200277628392153 -0.18723957093609786 0.0031364785744152405 -0.125850525350472 -0.13377346380180363 0.08021960261113072 0.017272463478452172 0.004060083509791986 -0.019055952196498614 -0.28990539776633784 -0.014032413088102361 0.1064271680693328 0.08267085460612271 0.11721943957546445 -0.0717170291015498
couch -0.16216860944728329 0.029442831461823672 -0.10832084937833311 0.09276346282039032 -0.14331005982300102 0.20447992734297285 -0.07613789688928528 -0.2350831245102185 -0.08045366536309297 0.09361188419065451 0.025342843754338235 0.14851684899228657 0.08215592942325253 0.21609580568494488 -0.041397821527509975 -0.017886611864002533 0.07734499808097155 -0.22721324794862197 0.16270827452338452 0.017973999713059713 -0.060511810389738255 -0.24689853959971453 -0.08406068179692337 -0.021666786420502748 0.07382788802303561 0.08605971384104355 0.1292411112426708 -0.08907380069859361 -0.14717389563212357 -0.055457503534790474
countertop -0.23726704576339255 -0.20877903805562473 -0.09788717806998709 0.010246201932917542 -0.05042247540077289 -0.04083157398856028 -0.11890427341250193 -0.15809149237064285 -0.14509563595563324 -0.0905031648743905 -0.09994492789896027 -0.12425522052669437 0.14634727741015324 -0.08679380998141512 0.021518385147856634 -0.14215031725845853 0.0065263726107257815 -0.19320686122180236 0.05751252840020636 -0.13864807625864206 0.14616772625414795 -0.2323956558820763 0.20680961031014097 -0.1724256248205655 -0.05394670631799422 -0.14787574106176643 0.029979236058848974 0.018850010318592597 0.10101769501773554 -0.03990032301609023
crab -0.09941057051152517 0.07284081439076066 0.00493651634804749 0.21554737500703824 -0.06490984931343978 -0.1672249495546719 0.25998403990628005 0.09422494291461213 0.06748182969120947 -0.23140392243448699 0.0974458687995525 -0.09651991115811168 0.11597001188462724 -0.011321300467556932 -0.03136934338210209 -0.07547862048110582 0.1588413293029949 0.20546025119277697 -0.11986906929836272 -0.07706265099191291 0.21618462940147215 0.1616670476254541 -0.07971108863518855 -0.023071846453608276 0.1008637724844597 -0.044379099779670673 0.05203645443085654 -0.15527422136701077 0.04955028248611231 -0.10937716538782355
cream 0.01631604589568574 -0.06149797727401447 -0.028979613624848726 -0.09114867187157145 0.05068174009337382 0.041522770978715845 -0.011481917884972532 0.11063489115724397 0.07574021641670471 -0.07701486482866804 -0.07502975837924708 0.01923637104708802 0.18068781955958246 0.0038467496309076586 0.04105480861341588 0.03104303490187587 0.031762259788756624 -0.008966011935795501 -0.044331482358722835 -0.1305690538750328 0.08898598365930988 0.059854745188944077 -0.12972944224520605 0.13521164407696062 -0.2876804865301787 0.13718908267618973 0.04894924762559058 0.04588490696955035 -0.09019537437935826 -0.07321127543261521
crocodile 0.17651876164583372 0.005188469756835431 0.07757158162012603 0.1023630285451686 0.015899872956738104 0.07348486230021964 -0.03897578236903539 0.1612280323936686 -0.14446584578310098 -0.06413343460425912 -0.006056801668337735 0.14872558790517126 -0.0942816599224951 -0.14167592193964104 0.01911027639294217 -0.1682430513060319 0.23277843109269075 -0.034228892707406214 -0.11212058954848622 -0.0784873176853501 0.027698286828432027 0.11692477468459013 -0.11832774816385717 -0.05438269912831093 0.0562235942811156 0.08816634756423443 -0.007575156297654288 -0.03825966540270204 -0.11676192686878054 -0.014768092969026014
croissant 0.12791443313761616 -0.17465515304481027 0.15674539333831744 0.06312297796674961 -0.0987026013655416 -0.16186311434344153 0.08897000228065904 0.07876513059809288 0.05118682165765965 0.026012920676909673 -0.10374118190855684 -0.2264219383391234 -0.0070494655497409025 -0.028338917437975085 0.13613103864053938 -0.11455027889126483 0.06865667373713166 -0.054264613040945854 0.12880001555022 -0.07526214406128703 -0.1587890264587493 -0.2145702342736939 -0.13324145871249146 0.0646334127127705 -0.07330060129977534 0.18792446861976564 0.05813804948737063 0.12373656783031009 0.19368947630481978 -0.03912917755937637
crown -0.04387716874499988 0.0007556722569368095 -0.0227605852200876 -0.14046675837745906 -0.1570375083890716 -0.07496204309065028 0.1072181359296324 0.16575805248225317 0.1458453377290218 -0.07165999938770007 0.15101094998567222 0.13034696095164605 0.2257580770592664 -0.04421378724784621 0.2089548347441846 -0.08950604071795122 0.012982438140156989 -0.07703731217568972 -0.09589531070155953 0.02602495804712559 -0.0996701836039414 0.02349810155523799 -0.0940857616381971 0.03271664260772183 -0.12644106566336902 -0.3053196635349538 0.028711636148932827 0.13051469499126314 0.11452288229338237 0.07085925965543265
crutch 0.10588266269161616 0.0332728500925193 0.1118318631852911 -0.21290402542627995 0.23473918918238224 -0.07846776275815033 0.008030016932671464 0.026130590484253684 -0.16168834881203514 0.0215450145827078 -0.11152097249536605 0.09604661599784664 -0.06685383115843127 -0.022813156850832444 0.15734250136550132 -0.0493905224523744 0.011867552350910254 0.09455953362506499 -0.12472712117176564 -0.15861537005601417 0.13341813921074488 -0.08355645199357872 0.06300420984805545 -0.07075428411825047 0.15312780102792858 0.028441115019096647 0.1536275935814054 -0.058733658743302206 -0.16085328387383238 -0.011526211180282485
cucumber 0.18593740457077915 -0.0839622827682706 -0.0864493797128689 0.14187398319235328 -0.08223092087201403 0.06657485653876195 0.12444172515652956 0.11039865097129672 -0.18956480094780667 -0.050164037409685884 0.00446410097840981 0.03259953006807618 0.07797223332286275 0.019680965727164556 0.0283679140828758 -0.16518845798815426 -0.04235559557427785 0.05130511576348428 -0.22059867636677874 0.07552285754188388 0.04007896011441032 -0.17056375812974872 0.07226633007233628 0.1716863448356425 0.04041117691861564 0.1812964886496945 -0.06351923928168064 -0.2518175112921264 0.03639031332319799 -0.03166236153489876
cupboard -0.16735877815436528 -0.15298594445945157 -0.06749649248991857 0.16037426431773164 -0.027728372133849905 -0.17866330675277103 -0.15429148536425316 -0.06704213664525475 -0.1469031953020187 -0.16258073510647245 -0.22210017546603755 -0.05195944060130056 0.12911673021949324 -0.16930309951390962 -0.2153156480516491 -0.05778903265059323 0.007073672738319887 -0.29813695323303585 0.07185194719541663 -0.16338475511743947 0.06620232022193975 -0.21807937782607725 0.10613620217980929 -0.05335635224729616 0.049876939583454884 -0.003539629587896315 0.06103046872677634 0.09846615647970608 -0.012994526147539194 -0.07999736804529674
curtain -0.15115442042472546 -0.06775085688087171 -0.0745891054451517 -0.01482043907338242 -0.12800713620863388 0.13453095092333323 0.011941388248844012 -0.16577099067887074 -0.07372084367659558 0.04756096309239859 -0.044279863984422956 0.23010187063928672 0.06958426632878453 0.04014855207398312 0.019314115608493873 -0.08484241040892103 0.07638620011965423 -0.1341666653963136 0.24200485022439122 0.1005098184501499 -0.1536516800308667 -0.29073059438960525 0.13775392939205147 0.031044183068481186 -0.07238098123962255 -8.290000660133148e-05 0.10564425546802006 -0.03331090025739127 -0.039735988976874276 -0.1357377023302683
dagger 0.12972409404093002 0.24122618210698546 0.13470719228553663 -0.0029054456155304404 0.133360633928087 -0.013168847044003453 0.06854145215700985 0.12798430618585208 0.028931074043294383 -0.03309060226079542 -0.2613768891612068 -0.027926019334593592 0.0814016515189637 -0.20824143893061312 0.025537152319868365 0.024799525720199226 0.034563052720285606 -0.10663679699172803 0.15402045392352745 -0.016229724783533225 0.05652494966481361 0.051001877595712994 0.3967791168466243 -0.1343689790518076 -0.07241104452309778 -0.03780314711782608 -0.07856408855684478 0.003939574105846685 -0.19304548387249243 0.07433422732698095
deer 0.30038328338564674 0.032607325581205125 0.06174270206168722 -0.05252858845801955 -0.046764282661970205 0.16099487344725386 -0.11427625150625795 -0.06442823273135526 -0.04703584838321069 0.042490284032243524 -0.15714213700827115 0.09761586508535543 -0.005881501673803448 -0.06239168009521388 -0.12834541432421542 -0.005036077281290471 0.028190034109023574 0.0604943820142485 0.15138744709327911 -0.043170791246689384 -0.09547966334678425 0.11576536068211124 -0.21182219847189898 -0.08906161555620594 -0.09269546877065983 0.09281744724169176 0.02976118083390685 0.10584694247711621 0.08018043536201808 -0.03797247905180491
desk -0.29762240693405106 -0.13844573646108566 -0.08454046550293833 -0.01980287242004553 -0.04971670646783053 0.11222053921583129 -0.11237933269991848 -0.21374408862160515 -0.05641663967044637 0.16967421887590725 -0.001295661479131375 0.2345601308233174 0.16402894307943586 -0.06051019631934828 -0.12168998030708011 -0.024252312413264022 -0.03875448726102933 -0.15608483370318602 0.09354696478889557 -0.13776665022468734 0.0343818321211091 -0.2810068872570586 -0.022300209431661083 0.01016777896334804 0.143207067030098 0.09029044703582996 -0.07304414857400374 0.12903065734684974 -0.04951351013458657 -0.03555148547032965
dessert -0.029744692306985548 -0.23233854593654854 0.15416668066421838 0.029154183134648588 -0.2445674489074265 -0.07872653761632945 0.240601451194977 -0.05983370979996939 0.16887596165397376 0.33748634168167235 0.0722222898973521 -0.2103550869747964 -0.1407105857828659 0.015857550373306342 -0.13058340716192865 -0.03979001614312818 -0.2114682397302119 -0.16045235700230964 -0.02565049095050436 -0.042121992338939936 -0.04697288800924136 0.11162935496909583 -0.06095324872108961 -0.15982294211615486 0.05841665158136055 -0.03773329986620697 -0.1269097287878803 -0.11769736812889812 0.14803279784112527 0.06847551951568752
diaper 0.0055714661624377045 0.15122358276491643 0.030439740064215595 -0.08184259211378908 -0.09056478261393654 -0.027071755936093084 0.07167369288724072 -0.025397204421811283 0.15464894073493216 -0.10245134246711132 -0.09615446694516623 -0.03645218976939835 0.017969035438325016 -0.26375912624617404 -0.050710571957564975 0.06898635401649672 0.1342166862543785 -0.0050493690175526474 -0.03992879536829783 0.0450112104379386 0.11097137030389098 -0.15963918831013604 0.09856729141781179 0.1847748413854931 0.06645084862149776 -0.03417824870788849 0.0570544568253072 -0.055932739875777515 -0.04590597515005711 0.07105189450286628
dice 0.04984648113972918 0.15320206874147552 0.06052923003305101 0.03503664168763242 0.06438332061882616 -0.014012845490358961 0.03346097896805276 0.09500972487836117 -0.19439636690711243 0.015941516066715025 -0.25945268159879753 0.10086243995768898 0.026501419535480467 0.03078214700650706 -0.10007106741000697 0.008006586437122458 0.08951084817127256 -0.11114330640411402 0.033668845944969245 -0.15409159167021683 -0.035669912990402425 -0.13042171459507607 -0.02176656745635141 0.11162866487483687 -0.04431500723681127 -0.0043038967747196346 0.15206412967869942 -0.1502330664268493 -0.07920532571297757 0.0952133449592716
dinosaur 0.04532170313696591 0.09364854992648451 -0.024577532701403063 0.08327013197899079 0.005794046988904283 -0.08908696927217198 -0.040205783497108176 0.06600800707244671 0.07855679070269575 -0.03582686578489902 0.07865235357916964 -0.0516075970745439 -0.06083285481666911 -0.11870870678852764 -0.06691138773732554 -0.09402731612583388 0.17394903638201642 -0.1717273122459787 -0.06028710469034134 0.048365381876604496 0.05194938010078168 -0.004985783178327914 -0.32110164751487535 -0.07190540208701215 0.07092369376803129 -0.20509877492119702 -0.013288230936411927 0.10011773622440845 -0.09740706768953229 -0.16874691210107884
dishwasher 0.0037193274413218117 -0.07086658425366549 -0.07796522123106958 0.03799239492637924 0.003380532332986589 -0.10167260339116374 -0.06160193135977474 0.09236578916498536 -0.21710174538115107 -0.17130332978314416 -0.12247057996512527 -0.10947179076561916 -0.024262119990260782 0.0024219019044766387 -0.11730274802462831 -0.09290767428499927 0.20673332446449388 0.06862561273907812 0.04773654602294162 -0.006504026288054447 0.038496601876848384 -0.1451508974260004 0.12073634784113212 -0.029036926890775756 0.043755733931109264 -0.06662989653520471 0.015515354128756308 -0.033060075108941184 -0.030688396785780794 -0.029722533973521925
dog -0.030170790845211067 -0.10166091044197505 -0.07978919948289538 0.15966052206206108 -0.029523137170171503 0.17491289465882837 -0.0722504888317959 -0.18274374688631806 -0.12171568132058895 0.11628933635764507 0.08752069555787324 0.11532750352161637 0.06479695900097014 0.197515539460293 -0.14287362691899022 0.19343102353353417 -0.073789735653278 0.024844131090213505 0.09292288109116881 0.1785705448702832 0.046091002871476994 0.058548686590463875 -0.1714381767924747 -0.15229322893282124 0.002653757043408007 -0.1104466737146162 0.1610571561641529 0.013481686451958389 -0.0689136039492929 -0.09411171560317903
doll 0.01528933104543351 0.08855632006906405 0.15628120900014014 0.05917225952291829 -0.11692609878535473 -0.12345827128855268 0.07815694091424535 0.026632799622134815 0.13525383713405573 0.20813001878305912 -0.14182328249044704 0.15972301169830055 0.2894348741807066 0.12275546168065005 -0.043313925895695465 0.15607820256078492 -0.07127410117102877 -0.1910695699546565 -0.17624719856259366 0.08812008564348044 -0.07449418095961927 0.0014698730591172443 -0.0774794949202572 0.02732413017503714 0.0716897152039198 -0.23365967345163774 0.014862131990022781 0.05971846054750411 0.11128731894967346 0.0901919226154375
dolphin 0.038773834202164015 -0.07532312068875491 -0.23094501175442642 0.019785611574496376 -0.0949376030958796 0.015847260917170484 -0.07278940831242568 0.09482457141617251 -0.07149479114547534 0.055415276304667534 0.07718984311902244 -0.05391131866326662 -0.04767988690801614 -0.1995930362974124 -0.24499082827210714 0.0991867345650522 -0.14637261619713537 0.23086692529073619 -0.08995440604006796 -0.13663390316929944 0.17994997839260768 0.13829973381597896 -0.1771573396495248 0.01639046541523447 -0.09511457331219948 -0.008017662707127985 0.1212552657538854 0.075403647134841 0.03536295895421756 0.1046365766770606
door -0.23930827934981275 -0.0914245257419041 -0.07130083788723933 0.15941341989648408 0.013926062354019657 0.0940662278836598 -0.201325683232992 -0.219404880144645 0.005859997115221355 0.008591501742755974 -0.1895493884616007 0.10045813818547047 0.060863686628044145 0.11272455729957487 -0.027071080945117555 -0.04890421666945117 -0.14085995688904615 -0.16332099008052614 0.012842665705249117 0.09173333890931497 -0.08396804288318244 -0.02127284051827375 0.09097306752067714 -0.05271137104528172 -0.08648747353977261 -0.08712607428854868 0.12830468266259096 0.258646432009619 0.056755930868492385 -0.19194784871822532
doughnut -0.09330502814864564 0.013256161836330903 0.09189303092294883 0.14160255963760532 -0.0815693554735649 -0.0531293499053643 0.24463888050735258 0.14652662632079744 0.23883759464118196 0.07058365304962098 -0.05085550967727802 -0.3423371753839048 0.0258276511358223 -0.16626327219152864 0.009846888937704532 -0.012068144538837427 0.0153845491932759 0.07980396720304002 -0.03395771722933479 -0.17207567689119083 -0.0649043162420103 -0.16478856949660836 -0.1604714184143001 -0.15086317847556757 -0.09204659142377819 -0.008921001604335748 -0.07270490061456773 0.02606046394630887 0.19441707152001816 0.057252040610263795
dragonfly 0.18366709340816756 0.1801552211247197 -0.21054116082793528 0.4169800009067766 -0.06618836728385877 -0.10845263533405186 0.20252689103082977 0.1509542683158718 0.022596664653466266 -0.11789290587075263 0.07247901829560097 0.0630800119485838 -0.2030295882245895 -0.1536627146570456 0.06123152610064934 -0.07839906047955639 -0.058193089941923 0.1540341928937441 -0.13743644805154107 0.1262043113952982 -0.06577115731346217 0.1974637562092468 -0.07183856192954045 0.26643652656988 -0.0600702221087611 -0.0634781829516376 0.049188344984440434 -0.11670045878687992 -0.05960321481915742 -0.10361097330737654
drawer -0.2053240101322392 -0.18157731950085343 -0.049454295677925426 0.13928724209852786 -0.1080856122747016 0.00030109537065726685 -0.09759583997084544 -0.1144871456029902 -0.20250695987064554 -0.018436027652452915 -0.1821518765897607 0.040216800252425244 0.19302191226914853 -0.10938132023447154 -0.1314708466396784 -0.06076454209866663 0.06186722807856443 -0.11878750327854522 0.17285285975358464 -0.07913721039119712 0.019915493455225176 -0.27138235472113137 0.1412904797655006 -0.046040379997176716 0.03530053679282273 -0.06725028873405732 0.08259010512487006 0.054667537696675615 0.07244941348954648 0.002782798007464352
dress -0.08576015541982875 -0.047121981943051006 0.08538204549288968 -0.0032951530784339285 -0.16110330478448023 -0.03196153384166455 0.06263488079634796 -0.13221732811461906 0.06433756600888842 0.17975295532235197 0.09552871365290283 0.22533276893385176 0.14427756654670376 0.23940237111849078 0.18739933062095004 0.12693477134020106 -0.06367141988468242 -0.26223565480480837 -0.08777461137437093 0.2323485365991454 -0.15266660080144523 0.017158365466341446 0.017708694174799918 -0.09589158112139197 0.1468212569449006 -0.10020029284488599 0.05113279282265978 0.09623696341969289 0.06911140121332976 -0.13605632039940752
drill 0.012426284409276572 0.11172915721716838 0.05054905424524664 -0.06545347840744704 -0.06240244002591019 -0.1707698589298361 -0.05113410778359288 0.07149898964727483 0.1830879017375294 -0.010496813901577985 -0.09961074886335147 -0.07210446747586426 -0.12180595565927065 -0.17009736209683549 -0.09205314759731491 0.0016550782842521892 -0.14338059732712471 -0.05505953678784918 0.09187481812189427 -0.17151988985813602 0.08018557627929059 -0.016964043732023298 0.04785177187755869 0.048591378610597515 0.008887738379909428 0.05200617195483131 -0.031050405126450256 0.0951640831882643 -0.1071747107425813 -0.03864434758890284
drink -0.12177995962001673 -0.2748268636522434 0.10225512335973476 -0.13359992504952975 -0.07960355754857333 0.04453859962291488 0.0737802479004343 -0.17589361581981944 0.01930777381076264 0.24548735770965435 0.31988668098518197 -0.08647814086190687 0.1447554936504126 0.15021802516652985 0.08485402559242596 -0.05672759685277454 -0.09847629985678369 -0.21156842384790925 0.06452019752633498 -0.07168837960110644 0.1692810586442806 0.15780029307126073 0.00875665788819921 -0.16719318884492426 0.017994006906252802 0.1562259062402789 -0.06870276486498908 -0.08485303218946752 0.13708492986230675 -0.017166693556264587
drum -0.15112266881180778 0.1775672836389351 0.02587014852447989 -0.27219677014916 -0.03688330508378445 -0.09541161665458285 -0.19538967433333354 -0.09110155533213804 -0.12109760319565747 -0.006178523705776136 -0.0020087268288250183 0.2362625965812852 -0.011468356960863544 0.06793091427896193 -0.049783690900159695 0.1259136193190092 0.0478492609123968 0.0696904960347793 -0.2334684850600838 0.11224166948624469 0.004508582127902681 -0.016690853137835585 0.1782081289050836 0.1351366570625167 0.06909115973949712 0.13959128031030568 -0.1538892490202257 -0.0606706212607767 -0.05383548789376272 -0.018942971581966353
duck -0.0319766382491549 0.011195130717835554 -0.06056604574215767 0.1170026944961443 0.19397073213406224 0.17373181966508783 -0.009383538872750265 0.031701277753989905 0.11183899822820056 0.037712032289620445 -0.30420942143716834 -0.000361839766365073 -0.11144112411457809 -0.12763405841828795 -0.09606140698468482 0.17384553619114737 0.12091549167877814 0.19415714925406735 0.04075117150355304 -0.12808520248970018 -0.09048745028295449 0.08668245744946416 -0.002740052934160828 -0.1377944853610419 0.20274332474267742 -0.20222977977699283 -0.26782842435636534 0.027169901035991338 0.016344844756490635 -0.09581850253999956
dumbbell 0.028877193334512177 0.13841263340760504 0.20963777166136766 -0.0256852680050315 0.1425440598970503 -0.1061542483153973 0.0031255615803503075 0.1282148556389933 0.06318078092031991 -0.06492790183317801 0.023096779206400145 -0.14834520230553586 0.010540055801495165 -0.04279084430335026 -0.12031786040785176 0.01175263133943051 -0.06233292096080801 0.09564117427919495 -0.05587866793461233 -0.11252594402707077 -0.014222905679094518 -0.07298486502793386 0.14079449658840723 -0.015465851476374873 0.017616612146617108 0.0355792341592786 -0.12574853593946203 -0.008755226843923889 0.024668265617269043 -0.056033566263154144
eagle 0.14451469428276079 0.16520905844419162 -0.2207781830789845 -0.327904557850241 -0.07618888173496985 0.1759758102045966 -0.03479746216146237 0.05706492601579074 0.031135434099154057 -0.01495902532747397 -0.06831474876514254 0.05317117890234756 -0.1768932724515017 -0.16974245871893315 0.05628684993969919 -0.01582530526051657 0.012247587830955933 0.18586777440262842 0.03582685368340894 -0.10840598728250829 -0.08894865409340766 -0.06304504385575392 -0.10925402031815458 -0.10635314725278712 0.0588981599899473 -0.07340752782317465 0.08296917247194874 -0.1663157542426365 0.20832519101393016 -0.17321137463289807
earrings 0.07644595802102916 0.056691569401242196 -0.030988658757866126 -0.21251861405341754 0.05507897641648462 -0.19445511390247355 0.03146339991389451 0.16995938749304168 0.1741207865831927 0.02170359554980223 -0.010043622420188428 -0.029948872660827814 0.19852518934555757 0.09823801377737966 0.17619364017491995 0.15397770034638503 -0.12136265622765331 0.047486980374633586 -0.04464140690865839 -0.16589980714570854 -0.017530634283843518 -0.06023265300612027 0.12088248082215086 0.070085307902931 -0.09620676110596992 -0.1665334894077772 0.12408288305250002 0.09261711425608318 0.18837455225199035 -0.11512626165685332
egg 0.1625281068487351 -0.06347133922974822 0.08270855811102121 0.12439118620229175 -0.02223812943299656 0.09303831467369843 0.1771772816809254 0.09814762092189927 -0.05014198887833125 -0.00979557768060612 0.028001439204714325 -0.1813573164752474 0.021577418523075566 0.006832562217629855 0.031119312555588502 -0.07373387958357905 -0.10235819821446088 0.13910863649051358 0.07213696396670122 -0.04805088979034079 0.010247572033276944 -0.12328670056428828 0.06359770684082483 -0.08901081612393755 0.015662561688725093 0.04279067953296107 -0.06912126592072358 -0.19502163658813515 0.03510459732352437 -0.12316492942483814
elephant 0.10026062797125523 0.11327432891649789 0.00922395616040094 -0.04545569235711433 -0.073526846657711 0.021359418449026814 -0.08765459414771404 -0.029243584893199184 0.01623967730090777 -0.023158501555477298 0.07494419966956999 0.05539316212660651 -0.058032211434135034 -0.025491894189521958 -0.056385956314107366 0.004242477590430153 0.0988069632433946 0.1138951639519687 -0.011593068430431652 0.09674122313361053 -0.07844502533944629 0.07238140190694621 -0.19285866178631167 -0.06159650186641305 -0.00544649932972744 -0.12396177057892524 0.010122326145589194 0.007421789984272914 -0.01351458868056175 -0.02106182896774057
envelope -0.043457187941315825 0.038992937792037885 -0.057126292923409 0.029361723687824123 0.10961600800447333 -0.11600777184651888 0.03898511812925067 0.07763625213907312 0.07502809558697887 -0.1277793931487506 -0.08512276494820538 -0.057439759939242156 0.0711149120981092 -0.0006608341729417125 -0.04999775060886301 0.008845684202270016 -0.004025546694339494 0.008852520580071731 -0.030097841928906896 -0.11332368559187804 -0.10449134410160184 -0.08069916889697533 -0.023894799202806082 0.13586010426085646 -0.03022148437646912 -0.02481723330747871 -0.028126596340114527 0.0634219548252626 -0.07951347535247363 -0.020912586941827804
eraser -0.022153536131996332 -0.09486974103446658 0.023324438952255843 0.0523880756276717 0.031019081534117563 -0.06815691446511764 -0.036760481623548655 0.23167298411940185 -0.09803998961262551 -0.0723300694013593 -0.13665538871260574 -0.07928562130707928 0.14849036173310162 0.0180431149737442 -0.023328005377458286 -0.13645925387045058 -0.029847423899145614 0.05240969644633229 -0.08512317066275095 -0.04901655913442389 -0.04036486003961512 -0.20311929921802352 0.01922853109374303 0.18275101845047942 0.08006357736647882 -0.13238654236774888 -0.03000412493861495 0.059257814223706226 0.007619688069406251 0.06114424604208965
falcon 0.13768006908573358 0.15880677152042724 -0.12299389623917094 -0.24667832785501068 -0.07398038940425103 0.16333692090142016 0.18477344184399402 0.015690382310630496 0.03612739529099239 -0.17558852242507422 -0.11764537377360273 0.14413186781575804 -0.16572572487017143 -0.15186863046220078 0.04719647886506392 0.07567119408862967 0.12826369173729904 0.2549550809976399 0.061497355821375006 -0.15202583204863265 0.08078844763274041 -0.00029922858257914466 -0.05346502357734178 -0.1651550879163973 -0.015756393264042667 -0.004939325534684687 -0.01543303310505176 -0.1376340358663142 0.26196460592151605 -0.09817129390879963
fax 0.03149198273588149 -0.032546401671890816 -0.05586026622956422 -0.0258455983018163 0.05562708922480102 -0.1049745271336106 0.12480097332628382 0.11446927228954089 0.01778600505332288 -0.0032431740660838035 -0.10751309878698298 -0.02966649267445334 -0.07292226175757585 -0.005221440966483681 0.04288711438295782 -0.11272838645436793 -0.06985677812034126 0.0863063968563908 0.08243813486556378 -0.03360267410133911 0.04816234303187093 -0.041818385181934946 0.02285749487504204 0.25915615091604716 0.011730300739264614 -0.08253327510610406 -0.0435628271414376 -0.12647215540479076 -0.21035799965435834 -0.0681046573876852
fedora -0.1620873020200548 0.04274166670525444 0.016278882768918687 -0.18149788642882533 0.025652110495562243 0.02766499046358791 0.10348589676085376 -0.024896065739893666 0.03340829349792878 0.10006079891682947 0.13711532963933412 0.04372068204148794 0.006748524145768875 0.2684479815544091 -0.01853188056219445 0.2132281935427053 0.19003255852377518 -0.055195106887227986 -0.09050780028920434 0.07687223812288736 -0.12530196829422724 0.1656080886751153 0.013637673403319362 -0.019373484067674862 0.07178763044058216 0.06544966633458107 -0.03124724308774061 0.15350292571166016 -0.1006782630490266 0.07274867346352794
fireplace -0.1494383378372218 0.010578878664841822 -0.12709157018349296 0.050880897244047096 -0.18540136431222895 0.09794826004833244 -0.10140739520392042 -0.13290004288934726 -0.1095744989434471 0.07891790047053035 -0.09689221575001848 -0.00015383482420536603 0.007320982694161652 0.18513319752237156 -0.09870313488263588 -0.10655573594777591 0.023323107683423164 -0.1382759726782391 0.1320695737417701 -0.049838618152902255 -0.07364543138105072 -0.12641533637664204 -0.03359468869016462 -0.010831731513088758 -0.027854562595400707 0.0385947322214889 0.09544048819083728 -0.11038122665228445 -0.07579807618762095 -0.08172170731151895
fish 0.11245923716243957 -0.011187078281469011 -0.2247659306410536 0.032818891093479186 -0.07487145741287707 -0.04968830230715976 0.11838628957794202 -0.1041075795467999 -0.024193884450827853 0.0418278764368231 0.05841624152796077 0.12746271180996185 -0.13809890936189048 -0.00022051273820100978 -0.08954440811083066 0.11368658794779371 0.11271510635030581 0.1157691702780892 -0.037729429461767924 -0.12079164291131675 0.1880479620145706 0.3396080923719533 -0.08172516727253439 0.09998970737757562 0.1059183710921629 0.03653526152869036 0.0981744248506452 0.07622293162591394 0.03383111679293367 0.13445072726878154
flag -0.09427360189162973 0.0956117661635641 -0.04139788667654534 -0.17069125566919247 0.035437581363003554 0.07990337922543077 -0.03864137507443438 -0.08368724674687059 0.04539858290696414 0.02637837906545224 0.13083721560733708 0.08766675613349208 -0.19359128354231428 0.013459553393359695 0.0794365581550919 -0.05094950382073319 -0.022150402777765033 -0.059172338793655535 0.07073472962249937 0.21414971476349112 -0.08144299074975424 0.013658061046656804 0.07489832154361922 -0.042870185306239574 0.09873609170798625 0.023591918020391893 -0.08549462188560275 0.18240422923849745 -1.1480332719062202e-05 -0.15879988896414438
flashlight 0.051300805760155416 -0.11793887776110575 0.18822915613512609 0.02769943348023684 0.005399370957420159 -0.22999752622693445 0.1300063566758472 0.015052154426385859 0.00737458407734342 -0.05745266383898747 -0.026506485426266553 -0.14809632916501922 0.059115332941640515 -0.003151033519557945 -0.07747126265536963 -0.005570880229060569 -0.12459113567160368 0.15402566073003493 0.07183547319297817 0.003173152413453232 -0.2299090659604707 0.04002761028379435 0.03453358381353759 0.046547752240258894 -0.06076036710723603 0.09472745552058505 0.05478260294674819 -0.0857939157553955 -0.04077452016547372 0.21775097356431458
flower 0.035639102300518054 -0.10948566805025146 -0.03171783604401056 0.16943265158495716 -0.03301183580075175 0.12443503995547393 0.021806750747437043 -0.259226440183242 0.14513875808310708 0.010958508137071502 0.18069590598779703 0.2482869654514089 -0.007120412773572515 0.1732045557509848 0.12024578698202211 -0.0008280952112285344 -0.11421784280219954 -0.32379899404629037 0.04976584717376855 0.14214864277780156 -0.18945958904727758 0.2057607974144244 0.13448285209755315 -0.0787065204381815 0.140991128733633 -0.19828625149141643 0.0007816120212374015 -0.06377881608682724 0.27571857975668246 -0.0399786788184193
flowerpot 0.013145785285125847 -0.08890609705475012 -0.09114498202280925 0.12525940469869667 0.07636311208196936 0.2654307453853339 -0.14582128216497814 -0.2192825018408165 0.10601004279589298 0.0013555145919100639 0.08969328038781604 0.14845806836629025 0.0031945166328210682 0.10823050767976415 -0.0028175171627271164 -0.06075948104583914 -0.2821474875049586 -0.27382151453787956 0.06739360830138863 -0.005056417598149283 -0.1648006599238299 0.014845484001680955 0.05032750826216792 -0.07345482412619679 -0.038760425016401076 -0.049485524985107256 0.10406404994888474 0.020175221027169957 0.05513070323089174 0.05575748337470897
flute -0.04599109101394232 0.0564581234201997 -0.0021367260768459227 -0.23380348172187732 -0.024074291992407036 -0.18691247653758047 0.06611076150386513 0.0928409850317873 -0.08598259402762762 -0.005741086008562136 -0.0051324417905340165 0.09736720446183156 -0.021690719474912464 -0.033851923070052505 0.021586357133789664 -0.06680459774377842 0.04616529593929835 -0.02793176234005736 -0.13572576496985334 -0.06993870358674788 -0.033000706448513044 -0.10641109610652932 0.09624223745206623 -0.005246133618235801 -0.01202245395932197 -0.04850024504519263 -0.026124698074853507 0.06406329568990111 -0.01132448694071605 0.20280703050571083
food -0.11755685342397033 -0.3062372529895531 0.02653581668153917 0.175705051271149 -0.283593061969155 -0.04057353506885608 0.13974697858681728 -0.16573420162612476 -0.029603421855932205 0.2034035621541705 0.22079302972700088 -0.05956361934534587 -0.13778536021657847 0.10359293037984589 -0.10132485469926895 -0.060876085971364416 -0.15995037409030846 -0.1690742028824156 -0.044112991277170575 -0.012006324408871854 0.23466602012749443 0.24520741450980216 0.10274194373950984 -0.19425686580640097 0.11987204006152227 0.08981110315216942 -0.107607471499839 -0.18692017398429084 0.2968258304451967 0.03378578046316143
football -0.12556797269289421 0.03256887968301563 0.11687397838741984 0.16673765276082195 -0.05581354744050667 -0.022378821895061775 -0.00922782688505804 -0.09071073658245993 -0.0038497744123003282 -0.01466222566959102 0.037687940121529234 0.015599276523066162 -0.003911347150460376 -0.21268946681499257 -0.07548008075624332 0.20397706123404993 0.010362326959094078 0.3037223785553023 -0.211687917570521 0.10418041982002961 0.055802084920454 -0.02623428117074619 0.19318626358652188 -0.25607982210303337 -0.05259582434379192 -0.09978737232796127 -0.025621154802517858 0.08713888270082042 -0.10019243346158714 -0.14664810435036393
footwear -0.1559986744355987 0.03911611500233912 0.053809175108118446 0.11623612209027455 -0.1021380408764373 0.08489696184321384 -0.22535778167980655 -0.32364877839926887 -0.002650905055916353 0.25008518646092753 0.11118783148912832 0.17517938832343694 -0.03369968479856121 0.1333980922898732 0.07022005824525601 0.20748784195437747 -0.11785253667130324 -0.04205571251761233 -0.22918492958609796 0.20372548865482315 0.10211759754569075 0.027073015181379417 -0.04308766927207608 -0.2311840703396583 0.2213124613737087 -0.01697097606343516 -0.013555896088787989 0.10614789015185777 0.01319174587697075 -0.19934920163793438
fork 0.07956536902169736 -0.053674841091682794 0.1855087339818575 -0.004379788156024324 0.0499716224330797 -0.056140975435706605 0.17166290649489466 0.01415305012703375 -0.001340173051345455 0.11573211680263909 0.019327009143150817 -0.07584077201600432 0.032666851351443545 -0.18407592703834624 -0.10399782259515514 -0.27735809090661256 -0.14211711296619328 -0.15352361039049078 0.2050918607166494 -0.05497818420270916 0.02551535950484177 -0.019027076052200432 0.17384841363769382 0.10466040584436488 0.11224504132150483 0.15903597908049155 -0.11822551310590035 -0.10992993501166769 0.018999713288493765 0.13235745063213536
fountain -0.02233720984623542 0.23565664695483496 -0.17607820889067868 0.05387959859282995 0.029557066946953457 0.1598405598526011 -0.1408285968411645 0.01600221361025106 0.04482853165464556 -0.05604624605842823 0.1418636204214785 0.11734498243084629 -0.051877184095942296 -0.026472117012108966 0.011595703077592463 -0.06371770971400159 0.022310662955684506 -0.11010536554049445 -0.14344968720056694 0.05032906643816811 -0.09494829215489717 -0.11284992808204798 -0.09364691404815616 0.028202461922222324 -0.032132293529585104 -0.038295423054045805 -0.0004912998296226771 0.045830793846394914 0.217126023427935 -0.15547930308133365
fox 0.2104883593199074 -0.07235565146690744 -0.06097015861038262 0.1365452534059944 0.049454619751202834 0.02683738042254877 0.10900244434281044 -0.11100736087960611 -0.1612639287645024 -0.06377847612935864 -0.05533760324849628 -0.06270533282375385 0.18127143844768856 0.028748979227061933 -0.11124122816324818 0.11643569989508434 -0.02862306431013053 0.19640740510936258 -0.09389296772481368 0.049247374622539884 -0.037105102226605936 0.025836638543523957 -0.1393239626591563 0.03659114222565123 -0.12287366097097163 -0.17566084237465188 0.3215722482806529 0.12466034771382108 -0.12012933732899515 -0.008030204326451351
frog 0.17912599882296049 -0.0029225069179345912 0.06141568957133414 0.11843403579735397 0.12528667259730522 0.0998037144280853 -0.005020244268232488 0.04404059779125281 0.09028172313002637 -0.022344738570716147 -0.05085950027414199 0.06243922598942636 0.04449959482984919 0.0008835779749136982 -0.10703046369478107 -0.09431666981797064 0.2935981340215212 -0.1646781393382648 -0.11342603420898735 -0.06746444301458834 0.00860208050686704 -0.043395726641042895 -0.19017532778377885 0.08472827180279427 0.045518436450023785 -0.04627715988097124 -0.028652776607678548 -0.07511625919736625 0.07194392214477724 0.14538064149721205
fruit 0.06868944198042659 -0.17157911912366347 -0.06750561497860762 0.06284514348272019 -0.19635811077874482 0.11581601189327193 -0.052357489400891306 -0.06880836537204907 0.01576540627657431 0.10717185362443396 0.035582199756807896 -0.09730808945824493 -0.2307048103812204 0.04979672515760452 0.03700975623780014 -0.049986416164562085 -0.24151848882988491 -0.10000254383487071 -0.24675636977513785 -0.05832915214448425 0.09643979679223073 0.18100894326814426 0.14644760601570891 -0.08088866853279832 0.08833840661041358 0.08092884524594017 -0.046616597939843296 -0.274763333065969 0.2212271763541384 0.18799776025251647
furniture -0.19038483689947286 -0.13445860283699562 -0.08171698835018257 0.09741887580570062 -0.15976720258002414 0.13715588210785684 -0.1958348580781585 -0.35760537318178576 -0.06537633247203609 0.2668964140118809 0.042869076856419115 0.14131815857366933 0.08808095827828526 0.13387894740548223 -0.04721550175270191 0.06595694789776052 -0.061274338400392064 -0.29216714626052953 0.1367856406510129 0.05828868969134734 0.11821180850508517 -0.18318611833348858 0.09671919642280806 -0.08064490367110756 0.1561781912319495 -0.038200703443274524 -0.07161820677861001 0.015724030968648283 0.031586551670444475 -0.11696308538024125
giraffe 0.08467688282846049 0.11855956355833937 0.049932046576278664 -0.09303373695231498 -0.043722889010642606 0.020294106183840258 0.03820189265569859 -0.009097946048406346 -0.050166270912503544 -0.10009969239327235 -0.1099796182309064 0.04819976101980896 -0.07039959060156649 -0.023892357495045584 -0.14292376518728117 0.0060969166112176355 0.18892392821156523 -0.0659658380170846 -0.022716634833011118 0.03502042847799575 -0.032401327851194144 0.15969095443281348 -0.14136840761346706 -0.06620919893617941 -0.02033573992407085 -0.009585107367948282 -0.014530622985812338 -0.042771074512421015 -0.007011259765491618 -0.002143374416991531
girl -0.13704884903154402 -0.06768912462997599 0.0013579906709354369 0.05583085484581721 -0.19071613094506376 0.08650853329627997 -0.02561494922846795 -0.19739765934680814 0.008261840554349387 0.2464961680032669 0.21357768427295135 0.168755408924412 0.12880250416820432 0.19902502404683897 0.12257437502664721 0.22640490825754883 -0.03920206378977272 -0.09443949438649915 -0.096070054766603 0.2136646880180243 0.04071374050077247 0.055643382524497374 0.02051326518620012 -0.17487263992715377 0.16393270016762052 -0.07007009012993835 -0.008001977000105192 0.1099973206356417 0.16228195201141238 -0.11921071232162608
glasses -0.17017804432226458 -0.12742192907685568 0.007412504604648137 -0.15824304920551618 -0.01817169942210952 0.19189253012004118 0.07668242717950731 -0.13792611699402277 0.01869821456722827 0.228690093312225 0.25044097628838724 0.033652429766685844 0.13641735008463604 0.2338592982674383 0.10945708635977804 0.18338366089202 0.037249877511199445 -0.060005767471246335 0.033541992977793304 0.14666892643971804 0.07008757949650238 0.09215273929499791 0.045472486723661706 -0.0787368867551464 0.24156937647720844 0.05408972397130899 -0.0037708010615838676 0.13430607685202578 0.06318895404620904 -0.0047915575185975496
glove -0.03169004727792397 -0.06693578337465524 0.13612809664110206 0.004806457598592854 0.13126220178661654 -0.001755742964668502 -0.01365151370276722 -0.06170644889513307 0.2350062123597828 0.039104644336650285 0.1319784633424352 -0.0649899613348774 -0.04889660965954155 0.05062244812645799 -0.07397790832844808 0.0735200734749552 0.006156559591581649 0.23890299562880954 -0.33663726771935537 -0.0460674844389494 -0.04458148151575757 -0.024610464163878715 -0.052620701436122304 -0.005053963159786342 0.13094419112610434 0.06171149636750459 -0.1336052104516505 0.1316162177907154 -0.18496476922394087 -0.015302756206550874
