200 20
50 0.051272838142396804 0.017682801781567687 -0.17590645519145096 -0.15641652498145364 -0.064173945172404 -0.16692470314012328 0.03974200817639447 0.13810685391977548 -0.002271330187592493 -0.14656243282110176 0.1461009271495649 0.19388038148247516 0.01435252762610668 0.13578223375237997 0.2950588915095504 -0.03959266426109487 -0.03920456067448538 0.08949066321015856 -0.0597929587684856 0.0871311837014478
138 -0.17007967730345 -0.022327878634895743 -0.044946915227668596 -0.2827688337453426 0.22262162553312834 -0.15971024335021772 -0.11293824552319084 -0.007569591518720374 0.11979546390249458 0.15247456030594903 0.09812664971881666 0.1180823566172371 -0.07903364038426308 -0.0029618081373257144 0.017159216414913758 0.004713152751682242 0.2200349642322756 0.12600123880673705 0.08406118153986922 -0.14429711015472424
126 0.1187463148402436 -0.007225315901694843 -0.02775384238094712 -0.15876308972106842 -0.06033592709395144 -0.05197337556727861 0.26022578838731963 0.019974931625669327 0.12302074760221661 -0.11462204218806228 -0.14346333998485558 -0.027564751148193112 -0.266807140397812 -0.023815284803111462 -0.07025074239003996 0.02317706829679069 -0.12212410837180306 -0.017617683794314255 -0.02292190659927563 0.16850788390621393
178 0.052285279620655774 -0.06230006106966194 -0.13480921212420102 0.16033526827499414 -0.018249530107415552 0.1057336008745571 -0.18542352350595215 0.26965744069710046 0.2215906176417143 -0.2055703212647707 0.15715447615382366 -0.22646795184823215 0.012968943161643107 0.02089655570308499 -0.11493577501099256 -0.1524071619713593 -0.022869005307112805 0.0783258639762345 0.10091865102874177 0.0009958424815160241
127 -0.3845334797580679 0.316302459312071 -0.14020013569922415 -0.21115945461377908 0.20239546636147915 0.09153477142502113 -0.0056057750361946605 0.07016514502321372 0.14126826998532493 -0.1284848151977452 -0.1048232959206504 0.057699283749843254 -0.165909830474774 0.08988332355311619 0.05071172367674794 -0.08576479323535204 -0.0937692680258283 -0.07887085221521446 -0.05697219522894783 0.002043419834631384
113 -0.058291943492827854 -0.10459695151377638 -0.2074951639611202 0.18875044849909944 -0.01866193701433611 0.008651597589052979 -0.029494333358251495 0.28304431072295166 -1.3074471822126173e-05 -0.05274055912462103 -0.04265258231125554 0.10688929187629848 -0.07499103933051386 0.14169656854207738 0.04653758390444183 0.13681602311178778 0.0784286596127074 -0.08278967077424679 0.2671277650661868 0.1713027355411904
22 -0.07975630074051836 0.2308847605752162 -0.1280546209353984 -0.009060375272243166 0.13795699884975327 -0.09089234212390579 -0.09775989116413246 -0.1269668643735561 -0.17989558229395242 -0.09054109756898988 -0.07633107508131182 0.07764493229707474 0.37489166238127497 0.1463674362492333 0.1355384113700819 -0.1059477152389609 -0.03976512730323326 -0.231398483902772 0.011278361275332183 -0.12355262610405339
146 -0.10070448587880625 -0.016813539977582257 0.25165318274482895 0.17356734685114567 -0.03096893452807105 -0.07546377329018872 0.15940022341403365 0.12762492280496898 0.22412543130819432 -0.1438099143572068 -0.00020315062593447025 0.20030069542355924 -0.01783393145530334 0.17103656978198215 -0.028224211119856117 0.028777290201094277 -0.2960076010521867 -0.10005034062217835 0.2396904459867334 -0.03708782559371287
130 -0.10975167905757882 -0.010764452191307282 -0.028401823803443697 0.015891580494454136 0.22258050240629326 0.05664099150543407 -0.15726368800341 -0.27701364687335284 -0.29625268394520776 -0.3560712097118155 -0.11737098203274866 0.13243131649591652 0.1698063307286907 0.011974758445977866 -0.028947249495941272 -0.2842713842046901 0.07325331742547501 -0.13277989478070104 -0.19453217898688002 0.16367909014114826
154 -0.0027340616447947513 -0.04828291659489117 -0.19261862603611843 -0.12159162990369483 0.013856626613151332 -0.07414387947722692 0.12518361688001278 -0.1621506847341677 -0.2022701161658211 -0.087728499908376 0.18789156930189696 0.14127205690338343 0.10355228923889975 -0.13426387567916795 0.4081014071138097 0.17987486128000468 -0.000931677637723813 0.2585504225483854 0.03459919902843828 -0.0259098161543441
1 -0.1911353826353834 0.17515798415225461 -0.08238110561731563 0.2335186803839595 0.06260502518345322 -0.13739137635639997 0.3457610135464325 0.4316585458382149 0.030983037432646562 -0.05775142559556683 0.08408536297021929 -0.13759972687545594 -0.11866773667829748 0.04151678468564695 -0.007408794440519155 -0.25167750239927467 -0.06634752796993972 -0.034403654392502016 -0.0814382920713267 -0.05139557190776502
115 0.09415752338121053 -0.09944993424412493 -0.08652938479920241 -0.13687957767425993 -0.14058681017898914 -0.0958475580378508 0.08806415161033819 0.02850773987697118 0.14537128760064258 0.14415019859406347 -0.3551871888710255 0.04272002926896742 -0.1243968000832225 0.06361184303323224 0.14068660454603774 0.06331404673855055 -0.09288762118452462 -0.06608030900381717 0.057721314545818296 -0.03558120200745898
12 -0.0023438788791362067 0.04269061248895835 0.14501803076582667 -0.02289196240101226 -0.2147118966623031 0.13817457156087629 0.11578950961760251 0.02049966984799626 0.00063024119479891 -0.18873955702758485 -0.023930599388713412 -0.033604525567837544 0.13480258970236467 -0.025393650612476757 -0.10554622967859283 -0.16536193885560463 0.09363349940793021 0.09025382823931884 -0.046430922189595936 -0.02694915933653301
61 0.19573181337524742 0.12267112714223018 -0.13785035864268905 -0.008544118208801889 0.020405672279603066 -0.019594813340664402 -0.1996810382724395 0.040913600728624516 0.01661495424812853 0.11375931144176984 0.11606921887296633 0.042669194292661534 0.053539263845065896 0.035400301612988995 0.059877245327853205 0.15584450003516107 -0.0621134130511306 0.004107515070572203 -0.13527359054095855 -0.031528259456726576
40 -0.11599428563705165 -0.0557818212725343 -0.04279222537554753 -0.02476810950355104 0.25056215799618303 -0.010629365074738434 -0.019781472963075145 -0.0077880389701621465 -0.14689172939738285 0.05401787379284311 0.10774162006805546 0.22021479078139716 0.08959131856952882 0.0390665417684988 -0.08307461208618333 -0.01653087678970994 0.05267398258090145 0.21351371313154907 -0.04962176889010836 0.030004821132213883
15 0.18344974167117784 0.04727387210739718 -0.151816702015263 0.19949345013440653 0.018301849744377277 0.13500501249684 0.026376190216004437 0.010711670177409845 -0.1465820391227367 -0.2237045027201319 0.09164809296960226 -0.07809735011518236 0.009187091984829714 0.01865411787979308 -0.1170561513132118 -0.05605455860879328 -0.18735390308667207 -0.09666149384632411 -0.17373000190480384 0.03599256594916029
19 -0.031151524660144154 -0.018018091450071102 0.09994826583236092 0.20925460721857475 0.005994502179921782 -0.08604712995332271 -0.022916455389905114 0.2877601215003091 -0.12759333028580905 0.036440250992903524 -0.1142695454148797 -0.013912014243839543 -0.21828457355138647 0.012938838234519292 0.1104529335932714 -0.025074976700680027 -0.09889425309442433 -0.27303992844576125 0.08405125098932306 0.11939657769659828
174 0.035656345908849495 0.04888747625225957 0.0011377188668062472 0.14511853906293967 -0.19258988911014305 -0.14395228297867177 0.07501146529574197 -0.13540774870936567 0.012429545850971401 -0.004015256965370508 0.11232086635487772 0.1008827439179108 -0.3195105107143823 -0.05324187565888857 0.08602112210690553 -0.07079289201418157 0.08281052524753035 0.08544678001282248 0.19894785729550463 0.07955639501894261
182 -0.15298824953918425 0.16316355565068494 0.2307834610696375 0.09821648806176454 -0.0044291172045079225 0.06920747240998462 0.014958524391376214 0.19826545722600192 -0.0871539762257817 -0.07684174660923526 0.1946436227415016 0.04996063855341426 0.02479652061022619 0.06894259745817971 -0.027739292250391828 0.19244760224870078 -0.11814637160572923 0.09076443454837026 0.11891746568395492 0.008398089603216407
137 0.05938281341861026 -0.11321713873126732 0.14554679476218618 0.1307384827170295 -0.059226620660192755 -0.13178245988986886 0.13541731135605894 -0.133142822715826 -0.06793344313408343 -0.22026539325779282 -0.09661844746340807 -0.009217603661544232 -0.11864984014793266 0.030359653368584642 -0.09727311165295822 0.1633647827118426 -0.02385078443761805 0.14245517301749083 0.03133226815641626 0.011150537208389514
25 -0.03757717611335761 0.16050611816354124 -0.07044697469114682 0.006110702130051774 -0.001273260578850782 -0.009489395679516842 -0.12456194642225922 -0.12574761786514344 -0.0078588915081643 0.25390102315690355 -0.13886710535924457 0.018843693233673128 0.08195271077437805 0.017742218757372287 -0.06206250947778875 -0.09689675980495663 0.05385150152726909 0.028563289780624678 -0.03894348712565338 0.13996474171412013
27 -0.2038604449840449 -0.06070769402591536 -0.22056503018040685 0.06457528389266391 -0.3487437068444465 0.0858080831468528 -0.17695486434225444 -0.02089668334956646 -0.05943796607624186 0.04597110616755281 0.15177277885908008 0.0018419550992835613 -0.07559571096717647 -0.11471514749357824 -0.19914978453434978 -0.01684611969613407 -0.15127586949704339 0.4351362868061821 -0.012929367525585884 -0.01184709704349214
64 -0.010737028841135667 0.17031001395737572 0.15117637697189926 -0.0518820486446431 0.1317944873806339 -0.025263890432500345 -0.0011702302662701908 0.11095571636990641 -0.16443354621478018 -0.027915628871016875 0.017193778038373547 -0.03850924235268482 0.028443667454074152 0.022300645446017765 0.14550135153332822 0.21286426567762715 -0.14772768950641527 -0.11986927598960846 -0.1039336366192966 0.0199017260300954
77 -0.09570024366632113 -0.19292810950392003 0.08429774327144245 -0.17436864895576867 0.04430338794377102 0.22396262418103127 -0.15570429292910462 0.14962970716955729 -0.041204332477802925 0.23627226854422415 0.06680951168965475 -0.3044344769773421 -0.1065919593648756 -0.11849589562914264 -0.10961016737167119 -0.13052849098050248 0.02028774437140522 -0.12054612801281557 0.005119791690574168 0.09733809326040535
177 -0.001908633984968238 0.04163274545757255 0.08076965617238191 0.03328779213056782 0.3017419124370337 -0.06089768865681467 -0.11605027386437863 0.023033473267598335 -0.07387448005822891 0.2405059476303625 -0.025065582097621816 -0.033645336773319455 0.07133238425846296 0.08792635983676791 0.2687702946721526 -0.006262493305861142 -0.002602211393887336 -0.016050569744557045 -0.04564354747904542 0.019775775428127397
148 -0.034381798354975346 -0.19125850321765978 -0.11804646014441658 -0.05640977424817914 -0.16811835122808533 -0.06241565464116072 0.105951199708741 -0.2530191301999325 -0.14003730569818812 -0.16946128121208992 0.02790260022448867 0.11473835544926358 -0.1743582046527941 -0.1329283522924984 0.18327592876254792 -0.158662066895019 0.09235846242445828 0.2221825782270745 0.16667459047497302 -0.11598675378628019
196 0.011565262885972679 0.15807188845157852 0.07486147581039279 0.1189003517089073 -0.2625838115035526 0.08711149340724648 -0.026466107794764812 0.0998131076582924 -0.12331212370514148 0.16400857493161608 0.14461638311006014 -0.1866075721750457 0.06704412010562935 0.0519780146600712 -0.10988251920126331 -0.013055414255008765 -0.20582970637949086 0.023400200701055567 -0.05387446959802108 -0.015763052594256734
16 0.03374882449494518 0.07050717923752454 -0.1733043719922709 0.04875138818771907 0.0204493577288298 -0.061427606363523485 -0.04357749028416687 -0.04005532213273175 0.014307555346437737 0.0640550432617553 -0.07408952813902821 0.010042836577344866 0.07516823848498531 -0.06563222354532103 0.23144226387029146 0.11933174705363472 -0.053014166706289514 0.10819886105204471 -0.1005268082322501 -0.1539344258905274
2 -0.04120397972082741 -0.004917515210221753 -0.10910658019352958 -0.03314572842357525 -0.13232289355189292 0.1026963028724519 0.01296860385597187 -0.10097693218564624 -0.039093631933724754 0.047648923330991126 0.19671233177658978 0.1114352484110617 -0.09521415705046209 0.161935954625453 0.009792641211867409 -0.033518386230340654 0.11452926129614954 0.32619521536499074 -0.10226600990454066 -0.11455599604766162
73 -0.2087196050681386 -0.027388526532383023 -0.0590393983913632 -0.13093558459272306 -0.09212467161937513 -0.02864641317327717 0.0394365035276566 0.136554023372915 -0.07511496860716008 -0.13113280518929832 0.01070988864691533 0.1708062130093007 -0.12053013709871233 0.084064137862616 -0.016187512938999643 -0.21179059114697954 -0.32564875886485956 0.16386301897948063 -0.126423118524559 0.03474611489431455
158 -0.01623544762288122 0.012956401497419752 -0.27433214557346647 0.22287731440822423 0.08565606360547247 0.05062887082428946 -0.0978343774736613 -0.16565263209271963 -0.03879846579858395 0.23417176015280733 -0.042244713668515434 -0.07160023825013297 -0.09222415389618104 -0.0035359132594551656 0.08263231844751806 0.03467408163897151 0.01554392151599144 -0.09979177947941459 0.05012126099068226 0.04919522238235659
186 -0.1923233255133724 0.054173314108007624 -0.034536344799459245 0.14060089313037694 -0.14408201425133058 -0.09263745278863321 -0.02013643520045721 -0.20093669390555988 -0.08314765351983477 0.0475210153881333 0.06457037354004334 -0.06556119999258947 0.11329681661768312 0.1989043060461694 -0.07767092170225236 0.01125884005164549 0.10921511303259776 -0.17414566043931587 -0.1495022099479754 -0.015860585979180608
44 0.3074278658663189 -0.023942907516036904 -0.16043289297115979 0.034904826380217094 0.006643851712561576 -0.14412540078141228 0.19383009786304853 0.1465888083545829 -0.0046951593196526385 0.15285015917865294 0.043916997702588265 0.11761437448417646 -0.005351654023489603 -0.05466614993408751 -0.25301229303641337 0.1482576667961458 -0.01078238857908962 0.15811626155295316 -0.20282713158561322 0.14282712931397637
90 -0.0834178598346254 -0.24037096638487362 0.0612113025574765 0.10028728896680267 0.054400628494363855 -0.03565701054806616 0.17842061300661577 0.0069611135215984716 -0.07793762446465811 -0.0637309775459868 0.17049393789312017 0.05709390274168037 0.06672669366640385 -0.17915759359944794 -0.009654770949972859 0.12390947188064994 0.07382575697213943 -0.05960664735839675 -0.18134186226961044 0.01427081352380814
122 -0.11430227098455863 -0.06422630672109857 -0.031145627867898176 0.08610561742002161 -0.08407175744784366 0.13446865469062896 0.317336006667386 -0.05159350718993265 -0.09568310224741515 -0.021349003678127938 0.10207019462628589 0.12680903989728273 -0.12027951155669853 -0.15247003775717088 -0.14872660185790226 0.025095853538576934 0.21157173641142665 0.08145999535199083 0.08310112515742872 0.06303581735705868
56 -0.027585664909144953 0.07657289024925605 -0.106883709033547 -0.063267447108583 -0.037102310326039716 0.08914865181777908 -0.01429645741283088 0.06733146722588032 0.17079999004465787 -0.13755964453360128 -0.027494434901053997 -0.09452937144162836 -0.0665678686803684 -0.06024160721598141 -0.0006353176623682193 0.04171190515118829 0.10851173030532438 -0.15547862108274138 -0.06085276640756246 0.028223266717306985
23 -0.15759272991965015 -0.026744284588656783 0.04234325026317902 0.026179766973997834 -0.027210580027155793 0.06298209298991708 -0.002251530850160962 0.10375951915714736 0.3852644320963975 -0.08366065299834083 0.1330748407386877 0.038404259433420886 -0.10272262648465966 -0.12832282780566112 -0.020918202717627454 -0.08053956116493563 -0.09742957421661948 -0.02595412654229726 -0.027737675665056555 -0.015376366712396792
190 0.09446021045763645 -0.003939768290407003 0.06767879490035876 -0.049971525957739356 0.0443590521482541 -0.10860397011816066 0.043909203146095935 -0.010867198160029063 0.030622147058714813 -0.11034517249298885 -0.03780430478974214 0.018665763977062964 -0.12899773962900335 -0.16666465077183829 0.19653806973769808 0.03916093577192282 0.1037018527518141 -0.028882233479027207 0.11069156593639809 0.027747196385842363
141 0.19981496252676584 -0.2701951291477944 -0.1677621692137544 0.0916449546691853 0.2461847248263209 -0.16713920162523374 -0.08277010639609361 0.12185382950207223 0.055474106065017424 -0.10631405577531391 -0.2832817650411142 0.046825136984776874 0.0254147283625602 -0.05815786055136969 0.09946248810447932 0.1261550635509136 -0.302473460585937 -0.04883365775992157 -0.18455258409681916 0.18278107758063397
80 -0.04069661614619148 -0.027259585281755587 -0.02554067787793251 -0.14065875634320182 0.28964655265089584 0.11437501988629052 -0.0640358152439339 0.10257685758713239 -0.0040948059883130555 0.2348892640308372 -0.060070026997627535 -0.1269648052072641 -0.14326957257381695 -0.07573638192535465 -0.11453330762193742 0.04242393667034819 -0.12171225437888482 -0.46678896991682023 0.3157826420948907 0.15750498121420092
100 -0.05591439624330389 0.1306322440053919 -0.05994994665406869 -0.10496980169777144 -0.15987331043844863 0.14076924907927194 -0.05631289608456495 -0.05825037204883183 0.11942688980910289 -0.20442350977175575 0.035828869893351246 -0.08934107187957485 -0.1237936670512617 0.07215565061947184 -0.08580727323057553 -0.22119795083359356 -0.029085270108005868 0.053144872304753135 -0.34349191657908246 0.4180669100690868
175 -0.048341846976994424 -0.18691567064514575 0.09128829963310758 -0.05575158244668765 0.01960413661936688 -0.049564826642475884 -0.15482374990597683 -0.13457686755292228 -0.04226950057617552 0.07975543191738849 -0.14554751683056782 0.07815024911692918 0.22766632050261543 -0.04100307080442889 -0.060928104050410645 0.12333266826057207 0.005690373601540799 -0.02418829645282836 0.21453941276307506 0.08461165641657926
45 -0.0825695815718966 0.10839817224524223 0.004331166482508787 0.18645505125979306 0.010374209270898693 0.4669177101390924 -0.25314643609255577 -0.2203354709856261 -0.16795460819877647 0.02482080195735246 0.002739107651807703 0.08152239619637103 0.05165413791565931 0.046108191147854645 0.18753683063132418 -0.1258418273051735 0.0005067136635533919 0.11012724162186573 -0.18325454698281576 -0.08549194806757697
21 -0.06604975500081701 -0.2331127056900187 -0.05644955358602872 0.12710940251405792 0.00993207791843827 -0.08351861886553065 0.07379493480358318 -0.03132570479040102 -0.11370098329045912 0.11013445008890943 -0.056256780140141585 0.03589867328232148 -0.16056736824766432 -0.2284798466381449 0.11994219851810599 0.0771643712644278 -0.05492082273721126 0.05404411373376689 -0.009520899736184384 -0.08672055973192151
68 -0.1397904583221252 -0.05378152655810638 -0.06585919690879219 0.12295589900239573 0.020060023288666268 -0.14486643126763948 -0.16687560800449816 0.08577118020361178 0.2350637406260297 -0.08341856478061438 -0.11310010111488138 0.04962358717972067 0.01635082213562955 -0.17648160687374467 0.17620890873975859 0.0003744474600102665 0.01943860353891987 -0.1310459270416472 0.02855256367201577 0.014063438701626333
65 -0.15033051022515637 -0.029687534680292435 0.0022549289501772388 0.08685722607567017 0.02733038372026898 0.3411378221049077 -0.1824504584468812 0.07152085250332355 -0.13179627627347573 -0.12176565041343491 0.18797591737582942 0.01386152094754783 -0.23484325827769634 0.08401918667974222 0.00020721712403836266 0.01444081395674649 0.08902148562493944 -0.2107462831303155 0.09124524813599402 -0.02170626383665405
7 0.09037826076178053 0.01823154429440399 0.08280734589098772 -0.017392268951187298 -0.08273663625861925 0.15675947771719984 -0.17066874014865416 0.03881982946227243 0.023444815090747445 0.10515562595329517 -0.16455228734070848 -0.021343203671420313 -0.03469866754883829 -0.13996767425202075 0.26498518729779785 -0.1561010509647608 -0.06673835258741902 -0.06024444975061151 0.07769801333616179 0.004694438423114843
95 -0.14266481215611443 0.0027728498112208552 -0.1327794361169083 0.03343055854332644 0.041695559849376396 -0.08131865501851358 0.09742510694036256 0.10540962182833692 0.06950502559759993 0.10565577628084964 0.11197593664340369 -0.2150138640982044 -0.04396860292099719 0.10079121775311166 0.12211549273179757 -0.09569130787978743 0.03662731611344458 0.04491550789792533 0.07607092391099753 -0.02944398176355268
52 -0.05587036700698834 0.09272032378199735 0.07570638720535401 -0.03203094589452495 0.05303916915097149 -0.19996638156698968 -0.11240416416981 0.0758346081505285 0.0658835079178646 0.210048513181127 -0.1275538754434117 -0.037108316677411816 0.0765086826415826 -0.06580057791842726 -0.1918603850303843 -0.032022394928928305 0.031022084930372056 -0.010520557612071433 -0.020213908881743153 -0.1792658001815982
87 -0.0535000817683849 0.027126400983445893 -0.30422730759228067 -0.06018313890092167 -0.09823085569093437 -0.14694314831579072 -0.18895581595876787 -0.05883359175528618 -0.007085683097250334 0.11591454524760564 -0.20447025318826126 -0.334803086266042 0.0262133210889149 -0.04059352828566639 -0.1186255440647816 -0.04072870580290774 0.02435093220016849 0.07271709505848115 0.09671776650515689 -0.026928078552039145
57 0.21786723747090797 -0.09117539001793566 0.08794752928140477 0.0036518565792201365 0.06699074011611841 -0.17038573452888459 -0.11110267252072926 -0.1411059671489432 0.0730444265335793 -0.08558961735556543 0.16022017908382097 -0.1262578061360685 -0.038847977517784744 -0.012228501523830057 -0.049316426308364476 0.060719003092832895 0.07981513395267621 -0.05211844247816162 0.0956328567267805 0.03047925677493638
78 0.11458212250874239 -0.14470297127913617 0.08013165149807802 0.030869973907009938 -0.056523075245039966 0.013008566008725606 -0.1453800392817445 -0.01216203480228916 -0.07407758990028325 -0.1450307428851337 -0.3093170138504516 0.002263387295994969 -0.03605175936233326 0.09215437237817031 -0.019131914511071057 0.0850655202915604 0.014359435109841761 0.050275462459213834 -0.28366399121867303 0.015718621208913056
136 -0.1234830064139207 0.3600121951436502 0.039131302971267636 -0.1640809564075316 0.1100365938595823 0.012878735369432508 -0.15524027986358616 0.13342281536179243 -0.05089091556352872 0.09465471606226487 -0.27268022473584697 -0.08952277989600174 -0.09982263365394482 0.07942222859959683 -0.02767772010615801 -0.0020511103388788565 -0.09654031162539077 0.09380919523528236 -0.11668847661650063 -0.06339933363437844
14 0.019663421851285095 0.2186928187845284 -0.07790007697213058 0.06334381089804639 0.10782603249006183 0.016523281614694716 -0.1304364077724898 -0.0011006612666745346 -0.014444929414266276 0.23532925552420983 0.14048130253475 -0.0888921056977582 0.12538025148099058 -0.013589415138763274 0.15965520563130461 -0.11853898117242055 0.02217913885535361 -0.01309553073685294 -0.06927299287338363 0.12010182907827523
26 -0.16206471918042098 0.0449127317932217 -0.044861128336131345 -0.009511893933751422 -0.16157733963591683 -0.2165186793564508 -0.015028975625283087 0.16955533693322583 0.023138102947807698 0.14390183380585875 0.14097294084595663 -0.18669376925111056 0.06625064937347835 0.03057650229871073 0.32177236540226356 -0.20014466622257118 -0.19059141372473243 -0.07683061480749781 0.15175430540459411 0.017135900622073565
193 0.027774036646594166 0.03604916058135454 -0.17137911161237337 0.1908736744910707 -0.062027284159404936 -0.09497430647883784 -0.12266943471914514 -0.08898516658115266 0.1391382509579314 0.0459571854408401 0.08839966356411155 0.06360824662768737 0.04594070794301235 -0.050110211945046994 0.16244848961740746 0.09772063914632798 0.015537552439321999 -0.13660267003413407 0.20675453167565128 -0.15442050659451773
28 0.001885760509169054 0.04751731741270952 -0.048623552824511994 -0.09060750242970694 -0.05885135171097809 0.026368227679887953 0.10634430859326109 -0.1870360443305404 -0.26918738712756973 0.06622366385248436 0.0702617372896822 0.056647791332266655 0.0826371049094932 -0.039304634265823916 0.14202985340704075 0.07388344948213309 -0.061084966728166545 -0.029925903752910592 0.00812129322644792 0.01094611004972264
86 0.21358058186815035 0.09529961039401831 0.0668369632180105 0.023361716103897482 0.12935035291555783 -0.2362613602337364 -0.04761280151200398 -0.3391287822391461 -0.04499816756069423 0.13307134347907512 -0.1420625266331834 0.05925146331424276 0.016915377497688736 0.07287626768071984 0.07665612678283733 0.1912650738848921 0.14302985739436624 -0.06550864714537377 -0.07345888701936056 0.21078876805391883
58 -0.15686674307479226 -0.0924394894137022 -0.1300604748257656 -0.03860476921356068 -0.1111114743636346 -0.03405597312096295 -0.1085717066065764 -0.059794870481335034 0.09628600318107168 0.007148797654911451 -0.1155603389647799 0.07437806672073884 0.025639304811359006 -0.03280140487989998 -0.09777270718664244 0.24258829195253703 -0.14370365095743412 -0.08916246482834907 0.0675473894649934 -0.14330275058666017
49 0.0381950390717308 0.0005770376504378819 0.05934789473463075 0.1553089966549453 0.037760349296335455 -0.08809079877086887 0.01236259757901819 -0.08814168328459485 0.20264738397651738 -0.054648657598694944 -0.12587169837861875 -0.11371349204126956 0.0964492712756519 0.14130270046380763 0.007845553142118945 0.28216245341153035 0.04408339127638751 -0.08349373809180016 -0.06543661057401975 0.0726975656800038
117 -0.05680219918974693 0.14746656196943375 -0.020894835608289034 0.034632743516677 0.07857848012679436 0.2489424956905747 0.17138314687177533 0.013233010808995155 0.1696730357463798 -0.014063410736231572 -0.12248872732527044 0.05606691955829763 -0.06692620679762279 -0.16234872501298164 0.12444942162125519 0.13571803844407085 -0.011876689032859053 -0.32620761548053684 -0.0941577272583632 -0.00911803552887538
192 -0.05169244147898632 0.03437370278411547 -0.28993426270584993 0.13296543829167776 -0.25024635411298285 -0.19752995309844817 0.14896963101453603 -0.3208418259011172 -0.05224563174376085 -0.07987911627133935 0.04663149041816428 -0.17657795444219201 0.04335504922351871 0.01639187454227172 -0.07336987272169798 -0.06830495548993473 0.0767490979233994 0.07644779332029883 -0.017380825664310335 -0.2060370832064557
139 -0.1290705479250793 0.022055426733939704 0.10206881841840751 -0.03615712483892622 0.08324885087668006 -0.3133512939793645 0.07131681344393569 0.06684497583502923 -0.10103964046940188 -0.11586362477158277 0.125625687465769 -0.06614825393788168 0.017309681824583912 -0.030781392496096904 -0.08082185617841009 0.028517894621855285 -0.13538218669544105 -0.02425940463586755 0.14219165829708766 0.0242342843239682
96 -0.07986442975237892 0.032183083678267076 -0.055913328100108725 0.07380257689735638 0.14711964510904033 -0.14884733703674186 0.11131723816968449 -0.013427183612137633 -0.2128610394846556 0.012037396132985096 0.11997432352339239 0.10888979882950132 -0.030174158196488214 0.20690335059002116 -0.09068220158627303 0.005978744445157221 0.20408981980019428 0.06644302756125654 0.07538181797241683 0.12763895938038544
47 0.07013034635641918 -0.07813514698506212 -0.10588905944728043 0.26426759131332334 -0.07957540189717228 0.13879164238924793 0.12919990612124369 -0.009680336951337125 0.13463245780244895 -0.1881758105153827 0.038225723226506574 0.030533494908974074 -0.14018673655929909 0.010378180409697632 -0.16023542334382287 0.00911642928655988 0.16273423511773683 0.026394713398011135 -0.040526435673879736 0.1042560604635456
105 -0.05840365620222029 -0.04842677066562781 -0.07024628979586685 -0.136212935959408 0.06390755798973453 0.17734136770297795 -0.07271312235993574 -0.10200723793182026 0.06532640946913543 0.1007124529817087 -0.1327496878082447 -0.03946707731262134 0.04730297536768061 -0.17128911853870396 0.20626177774830215 0.039801274366638495 0.17428123655068908 -0.25385210919560425 -0.012336304326032353 0.13254794162709682
171 -0.031511775444084685 -0.01718923474950749 0.0642730851656281 -0.01992524871562446 -0.022899751248507447 -0.05101677841402506 0.3705275369527881 0.10616887111970166 -0.012215420912027522 -0.048162914854544735 0.055312988726177834 -0.005906220121217305 -0.09102911413445523 0.1658530801495603 -0.12801696404112314 -0.1808455918827994 -0.2074327020524835 -0.13030523949972025 0.13967144331201942 0.005959321541800101
85 0.09195030071394172 -0.09083825736722967 0.0289412649224706 0.11905729320094488 0.1900798878046294 0.1452781279131015 0.11690843908165367 -0.02035529844296252 -0.0009858187935302392 -0.02991796588192889 -0.08120854277123807 -0.039586284051357584 -0.07855824818116125 0.01205848061336391 -0.036049839003531814 -0.011837372890469431 -0.10856431112918073 -0.015126616488690467 -0.2817420944135961 0.11568491100918697
195 -0.00720310320879974 -0.08148594599425173 0.0924932603567875 -0.11119722121073312 -0.05882601072069424 0.008354361384519797 -0.07227214388158343 0.056156447360223974 -0.12209998604807669 0.1176368459051403 -0.0823968987519946 -0.15090273453907557 -0.2058802347203252 0.18801337176062968 0.07245411183842596 -0.10985643230090165 0.2601770032718293 0.12749384529855662 -0.2149395594486601 -0.15063985342805103
199 0.072076994023271 -0.017447608856467418 -0.37429375039428425 -0.2638984179718232 -0.10729520443650373 -0.037277424845260525 -0.21703529849212205 0.13071510076057388 0.05606444550604091 -0.3257854529807783 0.19202555389736428 0.13404125773932837 0.05534322841710826 0.19001794677158526 -0.14596558918804475 0.10812023087332573 -0.1421420555385884 -0.013101702734132569 0.006905355481065675 0.008082815227804727
32 -0.19265676543658067 -0.12810571614422395 -0.004169593680468809 0.10571276996981226 -0.1553836948657736 -0.015642637020137858 -0.24213973509279782 -0.36196335222252113 0.12191316218395207 -0.031116896531934682 -0.01957659364021322 0.1646682935192897 0.14571442414498964 0.06033637096331543 0.12246048350474262 -0.0052187299426163895 0.04655517782545303 -0.09782189175611587 -0.09302026835318952 0.008872444384191734
103 0.22518415779891182 -0.07158894497126646 0.19249809967693493 -0.10912635746152902 0.09922259683145082 0.14266928723984962 0.0465956064062187 -0.05425779693130619 -0.07310940934615283 -0.13511398126116234 -0.0058103325435946325 -0.23009991934001478 0.02486027782017242 0.11470506165337031 0.10957373946321268 -0.15606058240302645 -0.167854010977626 -0.10921512697037143 0.12101386879546827 -0.12322758788912676
76 0.15109160659146495 0.000709530438544058 0.009316993178805978 0.21426039561151092 0.06878118369127784 -0.1605515316397739 -0.23289126510023414 -0.010740192373233934 -0.10966529373620792 0.02008132277637961 -0.14224433038050344 -0.0020818919346669296 0.0982744670808387 0.058117525223337525 0.05983484771036936 -0.06579783968861051 -0.13813850645280987 -0.12218140750381556 0.25673287642371106 0.11911848020691677
109 0.21608759976185443 -0.02557145049291247 0.1716426842716639 -0.10864256615090559 -0.014428073354289712 0.03238162473155898 0.028781907220091343 0.07956231047451712 -0.0879854470147222 -0.10510707957728514 0.22064034098396915 -0.04654352347846346 -0.12789294915419397 0.15178903531275675 0.03923467486842803 0.03915947835116032 -0.04248436819196673 0.034007920870506414 0.1313653383037632 0.06441538945802476
162 -0.17396829053190344 0.012570419938321413 0.12842917501024848 0.08814852076296144 -0.08236043352600328 -0.11964795290848095 -0.3015358165423486 -0.08938183577395091 -0.10277717718797555 -0.25880530994023815 -0.20568166911641117 -0.11250312170770314 0.15912965682361005 -0.05634413479829607 -0.05311689187859665 -0.000739064207296734 0.11259539462988606 -0.17704030081408567 -0.17745432052506535 -0.0989779543336057
187 -0.06802551171669692 0.033796986628788425 0.05072626962119331 -0.10306925133861972 -0.14328969429541186 -0.0013545179919848389 -0.1059573932432585 0.016289423458027367 0.008665573039673226 -0.06214310075020757 -0.23754965207312345 -0.028255193589155396 -0.05396485848798642 -0.1673851067874659 -0.11041235309673948 0.13409153263359475 0.16537913431937365 0.109758370694419 -0.08027425539825521 0.12337659568333298
24 -0.11041414093368374 -0.08899490788328177 -0.06869333073889629 -0.1520358399219038 0.24386912427389257 -0.09474636024003882 0.09077916759861546 -0.06029338430570968 -0.0107498231627746 -0.024362741583216038 -0.04943324772891751 0.2976657932629293 0.026385502856631323 0.0871564991072027 0.1451870875460356 0.056889350615295264 0.3286961634136741 -0.05580373836968123 -0.14061628138802837 -0.12967486340631512
194 0.15330859677134273 -0.09938437667828041 0.13012013795898858 -0.18201319614811778 0.12781601937400922 0.09815890875535829 -0.003800276465331798 0.06779766731785818 -0.005701010421809139 0.06498961919241236 -0.018251389592404434 0.2651834739175347 -0.3471584226938308 -0.19967203107195186 0.19121365512677957 -0.19323504032748898 -0.0672119302003761 -0.08878958614508416 0.09978776970589781 -0.027966210566466306
10 0.20743363413532717 0.07239224437340487 0.016514610915325398 -0.13007084007449196 -0.2503889216903839 0.007178529880637029 -0.0614215715125097 0.04208028557965043 0.00397400553558754 0.1651489719057632 0.14359539107509764 0.04794540146350729 -0.09102619320486749 -0.10566786139124487 -0.055681548309180325 -0.11768127305498885 -0.053292317276087936 -0.04454635528213574 0.0038878422895456477 -0.06350225050187479
183 -0.014200553001197049 -0.06971429429564631 -0.16721191258939003 0.15580636364719316 -0.1792302033988808 0.07159274143473385 -0.18411021886246318 0.03518134628310504 0.06274667579350235 0.004490987660169918 0.07145478142632465 -0.08291855661763 0.08787975180301728 -0.14854595508381296 0.12146027147033875 0.22319740489408824 0.01900494188394448 0.0251123709953765 -0.020358588060828173 -0.019956156162657022
111 -0.23394975604974017 0.09938320254720726 -0.008325116206074993 -0.05348706999715366 0.18780565624837461 -0.0423297100482753 -0.05201930322900989 0.2946228641039009 0.01648540689266977 -0.0915281846987164 0.1462422431372864 -0.13860974748229396 0.11087793613357608 -0.0890565150492344 -0.2807728973599642 -0.08988900066746217 0.19841883751663592 -0.12920032647547558 0.09969328553761538 0.19204962962067854
102 -0.04777106609097492 0.22438118005488297 -0.09660043099658401 -0.10940063752385662 0.03311816250621954 -0.05947933692197019 0.07141308914670198 0.1562118104572558 -0.23192945945507576 0.0788124202440743 -0.15196440102683412 0.015011726509523293 0.037724353429594036 0.13239077073642377 0.15829502130398979 0.17492379390425047 0.05860747134160667 -0.08584537472857591 0.1969966808426628 0.08347202064079204
13 0.1883659395427881 0.07267354905140858 -0.12295538135831185 -0.04604729903887428 0.010703354620899155 -0.09587089644379301 0.15449706279960954 0.251696721469764 0.12171056165639253 0.0203298905764844 0.06794395898451343 -0.11384984414679478 -0.07770139160445963 0.2137480562889676 0.007004825197764368 -0.18445258084692978 -0.21408499489238295 0.011774547298522682 -0.060872828570627924 0.1245161388475271
132 0.03415794426730958 0.10416051843894825 0.1421909420315019 -0.04506786800104418 0.03156075371143917 -0.039236246021669266 0.029114313119911524 -0.08352487408050406 -0.19459853930022197 -0.09417906792045933 -0.29397522004101884 -0.10180019987427322 0.09219207059593301 -0.008974011282698561 -0.36651362985836095 0.10631406971622302 0.16745784470282055 -0.12234106052332014 0.07042567508178073 -0.09440423561316638
89 0.09065664627135527 0.13865715494207054 0.1624715215515701 -0.056658446766867585 -0.05800014448136911 -0.2702183050408995 0.09639833476651195 -0.06510849856289173 0.0919091580152393 0.09847927734239363 0.20824678986349712 -0.007465110039260155 0.07915515460403331 0.08350041561505625 -0.09323296166479557 -0.06624646134472968 0.0002916815555168484 -0.05598727674832042 0.11301495859678347 0.07751472570801428
74 0.03914167440742807 0.0548735042996369 -0.052767451238652875 -0.034601077014665256 -0.17084658107399164 -0.11222145568215434 0.16273518283982982 0.030196765308466163 -0.03296468548349458 0.05781066933853249 0.3497685614476788 0.03443505751542457 0.002679555328800282 -0.21766546776122617 0.15991567693531322 0.03851602794443784 -0.12184694212375495 -0.3046609160021484 -0.01581677741156746 -0.045736314213240134
173 0.07790900781645071 0.06765725007694316 0.10902653344712301 0.004193652474671235 -0.08194135839244285 -0.08347685974374616 -0.09893046101701704 -0.12452869674633596 -0.15798570372322437 -0.11765704545857397 0.02303507141543986 -0.02945545358593086 -0.1467282196124426 0.11085294852225838 0.2034351641268401 -0.14363491153714616 -0.08302711572151641 0.039371522063601894 -0.25248586220489866 -0.0838178292011367
20 -0.06303497266160733 -0.05265286951632032 -0.11518310898899739 0.07125706331881962 0.11857256053357433 0.0830099246828453 0.052301482631180236 0.1656445905959045 -0.19811803659897964 -0.10477816379179383 0.08031107799534778 0.0884669881770173 -0.010258261223417246 -0.2710236385510707 -0.14539281912471527 -0.26023710643054715 -0.3171193956973914 0.007794034155292938 -0.1406765141705452 0.25415763059481833
119 -0.014669134960121618 0.06670454390275059 0.021334559926620308 0.1711327274775487 -0.30198172122055833 -0.05914211080542067 -0.03944712003350608 -0.05983599257818303 -0.08967362826231717 0.019086469406742468 0.29976002330276363 0.019589020244348644 -0.06858495929505223 -0.019658611191338864 0.07173116242294394 0.0504796709101918 0.3551565466223333 -0.017818457879537685 0.12110994691605576 0.00021256081037511417
37 0.09327156712337291 -0.07942432134579194 -0.1485412049586825 -0.18993569559342433 0.08755339644979782 0.08577090421603129 -0.007874087477396126 -0.08403784040506576 0.14889400310054493 0.08469982879339454 0.03778957960992921 -0.14854426543263305 -0.1323418765045593 -0.2661593744753954 -0.0681073505992265 -0.1465730247260023 0.058446424637593995 0.03603398580699262 0.08913897321614091 0.10552020135673444
11 -0.12364678164200905 -0.12772860976271197 -0.113675035589469 -0.03693617537006116 -0.0619015741232223 -0.15594406611232864 -0.14406537723705637 0.024543875581287386 0.0628840455410396 -0.1868653527330321 -0.053040557813511205 -0.20790887218580506 -0.14420940249787353 0.09814542555744035 0.017736881488777178 -0.10196990715594573 0.4289276157435727 -0.03837639043058501 0.11315514909884161 -0.021249258379208373
79 0.03537807441178672 -0.17905555287315872 -0.06413655977987956 0.015620938221066536 -0.008385088797275293 0.15938518793247222 -0.049904521967126234 -0.0038518541876723968 -0.11330051520928949 -0.014955463285046324 -0.10179297769229935 0.03765454881252216 0.04719549003661995 -0.26818424587596673 -0.10461067662670188 -0.02405198218698663 -0.09125053395041118 -0.016141255442784396 0.0845896186938335 -0.05224676883295224
60 -0.09085499431878284 -0.026867607402907615 0.09854826701010537 -0.2510957911276565 -0.03623265633072279 -0.023871624509921252 0.16464730044073841 0.19138060450278227 0.025549058501094544 0.054963797699468846 0.07991152414432334 -0.08021864050252947 -0.05815071410455662 -0.045142675845024516 -0.09137136599764926 -0.03526081586496275 0.09868772930088877 -0.04623124295988869 -0.06577703161710965 0.08447808174596493
38 0.08312328609553933 -0.005044590350789008 -0.03562982346580519 -0.046295415358468484 0.054707290379094366 -0.13620960771976867 -0.02607817488895255 -0.32350653282130526 -0.24159182236141635 -0.06119914092899281 0.11174268604837162 0.12210731111309163 0.010558730111274287 0.0004076991514282679 0.2342902807557737 -0.2340967100158766 0.1829417174218917 -0.018794349390139322 0.02272737988020164 -0.15677467681843466
41 -0.04451174482319624 0.035783129386622585 -0.001943843701023704 0.0702792008280804 0.012242159400327152 0.1367891625144947 0.15109938230179035 -0.22450127724935445 0.056948944429808974 0.06470205792944173 -0.16394351954035846 0.26965483910855237 0.2256775522234314 -0.06913501893388121 -0.03802251053453141 0.16199985344324633 0.23279616186198954 -0.04618855076137162 -0.12193926957911273 -0.04046292806588513
101 -0.062390305255210284 0.19147518418889176 -0.03701620634285112 -0.11113282400490439 -0.13778782940169385 0.14019445322382373 0.03546413775556624 0.09603321990219937 -0.07672753115891646 0.17817962100846374 0.1016406731595825 0.0334709525188331 -0.09647893020559609 -0.2650410072886873 0.2938113448925035 0.017534469460660118 -0.05714805098944444 -0.10626653980384951 -0.015480617679502977 0.1287250811320535
0 0.04193837173434978 -0.07511354085485916 0.03890749845266116 -0.02340550493987604 -0.05390785198305217 -0.007189081936025405 -0.019597168421692325 -0.02666873657089699 0.30251445157793216 0.01736688690039823 0.0165750237453893 0.06287825946493307 -0.06205229449312416 -0.09522481831241679 -0.2759307698825875 -0.041031064179193805 -0.10443289192705958 0.1969298510808966 -0.2310082906084809 -0.23643679567946504
5 0.1238903026878771 -0.0887504969853537 -0.06443588766774654 0.16711804211085407 -0.21092215978777495 -0.1215171975245767 -0.04933042631160025 -0.0067451049812016295 0.1125765812341308 -0.08600780304412271 -0.011061053095438873 -0.08787204452728498 0.05946566349805045 0.11124110324414734 -0.06548573237962275 -0.0921609317356474 -0.16877871528400307 0.04477708408123899 -0.07220191329200419 -0.044943483771608235
84 -0.2063269628553916 -0.11121743572925427 0.19604375038967797 0.04091441359186986 0.030460448531372836 0.11673305808553086 0.1044797854355128 0.0028288798098579856 0.00887066149837194 0.10593674713820299 0.1326503711001748 0.13676734447618297 -0.09432488076174557 -0.06631982830928898 0.16103724892942423 -0.24155158833344764 0.3592839683965792 -0.01133812198668177 -0.08111783377576139 -0.040145014423290645
112 -0.09482214848362161 0.18210401809301055 0.07374622384801541 -0.005279114317484239 0.028790650064182795 0.045417967481101086 0.17131852206802262 -0.01963092395863339 -0.059720602642250965 -0.2075152562933105 -0.053429287132939346 -0.046170094174151494 -0.010266505979134867 0.024245974697181944 -0.3316877633000529 -0.24080318253300936 0.22984449769072496 -0.12185171078657736 0.1428107869551071 0.011937070741763357
116 -0.0229297902428842 -0.24750841776960442 0.15108303054053623 0.05082017107216056 -0.02570794364720852 0.020269074364419666 0.046118387389399926 -0.18564015738861278 -0.11760271562481601 0.19305540629651138 -0.06711151680217463 -0.01991979969291071 0.028732352039085748 0.0369416349641713 0.02187179187209847 -0.12800248135068026 -0.07796089878985615 0.05304636912476881 0.12569367762783917 -0.17060757488910702
143 0.03554005397214393 0.16076266745597192 0.06595794022981831 0.2226051282252633 -0.20644003150859427 0.04785434551551387 -0.09690712163542302 0.0941462627761678 -0.017858966474852203 -0.07011777017215609 -0.011487601693497688 0.07971728115775065 -0.013503781393295783 -0.11576190927172647 -0.1572332142829396 -0.05933309714536058 0.14809072855720082 -0.07999217492580572 -0.21143799941025562 -0.2856624475260894
66 -0.03196503700376703 -0.23003438838310444 0.16968329080369984 -0.05667746325778785 -0.17024396816820853 0.20787127104615133 0.27228346199398107 0.11303891980625431 0.012838854661647211 0.14059748791872356 0.05813716804432493 -0.08578967004761963 -0.05647321731239599 0.1363726690319823 -0.025104289121687384 0.12626084212448815 0.13590411941878977 -0.06589049660397642 -0.04994468165395748 -0.0026997115085188304
168 0.2136263255778484 -0.13541717078704 0.07989035043790498 0.015531461335888046 0.17107001667791769 0.1866897870271595 -0.043473817208314856 0.11144583536952163 -0.0620611240153314 -0.2237666314000145 -0.16385894256818534 0.026789951743696788 -0.235861844177551 -0.11009710124092469 0.0415512370851902 -0.2084977980640641 0.033420229579781906 -0.17766858252217788 -0.16330043675146824 -0.2382604445511257
155 -0.07950672023380766 -0.039903876501687495 0.06056899984779927 0.10308204286215823 0.08422695365462159 -0.09945022592095282 0.22818235349060667 -0.10423197421424778 -0.07663267190961925 -0.12974481745773705 0.0888468017203454 -0.06778320539938526 0.027125091500634035 0.03598095859500801 -0.03141671111186041 0.05007814931093889 0.16716632549130325 -0.12622077753405486 0.17417954784339088 -0.09325183628537088
9 0.07897822535673471 0.14682063338583692 -0.013375413386875552 0.15305408167846024 -0.09165341455524555 0.08460191466890209 0.03318065794775237 0.028439665897294655 0.2529015571061926 -0.0067472679091483 -0.041266489781596194 -0.22664367856117146 0.44715455665317144 0.04295180301247135 -0.09099414599240527 -0.06143959579281636 -0.07747191897868591 -0.20505128451428037 -0.15838240437438342 -0.03388586981096867
75 0.07352531625284978 0.13885868107199736 -0.14619435944243847 0.03163871322500636 0.06748384307319327 0.03854430486988672 0.3048443174929647 0.22669373891779818 0.10873328049981565 -0.17185467867675333 -0.12386145621251339 -0.043577619471377824 0.16585421752957644 0.03429737539734864 0.019847228139288735 -0.17844645967644224 -0.13021945507021535 0.23980232619029185 0.17064684073023476 -0.09659369185210748
172 0.06419639447568716 0.1097795776269808 -0.10477481151022207 -0.0620701990979571 0.10656933088338104 0.10060672158299673 0.06891053046720153 -0.10920926305647406 -0.07338674674980981 -0.03419954339993968 0.06126328333560448 0.002048155888737313 0.07830253857725632 0.014207759308079241 -0.08565606653179984 -0.1658550710902017 0.06894378179625718 -0.05549310716619826 0.17091325320067674 0.13779776531494203
184 0.01420399979474939 -0.006819850346342861 0.12504870989229783 0.126684157909651 -0.025730008653167897 -0.14149415389672118 0.05909109747692912 -0.16880673895313392 0.12980911109685028 0.00802603336224677 -0.0266182887055037 0.16721527605283976 -0.15281759143545612 -0.161858994285395 -0.16485237406674252 -0.0020580540312609688 -0.036157929098543026 -0.08138888728321236 -0.025398460296612052 -0.12494064011454907
36 -0.09729732747063244 -0.006939481566005802 0.16017272600983593 -0.2941215752723985 0.03146040742720182 0.030611633657470248 0.11555003202283759 0.0767807570428213 -0.24872091238516328 0.028818856583114016 0.04035246977509586 0.0537137966587036 -0.03942402711677395 0.130622487516279 0.0908957521186583 0.09725927089531308 0.0021696749234101694 0.14336529292153372 0.005172515837664547 0.045988481830741695
120 -0.07357030798927733 0.05337196456716089 0.056949064482562366 -0.2468464448594667 0.0348750341263549 -0.10298702478229539 0.1079213978705269 0.16576657754889518 0.05192715756293007 -0.025512922994651646 0.0028063734349897448 -0.07922712956038577 -0.08681792844118276 0.14310029674947417 -0.07706215766349035 0.031601004104085145 -0.08222880077593747 0.336035384881846 -0.022716960653164288 -0.07500060393295926
157 0.03989715359656379 -0.13918867363543488 -0.01926300238887997 -0.18367706793312175 -0.12372805587074655 -0.013370229783151517 0.05738930200159377 0.15847312205398426 0.17908181295664524 0.020999328615110096 -0.06967289034472553 0.02665901140079739 -0.07570339533340543 0.006675200847819516 0.07119136797526952 0.14306773763134714 -0.20587375583914774 0.08466155073151074 -0.026138452786027767 -0.15192420069975598
31 -0.1138527259873322 -0.05135369749958753 -0.01854909705053721 -0.3497272588258087 -0.10241036080889297 -0.011952316552726843 0.06734894109766688 0.15324744441646743 -0.19983724143702955 0.08325214354004269 0.05554370818797939 0.203874456108543 0.19479508815982371 0.05154063133276087 0.06990309179674305 0.17865485852598884 -0.1197917865153407 0.13993482036214636 0.0375950755965134 0.09794367090871166
189 0.2016252216585161 0.03699385487996864 0.024204337957006532 0.10107728422795524 0.031704800522417684 0.21919084508494624 0.037967946542312815 -0.12135384995545517 0.1847929884200205 -0.284679828977966 0.15998492077518991 0.051528256689392565 0.13386022417174379 0.31056898699875674 0.009161955957851369 0.2819883516871619 -0.13971650582082595 -0.015046936871895199 -0.09464176063117401 0.00914598896513834
67 -0.005794264631841227 -0.013524268975804105 -0.0221052342471832 0.25613187329780857 0.24541510772356376 0.053550384247224504 -0.06750200030255758 0.1724215468095807 0.2417936010603402 -0.22602201022873858 0.027223233405556928 -0.039545171703965494 -0.014187163759134794 -0.06516936514350564 -0.020896425001849146 -0.012832020709273605 0.028712943822604454 0.0964226108450405 -0.04933876016487732 -0.14855686598725018
159 0.03953646485458529 -0.025339870789352504 -0.21578363254938074 -0.027037479465228397 0.1707084561908504 -0.011034152519442926 0.05511945950237686 -0.20521542589132055 0.3057741421823322 0.002510878522944167 0.0305287824059865 0.12861344035739303 -0.030709806943166038 0.09563816861142614 0.2786100822421474 -0.0018165874869558408 0.19908175898099076 -0.3058884234658271 0.09667757025452083 -0.19077955490657697
161 -0.01471449400391134 -0.17838871311296126 0.19698787589476874 0.0020971049980282675 -0.1572367665841715 -0.06488899046801402 -0.1692912440633862 0.003549249736633911 0.2663807162333341 0.0911448994674828 0.17290757452133562 -2.228623143187445e-05 -0.12206910558716892 0.05990338777812845 0.10453129778699782 0.08788812515594574 0.06159702782920751 -0.01776799120352429 0.14929540518580817 -0.18072934585325015
135 0.15722064083597934 0.06729117643797261 -0.02367095237226717 -0.21409659846074441 0.14643621364074016 0.09041509847633801 -0.07968759614205499 0.0332667221616878 0.08514327280705895 -0.014067568946075299 0.03510905514105965 -0.09045669771615152 0.07289611097277073 -0.1323989482341737 -0.13436855294800878 -0.07458316355356212 0.16549372976510526 0.06330236480870413 0.24061844968184853 0.05808722581979979
72 0.004225637612000784 0.030699032122950998 0.0512501232832559 0.13919207848122025 -0.06368009444753873 -0.02839867854363645 -0.02526415265440433 -0.10175907402963089 0.17729805335644422 -0.07388344333541755 0.08002370821398819 -0.058594948588404125 0.18679989400250727 -0.012616017083848392 0.22501488798895447 0.028821760391722653 0.016286336021588133 -0.024993970179395465 -0.03333170304375197 0.19964600850830097
6 0.059998074753197926 0.07435111357944726 0.23517579798528634 0.14084583427131037 -0.0057358854612921985 -0.11315482980734567 0.1545219706494295 -0.14495639127293028 0.03955663438135327 0.03621582398172123 0.09282757418383362 0.26971392985096615 -0.053201791885377325 -0.17296188052294084 0.10213817764401296 0.10781680277978005 0.028097287610354727 -0.0847656426992679 0.06548710580787116 -0.0011298401319702312
88 -0.10945893053108513 -0.29338695797733827 -0.02236078854660749 0.06790025149240576 0.07492587046883631 -0.008438775649381322 -0.12280946348547528 -0.14927000589386735 0.04744407021258349 -0.00011914332436751625 -0.162487856783213 -0.1063128015801264 0.07732900157064314 0.1666262750622467 -0.19336901151017635 -0.09988062909039341 -0.021664726637883932 -0.04978272344180472 -0.19132712569844892 0.07960505508825236
18 -0.10838005823240206 -0.1831584311554433 -0.0812681887806983 -0.025058408172839837 -0.04048578728277635 0.4180347891576223 0.08059829642273417 -0.0590327096497638 -0.20336699673340328 0.009766923967815316 -0.22299226489335258 -0.21401305205656942 -0.10303945893890466 0.21388320218269627 -0.23826759608299122 0.026746728664693003 0.06648367922244207 0.2626428102311077 -0.10979035224214176 0.009224596312172385
118 0.009110247364179938 0.07906609016143838 0.004880469405398845 0.10191748127050575 0.037668697412388034 0.09669029810829431 -0.17445284896204497 0.06558021884839582 0.26192522451452793 0.020443163124799577 -0.09510905784744739 0.05562031941604407 0.047169071280441316 -0.0434505325911039 0.03917245696703876 -0.34765842261660773 0.09909502352981672 0.13432383603507017 -0.08155770352907482 -0.14789008386503988
145 0.06478435071266793 -0.046405887010393096 0.12657375470974505 0.009387308960004713 -0.011262564514784504 -0.30042734063755583 -0.07119115628981705 0.0006496640384172416 -0.10464955412781642 0.11460212630244612 0.013072103895532565 0.03741923587800844 0.24477125046415887 0.039227284777251514 -0.027936278959870147 0.18693030725487553 0.1334133711595503 0.1079136602029359 0.007949817443611538 -0.08741277940847166
125 0.07013029036231047 -0.06270081159147238 -0.03493518581210399 -0.14494824310987015 0.1294661939257355 -0.1460496393948675 -0.04929756051830067 -0.13697207696465064 0.1295924636738743 0.011141627433315501 0.1721425490767217 0.16218235372497236 -0.00038905464059187073 -0.12866621445548068 -0.14584850735716764 -0.12302724844339205 0.13134734439362306 0.13560310256204203 -0.017489022066417902 0.1474142051693019
156 -0.13294157008068114 0.09421894440595005 0.04720476233574937 -0.1944527809722462 -0.14053153266890583 0.12210326418080376 0.11268265494342256 0.1376606332196318 -0.08736374464234865 0.01070262046424883 0.07312872296520377 0.061008404913078094 -0.08511065907114322 0.0529074143577942 -0.27023863375769375 0.2604241206932251 -0.1327974332159478 0.009834262492203129 -0.12719119121049774 0.09062941946340378
53 -0.2533249190120408 -0.01604933946286153 0.05332116292013272 -0.09227304358273536 -0.009848241642788457 -0.07726476472769415 0.1512064985823934 -0.07378128536072324 0.11223450547414619 -0.02154893529587832 -0.01896859670679031 0.0017397855514706617 0.15186661352074474 0.1748814862633098 -0.10731082025676755 -0.04783406185284489 -0.053436805604296145 -0.025376575255453324 -0.05286170271832809 0.02333200853479688
149 0.09282947658444712 -0.23360109747095814 -0.1100075043089656 -0.1085511452075583 -0.12871768503223427 0.03496765657488025 0.10669242101607937 -0.0016232819186490037 0.03631004549649663 0.05088165570567286 0.08468991927901044 0.07426653941338707 -0.15969995164441914 -0.1472482272084514 0.0471798151999718 -0.03716821818523791 -0.16313420784326707 0.022660744103080173 0.15938619013587513 0.07369266082991499
167 0.1486600997338578 0.14678421651160636 0.018491401437541875 -0.039733155346983434 0.0016992362321588143 0.32625271882278534 0.0818250288495238 -0.04741937097096767 0.20353546984215617 -0.08987688526203653 -0.10985369113962383 0.18536890444205958 -0.029605708539074405 0.03826777099071867 -0.010699523483464188 0.09787594516115293 0.07636641059083307 -0.06465311909316178 0.1094435152552811 0.03879258941176995
152 0.1787603617006538 -0.2106022846419579 0.022419479881707928 -0.12070340403181007 -0.0036144705528387724 -0.05151695864159603 -0.1744287733905863 0.06643804672060026 0.15865196029994263 -0.008493734518842578 -0.037598652836878646 0.17342863083578663 0.19938981461909627 0.006234095655330476 -0.08794715789200966 0.02966296853694772 -0.1976068944942829 0.07308305102992987 -0.12821535410244173 0.03214784870132754
92 -0.03742278741382108 0.04996413368641339 -0.19474210746552975 -0.22063351306150134 0.055684459424501016 -0.030494829883130712 -0.08237280600796373 -0.015816873003374723 -0.010483439080605502 0.011277843131241827 -0.18208019805406947 0.374793168826311 0.13111562101117105 0.13108009346020455 6.806762486822003e-05 0.16906480454132913 0.057013822135192335 -0.1990723233504716 -0.14578208690817082 -0.07972796669037052
129 0.04640572232556269 -0.21138620235909034 -0.015874710701658357 -0.15650347003144677 0.030999412460933674 -0.01582966936766129 0.00490506755198386 -0.2673484472483354 -0.01692018726682606 -0.014905885058338413 0.06191454214549811 0.014796430938558534 -0.10178059308214768 -0.18645059480626353 0.0995958279597399 0.1473390729575202 0.22544329011530917 0.032926918564645045 0.19560603713476654 -0.05386958354759753
185 0.10388751895175882 0.14443260993497178 0.11245347661950324 0.09906317048739892 0.014391689511482168 -0.02536205914549602 -0.0920993369893772 -0.07881509448994008 -0.05226692448808413 -0.006628667916027608 -0.025133462561355804 0.11418273375750584 -0.029693978483352517 0.03120725971486634 -0.10802938281476372 -0.03274942437917434 -0.12614616777053708 -0.2204935911016228 -0.0675631885280692 0.09645184267646655
142 -0.017524066119374442 -0.07017648917450402 0.22621700479353976 0.12726107404135742 -0.02834816663784666 -0.10975763861494307 0.001135513015348024 -0.001598781389977045 0.1438568019381072 0.043631659091788205 0.02256584550521488 0.16280777336105753 -0.05696279118981762 0.1700808120004343 0.1565208452442806 0.18263063577896774 -0.1877564559027344 0.23613807691584876 -0.06507017040964613 -0.293197072286348
166 -0.1072709512781069 0.08669754902821969 -0.04843065612697797 0.07065904427942184 -0.09091590918148422 0.05300438234289873 -0.10703042487455129 -0.05632590376016823 0.13796293695188339 0.031104447956840368 0.06263663215707659 0.06220261088790458 -0.15110117148180202 -0.14613915299351216 -0.01181228765018676 -0.025584077930212033 -0.027898580400130442 -0.07957015523827665 -0.06958514316518565 0.12630493465129525
3 0.00130407983851536 0.1427052888458066 -0.04823254629624944 0.005613204978560553 0.1878865332013922 0.17975873730306682 0.14386966303775015 -0.012467601783833437 0.051785858729174634 -0.14404318035524438 -0.14062253347018477 0.022408014515218264 -0.11987938483365143 0.05458876496556698 -0.15687035038128433 0.10626521200934604 0.17385599093015777 0.11257732337347978 -0.01586843033626521 -0.06320170130573247
134 -0.08112191967179973 0.10077895876764265 0.10070985762162961 0.0631965957379677 0.11291727017507872 0.1549963178114086 0.1367142351962482 0.15207136405471022 -0.009410550673769984 -0.02536124794928828 0.10740405464984908 -0.057040110280411394 0.045992444357415396 0.14591631608255096 -0.028114905103992675 0.04355641197133832 0.16677191053474036 0.016647032582447777 -0.21062304707161153 -0.08111184613522324
91 0.07254842252225928 -0.16106799823674733 0.10712829290683692 -0.03606912298230004 -0.13352753426900194 -0.09532621760817675 -0.1581027755980475 -0.04659856257105273 0.05733057391710152 0.264755015264673 -0.1979193391902729 0.16014343116656748 0.2540092946437368 -0.10993695848216666 -0.16430409531803958 -0.01664939009318125 -0.223282829888296 0.09767091554273685 0.051244495591060917 -0.17480081428130523
4 0.14858716823251505 -0.0075872367631076324 -0.05808570247948777 0.19581677704253073 -0.2148652303792416 0.025482336390117988 -0.027607593679565473 -0.06122818198345704 0.05785367502476708 -0.22616824718382372 -0.011377364928222984 0.0023863206796580837 -0.1470095917072046 -0.019270028408483346 0.15340317959006014 0.053050536493005465 0.03493524296938478 0.18690114148979695 -0.09352914306932623 0.13021206880133135
69 0.18993376418028535 -0.16983840516932722 -0.08990853702591785 0.05020812479784147 0.04902696543586082 -0.004844030866621773 -0.12989286382159138 -0.023648517931803954 -0.1740856706518011 -0.29131842627198684 -0.16019291294935678 -0.19272431387358888 0.13889782111504886 -0.24986611629556668 -0.05135625287172981 -0.0870923184727441 -0.226397020523056 0.03768634689255577 0.03917104881162539 0.016976986533774455
55 -0.08096990830370795 -0.17779141176912983 -0.10281936153586684 0.018541422345864752 0.2358692916436064 0.06475606285917443 -0.14656314801056836 0.023307550393534462 -0.12285217531389721 0.17427067851294428 -0.026374691974646272 -0.0032463819084133545 0.15531929553312554 0.02474638586350256 -0.009852868059476598 -0.1764127872791501 -0.07630280496515347 0.08662606681309348 -0.028758233011814006 0.12731848014448074
128 0.25837029171009684 0.06306857717061926 0.23905027991766722 0.0755887053800437 -0.032785147002466104 -0.042837750728640434 -0.12654788045906495 0.0035778290236582683 -0.01112735599723229 0.31221897721839603 -0.0033484079824970593 -0.11465265781450272 -0.12460380583952203 -0.02170777249490987 -0.160252163569279 0.036548467248682 -0.02403375306107433 -0.10770383628420681 -0.050434876002809936 -0.10294610769381987
29 -0.028214382728726475 0.02564926299053366 0.12712514968108216 0.225431251556448 0.0027933424843013506 -0.04766075323029729 0.09732789541372554 -0.05447997405076021 0.1912568183897831 0.15642073351766714 -0.08621357191914844 -0.16795367573916764 0.005008721088270215 0.23903288619082497 -0.2884008015129379 0.33543350817582945 0.06670338991888208 -0.02836133204848491 0.06165245097492244 0.03599278074739981
104 -0.13623370414483707 0.03465414913568276 0.01629115439906379 0.04577076992693294 0.004192759631508892 0.10069884513771593 0.1422302085680335 0.04735078022382632 -0.20247922105945695 0.07491855488015926 -0.050122280272248416 0.015068617212791537 0.10482621493900296 -0.0244183323379521 0.09765274854388306 -0.054312230544441745 -0.09892227573157723 0.10754098722941262 0.021904739772636024 -0.17418882721425738
97 -0.09177629412078002 0.02113631763600582 -0.20326280236126806 0.018026776175073828 -0.14463427656553973 0.31565073921970865 0.2844719102933851 0.10500265641533153 0.07795950116732374 0.02359027723692925 0.08355314261153986 0.018000004696468647 0.16253878760573906 0.1428275811102357 0.12299816471526849 0.09186659619227563 0.15703467035658086 0.04895605084644437 0.2722015936045643 -0.024440984180599548
153 -0.03197224026549602 -0.020364417561541944 -0.023310568934111448 0.16587097779447993 0.0034363009968681967 -0.2127543028499596 0.03583767448713879 0.06574554958082193 -0.11590098311588458 -0.03985684406977541 -0.165961219036321 -0.02181738031232527 0.11164571986398332 -0.020057094957220797 0.11578294472492387 -0.08597712699115592 -0.0587348917272188 0.036462184479528544 0.24268553289576467 0.23436829514176127
8 0.06724012607526918 0.11860220738242493 0.04122159526805004 -0.09724998516190429 0.22673000723784914 -0.010813184208939144 -0.23881691783379194 0.001674836026171807 -0.12154470359507076 0.10306254847178678 -0.09166994480180733 0.1553382985614265 0.14029203833279277 0.009591928800637287 -0.08480672956082815 -0.0027537407109994526 -0.001240179519764842 -0.1600345611876274 0.029625085445054964 -0.016502053812336596
83 0.08372282080384168 -0.08384146282916081 0.0534981957075756 -0.14189007268100756 -0.0627091415388256 0.2228546720117789 -0.053165683298008255 0.009518738005324144 -0.18176457170748558 0.043142570683190884 -0.020303974531062797 -0.03970133740607956 0.06734466375965635 0.05302864231740811 0.10640894510921861 -0.0620241649192832 -0.02924677223759844 0.08348852855898668 0.2264646326444715 -0.10557524151811597
70 0.15472162898175854 -0.04299792604525001 0.004543430088290103 0.016760600823231733 0.08631025716912433 -0.13372374373485865 0.035999757120641886 -0.017937430414394277 -0.1678374642627437 0.0039896786410529555 -0.21812948434355847 -0.04982789998316939 -0.1681629282698168 0.09200153727403619 0.07551760807267614 -0.03526530503066138 -0.1472949373697916 -0.08186195424857368 0.2690478090545453 0.09094047013061887
17 -0.1579717660844224 0.14916500481130957 -0.00017064597973089545 -0.23419522070823132 -0.14916017054117484 -0.03785782437645506 -0.023037103477885353 -0.10033374152673151 -0.1507899545424316 -0.04980417221348814 -0.09888462167756454 -0.2320613218017899 0.043856154171897886 0.08694864121727858 -0.26705392419645085 -0.22141797452654635 0.01956153793911436 0.10898035698321369 0.04554766319574065 -0.12320597923812063
170 -0.05749217592868053 0.13528595675982347 -0.1459222231091955 -0.060248987575853674 0.09370879868191018 -0.01458020824107263 0.20347496804806112 0.07080793077352558 0.24466336630502913 -0.11388765144468513 -0.06957829517948118 -0.03765063398878811 -0.03638733909285031 -0.027463459990096063 -0.0775261152868737 -0.08290133002457444 0.016834916290977858 0.08389795153614484 0.00774635553487324 -0.09947437440176621
160 -0.09200579445387823 -0.25883979869657636 0.011482815911097859 -0.15494612312257544 -0.07494240964953926 0.17420054119924858 0.07958935792141457 -0.12164447612868223 0.11629183342616668 0.1994951720553186 -0.07736626349383433 0.08436663580803085 -0.0002569720982376001 0.07883677725056684 0.02619052881864171 -0.11480602189282801 0.13510371034422586 -0.03358166317712972 -0.16884384992421939 -0.08756166574245883
179 0.07450585344201426 -0.18668687052819788 0.16727854212490217 0.2586965496274392 -0.07271859323181513 -0.05704435875699636 -0.011005507483917322 -0.16352667617790909 -0.2156584692617754 0.12447116097680036 -0.012142728207734661 0.06191587838104278 -0.12991207617315664 -0.03570675873445434 0.0983777945325497 0.26133962552331286 0.14891918532895326 -0.061940528376770915 -0.13134175894905445 0.05500430696018035
165 0.11523258103085718 -0.01441304763945771 -0.005740222054180459 0.19228559855895838 -0.036524571042869124 0.017548696460626505 0.05924540165847004 0.049742471414571755 -0.023213546039231488 -0.13734987624570205 0.01456989542110742 -0.18638070756694983 -0.0890178867142582 -0.12554893978645398 0.01132793597838514 -0.057878609762004145 0.13258502361709598 0.23792301482783645 -0.03281288108054708 -0.16564909778488998
94 -0.15402318108148283 0.15418364439251914 -0.10213766505175355 -0.102003562515864 -0.06810535312698035 0.0664713891546998 -0.04513363879818365 -0.2380554872742736 0.2093301516283724 0.21699948361117055 -0.03362032607724863 0.006082416536122076 -0.040937400537774615 0.025630210641619838 -0.10464609673400675 -0.017715820711790203 -0.16250149321158228 0.07417545699682973 0.03466954994711811 0.0016222542750576904
164 -0.09675990854282226 0.08214681755855881 -0.14007529728122392 0.03952834845944273 -0.04507372381749841 -0.1702282554463325 -0.12665438451100827 0.07784849537786676 -0.07421701600168355 -0.24103207406133875 0.04423131787329358 -0.03651212020092121 0.020112627575498126 -0.11000050989620028 -0.011335803041086983 -0.07813992613462893 0.008491566602259547 0.15217938669646563 -0.268419345195434 -0.07742173820704878
131 0.18224427870876392 -0.05641658263823674 0.3414324335813037 -0.018983680489368115 -0.022570798295634756 0.1122549663006617 0.10704694693060267 0.15934201922692445 0.15065268596365694 0.34560231400779984 -0.11214664550311441 -0.1476391299430396 -0.24478073880385587 -0.14455261598863656 -0.18696446750947834 -0.0016469436705751734 -0.047653389211258175 -0.05597724309346891 0.3025217243902264 -0.2692264530479298
51 -0.038168239938684664 -0.09373782503503242 0.04062927930225599 -0.1335824368986114 0.1821297909465457 0.09958797515310693 -0.05456762506769656 -0.05343429534720521 -0.15497996297251446 -0.05795136975991538 0.04991139911652488 -0.0018906894367588362 -0.04544457434376516 -0.07716195064688304 -0.09877581548685985 -0.09338927224816512 0.0181092994426863 -0.15196567806762484 0.04927191547844047 0.009813649669823963
63 0.18004233322999547 -0.11837588204482234 0.033396559602608844 -0.01926299227584209 -0.09415606429001164 0.25326230232878694 0.1338900745434389 -0.15293968162578436 -0.08893479340822262 -0.2984220230425854 -0.14441331096654228 -0.3234619195450089 -0.0204449746310372 -0.013978900460746747 -0.04366772645697034 0.040465192487541574 -0.055855597713591 0.13277168236139478 -0.08506452367423627 0.2723023934738957
121 0.013225093172152992 0.05555752231876467 0.25051162691759754 -0.15302572593719008 0.03487397916699956 -0.22790291335821622 0.1504591448690545 0.2690582934875879 0.00811183461285144 0.08803700757487569 -0.07093958808738163 0.11899796021718863 -0.0624312943319545 -0.06137871829669676 -0.08205211938624805 -0.1333662128225891 0.005398960845080686 -0.10224011995294882 0.010953044770452317 0.047127545514581815
133 0.06393459207213917 0.05091115526501605 0.055684383897708876 0.05748837902902461 -0.007114430058742444 -0.08100430308014396 0.034155784188800574 0.23575394269424266 -0.14388240453342932 -0.15349476416483487 0.009111122449811849 -0.0006395238215963651 0.08404392700975465 -0.22067377594175178 0.08846344663811209 0.1708326970924728 0.0539763624791845 -0.08632934712419009 -0.2860549007937025 -0.03580431774042638
147 -0.17115957437182958 0.04687409787668787 -0.17457177480688632 -0.13131212158636243 0.08603411097643904 -0.23908396997938697 0.18951087053036697 -0.033056300825111726 -0.08221835820965523 0.07202391103503869 0.0565571376231165 0.15358702978818528 0.1267955102935098 0.02691735688270811 0.011792937175062766 0.1411398800485007 0.09412295746141458 0.35265179019793974 0.07710855585841105 0.02833266134977807
30 0.21165227766084962 0.12498921722803026 -0.18260137001211155 -0.068982011706878 0.022963638544571875 0.06907643501832149 -0.1842467840655068 0.10096758132025094 0.12973321917672284 -0.08283082199998255 0.2496075585275282 -0.2832530792361992 0.14249423748840553 0.021886138149641795 -0.053025912061306996 -0.03561174362366065 0.015630973584921732 0.13062125590196405 -0.08370974337279835 0.1446332606176436
180 0.07776116653932422 0.036668881795048854 0.05748026948744759 0.13285618602552218 -0.025329100960684588 0.3381377763297259 -0.04463048229922824 0.07396583556785699 0.1863994811782067 0.20759555823102735 -0.008725172109371659 -0.02305811790055628 0.06476822909488635 -0.19891252354418984 -0.07553778276687224 0.10737608716003524 -0.05861959048748223 -0.11318469968310489 0.05441511844673015 -0.020302834707098764
34 0.32547479438113514 0.37232493412908463 -0.04305892156802492 0.10800766813811918 -0.18147512152712691 -0.19362014934777858 0.13833455094798378 -0.0429522862110358 0.003526492505593709 -0.035270724629343976 0.24455393559372762 0.024566563621391035 -0.0014996845130632241 -0.07412645607584505 0.05807686516707368 -0.043508669158983854 0.21353755993879667 0.12511498829535256 -0.0814562819011075 0.21292324671070625
106 -0.05171295485562848 -0.06543006234172043 -0.22866480644352988 -0.21850755557675502 -0.11826883001319632 -0.06457801101427482 -0.0055954927737583825 0.09093893847329654 0.03796390691991614 -0.04652013440310715 0.16655960945124978 0.01589478275449424 0.16459755846827476 -0.06651208019830818 0.007236533292128099 -0.11392675052085327 -0.0513775527015186 -0.13998800118463559 -0.07195506007286498 0.06365152116202774
48 -0.19872169620826033 -0.1708724574178911 0.12158645647377374 -0.08865549918730009 0.08898837665170775 -0.020393581122163145 -0.020735506032044004 -0.006561058302835745 -0.029203545713872448 -0.03565142719365923 -0.03480309217856239 -0.13057509131469908 0.20186794256965282 -0.21067162535292167 0.01578169891363575 -0.006641031111270313 -0.1667147907788931 0.026257979885339823 -0.04999618654390149 -0.009209418182950364
163 0.17056192664657865 0.22746692776832333 -0.11973129317144603 0.15933911373297419 -0.10967468079387406 -0.01056564214608289 0.1404447364466699 -0.32072164211800086 0.009954364102358056 0.0007991666644899256 -0.03484312168054343 -0.16429509320693786 -0.1225634377976517 0.025887225952936913 0.2018337978967335 0.004500391388983179 -0.06766545344236487 -0.07723498803001981 -0.13515071560030897 -0.013635497843172546
140 0.0649939595645382 0.11054428768521031 -0.005421468006213341 0.0005653783564744765 0.04750623105045934 0.12096509336624743 0.006357845358775707 -0.054304934024363954 0.13438755709094657 -0.1661979435210576 -0.06255145382657468 0.11833324386685938 -0.114376686245859 0.07216799845621326 0.04702868433760741 -0.013932338340793566 0.0818810242073477 -0.12348561261670463 -0.04942380965171483 0.12372020300309408
42 0.2088169977342142 -0.06471684870993977 -0.055174040682952896 0.23559300440574646 0.28614558638968035 0.04283679371485367 -0.17110009415883656 0.16000343792484098 0.0753145314965163 0.08256186903913565 -0.08504329211860097 0.27566607648897784 -0.2422124857556388 0.015372729489369354 -0.041598924030973226 0.26865225589719327 -0.08769920960514233 -0.08069745740297664 0.10633522630997772 0.08723879850520999
99 0.05714750665804909 0.05937920415676219 -0.07158227870534233 -0.14651741414598773 -0.07365718835419394 0.06492975759039867 -0.18218732107541957 0.055084014317059934 -0.1398803389415337 0.10265091136563148 -0.07640715765862623 -0.059983546290506735 0.03473816866315683 -0.13822405739500418 0.029165926014263557 -0.027121872099956427 0.029598692841565147 0.06904788434041059 -0.1661702872725962 -0.011833607530500103
169 -0.10841892181992584 -0.09600416219635219 -9.88371896783681e-06 0.10845644849356348 0.04592709395897836 -0.06395328781219099 0.05613848386969296 -0.014863186091766479 0.0436659013119458 0.04869656553375051 0.09168417883463222 -0.059824184259757655 -0.21492885760725536 -0.08060053520122773 0.09453758012124525 -0.2189530532352983 -0.1899633431564405 0.07676754769792851 -0.004414270371544694 0.020178815254487968
82 -0.03995631726216018 -0.13100273389367809 0.14099092071311597 0.2518482206389407 0.00490879683262837 0.044299284827264716 -0.233061484607684 -0.17006716977886527 -0.08736969558635424 -0.10278832322074039 0.22458424951778827 -0.1674929683812551 0.06002654433576436 -0.16073121483840594 -0.29334973174993767 0.16170407956115013 0.013492370511098417 0.2685013696518452 -0.1360183245864095 0.0779889876163783
98 0.10950209912332708 -0.1290110661322221 0.2597694367728024 0.04105594289457046 0.15997079814820073 0.15406717728963693 -0.0976128808840112 -0.1043373783576081 -0.07590027884193788 0.2089244577718332 0.03794191225978983 -0.0034340397529041417 -0.001322978509198828 -0.003528842307952508 0.06611816125085208 0.1030483131195237 0.07553738549536865 0.0420975684989891 0.22003517159724306 0.10589105901152371
81 0.015599065749798085 0.10684738829907492 0.14794056726562432 0.09393257014214192 -0.15086238626877366 -0.01483064733910101 -0.12463837758000401 0.10993202210137554 0.11050001524994901 -0.1087370589540871 -0.026556640772184666 0.09218171163536475 0.0657428657244033 0.03413318666643537 0.12159701306083769 -0.08205901613797265 -0.15334018260358687 0.012245733745576377 -0.18832074194848936 0.026316468050716222
197 -0.051675355719322504 0.05684826030034125 0.13460022242632577 -0.12765302242086551 0.056486636667844224 -0.1206716652979883 -0.15786248740410522 -0.2343019008742524 -0.006710907158385126 -0.07261850200629501 -0.07248239498806422 0.14878822181344853 0.15370183935969026 0.06646591222136637 -0.14884015408400827 -0.15592024786281694 -0.13575304382193257 0.20175080377216606 -0.08211821986295396 -0.072890049483686
191 0.06728312592763605 -0.11085531874529843 0.17147559640707846 0.11352376063493519 -0.04212329446442545 -0.10209282430548598 -0.028392056258484316 0.1316771211375864 0.10098656255672644 -0.22004507250118047 -0.07331905693052555 -0.10042078944815074 0.07477196617463744 0.010455759269402353 -0.02069639994361622 0.12932550004226182 0.12156210699765528 0.05072927986919599 0.13369578873557422 -0.13647800648790953
124 0.07928969323400228 -0.1186971896764508 -0.03294811097354614 -0.13011544604246428 0.182087540112558 0.02633391318169399 -0.051569166440348056 -0.13720986025167978 0.02347105367907817 -0.1401956517957368 -0.33080915431830255 -0.06251259757486896 0.13019845790264167 -0.0302094128484874 -0.1405329259063545 -0.04389244329539035 -0.22012991449580438 0.23239566502525422 0.17945447431409114 0.08634402351142102
198 -0.03026009811672525 -0.01463325946683741 0.05467518463018285 0.032930831760223794 0.02275332424521319 0.16023501319081387 -0.27175879967472955 0.15922149269481972 0.12113085017714613 0.2097935310549966 0.1136911504533093 0.1435115656643061 -0.3093899993767792 0.043802001510156875 -0.0195354995130707 0.04580854893213994 0.042106166793611115 -0.13142019375244948 0.03391907852627657 -0.021323886465469614
35 -0.12278169513002539 0.11172289494398771 0.017129805862432904 0.007304316837263898 -0.19000307929423393 0.008389466281012977 0.07345968322220635 0.14577357905997373 0.028764813572072633 0.2776836742909603 -0.12132901205998398 0.027678164719463685 0.02800393403065846 -0.12022609393676126 0.2076929628052731 0.045698897553741576 -0.022180973988592364 -0.13239155890532026 0.08155627287957926 -0.09203423400883778
54 0.2501817095532065 -0.19527888091754422 -0.1290956942887894 -0.38796641077529576 0.0842792009202913 -0.17185052416066676 -0.10379056621929879 -0.06464098810711218 -0.044274135062924595 0.11991125800379976 0.08096181001849223 0.02110776735097125 0.02571554562665915 -0.14077469567071715 -0.15615288975385763 -0.19787204153698704 -0.18680778661712658 -0.012107319476403318 0.041019620976152055 0.04725456376691253
62 -0.03777546091946064 0.14587210456702457 0.1630066584796701 -0.02415330416779054 -0.10245884924965354 0.20647847691264662 0.18032213541213882 -0.10146310256771625 -0.4067780813446774 0.1555903949251838 0.07250914509930376 0.06754128263476859 -0.00892171555766146 0.22455924201944247 -0.10577571038018573 0.14959089720641844 -0.06597289730308127 0.03556448542341077 0.01521058469310705 0.10918217506111469
150 -0.04143904030078878 -0.01601044165734971 0.01311858544902159 -0.19527624317293552 -0.08007856124940492 -0.2760865412073079 -0.054939007148612315 0.39816391918984023 -0.06212631636588807 -0.006351724298495616 -0.026335969923281147 0.02081491861184594 0.05318327755968489 0.0696186786601302 -0.161292064179934 -0.048922809728600615 -0.0949882111444227 -0.23962787448712022 0.03631560216661749 -0.22179045802245728
93 0.06884803919742458 0.14008376354009497 0.24190938334949436 0.06871257549444158 0.06080358677311674 0.016985715743690743 -0.1318537880689848 -0.030120031901658774 0.1642261812919877 0.14949643362515747 0.1305519981419336 -0.06500340336663928 0.15312756812084138 -0.021385447887692827 0.12229733283293136 0.0718433303976642 0.037730132922859955 0.21658301642880878 0.024676028462293647 0.27442004161993705
110 0.22846277112924848 0.013165982105578176 -0.15082380432550582 -0.008421257715894805 0.033522453848937754 -0.16598332505823707 0.02700380835195312 0.07613640753045396 0.07156594311448018 0.10916598058196551 0.17064671994035857 0.10586153872764051 0.191004375210115 0.07787185658901649 0.13205817428480437 0.17027119747457434 -0.2869358858953747 0.05153324587300705 -0.005496039603962594 -0.2744148558246335
43 -0.09842862331074731 0.2125759193123883 -0.06989447092812796 0.07742718082525388 0.20125920048156692 0.009268796876696883 0.10273102041385324 0.062466996257373855 -0.0844755873866011 -0.08926419611857817 0.10309146875064532 -0.09723368773995295 0.18100041709029796 0.10757055642469586 0.05112569809901989 0.1763239055907551 0.13338600824823507 0.05460828748059596 -0.2307954418149673 -0.07285125737923812
181 -0.13531074438325097 0.3482227943662886 -0.06954258885711938 -0.07866281916198936 0.14123308869285872 0.06837321440869691 0.12943496164790705 0.047008386669301405 0.08968165468083014 0.17911428228245205 -0.10647402280087477 -0.06816129516851349 0.2043007281218334 0.21848351918924924 0.08209391961219076 0.15518990783655115 -0.1335420300482451 -0.10797987185831817 0.07189453622287482 -0.05623195535539914
188 -0.11518594800506562 -0.07847952679544955 0.004821015126591118 -0.22297270749693318 0.01637775044444448 -0.06764737776105206 -0.034169738813075286 -0.08165427004284734 0.05724104853965698 0.23790469239291093 0.2653807692532206 0.005814295006466994 -0.1784501821180934 0.13224086225669823 -0.08627355293979269 -0.04601576099714855 0.035597503454868354 -0.04064500339530174 -0.016216034727623757 0.2072206201570013
107 -0.23229895355459676 -0.06639224739370019 0.24268956658275193 0.33714992816198 -0.24283097852605195 0.10102313944848754 -0.0740039610550929 0.12408605130329182 -0.18889069967356847 -0.010336611346077232 0.0011320803720717087 -0.1475520023284507 0.043956629418426416 0.07565446314629928 -0.03244309183207352 0.01579116789247979 -0.10090943844302659 -0.13263156301286308 0.23866206420780373 -0.13342030929223214
71 -0.17337028911892696 0.12095769309825569 -0.14064273974863828 -0.05255713101408837 0.10019636998050518 0.0799440325815231 0.2198395617229169 0.07752831943380444 -0.22521849044723172 0.10047263432770615 -0.0689932224986027 0.06575386032485413 0.08874206013917456 0.019515199952708905 -0.13917287544184473 0.10477400666389729 0.054472123382731184 -0.23026825997049666 0.03161840072255079 0.15525606184312055
176 0.15948654751199023 0.01632770754335063 -0.12240743771624522 -0.006981730552024372 -0.11743993657451682 -0.05176303023610787 -0.03469143832533559 0.07932124585096044 0.19175955704178335 -0.042029416807536656 -0.05610163897394484 -0.14730401935567008 -0.05334603300534322 0.37718863109601364 -0.04059528615738119 0.021724421140827822 0.15170991719873247 0.10923337981903328 0.14255374813945432 -0.09634819906512314
114 0.1187424595809144 0.024531826341526456 0.06405076797708716 0.21896451060479974 0.033269493484813915 0.07564902145862275 0.003052388097480551 -0.15540162749321246 -0.05814806361244682 -0.027204365921184203 0.07783599298642166 -0.10639943834886445 -0.01651599297664865 -0.03612232199192434 0.21184574326792677 -0.22740649344328268 0.12057837353182166 0.17208507791538033 -0.009559023751180397 -0.20336428988084662
33 -0.05941875113667186 0.09782954461105325 -0.07743439010533536 0.020083854594227735 -0.18352047409044603 -0.03852647154651724 0.1894762169756779 0.028948194317171945 -0.06254016777375877 0.04336264776193933 -0.10246850278520357 -0.015298713014708053 0.1360450402536921 0.12221538208110055 0.02607709608451074 0.16061209083996558 0.1251988232376247 -0.01712406548640074 -0.049396639428095995 -0.06298230219281549
144 -0.055427356920457846 -0.0036161236120861922 -0.18020266758478268 -0.15922191934863406 0.04620995318991315 0.07415696507964974 -0.29409186054878855 0.12122098594452912 -0.22146836129517025 -0.24785051136447808 -0.001778904788757246 0.035359049270083105 0.2174487169893616 0.1319313320822028 0.05136682757817188 0.07465067546030753 -0.029582575422430694 0.06416671706367656 0.18930120754195917 0.05458643030262094
108 0.20277932087881198 -0.07547816191172269 0.4426754485795871 0.0242921863796436 0.15366584576775555 0.07161657620302929 -0.00614918134998759 -0.01736046407062119 0.0441576945095273 0.25383220405232926 0.09227240543419202 0.146057655618406 -0.11356048213530229 -0.0950100334902176 -0.0423285226158185 -0.12003688796884891 -0.10819244194504046 0.1561641260211094 -0.03249445905386262 0.09336178301720092
151 -0.032687707622344186 -0.06608052805953532 -0.05578886234361002 -0.10423189624473776 0.11591218399656868 -0.04052294358640188 -0.031309697696316835 -0.03073481696274956 0.09269453344733004 0.14594715065141178 -0.06081127553505566 -0.107297376716887 -0.21907380667805057 -0.011778780506377894 -0.1047218548985417 -0.07425177142317746 0.0269868732297304 0.09039202772969444 0.01659194848400376 -0.15447428637356736
123 0.01663785883751895 -0.09456584684992252 0.3341950562096428 0.02319249580008901 0.14530017600821893 0.024206248698239705 0.09373785937423651 -0.037685054733648124 0.24658276421939992 -0.08471192110883624 0.0036045455399404016 -0.009794025469212682 -0.00311656589649856 -0.04164390857846984 0.2174293608707102 0.055425553260301456 0.3167117466832623 0.0467707500559285 0.12692684728329545 0.07155284172553728
39 -0.16963025756615752 -0.06088696084046721 0.08342107157593055 -0.11359469994612727 0.18548398857175494 0.013132407575788808 0.25950364081630417 -0.13469916204107693 -0.2022974148952949 0.010346810190809498 0.06392944606303595 0.017118580957987586 0.1757703261447328 -0.023463302254657786 -0.1036870446537138 -0.08234550670941565 0.16928883424263294 -0.020442109494095462 0.16729288506763335 -0.11249627050180606
46 -0.0007096490292074212 -0.13542604539412842 -0.07201459601472308 0.22727121077904727 -0.16819601503923332 -0.044513178476447285 -0.022368999022278818 -0.18951283158272744 0.07227432808918233 0.0012197004709000397 0.008877600114655038 -0.0937853981343721 0.05687730602084903 -0.060838134789811336 0.10930122695457459 0.2121208869071506 -0.14321112782779938 -0.1537582123667619 -0.07077805151328036 0.18421541066785702
59 0.14527995746739464 -0.03846633318183212 0.0863009805522993 -0.09011837768770783 0.03888253022618798 -0.14844252102500385 0.06904753005064554 -0.08174593210482266 -0.08261388863634354 0.0043262254053960045 -0.027445226739959538 -0.12638329208786625 0.02749395685268582 -0.04524252357456177 -0.12650155828094387 0.0710746983474617 -0.00014644869300723523 0.12565350815482876 -0.13378797105182672 -0.03476303764464292
