200 20
38 -0.10715328475270547 0.032069423584952794 -0.046629307377481125 -0.0025644675411239373 0.10464892179635557 -0.029249668793678168 0.24559603060908902 0.057003406240278644 -0.04592870387810358 -0.06373567311152961 -0.10928682934575704 -0.22206286713567797 -0.2674785745916013 -0.020334468751746788 0.10655060414336552 -0.1737415701850778 0.030454182643439003 0.017480859381706224 0.16054896960436418 0.03282782565472693
69 0.13418163601155023 -0.16743501953071138 -0.0003474695959418376 0.01548617863913442 -0.019073506495376338 -0.2795675549873599 -0.10023833931688518 -0.060340654521513895 -0.04426733314499171 -0.0951959516289754 0.24004091084651533 0.14458144986039675 0.059279815582442164 -0.08913251390397935 0.016350338240008117 0.1595125871893404 0.006367663271778353 0.05363385867816004 -0.08530002952881302 0.12975671971369135
43 0.03207887378143277 -0.005488145298559942 0.03491526669693019 -0.12608246468821624 -0.05264374234229301 0.10890015244689336 0.22217890283213587 -0.16143628896763434 -0.08689867588313956 0.05522349276456536 0.058670233174928255 0.008834726407104011 -0.12042776085325542 0.10343283322289636 0.06002764607588626 -0.170967342510314 -0.013518627869226661 0.04057634127559706 -0.08931011587761767 0.3084340077026503
186 0.22007288384398513 -0.04979111521569564 -0.2611911168647523 -0.17578614744200835 -0.11209499140102075 0.1274594337635455 0.019624550037025006 -0.15786873696094708 -0.021245622223843127 -0.19201410505994965 -0.08237400134889016 0.04039960226144178 -0.03031767237369121 -0.016474698290952324 0.0876133205653433 0.13883600826498266 -0.0471051907678638 -0.06916243932905365 -0.09452542464416482 0.1986346800139698
36 0.10987624948871484 0.034234696158945505 -0.17491305739805257 0.33909442133423046 0.1957788365343512 0.04610242770812721 -0.046327520629983444 -0.11067361545924055 0.16406392838140954 -0.14408881982776398 0.16921301697538826 -0.1150198521055472 -0.07285318675445583 -0.01854905877033921 0.1360859807116794 -0.03449308861569649 0.07093712813860703 -0.331012831659135 0.04868264131985114 -0.1707105014574334
103 0.060643548196333344 0.061304915407049826 -0.17803252669859523 0.023990477352375292 -0.044667852363835296 0.04269501959034936 0.030610530544829626 -0.11578635353330888 -0.17468511762364775 0.1040071042150642 0.03231929811357661 0.007157093836096328 0.1208791854807766 0.038342289194446544 0.09861307790321154 0.045829357283541164 0.14622930577142812 -0.2032574545362564 0.017911257851153415 -0.003949247960305751
6 0.08306738057692471 0.12380203088664402 -0.12910036973550026 0.001043795356254629 0.12733462766880993 0.012520753358474494 -0.26275759977370694 0.14034466265711126 0.14685618735552336 -0.03256691587722173 0.039916186095391805 0.1498207040670159 0.09532885875746329 0.1105266967484295 -0.004019656066608295 0.1518073747343579 0.07185767267922087 -0.2134891734575882 0.10403818450947776 0.018571734219366632
185 -0.004562958330089139 -0.14898088527851225 -0.011315064530364436 -0.1376248697879572 -0.05876172567618833 0.08565404105808873 -0.26688523914174334 0.01556325267599484 -0.025444955230471997 0.1335249712945111 -0.19398643356144643 -0.06370836580422096 -0.12873987145436866 0.1298417747641052 0.011114337569445982 0.17186926915499445 0.2505941264947141 0.15557158967663723 0.1040043044989632 -0.16217301971295636
148 0.17933780378226874 0.17879396743793335 0.03253954609919528 0.04716493223613618 -0.07943401744333527 0.11258721487348018 -0.032431219613735116 0.07946513340951132 -0.2008550299719416 0.20887968912578136 0.09601971611583236 0.06940931552194145 0.04531475757502588 0.008542300891868986 -0.16115724321801653 0.1251664625866999 -0.08445412931267558 0.06042087249167462 0.1453565903973853 -0.08080591238736122
72 0.1158715987888698 0.09953095757397912 0.09596266631929584 -0.005438608632525024 0.08411296306279471 0.14952705513539055 0.07894935661369418 -0.1376188900805351 -0.1077898036413404 -0.006565707267133395 -0.03541408205982358 -0.040629427008728784 0.020536697304018706 0.0456138287190808 0.056368265796242836 -0.10759884633650657 -0.09146251099668419 -0.10416250284055839 0.12805206683780604 0.002197505793340995
166 -0.1503397309506762 0.004241760406791034 0.06760142843928568 0.015773553807214537 -0.13406666567758982 0.19434825498749828 0.09085886824917636 0.17744779602270366 -0.0025655309042507597 0.03589986310275162 0.20168631626305517 0.23820696136637212 -0.03175663928252536 -0.07135622670437528 -0.10351415697090995 -0.13578491741855356 -0.0002798507171926618 -0.051860723810274394 -0.0893763936535661 0.06426953035568846
178 -0.04206975015329472 -0.0014111996460823089 -0.047625982839436164 -0.008050647112375336 -0.09049523760326723 0.15109797160651292 -0.19167125141897026 -0.11535966468169913 -0.1564072986206314 0.10159470432167504 -0.17679457705264623 -0.16159503042306136 0.017136843306512564 -0.19159969261472254 0.037846699945733336 0.13357770884026215 -0.11535629627986621 0.06412476129752154 -0.12302646804594218 -0.05224520410418978
169 0.1510817499869406 0.15073334090641194 -0.1276243503513612 -0.04886263397447742 -0.06651653898347482 0.08192555701835576 -0.003093612723956645 -0.02711536863620105 0.13799553363274392 -0.09029452510238398 -0.10289006263496579 0.00533622179348673 -0.027665651091544403 0.05127194664995195 0.10327471020957488 0.2673728021343336 -0.10707301470237449 0.09475226174142222 0.07197904943036187 -0.15241646480423962
119 0.10981915379644282 0.04451667946929182 -0.2061602311614428 0.24022632228418123 0.037674272436366875 0.030297040256376463 0.13042013646289338 -0.1775300593433238 -0.25357088714309983 0.15775682460649013 0.10985448731268237 -0.004614083455590317 0.1415781987606246 -0.055357817902626796 -0.17753003276957904 -0.21528862557377962 -0.06290094778604789 -0.12279748884785774 0.0418063320677528 0.024587571292479408
156 0.01798050390446814 0.09598193017533942 -0.1846662553653616 0.055607505188929825 -0.02100585025396739 0.20109565763577034 -0.10240598884740142 0.02986457498877379 -0.1668761302078035 0.20274448400866538 0.32470646265759434 0.08959893265848802 -0.0011742398184594223 -0.2208106640299783 0.02304682945627675 -0.06582598453153951 -0.008987503777141604 0.0689874936804197 -0.06356346016089186 -0.1363763991003998
87 0.12872764798215017 0.015884436086986836 0.0670732979358468 0.09859018305400195 0.04889893598566897 -0.03742242927405472 0.18224923823999248 0.03278621298046149 -0.1929232642670691 -0.19812683420762128 0.07643101850632124 -0.03889163285816331 0.0645931251871739 0.2019390719124023 -0.04881465777920327 -0.009103082882246013 -0.2567669109586529 0.25170894508373526 0.1635690274946858 0.1820452812112325
21 0.004189981465799321 0.12279481541670967 -0.09974171322595947 0.027279315162652792 0.006453892112675178 0.010635011858892861 0.14034059651140424 0.0942845679940419 -0.14384641746802845 0.11660833603651562 -0.15310224642468584 -0.22449315792809113 -0.041482424983435434 -0.0393487224132839 0.06614963706250533 -0.06579460798443444 0.11822758825283339 0.13063632301891454 0.10664766270775275 -0.1590409341470887
193 -0.036423734712207466 -0.10340578080399836 0.07438762307024534 -0.05159109544429584 0.14378126875711672 -0.13253552018201897 0.038119466432825905 0.12595852194603932 -0.0509759852415727 0.01389436250011386 -0.0480368381457096 0.10737100205028621 -0.21072882329576476 0.17206438798432439 0.0878612780603787 0.24488792703765466 -0.05996927440181031 0.01301738289776981 0.21660621034775 0.06498776169820808
66 0.022078700830390416 0.12985171554562655 -0.22569871752329415 -0.04415878087334299 -0.12008129660270041 0.12544039680686433 -0.1461383205378954 0.08571871901149236 0.1284732451742152 0.1355976530910437 -0.08083973204572246 -0.03490302669914642 -0.012021545648099867 -0.09278886150477839 0.14507045245915973 -0.011450854291662076 -0.01690502006294075 -0.04812342344546895 -0.09977136538942426 0.1289737842287125
35 0.09945601750991988 -0.05271868500468027 0.07749252762484116 0.05087004226486674 -0.26212992097964183 -0.09647335748566047 0.01723704963392468 0.05493978142741887 0.10699117724454846 -0.11438306423187097 -0.1287593054324884 0.014146668381892966 -0.00823900374513075 0.11633692941249192 0.036295743028849387 0.20048593941293685 -0.0582067861256664 -0.2216931945141884 0.11912587857157458 -0.01343443379168934
59 -0.08525410809552002 0.13115439171111362 -0.08246724045583999 0.00026387571803071974 -0.17003216577079633 -0.12148996776851917 0.05481903507598909 0.2332073899580446 -0.30987407087200364 0.0013689476510471222 -0.02224370054373686 0.05955648191248177 0.026511577012554383 0.020807210832975858 0.28563440901937387 -0.1314333752860373 -0.13097336038644652 -0.11817337332582101 -0.012893697981746386 0.07872812952939125
25 -0.058181268448345695 -0.0569708662078002 -0.12372314348007915 -0.0428733569659874 -0.1850853214119319 -0.03940780660809483 -0.10133515071885627 -0.05846473230729812 -0.029446640361197637 0.11605410622220996 0.0036422517885405996 -0.024583953579840397 0.20226556807037738 0.024601723077746312 0.0145041265240585 -0.1994911838936769 0.03373098929995501 0.06933891731184388 -0.11090157242640512 -0.05078985388964402
142 0.19571690086531987 -0.07790688670478944 -0.041493938088191795 -0.13275630562174903 -0.03455623205774146 0.06491703782841858 0.02622605349027953 0.07534185612582614 0.16563969768693573 -0.0721793974835633 -0.2217880014443117 -0.0966747848295318 -0.11006294569378897 -0.04975836812616146 0.016073063454461974 -0.1692840402195457 0.09521061310559029 -0.07994346325864943 -0.1820047178929144 -0.007998022477874936
157 0.1534217153907481 0.06931300241651792 0.1011563037019038 0.04647776787900922 0.05561788317477786 0.0004109360356711266 -0.21616813688536926 0.08289865952669596 -0.2575295999224016 -0.09487094006728615 0.10093628604590858 0.12764520275416028 -0.11254191449047178 -0.09739781824291915 -0.07661242099468586 0.0022985233448849685 -0.06794391695393548 -0.0961054210042214 -0.08124057985211473 -0.16355573073542812
153 -0.11167948850548626 0.01906846910062963 -0.0013362373241857482 -0.2138547968836538 -0.136282597631075 -0.024619892019156587 0.22054734847412202 0.012938523963804386 -0.004348738029693675 -0.16623523860876246 -0.10024461735689633 -0.05131032117671182 0.10052567711848165 0.22435180604859073 -0.11968104991133989 -0.06877907934792835 -0.038010416542051735 0.07956251383170496 0.09936068350320454 -0.2275017383376524
121 -0.04959769821243707 -0.040642140481109826 -0.15560733998278897 -0.19389663265541807 -0.043690700566343645 0.11185169323604006 0.027838929810611705 -0.05241617912305902 -0.048096397630537864 -0.10325387601265512 -0.15742609866014537 0.2256374875748551 -0.037205317519334674 0.011187866522012754 0.05132714578363574 0.2480475694136229 0.0036112594525997237 0.04729055026954828 -0.08380553007242082 -0.10450195159843972
161 -0.07518519629625757 0.1328694215094185 0.12036568378942987 -0.1198630226850429 -0.01725421270379613 0.003930181591659211 -0.01814397103643072 -0.07591442448352032 -0.07694843672879477 0.04036722045452725 -0.014885858410033606 -0.13142982421073254 -0.11249558523737599 0.015960062879380687 -0.09686033137643785 -0.03625107371606391 0.08829506483593536 0.0641208812254083 -0.013629746793758538 -0.09735396303206996
131 -0.021639052414761877 0.0245259943586584 0.15484808488260177 0.2668641074953377 0.094224239318113 0.19878865182579156 0.03865078469902833 0.13491585002588832 -0.010304232400278583 0.2024360472851196 -0.04555598752301702 -0.1965810600679399 -0.029552311497359193 0.24613182996821656 0.07181394372934874 0.09955444398399854 -0.018209230197396786 0.16265420256089785 0.0027788384551975303 0.039170539619652854
135 0.06959507925002621 0.13526609698522038 -0.20024715864322815 0.15024447582968942 0.009586327570878399 0.009220100836815494 0.08005613546242596 0.03320135625908582 0.17207940838471383 0.35925197098882283 0.12661452515599983 0.033260092208716216 0.058698161712791436 0.03306191748781638 -0.06930548697819205 -0.2164343475332231 0.041320400630167724 -0.10303828148868559 0.017969679349401274 -0.05118800069107791
3 0.16785134864340878 -0.02324411761922214 0.06627517055334842 0.16681757642817735 0.011690202251635147 -0.0033490035168021338 0.0808727361866394 -0.04513052193437581 0.01077230241592461 -0.1939983631425381 -0.12023494961955225 -0.24259506213521737 0.020800354950824537 -0.04152194344239298 0.011052648444750348 0.2192026285780567 -0.08703557834500585 0.12038144344407951 -0.06455350498282707 0.13765297455008774
124 0.3145255891684356 -0.15330644936925125 0.04225747189770651 0.05293112227888892 -0.005918759646929477 0.18831309754221123 0.0698939806168142 0.016327576619678756 -0.13097310116582517 0.04890504053845237 -0.08495319196344642 -0.04629750417107239 0.020735220348326158 0.20832094787245364 0.0052851322628599436 0.07563398775553094 -0.10293317497762837 -0.01838879917043915 0.0436857691769137 -0.06971590890316799
138 -0.028096265570438487 0.25258646735436363 0.0539544728315131 0.14412507073981154 0.028620932087664436 -0.20667061348416085 -0.06407383820505369 -0.13594531150588668 0.008033591154573128 -0.12774666606376792 -0.04678180620581691 0.11850555299799033 -0.16410980106621317 0.028533923437068107 0.11899004614614472 -0.01418235422188921 0.050054964797517386 -0.07862992580909813 0.07472280522889778 -0.026119438011948156
199 -0.12633721253597055 0.19230899591281625 0.08970176229814322 -0.059364594052267336 -0.17433281725884228 0.1689779240925327 0.1622009531548126 -0.21635059074770321 0.050908200623259105 -0.05275975393811777 -0.10144236486594048 0.2301731635508431 -0.1235852865523641 -0.2167742132930529 0.0026073784040186814 -0.1837607694775186 0.041256393073208 -0.07844229045930315 0.0005945358881045524 0.26987553483115834
159 0.1294464356834748 -0.1097742740488536 0.2777055174900296 -0.0775492398030662 0.07043358716523747 0.017066560819977802 0.1283727707715736 0.10264898428790242 0.1365960914929736 0.010376830301028052 -0.14865850183943394 0.14316303424844523 0.03534733942211911 0.263626294880337 -0.11406509987251767 0.05080384259166006 -0.04537748835294844 -0.0007663684773985463 -0.002264520153946274 0.08326606151458295
34 0.072836506714632 0.11800055313790432 -0.14893090619920663 -0.21170791440218542 0.11233699625279153 0.011706383430995638 -0.11378845687422767 0.012347611524349066 0.24182376178506138 -0.03463251137615739 0.09986633736946011 0.1471291634829365 -0.0003738417887575726 0.12652927535135294 0.04110053061843529 0.18916387463501366 -0.34146777263851186 0.030365448493092858 -0.2140861551744263 -0.05701527022517729
68 0.06970614038247168 -0.14201595807697037 -0.23736590472603872 0.0262580064350514 -0.07182942302076714 0.033498203006501845 0.10091940178773605 -0.19898961867971685 0.06698993345029626 -0.14314083429995228 0.037244108178553434 0.1706632364895922 -0.09119226682964332 0.0003926907181619366 0.13467354190915956 0.08063470889173845 0.13985993851323741 -0.04207617413851611 -0.013545602424872433 0.023777580512976668
160 -0.2093824553736914 0.012690012211942155 0.000369144181464498 0.009038437135804838 -0.045630488645072804 -0.11327771418598075 0.1418204690717307 -0.08689009376785257 -0.10494604667357912 -0.1701246314078038 0.12434557828821434 0.053535578241741495 -0.005477665441833406 -0.018991014035138643 0.09924103057878622 0.04168066636609859 -0.13142618435311512 -0.2811248866401378 -0.18381554112388668 -0.00513572692826591
93 0.09352249851444336 -0.028536771156916135 -0.11530716209193993 0.11592708436631186 -0.03212601091776393 -0.03094777852378838 0.18585418891059927 0.014474757400551232 -0.0663658058376592 -0.005124065266079529 0.12637979399253454 0.05212171291300583 0.06206229770229511 0.05916244211174429 -0.12975312824517504 -0.17337540023012915 0.02024238182537628 0.041655690597458134 -0.07427708154241351 0.06037448766630698
14 0.04177662549277492 -0.2533813691677009 0.25079372367368924 -0.1434017720772328 0.1862279157090819 0.16675003810693728 -0.03682379415987956 -0.084816966312013 -0.09683284586952819 -0.27077847349322687 0.14685614552088638 -0.07408474529247973 0.15360241090432047 -0.13552276775433542 0.04684326476106371 0.059745277776034895 -0.16470443335648352 -0.13910854233433775 -0.12000944125107058 0.13328880134174315
80 -0.05658736045297444 0.16508086335603736 -0.16816359732177394 0.013198514365224429 0.2571177340415253 -0.05539345735636102 0.026703587327610117 0.0016444145507465507 0.1167191787222247 0.015606261763875041 0.07373749309688248 -0.09718248624254308 0.045015258722548836 -0.13730265608272635 -0.08005776280718997 0.05262607286854461 -0.2658596677730784 -0.05120865914543825 0.010384542520887989 0.02811071210876519
94 0.24729356696787894 0.12801280965722533 0.043910324194263925 0.07191916883337805 -0.1517777131157109 0.014284364797934105 -0.052605395629359314 -0.10341941774256107 0.1482438949589251 -0.0017281814449136774 0.009462492126245664 0.010696160741081371 0.08431628716586653 -0.06478508305463099 0.06715377806866131 -0.06590422213119992 -0.0048429731880821 0.17162230708404613 -0.36047647694415363 -0.028231912516164935
105 -0.04131409772467693 0.15465305246694397 0.04325657987185974 -0.04127540675261313 -0.08040219483524665 -0.23839915250808597 -0.020874622492086627 -0.10974486761163038 -0.007890875670156047 0.23117543804972468 -0.06776327215833204 -0.05546755172533474 0.03360684015480333 -0.1491590390946468 -0.0018313061382161015 -0.13261878291647292 0.24426396736437084 -0.14017270396441586 -0.001417358756005842 -0.1052193808440755
165 -0.018370789190612902 -0.006510498681522605 0.027135583752556897 0.05830771349902824 0.029749571411422177 0.19087131166901475 -0.2014405615317146 0.13542195351957687 -0.07281643578739846 -0.0977141919740977 -0.1824941440543156 0.04368099530292557 0.041351291237142665 -0.1680692030628419 -0.26200894506961014 -0.03244665518416973 0.007857668585898312 0.14082003591850667 0.026875562939422185 0.03637898625092651
57 0.1550977467196831 -0.006098254143472312 0.10114966461344836 0.05908896744937852 -0.17711023779569227 0.09385098651408515 0.12274370440793407 0.17830296240546156 0.03568913374540098 -0.07206224424165175 0.03485030959275141 0.01849800867021331 -0.1475534483870542 -0.13512670857991005 0.14636744586528688 0.18456779551782326 -0.15646826354925666 0.003347933491065578 0.08752189455596399 0.07078878564722225
37 -0.10249182923481659 -0.2525172927432793 0.09480652053465087 -0.02342907050621128 -0.05470222912444077 -0.026612726292841594 0.1327741061498966 0.05604960535758959 0.29220528716748845 -0.14653294884376042 0.0007448475349738355 -0.11655778372768828 -0.14198824876166208 0.0927816581531389 -0.21398063471768167 -0.10504742949514334 -0.10023687737118774 -0.1357521939059649 0.13634059624834088 0.08121301729350654
116 -0.11363445129589639 0.09025443766636919 0.03147876911448138 0.05587100877982085 -0.027776683057401358 -0.00526220064650218 0.15077806822888784 -0.0002826584200445849 0.15827818869809024 -0.08325795851842513 -0.07823873200100283 0.07543731754359928 0.09595664065478834 -0.1584863939705221 -0.09301300283280832 -0.01697923771569589 -0.04924769880014828 0.008421905608505118 0.1819977391509424 -0.13235787469041863
151 -0.16830588474493316 0.04953444145437602 -0.1929986561712812 -0.08784323093338338 -0.13633003247837797 0.14493490994513616 -0.010004182118425242 -0.1172638945011513 -0.06773624508813858 -0.1320031630149351 -0.029668776828858594 -0.11370056805662303 -0.04338161714834292 -0.39169962837540323 -0.0034490303273703483 0.1130386091594292 -0.0830009741839795 -0.09782752567762215 0.22287256956961443 -0.01303252955235984
195 0.19850851263004024 0.0034273913290310144 0.09649903468262606 -0.23231781013430697 0.060918046099223605 0.12391126052105834 0.20672683549198478 0.2953228766519048 0.029808560398616835 -0.15900631807119833 0.09220905708575636 -0.07274363197769376 -0.021877268138061682 -0.05558561564161443 0.037967751759476476 0.18077568871353894 -0.1370075054049869 -0.03061134661209757 -0.0377566165521491 -0.18879420914145892
189 -0.14994845885885147 -0.2876928592554905 0.1394380456027818 0.09701814328263161 0.09146614430133541 -0.05572324860584004 0.1128680879701448 0.021936587116830674 0.17489357302545802 0.0638095213380389 0.2756216259126265 -0.23167125292970392 -0.19740282139646573 -0.23304791352713913 0.213405449395965 -0.015086590912291831 -0.04352773473345983 0.2175759426910188 0.051865835962246684 -0.10604687623326019
145 -0.09101622107084684 0.1629218913620254 -0.06970627625319616 -0.09454563543267655 -0.0737565906816809 -0.22348231543617578 -0.13707336896967062 0.014926175580277042 -0.21117795888982374 0.15073270715803697 0.0945365444758209 -0.17831656690773634 -0.05568556118259698 -0.030263857597825156 -0.13669142447009178 0.062147126686746886 0.048022548680681766 -0.10834935140790948 -0.21801710113594264 -0.03444705300859272
150 0.05910264700633677 0.013759794542210562 0.05097775251982055 0.08181141006250074 -0.01460876443465707 0.19627809929021092 -0.14577857787942083 0.052858932257598426 0.060219162244067904 0.13987124167061146 0.06635686661865141 -0.11509035631851831 0.0695323511792713 0.03292443461982321 -0.2437485117760812 -0.062327150876083766 0.04886013667026204 0.007626645526642435 -0.25069524592299913 0.005523600428811188
2 -0.18201722262501197 -0.12229153407116328 0.011898037846563582 -0.18484005215314375 0.011178097061668446 -0.21625482671337184 0.09384594322951113 0.22688745542038388 0.14311052398610263 0.11709427211824609 0.02744499143921146 0.010132638855599858 -0.07840851325897283 0.13830313669305902 -0.12130031644895764 0.030262997955999175 -0.058082270911973474 -0.08152470556142748 -0.13311009971828608 0.16820288014035514
120 0.022798795748991133 0.07307724506131802 0.1924307928152529 -0.03217119874878038 -0.01751798408908339 -0.025754308134060627 0.13201292109260943 -0.02883786712303552 -0.16290100946655334 -0.057082187894910666 -0.02725906635417654 -0.02999892693307191 -0.2130044216921136 0.032598319440917574 -0.014436517558467256 -0.22191379926841917 -0.14899191588847097 -0.18147461523689631 0.05619033931987121 -0.10268517089145544
155 -0.02056823985480876 -0.0016626415120408536 -0.028683675026273444 -0.19178992252945568 0.0012860613189804961 -0.045585814350648755 0.04826337660556859 0.07398519826868231 -0.004152527385547847 -0.1367698621140296 0.03602903227383022 0.11397143281071828 -0.10148686391397399 0.0032568869179286936 -0.23583246887432835 0.012185536797232766 0.08036177723780247 -0.012315433469519512 0.02565306685469377 -0.06004910808649442
114 -0.03630329389984446 0.06576093389638457 0.1336208675650309 -0.03737736426035761 0.07483602062632291 0.062378240690751534 0.12932731320064839 -0.13161856513467157 -0.05208930699865788 0.031174234964499694 0.21271473409820044 0.021920830512446667 -0.1693170724072319 -0.1383839150980109 -0.06881899402325521 0.05364261279257068 0.008137314764167123 0.0743359661670521 0.14350596931818146 0.05741951027789922
17 -0.033758687844476096 -0.07206008298894527 -0.1494976266572733 -0.048615911958247875 -0.0124258663159477 -0.03166770332301044 -0.03403709483439177 0.00023388419290240785 -0.03682431204490586 -0.008578976009062779 0.07670194643874594 0.02612819666689765 -0.0728284958576726 -0.0935251714433243 0.0918539626612879 0.0035685074756995816 -0.08483546847552148 0.0879342435477751 -0.3051292340461927 0.07803306401930471
40 0.22802626655163438 -0.024073264926444765 0.3310315450173028 0.07297284407992916 0.22093174522292144 -0.03298580541203192 -0.05427716670036919 0.018634406554690217 0.14813871265764264 0.1411108464617749 -0.2184491952601514 -0.12301198377797462 0.04899043793636973 -0.09053399340172001 -0.0859373243783869 0.09293472406309079 -0.1111673346371556 -0.10515740506993622 -0.03908780110084094 0.03440544786783887
179 0.050990171293113326 0.09360189096481737 0.1026940547343135 0.06551879023276629 -0.17636374692158507 0.0651128405495107 -0.0018177697176161975 -0.02641494328291849 0.07008296051047601 0.14558291548536442 0.0826605774976739 0.017721493546711382 0.007519118496564256 -0.14944843165493713 0.07564427124171566 -0.011237139534571557 -0.15092322772328506 -0.29865648362876024 -0.18953116988620727 -0.0632089164972742
83 -0.15951065577878776 -0.06666815294276067 -0.07422371050238957 0.051488690348071735 -0.0510465916078954 0.013038418023959861 -0.06242606204676743 -0.030333107319161768 0.17765801103097237 0.29877109948986585 -0.06410800049201396 -0.036168554164062526 0.05250948014113927 0.1409155098153566 0.12442729802990886 -0.1234107505598701 0.003964723262464729 -0.1475908434097401 -0.09258727512719947 -0.05759180097430994
172 0.048167147111389065 -0.1814776734913046 0.0505877125642771 -0.22937810958909996 0.06979864895132434 -0.10237003735464734 -0.08572393855338524 -0.07852974772230464 0.017724428941760233 -0.007069319559108019 -0.1748842351874273 -0.03233450846858856 -0.13718923343224965 0.013288910229975042 -0.17053988563436753 0.03599342503675626 0.014749651461921297 0.08726334635672606 0.03858635714189315 0.10773735578308201
187 0.08530612653367019 0.1194953286000501 -0.16019744700158597 0.05777997586420342 0.048814357270124224 0.03545650228670443 0.006917422014985961 0.06717343496385092 0.01139205792295305 0.07814439457287022 0.053303082245962384 -0.05520667177925385 -0.0318152670485341 -0.13202934663624064 0.1527224119227058 -0.2841422153868635 -0.19042904872291855 0.09672494755103679 0.05046857354641027 0.21913791604382693
109 0.14966228178524396 0.24518210657570413 -0.13062780053529127 0.0600344139882877 -0.17397917125454881 0.06199370135427538 -0.06787163279305898 0.18256816099223225 -0.0157916165707144 0.06989711393231196 -0.11802639808289885 -0.014904640443392498 -0.07849188825245079 0.19955693759443693 -0.16635789249404662 0.1694938619320189 0.019571651600708152 0.005323509421143706 -0.04665749842030331 -0.12851666245593446
46 0.019940384475045498 0.11334254887471962 -0.10791968408330227 -0.04978172758413878 -0.07110404168886006 -0.058826847771231074 -0.07441806486480936 0.09812940936632802 -0.08150309003999642 0.13688569102393902 -0.14825791328412963 -0.11912168646367371 -0.23137668231446393 -0.1470452494264737 -0.06924740767762563 0.23576058724012383 0.062111514320025304 -0.004026592150898913 0.005176504393277367 -0.00525348549208663
147 0.058723519641057986 -0.37864465101902994 -0.15426615846062963 -0.010912011084531978 0.03958946945497278 0.10303256994564886 -0.07661868927926262 0.03998746395927694 0.13169254437031883 -0.13127825701213533 0.0005135243848511231 -0.022375059271144016 -0.01672978839841414 -0.060247133247879475 0.07672581837114373 -0.02462546900545968 -0.013503085962243205 -0.14404082861185405 -0.09886177690153221 0.02511437302820115
197 0.1272507808855047 0.0954697214160787 0.0036817850201701584 0.08604714253084861 -0.011236025263532989 -0.003780894114728878 -0.048731347679468705 -0.18310541232813726 0.09810803359458564 -0.12306385437596112 -0.02114378969522716 -0.15411117418371834 -0.00993403718310691 0.17028243531557552 -0.05680063807061703 -0.1929112297837763 0.12256176427600857 0.0694525026502792 -0.19129530131786426 0.07118716679030758
129 0.0679180438749576 -0.02864644722146332 0.021887336938107935 0.21927278990686452 0.09871860055186027 0.0462240363342692 -0.12364238123594339 -0.11080532358870661 0.155526489855912 -0.04579207926036897 -0.0782409941063664 -0.01227580946427098 0.12050743804238612 -0.14378158125111934 -0.0005792769292517089 -0.02898146477506745 -0.20606369156487286 -0.16665759173107375 0.05007160145068966 0.10433453850651693
85 -0.0654247616780101 0.16009760674788343 0.15578425255320455 0.12462508671553812 -0.025471057378057792 -0.4040978337782063 0.21223623737817032 0.08455851040528709 0.00889702220650441 0.1066394581607472 -0.3655969475172 0.00988270969457418 0.01366789461641049 0.16213990303429046 -0.12503124967949544 -0.004498650260036259 -0.16233148321589655 0.14760571350908322 0.0048451784651337235 0.1822171069561939
99 -0.16526912388581155 0.007895491566963238 -0.06365889633423116 -0.07929734778852125 0.253743082673096 0.004153257698311939 -0.04466205617057338 -0.03079344673889093 0.09973330610627164 0.016398242199049704 -0.02091694228354675 -0.08768914314010294 -0.04278074025918439 0.01728575098353246 0.021056564199732078 0.05640812258628368 -0.07791696946768749 -0.1125001274212421 -0.04558247096514638 -0.03151459474807351
174 0.08686399786735267 0.0360361676384004 -0.021358745068937167 -0.23987790783443513 0.1692669982629462 0.0855826773807813 0.24602523704365278 0.20821238225321084 0.005174567781732552 0.0504748873711552 -0.11093548288684753 0.10402502963127387 0.16760202455894188 0.30643108075851083 -0.0610049274397219 -0.03929200125409366 0.09255421220070949 -0.32385688777561183 0.05450979303471981 0.020168383020661703
13 -0.08793796538409257 0.1473601766041622 -0.26118756207868904 0.012279781997379172 0.032319841749498694 0.24796183349851117 -0.11816638268912553 -0.16711948923265585 -0.038691490202441794 0.0014465787405779096 0.13442704896250132 0.2446053186255248 0.1377739494735617 -0.021572413938753154 0.28416949237257516 -0.13651414377314944 -0.008937103979855998 -0.22625073266942455 0.11504182852853072 -0.060748410144671194
98 0.20499411825306194 0.15113803723031866 0.22766052469401432 0.11339020820178687 -0.018018670880188166 -0.029970038520687806 0.1143392924062587 -0.08380311723751117 -0.09281311084533753 0.1882458371768401 0.12592134827411472 0.15384262415393 -0.027890427868903032 -0.09670582973963897 -0.19275499684202607 -0.12899460975773147 0.11912819487648396 -0.10188436866302049 0.07424953920582489 0.0673736981442218
22 -0.09789419275691295 0.027933721991147346 -0.03259503115272402 -0.017084065566054643 0.10733759627389777 0.00834442421680447 -0.22780818366918548 -0.1666032917510451 0.019260986226572567 -0.011164677680566462 -0.043320156939906096 0.06613422177980247 -0.011281289299153587 0.019436483211415848 0.01925521633168037 -0.017613112714551033 -0.025824122680348338 -0.09020841199810124 0.08234705704272968 -0.4912671242295503
18 0.06755410799196981 -0.07677883435223587 0.13942209783154136 -0.15542129309755445 0.10816953371476581 -0.01437707608651849 -0.0038832403575465363 -0.30616727738053623 0.03271491295259967 -0.19053288721343875 -0.27781258531131414 -0.08517198907911704 0.012100923384704605 0.0566971276864632 -0.04070269553925131 -0.002997330287320002 -0.10988610247258739 0.07200781044449378 0.11559987497381903 -0.02718605483660199
9 0.1525415158066515 0.013581677005926362 -0.14308433643671406 -0.0175710613570898 -0.014272393993652184 -0.12043537428685212 -0.08638840770331464 -0.010603724060160252 -0.07388209657040269 -0.046264480779643305 -0.12061398477248725 -0.13261372752471765 0.14769026041344896 -0.017477122847466185 0.07339588911772285 -0.023728779037075612 -0.0285562858647888 -0.08868327371302348 0.14369391606103926 0.13222331259971193
110 0.0183146901516255 -0.07562270629120221 -0.014830717360608802 -0.22066969465639366 -0.035190418412234456 -0.12926792940223525 -0.00753717337710909 0.1930111211918394 0.18099821800721158 -0.21473305018295225 0.21857111357599734 0.07578601876138856 0.06481430285779125 -0.2591672623422059 -0.14843435271301292 -0.045254596961303024 -0.09096995299211728 0.1540261730807063 0.06386915621858587 -0.04632323694675119
181 -0.23564935868431724 0.0032109032550144204 0.22899328088671142 0.1288888078707029 -0.02291911024584452 -0.04874277549463033 -0.2948709816014726 -0.04074891467643084 -0.2844376332536376 0.05246436926985051 -0.0752571006646052 0.21211416166540428 -0.15587231457742937 -0.05371464542684097 -0.004577741239646064 -0.0993071399816833 0.20101900114123633 -0.18334685937668685 0.05683675550732719 -0.053604433595773576
170 -0.019257526713104402 0.1594209297993446 0.05769115764719783 0.10846852862295027 -0.0905135745432712 -0.06192687210897159 0.11709473442995282 0.013154071586356529 -0.20711691823111633 0.08573312873949296 -0.11743613663196878 0.1415141000881793 0.10748617261311283 -0.13603651052324608 -0.11299247526664599 0.0504130568440004 0.24894008713817464 0.10692189858206935 -0.11777478935868108 0.0005806455989248
86 0.13870037016907252 -0.07937381377663914 0.2660548564981891 0.055612214127586074 0.16853619322177307 -0.065279689534602 0.1188452883476575 0.07835858632244114 -0.007165450983955719 -0.08596613797953391 0.06395986152385048 -0.013348790116482784 -0.18480671724593242 0.053276461489048486 0.10859236490304096 0.04244004235065074 0.1437891426141256 0.0674786935876536 -0.14301589476904822 0.15763869001838765
62 0.19754037880095296 0.07658426185032645 -0.03173496837731291 -0.0332360908214663 -0.045810033210096655 0.05366364443116876 -0.03945863383889324 0.306745371623511 0.04102396829043609 0.21691771581986363 -0.06465314929142144 -0.0581447488328753 -0.01654461876533515 0.1439225768781147 -0.2709589158399747 -0.026758304252479534 -0.20301729531348636 -0.008703199614827841 -0.12061637635166218 0.013034531346445269
137 -0.11829122911891883 -0.17189973541088688 0.12655749105449154 0.018282720824845538 -0.021901619382893846 0.04633524820425964 -0.36303130347185725 -0.000287649507865642 0.11388612701994387 -0.026221261579530846 0.1570114892721995 0.096109522850716 -0.025955630608526785 0.11799600789394275 -0.11866002335147091 0.2142745133948371 -0.07318323560980651 -0.01217677414582681 0.1872373764518302 -0.05058559496667387
45 0.07121738584695379 -0.05057950655111277 0.11557876324904562 -0.046088828168327926 -0.08131804085055286 -0.04025128299433552 0.16244861138784475 -0.2506185781638675 -0.06794514096972194 0.010885885994802724 -0.08466351689921006 -0.08955298772337464 -0.17484607586003986 -0.06181265555525593 -0.23025409278943545 0.020958546475692133 -0.12446733045250344 0.08655827694365491 0.10891645178522179 -0.06412638592634326
115 -0.09019013757809778 0.23033531355465436 0.10443545420806175 0.18990447318413237 0.07993518312413928 0.049406868759232885 -0.05922155912184481 0.12480127187254043 0.06773102911846236 0.008412519894333946 0.05052435917852281 0.020696103235472395 0.07086374052184287 0.18230685935174004 -0.13144568322293188 -0.03418518236263609 0.12360110600929657 0.14012575375008923 0.02724992046859136 0.24566267194567695
134 0.034054088281142536 -0.16709434204458898 0.1971841269834073 0.26130103942255284 0.24041945174120108 0.15944121078015483 0.14522931413613022 0.02732181196925762 0.03543566620057745 -0.08482125709194353 -0.028304604896950972 0.060416024337504426 -0.02371583821506291 -0.06738130989967178 -0.1470440950816798 0.10534578497263353 0.12113355315064807 -0.19139595251165908 -0.0792865577219045 0.0810576045502544
71 0.1697632880363363 0.0047994179190599135 -0.09767757346302712 -0.041714338121302846 -0.0005918181965470396 -0.121734262133282 0.19468123581572125 -0.20708922342630467 0.011854394254677431 -0.08862208315306729 -0.10284939806941103 -0.08081999547587757 -0.24159869367925116 -0.22313350262713635 -0.07582176431881447 -0.0753803716465629 0.21062732836834597 -0.05551588204696268 0.11000895247669039 0.011864853401457738
171 -0.1174060448824744 0.12794416689418156 0.11214755360750159 0.07654692520804042 0.019086577194527332 -0.051391157667055994 -0.10674204852464057 -0.010066357640658925 -0.024866517181557666 -0.09297019777140131 0.009986559308220785 0.21326413966021607 -0.014401660143220606 -0.17621724114240286 0.10836441736174972 0.08220068734625081 0.07523618404225532 -0.14635464882707755 -0.20735742473266144 0.12460353443174435
113 -0.20847956132446632 -0.004219240782062739 -0.007708959207029412 0.030072976662714784 -0.20247935191664995 -0.03245435004551352 0.12393014449630811 -0.040266210458099194 0.039821427673894724 0.055287465136372387 -0.10635324802319167 0.11764093739150358 0.11441029813756884 -0.264110836923394 0.006451114119227256 -0.06811341895626767 0.1972776757556982 0.03934406405545581 -0.16333595565992698 -0.1776823245539036
4 -0.1539041152035812 0.15946171979916224 -0.17894055436376538 -0.005644666344086663 -0.06631016081002106 0.19747254192388414 -0.09628158400575404 -0.09291133048427089 -0.01269922094598227 0.12281050630016488 0.27246499753925785 -0.20539465403631588 -0.07491405975991149 -0.04125501464920865 0.006839408611207804 -0.08316664763345065 0.1547304588522714 -0.15354350881972922 0.0848108611515557 -0.10812120143382095
163 0.09465917110091028 0.12469180639285463 -0.17246827380122923 0.0615151042166162 0.08852782216503563 -0.02927714819511303 0.02040245667863263 0.11541852337764227 -0.33241302435367254 0.02866001569634716 0.0848052813605329 0.15532667473737347 -0.006428324676207004 0.07347813519387805 0.0627151501958061 0.2049609417446845 0.13588965316689802 -0.041996593456817784 0.021825601389382627 -0.20548943972299313
33 0.19642268935143645 0.07123600764483844 -0.21731325913581578 -0.19795024054767874 -0.030734624553973616 0.2089047185004898 -0.02154899152711633 0.10331647828777236 -0.029602159142829793 -0.01167305022229017 0.30749668620140336 -0.00208279552514113 0.0910305026069014 0.07835227802320503 0.03623678559735029 0.060592929132711484 -0.03326134312300019 -0.17117431435201258 0.20615046213665011 0.21683694626012642
61 -0.050709608949813446 -0.01679636821191008 0.02594865794207979 0.008804967184566055 -0.011714481892256904 0.047544644958304905 0.05759322932311278 -0.13477257198163026 -0.22630902219844123 -0.0008185806386619433 -0.030521500076071233 0.09697475663572318 0.022768599977902527 -0.09147311315436979 -0.0625186813364572 -0.24421871777603402 -0.06737544703899002 -0.03284447214210215 -0.02930976024356328 -0.08241106385492768
20 0.08344038438002324 -0.23360688544838643 -0.16710256436443954 -0.05454809838835652 0.03494149904951022 0.025884700587552954 0.25749298365121803 0.07445733870301458 0.1540392484383984 -0.23774092382390843 -0.16464460698140151 0.01806676694992163 -0.24194389828235052 0.022034671776497095 -0.13678453203078625 0.057784231677738655 0.07058194899295904 0.09922534604919533 0.21496579815662625 -0.06143429885530029
118 0.08887273837778714 0.10547255566205728 0.026441007568148978 -0.06883050931084954 0.007668445083312869 -0.0428789050671599 0.012479475999087452 -0.03173034604474429 -0.04917826381285864 0.023207271832098267 0.11135014993000676 0.07322052769462739 0.14790269332124215 -0.0971350903298374 0.1272000854994287 0.14694751902921324 -0.02230553416789288 0.05680155714490249 -0.23858446858258564 -0.14182301227493987
132 -0.03057572218649204 -0.15243502977588494 0.16541193977360677 -0.05935401658985153 -0.1167396121298237 -0.12734291942580797 0.16076023450533256 0.08439098543265404 0.07515622796080003 0.1683820066896548 -0.2976403056269301 0.021075081728323734 0.18140409081852282 -0.12620740042956416 -0.1216456422993635 -0.07113561364712312 0.11594987860399823 0.13850005573489665 -0.12785764411214057 -0.061092114908976064
47 -0.2497803288367776 0.09849613206041818 -0.11473738633532236 0.010876692507453578 0.013811283539376417 -0.14859758358784092 0.16827615380492933 0.090525737919928 0.0678215841369531 0.19698092592546393 -0.06886505188656702 0.10598088248734465 0.00636923277682595 0.011580623252087273 0.1769574543028937 -0.1411583829524096 0.00719677840592796 0.31110930544864046 0.05860440578268127 -0.04242796848078662
176 0.06951934015694518 0.024018637796236468 0.09317670872459313 -0.10448645436450439 0.08446668717849752 0.022958775226568192 -0.09552535058927149 -0.11362932334542591 -0.02549798894727423 -0.029055661510750876 -0.024232917332337157 0.04971981675039212 -0.15212652181294084 0.11953795263821869 0.012879984360768022 -0.07036397577283922 -0.04154089377365048 0.045784374592098824 -0.16345495279779135 -0.04350203677962789
12 -0.048761884207060104 0.10460374684151755 -0.12956546412158235 0.049376703189376446 -0.22043106867964243 0.055693095054569756 0.08033865555372913 -0.03778444997044352 -0.059242017772885056 0.05650872770631729 0.1468019489378888 0.017852623156820586 -0.08682532227127356 -0.02705398415676678 0.01944267885897363 0.12316665453267502 0.06018687758668392 0.14292466787627295 0.11803405833746106 0.12409372892208652
122 -0.015149440894788178 0.041059550224078104 0.13542056088296717 0.0016227933105063166 0.12104211297959906 -0.05581420369429125 -0.16949525743223393 0.06063064515836399 0.12975202902271765 -0.024222216098635202 -0.0748684434223934 -0.15749120894373564 -0.04722424775535532 0.04082925877246762 -0.13931278227793428 -0.04075958964777987 0.08966050610599341 0.0864793199188459 0.17863236175840683 0.032645560071780114
144 -0.05259377919900893 0.11605332230460245 0.055415875764382894 -0.018880062341387675 -0.08981335707814761 -0.1586285348894612 -0.07113966564031333 0.06550736857734471 -0.09037560566316002 -0.07462669988242496 -0.09344914508491022 0.1478292515588892 -0.06671605616687341 -0.05909074706128038 0.10061562415828056 -0.15313121084368267 0.14370941267473897 0.2277659018766604 0.17871563986007674 0.08174640713983532
7 0.16659240224584898 -0.18430566400978446 -0.035715293660193194 -0.14405433310483595 0.055464463387433216 0.16117205020939998 0.043959913482299995 0.0371764032512413 -0.22663286662324025 -0.030467956901897585 0.057369150758379936 -0.12765237828042986 0.13456300533335297 0.04833861470108312 -0.06305323781300429 -0.10191851947747368 0.09647369051376223 -0.10953092889110742 -0.0930532922384632 -0.053754810728858765
167 0.1510454452029718 0.005616915392312321 0.05673032759545545 0.1831072646027433 -0.1996321304839019 -0.11710582527615701 -0.06489908549944613 0.09784818971363664 0.08236035209864061 -0.11780454054914055 -0.13839052663629595 0.03755997669703107 -0.09335984220659582 -0.019221809350134705 -0.04353280123459988 -0.07289217140568201 0.18534956444358475 -0.24226537489001188 -0.013788656961904308 -0.2707727039652137
198 -0.2610947304275774 0.17431779837127975 -0.0410054439528928 0.052183741637448065 -0.08949519332931123 -0.05488290095765556 -0.034429498812598346 -0.24749852784083273 -0.06458280547033049 0.15952248990613668 0.11775733864522243 0.12100329059942408 -0.11488459176022824 0.02221557442441643 -0.269347309739311 0.0661381758470727 0.022324839544282674 -0.19259118246503307 0.30584418967984983 0.020440618205266433
32 -0.025005344490975284 0.17099071531247934 -0.0008870793856771229 0.04063746820535108 -0.04928543808717543 0.09639041517616143 -0.07233623845620205 0.07128750327064336 0.06183499437179667 -0.0734306183697964 0.04329225272809593 0.09337315447734194 -0.11405596471144297 0.06784099889848949 -0.15545362105574342 0.04624782193296043 0.1479640274204909 0.0886354253537851 0.04273475227125853 0.07729579138485522
162 0.04805106971256518 0.02876762363144863 0.08516431971464214 0.1874837427416123 -0.027291949717358696 0.08137187920653041 -0.2728397676835508 0.0903681175764309 0.04567865317921696 -0.02292597277742691 -0.1539590435047656 0.0892446635359515 0.2028526107185908 -0.03492341428058826 0.01108321974845923 0.1161425387156604 -0.0055661097094981855 0.11558791686720414 0.05166322633416569 -0.018125627604849936
91 0.24494455175425026 0.2520606028956671 -0.1106542400717859 -0.060034696555545115 -0.07124022642339296 0.2726827498742211 -0.14843585965787587 0.2829904414679907 0.13550813492381275 -0.1725009866942758 0.029159737935500495 -0.08442344544440698 -0.07296774223593025 0.0879935734054436 -0.13819412564882327 0.08923412965179703 -0.04848433961618235 0.1503465408664082 -0.10065312965987994 0.0582734404188822
27 -0.029393770568691465 -0.09771771044968494 -0.09306729328142818 -0.04791940617267524 0.2573199812123143 0.00148726498142282 0.18582850438298906 -0.025659049066837813 -0.06972184786735712 0.06015945043356054 -0.047531761731463694 -0.1607477198610039 -0.056839921089695905 0.04323621826104502 -0.08681863594993405 -0.08122948034165163 -0.0920443110284068 0.07201789300254073 0.4044405155872246 -0.037123622101328926
140 0.09760494711083831 0.12232594513513925 0.03150966961020619 0.13180939544491857 -0.05120157766753506 0.11699827093187745 0.0963129461190345 -0.05321445344125557 -0.011779227602982504 -0.0459969602928136 -0.021359121760585482 -0.10252469917606198 0.11278691312569966 0.1387486116115105 -0.3643483197060951 -0.017163427497636472 -0.12361640154566583 -0.018785807234132874 0.09092244436592889 -0.1113772505044848
81 -0.10354369590390249 0.10900462461353241 0.3472516298958503 0.038165767115622064 0.08600350867549167 -0.05597297534481865 -0.161715931854955 0.10196848466847534 -0.2827288091623164 0.027043697969716448 0.2248023288864975 0.23269454231377756 0.10598308416900233 -0.22141987776464594 0.011033440107542638 -0.30588691880756486 0.1774651189436793 0.18275616195255068 0.02313624859588495 -0.17866938711163696
41 0.13016233008869568 0.014034968662709084 0.24102471921525928 0.21298182668554919 0.012277050434984274 0.06643709837453737 -0.20620982509179786 -0.05210928058120731 0.18747502844406425 -0.0695467310713611 -0.11937957106374461 0.03501100690625741 0.041497359824361535 -0.04432723813155647 0.053284014278571934 -0.014483299645306535 -0.04867795449500994 0.09794441334033478 -0.0279005578056603 0.00907651578060219
84 0.08239282247423575 0.08466370767949244 -0.2543847465953593 -0.1315557700060854 0.05292596654803141 -0.029169182903207597 -0.07831118473556115 0.10839131050208313 -0.06081758036933963 -0.08794022145991812 0.12170952065197854 -0.2664847792188465 0.02747389256323597 0.1206630665612158 0.09715052829455514 0.13554773138227688 -0.05144837316845706 -0.04895270029486078 0.08834077076470916 0.2564457572089561
95 0.06836727229536917 -0.05089295205460896 0.0038849794983646098 -0.16461485127338557 -0.05022419357042119 -0.10080674149535876 -0.10398599229561495 0.1454657591053641 0.18220756521196102 0.03459345513645325 0.0834011895305125 -0.10390734487117316 -0.0871442427790477 0.0921565634180543 0.03581766181850267 -0.02713633215201268 0.19027637879046744 0.0007183745714762982 -0.14557600873563808 0.04393483835603717
28 0.11839445373803613 0.22985289637641929 0.11261701016200958 0.10236018953622245 0.03884255923696602 -0.10689305990731178 -0.002111564358369558 0.07534839062512552 0.1233804479348159 0.008330226363477097 0.1510761727850039 0.08116308629172152 0.1265157332058401 0.20689833012063216 0.09849427981782059 0.09547966455867193 0.0223904500500828 0.2949691957495338 -0.08449340919635906 -0.02782821943649119
79 -0.0005949725555379403 -0.02858440680832573 -0.001440700860318257 0.10546921284369708 0.1335638181277726 0.021059561533187818 0.2054979051429106 0.07147385908127853 -0.04814941697605465 0.025740985944426614 -0.2419406007641493 -0.04025027296633764 -0.013912224058869634 -0.017348235214675458 0.1155703283651334 -0.13214079326603717 -0.0608171227605765 0.24803726260468395 0.004721018684356391 0.17549544078483448
56 -0.03044314778983669 0.0882439206701833 -0.22620088623300955 -0.028754558292945605 -0.14617768620889876 0.09306459913402687 0.0867725151821793 -0.21392172149710972 0.008428873439761514 0.08210104569403316 0.05886375434290466 0.19733155267042607 -0.012320639137341577 0.1262101619733525 0.1496712247507648 0.05632890561631219 0.20831570843736977 -0.29423732492609384 -0.059306591373180784 -0.07711104027075913
194 0.08559292277991867 -0.0021019119261404323 0.20021965350983045 0.03638407394680748 0.100869095213392 0.013054850610441373 0.14100441102146238 0.05584849536463672 0.24197239809839324 -0.04622101458790818 0.04618590136587867 0.013435321179771718 0.18214406842671005 -0.001247248908146929 0.1074786447993237 0.05166058632461792 -0.07344445870211058 -0.21265278205955382 -0.025925555490043748 -0.10730721922472895
26 0.1185516265281916 0.1054942737307531 -0.06536202986660464 0.11605698549584868 0.003167864065509905 -0.1587315540367247 -0.06201340680466577 -0.08035521912743168 0.2231010371565993 0.13501113986950006 -0.04861376905189413 -0.03152098630404777 0.015340107423273363 0.0684894732847768 -0.011129336518143924 0.0418070348900119 0.07550329758817165 -0.0320638098241747 -0.015202230456298562 0.12610491563013274
164 -0.04570262639699841 -0.031763400111136375 -0.09726413036931153 0.23769495673004368 0.09811693614475377 -0.015573805207264722 -0.017898093074801533 0.06362625374170469 0.09950585964024743 -0.12154874879900006 -0.02542074178723845 0.004050483143152295 0.07926744546571668 0.049392953201473966 0.0014518748131838186 0.0319392174507299 -0.05951917225771583 0.12844798688786255 0.048545291660976965 -0.13340549812977356
101 0.14065806811182519 0.16440174367480806 0.10629110997492501 0.08016866408176393 0.18176307750261345 0.07147607213281695 -0.10239359910387485 0.002436064175931888 -0.09309403881955813 -0.06196561852084713 -0.0032050985283357493 0.08535127732949714 0.04829500192455925 0.1309700878679664 0.16448806694584447 0.15988617458150733 -0.07512020243579497 0.05907230199806134 0.17560667134501282 -0.18732845446426047
19 0.06891442545647387 -0.0440079289206632 0.07725272920150739 0.0032392641986951406 -0.16803527852484146 -0.16813126322619532 -0.14846991527705725 -0.04266115328700125 0.03725140630729714 -0.001335895437487391 0.034504848061084024 -0.042706877834128756 -0.0326502465344674 0.04810094619808125 -0.06554135517408602 0.25666872885807324 0.0887858391770085 -0.20669535819732243 -0.07073883653362932 -0.12989111223922345
104 0.0229929427536652 -0.10423581586007288 0.08611966740694608 0.10794948815009703 0.013761405972417701 -0.190373353585037 -0.18511634680557235 -0.25093047050796613 0.17409017641047322 0.4076725339606255 -0.25565036133552105 -0.11282899371349896 0.23473297593101225 0.15749195655391776 0.06278278964730447 0.07404668687330335 0.09295472895495019 -0.03744952954402501 -0.03513755423344208 -0.1294511522212907
173 0.09194994141621497 -0.010904429700331886 -0.19726631259408686 0.16197815529053095 0.07936254257502375 0.043897645489031266 0.15043616889363884 -0.07737382515357807 -0.17603092990663305 -0.1939804425730301 -0.025284646571255003 0.1211348520029713 0.21529131679879057 0.14174107681194972 -0.010118463494225493 0.0008214488735326704 0.0023283203982377796 -0.15051437892130998 -0.11374508305648937 -0.01952934943418048
24 0.09461110731914069 -0.13849582489480863 -0.029125215165860124 0.03440364663442985 -0.18647488636556342 -0.10087229733862937 0.032137773878345564 0.033705008641406256 -0.041798813987300586 0.01825768237860982 -0.05464287946006508 -0.04293213504257034 0.06266892461913874 -0.019284259131310776 0.0904312687378958 -0.17248201622508297 0.1840738348448025 0.09038499841484993 -0.11537093795017823 -0.03192947102559309
11 0.024088874012659935 -0.041966268344700734 0.14288466598570004 -0.05862191901164009 0.14052203629742802 0.09063388376255378 0.06931030401897936 -0.12879100604260146 0.11156780140498997 -0.08242480947581578 -0.1771655534921412 0.021922816244695498 -0.17243494882684018 0.05293070830508101 -0.04337457218167315 -0.1090295420167276 -0.11682861790681864 0.15703339961811158 0.06983272865213555 0.2251817020517869
125 -0.13963907309334705 -0.1683407100879883 0.037825384187292026 -0.022965127893891716 -0.16913953741781274 -0.029640371761553087 -0.10037164590466091 -0.0031288839828910444 0.09575816062381957 0.018470175258168055 -0.09074929450386343 -0.07654727525436635 0.03560812922207168 -0.09046957360771489 -0.15161607740476413 0.15161041508848525 0.18209470138986808 -0.017427416321626817 -0.17169268916966085 -0.18652769617394452
112 0.10053064933799884 -0.15875370378414347 -0.0911331526497525 0.1393004137598617 -0.04334942158176832 0.0652847071271103 0.03807710513905987 -0.2828628571522418 0.0522571800326229 -0.1323677352409426 -0.058883229375995015 -0.06881989785687884 -0.045926959684143655 0.04205342631554077 0.11981980300988722 0.0982142493773808 -0.015870625710869894 0.08574828502823907 -0.19079069856319228 -0.04852204071984127
53 -0.09269736299632227 -0.10540316299576534 -0.052716511611701405 0.0028408307337598557 -0.13462013185570387 0.04329672762910562 -0.00724609111491124 -0.1161135109390738 -0.18824820582997703 -0.19643807081195838 0.0424208756373053 0.015473713275566077 0.028469612829998218 -0.2583593419303833 0.03235775577897999 0.11428975597857363 0.08251024366653976 0.11719262602349517 0.11155552438608869 0.06578512994544357
102 -0.05527577854482768 0.18611391499537677 -0.06757195105411173 -0.013610559076620357 0.002068353031522589 -0.037468706018833016 0.025649158811570705 -0.14649377269935523 -0.07089439524463487 -0.12437661870005094 0.06516611045331272 0.02139340864903991 -0.1008611196785419 0.0859817181331136 -0.035987977684276515 -0.07914869127304952 0.08208351627664921 0.05479649824090526 0.08064229959732434 -0.17426388985136546
1 0.07213736006294791 0.08951129816086249 0.13372911791978923 -0.07007817466351052 -0.1339108109270415 -0.19626031627896903 -0.012110743774343593 -0.2851279836876185 -0.11230441532303168 -0.01007177009101603 0.10812462369313743 -0.0632508733762933 -0.047405081140844296 -0.044951446683474755 -0.013062958879076441 0.007001841739671882 0.06878470303866657 0.020793269783497874 -0.125057360282193 0.03188140059860338
146 -0.11473068072379025 -0.05128876779133145 -0.20917889469042747 -0.20424251470870483 0.027535448146301135 0.08848606673822446 -0.09139075673914535 0.007667661569543646 -0.07154291113836282 -0.1596698776785371 0.11682107801935838 -0.055162634624031696 -0.07963556235581538 -0.00559509712008607 -0.14502836060599653 -0.07672805871020426 0.23740158277281576 0.019228402598419177 -0.010759920762261252 -0.2026346304218521
130 -0.06026015748094727 -0.030445713249870665 0.36776988495353646 0.0668014950553334 0.04623681413938581 -0.10451762631954188 0.13144053691093815 0.1785592151492459 0.09795727537733993 -0.14361778646938342 0.0932073428495744 0.01123928326748409 0.009932912600859684 0.11590389543173414 -0.004794666893112258 0.025801440936601198 -0.06474317138184273 -0.20512354346116357 0.03690664586892162 -0.13581589378772124
191 0.005921955034569871 -0.14746760783629276 0.13374345331253493 0.012446366981030622 0.0985653801481144 -0.04697097111471122 -0.009769912330398346 -0.02050652505767025 -0.07812413260467528 -0.2879084188265167 0.06818270270916235 0.010177428079008078 -0.1708570563071307 0.09955535388009383 -0.06402453579424952 -0.0031445367553346423 0.02030861423591739 0.22166532349450552 -0.04342929416970717 -0.08522184941432599
82 -0.05080098723817635 -0.07201435880687446 -0.10474421496794399 -0.009640349734111065 0.03076766485631903 0.06194683081282976 0.028336248958944814 0.2317037343749818 0.09759339476687061 0.10026892758426374 0.08884212520828286 0.05548646161818495 -0.11554556213705335 -0.016796648356795316 -0.04770751431478483 -0.28818824240980334 0.1237607927990416 0.028482273734888857 0.03947540039222759 0.18179599834170707
73 0.002789223923298283 -0.17330393996001972 0.026732854625654966 -0.07775988787969296 0.06559426349890742 -0.18078726810101922 0.06482700591096295 -0.04528171471774632 0.05009925983933994 0.12959264274135351 0.08776421714530463 -0.020282219908043454 -0.00721480594847157 -0.07563567254800962 0.2157175772536267 0.006133943653837146 0.07711737108358042 0.08518142907509926 -0.012296468280599143 0.06300341944810614
77 0.03273414843379417 0.05313671337367736 -0.07804933591663274 0.0467258702433022 -0.1877792021113954 -0.08106302737152622 -0.053219031930454276 0.03496251240551363 -0.18919620230190123 0.16614502296012346 -0.07668738318152026 0.1865531033244388 -0.18242915872776694 0.009859709263737092 -0.04461188120522093 -0.1093565643827501 0.11155953215938015 -0.05479152909691525 0.1405381777728452 -0.042850033034147764
78 -0.06782232212458056 -0.18726333615029075 -0.13025904157038648 0.02759089959381235 0.24295572880706967 -0.039178457909155716 -0.03304044219930161 0.0067501169020637 0.039816470557523596 0.07326428962320489 0.12643823961073733 -0.10950441518025737 0.328204511273379 0.02463496266109355 -0.18472912606558198 0.10316803781900719 0.1497209974934032 -0.01483030098342991 -0.11141605971035039 0.08386406328739625
0 -0.12681180542513235 -0.03578751979133265 0.09983793176922506 0.13099969396949765 -0.06396951013597026 0.031255126986072766 -0.10729963890185158 -0.10863758968930058 -0.13882053698231311 -0.08173691803859018 -0.27225823206725913 -0.02553852224991608 -0.0379920979903913 -0.01921211567477759 0.10206689105354574 -0.2827091343421897 -0.17070951616165622 -0.2371835299753138 0.11454096658897842 0.05762407960560557
60 -0.19563785546204862 0.03666659376026887 -0.19246052068859418 -0.05952624987395523 -0.0014807229817228687 -0.18400480012622353 0.11991978081463334 -0.006112183554994809 0.019854225784066776 0.0660384746033553 0.024320809660224013 0.09135625799455702 -0.1529845440720872 0.17955578366114658 0.15889287198655883 0.0730711343160682 -0.10522328355457916 0.026405481954705944 0.2822570858061689 0.05332132745640211
133 -0.13445997358530243 -0.0560425075604822 -0.04819655191455113 0.13309635017219937 0.06493054499509528 -0.11450906833632261 0.2143618831760824 0.25548400078305455 0.02869335127144956 0.15602312907794452 0.14940725406056807 -0.13701777676473395 0.0920512690920325 0.16431955699964337 0.3182496288185802 -0.22766523605559258 -0.018130778664834934 -0.06256910189491036 0.07487486181271312 0.03328111895222404
183 -0.027762608927979212 0.1829927625686469 0.11805106830775573 0.2191574749559218 -0.30393238939018796 0.09522886308908177 -0.12265045567686743 0.08578685865797207 -0.0879514455333838 0.23733668841234426 -0.17102197898495933 -0.23415924437688249 -0.1146356321051031 0.09826004851583174 0.018338527710816222 0.004553327139111975 0.14489759919509212 -0.0029702780454803094 -0.01550287212246444 0.007506579051660498
136 -0.06717082871240844 0.0649664593912825 -0.25520003393736207 -0.029464104261591885 0.16953792232640585 -0.059587488273362035 0.17071395703252684 0.16909543675140512 0.18404541566800658 -0.2202370434516064 -0.007426205936630331 0.1426253767057304 -0.08605562105476446 0.03711857031087515 -0.06012732334262715 0.041199012323044695 -0.1496897429563154 -0.18486889716987362 -0.041014592806321436 -0.23353136641048614
74 -0.14846214966126023 -0.06104068861341596 0.05177163485625572 -0.1246458003662944 0.10643835060919249 -0.3529858567582999 0.036753599898054524 -0.010117204233088579 -0.1344598144324259 0.06271196126392851 0.09617008811116722 -0.0869307211095547 0.014912551256529799 -0.13494722691966082 -0.0053329723678121445 0.10448194739199247 0.024827934718795266 0.2357966757967836 -0.03710048309897086 0.06991533506027449
141 -0.13459207920399663 -0.09521171238789665 -0.01774278679255018 0.06086737602121172 0.14183726399242563 0.19511106155701957 -0.042642832311936114 0.291278786569224 -0.039272568071392906 0.049841600875611757 -0.09681997319333516 0.16896900869917947 -0.09224872502084916 -0.03426776077818434 0.07135056068650879 -0.09300430668591578 0.1188602702919131 0.3182018715664835 0.24423709154490125 -0.2004792813507715
67 -0.14430522608123889 0.06253660773833933 -0.04147673257449469 0.03125029735703198 0.17267994934658654 0.06433040865172299 0.09286359115842287 0.10803958551069456 -0.10586495933268429 0.0695147569031133 0.07331778031259087 -0.10158050949031881 -0.05750565776343273 -0.0801143089205602 0.0780791759225888 0.1463207645134085 -0.15995952468180538 -0.07542135875139346 0.03578950658290791 0.03760533642312203
5 -0.061163699279008575 -0.01758211389825724 -0.035583292353360454 -0.15390876897831818 -0.05581511972958571 -0.06740804701157238 -0.09868705989264284 0.15762482395455837 0.026223153292669932 0.09394008258025117 0.038677675782671374 0.18127891484972872 -0.06652709285727647 -0.004146034611908913 -0.011377644603708511 -0.26831790218117546 -0.021195371882623312 0.188586426100904 -0.18732597613074653 -0.009316272570449938
50 -0.0796078975000675 -0.1463698415227761 0.21627973842081705 -0.010705993484223176 0.0151842282506135 0.048465697361549175 -0.027549274991079932 -0.02685794159688834 0.05565576518165603 -0.011012968312485777 0.09139689118833583 0.00785519394624714 -0.1260307433863343 -0.015646434355996986 0.04421509908000509 0.07416237961193688 -0.04000603527395257 0.09283402927026391 -0.06205754480312513 -0.09395643878995953
29 -0.10747941137778162 -0.040457198939706895 0.16375025633277845 0.008437242035002554 0.06609393048580375 0.08359676883113665 -0.23792841984041943 0.1159157625689925 -0.10699312184893253 0.038802892351075334 -0.12568190129479978 -0.09634320838135042 0.04353257822757557 0.1426019966420904 0.3219458753582382 0.10846794836307626 0.07908297484992904 -0.09453896973928222 0.03890692712448388 -0.07603095886060574
152 -0.1369171231383254 0.060551735344812944 -0.08258926005326071 0.034805027445695365 -0.0013462302651617646 -0.15802412996203585 0.09457379121717371 -0.0261574727509577 0.1385510874146623 -0.07065958110371025 0.15847610818835048 -0.07727357858552523 0.021946275555723715 -0.0402242940163387 -0.056323152065217916 0.10410266056952942 0.0780843183057964 0.07100669127284431 -0.012952627196842476 -0.046037787492182
182 -0.025574104343311383 0.03047555178164329 -0.07501078893027144 0.022389811035446162 0.02031112995926656 -0.1705078003415024 -0.0452677168894302 -0.05877417120126769 0.2195554259142754 0.00036957730591102015 0.134723596660959 0.014793724936478117 0.1346211616789447 -0.07366058108194579 -0.047768061003040894 0.06679554579052566 -0.05792287396513536 -0.05045661807997159 0.026057285551519642 0.005758655980616953
168 -0.1704621758850212 -0.08307974036215768 -0.04599191878435478 -0.02214793538719176 0.07999375850577765 -0.06948390478786878 -0.21062312279728473 -0.056168868143436405 0.13888627544613458 0.05068272642746495 -0.11641931550909194 -0.03846450750585828 0.04077279320881527 -0.11235634944299852 0.0006591282452381737 0.01592375320104593 0.11085608065860603 0.0283015124342246 0.16941956160260274 -0.07564762233766055
184 -0.15116415648372405 -0.1457137400587247 -0.03132466982662387 0.04494191925299923 -0.05686122662844777 0.15099223249863347 0.04208909329951886 0.23231072456103705 0.009993490000882004 -0.06379284236917505 0.10604617888663936 -0.08998635610351181 0.04509778682369449 -0.030705160991237015 0.05149677975823485 -0.014836862742503504 -0.023481167537709964 0.12830273999206632 -0.0007687473950878811 -0.0974566137668254
64 -0.058459022031254346 -0.10614584359605317 -0.021054952579856 -0.21690788583608073 0.0644532820227448 0.058680545566340746 0.08208168028488741 -0.07141648115491793 -0.10004664586267986 -0.01191751622733756 -0.014100823783136764 0.05170327034572588 0.09624807231667276 -0.01250899810942559 -0.05493763242685529 0.2672776327219091 0.24123423463337845 0.025150127375741783 0.08267754573938801 0.015988234522340775
143 -0.1649862729090956 0.01912087254060528 -0.10869930989565953 -0.14479720170745086 -0.007488670314867197 -0.04513164491764674 -0.08650941932807259 -0.32263395893084773 0.07859740662019402 -0.1790778842945366 0.1397988268790663 -0.13185211359544863 -0.048793443280008286 -0.06851994139487715 0.08361400530294678 -0.10357744418639098 -0.05722640089112184 -0.11507255889480722 0.20921487081401358 -0.01935195052875722
39 -0.02117726007188661 -0.18420435938379193 -0.004853563072667431 -0.07812257720247388 -0.01542495362596613 -0.21425383868379877 0.11987996071894598 0.06265390476244762 -0.07122925518247585 0.25451414684910617 0.04967019239398652 -0.026114667306181522 0.10131003500864659 0.06530030324200105 -0.23778047050174045 0.1078017392328674 -0.21024799104872863 -0.10200640297505868 -0.21305770351632886 0.17271972096447824
88 0.1275062015663149 -0.16700878232073857 0.1301609063584502 -0.022384903157271124 0.06467346423497103 0.20472375799268003 0.05297356980226286 -0.08396810892800902 0.23399942833857154 0.19243947651452412 -0.06433396025885987 0.055365309161358144 -0.10848983668291143 0.10510235630323261 0.04004906460255949 -0.07717963016506672 0.016987719042849708 -0.16373436783982923 -0.1498800646043932 0.10863515452266691
188 0.15389186857222314 0.10919129661480263 0.11980121572237348 -0.3349450484877486 0.10622148667686158 -0.06478462128765694 -0.00013652546439283901 0.24163538411985472 -0.3195837653518887 -0.2593163209190458 0.06350769887680595 0.11802851003873188 -0.13514008799995902 0.030770312072278344 -0.00019177187881882569 -0.03226658894281794 -0.08243727898609779 0.3240516524056121 -0.01294572356800743 -0.025511453120269614
158 -0.10730081062104402 -0.00554381949198801 0.27551970719670543 -0.05493213338399988 -0.05582899912027481 -0.024419738514227383 -0.06777656538741941 -0.20124639659663454 -0.07091858086763966 -0.1600928680139274 0.09236088813771165 0.03288760783488092 0.056607671514043154 -0.03495178710507333 -0.06238992163094409 -0.03897446039891949 -0.08722037364566414 -0.0040004275268318845 0.06254924461307276 0.32955913837848927
175 -0.3260669653523868 -0.4092017034546755 -0.04380685783908899 0.12992457960879367 0.004113863169440245 -0.06282470168615754 -0.08750340826941928 0.17209542371609954 0.01134682798320554 -0.13078761151026916 0.16131494389791437 -0.005915110053450104 0.030724878954252393 -0.14926712248737356 0.12749927487326718 0.002076831175485521 -0.058031732011447956 0.24860772307333298 -0.12219956700647337 0.18911596778180906
70 -0.09999410688991742 0.009722676604506248 0.2767727924307525 -0.11884705639361696 0.08590516855739343 0.18882840443660623 0.3386137954223873 -0.17330581618648727 0.12161987217167923 0.04097509824534657 -0.009325554920467952 -0.19826068757807658 0.3346594728062507 0.2941715715738485 0.009973044505554498 0.042615137006005444 -0.042682022563661756 -0.0479683151119464 -0.26124044482018993 0.10744819419315293
107 -0.07721708389770672 -0.03789205947564989 -0.007252964780660123 -0.06085285084735402 0.0986693651321357 -0.01653524234091273 0.18944976154021556 0.016278848060860326 -0.1317451743081706 -0.09184767158864435 0.28819640364960897 0.24564114833115194 0.10911401072825706 -0.01970562059688524 0.007468553710497469 -0.07040150142310678 0.18291091986360936 0.010336750918340989 -0.012726917192850696 0.07248380057891468
100 0.08728712028742559 0.01779115019998111 -0.06949266968466399 0.0751839928734343 0.11082408647133124 -0.1293945381442106 0.02637056242217406 -0.009832799230331014 0.18966555408254746 -0.08774056802618728 0.12164096300529595 -0.04444809689460281 -0.03652927684105994 -0.25672007783984613 0.09169516294617364 -0.1295932666539534 0.03737382981039045 0.07100850683651866 -0.08482467981065567 0.12727293361311556
51 0.10253728495101999 -0.039145373641918 0.21736335536078627 -0.07586903885502445 -0.00210073108406632 0.12806410196863877 0.10960010231409112 -0.09111805051261876 0.15959266136551384 0.06610405902537903 0.0931114417900028 0.0016633797641601353 0.07959551216170967 0.02142311501009658 -0.12742950368431197 -0.03538431186584089 -0.1488550362423678 0.17100253679857277 0.25183413162161644 -0.036308145706175916
65 -0.10455621809589252 -0.1261938596779837 -0.022727500539283033 0.07446435530272727 -0.054635626080283 -0.0157599391535025 -0.07988048478021875 -0.18399992704497092 0.09384456822253359 -0.19125022735368988 0.12588813126081924 0.09334508271014591 0.040803984724036624 0.018686686329871898 0.2664223313083971 -0.0061014708165222625 -0.11631071109487491 0.0007999465245394578 -0.022787392588720107 0.0892406393789325
154 0.06337871125737218 -0.057539410640803444 -0.14818605612747368 -0.04180645113628037 -0.008515436241602187 -0.012227590442833603 0.07749969722529369 -0.020742835684506557 -0.3288674098664043 -0.15660842741349143 0.04702561780986496 0.1468507593689796 0.04451556997399115 -0.09153584113114338 0.1661769215771265 0.02831639440571927 0.21689532555053045 0.23611999269396935 0.017326023587434253 -0.026078844738329696
139 -0.14042428452316363 -0.19945696437137486 0.16718013325418005 0.09693738880295198 0.26208177133382904 -0.24373431009842975 -0.034198248093354824 -0.039612032227348166 0.15949861751009195 -0.06195764041538672 -0.03579041499530138 0.021890935442798458 -0.1542874171925126 -0.17021404781388286 0.09623196236072339 -0.025891519932569315 -0.004521345441885742 -0.006142697178821584 0.03749164531550663 -0.2931202727636009
97 -0.03208480354582455 0.005386322113149361 -0.09960081940912285 0.06880830719068103 0.04518709531725659 -0.08908726268528405 0.13475356641325434 0.05524831685622838 -0.09135007009910502 0.26974322972087206 0.0014772336857206056 -0.11784338836207035 -0.04101998389742417 -0.2813017423009819 0.026030250031991494 -0.04329429142377078 -0.014258971574678165 -0.21898286904185002 -0.29756879554207993 -0.033716423243817614
196 0.09149638082881402 -0.07526037522908675 -0.17956722842504894 -0.07815337593917096 0.045260096306024476 -0.034265067991213566 -0.05441410365370779 0.014885537584974537 -0.11871752874513035 -0.043093931362317435 -0.09617006053874068 0.07302695260466804 0.16079408739060078 0.183663244832032 -0.010962726796878373 -0.00025380782957472596 -0.06762557061229013 -0.03302105960992771 -0.27609927224222713 0.12652028688443442
10 -0.07429833694757058 -0.015780252971639614 -0.14483464684120703 -0.07718047464813578 -0.04050303572939901 -0.22061529148036718 -0.20472222770163448 0.06265723742212197 0.1292717197676831 0.03482005993315593 -0.003189810143954705 -0.26665274047987253 0.07894101163353318 -0.05991016725698221 -0.04471642702536711 0.21074251400697272 0.1025781813136223 -0.05775606890132142 0.012635640580887094 0.09480546079958779
149 0.12330345998212841 0.04156249511850308 0.22795885626122728 -0.006870857676393131 -0.24976202251139734 -0.1218694703320903 0.16029703030406853 0.15469879975875014 0.33140249542402805 0.06785110167401372 0.08639799255856438 -0.03313421243714431 -0.13012471507660436 -0.14392311460936197 -0.061889801365687266 -0.11981445537196449 0.048691181150174324 0.11146503929919353 0.12735622953174366 0.061980316047990626
106 -0.13149606356027804 0.011273510786660697 0.12857603182136182 0.17844420126053737 -0.02259769756005842 -0.10555470629289476 -0.11340152700516933 -0.14783238276544952 0.3616055817795691 0.09236018849086677 0.1370491694041442 -0.011685378359959822 -0.1200834874229305 0.2605911794951838 -0.013727317870598527 -0.15551239682800075 0.029536516133437826 -0.025667697530398586 -0.15688352429237246 -0.08960627921913406
49 -0.04632179895102747 -0.1683339425451578 0.18856531079914912 -0.15716787582388206 -0.0359783531043718 0.05372619184242694 -0.10603124511501814 -0.037102411479487035 -0.19911626024838922 -0.04705015022647405 0.03756204386325749 -0.10634478614192225 0.038246320904290865 0.18584798403185981 0.06776321397608895 -0.02088116259385334 0.05624752987789474 0.07187190940459284 -0.19179638638807175 0.1300968103828044
30 0.17143962623271777 0.0543621224342588 -0.2055658332389123 0.0957015600816375 -0.16809184924413934 0.00945154037447437 0.10296443216305474 0.07133255674463297 0.14619999042874235 0.09947870850151731 0.12690975611574457 -0.08043288769678221 0.0030762259640372837 0.11284365873069055 -0.06990565447722637 -0.15777602723781234 0.03509527089368358 -0.002216003471582116 0.05609056478169562 -0.14438313124341082
16 -0.02640179537307377 -0.11267941022137377 -0.11853485061184413 0.14802785680879504 -0.15018518888093085 -0.05655119065870726 -0.20496240739467886 0.18042698231724735 0.08545795787419619 -0.18080574906761682 -0.06619246728496278 0.037287065251555215 0.1964441307927602 -0.04422235624042736 0.0681386588193776 0.058549494128969065 0.11276205650416962 -0.0979100540029699 -0.06881069633587114 -0.09309011481880212
180 0.03812968104827878 -0.03296814889996276 -0.022373869510989214 0.002559432040538296 -0.058820986906736615 -0.02009397496944668 -0.06959252669108683 -0.031409558415425344 0.05901267252957383 -0.03153814808967849 -0.03466992184219206 0.03308907314513659 -0.24847428386852669 0.114500151447857 0.11301052998276756 -0.023263215592848076 0.01960353847203784 0.07189114348434485 -0.030861652440975055 0.027080509035594058
58 0.12246087933080442 0.20092759826718654 0.025139351425068072 -0.07775540164226429 0.0993892036250251 0.05623405140387406 0.006999062959092891 -0.03377094517725935 -0.03712352164129081 0.11123420961912048 -0.02593015161816123 0.05110410233705383 0.22785323410506025 0.0396438672860409 0.07011277367432998 0.01929269194099989 0.17867402210955127 0.1529856717370621 0.10732370481418461 0.2685965795064021
52 -0.20647931142467654 -0.1493006144876001 -0.29419669477173854 0.1577380398411533 -0.21906302289944618 0.02548541720905314 -0.1783590752304844 0.04496303212630329 -0.003908502580636086 0.12835556419092256 -0.19896840633158167 -0.2540623368639232 -0.01612015885963299 -0.06206900671063801 -0.1322077361447088 0.11723636405927727 -0.027300454817059002 0.08896100212887202 -0.2514081261008479 -0.24101532809051374
177 0.020509159891062757 0.0530136336826339 -0.03989474965249356 0.035285581385783665 -0.2674299424125081 0.10405693155562408 -0.020977758389793575 0.03710209712570101 -0.051297069162388374 -0.029811461281349406 -0.05471275893278222 0.121613691424694 0.14486544691842954 -0.08918540909546596 -0.09796604060451543 0.1802040591429207 0.011607912558576433 -0.12741840703942578 0.00459773071236106 -0.11136824373770755
126 -0.015221378145720103 0.02593629375391053 0.028060034268284847 0.05172690057969596 -0.012810711902083055 0.0819825526733859 -0.22678770393235428 -0.002210402065735296 -0.2169504359676201 0.20529729630991395 0.16854854794948876 -0.07121914045327354 0.026421203694189932 0.1438081082879815 -0.039448995818289735 0.016965773558724986 -0.14469900357346221 -0.11653471032437257 -0.01033594157467312 0.11500592240229468
75 -0.052837048703351756 -0.034256481712252936 0.07732964137378627 0.07309880496266963 0.18752118915379967 -0.12392628076339836 -0.13020130088593262 0.10100745167473849 -0.002074413813943093 -0.19563297029860055 0.12103362853037229 -0.03714581464946601 0.06458869600716284 0.09780481684199764 -0.06752568825798627 -0.2085138261612442 -0.13465750549172087 0.01923690697675326 0.07487765049745439 0.021832941531326602
15 0.24284985599432535 -0.17569238482236385 -0.04131530882874819 0.08495954504818204 0.12486564188967968 0.09259948560359783 -0.06936026755475826 -0.14747595032748953 0.17033878663802035 0.19336070765542998 -0.2635427794447832 -0.2755992697287404 0.2677480514663878 -0.047346204381825574 -0.1247171456483075 -0.16679729039462463 0.12188350346897928 -0.14777168717658692 -0.09579352795409632 0.11419816667742166
192 -0.014658237768975829 0.02825718322285583 0.014077984123695625 0.0751868113221606 0.05500160347313596 -0.09211147271440559 -0.12406603275712176 -0.1297547762439035 0.09848389321530665 -0.03167150405571689 0.1649031742034447 0.22725156725196985 0.17178904939544282 0.06305185616626713 -0.05492148832848733 -0.06569153627655931 0.05179634038635368 -0.0075493385572492095 0.10460635343061822 0.14304950712782602
92 -0.057295475650129074 0.05521037366819219 -0.09902337085820194 -0.3480490910147597 -0.02275645258109719 0.07685233256649561 -0.2229982611508387 -0.19077340334965465 0.016765282210595853 0.10051085358669264 0.03982398940761716 -0.10776483974270165 0.22672797865143568 -0.003990621030691449 -0.03547227889428375 0.23656171282958144 -0.0152590210391505 -0.04225296548432336 -0.014308970083091259 0.035547249165701525
55 -0.10191046829351193 -0.041478803621796755 -0.16064942395440596 -0.0036214408620926135 -0.11346549745540362 0.14642633099511906 0.08353122293259711 0.22815666577809116 0.018571469817790058 -0.004856949322349091 0.14460467556042667 -0.14883209727824934 -0.19345307530051645 -0.08939121552518593 -0.01877952449640555 -0.15360520691282414 -0.05294134237662244 0.03464176515935367 0.2244110143660181 0.12984808573057316
127 0.2822176809602447 0.08186108035303731 0.09677248721932696 -0.07767786428492014 0.0132698575700342 -0.11355467510978091 0.05745560788370896 0.011831320076167332 0.11530035611077635 0.20078528141548851 -0.03349607395556521 0.1497164501428031 0.03442628836673812 -0.23686349243706029 0.13742066944414524 -0.004321857881662657 -0.05964117601977091 -0.1462055717618376 0.04693938673675287 0.02162123455638471
42 -0.011155442147285068 -0.11174055601619103 0.007426295604978856 -0.2056086071585018 0.08263173337268283 0.08818480667595717 0.20112493721661945 -0.03249690318995846 0.013394960927750282 -0.1711312744186208 -0.13066844043491552 0.03383246279562221 0.04515937715198725 0.1702001104851228 0.05888668501217654 0.06922848713843618 -0.2143177090120613 0.07295505719133866 -0.17934751283246705 0.10664379342691986
54 0.049709181172245584 -0.08358807075501182 0.13286010079189395 0.003745945017376908 0.05193915749695482 -0.05661106232946881 0.019349329115713194 0.15742534236503564 0.0037488304976990698 -0.05605760976386632 -0.013052994809755202 -0.056864920296036965 0.24052768715456194 0.0524316937796921 0.12185750307959219 0.12310503399920242 0.014157967461072288 -0.16922781389105995 -0.02357708300085041 -0.014902108363769076
108 0.12379653336126525 -0.053417877089246356 0.061541081973688155 -0.10529671517263746 0.019929089465738185 0.32390266860017564 0.019384631112846197 -0.12502495001395048 0.028866109010084965 -0.043947662910144535 -0.09025871915142639 0.06942026054569757 -0.0761408239072602 -0.0978774302088675 0.18775529523497927 -0.014379699705235442 -0.046083678180167335 0.15474959816959077 -0.04932283857391943 0.009547222265923553
128 -0.1685881603264774 0.19886737814514746 0.000813997468502565 0.019387454961286202 -0.10555346465518142 0.13177754073526182 -0.018447645135425014 0.0615787047787945 -0.1453310225455338 0.016357565949513344 0.149994882469547 0.13843267445201654 0.008250050597560316 -0.10280128296903572 -0.1599891486757773 0.21623274477924434 0.07521958767187516 0.02529928872516771 0.14340700261661463 0.008314931180063975
123 0.008394353229537636 -0.011926715728781461 0.04053246494886666 -0.07168239031813937 -0.15101114125778328 0.09761663968313644 -0.055129181534815816 -0.10345452557062411 0.055876501647775134 -0.07344230111872281 -0.15545142832091982 0.11324638193909242 0.11755567345448792 0.15441893172715263 -0.013446784506817959 -0.2038227236943213 -0.12269903477186811 -0.15392958914095575 -0.0802641082117667 -0.04162934158293268
44 0.16009681109889493 0.051701115559795355 0.05364286509645306 0.03366749044648825 -0.09527384562236989 0.03933497591147388 0.06004204454708116 -0.1189264095045545 -0.23748266587233502 -0.058670060913931545 0.1841654078304792 0.08243371416384114 -0.12264125903826655 0.04332064282894183 0.24691075727814418 -0.03552688875885846 -0.15173512219735208 0.027262345501840073 -0.07376155603467048 0.045904241775716254
76 -0.21486970600055336 0.06528955992332017 0.01781225687155197 0.12953279946234217 -0.17709406722537221 0.30486810332822684 0.20739252040316955 0.18342874049589858 -0.019886218393113567 0.1264066728440903 -0.23669078155700443 0.11281311491005729 -0.02715714943264142 -0.05114975969112384 -0.07882841029143643 -0.1392084611039984 0.012214123644013208 0.10141242508003392 0.2219424807960395 -0.03798373550451667
96 0.11747563222873045 -0.1581698164685826 -0.04891131068080614 0.14849647952914302 0.06205828703895457 -0.07257450031593476 -0.0547785379524177 -0.059696688473094915 0.02141627556134651 -0.010488420910719963 -0.09493708492486981 0.09046530120808463 0.023554770931182998 -0.04541618647162255 -0.0423853702371709 -0.12583097936672602 -0.056801226507347403 -0.028691326890737976 -0.07213345548323298 -0.05108461633777082
111 0.05450868000137716 0.030996390335607422 -0.13383383053211836 0.1842499462299339 0.10388341899607649 -0.14144779778814098 0.0689882073142052 0.007684109110883923 0.000538273271275604 -0.06407295177747876 -0.20098847189649582 -0.1964110476096984 0.19576344390758454 0.07781510209609674 0.09685186726041285 0.026220712928056264 -0.19282028611516425 0.047642979771522334 0.07340060021074847 0.06749489544024198
90 0.08519161335520559 0.22482249320311593 0.033042361033974205 0.09168336072562473 0.2294602857139948 0.013365404759801506 -0.2266889486654023 -0.0834729294794936 -0.19543031396086818 0.16349262445993681 -0.12737344760460137 0.05889553004073952 0.15934559256087724 -0.11518630356928065 -0.124634369199438 -0.09962005020493034 -0.2667042455355367 -0.03472575373659933 -0.056001514099792496 0.11408190353783136
190 -0.17713283617265177 -0.004898690039775324 0.09002791226375338 -0.010051950831936088 -0.12406351238677742 0.027121946509508606 0.11418766543333915 -0.15075036256542668 -0.0009433913471224648 0.056839083254856676 -0.08033171748530823 -0.017501148758997612 0.03245432979214828 0.046394119263532575 -0.2524653577700178 -0.06758330957843472 -0.07600008626595525 0.0661264822163647 0.1147176195795734 -0.013497718874046877
8 -0.23277899180427114 -0.0010938639680004385 -0.006520001411189722 -0.23684291165811377 -0.10203091102827472 0.0999713645186354 -0.04439454119675915 0.029115264231948136 0.005092193420612935 0.17080795640181637 0.18697193522548405 0.0287308509882984 -0.12087426611127428 0.040977278261279844 -0.17442699506358952 0.09989626075113256 0.10963066069438307 0.021897061609932 0.21124516464072587 -0.03193152237637486
23 -0.10307341839241636 -0.010767219432473133 -0.19182560435435442 -0.1280819424005327 -0.006215684613404672 -0.04475027767022612 -0.017961094093348465 -0.060391742404495526 0.002007373196895135 -0.049036637627003846 -0.09120989574004168 -0.2025981047648401 -0.042617488313762324 -0.13733084325620892 0.12097992511872357 0.21489159389906504 -0.012641189849873013 0.137565239194742 0.18971428717303915 0.11400374884540389
117 -0.08649715251304997 -0.06885564813702916 -0.02424119249309927 -0.1854582857588652 0.21015158868125022 -0.04477955886742459 0.01071389983962728 0.031123814584468227 -0.21157554836256634 -0.08680429875092528 -0.20832518732624306 -0.06019826693741027 0.04176704908476358 0.15586904006378438 0.15796357276566939 -0.009398925210717161 -0.11107024487339594 0.030107114060488806 -0.17646424510952016 -0.08254644014080706
63 -0.09591742743364644 -0.17238704263343116 -0.03397583612926324 0.11267146259739291 0.04063784946656977 -0.005361471407566841 -0.016326410866076314 0.14232647346616947 0.09883440520629026 0.18229937495830043 0.0700055119912384 0.26351707409555386 -0.12450997077674486 -0.08077085599094078 0.11253965678078008 -0.03909129947350743 0.22504539665043782 0.007658817598548504 -0.10276822030728168 -0.04360112187343267
89 -0.12001720808879975 -0.27279347504956536 -0.08233783021929755 0.08053301403522116 0.09728001231781895 -0.13031099858493375 -0.09123982152967493 -0.20963483751129455 -0.049117546879019446 0.02111988581866854 -0.04295945861114087 0.051647554146682345 -0.006242397576869429 -0.13025863815952 0.010093955164552125 0.10333602124981656 -0.15685777615008017 0.1575855072897196 0.065006081215654 -0.06041954602573673
31 -0.18139189314499662 0.07712783793449884 0.13222041228150577 -0.0931866258412925 -0.0004091295762317363 0.01898224248654466 0.03309710023311925 0.04465656845552544 -0.12623301628090478 -0.16871087912194832 -0.04794393595924238 0.11708125974893771 0.015342775298175374 -0.04196859322298008 0.15550188504507215 -0.034063717932132365 0.007671693291945277 0.013502420785179256 0.1110586702045511 -0.09114116881232416
48 -0.03912717839729439 0.04434508252997615 0.053805652919791856 -0.2949516331519195 0.039252899571690016 -0.0373692429541648 -0.04381590591221145 -0.04066824853531331 -0.09666412790800916 -0.019802829432520434 0.0317352745419907 -0.32823035414912527 0.16078127746321175 0.18133772312091812 0.1757097112063297 0.18592808298469918 -0.03492478273034806 0.0721064973480427 0.0004178328373295295 0.1580022052161572
