200 20
168 0.08153857890334085 0.2434314106387554 -0.06120486237926444 -0.047680167423923815 0.22572580392898148 -0.15719678033648574 0.1736850187277889 0.13998959696476665 0.057705557400483526 0.05496049053334128 -0.10099552849097765 -0.17492605112655757 -0.19096754386318057 -0.11701260197422292 0.04018407135921563 -0.09932910295346564 0.28710783310630206 -0.04122281559914672 -0.04099298874432713 -0.0681774562357699
180 0.1903842774060071 0.09015289689277854 -0.08130278393458862 -0.10802363443992671 0.20183584998538706 -0.1024741261236952 0.05646867801236074 0.2496056921947932 -0.17981773523783237 0.11796947096474103 0.09980714920554283 -0.10486650228420248 0.1280709796085499 0.11252275590519431 -0.0015923873519527666 0.09638495648474356 -0.2579303789775006 0.1482832214354381 0.2155777324396107 0.004467761041190571
152 0.05114704209189441 -0.11044897095181466 0.22207738739718302 -0.3273058990711079 0.3492320620054286 0.13365614370560763 -0.2543737826397285 0.054626934899327136 -0.13400259048241486 0.12664495135365036 -0.05647759133414364 -0.1132283908735437 0.12048020967721026 -0.06294044381858187 0.23406828601694976 -0.026632880077785366 0.11981723526768116 -0.10107734893404453 -0.15742608962796553 0.3334342479085047
166 0.23960750271933312 -0.03274533902854835 -0.0016762419028769212 0.05708312635332527 -0.01499070801771554 -0.005761050327541395 0.08270607814478245 0.10891014784280788 0.1883048793587392 -0.03684511314721135 -0.1546960614646672 -0.013832203615023136 0.12707183326892915 0.15744557566946762 -0.09919387047021333 -0.23361366714869347 -0.26111353612210425 -0.036179487649102435 -0.05877936807566074 -0.028941187755870196
14 0.05325376077048205 -0.23177872560694857 -0.35626932913088427 0.16990717662783913 -0.2834866777473663 -0.0967697262271935 -0.04716802788062264 0.03906032277780982 0.2255558094188704 -0.03902460537206081 0.25426016416281744 0.015874021867696077 -0.1564558298875867 0.15035278790189033 -0.04956066291419722 0.07019440544989583 -0.13967062883554618 -0.07405829523347567 0.012094522333343594 -0.07973187227281811
24 -0.03354436624825451 -0.008047457683149531 -0.08660934885894908 0.041742226913812415 -0.004175468633696228 0.030442713164291712 0.07444579149922652 -0.17236259677810523 0.018007047453732862 0.12705450591681153 -0.11713613900275173 0.04984110627615334 -0.029661346549969273 0.001511416121151071 0.1399098652925009 0.11909988993635884 0.02872437897362191 0.026089179532336713 -0.07382174521525847 0.1135149307266122
97 0.28302940819201866 0.45805093030573896 -0.08086442359934558 -0.09299233210859292 -0.05000058739326987 -0.0469461998660548 -0.23004821130711767 -0.209333333361053 -0.37561183619116945 -0.12862538631386208 0.06505046844615724 0.2192242281068762 0.04467163156000334 0.13804893064181786 0.10764104012645308 -0.3259827851640035 0.033874867499199185 -0.06792548135095408 -0.09479640247887246 -0.17097661646285364
18 -0.16221106536433919 0.06801860103342759 0.044994115191031275 -0.09717037370068946 0.22195352774450738 -0.08952354020901825 -0.04663792247844203 -0.20730699979318878 0.39899769313969 0.05743524061136956 0.14415947667666756 0.14283717854658162 -0.0656808971854543 0.01427241836548445 -0.2103408850854607 0.10105771726489295 0.1756966788425075 -0.38257467973125503 0.006651664740893401 0.0996491291180036
177 -0.1092852328360959 -0.15835640461498915 -0.13631198595025334 -0.02588852553515191 -0.1760912227371046 -0.34216832646650863 0.3426825527405504 -0.20002949749960988 0.19416504711564464 0.12268103804122453 -0.176463483324432 -0.17367704252418714 -0.010121164749772926 0.02140483185485773 -0.276928125727547 0.15479194249557843 -0.22546484619121407 0.06759411809237884 0.009579811187457009 -0.014968423394712804
17 -0.10876903349450127 0.2694556998264271 -0.08694254699081978 -0.11889645402452777 -0.11126281929002212 -0.10920954650172537 -0.0931546069313859 -0.07505709167392677 -0.22494605770719786 -0.0009308920000188148 0.0837816361901488 -0.05555948928008294 -0.08963950221685453 -0.15224607959747924 -0.041162531168327514 -0.05072085557515618 0.04829825215078057 -0.16162447955252135 -0.05529366559114667 -0.17360160403483754
100 0.16911160496676172 -0.10556603996992955 0.10634463615922851 0.07859569289949431 0.059332887338720115 -0.2061860279310428 -0.16993637110530166 0.012429959388050013 -0.18514809213678088 -0.110257184497214 0.029302303336424397 -0.07348459585434979 0.2677253097098044 -0.1303817728657685 -0.03725802511437325 0.10525332210787378 0.2028803529804841 0.18830450433688384 0.28057880993492623 0.034469572390802214
127 -0.21499269540517352 -0.09490484370262513 -0.10135717562341105 -0.0017412314969451664 -0.09890504990837742 0.029576526487130314 0.10639150704839416 0.17112363866361005 -0.022927662541436748 -0.1739569628647107 -0.01956122350684013 0.05234996605865322 -0.151110085053647 0.28481395913069707 -0.26163994102341165 0.16535070059917809 -0.16430579708371315 0.19521861375458327 -0.04416705737354153 -0.05443553124144118
33 0.037305618174288 0.013647182694726569 -0.03389127166127724 -0.09288641401346799 -0.14889444947569538 -0.03143344039383441 0.23738453981553462 -0.18061630746353452 -0.12627703183782518 0.24820019373848973 -0.09134488278975648 0.14947671997660691 0.2197913932562956 0.08908572918994388 0.13580529839642108 -0.05328071296080666 -0.0837122205267637 -0.04223471689872052 -0.1994406535441885 -0.031241551933575185
182 -0.2323573754485937 -0.12604443824806666 -0.23396313187447795 -0.06494683337953175 0.030200921713322934 -0.2732945076073635 0.14394200377527744 0.07234534862351545 0.008036106610801166 0.09894251020901335 -0.18580087848472102 0.11489404780049177 0.1948401367056241 0.07462713672041478 0.20222808035918552 0.007478622223400379 -0.18739302319521556 -0.030034951909043667 -0.05485671747377228 -0.1375604921393883
34 0.12137233864596095 -0.0078052306890349496 -0.13635281083241185 -0.09355425295005936 -0.0010613078992893793 -0.009770567049206973 0.09347902442343382 -0.003435023617191701 0.08551525238328 -0.021213551137671482 0.026424912015491648 -0.025215272013558717 -0.20063746392269421 0.037675431055860825 -0.003081229704920523 -0.17816143179188407 0.07578463912827453 -0.05573231608326837 -0.10778083384305648 0.04848455092160131
69 0.11139052014893432 -0.08876863950583277 0.09042894797187108 -0.07468239946460557 -0.10731511253792494 -0.15628235188249573 -0.18887603639952769 -0.09142624133407219 -0.005637896622033589 -0.007171753065071797 0.17180381372635897 -0.17462445772639817 -0.21574515307606457 -0.1509168539450488 0.21234622003963174 0.12492955832628248 -0.08228881872000139 0.0912499908611885 -0.048889145415057754 0.02811919423233502
163 -0.1547570493469294 0.02556343833907036 0.12856079633540918 0.047328289499556406 0.05961954622960765 0.09361713531636445 0.18327651024747346 0.08985646362875294 -0.10656959581717022 0.012310853903907825 0.09005030841335088 -0.12065094090331331 0.054966504844058656 0.0981128853186389 -0.22694304512593175 0.11045328330302949 0.004393602357935975 -0.24405771746011615 0.03688220076375355 0.07946541667140179
132 -0.10501246763312529 -0.1573158781576512 -0.27882351266480093 0.08058185617934192 0.32722137943447155 0.09719169379186546 -0.03178433340888174 0.3360310251610072 0.026173303551277158 -0.0016367040475907453 0.132597944616431 0.1382941803969733 -0.2283330104008754 -0.07667361733110879 -0.2607720068906049 0.06678595083804864 0.12321801289447 -0.11654578196160172 -0.05882957219493666 0.04257272177379186
16 0.20300667030845326 -0.279139035609833 -0.076586918468324 -0.0342302855350293 -0.34299333303461843 0.08649566526285375 0.12312452867307455 0.09017910118327886 0.13440542352482557 0.1465145677554887 0.0211442265992672 0.1452640881269298 0.39589724219078953 -0.026621638044312976 -0.017820969285781214 -0.12839858791299943 -0.15422679381277277 0.013401380657718821 0.553998341255876 -0.0289065598275219
126 -0.05096109861013182 -0.13366742612813634 -0.2247683015717153 0.046680955393953824 0.11741079831333742 -0.08016659821361496 0.11769810466173358 0.05025814752661927 0.1501860075922675 0.1206004832249674 -0.33903574332297104 0.02484940181061081 0.03587873627107603 0.06266894065899722 0.0029383490646267317 -0.28797643631486186 0.276885875112353 -0.11257689076637527 -0.17599984384021866 -0.07967703960979282
122 0.1830799743976102 -0.24650080731029095 -0.19701198584903204 0.16636055437458008 0.1270255512618919 0.05870283384205554 -0.236816462769789 0.07076662756597273 0.1196411009319336 -0.16688007303528277 0.1410818750746087 0.32398645931361864 -0.09124711257473707 0.05390290978942226 0.0727975272204313 -0.16365530374025264 0.13031690615103572 0.2067754430893899 -0.0033855957354544217 0.17669631630525473
131 0.081411160543853 0.30957060976826567 -0.18904575238499224 0.0786701880115535 -0.0928425650635568 0.23527604560007997 -0.1439393683718319 0.019171176836866696 0.06291565026035165 0.004107570460254989 -0.16863321064119213 -0.12112783706254887 0.13451038857519998 0.16640151062935993 0.09183623262279086 -0.16678101291729086 0.0846978225753437 -0.18382069715533922 -0.017006576864708245 0.19447720815569566
86 -0.018496917467558893 0.20522614652335436 0.0836650274893281 0.16328407890541596 0.08300182297793986 0.12838683442219737 -0.11478931571123617 0.27288165938531694 0.1708128344786553 -0.07051207501089328 0.3383767839326624 0.08424661536502377 -0.0530300279879066 -0.1778833306233107 0.0717038258063306 -0.45704329954853035 -0.08714710980065178 -0.030361495872421772 0.29762614313339203 -0.06334871502524199
93 0.021509319929913985 -0.031097767418980647 0.07157209459847047 -0.03821416565875456 0.2519995305959132 0.01903760682405399 0.007086425967476213 -0.036062585075908656 0.0948613159573508 -0.07939325893172035 -0.03929012176216197 -0.10868432646839049 -0.04439406063268792 0.1079258464555672 -0.2731879973627585 -0.03045245641746533 0.035345765266748846 0.018501082940443753 0.0013393365386680787 -0.06645883637491752
118 0.17576409813052163 0.024682156592678695 -0.35956697840835317 0.2312196693034255 -0.001652587602167109 -0.13005830894296633 -0.13505452389037712 0.3450482767130157 -0.08270035469638566 0.1788069101730318 0.0522135221276039 0.14696191761386312 0.033938224836061744 0.06922828432090339 0.04271876367934146 -0.14571605178622438 0.23123839051438547 0.2541306046662832 -0.0817240122539489 0.02013650950537998
53 -0.09721999804328017 0.08562617758953285 -0.005846676625356686 0.15368040313738063 0.1536077358171932 -0.0668079679620093 -0.16680603089878343 0.013232718672245387 -0.05427578619702179 -0.20318070950728684 0.17272178620742276 -0.12019696448285333 0.021934450492437585 0.1333977404587448 -0.0948587320709442 -0.32672148125679323 0.1356524701303778 0.17589794239733308 0.07909130409197425 0.1728652259219801
187 -0.2104196257806525 0.1594130909621274 0.128031822238709 -0.22444555831512955 0.15653634157683124 0.3780448248825781 -0.1123789952507966 -0.25881072547507306 -0.09859807523467673 -0.15498070869887734 0.33650558563201105 -0.032342562638878164 0.03880736008770525 -0.0779438860301103 0.1190765232091887 0.19963468584667132 0.1824878068494776 -0.04295588946876754 -0.05666556233329149 -0.12173574156514654
71 0.08922985136993489 -0.30108037738643306 0.06783455800162713 -0.2634731795198891 0.11567037093058491 -0.010014799506211643 -0.04801501180176889 -0.016328320711762493 0.010346379844445284 0.23079045941017665 0.15062146015071814 -0.2902950612788693 -0.056548757647002935 0.273171392064214 0.09124955000297423 -0.16818525469107176 0.18984678894944315 0.41875833623335845 0.11103525951176631 0.07892961295136876
111 0.13000464898698896 -0.09524467439874215 -0.01458792365328174 0.02936758395768705 0.010416305039388054 -0.18973798616735876 0.09180770399420805 0.04496294697835574 -0.042225702482913845 0.16386228924700247 0.2294222064912099 -0.26866542996934356 -0.06684743964496319 -0.020175884567534122 -0.2522399437304706 0.02059355832173246 0.18825640301992508 0.06819511386898228 0.024860888528729863 0.013285604809561527
103 0.025123228822462977 -0.008723833897389678 0.25252334105789803 0.19545418110190935 0.14363259853517726 0.39074998056135046 0.3267197585625569 0.26140960167654825 -0.17547940192336062 -0.018014625863851427 0.22294467539541823 0.31449179048721543 0.0015175684873315637 -0.055795339797952995 0.12497483692592405 0.2978474389849203 0.004333998546626963 0.03643643513676873 -0.08840229134336425 0.15013237434314616
108 -0.06914896254115621 -0.08420830883233717 -0.07701322668916191 0.10450054895988298 -0.19269458375084952 -0.11999185666756207 -0.10805509627173272 -0.21593499789008008 0.0608076857891384 0.05308765870433229 -0.18887446805856903 0.12084520021115376 -0.14879691751326599 -0.1422549220367648 -0.022583812601253507 0.32683417116634667 -0.27673065979832684 -0.10761233792050971 0.0411915159429093 0.008973003837211974
73 -0.004174983940703775 0.2986840755330082 0.11290797885834619 -0.05697909432210068 -0.064481653054089 0.047218344147971686 0.12253783787557353 0.029237776903523742 -0.14106407960964867 0.07771816353934023 -0.08820653676561595 0.20544549827687697 -0.13374707869879063 -0.017988580111233433 0.06758233436509918 0.19011532836829925 0.12117139516131203 0.04323815988254967 0.05934941483071389 -0.015226491577832459
184 0.059019901538726036 -0.22358950153355367 0.1890115866873886 -0.07819369784841709 -0.03382737789308915 0.1998394672367909 -0.19972883893841695 -0.01142870836163728 -0.024599300588048288 0.3167790263175075 -0.1414987575918007 0.04985425513837142 -0.21282166331076843 0.17847307185189518 -0.049598811433649095 0.005568242747544169 -0.05027960019794478 0.14877963451710052 0.012497675008036583 0.2751423008103859
98 -0.08940014798499621 0.010922234723661309 -0.0010456393926445565 0.04543847576787491 0.09744802993843718 -0.10662478574861155 -0.004756307414221855 -0.05353818815813033 -0.11962144974981208 -0.2064797789256795 0.05091126488216422 0.06911853673756797 -0.21063078779591726 -0.08796131517741618 -0.14802145071744033 0.018208352824987308 -0.0764825345407568 -0.013547974922385096 -0.1891442200048174 -0.030236632791514836
110 -0.09212668815411153 -0.008324782819965163 0.13546348295472435 -0.1209243014889371 0.21843936823969368 0.03550450713856172 0.29699558302528994 -0.03900133365307158 -0.08510977615420123 -0.06371077360911923 -0.04302690439617263 -0.2257063998656069 -0.16234369962411604 0.03546105176473913 0.007998534837660724 -0.019868610564580634 -0.08347078363044899 0.19671699596371647 0.025927420971422335 -0.03801553751340319
171 0.17291655413813817 0.10951083581461526 0.2903151418311528 -0.3275128239412341 -0.34321764883539685 0.10731297974405105 0.13097148841201534 -0.22222003136648721 -0.2500712176191719 -0.1915376808537851 -0.0698099448329327 -0.11082689339351325 -9.779615450315079e-05 0.18968313331101355 -0.0839140952682994 0.07099509873861741 0.09641272121876748 -0.007160913405457735 0.11994460627478949 -0.11931210710853786
12 0.017599006836799838 -0.41472477759367543 0.03339227953833455 0.1861876298284137 0.09722955037883331 0.2288297135769423 0.00037083310708838286 0.14408766061238937 -0.0565828135789905 0.505729645772128 0.11624642149362793 -0.002065852234195327 -0.08873490840103292 0.27347224239844287 0.10714214674798801 0.14317743924979975 -0.11302687386539705 -0.08820338875462048 -0.06336411732229698 -0.1925745443759936
141 -0.15623128753610266 0.0251920983965521 0.21745059073761405 -0.13673396221390333 0.07718897588530235 0.18302324153581867 -0.22109392501303216 0.055902625908778654 -0.15218366671170358 -0.05400931223693264 -0.014304611699965575 -0.08787114641145664 0.11726978645359515 0.08008690050453855 0.17991022719024782 0.058227889855851235 0.23167400331211427 0.18856142078251392 -0.025188585028056855 -0.2854317480968318
76 0.16040231458261883 -0.05970046828569633 0.18558347093932948 0.014496391113369535 0.036379573094302495 -0.19578157620815223 -0.06892343755413403 0.03495826646669171 0.3579488327308309 -0.014284447231328715 0.10719208090053084 -0.2074000048693929 0.1432387567562645 0.08694730871155319 -0.004695736074252193 0.08653091895614441 0.17132958817934024 0.11286427881839489 0.1654567472893947 0.17355964004830643
10 0.02192029645755422 -0.2516001592504847 0.1640165160324526 0.1441314497919567 0.17402787200754388 -0.2548384909790645 0.14903359863424132 0.043586728537530435 -0.014355094208808478 0.0762902535856698 0.12129116968648047 -0.07830047098259581 0.041818043624446306 -0.08647453474913068 -0.3624298707027315 -0.060501802595351255 0.1862487828415756 0.2055798559065001 -0.09109906396908168 0.02820986136927303
22 -0.018207638056731826 -0.3202616670507608 -0.03395931403047485 -0.03695737076564551 -0.1002685916474331 0.08992583239917458 -0.033333750808936365 0.155692108872082 -0.12012833696953214 -0.17515701641320458 -0.05185858457753733 0.01626765581905777 -0.02391757152619901 0.00570088246735286 0.08447359314390679 -0.02165088192892878 0.009821462279451841 -0.08271224639469094 -0.10507297673601403 -0.045345220749230725
123 0.0654429086793375 -0.150489863576305 0.18511599737148327 -0.19728555301811998 0.1133278699814575 -0.05956939904413294 0.06571625622322157 0.08527693963547454 -0.15021331558638348 -0.04631421640732079 0.23568882412954628 0.05676199145336874 0.18005076878359752 -0.07245708056223008 -0.0529906435753855 -0.06945025944190206 0.2852306171499516 -0.15142036641540782 0.09737313118376831 -0.18058181381887906
13 -0.2350640792214968 -0.08523282450902128 -0.2142181761687954 0.2729627797629862 0.132206357192027 0.22871319677243845 0.22708318992208096 0.29133407776414566 0.15575495016981689 0.11753025258689856 -0.11979051388636353 -0.11775502951658823 -0.006292157403629735 0.12142521978235532 -0.054117771635967614 0.1515337927507509 -0.06562592523384365 -0.08478258672868795 -0.3045841127107064 -0.08481402488339408
198 -0.022672103275833227 0.06481105891608152 0.059601308927943575 -0.0002990928429310031 0.027725265598153866 0.17292139992290106 0.07959110037670009 0.05583487162489524 -0.13521607735742222 -0.13643756628931247 0.2493558743299778 0.018648647460554856 0.006056447506178218 -0.33758718077630545 0.11657967732836733 0.1579293859958329 -0.03295225593757716 0.029761355768529004 0.2576307914631697 0.17720540117215652
49 -0.06675105091174595 -0.01279614136749436 0.07004706078442202 0.2701122965672771 -0.08102341862293289 -0.13845269525672127 0.11309154696149336 -0.0259387781726422 0.20633416831685614 0.06270921924223512 -0.1704187944573318 0.08307623620130232 0.03621145347307797 0.04168658095563138 -0.04807667315275213 -0.1037836028467643 -0.14763838554565495 -0.2684854676717677 -0.1299028590118995 -0.2448310264401034
8 -0.4951019243641335 -0.03780196535997761 -0.03508025975976099 -0.003680749720198952 -0.06801697414887468 -0.1340857058360656 0.061736347795321826 -0.12939878806769653 0.0742145934193237 0.000808825589277807 -0.4270482990312468 0.09612817815216516 -0.08105358447667428 -0.034690172423397295 -0.29404463221354477 -0.02231852829810008 -0.11592485465425931 0.025964877415549436 -0.04154596480588526 0.11008773959551764
135 0.1834132493964061 -0.030932517422649467 0.0650290115866543 0.0849109838410157 0.10415108359903073 -0.0307238366923717 -0.06779023099489896 0.22963830968419963 0.025620519055329603 0.2375933699475953 0.14184215404570316 0.16744434077403597 -0.03575639727962877 -0.29980457268975524 -0.017756917277187517 0.09365825440916566 0.17199566650427653 -0.003098668592749042 0.12233475610750968 0.1588378449205242
159 0.23497520291802956 -0.04956261742102066 -0.16779482620192218 -0.16742621032322805 0.05160729904370117 0.05112074504234986 0.042727120441352816 -0.20708460752430627 0.014069973675893932 0.03431132664576569 0.1248325213472404 -0.31557298397627354 -0.1294687939328367 -0.1816121154288915 0.11728549849874345 0.13658635427903493 0.19703304528663104 0.08446845917561706 0.06482964527617772 -0.0042322432584280725
63 -0.1315716452997303 0.12095315794406737 -0.20793665475108106 0.23767466058895662 -0.08345897207150052 -0.1643154158054994 -0.013062915095556096 -0.04642106804828845 -0.25149840560895076 -0.06511759156532373 0.15061459174687458 0.3962025169867621 -0.19711521436392346 0.0220077794519949 0.08037417751357358 -0.01183985142996963 -0.20705300152007725 0.11295414395933191 0.15002324338620246 0.05133815350450285
160 0.08850540581169669 0.022694259549314862 0.03365666015532844 -0.15469956943111102 -0.0877623262048498 0.12442865460885406 -0.3788335996363438 -0.04778716468570742 0.2301205537145036 -0.2435144637223287 0.07975320715323368 0.024539713737898393 -0.16917948868662677 0.11820936373625711 0.06972610939208006 0.05789642874833252 -0.0025895635483575304 0.14709261345916727 -0.021232790441574164 0.022987169639111387
11 -0.005447336780201229 0.1348514287549941 0.00868836973238488 0.007524902055563827 -0.14219587006979026 0.1265130001109544 -0.2060928856646411 0.15138960282776368 0.12833525066321236 0.026496122412494206 0.10533938246279932 -0.13662919292637907 0.08242711135763765 -0.02329520777419524 -0.1345384106122577 0.10487705974201278 -0.0420052347851083 -0.03133085067724388 -0.2050544158100484 0.3314002787573389
138 -0.08391539605727397 0.05317093189808031 -0.007371380468074141 -0.06626575847197902 0.04240375420274937 0.05836510434405887 -0.024166905538348344 0.06180474887906971 -0.14070009085791368 -0.023577928441836978 0.41406495962660167 -0.06865103342573596 0.2930143699541148 -0.2033686760192212 0.15979401118727388 0.12482491201600236 0.005737200410804936 -0.08455255801205092 0.051888720817162205 0.031162728774524338
36 -0.09961090378287661 0.21719195859303247 -0.038673572612267296 -0.16096815251513816 -0.09103214703909827 -0.08284978892664346 -0.08934889268969931 -0.034124648697992664 -0.05469424483618268 0.06633328974034157 -0.24194265743893742 0.3035872209221881 -0.0911221385430457 -0.06769524986289277 -0.2842454638568734 0.1337588196607554 -0.0008305730536188772 -0.08165134553184236 -0.14035739514860587 0.15465312062782688
129 -0.05092618416316572 -0.08141952892073874 -0.024111839463577266 -0.0232713495368559 0.14258181907658285 -0.13235947821267763 -0.010837675735045045 -0.06603196092967371 -0.18524794123076752 0.2426736743745587 -0.016226074221036144 0.009591901559046235 -0.04370143832890124 -0.15989456124923426 -0.006445789063313585 0.01866329462568963 -0.04724006364880748 0.0036105876652233445 -0.02838122624111136 -0.1778741714540445
84 0.03332240409114748 0.020039584149914528 0.24130857397483338 -0.030758904055682237 -0.013596961622122514 0.02257946482216508 0.035038485071481384 -0.06588964620441622 0.11302012682627151 0.034049126615909676 0.13335482432471088 -0.12554536294384208 -0.11674375154125959 -0.0032603754715690605 -0.21852676051811942 0.030564054428312275 -0.17802356857684104 -0.14970177839348753 0.23404584334039533 -0.16234983741414208
144 -0.04669089886416422 0.2467323529881403 -0.107510385652276 -0.07225695802219015 -0.07035572353250086 0.09904185806247234 0.0911875468300224 0.04147596449842544 0.2239448838730491 -0.05619553809852893 -0.046942760555452566 0.1252868898604393 -0.05130157548900915 -0.004496340694624498 0.23741170580977408 0.13989229832512903 -0.04575758159141671 0.08695969698242231 -0.29392793827591596 -0.08582757478694766
25 -0.05714652329556478 0.10146842654329155 -0.2353170804556802 0.41381017039828305 0.20779559427172545 0.15449022327595088 -0.15094626058872523 -0.04913372071832747 -0.02646925300174802 -0.20173256139450665 0.11390166251807016 0.3339745645014618 -0.09445529554883123 -0.014484054029970895 -0.20168459768925479 0.08330962219010658 0.11307980200002757 -0.07663033917262456 -0.11025174717234969 -0.23306017224728456
83 0.07411030867823439 0.07842234646568706 0.06005681500926758 -0.07569624264610411 0.13871398971794544 -0.05345626669663668 0.24279522726103267 0.0835487032950523 -0.07278654603196931 -0.11079347739263334 0.05539441064849866 -0.08777203004411317 0.22558250253423526 0.08324795205806296 0.4208042479640568 0.09908119482714325 0.15413315699618502 -0.017974535182499723 -0.08193496397128844 -0.11122845462637886
41 0.08338976214043436 -0.06368113687744856 0.06546412429545022 -0.08079352231883354 -0.24809478280978378 -0.06390368042701505 -0.07517702177082759 0.3517334290248188 0.052919871587163714 0.16134129848392564 -0.07306681161481378 0.15881168720113067 -0.07168584184625636 -0.0744841146416294 -0.08679455371730616 0.13229248513317216 0.2390334252151563 -0.18726909351249868 -0.07922117703505047 0.11122236953207673
60 -0.023047203192602395 0.1498115122481735 -0.03758182394665661 -0.028400075855879933 -0.10530883792724158 -0.09656185810547993 -0.07497099940403289 -0.302106506239685 -0.09213984609242254 -0.18038401442724616 -0.03805513707143849 -0.16603384581616407 0.013604210894842974 -0.10999651514590053 0.007670361978612275 0.24359142273687603 0.057121091775693314 0.006775603424178772 -0.07523338306469105 0.2827099469390141
165 -0.20328532791919904 0.03799518653584029 -0.013611140943683974 -0.011906092788086782 -0.26330151206635993 -0.01680204031197725 -0.12176651041397718 -0.1128451075431372 -0.006378177759774275 0.12508336422780747 -0.06885093045498783 -0.13242048326553904 0.13622251837195842 0.024412625074298235 0.328632994958574 0.13660816900898445 -0.3550961767492449 -0.16646916535725612 -0.04175743732222804 0.09825042659690478
169 0.023115604761887922 0.22667373506147806 0.13205951940031033 -0.04756952310312926 -0.0677138921039951 -0.12656101978436524 -0.01286339427870986 -0.014132130807489414 -0.055047001870219915 -0.24621588092713534 -0.035937830370962896 -0.19289022982741538 -0.0021690315204191284 -0.17676565064297708 0.022146595564850522 -0.1389189680112066 0.02421260930104078 0.3580574265770374 -0.10972599500737774 -0.12590801100560992
55 -0.03151486469652316 -0.18019873008802664 0.03833249264103352 0.00852198368263176 -0.35283965437889325 0.19702129812952826 -0.053508994589998575 -0.14346649562983868 0.11132942526406062 0.09361575056395306 -0.14726217750889287 0.026996391688137444 0.37379992762171427 0.09249971373695522 0.2225762857355748 0.008208473988784088 -0.039224350277462315 -0.11674705116494781 -0.1477690952770575 -0.06288548661560182
96 0.1412332172367367 0.306753822551651 -0.1499165548298833 -0.030353143669585844 0.2608011707849223 0.2444998997826815 -0.04161158726969297 0.2549664408653864 0.006232005707044264 -0.03850678012941418 0.05697298898613272 -0.016916630124296922 -0.276141246579031 -0.03928686642309182 -0.0024666447011630586 -0.00599134337351507 0.026463751408708262 0.09589710934252292 -0.011185921295286984 0.03732143835856118
26 0.04740882523749123 0.2543585737610313 0.044438653358637725 0.09049172978744033 -0.1436478386129557 -0.07668364119675854 -0.49458643989111317 -0.26039078350474315 0.18646979574334785 -0.2298217952027015 -0.028572867501751184 0.16976358195585 -0.2576712088106086 -0.17710695332647855 -0.0676783989858637 -0.012286795404081865 0.07246902231791888 -0.08651045152513616 -0.23550600225871465 -0.07394364165462623
67 0.07597478322880093 0.2035086326248604 -0.013788206756656643 -0.024740624155288764 0.10368843408112768 -0.03922728883992525 0.009443017130142381 0.011401887668056452 0.0057037927984723204 0.19761588463304403 0.03456306992369869 -0.06189568351278241 0.15554510216160303 0.1480117702291666 -0.027570606494644562 0.2712616434518654 0.2840083835798053 -0.1781841733135643 0.09948233266790159 0.17895962588200962
154 0.15233889908238324 0.05608366391850783 0.06446796907492643 -0.08661148950688442 -0.09351101373876758 -0.31483238478189024 0.06372166116991361 -0.2122362954663135 -0.12353650284534443 -0.09239310239040646 -0.154350145142245 -0.03796351344234294 -0.18400373207170617 0.16785596017694104 -0.38215260294225023 0.10215976290371877 -0.09791178671552908 0.07371091549461689 -0.061188740110491996 0.11924328569441701
35 -0.06916268692865171 0.18014586266064636 0.06029305338638136 -0.13560947447781033 0.16881847190554494 0.046091599811724594 -0.021086716876631075 0.25820885453165726 -0.1683712289562268 -0.06564873719048583 0.12482023413847641 -0.03185023352532384 -0.1604985931305709 0.29660137326029334 0.06338572275454533 0.22201626718637904 0.12320851794844456 -0.026837868846399448 -0.049507446746062674 -0.2509776989162818
107 -0.07217821122664421 0.31010974449755263 -0.22279195324631956 -0.03475581648805854 -0.031490436443680006 0.09408799686547975 -0.13765249278859387 -0.03835110119247089 -0.3926555735467842 0.02581407733803281 0.15738895923566498 -0.03699594169316283 0.1477886241938864 -0.2108355889039517 -0.05304043837324362 -0.16199354467212995 -0.06445777672975499 -0.05864125204826286 -0.10552960252209428 -0.02401055993489041
172 0.15326877592574278 -0.0077019485653927 0.07292167491874778 0.16460549600269636 -0.02944525361958694 -0.02494338618848071 -0.1006260916465108 -0.14521493879973252 -0.029999341788000535 0.09197444755244692 -0.11582849526058497 -0.05048174384300694 0.03715871805495676 -0.08027941445886351 -0.12980331096264544 0.014362360062391858 0.07495267719593382 0.21041944708206461 0.06112109638449901 0.01858670288851615
85 0.068538650147319 -0.027570777277432512 0.14244523638774106 -0.15852023197296541 0.07998203062739102 0.012066491779782841 -0.13920554978297328 -0.07636285820251243 0.029188878255297392 -0.20016376572402816 -0.18820410908319524 -0.28040806104824884 0.04210150876156049 0.16158645900676286 -0.02309447832568907 0.09207153416422127 0.045513842802312104 0.03392363620640055 -0.022595810588466558 -0.1033954786726608
102 0.2066615173435078 -0.019214598111493772 0.0328513611342779 0.190320078243752 -0.16797718779528725 0.02249638464849026 0.08737253249386565 0.1370811694699903 0.10958518915486706 0.03393003372531284 -0.18674886423946105 -0.020308218101590246 0.025334335756694415 0.2544152251906603 -0.019384719051701107 -0.10938712398380124 -0.02740186144718612 0.4058313371037737 -0.04073754124377423 0.015940609086475134
95 -0.17399902884233917 0.13196545500405069 0.15350995654742391 0.0874780845723582 0.09059706953147884 -0.029428843252369226 -0.19160623538300822 -0.13922207790264696 -0.039019315838017564 0.10551408713876628 -0.14297375529899034 -0.052848266144197055 0.15877402744788024 0.11873345991876022 0.05864850162196818 -0.23405743971948884 0.01940380069428237 -0.10540209559119375 -0.05226165107357369 -0.14415016172472475
9 -0.008339397938007951 -0.1309333922001793 -0.11897910276602951 0.0005402996402229407 0.3636313933695761 -0.17694102123117406 0.0780828652908073 -0.07488248002631587 0.1540755020385953 0.08062271529978834 -0.038494542799306114 -0.010302454873177495 0.07446754137186715 0.13778151743696856 -0.06307761439458938 -0.050166180523658746 -0.052699555756884855 0.02523545646813813 0.027398369655521785 -0.021922662854763734
124 0.0012278816202677758 -0.08438064704692061 0.015435636181904829 -0.01727203547624851 -0.1626241627834309 -0.06985093157641367 0.03598147375275082 0.030123174598641743 0.007737299969549594 -0.047994252908974064 -0.0788824404687438 -0.15680675712239614 -0.1364717827563132 0.08490771720766774 0.1631023545906412 0.040638571399477366 -0.22430266678693495 0.10395510534168588 -0.009203991768436073 0.04328897270241448
62 -0.15825128646450753 0.3548266916971684 0.048823481863917176 -0.06856965314175935 0.20430796515352861 -0.32144220083660163 0.06433841892359143 -0.04722552062601172 0.14497831382186407 0.26665354573278693 -0.08665146721065327 0.04345776651551574 0.01832208294365415 0.11986343539681055 0.13034697304433612 0.01440901497942066 -0.07106272235944651 0.08129987224783373 0.08036045971038334 -0.16804371625032
1 0.2609464653998435 0.17942452131519115 -0.10285986488709224 0.019780875790093563 -0.1097927969892797 0.03959932247426919 0.013302499369983128 -0.20343213738234422 -0.0672122920892046 -0.13580438283747223 0.01544717029642898 -0.10178241930849968 0.1614865179327283 0.31195378418299374 -0.03317505036066142 0.00014154217887152968 0.20603055556258015 0.2154851172048129 0.005083607090764705 -0.11590531343959172
196 0.05348013546142943 0.10568305892813477 -0.10329039825293562 -0.13632587126842183 -0.018654494182629187 -0.17173849591278134 0.09663055298229459 0.031685635184805286 -0.06920157903193094 0.08456229124900247 0.07896798232018697 -0.06323986592767024 0.23616013844232606 -0.04937855075763983 -0.4575678827451594 0.1880139303935175 0.27619442590615834 0.15677543789171672 0.018128113288418384 -0.19364800698007786
190 0.12910965511908495 -0.17223770292301052 0.08917753151190058 0.03308656178205313 0.03298017375093579 -0.07254042050367576 0.0004402454792196571 0.050520539596137115 -0.11465266935287952 0.02861738366696853 -0.08211381156252265 0.1360199289608024 0.1464358234728091 -0.0429614559938791 -0.20201285711214242 -0.11791922178236391 0.09057031353515181 0.053170104584987325 -0.09597746786751353 0.10594553404182422
128 0.13397250354517076 0.04885054855613005 -0.0300699802437384 -0.010114220908554171 -0.07524273279960227 0.012616468661346648 -0.008001986436181103 0.08758720785459888 -0.02973087644327726 0.07987128915455909 0.011629813491140067 -0.09407933077841912 0.04949693613307147 -0.004542086300070918 -0.19397331193880296 -0.3525073437807317 -0.12817738887955366 0.013301627106428236 -0.22929908539180668 0.20695587565846768
153 0.10019936014613433 0.21272145784164612 0.18161287915775157 -0.005529022915608915 -0.10521743167591543 -0.1768156510615718 0.021780291334960965 0.11713565007848024 -0.05397254202775296 -0.11759442033802962 0.08350796946766724 0.0740073845726722 -0.1434247172842945 -0.040684642263184814 0.15885017812687888 0.07283680378215246 0.1623171448778075 -0.06143408270914544 0.133530740377451 0.021707624692802612
23 0.04765933990880136 -0.09336039545517326 0.004690228279269819 -0.1491627485341969 0.2628948439366431 0.02484272842813133 0.13886347325642334 -0.10537364752029252 -0.010552758336586416 0.02904146823722199 -0.10405055773611838 -0.07448744401675164 0.2921490293711349 0.18755343781132183 0.21058302958043226 0.0939779857574971 0.10905776000164429 -0.04389741558401193 0.026744743436488604 0.06282683101876783
43 -0.08722536380300835 0.026932999361986044 -0.1607627018468858 -0.15914062552732092 0.04764152601725293 -0.325918088549002 0.13494251696232135 -0.25061882640783517 0.20689607179869943 -0.13637502943492283 0.03918703743320222 -0.3424205245341656 0.050464056043726106 0.07104532240890389 0.3034314954424266 -0.08207312750752288 0.00952072406071931 -0.04947887408180277 0.07781031459087201 0.0750084160757763
92 0.23800785746881234 0.12286466342408142 0.3026318707804668 0.07400772301985657 -0.15679618847587168 0.07395095996079586 -0.03334857553227481 -0.19026557475443073 0.04867574398659015 -0.04314378769948107 -0.1353701517987395 0.15296600730173524 -0.2316360862749151 0.17592967291122924 -0.3655451857271808 0.09745142611121567 0.2696247456893454 -0.055254137142004923 0.06843372832290201 0.027515946261895737
19 -0.12897235003816984 -0.08325813317245857 -0.07262483315013872 -0.06087372071433287 -0.28576342245530817 0.3074290212604579 0.09896176618999122 0.033471691022851476 0.03691891536294323 -0.15522325764643427 0.015306202376576141 -0.034404641672803424 0.05601520301472858 -0.05812737533633866 0.18875994670785784 -0.31329386640741486 0.09296481857993093 -0.13674551425929596 0.2604839684247907 -0.06437637330566816
59 -0.009290784738869833 0.2058465035751414 -0.04153780472644768 0.11968181381763733 -0.11345832719178692 0.28042146096912474 -0.013995791470865455 -0.19502308676445146 0.017503834249240385 -0.28049123092591577 -0.11361170642231022 -0.16129279946043126 0.010761783767212919 0.09020329267975402 0.07315940741188924 -0.07810055025462728 0.04239674962796534 0.11845548983566519 0.07500324647259922 0.10936670744065255
181 -0.01272503689548485 0.0775817483433281 0.1389171580563803 -0.12439547205790338 -0.13252749326073465 -0.050957284344586753 -0.01734455910856118 0.06491496294679151 0.28861818913757115 0.07555239514222904 0.07328506489281866 0.2526002264972133 0.032701319763928316 0.1453898599294085 -0.1872974701545542 -0.2838993042521201 -0.0632504940351451 0.09378376102068882 0.13179926957658816 0.0031618860651069594
15 0.07754713760043924 -0.05990792761812795 0.17970245849386332 -0.02218237273710602 -0.10699226832326715 -0.03535533951737834 0.1589074886238714 -0.13599210481964327 -0.28244703852634756 0.002700621344064392 -0.13328798965669902 -0.08963266431492203 0.16581448887300135 -0.3648487131091658 0.3974988879351806 -0.02539728438680359 0.015568240634548576 -0.033218446099655595 -0.08621727576385334 -0.14954501155986896
80 0.11315518193045795 -0.12552943903149427 0.18052696079455055 0.06808750952594399 -0.009762941874146728 0.12796640727997105 0.112838559683067 -0.06537529123718479 -0.09403346812971655 0.031101144342044314 0.15554732758527248 -0.10196689507578957 0.07413324388261736 -0.18338600975910951 -0.18256831816335162 -0.1659330792955055 -0.13595300037927452 0.056592618680269324 0.1973578400643762 0.12958159828529753
75 0.08906440012620864 -0.09030213658938009 0.09008844266932155 -0.023457201621228725 0.1350893848805907 -0.042085873396494035 -0.013343500600983316 -0.11101730830089186 0.16130445020453363 -0.011582713751490246 -0.23299243750621784 -0.1485790818929007 -0.025045033195167384 -0.28759715797327867 0.1274634097243654 0.24169532438575925 -0.15819252425091754 0.13845339517339564 -0.18012679031328446 -0.20251809192332657
70 -0.06860172158681979 -0.038300799137387265 -0.009953072854021552 -0.2689481563482158 -0.09278039206128741 -0.12490105845857159 -0.11668375241209679 -0.11838604926740222 0.11686009819093791 -0.07960701141559506 0.12067210004045145 0.2271586470805466 -0.002575707978567716 -0.12244536609805544 0.17764243186186912 -0.29003015759850254 0.025704746385041922 0.005066575508653879 0.25851250909966605 -0.1422732243404945
32 0.2084571109866517 -0.13828042044438774 0.10755923743560095 0.21693827126730322 0.09039566942566096 0.09575941062507061 -0.078073142675206 0.28785611380598825 0.045233970729513434 -0.2150441173233363 -0.2718827555820304 0.02348228334795268 0.04035078799950246 -0.03303093412330159 0.11586172759006984 0.012221963579017154 0.03984264733773356 -0.12778726992524708 0.041361434199810615 0.033138135976500824
61 0.1067724862278465 -0.07948801187406972 0.14685679600880805 0.24454049495472702 0.003316544211121602 -0.197284831787259 -0.2035796322174658 0.14769930637706208 -0.3074531911100533 -0.31467520835917895 -0.10510666990997194 -0.016144580135498254 -0.25699067097223066 -0.20020407398134316 0.09344327859659972 -0.2929883750721523 0.08081875518936078 -0.048572103451631356 1.7208642711041823e-05 -0.1808209719273178
185 -0.14671043077575222 0.055914568447355345 -0.07875432620302765 0.04364073888976599 -0.1448692127426638 0.1349403065364064 0.02752474125372591 -0.11198183817466974 0.056577978102660305 -0.11803901107154212 0.07903335102382908 -0.14965451995671633 0.027429332014340294 -0.11103066977245339 0.06678296249314168 -0.16615558465401659 -0.03386868245078185 -0.3334947694833647 -0.17934278563904624 0.08733202221060746
37 0.07985923922400628 -0.2894412836423024 -0.0101718835783837 0.2518122765474978 0.19080062408101323 0.08832187422398921 -0.1640127411330923 -0.07139989259103849 0.05571897278469988 -0.0415806047541931 0.06978604857843904 -0.06064658462129519 -0.036610417792853074 -0.028758090986745272 0.009502293447781923 0.11032356457178595 -0.14938422507770927 -0.052924859805603 -0.11050284005943538 0.02860305452494778
188 -0.401031835685197 -0.2321131571075787 -0.31777140986266444 -0.11984888833603176 -0.22341126610834833 -0.16932793933527138 0.012217357573743946 -0.02632533195106493 -0.026983037694548948 -0.05539284482802977 0.2864315015970641 0.06622006409404592 0.12759976339079634 -0.03939918010935859 0.022223660399845687 -0.14642769584545087 0.09846759302643539 0.13589671904532194 0.010126535977166772 0.12944644898859214
2 -0.22165222549630031 0.017971432197884663 0.09837754731407324 -0.04125880110000442 0.07227821793808724 0.10597739568113702 0.07316628889185528 0.0489512660541042 0.1318696555804761 0.11920798094475019 -0.09269997716238167 0.20112562204161338 0.13433504083762587 -0.20900310400290273 -0.16725039561024663 -0.17718488882109354 -0.23318198786694022 -0.09357735204984446 -0.1809683358693995 -0.041510425719992215
178 -0.19160832585021895 0.0010542716054309743 0.037959165157026534 -0.021544117906570983 -0.11924503315277822 -0.15985773634772357 -0.026858877322303732 0.016325608462299454 0.11672823948474913 -0.11387085613959655 0.03116113521092891 0.05019665920719667 0.07306737215670542 0.12882188524230312 0.029789382170883113 -0.11474425733123157 -0.1689747900305178 0.14620707240952463 -0.07376864214168949 -0.12670591542477827
87 -0.12023737758310112 0.1057203278021517 -0.03598649566442498 0.08898158992636133 0.05393319680127383 0.011393986217042861 0.055465163197925306 0.19888620510037844 0.20274525593801793 -0.024277958405207765 0.0511672628428508 0.272221591244954 -0.0168769480439852 -0.1986562980996519 0.22897836134564017 0.05817648474767971 -0.21122175671032511 0.014463012905106687 -0.03474603935018404 0.04669791313514323
99 -0.1283827498293586 0.21633833106152042 0.11710377928055966 0.07144496081863758 -0.27796266975315265 -0.05649073485813831 0.11811341133988892 -0.11625254703710713 0.02659934581793949 0.17582680952678154 -0.1246016228000762 0.189240075322283 0.0950208179877422 -0.07704593563039085 0.16290189489048432 -0.09562785916560951 0.06935464462697741 -0.21570510502007811 -0.16577720045907662 -0.039862089156816265
176 0.10882955159900416 0.22444958099139384 -0.1840165667885356 -0.014566078682233662 -0.09731177212928141 -0.17454087451776937 -0.013845433957212343 0.21313722036470917 0.09470942223060846 -0.08471179486954666 0.009596712899485575 -0.14817880033712763 0.0738111790377555 -0.10979708965405757 -0.15495577029182048 0.18474846028651865 -0.15429069837918233 -0.07333722335263973 0.02141867238704683 -0.0064321921575782185
157 -0.08745322544662927 -0.2065381151391439 0.07199829118723468 0.20931886870011077 -0.008602057603558094 -0.060086101188043785 0.10705569198230994 0.05232134261533404 0.049284372865353476 -0.03296418825394296 -0.19491666489424067 0.18563687435283294 0.11679681061920859 -0.11692393199463542 0.18940044161659514 0.010368570794327913 0.23427541066358185 -0.19098709344580053 -0.1506232595839082 -0.17589338069281676
6 -0.27436198298343584 -0.2327796207308897 0.050036273086401316 -0.13871402581578698 0.08047426198197905 0.069399657915607 -0.19114954579706853 0.10493230605682927 -0.10625621639920116 -0.17412044355980122 0.1459940035933835 0.182824718728515 -0.00904633158150094 -0.03131032604867091 -0.13958688045229442 -0.19955967617397283 -0.22212277733374394 -0.03437237383912424 0.21357899174554112 -0.09883461827390154
7 0.3178572320852517 -0.32413957418746386 0.0458372956716126 0.16141460135915442 -0.2380061468894461 -0.00148137773315124 0.07361420442920215 0.0013196667183762644 -0.009860199958616046 0.011621304869377307 -0.30442086465317836 -0.11209196921251849 -0.06904506410967917 -0.1479403451235474 0.30242177542293497 0.15606471922146692 -0.24700067088121982 0.05787371857490056 -0.19080354453394044 0.19862651693682515
158 0.18935556765949169 0.16633212976452244 0.24584343771073064 -0.10400442535934273 -0.15732523372839 -0.05681370890809675 0.24686202894065262 0.06196333754169022 -0.02589345471579926 0.04838371000520735 -0.036791265308527846 -0.06842633644247408 -0.23402725394610485 -0.019317512016874705 -0.15762522072231533 -0.6460066016022361 -0.028562444435448333 0.13346068670097103 0.15028727760575075 -0.22530888565327878
88 -0.026008915258103664 -0.26757942068462603 -0.1416381682209131 0.1910095365284373 -0.08869768128832156 0.013180077841400075 0.07153354028136073 0.1542037493192306 -0.05255383425389264 0.11823154537746625 0.15155765812651975 0.11702511675862791 -0.021893881198702992 0.037533153320014945 -0.16483237391145833 -0.030902563420226046 0.017347105925062674 -0.1549579508451932 -0.1772224205145835 0.05218058525347796
133 -0.24932815043506215 0.029248059765684998 -0.14636274808973934 0.10354334989961297 -0.1729154447815657 -0.08851886504765094 0.01826998676729209 -0.10121684026983055 -0.0003036610793836177 0.25749917622806645 -0.01664160507406662 0.024924833178000348 0.263525889791621 -0.18964992372086456 -0.21084960783647863 -0.043703786355932916 0.07066706074957041 0.06433519183948593 -0.33762361257872936 0.11095765427752378
139 0.057593031809073165 0.06720629378821247 -0.4107664429932484 0.06904400298522745 -0.030547710196906535 0.023005412544464615 -0.002054150656358205 -0.07030727128198624 0.01923486566433346 -0.153194667991092 -0.014246836779896407 0.00935254310354343 -0.1527100703298078 -0.39683370199729073 -0.19246475796148405 0.1075898465122739 0.09457785974477963 -0.000299884095533676 -0.1486715364838446 -0.010029684182851365
42 0.1974467191294775 0.13161006659703278 -0.045710930270087546 0.15303790788034696 0.15101399327513684 -0.16432127214738348 0.04161821403287975 0.0007138694975850192 -0.18544663427042846 0.005691851423347278 -0.06661657414002474 -0.2536355243567257 0.012604806393655313 0.13614827093552162 -0.3295626679000545 -0.026329622137776978 -0.22137024118217377 -0.11309267059964667 -0.00018900401732341706 -0.024798470306359788
27 0.14713212913496176 0.16466814185624926 -0.1352813571221682 0.15135619749811757 -0.27502410341927924 -0.13770579473762704 -0.05355996150654493 -0.06895939160720797 -0.01446359295379937 -0.04106557420065626 -0.09855212802502776 -0.043357019986952024 0.047578344913034955 -0.10677939595837044 -0.07554148074179606 -0.04863082292172658 -0.05767751301336277 -0.16943067597549552 -0.15132217539028636 -0.03879829606694867
149 -0.044244616565534904 0.22315464875411425 0.04926845767989051 -0.009774345393751886 0.14531944469522942 -0.07050812967239542 0.03098511462572215 0.04414747762276569 0.06932530546447808 0.03079480863204607 -0.15052314516206974 0.1775430708433012 0.19872031727294034 0.16777331989346442 0.0981334839332305 0.3136063678832628 0.10103358654613631 0.12195790328810611 0.06629809293896202 -0.01798277487181023
175 0.09280248879381742 0.0275825265467681 0.014461457590192257 -0.10529993845716754 -0.06871688889423556 -0.012266260022314311 -0.046880536920554175 -0.03719784440000066 -0.0009420986254233253 -0.20084732669641112 -0.11451263976291573 0.015258782516926844 -0.06757857067298241 -0.018803675148672504 -0.1720971709678348 -0.17295318803176618 -0.006146993555446596 0.28912302953454 -0.187449864606741 0.04227399723030505
48 0.14851056223887307 -0.30901946527227214 -0.11508825308373644 0.31604106977390195 -0.012369318852729714 -0.014609505419867148 -0.07962446525068598 0.07421026909316167 -0.09498100169493606 0.09314745584964035 -0.1799753425589581 -0.19098774033884025 -0.20575544377074304 -0.030033337929004356 0.028014821952914323 -0.14396178772785162 -0.1317113929035054 -0.12482475506052092 -0.2175196014139191 -0.2420767286314989
101 0.13893145375977062 -0.06334873308990917 -0.20364829552301045 0.0947713401172446 -0.0402998484882165 0.24331918613933567 -0.10199568571015522 -0.24384780366803835 -0.0008491021423887554 0.019935990269546733 -0.29237988942377563 0.15301700343835628 0.16567788478210882 -0.1295387244901206 0.2044023563480683 0.22245029449915013 0.21232752597629972 0.02406074320483621 0.07546016238848618 -0.1401862100013706
0 -0.06857412722684646 0.008231471863061493 0.10457381533216908 -0.019465798869928906 -0.025061181586487357 0.24166157594290488 0.025275989090485083 -0.3025000670830473 -0.35816663343712263 0.02251712462281995 -0.20080908850855914 0.015806866687563127 -0.31952908390087736 -0.08289123190864263 0.04841695549731494 0.21281051400698267 -0.013747344688901385 -0.0032239262761492356 0.19914315213392028 -0.0904501666643011
164 0.010663968576900822 0.24684666049317672 0.15437148140018236 0.1948398967764158 -0.02142617845728327 -0.11750194256868962 0.17087871249049724 -0.14836489491897564 0.13824327043856835 -0.19268865536534738 -0.15265852866583335 -0.2142458150060985 -0.0381079347045802 -0.02605769597255563 -0.06863353633270078 -0.14222255816606796 0.12042229737798958 -0.3800569476251038 0.11437418111305164 0.06473653153634878
106 0.11605869038722703 0.08233094965624103 -0.03727860077621813 -0.00411093774674913 -0.1396193743968811 0.05456657740029035 -0.08269357132558564 0.10373046696315237 0.003771506555381827 0.09841448431066986 0.023890367111237716 0.10327474468196242 -0.0787925065350571 0.13400355126708832 0.10640489875104356 -0.23441290287477173 -0.03794131210175723 0.04994737761642134 0.053378130062942425 0.2938183583685344
120 0.015832372452254887 0.0025757899599893313 0.17450134300818063 0.034875620459030886 -0.00945462090354483 -0.030431778702755197 -0.020215279027312048 -0.17713543747583074 0.0905534490884552 0.13806011740898835 -0.039886059097500495 0.05940102979799293 0.07132382882510557 -0.08387219205055482 -0.03656353803141319 -0.0999019319465309 -0.12172032051047843 0.23039484677537667 0.13322453850275115 -0.04838695736262349
94 0.02302529228859404 -0.03768626261287739 -0.03551797072936131 0.06711176699398683 0.12310318741749186 -0.05185855949733794 -0.009109715729249242 -0.07047138036845356 -0.0485966317952635 -0.06012508739198567 -0.3447422401972795 0.2123966211150465 -0.053821682930749064 0.13655434840255662 -0.12430371711368446 0.06354794340324917 0.10193052074145385 -0.03310703942970158 0.07541285446027411 -0.14474468619345868
195 0.0570225678104417 0.22397555190393467 0.07355094479387435 -0.1400261057640997 0.14750027683172762 -0.10648897865052985 -0.1543781923928014 -0.08032044848342072 -0.09338041054419001 0.14460818298536138 0.09443692091291912 0.1532701080729217 0.34884228739923867 -0.1905197992208212 0.1881228324161756 0.19673227376626898 -0.07707411453286359 -0.01529490313694592 -0.0786073227164333 0.020748637855173748
21 -0.19612974937517128 0.03558478188179458 -0.09010338130660613 -0.5177190107308202 0.07849561544435603 -0.21637877203966563 -0.17272790221171433 0.15310433117076447 -0.14371054158754715 -0.12226139459688233 0.16338710382547697 0.02345546877550633 0.11212826384231614 -0.2713441146552319 0.05764398588588584 -0.05111710084826518 -0.13460779907691478 -0.06595230658584762 0.2167746213774114 -0.09834563124605282
136 0.10607055789935677 0.01371530080492603 0.08307430715065464 0.026409500855580314 -0.0681105997911025 -0.18449350663039635 -0.08278466764527492 -0.11519714478491397 0.07157884472684269 0.03955528328974398 -0.10064520554832011 0.13370435180306978 0.07771682485547912 0.12866456019198722 0.14282175049246737 -0.06314355254845275 0.1644136295072172 -0.20700048618008657 -0.021088224710548994 0.22410877894112413
40 -0.1161992076978339 -0.2397620667201869 0.11794606739932904 0.2763318376787148 0.06649302364202656 0.20455052306911453 -0.11273428167504292 0.11495874666166392 -0.0861689946318287 -0.07012536482878727 0.30914711453425686 0.02007565777950986 -0.09997711554013577 -0.01673317335358759 0.0229557387570285 0.21483637144673481 0.03500927890006011 -0.03800428887782781 0.15796096353244096 -0.019228784035800115
114 -0.16265550358951028 0.19466408540898827 -0.005050576180901518 0.12864598913586509 0.08063937060613874 -0.05406726392494243 0.1420981768203428 -0.007132319005284981 0.24609056296438667 -0.18462257740043275 0.06222970923087704 0.059493524209611265 0.12091304190297282 -0.18753007410277664 0.10757851169586961 -0.031479695328413194 0.04203764546133349 0.08232664672853497 0.13256794067047842 0.16931204124191632
151 -0.2027988363427095 -0.2984995730949176 0.09097359495876656 0.19513783665552947 0.05158737478721022 0.182834569173215 -0.07221985348441856 -0.025871682346912422 -0.02848471603362551 -0.1945663171534197 0.3354837799226667 0.10333980534842645 0.06629054638772726 0.5239715071976576 0.2450816751161511 0.0849508985271409 0.05464896576780137 0.13403329287730598 -0.271078948907814 0.1269724378614186
113 0.05901513184516107 0.05276588533191768 0.11154642048770975 0.00946074567525968 0.078524446394719 0.05284099545455856 0.21224892131014514 0.21420315085322889 0.06669903816518091 -0.019877325857583825 -0.11152390864717678 -0.03152567028090414 0.2211461908542569 0.11452710621390716 -0.12718307094580136 0.02087070905448245 -0.08048914506317895 0.11968255756535336 0.3805125684812301 -0.026063358225014224
194 0.2057445839067018 0.11623911205212537 -0.03410406869210074 0.1314045472364326 -0.08745883899552241 0.2524289133891662 -0.20968914435623573 -0.02557418862140758 0.2335883444342447 0.016288954959497216 -0.2048007758282184 -0.13253733430084233 0.17159569868268928 -0.09752405211109774 0.060560626048793566 0.23604493730982903 -0.04806535264688306 -0.001814641001899531 0.3022280269922195 -0.026472373722872145
3 -0.2002184462293493 0.04613546688464831 -0.06405100356566709 -0.10729643209670997 -0.15016972423246838 -0.09803843505011318 -0.28639722751339425 0.08732273997606571 0.08597175465503004 0.1631407593879576 0.1279155974017048 0.03537042076883452 -0.030263091687788173 -0.2094725145662449 0.08222240266510988 0.06513622453220987 0.0043901766632119844 -0.0413152005546892 0.1621698738718914 -0.043876824453793685
140 0.06486708360927633 -0.17231277629653205 0.15532925732771635 -0.0695802073765597 0.16630432678399293 0.0846473611421858 -0.14564755914030625 -0.19885367580982719 -0.06227931841591016 0.28965710624703944 -0.23950153405890612 -0.0007773051891167097 -0.11282455993810564 -0.13887502817235536 -0.0672053207011141 0.06713708484070596 -0.04176302985873498 0.14822203428568925 0.15156278606166432 -0.05557243890352187
125 0.2740930135749146 0.16405856428069346 -0.08720354264768604 -0.032585032726509505 -0.056019366698555444 0.1848003916636737 0.17312828342143927 -0.1987091708154119 -0.043544400028057276 -0.10219978180583114 0.16987527708378342 0.13886051167451258 0.21429520146547876 -0.004248373557320538 -0.20433143034740106 -0.1626579133651969 0.107499649701034 -0.03126691929344908 -0.42478326204324446 -0.1634564286963262
147 -0.4657401769479781 -0.11716562668573667 -0.22459870003118965 -0.10007350847199713 -0.09247801993411224 -0.18743528798587633 -0.21636502431558252 0.21376775572113796 0.2008299463666432 0.3060456623468423 0.03975375372073404 0.10410494404006496 -0.22284429802534997 0.03630512994967403 -0.007583288415237691 0.23329904177725785 -0.11343292363273762 0.055496415743403804 -0.010021429488131752 -0.015303225522675686
170 -0.17181523512497895 0.040641719372331304 -0.4657263900369135 0.31373456981023284 -0.17606710399236375 0.11311743463142973 0.03753197728378663 0.2078595706360227 -0.04588767759897496 -0.00874075744561356 -0.004586242349559058 0.05714776187299522 0.06959794799224203 -0.04873283179805982 -0.0697804652458701 -0.09672872613758539 0.19434472872884237 0.02205288905632236 -0.05732695565416974 -0.1842352729585024
91 0.07772180467376025 0.057987216960689696 0.06945038150543678 -0.115825707108642 0.08145766888905284 -0.11598640269305716 0.05732554296679578 0.2678184227738077 0.13348008725229382 -0.08475783896297201 -0.05701528987270688 -0.07115311725218598 -0.07115467796472748 -0.046100675262996514 0.25234991274775737 0.032365333544733386 0.26109309254835444 0.06649495265938515 0.15270809895270376 -0.11413207518516036
78 -0.39899512257091757 0.020943335080233973 -0.050469745318954345 0.09828788192827353 0.2319363339996282 0.0541462307700291 -0.12372713574849752 0.04381439378045355 -0.09193091894462037 -0.1089522837297326 -0.22183239316053968 -0.08618409282319635 -0.0700526428645493 -0.14386036153223655 -0.08827675777604846 0.13170603937179273 0.08809402298064527 -0.07077711458854404 0.05065739391613847 0.11045847842999647
119 -0.14065252479437843 0.12134886756458794 -0.05679316879557235 -0.07212232516462388 0.3001255125135534 0.017289125028075548 -0.07276944501189343 0.0011160866581425247 -0.0921234793209297 0.14925676477458127 -0.20561117360946088 -0.07581372398991404 -0.16477657896617612 0.10467455588919267 0.07655986573158945 -0.26651568798153236 -0.03379413901626286 -0.2691625528390636 -0.0003032975709494521 -0.03720725356901053
4 0.048024918241898154 -0.0439334861208808 -0.021916921851363097 -0.009697497905598323 -0.14298102077611446 0.08003215582470814 0.08660565248631734 0.10904063538824299 -0.2621877735129158 -0.2255456295084138 -0.14136334556235863 -0.060869987284389276 -0.06892180328945581 -0.20018923355909252 0.14263091982111212 -0.1476165815001926 -0.05039595125341064 0.11671990281934452 0.04339188660729432 0.13166133115634837
143 -0.00848324506976377 -0.10530092594958329 0.026117302423466514 -0.21621919539374077 0.014521146706211019 0.2843196177173414 -0.12031908311240481 0.0038490484258991357 -0.10479578644917606 0.005219169145544105 0.13091666753324244 0.03221613605575183 -0.2632047762766491 -0.027229860092050324 -0.2161735226254889 -0.16638238249232595 -0.3883610689895444 0.015539932749385671 -0.0050100331975685836 0.0792645249460357
148 0.16862155076177338 0.11620135752742863 0.1390224366198806 0.3391694367147512 0.21513637047045014 0.1203387333325664 -0.08096526534670381 -0.13118399659273236 -0.033079984818814856 0.0491231076566891 -0.1966725256331351 0.13264403913997452 -0.07927443851900941 0.018797722124405402 0.1122559340666716 0.18786106047457116 0.1212319606743192 -0.18979237573187693 0.07986524761980843 0.13559898595870015
155 0.18637041590554612 -0.024134566378567264 0.20467730529591419 0.05244144885645284 0.3376265842034544 -0.02505471702615412 0.11999915990590518 -0.09425650704800478 -0.06270280275433357 0.008165186614914282 -0.16889690001543944 0.06216171466677319 0.12350263269975369 0.05609559921239068 0.0010006580766203348 0.007835530100418951 -0.03212404395760008 0.05563353401947667 0.1574226161986304 -0.03078721650388286
162 -0.03678262368822207 -0.30895333329811353 -0.21553510016193017 0.13817151123169366 -0.04418098581770085 -0.1497118135396082 0.20382242430820888 -0.04987319701257146 0.13611339317842974 -0.08840308105431224 -0.07887390519310095 0.0915196056226117 0.3699610571323142 -0.08411612080562282 0.09601525468769542 -0.11333834431326613 0.18833257220856234 0.09847689744147943 -0.1453295679427804 0.0922540216831891
116 -0.10098345480035423 0.117773844430328 0.12111502051373436 -0.04428940155738301 -0.1372263363031492 0.1932884708862143 0.03179334882239605 0.15985946891658184 0.018190482188668713 0.20761034540308862 0.020868045819669032 0.03716101794893516 -0.12819488269189652 -0.0015264848577771538 0.3336498801744281 -0.09936968916520143 -0.0981787533431152 0.14861701531766947 0.14453821869112274 0.013593051238266698
64 0.044607355291273215 -0.10779456559598517 0.016198254118478972 -0.1263111192487999 -0.10405883480858558 -0.05643485730276109 0.06290702849640352 -0.3368932437213301 -0.014479534998660386 -0.15957950346333657 -0.22757324038259052 0.051910768646149755 0.012282271901544678 0.10701532215138004 -0.05870943492968151 -0.021986145493953124 -0.009875932931998654 -0.1266699394009798 -0.08577684925803983 0.05161739457790295
65 -0.014162284035115203 -0.06961279906840365 -0.30465224447929184 -0.1616710562628079 0.05076666771104364 0.030699323128811594 0.08816689051251028 -0.06882472469190376 0.317627880166141 -0.19857149263416965 -0.07668233872462929 -0.32202489069289436 0.202353627515669 0.015483898530463393 -0.054748026353677315 -0.1721218954767288 -0.042587663010227435 -0.049239949758201916 -0.11788212577370047 -0.0757265472126955
199 0.170922615250155 0.007478266593201611 0.03356772312733065 -0.13778639647482266 -0.02639755463247801 -0.07165201273460192 0.055295822007513123 0.046402861774613155 0.06597566886793432 0.026769222225179665 -0.022468971795248663 0.152378966777098 0.05432000267387299 -0.1759308818797224 -0.004824734599823771 -0.010152969281749235 -0.02337054403527823 -0.4104434273012457 -0.07770281910692127 -0.227712722043238
56 0.042018514878651395 -0.09857949467588734 0.14165948292244765 0.11988774740219635 0.24832561120404 -0.050250117289882705 -0.15832068008117697 0.023613340184378585 -0.14632697599691877 -0.13712947757073607 0.0050494475977664625 0.011646545995828827 0.13971732454763364 0.1806639716386925 0.12240241047204126 0.007167046241229367 -0.0935177331628861 -0.132557872969149 0.15211502987802164 0.056317843525892836
156 -0.10281767877732807 0.18070041861440986 -0.31259721114141453 -0.14918538469456633 -0.1424003072755682 -0.05558476763245256 -0.09414100310779272 -0.13217857635767238 -0.020413879122750212 0.038361766785106 -0.29513511768577777 0.22525894184168072 0.12887324174513815 0.3480943699593493 0.08189117417122911 0.17302619054333648 0.0964287207808823 0.20491617681645488 0.10888143488422279 -0.10305876745413958
104 0.21970887582435036 0.218504033593034 -0.27308995095545874 -0.28658833684424495 0.1071676734042092 0.040651672835609554 -0.198816685607536 -0.17053402983938973 0.1981608281442974 -0.1658580985602144 0.057396652583831774 0.038685979496267765 0.19025125441028704 -0.0005681785773415141 0.0115668963040636 0.17409508333416127 -0.2531874002680192 0.17538529032521713 0.4053916039072676 0.12589739969254127
51 -0.09618647711695873 0.007018540094206905 0.1797833422146099 -0.07940259722266124 -0.11862798214507562 -0.05453606984336651 0.10463889162537109 0.1164338003923884 -0.03886121344674876 0.15836726569020107 -0.10347014568786277 0.10178754121088099 0.0727916019307846 0.08297774558376043 -0.20874464696047826 0.046832667590908594 0.0200601101969449 0.13498840286560818 -0.11369706733105642 -0.11795767934433561
193 0.16199479577375156 -0.11693174315418936 0.05794991783546419 0.04942266170875408 0.28774053038203873 -0.05090041621401027 -0.03361384572451282 0.09498777993770596 -0.14386024291238125 0.07945361859888814 0.09888748820748547 -0.1932640616232689 0.03901682173490486 0.051676694344902206 -0.14984998977256325 -0.1055504320730649 -0.0001203077214769713 -0.009995789838238943 -0.08332904583847323 -0.1176710897655204
81 0.22841629834831897 0.2599749366513981 0.17913531953759623 -0.03461361368132887 0.19435559129852392 -0.177662427282389 -0.18510378390174456 0.13508248825944352 0.01722865594056314 -0.0737463881413074 0.14418823159087468 -0.04723054679982179 -0.15862387487699645 -0.15927693036930288 -0.20156749273030114 0.27110846736220956 0.06820948948576136 -0.13415661329726508 0.2361285147581804 0.16298906600478813
58 -0.06200874586516785 -0.12867443013892466 0.22334730102165032 -0.1444785828216969 -0.17193805630825515 0.26558849240602517 0.2311867259662547 0.2781030984079947 0.08777679731739269 0.21359487430711532 -0.056641760628295595 -0.07026995779762425 -0.3044762004029622 0.2493139298548168 -0.10023185749209458 0.0771789673880221 -0.06997868512013439 0.17406450299895862 0.010889140815299762 -0.004438326210769868
52 0.04967174875059247 0.20116471860804827 -0.0043243534763855625 -0.18922981190085092 0.07535902904130107 0.20085132656133065 0.1844164282861142 0.04243403787810198 0.11196189101018748 -0.0189260259764545 0.136852995468172 -0.10968554735032685 -0.31883047915660473 0.04079104602055487 0.0011558659635081394 0.02760997582964438 -0.2462583666178141 0.2232982252600179 -0.06148803830365613 -0.07984463310138244
197 0.040503664916253304 -0.026512309939898376 0.174278986623887 -0.22678177729478932 -0.2395551051858645 0.10299206783774957 -0.14052019697245977 -0.11892550715913591 0.23208636462885512 0.14287081344593744 0.025506190296323544 0.2248036206436733 -0.10743707821866863 0.04868578174570403 0.16628507388324182 0.22886459782319954 0.18514275150123205 -0.2194941629286937 -0.3121283537956121 0.07773045533695995
77 0.09861096481692652 -0.38416909656120546 -0.07371100344178819 0.11295567400085942 0.38196889910375625 -0.2615514507394558 0.01434625265740814 0.1620011062714612 -0.01913364267275207 0.08008201412406273 0.1701845579876751 -0.24445526943636936 0.05822185848661663 0.0844327515998391 0.018801146752436004 0.17625595788440876 0.07246107339958614 0.023465464137335825 -0.010366666265128317 -0.029630905498971752
134 0.22656640409728376 -0.028188540245791788 0.04600175785734566 0.24280764730719695 -0.03365825638008702 0.19603074025648898 0.22422806264105893 -0.08494379865203694 -0.08669743915038196 0.3369364976221084 0.21026792644151726 0.08111960174830159 -0.1673565943507807 -0.33299320717081676 0.14635490676416676 0.005943481182194736 -0.020189026774098267 -0.03108768299175568 -0.21200521398587174 -0.06193344640527882
105 -0.3718999688465461 -0.10648922730313441 0.08135024561190474 0.13509574870514074 0.17263097226097796 -0.015635436559242842 0.1661172401932442 -0.10742613914422337 -0.07547268988057299 -0.15795620183407896 0.09177608381157777 -0.0395783441993891 -0.09488089179773283 0.09188548882212902 0.01712301654667937 0.1428912141767661 -0.06791762806082899 0.22119174114379828 0.03981527637001395 0.13051773721056192
130 -0.205125177126949 0.009950304262814479 0.12401624860557421 0.17979185944717474 -0.21364938377049203 0.1721023148173133 -0.11438231020209123 -0.18630924969236037 -0.2471044799993457 0.09802877045467104 0.19530378545485044 -0.12950192521319748 -0.21193095896555803 -0.09282446131408584 0.16232081189560782 0.061639421248220375 -0.017624556173793646 -0.08431057482085748 0.0754727846647264 0.1564882137128323
137 0.1485923013673824 -0.14398294825176794 -0.5071612304987795 0.10262633158445848 0.20177908710076461 0.03471887982902398 -0.14676264870000685 -0.0004329432234245357 -0.18802688837876225 0.2352964523779248 0.2399988844650031 -0.011106687131839276 -0.05424260760412238 0.11178102964664247 -0.07248590348334617 -0.09362155831770569 -0.008707776929120191 -0.11050806071239676 0.10003648321410517 0.0072638217453773754
29 -0.0018287496205615158 -0.2348674917878518 -0.002027128898469715 0.11302520061640134 -0.2029593856614576 0.22167748347364558 -0.11178833505111217 -0.002343230617130213 0.04964296669312352 0.33351134408617544 -0.11322161941527692 -0.0024996655522272347 0.11380214142202784 -0.14295606940856445 0.18104943043388244 -0.3021367326250783 -0.15576805717442568 0.1050388845503403 -0.14434588226107845 0.048697857477836344
90 0.005142870877926866 0.10781251842637894 -0.025160240243641926 -0.03308029229868876 -0.04013571618900381 -0.08842698182983919 -0.039329127454041705 0.0069298143054196465 -0.21840573485660478 -0.05498370120978569 0.0619844468288301 0.39852606430786763 -0.12308641659287776 0.1172151326828738 -0.059330731113882595 0.0037538312246444086 0.044466742704215655 -0.1497981255525972 0.2981510875774136 0.1926894445575469
45 -0.1334928107040221 0.04468234482778539 -0.20060573928809192 -0.006997015220266289 -0.0391499340990762 -0.13369178774668097 -0.13684594773283815 0.1117707535710278 0.035374461060780606 -0.13400554413279095 0.14877396975422189 0.10098740107755343 -0.22226207607260048 -0.02851057982215372 0.08580467989143314 0.14884607539566536 0.075408201976917 -0.17490741379630434 0.22558541226284912 -0.010388603389493956
38 -0.014016455083866574 -0.4597286052727374 -0.0011115880769964439 -0.27231081518969996 -0.1428338805140965 0.006202633172364107 -0.021873488679128562 0.044151317873600056 0.026785796682710198 -0.15203562157741313 0.13892925586843408 0.02817104603770172 0.0025728844115804196 -0.13486391923028287 0.039429959797150846 -0.005184698729955355 -0.06673254467778206 0.16539003318461737 0.11337275577843062 -0.033282103479283044
79 -0.04068076067587918 -0.12592564197656772 -0.04715120312973017 -0.07873753076938607 -0.10902468530866397 0.22126514978036255 -0.12626338349664668 0.009073515447945431 0.24514904293853287 0.0755392594975868 0.19931176500293446 0.0782920975906907 0.16214008474053276 -0.021049090238715536 -0.08600102092469514 -0.04685214661089555 -0.05054426511708157 0.08244328602487491 0.018591507292012994 -0.16223436242095662
117 -0.0026923942524888496 0.16862634808239882 0.23831879179812882 -0.1445856441637567 -0.40797561437755314 0.2202218352963539 0.015304560970195495 0.1481105272104879 0.015258049778939044 0.1339373607853802 0.1116917969731973 -0.17208010253969322 0.021178265756242175 0.0786164540506808 0.010304767920344533 -0.041424655844766074 -0.03806804707471899 0.14038781924318408 0.0026796063178917604 0.4203530045920692
5 -0.1740627290657101 -0.14017668234058678 0.07416546233432254 0.0869017186445491 -0.1775712922988798 0.21611157640593287 0.011778494130188133 -0.0074956013210581915 0.10103793340290074 -0.22221832554551757 0.09697260435635956 -0.08527017147551354 -0.24625048015531506 -0.02393825817796935 0.05783620618192378 0.02060761648380479 0.06942747632102665 -0.10341208666613498 0.24413184785861905 0.16556448715457586
173 0.17227618747085374 0.22402950807522942 -0.08707663976842311 0.1544707095450862 -0.06142045621448202 -0.15905228761237464 -0.2239802804131193 -0.048863707212168546 -0.10821283566617536 -0.15360859094761292 -0.10036790560808904 0.03917199669219535 0.01836234417096775 -0.04716531023669103 0.10791339553205964 -0.14339195544591213 -0.03766872629802879 -0.2000144104388865 -0.30497069688697254 0.1760299426134635
174 0.08698883068885595 0.04711484694662965 -0.07922601445910933 -0.04019767202752223 -0.13743014603588385 -0.09444472994531275 0.051098838947193886 0.08803233092127745 0.11843301188293583 0.48125925976084544 0.05156700771205053 -0.1258611524672918 0.1823256588931495 -0.0732280735852586 -0.0939692835008865 0.02037713757152382 -0.14248173039810125 0.0026036571839897576 0.10766846692168318 -0.01576659209955849
109 0.20278312119328393 -0.15351187505293012 0.06466146192065018 0.21664190544697695 -0.2612289120948583 -0.11576560717951076 -0.017504192524776564 -0.03763027427464457 -0.09456300927947796 0.2411807424521517 -0.24219420085942994 0.10623922747820697 -0.04316976168679453 -0.1663114841937066 -0.09393132466346851 -0.004905698470772499 0.03016995940837008 -0.14756412018941334 -0.1807662050806846 0.10885445593601595
179 -0.05609075508027329 0.012430561050137534 -0.0230525509115853 0.1368701512793821 0.219848115617435 0.22161713358253343 0.22450784401114107 -0.04038410513583946 0.24752913018944617 -0.0376709537736658 0.052517330586985246 -0.08513461911253993 0.011633372582280067 0.10437440327371345 0.19421783124213549 -0.1575578092684092 -0.09977930044599376 -0.09593667327686055 -0.11090355381647438 -0.28083961953803765
112 0.06429405401983825 0.04249648859647422 -0.18952366167324208 0.12858673233520143 -0.1158029218946671 0.09902400312963493 0.08066402827459095 0.02750450507688077 0.039528041002363144 0.06536007618463593 -0.007524510802765799 -0.2812090574769924 -0.0501905442675931 -0.0933550683474268 -0.15009350705198557 0.07486104682423195 0.059596829293427245 0.09624335123919599 -0.27215202370871805 -0.12059529410457925
20 -0.21662366247347262 -0.0026004957631140823 -0.04093951643499338 -0.08665838615089363 0.10512297927046253 -0.09278076809583065 0.1267902109285901 -0.339124009722864 0.02130220513296245 0.32488778103746935 -0.04588824254293327 -0.003402691452739645 -0.13618069670463487 0.08547913782267694 -0.03147468522792924 0.044026773502826605 0.04662647412326008 -0.17752808627309855 0.08220106474515897 -0.06579610211897974
28 -0.05048957256518694 -0.07227084978491445 0.14862831969408863 0.056069434832009435 -0.07900055026156645 -0.045209239433736545 0.10104519849452377 -0.08003737985260188 0.03557311855002308 -0.0032017131125137424 -0.08681648354146429 -0.031489142639737476 -0.13550447011905722 -0.035674757380138374 -0.20198888933565506 0.1347921533958698 -0.045438234583110255 0.12044439894841456 -0.27525021852821563 -0.03657820959678644
115 -0.20530388924456186 -0.054087320268520596 -0.09698938890864411 -0.08405558328094499 -0.08962296146574027 0.04023874613455676 -0.12047509814079171 -0.3476227442449603 0.4321680669417716 -0.06135630019818533 0.2618427631036311 0.018866435080221962 0.08522210976977242 0.19997527892130001 0.07914001366326733 -0.015406107828583562 -0.05155819283050775 0.04053213982925469 0.027586017478742307 -0.040048752857601407
54 0.022846677495733356 0.1749997801965577 0.06382821997328503 0.06985014801556746 -0.05630330544541026 0.013814681896901049 0.06764719976143266 -0.09960952426643938 0.07115836940672493 -0.1993084143925089 -0.19911341464925034 -0.08755845419250384 -0.12158526044648521 0.17819953607226363 0.09607429902298614 -0.24241547905622235 0.09214938492298905 -0.2887310050768587 -0.08222541279191464 -0.07895996088010242
47 -0.27092026413100484 0.11582978116660697 -0.17729568741150759 0.07742253252913577 0.08247775374130668 -0.04193218997351926 0.13666260532639518 0.14457128644389922 -0.25117366230297533 0.06394561893296609 0.18193433363511635 -0.05992067960648611 0.038588642043545056 0.04733042607011175 -0.03927458202476307 0.08872714716387461 0.020183990515799735 0.12670292392782725 -0.04480151545982509 -0.23192309536128303
192 -0.0787848583020214 0.08206329264352699 -0.11335207364660467 -0.018508479383226206 0.039615873819426994 0.17529277415827005 0.04431638100674001 -0.06589901611055006 -0.12427601931725642 0.20031331039141834 0.05326014758183643 0.19445680203449225 0.000606943240298256 -0.07031281656521404 0.2156721851358827 0.05948906688062345 0.03826808842401185 0.034161699193308796 -0.07563667767249364 0.10339058263956054
31 0.32615035537457376 -0.077053183422887 0.1570968949355649 -0.004570047652151508 -0.0412627050102429 -0.13342387286295596 0.13606009214595288 -0.005518297005908575 0.08236948720978308 -0.05931144964939444 -0.3496232593881913 0.17053287285593516 0.06844437356248809 -0.22368837069276998 -0.12668657310444478 0.08206920412946198 0.11017069394442482 -0.047389400592856706 0.0492763843986753 -0.017550688741639245
39 -0.06968645670205019 0.09366456886837278 0.1241321775589865 -0.0057310223606948625 -0.2513769201057484 0.02710778598035214 -0.13373763661550309 -0.2933786504533792 -0.1337410993427853 -0.011973720834644262 0.32496615184901784 0.12867531450344097 -0.16838388647820482 0.0742310530949115 -0.0811954313891154 0.23992551677939458 -0.0920634639418619 0.1776812087138951 -0.011056570405766013 -0.164254729578737
189 -0.014357475268929037 -0.16777815567089666 -0.005665332506500859 -0.37832268375610517 0.09828689374668817 -0.002637872703334116 0.19976059702234816 0.15678587248196535 -0.2064920413489015 -0.2578229694649092 -0.14800405924123625 -0.08832517935302894 0.11574570792924377 -0.21203913601144603 0.07790327218703447 -0.01263845607014009 6.134123285011424e-05 -0.038415402123348215 -0.032852237636783466 -0.17337322696227994
72 -0.0410345806757613 0.09198271963631778 0.09604746675586555 0.07090071664680533 -0.03531632896659599 0.01993565903445121 0.13652170894590523 0.4223806055346844 0.13050334896487523 -0.02922489399570951 0.2245737024179824 -0.014362412959791456 -0.4244941264975242 0.16983561166278657 0.1213158753315876 -0.17171395489454006 -0.026574202091043546 0.18634476959994664 -0.07827708580786359 0.06216065828213637
66 0.012844544478607898 -0.1687961889969851 -0.2537752340965044 0.16600564694612968 -0.2282894796859414 -0.04921107192781982 -0.007362744874111258 -0.2209370539311197 -0.3304701595836569 -0.20848954916441065 0.2036563595534586 -0.027938710353370824 0.04861577821495354 0.058134120578810664 -0.32682898740189165 -0.09851900899990369 0.1264029308186416 0.2866275176592562 0.045161426747659494 -0.14147662816183046
145 -0.19427735002863122 0.08856730704468804 -0.09436006069206204 0.01905701976382487 0.24474972880959459 0.08240059424671829 0.2554284861771143 0.12194119604304017 -0.23131028955388214 0.006356949699998158 -0.13289343638624576 -0.025802268430222628 0.3430011781764753 -0.020691371183159286 0.0911849600156795 0.15979449596014578 0.028276820841039715 0.03662827767040328 -0.26337550614639443 -0.052744086662031515
150 -0.12241781901514079 -0.2000988480487632 0.28214597573001765 -0.0902321207002348 -0.13391975169331088 -0.170522495316464 -0.03818090053904392 -0.12900168885898577 0.24029890128823087 0.04618751237649402 0.2456200702308062 0.011026248338674138 0.06374458655640526 0.14844999709690693 0.08195514356831937 -0.20085484574985557 -0.06055149861562804 -0.19407836085289742 0.3233268164639829 0.014897065680794554
30 -0.2707649331468524 -0.14138860734888456 0.11975058258217885 -0.10663591188210102 0.07910445821281792 -0.09781657766463521 -0.009961493674793234 0.09978692346744901 -0.019756230096940497 -0.003086615079463121 0.09640536646141687 -0.016699968383952515 0.2183732986669496 -0.1661889259132209 0.007324519068865114 0.09253064874764559 -0.18456479198013173 -0.11424093819077841 -0.04627449739060349 -0.1214244561110837
167 0.3118837811822125 0.033589469382548365 -0.033780925086145525 0.1812538781179679 0.008736880181388929 -0.044190969377425005 0.11894877344687615 0.18648431769859744 -0.02418440038494957 -0.05959801789045224 0.3357369908412422 -0.23150503899464012 0.03661481698386367 -0.06771367303111206 0.16453453408857174 0.005932975866746973 0.000291466835646187 0.005363359248723327 -0.00989570286513784 0.21964767686977646
89 -0.054427617970014365 0.1126704657861443 0.25165022542367965 -0.3213941152417742 0.05666189676332495 -0.17295367090085065 0.06311877751887976 -0.07650951066427071 -0.005212709233038294 -0.08043333711841386 -0.17631039694238398 0.051380250175260316 -0.01755939735853585 -0.09145125723936996 0.17503366784679414 0.045401092849345015 0.25612670554640204 0.03565128172115 0.02304665601750081 0.3456685924823245
68 -0.09918832776981883 0.07824843305734631 -0.0939484572931518 0.02812624792368487 0.056441950437746365 -0.14175688417979798 0.1549058606955328 0.20112444724357448 -0.20276313452107778 0.014070646856431243 -0.08944331271499899 -0.09062459639509718 0.15771752862326713 0.1567823411235929 -0.10857595783324693 0.1396473787257154 0.1043034797560198 -0.037899320971214394 0.056001729259669356 -0.19020131128465134
142 -0.06836593791720548 0.10036377462310699 0.17242825519991328 -0.04488817480870567 0.24341597332350243 0.07483935122058975 -0.19851794009691062 -0.14161468768781182 0.07675326775344958 0.15834797379893256 -0.056404467615331036 -0.1700133240816837 0.21585091151776098 0.07717292618392439 -0.08016622088848496 -0.37609308168277955 -0.2350464031281629 0.1075545794854272 -0.06927465509846155 -0.10494597937337663
121 0.08621607914139326 -0.03128758985879734 0.009089327159471828 0.18471398800197852 0.15020278989617095 -0.1082243837266616 -0.13532676343778954 0.25206251438744565 -0.2103954621518029 -0.14998504430079398 0.07261916573900679 -0.1398244635800524 -0.26141962131389823 0.13278858233625843 -0.12103828431610311 -0.14383129283413554 -0.21580733432894475 -0.08370051400202684 0.29074928229483366 0.27822673529221925
44 -0.0995568839017671 0.11166483011738328 0.02390915725421555 -0.1581422995770529 -0.025675045371769505 0.12283850740885756 0.3237733042204887 -0.23974338862435393 0.09481346645210274 -0.04379443417672636 -0.1635231503572457 0.21991302965039253 0.31036548229286365 -0.04673722984419896 -0.19446916138922382 0.16885275708732175 -0.02426156370516901 -0.07148847205532408 0.35615567547491755 0.045854258328035524
57 -0.11471331248331909 -0.2300002511262247 -0.031088259230411173 -0.18026137232231404 0.047888761560328945 0.01399134093856946 0.21390389484486977 0.03745883748347115 0.06172790496488322 -0.014185039559744725 -0.040322753549202714 0.07934685504339975 0.06418660999296542 0.10248734808364153 -0.10339963488029821 0.0881702641545974 0.05565155631666756 -0.21172812099506685 -0.02506588536083616 0.08611881682145729
191 -0.20465320429456257 -0.0629414928438375 0.031916768842740445 0.03193690890758804 0.174398462262884 -0.25088071948209906 0.3285757708206187 -0.007784662671338399 0.2645092044257398 0.015509624322444229 0.17456302720878997 0.03317349375610532 -0.009831428905566708 -0.051745204492971514 -0.2516265313082472 -0.02124164132720239 0.013477550100558977 -0.0679338364360619 -0.07658282616857759 0.11449072073451076
50 0.11367104777228322 -0.11178938262166482 -0.03677800349261728 -0.09523348741685853 -0.005727854614947545 0.017550888379638897 -0.2152142474197859 0.045701305935183775 -0.10230181555421419 -0.11430526189460606 0.0680766561244755 -0.27001573289367164 -0.3644998537053459 0.0563838315610965 0.016171367688669707 -0.10933014126148072 -0.21288476109981427 -0.11663873757806392 0.03964002614359721 -0.13384308174754098
82 0.00784510530571757 -0.026266146284425824 0.027773948198361598 -0.24116738605521465 -0.021585291019199575 0.2124962593400019 0.02100930232294774 0.0833390156946792 -0.025334838869633322 -0.0575310867234101 -0.024072002173175847 -0.021365467118857354 -0.003941139101404161 -0.05101573756641314 -0.096002270270752 -0.03633850128304512 -0.03396938065358882 0.1562504696601754 0.112165347507732 0.1396409334264396
183 -0.1679351131368298 -0.130208952748414 -0.03951594420502348 -0.20493591253234308 0.14872917291918042 0.31037069485851626 -0.05376684670498401 0.03407810363916663 -0.1295133862063019 -0.29346190326349253 0.022446210630103127 -0.17594723113392208 -0.008137598077620429 0.2715768676469579 -0.1302608523663655 0.13560262611208523 -0.1400899184143653 0.15080973640922601 -0.17263969621499187 0.13826777268860038
161 0.1931579637711151 -0.05834393499881139 0.0033694598259050826 -0.1655877105898868 0.006173977154706998 -0.025799745331842695 -0.010070015922426975 0.007502531649244209 0.0667265457322477 0.06560255120797931 -0.022684101782894272 -0.0072922579211982495 0.1851432303542898 0.0318862549779511 -0.02409966881240142 0.04733076561162608 -0.018855080178450723 -0.036097462108618215 -0.18310553145255273 -0.07918991788101776
186 0.055489848353610795 0.04466500059794247 0.08742014396439582 0.054319529217230454 0.10501794350662423 -0.02162578038058025 -0.11493497581298673 0.006332091397632885 0.02132218060984995 0.06526532703934655 0.010558585949936883 -0.17412538681327241 -0.20767082646771023 0.2258329536589283 0.09026461136290874 0.12488323429202984 -0.2722947448889966 0.07872178107608188 0.10130248079443667 0.12847786156540594
146 0.06572668985808697 0.02937013295132102 0.03784978368850581 -0.01234838712772444 0.14286507707690588 0.00606261812903725 -0.2684821815093286 -0.04114847326470729 -0.16695745433233028 0.07514617038458085 0.05153339440404775 -0.025588079240432642 -0.02908304487116663 0.02150255019671092 0.1335448825898262 -0.018470737932690346 0.016181610841082748 -0.1947920871115004 0.09643540494529045 -0.05035610668289795
46 -0.05035670945935885 -0.13487619451667743 0.08607566825756463 0.15461711510117515 -0.11803074854890087 -0.12170608593690284 0.09234889977272928 -0.10369950557772022 0.15952182812554397 0.009596150281600045 -0.10943104851202905 0.03290759411969978 -0.17614316319703488 0.23156165512733862 -0.041457120600652805 0.07249550364816626 0.09122688103232987 -0.1432760309650746 0.1618428537901505 0.266914956825743
74 0.17797165633404705 0.2573130388723708 0.07712309999165132 -0.008658376073786576 0.0791364660998761 0.17491322925989736 0.13579434275885574 0.0585879847819897 0.18993620090742047 -0.2719386386918673 -0.11914788705412034 0.22880550928715615 0.06806566672958803 -0.18445288814198138 0.2801245529241879 -0.05941637017150758 -0.04983167743887268 0.196620058110834 -0.007050080675060004 -0.21294565000489765
