200 20
0 -0.1618992880532014 0.1734662504862238 -0.2225056024051791 -0.011414972594255439 -0.04959839932874929 0.08060994761304613 -0.11937637636002699 -0.3608177897064887 0.466757706941551 -0.12846641104352546 -0.07336545674453945 0.12577309445172308 0.2317785786790247 -0.08199006962045532 -0.5814974099645703 0.03383246670745674 -0.07040453938347488 0.19019219450625727 -0.036897961588883324 -0.20706086728048798
1 -0.18685303654328525 -0.062274329495414206 -0.04177369552351785 0.521678701422697 -0.26259151911414796 0.16112607852079264 0.39988158941483976 -0.04647132548327908 0.2494956991419786 0.07936416479226074 0.23862348503250855 0.09171067795160445 -0.19772137039738574 0.23314204503170766 0.26745455238816035 -0.007085586159141767 0.08395560537765367 -0.038439271479317395 -0.332881562609977 0.1098505198059608
2 0.10722581546053808 0.10954598587188658 -0.2882653687926787 -0.022645714932013443 0.1841815562528914 -0.19069063367848058 0.162352669432467 -0.2864123423189087 0.2504439984600658 0.07969984155393078 0.2529928501294104 -0.16673983966040343 0.3202439604088122 -0.04010387663303407 -0.445254504244832 -0.11545893420189478 0.32539822698784016 0.1961295194753985 -0.05509452368246344 -0.30033548575739855
3 0.10336544438776425 -0.24153271399239654 -0.15904296783673308 -0.17972742135309022 0.07780640430180617 -0.15093477207229164 -0.333173642198504 0.40977361431560755 -0.08471625235957375 0.2253140154322162 0.09919658426350915 0.29008885513265703 -0.03573158381193895 -0.013233510454906925 0.011168083352635291 -0.2645422375907528 -0.40660415491363444 0.26908619389163213 0.3230987986841518 -0.002368362596851399
4 0.060074813654386834 -0.41002993253920084 -0.058963442713673625 -0.14740125837755824 0.15034965951748122 0.3684401620864402 -0.2997446111738697 0.036110642281694 -0.1463581200725966 -0.09173777625593398 0.16632673170736995 -0.28109536326678286 0.17101006119222426 0.12551213296236446 -0.0887592612346731 0.21194387536640757 0.06850126594831103 -0.17625467837488437 -0.059619386480053084 0.5290880538145046
5 0.16390118076231802 -0.21867004889313552 0.04791597073561918 0.015367993059884516 0.1702592982900265 0.08914737347187245 -0.021640176037774714 -0.16953819494673678 -0.3666501869731179 0.20292338563060064 -0.18300910467517498 0.21358121089738158 -0.3378763845375897 -0.4823040580586113 0.07628630997116954 -0.09758269980064047 -0.39330649577800764 0.1700089243835592 0.07850211629518952 -0.22370921776136024
6 0.42195271640549065 -0.10615412116894041 0.3343216197902357 -0.1456421053073072 -0.03903557357429154 0.09755594274291617 0.49061618427669423 0.01294822023070393 0.0649768617315474 0.020355199500505752 0.36392786806720856 -0.03351613444674565 0.15545004131276247 0.2590571992064333 0.07497805703071891 -0.05447591507168023 -0.06585005527935599 -0.025475808808125708 -0.20515026377485449 -0.3750361930929662
7 0.023824688297381907 -0.030090438306862737 -0.054933338044491006 -0.389151449150381 -0.19743259461131396 -0.3128046923689163 0.24981023414952552 -0.14159098686202543 0.13165433132249285 0.07084332291902495 0.2881694083007131 -0.34106124009912697 -0.25298728662862235 0.12929496997932893 0.1774593241192552 -0.13589220552025924 0.3781520224260168 0.13637339523875275 0.18798705713195854 -0.2747011780983635
8 0.2998478482196167 0.025352164295566137 0.36850857600490744 0.24228441255004113 -0.06972309677675304 -0.29266525587696574 0.22376602119728928 0.2513690639377392 0.08202486791346926 -0.18147251180971352 -0.011279629169227983 -0.03918594768964469 0.3411482075295556 0.03267352855406876 -0.1478513212190538 0.186060848149911 0.1805909776837748 -0.32784930433475107 0.3921168962446211 -0.045507025673747155
9 -0.19276546623068874 -0.172738745543279 -0.08300386987676879 0.4068564209046493 -0.03776797141572455 0.0974169027917475 0.34522165976569724 -0.07784747691711992 0.20717419925395467 0.24642443044832776 -0.24232234510820158 0.25533533960629956 0.18382426960148446 0.22660504990106375 0.2544977348129718 0.16615238468026128 -0.04111680822939427 -0.1385835784118355 -0.23812077846052832 0.37649623318684433
10 -0.21867051678532376 -0.31222938454477084 0.18944711757631175 -0.33838950437351517 0.15914889741205035 0.002250542417969278 -0.008275317812159443 -0.2234309193648933 -0.2800977313298635 0.2977525622472824 0.1822910309961648 -0.00606087824629643 0.4240709011009994 -0.3322939094629162 -0.13269204419031957 -0.23435526425829062 0.24028900332719805 -0.054297357486932096 0.002463796635644027 0.07154617312023216
11 0.12490985602498894 -0.017396409415841866 0.06892591343640173 0.061526848220826234 0.29699943626508785 -0.045378602393493624 -0.483008767390139 -0.2973205957587579 -0.10057140915218518 0.11586836712598346 0.3452938432606947 0.2236377201965871 0.42101970212501155 0.028906794449505235 -0.04028874228103191 0.19205909136974728 -0.14200720773217526 0.3530219310832029 -0.018861847109725414 0.09519737186688641
12 0.07937734097383994 -0.24573438838752687 -0.11842056779784862 0.04986807064063303 -0.5297117726392621 0.19254410733614197 0.4933587281522382 -0.11840144860830085 -0.13590568225022792 -0.23204497301803048 -0.002253561297085563 0.10999219247630498 0.01985194634950475 -0.10980644098990437 -0.005606882828034662 0.29810289031572035 0.21033094902107696 -0.24887245290570562 0.0064253584984320464 -0.22300078695703462
13 -0.0543823045935139 0.11548231820774782 0.0853774575634909 -0.16023603261026118 0.2903365309753163 -0.025391627191251074 0.22450685449566665 0.14678239676592358 0.013707950219217788 -0.19835909048859582 0.2093780442412466 -0.44093795742942904 0.11913469028598973 -0.313781653773428 -0.29272596726421 -0.4247221863024058 -0.07899412515160888 0.29578801543293487 -0.03790000313585192 -0.20532142398021405
14 0.1354007261023337 -0.31081134495546886 0.09061716838337797 -0.019816508125567893 -0.2098857761645894 0.38242469727021466 0.478366799455982 0.37106133277601855 -0.08733974140390748 -0.1488223666615456 0.10292677551892879 -0.04737528262568143 -0.10206732127610245 -0.18837798413620244 -0.3110238041425856 0.04907319048850996 -0.16665113838420076 -0.24598650532521504 0.041147257358939204 -0.2049366779434689
15 -0.5013097962636062 0.21695527882667015 -0.04531939077994095 -0.2006773350907235 0.21732364964823647 0.22685669268412187 0.09930591002166203 0.08300865926719869 0.09759481818841749 0.2531925101180929 -0.11902607051203895 -0.03408144679849803 -0.15418573316213174 0.0922838136790453 0.17282354977269743 -0.4727024720735887 -0.3076174443654434 -0.03919501997483776 -0.26918839233139524 -0.025610882107754782
16 0.006062625386960618 0.3614030518668015 0.024081879833179033 -0.004106655412411337 0.05313134184168491 0.3984196948828416 0.027445126492237317 -0.0662041106513935 -0.7202330252692655 0.047733149490548174 -0.10230162460685595 -0.08917964632797572 -0.10594095014883745 -0.18372141654951485 0.013753738483533758 0.19860636642722332 0.07510360838479961 0.22998570290884254 0.11551079217069526 -0.07833886636725133
17 -0.15800174087710597 0.42661364148173364 0.19156636285358822 -0.2020843090806323 0.18936703608669717 0.12494894896762448 0.06261896955872717 0.18562529944137954 -0.35037282517352686 0.4732572271209136 0.15356578505509247 -0.11976079897371678 0.36911518655176895 -0.06965237620198113 -0.1293309097255421 -0.10829399019908413 -0.2298561783414884 0.07722943218897992 -0.10804085950512646 -0.031133808828429862
18 0.21402397174542986 0.20943888610881475 -0.2124115383326077 0.09798153025775899 -0.021522878198516584 -0.03039778192758449 0.29074192150125977 0.4421603630741786 0.11030371072047887 0.276849919381288 0.021010662079935096 0.10149956702432339 0.28257296663086423 0.12690467015845794 -0.47227551209838475 0.17122107485319102 0.12634840622706575 -0.004686046445343907 0.1312121661504335 -0.305145926643501
19 0.3217075705033473 0.2901459884847641 -0.08918267413107378 0.0760754615555648 -0.022690736722499362 -0.4085247241018497 0.2294608708810676 -0.07883372421011785 -0.11044911858850204 -0.36988596927638917 -0.40050484628674615 -0.32928250344084387 0.056019010391485505 -0.04028279990624247 0.077427326443503 -0.05512943593138125 -0.36556244044212094 -0.08104431974049571 0.019885324022885252 -0.007994400467459308
20 0.15913352562198563 -0.14185297780174508 -0.14433007590196256 0.170315034091848 -0.07769026319509001 0.0777340381737771 0.2040323025425307 0.26577322296282135 -0.03957362894033163 -0.004032501274011951 -0.2432068253664027 0.26858619354224467 0.2619013062797496 -0.2886736989228086 -0.4282780444359499 -0.038385813908538874 -0.5116979587447196 -0.08338489052760954 0.1869849977275118 -0.08325141884233263
21 -0.11595178625991326 0.218567155869958 0.18326148154676758 -0.06236762925759151 -0.07646865895179776 -0.0687788360267443 0.013087277177991602 0.13485232790197962 0.1017928154542434 -0.470310530998945 -0.44889799963774535 -0.28848684296206456 -0.44599270972975136 0.11269017450878925 0.1766393573542838 -0.04653904860624759 -0.10303719658210736 -0.016684745821043387 0.31466048479163705 -0.03470582794419315
22 -0.16744818414174292 0.1857267721421155 0.36646198042857325 -0.6145372783847638 0.030373889438504113 0.05361275305168202 0.14765287294727028 0.11290658550471 0.08403530762887552 0.23400656311777296 0.3455172882399112 0.16926670166562457 0.08168248173674111 -0.060155587944888685 0.26904181221911966 0.261034133099792 0.05759823059955327 -0.06367711338999188 -0.13698170318252612 0.019138885697886632
23 0.25347695492597 0.39346800234203233 -0.18172791174838307 -0.1535556564947365 0.3793417587914617 -0.11182963148344394 -0.2219398725089392 -0.30089912209682573 -0.07459065499081025 -0.2836680392610336 -0.15366945816496513 -0.3325809531968914 -0.21038780105027652 0.14386262993313775 0.1608968279189376 -0.11327575936313503 -0.22461340553789574 -0.012562887074654586 0.22630345028436197 0.048659616756535226
24 -0.26744902349124294 -0.2919703048439064 0.20709910665880837 -0.04190723772612354 -0.3558831614462206 0.3057794221708238 -0.10564012381305293 -0.32211178368638665 -0.11465746611318811 -0.07327717630796322 -0.22467605257911596 -0.040316385770374996 -0.11978654052982021 0.07903038347337785 0.35969672686753756 0.23805980666102483 0.21962622789708122 0.09338283921879088 -0.2600613944333933 0.24829602280808166
25 -0.21009563807841744 -0.02664582091543502 -0.3012290852715176 0.06927995949708704 -0.1818729508512807 -0.03731711944405166 -0.3022663837911949 -0.036481713336814214 -0.016597911704164078 -0.25829121373557845 -0.4377708351076268 0.049651870635776585 -0.33351623529217544 0.14237148969997107 0.379343080477553 0.18418892536022002 0.07602718996462528 -0.23573232460313132 0.06346285898852355 0.3108689983957489
26 -0.06376009880175638 0.07796452470513486 0.16698691383025946 -0.32847187820062657 -0.14040750734713428 -0.10284518607772061 -0.5108333256385964 -0.1424891357352158 -0.09793297904160374 -0.25378858847160185 0.016051512906978926 -0.16089209103140523 -0.18181139813021838 0.27066977618118554 0.40658139406858584 0.337223173300967 -0.07945023215118417 0.1403118263328266 0.008992759650342045 0.17596327208995344
27 0.4570171393201107 0.08639214213708962 -0.1542745353609415 0.014690461110560856 -0.3719300078945384 -0.2921739458839305 0.010573373002829551 0.053860799880707154 0.26509794014499927 -0.4408942775524227 0.32938008524410967 0.027441412261330664 -0.21981162887624012 0.10035481765079753 -0.0179592605630231 -0.03672418272135058 -0.05647088064178714 0.0226417298601178 -0.05141565135834676 -0.3043541569536435
28 0.3347033409702078 -0.03095131929769996 -0.01455410556377746 0.25002265197326184 0.057008436537822726 0.14361345727560584 -0.046842890442549065 0.2473105664217005 -0.16760504693893835 0.02935377353782414 -0.004367319459873948 0.4507790252198463 0.32117911975368835 0.03201779363420628 -0.17531116802372565 0.5445547396784719 0.17129272124645903 0.03213660470667275 0.18402216049566467 -0.09588525149358455
29 0.04472667410712717 0.4645976478879453 0.21048740212973727 0.0003098133262794148 0.16442189075112537 -0.12908007485795656 0.1589074854383352 -0.1186636852250828 0.17817480858543958 -0.04964581975372791 0.4671951274610698 -0.3910129276111188 0.16411822161656556 -0.11391500973306752 -0.12447318955102837 -0.016954945276544366 -0.25612985776725944 -0.14180672943006137 0.2599466247223732 0.20115896906155042
30 0.012935849939932204 0.1002912271443513 0.25350643619917196 -0.10541190161289611 -0.41028388391482223 -0.13294593938206 -0.1660237994968558 0.15706340724472848 -0.01275775081926209 -0.35976735267760884 0.32204944361581217 -0.130301377714816 -0.13766699344936656 0.15889043928909602 0.1895327591388586 -0.4115652343301218 -0.14522216376758335 0.2862900715960131 -0.22110266594693223 -0.15627665406285743
31 0.052025679792496886 0.10430770082552443 -0.06283129342828675 0.1629399013047292 0.053313289525053036 -0.1960215671644271 0.27165915156822096 0.09904729582666615 0.05974967336366721 -0.11127205568679426 -0.09095992473435383 0.15169052082870063 0.4582849521466232 0.2739426595104667 -0.003227553168137245 -0.1605889060604277 0.39257303011593353 -0.5173228254558307 0.22601726150106588 -0.010758455085902917
32 -0.35361698606758274 -0.04407298004285939 0.05225002243368068 -0.5504121714618396 0.15006337417099713 0.13497675130376427 -0.3781262186340034 -0.13394381252038307 -0.4177725480431151 0.17775793831207568 0.15601882242646933 -0.22250823709088616 0.15622391324455795 -0.0942207548706577 0.09488520743982064 -0.01500065679977248 -0.18869748472067466 -0.059354325689355385 0.060015745457555725 0.021075823296652158
33 0.32527871052397966 0.1646977076348523 0.16012242575827718 -0.281982001048519 -0.04754189946433016 -0.021307258437915998 0.5393361593657315 0.3727568893354211 0.15573233489917365 -0.22527885334931683 0.012700992794474158 -0.22178863769094173 0.18548069299943795 0.1827183451941823 0.19043689138924727 -0.16588505994123234 -0.17053921123351637 0.1485238774271883 0.0070579516186196605 0.1491626591623024
34 0.3463322433197742 -0.20341532005951432 -0.05271568521727406 0.1378432213205681 -0.19082339789900868 -0.32250298976999986 0.2516978290174871 0.06819608731318796 -0.08949206437378257 -0.11413495074575103 0.03900838770043587 -0.28371020568408417 -0.3276347507787348 -0.22840840842339985 0.34439708636621524 -0.09036193458338153 -0.27766053286256814 0.1755144411669691 0.04381137156003065 0.330626221694234
35 0.3613422265341535 -0.07753810114410353 0.2954158224706709 -0.35082949055262563 0.09316914240618948 -0.17619467771035752 -0.11264022969350433 0.18078474235397002 0.05191107715562764 0.3445090387114159 -0.12354173173403044 0.3170834750200545 0.013292024693524451 -0.035345146406243554 -0.22463639773502633 0.024359887025418046 0.07678857076605362 0.2784511767865597 0.06474433468737048 -0.43667131693960903
36 -0.009472997776263536 0.16786459680281243 -0.03273975591336292 0.35157360437677265 0.3050551258858415 0.4357357122297279 -0.2700404599237339 -0.3828233965812158 -0.2696407077210753 -0.18761878440855825 0.20879556515336703 0.09818967380915815 0.0430768668188593 0.30441868469462235 0.2682403223226368 -0.10954304707568419 -0.04860636800172567 -0.010586922588094839 0.006537561910434985 -0.05015853520303918
37 -0.08053330653222929 -0.15487860152049873 0.11359955371825356 -0.02336365421385955 0.24159591974192418 -0.37519057534766537 -0.031329762973471904 0.28389277749611913 0.2680667247509607 -0.029564493393391122 -0.16921997439977415 -0.06848513907925914 -0.006776414589948497 0.12270954846583591 -0.06505117863665616 -0.6129272953428825 0.15071981541575383 0.31446301645583885 0.18601667928281684 -0.1344727864266069
38 -0.3487185797478158 -0.10167361641349598 -0.15696250675317772 -0.2610215285758434 0.11220560410966886 -0.016138549958896187 0.041114157557474634 0.29990349750210493 0.16394120102730897 0.1011553468385326 0.007040806913658733 0.39823889877580604 0.08870189457189727 -0.17402926092264723 -0.03703151411837695 0.4636460702536458 0.14618001793692217 -0.2574603947817622 0.36229660477359155 0.04057023049133923
39 -0.08547898962283038 -0.1879271866985733 0.12419775767850164 0.20030634340632542 -0.20122226865262063 -0.32041260741927147 0.09553326577891846 -0.2650096303648704 0.07768736557377212 -0.05046794248613263 0.475425378546693 -0.252972869148084 -0.14814444010908812 -0.07514459502498357 0.29207226321520724 -0.258718146105818 -0.42430644850221577 -0.07123415187498104 0.11635337500012624 -0.04719709028524405
40 -0.20176522951605197 0.43911174719479884 -0.2046241288222162 -0.08403080022354632 -0.4468808855496018 0.11499721216281142 0.14690286735789174 0.02447323124403482 0.03544964739693833 0.13924976727104224 0.2940038961864816 -0.020837005005518685 -0.2619647950626783 0.3229240101808464 0.19620537670838775 0.038364323630516665 -0.17440868739363694 -0.27472602008175034 0.015286323094593967 -0.23645978820409216
41 -0.225964662617809 0.36303475897048926 0.008127114448330546 0.416496487790334 0.1890330909934125 -0.17834758372020118 -0.05820340848832923 0.2205259270181158 0.23283174504566043 0.2480573211706297 0.16178578663710477 0.29110993548226677 0.10043600079460682 0.09430986673864329 0.025611179575833837 -0.13225487430796617 -0.10836565144556301 -0.2598920430686958 0.17656856709544622 0.38703296980172736
42 -0.31815909408359994 0.445654127949055 0.18171032437622364 -0.03947839380170311 0.28976977967956746 0.22578315213019987 -0.292107224699191 -0.1438642079089259 0.1513211247682078 0.3640668552744741 0.19538028388415685 0.058429959186406207 0.15833952959685466 0.27761984586996413 -0.005615446169961385 0.17788240326867083 0.22010740182923014 -0.19056418744056944 0.00796578453838319 0.09459612061791875
43 0.30780314471308545 0.1731477910642757 -0.35515804454189775 0.13717513980385163 0.05562890675905512 0.1878527280749625 -0.1726228788175026 0.016357821810438027 -0.15405097350341726 -0.3043415223119844 -0.07480549348806585 0.0862495728786382 0.0774415242555231 0.005760802726031411 -0.3857820494687198 -0.0656558404462558 -0.4190770494213514 -0.12582470434146642 0.4029268204889492 -0.13966640487089046
44 -0.20780333817862978 0.1585585161276838 -0.06520238724058931 -0.35734772399287135 0.12435753272962295 -0.20494225575268113 0.047073772204324085 -0.4065436606460093 -0.023436208101082524 -0.354099564621994 -0.09119778585243217 -0.13380446073280122 0.07360383819849646 -0.4618281373421547 -0.03920875249615898 0.01474969424130931 0.21876649962985173 0.19508169139758538 -0.326929924975801 -0.09672306226497085
45 -0.33119266925416235 -0.10389509649637192 0.1799906650412528 -0.008751759311887172 0.19146856963593034 0.16379471504402848 -0.16318835653112818 -0.12112641620526117 0.14793726671540677 -0.06057998151503644 -0.14312436740883197 0.3182675425232979 -0.19236456901123622 0.3871458015820696 0.3625490433351941 0.02441859620246207 -0.013010363428938026 -0.06480048865258507 0.2879467071556695 -0.4344109660995121
46 -0.013575527593375639 -0.05788398705678097 -0.17532872375205116 0.020949830217721795 0.18714447633968362 -0.12587860615409113 0.5584903705200979 -0.007754099113120094 0.13466463880002996 0.3283066505560695 0.03374200807921707 0.26323271926229624 -0.2363867410352737 -0.3504904032913649 0.012788116293777883 -0.3332970307683195 0.0655332706732849 0.07727504698246637 -0.14565106229594915 -0.2909350148537651
47 -0.08607513805415573 0.18738197180211902 -0.10693551987569862 0.33851200579890095 0.021856104047898468 0.0020876436440098066 -0.10980854027935183 0.1966320243483665 0.004685172320564947 -0.2571650387305277 -0.14939691487634396 -0.28321385498546736 0.3175668620531481 0.05392220579613615 -0.20862724740008523 0.3752168740922849 -0.38816949885130947 0.07058563396783196 0.3644272842724418 0.18716170147578656
48 -0.09804629057185386 0.04715335766911797 0.16024381453450778 0.15277932186889454 -0.11267541842450816 0.0072313939057038375 -0.42065658370992104 -0.11332059532446917 0.04919959602189234 0.10522733400650351 -0.13204979040349246 -0.05548828452367949 -0.4322687243686771 0.17616064482191152 0.06308471246926625 -0.4648821856960375 -0.23120056328361252 -0.2027687108026773 -0.32062560692422315 0.25930517952510446
49 -0.07143341118741567 0.3780427655413358 0.1279489025971861 -0.09407980559944645 0.2349019628934514 -0.2342854590743281 0.07937522140507149 -0.3368644061455899 0.3348093196053581 -0.125985249500414 0.49384844153461105 0.11572109558688033 -0.1888278230710587 -0.02148408623765748 0.28100884059987896 -0.10699694859647498 0.07406931941011106 -0.1276732590888576 -0.1494780338585218 -0.20249168954129587
50 0.1726077073182579 -0.07823825185129943 0.3709804051321674 0.23001725951469304 0.28919592295952934 0.05773850308153903 -0.009186331766584245 0.15587824882719073 0.005477487360204147 0.21547069610085104 -0.02984494927963543 0.015723682861155726 0.32947642168550056 -0.026853668941246866 -0.02073871695259804 0.1239394834098068 0.40493496865713496 0.1513574004874034 0.09523298743551227 0.5418368950733545
51 -0.2764736852152391 -0.14395062543598 0.5419642762380584 0.1527320511324781 -0.15747923217072354 0.17184229971035062 -0.13905953998216372 0.30079247153569527 0.11006669937696241 -0.35301014464188146 0.038727513206502674 -0.09195210606048161 0.11888559324460668 0.11122406194125671 -0.12842663967738807 0.03216187513868941 0.24442128611867409 0.22763275277751402 -0.22924199514533164 0.2584887927443941
52 -0.39382959149291 0.16805149513405435 -0.14183882535494083 0.08682030037184724 0.24955854545626124 -0.0010770879316236246 0.069414552395198 0.11068047034057386 0.07702879940002551 0.07419851802668372 0.12614438756345348 0.03907945650745556 0.5592883012230041 0.016008417047943726 0.009465982330107628 -0.35420821503010236 -0.11598896393416822 0.45854118341585687 0.05848558570199083 0.12258254916158148
53 0.12046638827078443 0.1336340467978922 0.33114560512549646 -0.2725019088154458 -0.45238910132238974 0.09986794942602488 0.32141032321367907 0.20263366826585966 -0.15473431888250203 0.19613123537058724 0.20715843400390296 -0.024959038899132653 0.03497902455653699 -0.22870212690515673 -0.2486336488768559 0.3584445726981935 0.1885112098257299 -0.12993137151990083 0.05599548178098171 0.13924565701986916
54 -0.32321545356620546 0.008799040850557417 -0.21986661370385086 -0.16734942887483933 0.4089604009399295 -0.09575931696102177 -0.38478872276185244 0.12528984730111015 0.08623645088687067 -0.31745017608837856 0.13940622824015506 0.05188944035570693 -0.04403278621786508 -0.07171171360988013 -0.10694403018227062 -0.4450114405528584 0.14343268864689565 0.031269569844135855 0.1034022698094365 -0.31590272935812885
55 0.2874169271201693 0.11411900065512759 -0.021607387903517038 -0.13354570636049096 -0.04622719169847814 0.17213799959096848 0.20430291252075533 0.07143751142177637 0.04246119466621862 -0.14139853055228824 -0.09952228434141161 0.22613446322031883 -0.5153232365783187 -0.1417102937346684 -0.03472715787116482 -0.17546755482409543 0.09656680001950897 0.1557114487650495 -0.4577622450408125 -0.4048026632576595
56 0.03844475032718353 0.18312240031451105 0.1814053227122038 0.07912668830322489 0.2985116346898704 -0.08494069857324231 -0.1334966405668345 0.20357414548466862 0.4431125866199353 -0.06227113766936218 0.46856929910564477 -0.10986216093601774 0.22051543727591857 0.00778483290481962 -0.16077380076637268 -0.00039207159148510343 -0.10326111385985064 0.11558394938327256 0.022378117443163256 0.48920212213696035
57 -0.0605897337798044 -0.33574928702688683 -0.19668103788090663 0.05385523755046602 -0.3387638614908955 -0.020986628910916683 0.31167483352467046 -0.14986189702929714 -0.08808801335625116 -0.10493427182296784 -0.10808909496479639 0.05094739596662577 -0.3029297545569199 -0.1390929894761887 0.38964099801720814 -0.01678207056937952 -0.46286676454819525 0.2300881561446123 -0.12112394468112805 -0.17057085850178205
58 0.09984909476908327 0.28566928345533504 0.013979748600915014 0.3603684402108511 0.11482340633912122 0.007368315079241663 0.059243354635297146 -0.45519904386516835 -0.016197567552415505 -0.13679184797787533 0.04405859317426369 -0.3783113083506451 0.17463033252062077 0.09640050656319904 -0.04495593169004968 0.32011918739880924 -0.10318784770387066 0.29389013728296653 -0.3172727631037132 -0.22001239141204812
59 -0.22891430980746222 -0.1220840626543146 0.234528364367556 0.12685117990172953 -0.06508290186455325 -0.11384108241972453 -0.6141231653956472 -0.09931646443180646 0.048382150075335174 0.18576548815600222 -0.21783266477178892 0.14999622156124878 0.05318809165849707 0.2009683771310831 0.06537878748248013 -0.320506217368181 0.04685430484632577 -0.20764387046464675 -0.2082098253747982 0.3342369016973905
60 -0.26636193836849104 0.07354038143302721 0.193251852526862 -0.04504748828239989 0.09445271058974626 0.14448891356096158 -0.012270255722046543 0.098488743163855 0.18404593315937173 -0.2570251947493706 0.1616174836081612 0.17377208417869627 0.4726160480223104 -0.025127004226624002 -0.25765724318600247 0.18298458346432275 0.20772371416019536 -0.37786495179267743 0.2002803180120997 0.3720961189571692
61 -0.007188072824518317 -0.29127440164694834 -0.09539144682390917 -0.021840936413330354 0.009844725665897149 -0.1046132997420476 0.16623929612780827 -0.25056511560895633 -0.3227713935427085 -0.15607939440084048 0.3884185367832833 -0.23183525061443438 -0.11347225795823701 -0.2655134648590147 0.15178625513128127 -0.048519290682177287 0.49676811673378984 0.26762937857360336 0.051224503132386585 -0.2027771685747568
62 0.44941411389106456 0.07093032194205928 0.033311143813116485 0.02436982701890743 -0.05698031862777352 -0.1101931101006604 0.3416389843346652 0.2622353705238523 -0.23596970341926438 0.22608048162163905 -0.20002773680655658 0.16681683349562906 0.07913491181714986 -0.36654126629892325 -0.020381181374434426 0.1584211756569075 -0.36334357243005766 0.11475997603120673 -0.02521359352494183 0.3222326357940066
63 -0.08863135388634458 0.09076527882157176 0.2891369828772764 0.09634398678187829 -0.01284423156652662 0.3450025435248638 -0.02716150210051961 -0.4994678547078821 0.013066546250242112 0.1165213214331698 -0.024994308547019086 -0.18400562000967197 0.4379557262671447 0.1669421396669414 -0.19023858368486804 0.08430826817601798 0.17216268041080568 0.19392109684835288 -0.33924554665161 0.16759707291317974
64 -0.06616695615201498 -0.08834476513794497 -0.630897611697108 0.02821862036093176 -0.20651256577503377 -0.16700295030694834 -0.014989462955771773 0.3240358539386513 0.02150645937695804 0.23530487546371098 -0.042489081633624526 -0.20561085593126255 -0.1752552191006261 -0.2707004873273583 -0.2974087366672164 -0.13310809181455793 -0.003609600533242052 -0.0696669801481696 -0.1603377533481266 0.26940291063180466
65 0.048538336807731 -0.2726381396534522 0.11466695774184707 -0.581129157822437 -0.1385583301953003 0.048152205896712215 -0.1826749623219437 -0.004642498135371139 -0.2559934736247116 0.29244652527814874 0.05409548467015151 0.210678266660211 -0.017402435956035352 -0.3279812430297833 -0.09965265173940056 0.1444432211729592 -0.10224328805472686 0.05721551682205051 -0.3530904462856964 -0.20519641299322197
66 -0.24687291897451544 0.23439609706205716 -0.02903351301542135 -0.02362709757304397 0.5407585096284935 0.01865978190816245 -0.45065236060850916 -0.09906115300269189 0.36711234989135105 -0.2833313181705421 -0.166491059671588 0.2643981144534157 -0.13209025791313292 0.05532016860991132 -0.028244449911865695 0.08967875711000488 0.11315859481063847 -0.13625725741015524 0.06041001642548949 0.0006034481504906106
67 0.15457190805573123 -0.07065862226835833 -0.008474720579289705 0.24981800239559587 0.049160956259931984 0.021772780263851887 -0.4219475828504427 0.055331462136362454 0.11526157884079276 -0.09984797185308447 -0.13317544429765457 -0.373025060097451 0.023182938109310817 0.2329773879644441 -0.420323500997301 -0.29434590800824667 0.13796030372138224 -0.1869484557824301 0.1617652881204408 0.38239444354930974
68 -0.3519871400878069 -0.14148099076819212 -0.1559276909194948 0.07796279330906339 0.16818781385981404 0.27190875282797355 0.03801445835529095 -0.17842712060580043 0.35515173314166965 0.3442604072611771 -0.002633125827896374 -0.24443866877574263 -0.27331690626737987 0.42873976932637897 0.07689413101386021 0.06967580233310938 0.16074087080805674 -0.08851105783397346 -0.266625025785673 -0.10835289397312757
69 -0.12094931004492593 -0.158751886574426 0.6389451181310847 -0.034888314943234314 0.12405002377555963 -0.036375007902329594 0.05895124489491482 0.24294987953411762 0.0765311209412245 0.15594585229152724 -0.1926940787215476 0.38737600467634387 -0.009955767956655655 -0.21664818434062844 0.19036030150922614 0.29169028361867827 0.16108938955693158 0.10598154706252642 0.11606530396196435 0.18738571982823735
70 -0.0029940792459123644 -0.4093697501399126 -0.2136526379583292 0.2868331359113358 -0.31439543848494733 -0.004311637707485798 -0.15434871053732108 0.06261482285774306 -0.2898376902721767 0.22582334435429313 -0.05212522398099232 -0.33181937163277153 -0.17468814379356887 0.031427360151965185 0.09137923012751263 -0.21429765417845018 -0.2774969285778627 0.3675323406263296 -0.16282170865295426 0.07539012279565632
71 0.2810579950056532 0.10322370796850254 0.12224520021622512 0.2405852330722704 -0.42991275593673783 -0.2626490590764081 -0.3985243037003089 -0.3823962333651082 -0.25949385899080646 0.3114892478058389 0.1859368949383796 -0.07475557528821539 -0.03541074060458387 0.195605240063165 -0.05554054376486908 -0.07960750551149365 -0.0924847176056783 0.06266679950509607 0.11167555501502409 -0.015975750744461163
72 -0.18519607649293204 0.3002564830345601 0.19742780888411457 -0.09774218121579605 0.14582073703360324 -0.04298449117659294 -0.2789765830320871 0.00735056997656238 0.06344688224106916 -0.06412287354913716 -0.30445579600038736 0.3280809719375704 0.12971610934733566 0.07097475614039925 0.10356400964282654 0.4802858241024503 0.3780284331106071 -0.18960388622322935 0.14741662162701072 0.23174519180105155
73 0.5573756318959666 -0.3607474207436881 -0.2284984267177067 -0.037340317738416645 0.05111428657961229 -0.09827105264366177 0.021409277947963008 0.10862219403804174 -0.4437880192644563 0.02128251873871536 0.10464838306221828 -0.2568817485210623 -0.24040673607306018 -0.04269137571580438 0.10303877084723198 0.26614290351001085 -0.04671755260847225 -0.10512508105542971 0.22802864411980905 -0.020566436411060766
74 0.3203656551829698 0.24081737911527454 0.49708403968236436 0.02815564179693797 0.17174340535706065 0.09752639988149872 0.04543816586486998 -0.39239104562216187 -0.18957645621981697 -0.2619443585363473 -0.05245988639385736 0.12350815486947984 0.029485293129873004 -0.28333256933949696 -0.18833570043382533 -0.0339212430065412 -0.11669581924084574 -0.0024803409812062067 -0.09403196076066968 -0.36558281803544945
75 -0.03172124729098879 0.15659063935361767 0.3988881994852786 0.5050295695453431 0.02295406659941939 -0.3147816895524811 -0.27006928062427926 -0.10229335777436005 -0.010546088316353135 -0.10157189168694111 -0.12649202536251763 0.013939732340235749 -0.020250752640161424 -0.007289678226149656 0.29140380400738203 -0.13034465067892653 -0.29753853573006184 0.1818379671742099 0.2399189950954486 0.2629516129516549
76 -0.08281410907870149 -0.02158004593579109 0.08200874419620004 -0.16190505446402725 -0.01636066693477751 -0.15093854664139658 0.10961906683784069 0.28091965043340134 0.1426467921909734 0.33959986473547177 0.3817317652801306 0.05363556220227492 -0.0782449233525668 0.028828835458211355 0.09583288810837373 -0.6478777226959472 0.06338060634154932 -0.1470924293054296 -0.20238806424478387 0.24287038246413378
77 -0.4879180393617468 0.27935776181644423 0.06833245560414188 0.030812531899460077 -0.1198222823520879 0.18669451690315142 0.45043939312370285 0.33339441371833384 0.287368294945436 -0.07705164372429975 -0.09533055830622848 0.28046601644486124 0.2033386344439077 0.07248938755286635 0.06232431083217704 0.03167888087115184 0.20972481357957504 -0.0692340602035507 -0.19334022493192066 0.03320933640025878
78 0.1861579705680609 0.24489365401832253 -0.16550046396355597 -0.08671753057744924 0.1005116382576938 0.07266473537800885 -0.2417350038666661 0.29624837107301055 0.08433570487500268 -0.22909994811562662 -0.24612793997870216 0.394099754162318 -0.07135060583525224 -0.3443624546176545 -0.45728994701438097 -0.07813706474489893 -0.06791518266015495 -0.1754134268429442 0.2178114489075978 -0.10801493515933719
79 -0.1432224577719627 -0.33395667262146933 -0.1409732299750273 0.047080393125154454 -0.24845621760605785 0.2389858969001497 -0.006576529728754544 -0.29953945659239956 -0.26401823969485455 -0.287601045219265 -0.37973475688034913 0.10893611062019473 -0.2349036885153393 0.03500015591253994 0.25000568529295897 -0.1124512228730805 -0.13683341394476703 -0.09941235294711025 -0.2561266884338613 -0.3209560372711769
80 -0.11468335975941492 0.027591791923641654 0.09750162309497068 0.0177187075875867 0.28627862423004014 0.222829850934677 0.21889126742317253 -0.07763087880316565 -0.07486691421547748 -0.3904180937439705 -0.14717531935194555 0.037032671189705525 -0.22043066656564084 0.008814933905403506 0.2785751103017519 -0.2983629423719124 -0.11864818071297992 0.3089821266013069 -0.1666829739479157 -0.5069826943589043
81 0.046078944340021744 -0.2608773483420115 -0.49239827564257327 -0.04965420642527209 0.013960150825250204 -0.26289650907728584 -0.19186404874736926 0.04325990343044176 0.08452057496935962 0.5358222060672861 -0.17745940444395072 0.3373039356312806 -0.06939653059704946 -0.05053663289478136 0.023710660154465196 -0.08593863037617776 0.18130289274646938 -0.008901416509937856 -0.11622800722288881 0.27498011476887435
82 0.01518006979907994 -0.29783931857868906 -0.07487902549035494 0.11570922804111235 0.4437005520059821 0.30788573730318297 0.1440588570972817 0.03661072515408907 -0.29323599424755686 -0.2840626218015999 -0.33466079243710145 -0.2842932976852057 -0.2709432413749778 -0.06479818922903215 0.07514469365786791 -0.0023737493524630987 0.30931684948133953 0.060858339021834455 -0.13029221248005649 -0.13853205405418906
83 -0.019640371903491386 -0.010123531228596893 -0.2303048738875062 0.06374863255929894 -0.19744725328929338 0.04057035303229717 0.012454482047543491 -0.4611658164256263 -0.15628369263169142 -0.07713385136377274 -0.11194956216192524 0.03745621208626115 0.023679661154192632 -0.22015582758745916 -0.26105032567106684 -0.004763066872973793 -0.3866518442963739 0.1765249928101921 -0.13173699375612832 -0.5739534048042223
84 -0.13671373524316097 0.2737918054360409 0.1858244909443348 0.25652956118799247 0.02765139100526426 -0.23115323107603283 -0.15607974364474253 0.11339480867010862 -0.02336143353842852 -0.3132692066786486 0.12091680069458788 -0.14347468822111406 0.23876168368331863 -0.09950927369364153 -0.3225970898152955 -0.10743012586613487 0.1876252333905144 0.02041910281439599 0.5998104511153362 0.05283956721667024
85 -0.013788082785666535 -0.028732959540264016 0.2500235791159454 -0.2167426424355975 0.11996028500511785 -0.22606460671540263 0.057505828018463906 -0.03982813721714007 0.5065285865742701 0.08329472781773006 -0.05178894546741626 0.255831825250311 0.016848426264195797 0.3091819048175908 0.30615680290111136 -0.4349261782653927 0.10201447969185698 -0.19286977670131503 0.24712162599118012 -0.004489628078145567
86 0.2924175739717515 -0.2970727782760517 -0.17853882872867213 0.24246621129746698 -0.08277800736528476 -0.0913348535366199 0.1266656278567125 -0.06663813854043699 -0.15483195920407 0.05022060567287181 -0.6765714620067567 0.321338247074537 -0.02495856044241258 -0.04158579059431486 -0.044186299040443064 0.02866669427176439 0.14020383590841526 -0.09194568898974605 0.14682907960047936 -0.2399917344718868
87 -0.35922945563196185 0.18323407488805019 -0.1710065222759898 0.41694459491461455 -0.014085478249291522 -0.27660801844477256 -0.23820434084099146 -0.1649435851984583 0.11805613581383168 -0.2645468028785475 -0.04732736217868911 -0.11798499786357437 -0.20299344128982189 0.24818244615475116 0.34353613722306353 -0.09709956912545299 0.2520745727089229 -0.19023646732128308 0.06924631037178129 0.19692611765535672
88 -0.11491966957543148 0.15319915182269256 -0.3632435593206229 0.25096097036356574 0.11920488821887266 -0.19566561507312064 0.07701832934306045 0.03432876052993703 0.23860425682938466 -0.14610431263528464 0.18913890998178629 0.09152730587167099 -0.12072619102918361 -0.18822049012712425 -0.09411985974153378 -0.39092025332492536 -0.5041383784922692 -0.20480955397841114 0.26120383540667974 -0.10174978392419987
89 0.001033801173293611 0.2631198548474141 -0.26435255008093206 0.1266319258680905 -0.00331023239200668 -0.20907879480553943 0.1329005194763927 0.12199882194301465 0.0478020822509312 -0.3233022170412836 -0.31774157316529206 0.3943831850611989 -0.14679724256467658 -0.31390673317382695 0.33609054224353696 0.28152599963530084 -0.2289585846715379 -0.1525250268520206 0.009515553838519234 0.13112389454840434
90 -0.15164932195596773 0.10412115733124624 -0.10195209148770418 0.25628074744120605 0.14016285258457895 -0.09534709020290946 -0.163684830643969 -0.07925439461406081 0.2529757017082863 0.10046191657050832 -0.3439395427062418 -0.091062071074242 0.40068836948704567 0.19577552953725716 -0.5079030490689035 -0.05313928250217669 0.3385848919740223 -0.05387938572923357 0.16943376806840407 0.14724584853977604
91 0.2219277663421635 0.30958008009790683 0.5006090235636677 -0.17450016499362594 0.20991010172004737 0.1835702883332831 0.07850496608910788 -0.08439369711146036 0.17279259643660405 0.05660295090472579 0.40987917819258257 0.003283002885715466 0.057287657958686095 0.07451022863673332 0.0013515845340275707 -0.21203840961013604 0.1731482028985841 0.27379451775146374 -0.3305267757798478 -0.11722884745835328
92 0.10693451793075835 -0.3096206025568807 0.1194343610581477 0.46669491090813403 -0.06784462564277573 0.08023792789311437 0.08281488828009852 -0.376637738530641 -0.09025421487141098 0.2714226594606253 -0.004415491947659172 0.1465443975834016 -0.04358596620047601 0.12545169423092803 0.1463579683623983 0.24471202666846903 0.22881857771206038 0.4515714374281628 -0.12097804573211292 -0.16647039594980814
93 -0.3730256665637135 -0.08890894073768937 -0.14200449744099025 0.3211954025384061 -0.15592262129119447 0.0963320992206383 0.3294877101008604 0.14701617388755966 -0.14919674491911636 0.1941260537025931 0.3514714729217719 -0.19306740858744378 0.2820220381130509 -0.31164790905831125 -0.3765077186392677 0.03035120648779239 -0.14199764468996245 0.06459737164765905 -0.01966172550800488 -0.032139109129446064
94 -0.5383881135685592 0.042734553807881825 0.10394267006758802 0.21834600259753206 0.13060452175599493 0.17233198506925151 -0.08910304186302269 -0.17874858314405545 0.35633346052452025 0.022025428628873675 0.3506010799407993 0.11232863266746834 -0.4661995990139384 -0.0742943256256625 0.08917058859977049 0.0009166824090773794 -0.16829465397306673 0.059118285939274845 0.0384995547719477 -0.18993416288625561
95 -0.21710066269536624 -0.20567934367093949 -0.01930475383119923 -0.32149660937442176 -0.02724834109951399 -0.03974270328347834 -0.26429983478316005 -0.1110365509566593 -0.24610511374870256 0.02879257266832919 -0.45394538308859606 -0.285197208790487 0.19113848969720962 -0.36976404030708604 -0.2644633765652317 0.24280093395719787 -0.08174937473811615 -0.19578541578763847 0.009066151631850814 0.1620951763695122
96 -0.383089829496464 -0.1638168200256674 -0.04514537274008079 0.15900171397813836 -0.2638531127582613 0.1765347710181432 -0.285481487971606 -0.009506754019595751 0.02169316532733312 -0.08150534433822838 -0.039410082794037564 -0.019036829454318064 -0.2189307894044638 0.08437834759045583 -0.044995310164468026 -0.43141553835984264 0.13155003733707044 0.2413405884840279 0.5180540512109115 0.14338470237732084
97 0.09965342405866562 -0.20288080666880678 -0.28092612108541454 -0.01682224893006384 0.19620980281198883 0.10881591287289964 -0.7251293682181369 0.22081850608972078 -0.19851051716273305 -0.045932369378519966 -0.13311621760988415 0.11092618386445584 0.015971532465940772 0.07247549178229729 -0.1712654410333933 0.05548359617729132 -0.28158541268891596 -0.06432370861489325 0.0923306025826498 0.20828345707540616
98 0.1448804955024056 0.09431640426772514 0.21708068577774656 0.28949745892891754 -0.15983290260721428 0.03945856483635024 0.26795974064880795 -0.10572981131648246 -0.14889536347986526 -0.028316636588791456 0.09638003587859859 0.45542710565547156 -0.26906674745510645 -0.3328715507596865 0.09947253650806646 -0.37545781194270106 -0.22360577448454913 -0.17608100224532497 -0.19809617563513954 -0.1873817242493549
99 -0.2704159102740635 -0.1452981284118756 -0.5390495791777954 0.13009567557419932 0.09460306200285956 0.2642587821706401 -0.11558544847097704 0.0687823321013371 -0.2696381957758007 -0.023069303142745173 0.05126103675463296 -0.11291982281187618 0.1462112131910562 0.4252405011459441 0.07712241582400016 -0.2628191135931873 -0.10064733769775583 -0.1644659330612713 0.13195313997044325 -0.284527301466494
100 0.2667287851126384 -0.1787367632937508 0.09182528206700984 0.5373549362416861 0.013309125216249315 -0.05506275706838006 0.1074633194288702 -0.4016662751603164 -0.24036345089263197 0.19759037879584265 -0.32248939462045967 0.13084434236498957 0.24550646345776175 -0.1848738487663212 -0.1599161180940816 0.26865428934427593 -0.0453900897567015 -0.10390801260456344 0.023702664208453256 -0.008849300990698456
101 0.1772485875583501 0.15516826375124707 0.004517083615299671 0.005640035438378646 0.04823620517883109 0.4083600135851778 0.2857984459335366 0.19157529732313144 -0.2875452574775514 0.08020836142950098 -0.5861904359906427 0.21031626750943358 -0.13376072470586672 -0.14369510151190057 -0.08439245169147153 0.012699232464208648 0.02126948958149556 0.176507291981333 0.19398355263938769 -0.25487015228088417
102 -0.11586409506993596 0.376030988145392 0.06940849481787967 -0.436264630010273 0.11720396071426818 0.16203999009070105 0.23132862891429246 0.22913179969285455 0.018016161594178053 -0.21817786745929527 -0.24575096588846637 -0.3138566352843127 -0.03532024298766958 0.3159744833678548 0.058077294953321104 -0.0952029667677776 -0.04028802296877566 -0.1604692380110133 0.25893289209496523 -0.2987546710225354
103 -0.2456370008330062 -0.0975808383228898 0.2979850635904281 -0.26066737014140756 -0.5260837418104134 -0.09816995256865378 0.010182538946793319 -0.23556155357445238 0.10087965759674912 -0.15731163122212313 0.3763824201328381 0.12072132472908519 0.28581497098804465 0.11672588249245082 0.30491054985474175 -0.017585485404416127 -0.18538302100999635 0.12467564823149191 0.026233733309312852 -0.032380572499624
104 0.202649407337002 0.287341257021798 0.32517749363660703 -0.16897909316143353 0.06522346167833327 -0.45971007294821054 -0.26975781885640093 -0.2485881597346794 0.3793213577901285 -0.2723033130997978 -0.12186187672813847 0.1896178320158166 -0.10952431509289969 -0.14099379047504476 0.04879595836694011 -0.09046545208203487 0.007181973836125303 -0.06989984367658282 0.17451997739823383 0.2127143440270459
105 -0.4313409325429232 0.04289482513744598 -0.34373254367640926 0.057652289240645374 0.05287796350809426 0.16132392876624974 -0.25967263838614035 -0.3894781958546947 -0.004683235584939137 0.01604877166044722 -0.15019774031377173 0.04557395833176151 0.15541768898093725 0.3277148720932335 0.3896815121390389 -0.04935263388510825 -0.07405672831085569 -0.09128456350171262 -0.30464867337565565 0.15906434107775222
106 -0.21265197116655188 -0.061313504435472746 -0.34586382752770445 0.2612683554563439 0.09640356993676594 0.05700535747083926 -0.04449839069743198 -0.12848451496958013 0.27973973286021314 0.4515417898161181 -0.013022903592495354 -0.3283257438208727 0.16138445525409542 0.09396063378416039 -0.32257543495341473 0.34364402744501354 -0.15602628141686342 0.20362879545815935 0.005712870881932293 0.13831983704360892
107 -0.16992883098817893 -0.27754337749217267 -0.045693774491757676 0.35553512814609234 -0.06866635181222715 -0.12227153337885847 -0.007218028425245319 -0.12021803540896571 0.024713325486889256 0.13498068873924138 -0.2510295651945331 0.02156378058756511 -0.16983224311005085 -0.4667394297094141 -0.10818566793322082 0.34905109593270917 0.06041321997000108 0.20671743209518836 -0.41561267653396056 0.22310094344863993
108 -0.21750507685467005 -0.05095560506733359 0.05368666701406368 0.19591428210156253 0.3270952826891396 0.22978611357300008 -0.22883897684051316 -0.021744359828590673 -0.26939931327013383 -0.11695698229328953 0.30434705644722637 0.41520087597930716 -0.13701230841701215 -0.1204989586332428 0.2796962786273516 -0.0906328256278014 -0.36504993636947536 -0.06147558290988329 0.11386841525705703 -0.274189864877424
109 -0.33013432559046335 -0.07992818745419915 0.19518810103794387 0.30536358346392195 0.15453601628331 -0.0754203584348559 -0.08594554693615855 -0.01704385001305633 -0.14233314678761896 -0.0577369917023933 0.389197773333829 -0.17646918809212594 0.09529836616787862 -0.2204996174183561 -0.17580266109991707 0.09655666295682866 0.5254025627808839 -0.13607011589852908 0.338205545700909 -0.0542647762610269
110 -0.00911823507512045 0.16868369359489804 -0.166056997724121 -0.12678252024059902 -0.46523126552003735 0.13273104040041936 0.20588963243593572 0.08774992701556458 0.08263457173643414 0.19233412049568482 0.3533159101178331 9.083513945171732e-05 -0.1439871355906843 0.008841658735886111 0.03784879331821465 0.25618560043110566 -0.07750059154611239 0.26720183179812634 -0.551308344105828 -0.07612131264044783
111 0.0292064168391454 -0.4573750570820447 0.025853119646806682 -0.10925730480851907 -0.2744970694763849 0.048388292214061344 -0.1358136272819084 0.07933678020135926 -0.17417868102725048 -0.060399912564109454 0.5077758786730802 -0.12270852828051067 0.3622808473413988 0.2351525150683713 -0.03485632393092725 0.30121735671376454 0.05294189342633786 -0.07183003178749585 -0.15274000788015074 -0.24136438125228646
112 -0.11705606974829157 -0.0037473049126303926 -0.017506739979792862 0.2657538255790563 -0.5224216460155479 0.0639519459696774 -0.35525058984919544 0.06244391939085893 0.015854321661813383 -0.18155658739965153 0.4230710534318164 0.06379366981935364 -0.012752761910236665 -0.03628875182918527 -0.19013423528283396 -0.20415751005556518 -0.22422981922409574 0.26889283459762614 -0.29260426840488474 0.06672675305584418
113 0.1636833831620109 0.016377336320400553 -0.3170809240531932 -0.38106482325566027 0.5557993763979288 0.1568668206376849 -0.15337251989923462 -0.02855616578241396 0.19470629942091863 -0.17202985033215462 0.046996138415917425 0.11281841322169295 -0.19141495737384528 -0.3020284625279935 -0.2210368656086621 -0.052181893460552436 -0.24393143591331423 -0.13794245449646803 -0.12026592205374044 -0.1202202489604013
114 0.40101214561696463 -0.05589827231467986 0.3846718449721158 -0.430218290865565 -0.13535439884456618 0.03565623135816553 0.17188272539235533 0.1652906994734775 -0.10865251881339429 0.012568945391205944 0.1988633051483924 -0.3189693555375826 -0.21123519438192823 0.04188916041075649 0.16884443428438592 0.38828590187896894 -0.08666581396463881 0.16675798363771954 -0.07708910599774593 0.07990600650161706
115 -0.38275347630639694 -0.18938726282677437 -0.08775858268941279 0.050439208947833686 0.3005742116794105 0.1299298937298552 -0.1359219380183253 -0.03423689476599474 -0.18743918418336886 0.12326859726616966 0.338345919981129 -0.18757311483534592 0.3209360461748932 -0.15260514573321263 -0.1890261710996275 -0.09008053758624474 -0.38983384627423695 0.213251328651455 0.2340099870661869 -0.24120914418039097
116 0.13439432808611843 0.08766391186746633 -0.17702003802109223 -0.10884238072107517 0.18893570292044384 -0.23163427063163644 0.1419793731362059 0.0189529782716263 0.37226684032977087 0.2530878649634091 -0.612638250510243 0.3275404806325324 0.08106984333221447 -0.061599790135848737 -0.26144361779494296 0.14484174190457663 0.05516718458253376 0.038269996837877636 -0.10967044167754629 -0.14043914556404072
117 0.07081613845309197 -0.38311787239887546 0.028931558343835564 -0.048041527093066465 -0.016397193211720694 0.5116590044083615 0.05363555598678863 0.04421279523409988 -0.4902333269394282 -0.1335042039125219 -0.03353970492393403 -0.21477020766688293 0.2253324922982886 -0.07603184671257107 0.044033302012600625 -0.2783400357661757 -0.19056208317408835 0.2605045255011818 0.11424993466881685 0.13987477434262385
118 -0.1470069176991186 -0.39725709511475604 0.2970898073859052 -0.11936360430894521 -0.08091542261983273 -0.21969640795908368 -0.04027519103543593 -0.33813751012278187 0.1676030357596542 -0.012237887651095448 0.29837338200156777 0.20353102540982212 0.25708325145849575 0.11340256851448868 0.26289014167376623 0.08143886409471206 0.2996816984900313 0.04365128086197271 0.34996184303261646 -0.14041849365153106
119 0.14832978838253233 -0.03651675673949937 -0.05129957837577814 0.3988668620030082 -0.10842465126968112 -0.004757093635917144 -0.0909795756893238 0.34671046333526123 0.14706546385270072 -0.11703389338687004 0.14305921037638583 -0.037861157480287115 -0.0026983507720090695 -0.2227459151060074 -0.31534672110058903 0.05159331531756586 0.036883101767758886 0.49459155146826206 -0.21716434329264134 0.41542724226358735
120 -0.36862203687142087 -0.30182190075316 -0.06318223887399492 -0.27531447732712017 0.06390941634075663 0.4261716409314339 -0.0726016119519846 -0.05913767412668879 -0.2317701303426706 -0.18836419580286273 0.052830876640804915 -0.44023907673640106 0.2817208424912624 -0.08260876874027553 -0.16800630489777832 0.2738467298661692 -0.1362353177849838 0.029650186697121224 0.022309062139189345 -0.06008713364161124
121 0.28500304926933084 0.012369778924971014 0.07670354361092739 0.3018581304535193 -0.0028013385485988816 -0.17767302744534375 0.08375374935683991 -0.1465049298671334 0.2407929654661493 -0.022079399619856607 -0.41517252522355846 0.06940605591249535 -0.238944958627689 -0.1549292572016083 -0.18824956761922462 0.46784096570754724 -0.3474459482146333 0.11534059434169076 -0.15068790018720468 -0.1837678536297085
122 0.5399573385549521 -0.0019547407800509548 0.2749841772987963 -0.04691331474418773 -0.17966833854520045 -0.21235889313162165 -0.24583259059064475 0.08083271214608773 -0.041525373385097375 0.2977370594358088 0.09203681842843194 0.30127735498237485 -0.22828378163494822 0.09550159333265394 -0.11267740293377596 0.22339300393655967 0.39400669573531316 -0.008438424476301937 -0.11822490744361311 -0.059546910957467114
123 -0.3957305220698713 0.08004273836935978 0.18589514890326797 0.04940858980095511 0.017171019121521438 -0.010206869955365612 -0.007559004357623135 0.2892183584957619 0.3763344931529958 0.14706143866233304 0.29425676678482265 -0.3006113921250372 0.2495864566218075 0.28088625947596707 -0.2347686147084411 -0.21430862864855116 0.029487018131046344 0.24572067772929906 0.2597351732004744 -0.06880733257096389
124 -0.06333943549839065 -0.21659414490314122 0.32499595054958014 0.26324211274909054 0.12794703061469198 -0.20609066345167026 -0.3464263216254831 -0.21511936687407218 0.22880116238662923 -0.3897366377985325 -0.1906390891007882 0.021797508099058074 -0.10240735825230296 0.03005886138996475 0.03074725438576241 -0.24635501442012026 0.00884655580872739 0.04822940373035028 0.48156308723791735 -0.02505076188474238
125 -0.22792360145081894 -0.26841113390741583 0.6896238223837153 -0.0785743712642692 -0.12340952672779242 -0.027594955696690616 -0.07009360813919441 0.15332614752257065 -0.04191204119660723 -0.049967244790333265 -0.20005432238448628 0.12873871103702766 0.01459469624486414 0.16638829802345267 0.4082368219075937 0.07164361534325339 0.06825747477838769 0.2756919376613747 0.004523887736009915 -0.09281914111489663
126 0.011414203177220517 0.1780457533463256 -0.2928717083762702 0.5820112177297525 -0.19885378206927665 -0.21182997649507634 -0.1333825261151414 0.2139012706772925 0.139500079729474 0.0634732864101588 0.029668796368146174 0.18310680701002557 0.22130154991518383 0.13668053260726434 -0.10599297893874483 -0.24052415918111814 -0.001693585097850639 -0.12385483933929584 0.2348056799725615 0.3613621757487898
127 0.15775093996433792 0.18858361991934475 -0.4088925829295009 0.106976166876401 -0.009210852863160705 -0.10267973590456433 0.08013175709186494 0.30709853139352544 -0.23428523629189238 0.5454413335633498 -0.1376399779979311 0.33595804205516 0.08264772948262575 0.10540152744435922 0.1252784206119478 -0.20712941838144416 -0.05188615215109603 -0.2414398491757847 0.1522953760149227 0.0680456757845179
128 0.22584681653115418 -0.1737086416571602 0.11551509125306322 0.006875090903219375 -0.7659050758515512 0.14290270007171432 0.25274098395473643 0.12137957967432053 -0.1697563901027662 -0.05624030793084661 -0.010783760720976674 -0.075752478277509 -0.18777792197160026 -0.06381583136164634 -0.20087046882547727 0.036148255800620505 0.15133078091939411 0.034513075894493435 -0.23092990341468522 -0.1534287523029055
129 -0.09553540826146441 -0.1703973147402792 -0.3342404023600706 0.19996020409147833 0.11228586900181071 0.1975041668093124 0.46111840830972606 0.1592162437143801 -0.055365346505021486 0.014162716866108154 0.02761107965617633 0.0874877081646022 0.13677900295069656 0.04070922557534611 0.3934860150076063 0.3519974482255406 -0.38571948871139683 -0.03204309649377788 0.03768372729506518 0.24193618030467687
130 -0.3833672415471541 -0.09686217823048236 -0.3163484349633043 -0.22959383354609567 0.17475079509836575 0.27031497984568603 -0.30836721158285596 0.31068994323622495 -0.16323755150662536 0.3314181793368828 0.2235501323776434 0.11632733512454856 -0.24389136524400407 0.1643852937707759 0.09933600229283104 0.21388712090276765 0.025236746886648436 -0.09983390813135541 -0.029721715455646905 -0.20501674566363673
131 0.23959798751598316 0.019232777454418547 -0.342012071220497 -0.08838493404428563 0.0186564307667906 -0.030473954751619885 0.12807559442879865 0.1274189103342897 -0.08680304123375356 0.406894331689539 0.02162799477980098 0.3913132880745015 -0.24498013269646104 -0.03747381520338145 0.31063067985708587 0.04742325051580183 -0.4402789888928089 0.06678961672218664 -0.300974521503447 -0.08820085599929608
132 -0.21799621092312527 0.11185874207547715 -0.0029140263166739303 -0.012498934428363473 -0.030895473114321052 0.25696729480670344 -0.0970639759599601 0.2291564486456103 0.01592367444589414 -0.28874480611256353 -0.056030768969286 -0.13276876384856978 -0.08406615960238206 0.2232966975627727 0.048064903766316475 -0.3392588444936433 -0.09292197839955539 0.43185927275964836 -0.4604776832571071 -0.35351602451544406
133 0.16840007468222745 -0.007081171711784167 -0.6008333604103501 0.1176351952443448 0.15155728686550057 0.16557951594144965 0.03798972570927941 0.14871833376558802 0.12233185412029991 -0.10039994743582706 0.06622821214049207 -0.1969166343246242 -0.13582784716395524 0.22602281625506795 -0.16438356404196 -0.30047612421070213 0.16235419419713182 -0.4595765524406102 -0.1358419261428589 0.10831678652202918
134 0.21576614551757095 0.02180211746551151 0.4045764862256595 -0.43160975033509935 -0.17931478277259258 0.2510836270004009 -0.25024557267407554 -0.1247468983441591 -0.10019500739428727 0.03550446943186136 -0.3150969261878138 -0.3874743991445986 0.055048736373089616 0.2527508841703709 -0.036611990260915904 0.09955359529502666 0.07545837618809788 0.0586061232310841 -0.1916440174393921 0.21184007002058894
135 0.11786225690948135 -0.2974162364505642 -0.04069455936501345 0.37768596940664706 0.040753391891708735 0.14497972046482502 0.15532163079455852 0.37271348936870324 -0.23233187052176726 0.06319694006543704 0.5034653286235091 -0.14136408613972903 0.29446656310885966 0.02431276347046906 -0.02129428358738339 0.23852035981484856 -0.14908780911517136 0.18018317139397338 0.1404691160210032 0.1308599372413167
136 -0.04935078032139694 -0.1753599651605351 0.060689036467940355 -0.4335645917293579 -0.027991467487733606 -0.02446728491967354 0.34281829978545814 -0.05071166431184904 0.09514137034267016 0.028846705497869662 0.002410590180811173 -0.43812112817705273 -0.015594724212448327 -0.2557038440578071 -0.2812468502120997 0.06727521927313472 0.17952857230325858 0.09039410970519832 -0.38716301781600376 -0.3350872823945935
137 -0.15630909041316002 -0.16785431338344314 0.02023630775031068 0.004006700812330185 -0.001517864850497912 0.04138942137282014 0.0575725884288876 -0.2344887835175143 0.21981455480934553 0.18868745795794026 -0.07398992736663323 -0.4131899523430768 -0.1077326278092949 0.1689065576953338 0.038020859622297946 0.24004657645594288 0.5882000257001699 -0.15248341183500125 -0.16390707503311347 0.3626712222770102
138 0.23129314993788924 0.1551259013902141 -0.24861021788247753 0.05291154716858503 -0.10392486534097058 0.18061720753954785 0.011483884119645935 0.13659766459985276 -0.12960403355807235 -0.34889493945880196 0.039868626063025464 -0.1549199825412287 -0.15259630604934493 0.28889326933412984 -0.04763730405594974 -0.3036633724461019 -0.052133026403774124 -0.6338232012734866 0.08366928217659951 -0.13721714415163502
139 0.31103239118975173 0.009987735713813575 -0.22033944817005688 0.30083677996129427 -0.4130571743447122 0.12982211826250398 -0.24299595129376964 0.048773060448831555 -0.06682600100600558 -0.4029429255171219 -0.19729333932753165 -0.05569817782341382 -0.11643904083414669 0.4698842001659166 0.07349986710338623 0.10571673972220842 0.08815880499309128 0.06564500933420979 0.20816952897082633 -0.0034626182011022522
140 0.43026123712311715 0.07867398541806664 0.11056745386473045 0.1263505132422754 -0.2818716100812251 -0.1306610479624865 0.06919877539185629 0.46235674320135034 -0.2313284761379723 0.1662499563494807 0.3229678023351927 0.12758362205201398 -0.08074055827473929 0.23107726508537782 -0.020440251013029265 0.2022419402238734 0.2815178358474955 -0.208115561667497 0.10514204600446962 -0.16975790777512534
141 -0.06177119850867714 0.17722719829095088 0.02442704556700011 0.18449375526321035 -0.4311331064195161 0.10413271167120561 -0.31951566701683465 -0.31673318375595394 -0.22291202740530955 -0.08911055690708722 -0.21477804399111855 0.20278366612865287 0.07854354847426617 -0.011258572142035702 0.005655072156162807 0.49098158394119684 -0.21719880673454361 0.10822649649818271 -0.17591628630022235 0.2211422671273022
142 0.19769259199784886 0.07230333381493374 -0.15832260999827547 0.16829458618615553 0.042705228408655 0.014479715304913418 -0.16576929210540317 -0.3038578608874515 -0.5102665724209405 0.17077493945981112 -0.23646608921127943 0.2159648848431365 -0.06958166279749646 -0.16579218822773684 0.2949760621263818 0.1662661342570086 0.027796529896820736 -0.05644988162735719 -0.3599843694259837 0.3283797581291917
143 -0.2450549925383392 0.12666634012748842 -0.41948924697568646 -0.009513204625485583 0.18995003090289958 0.0076428972341099286 -0.29820452182332124 -0.10190423705155427 0.5457945332655895 -0.018134884554146143 -0.16083808392708795 -0.060292158657482074 -0.1189759114941243 0.22461074910234602 -0.2610765960350649 -0.02694485855763745 0.2006997831676808 -0.19903032385051708 -0.24436856384130118 -0.10754503173866846
144 0.05472908651915884 0.06768960724233927 0.014310772216111376 -0.414967868066508 0.13806377028700853 -0.09984566748227042 0.05236600469202167 0.023015202120783916 0.35255921552162256 0.014576933123700904 -0.2792935358352841 -0.24752600000224437 -0.2968150720483063 -0.010454672371886386 -0.35155299408082824 0.08046203242516974 0.3921276788220537 0.1692823241039337 -0.09602436316109401 -0.33766718321596784
145 0.3926202491872154 0.21619802846399028 -0.3788224223127465 0.07463120164810412 0.034288215133112115 -0.34144969832392197 0.04787887702892145 0.204495616656669 0.030904557684219625 0.3109897304711882 -0.31173673652729994 -0.21092371856852457 -0.12344505523198675 -0.087945580362512 -0.3572281184730551 -0.013066145333122187 -0.30241152816671757 0.035143620437892965 -0.013762544341521766 -0.07201268771327793
146 -0.07870128564853444 -0.05157296504073876 -0.32909257948518816 0.17279046124799452 0.08120448748559578 -0.523049372244647 -0.21156981667472816 -0.3523482029477659 0.003312166846860411 -0.1873085244328656 0.1582600550832019 -0.15770835679672662 0.20841547255170376 -0.15074024048513357 -0.027363999371793787 0.09102861569317412 -0.2420922454367603 -0.1815552251201853 0.38404273802914046 -0.06807195121215623
147 0.15650595279769644 -0.13144002354828271 -0.19795730453272653 -0.3186128899294476 0.5973970088911499 0.2390221302150937 -0.12217151586621648 0.3117902326831491 0.1168969110650916 -0.07623140546644863 -0.21006818848871445 0.2945071474955645 -0.0713928372012389 0.05386477470976728 0.10161366733344163 0.18430649804004406 0.07072680419755538 -0.22778569136581306 0.132805534089855 0.11923353306231603
148 -0.16689914017018717 0.3768212163167816 -0.2918433497789618 0.35351411711672065 0.3019385386069845 -0.16384921573334627 -0.12968552614084305 -0.2303876889778278 0.3503819677121431 0.017663966840735665 -0.10201403381586224 0.11821441881218163 -0.004400621631786499 -0.20607031990598124 -0.33582924633770184 -0.2876834410464198 0.04743786171909046 0.0631960341627725 -0.20080889769546592 -0.006219525704435346
149 -0.1499434741727226 -0.1237507925170877 -0.40869901704672995 0.10119621630307234 -0.19207048846718328 0.24823752176790242 -0.1342425505868321 0.10554341039154408 -0.30968011677824775 -0.5595652794944278 -0.048255531099849536 -0.2467562651163668 -0.30765405263241014 -0.08453597443109422 0.02839853583481706 -0.07621063608785802 -0.15605619159668743 -0.2072267326492455 -0.08457194593240078 0.04648262104776616
150 0.2762876510519445 -0.009753216081365895 0.0938051045136119 0.152930141102381 -0.25804006601299445 -0.14469069992609676 -0.2993427301816674 -0.08553752433361374 0.30525837231274644 -0.036879731151487016 0.16730045324637255 -0.213631438013515 -0.17151784798113995 0.01807665093828111 -0.3008695568415638 -0.1563846511252182 -0.1094240481498319 0.6173416603637307 -0.022881853172045673 0.020928045682582518
151 -0.1474022494552359 -0.1782739614165713 0.30263090700677636 -0.26484193464993666 -0.10666478926258412 -0.20805365072366783 0.2885482993780659 -0.1531158748756025 -0.07611988459444734 0.37623832246529704 0.47322514658794645 -0.2749659578971555 -0.13927501026853914 -0.21399579658952866 0.05759573626161466 -0.2402396556655083 0.19702574751799237 -0.06934722571200624 -0.08082813904730911 0.010614352854954844
152 -0.326494400604141 -0.30585434318297083 0.02399741680163703 -0.1477445816814153 -0.2015546834826391 0.02422871775196529 0.12639597610574207 -0.08538753691682475 -0.2502187872573187 0.06987616252283567 0.3397188569797452 -0.39877188134043945 -0.03762840404215209 -0.10034538063788111 0.1951899306198129 -0.48699079587805005 -0.19280792770389882 0.1679342592358674 -0.0066527084723536235 -0.13742882536173376
153 0.07580494281753011 -0.22120138587725868 0.09511874271267652 -0.08278476603114603 0.26231917751976114 -0.015117579061874307 0.33766559595999507 -0.12655142367595207 0.13005957454977807 -0.21852757396485095 -0.3799318536424275 0.1875163789988954 -0.2018814310820963 -0.07832358609735258 0.0017391676971230232 -0.09116327043180332 0.30886686010535186 -0.03752039282323658 0.12307099634228462 -0.5648110688761513
154 -0.1448905974053501 0.18767502344455284 -0.01188002676586324 0.13588531726076566 -0.14884031199881606 -0.11001998760676707 -0.3523585640008561 -0.15103267599825612 -0.4888525585569742 -0.06698677538206671 -0.2496090886225109 0.22045838257335457 0.21099170646400078 0.14982584822476608 0.4063887799846134 -0.2208578121085019 -0.05498176786122284 -0.26220495991649245 -0.09994839560945497 0.1640840955113575
155 0.18280743860303428 -0.027593590007084074 -0.04411519273427936 0.0173696867168455 -0.16182065194071715 0.37224602550303504 0.34005111505890323 -0.05198457196044446 -0.14677842693654303 -0.19201715971914046 -0.1463160418288283 0.15247411152115423 0.26871609313282785 0.2875840413236002 -0.20950873245351967 -0.08606200735945405 0.519538759209749 -0.043697837301460506 -0.23485542397715228 -0.21026197397889135
156 0.07721611465281232 0.27304845726313315 0.03519036282169405 0.008897952531593836 -0.43894845341598243 0.08540366432742705 0.2832791081222911 0.4983615948677784 -0.08555389937223748 0.19401263293045343 0.015459445542360598 -0.25623978514880746 -0.2585992091528501 0.04216000268654912 -0.1264250874078463 -0.19603856564446745 -0.3628609283902127 0.00380567451730237 -0.08013224082781174 0.1325008863279958
157 -0.25994475366108544 0.2625883992220259 0.14801741278085126 -0.22789453248768718 -0.20363357037935456 0.08127568099484897 0.08036518957501701 0.057643430762623696 -0.015541122112119114 0.057707749673738006 0.4371757157016993 -0.018726091065111423 -0.2275969732333326 0.2844811061552003 0.5442970597993727 0.07380749894223786 -0.016924529976858834 -0.007386946775109078 -0.11406310785890193 -0.2982348752258343
158 -0.03643650276042841 -0.1907295505059031 -0.11744058110275525 -0.19402588801382634 0.0901405012628264 -0.26469424857583324 -0.10712924012292654 0.047737203366243854 0.2405587270221751 0.07888727516869755 0.20774187371471747 -0.539330337151562 -0.32878248876390237 0.2596348186853688 0.2513492338177195 -0.00815038769136455 0.13391140692400436 -0.007106718581645241 0.10898514495510084 0.3900962856943233
159 0.15202143206146573 0.24535298524825658 -0.00802338541909047 -0.06700867594450997 0.32820232678814454 0.18500474199816744 0.0422036575455329 0.12787888302510228 -0.20748370425423665 0.15941108555606864 0.029010406809886397 0.6502108863002579 0.2259206989624175 -0.33779333315908344 -0.008999918085733059 -0.03755574444736113 -0.20773506029395794 0.09501867354827502 0.07097285221720155 0.19006954861118014
160 0.04690771535278346 0.25158397417051354 0.21225772259690168 -0.2725939652632141 0.12820344556868485 -0.36406456248074803 0.07331876782058205 0.3486672100621336 0.04611610026487215 0.35567236788868656 -0.1852548107418243 0.25863069250434717 -0.049178409324629906 -0.3178957722538894 0.1886657727924361 -0.28870848275027294 -0.01689071033023083 0.13004893661152275 -0.04341574669454504 0.2605290404302726
161 -0.20224608077855735 -0.311331041168163 0.31824997493304624 0.07266043427813883 -0.19471498338877746 -0.14550522063478663 -0.35313136206869833 -0.05857773409026303 0.22833887154090812 -0.4235258302068432 0.3735532750589013 -0.16412133813051263 -0.10862305090400776 0.25587444139247584 0.22489744313873364 -0.0643387450185535 -0.008788161101069092 0.01932044553131011 0.1934850104791169 -0.02283618951732822
162 0.031991493381478046 -0.13807334365165047 -0.4444465517838248 0.008084271648976028 0.03955484100763654 -0.06629816915711347 -0.21535302912295018 -0.022741551899150923 -0.1648002774612742 0.6086589142432394 -0.24625729670644111 -0.024029373944663143 -0.30658567090049904 -0.17200250731309197 -0.05280639432420605 0.1887637732984312 -0.16876320722293703 -0.1483701523910757 -0.1950398868942328 0.14170377137730084
163 0.24081038633090462 -0.5218276773695818 -0.3893086185783498 -0.23483195418612013 0.11679982786410244 -0.16479363444548314 -0.03955590672511788 0.1448213114631341 -0.32073574284660056 -0.07567408901814143 -0.03183152524729346 -0.1730283665164407 0.055628687453010355 -0.19396794823849814 -0.1463360569243012 0.10275068374480995 -0.03236531242116744 -0.3194047096377619 0.2673530390364533 0.1134786826005297
164 0.2577205050007594 -0.41503529161637365 0.11475069004100656 -0.24726884723259707 -0.41915355180439523 -0.05909044898231067 0.07847382196970433 -0.057296412090277075 -0.18724750285991104 -0.10208841090543258 -0.4814181276258882 0.2271392388797978 -0.05263569812785734 0.04747840451160683 0.2718266849895626 0.03227176049457388 0.04097499748582935 -0.18704083473485653 0.2266637970101488 0.03948324666722026
165 -0.367134316102458 0.05030947079014746 -0.019867565026384162 -0.005911885320004256 -0.23845820559734238 0.10326788744200453 -0.015836809614085522 -0.32005674920781296 0.42580190984797556 -0.14125288516579723 0.3246167979467386 0.3854178917575374 -0.02992491686482246 -0.015001599632901897 0.05508638134774326 -0.03877367435989896 0.11254893263388807 -0.14653884696396402 -0.44135227704060614 0.04758325906545132
166 -0.484886205850764 -0.2999137642663047 -0.052627147343506125 -0.094318231711521 -0.09649979762396665 0.08579563546734183 0.0692532914721293 -0.23787973722721617 -0.14227081731542057 0.0228848416542259 -0.005376959543696545 0.2545068912492008 -0.236990838229767 -0.25942555631489295 0.09698394733138097 0.03048844494418885 0.30404500968358117 -0.282717378957925 0.09620108131495185 -0.4292079577696076
167 -0.24701877819172985 0.09903544043660963 -0.18148262494136388 -0.5929522604632473 0.14502868796644205 0.0332395908512823 0.21410753235983976 0.13762007335924836 -0.1886655859206009 0.21563080745551214 -0.03887015861210128 0.06112405573712838 0.004904563832661102 -0.16958743444621394 0.33281973862797887 0.08149053178283495 -0.013264066844571874 -0.2702010099857597 -0.3867864351330972 0.037490376846269005
168 0.058022602420115005 0.41682744356148244 0.2320301188417747 0.09234306084499827 -0.11875884174039847 -0.32789652618624016 -0.0822277085811783 0.017265183446259737 0.16925692065696266 -0.09457044628745409 -0.2121927196249644 0.5422682515857981 0.15145213241605052 0.029352678607094923 0.015199398640109683 0.10500840074969688 0.1928808454277468 0.2456282571318111 0.349587169026039 0.019159443659631147
169 -0.3438799785101348 -0.34422240164803586 -0.3512787751189735 -0.4425551877247319 -0.22727774087139285 0.04363483214299717 -0.03354490684522425 -0.19995481056957393 0.3725850848816216 0.06700048569517 -0.06249181660774897 0.31536174211787993 0.18609724588849075 0.003936930486849838 0.04912958275186287 -0.006707161364227386 0.16841572223574552 0.09462010421379773 -0.14084473446360177 -0.09171670438802379
170 0.25095798078087533 0.13062205543882743 0.04802363751637914 -0.13932770167369998 0.17362951823919898 -0.14757868549705824 0.344934429755284 0.18807629994575797 0.10297756396298714 0.3807376791073069 -0.1038849090610482 -0.3549749596556642 -0.2757506686057459 0.16825388994066975 -0.10373182222382799 0.15832443535016377 0.2082511281755473 0.2462643271306268 -0.2772313930412551 -0.28026573895958445
171 -0.14726878930710513 0.14053999570421166 0.5246247935718006 -0.3742755289590054 -0.07582016547339096 -0.116221533264558 -0.055272471839890085 -0.08378800623777019 0.15285993768950593 -0.23721328741344289 0.05362071779047382 -0.02614990655683489 -0.23678623818855848 -0.4878267773903069 -0.11329194489428075 -0.29276713319502423 0.17870021321744936 -0.03970433220237569 -0.022846272735747304 0.06401170386100768
172 -0.04005667055284271 0.277488995404186 -0.1010791026703643 -0.29180117146713175 -0.5204289823883698 -0.4402529426989042 0.07256775855507015 -0.2502023859580073 0.06588663097091647 0.06579531298000262 -0.05062273074512433 -0.17764965201091193 -0.04695244136877504 -0.17015767793507636 0.11960785514688833 0.05062880241160903 -0.32080360325307056 0.1197572974442844 0.28767088911415656 0.051605473563336744
173 0.18213338047585229 -0.2810153706951108 0.036409713996967324 0.13033506053994096 0.12698939783484378 0.1750620062860347 -0.08647603498802102 -0.17680248133650217 -0.4744007475034376 -0.0017546430399119244 0.029182056199618955 -0.34269510607657316 0.27421208488396326 -0.24692917445692938 -0.1398320173685716 0.4077159126020931 -0.012601283269208691 0.13144005470716033 0.17979621609053303 0.2626224419281357
174 0.2786657129607049 0.06446640221779723 0.1420181410118802 -0.3579175291042034 -0.09135238929725652 -0.19633283378734626 0.33176120709276946 0.05702336343385228 0.383702774059387 0.2737545707683855 0.15476543872799134 0.26947411644826685 -0.22697617816829885 -0.08704213154100822 0.04719119139720567 -0.1309852873492291 -0.32168050694778777 -0.18521812011022593 -0.25870453219645717 0.08819096694208463
175 -0.15401594396066498 0.3033446037802593 -0.07084807705382758 -0.11872264899408302 0.21568408002006312 0.07915140342491654 0.35616678497404475 0.42507552093378953 0.017404124195173582 0.22384839211203567 -0.286394553097561 -0.3029418302774858 0.3351933838471512 -0.051284269120913634 -0.2703503596123178 -0.1255244474587158 0.023022479438846832 -0.076962268984764 -0.029125557249929428 0.2635896755470651
176 0.2788952299078057 0.0184861320732063 -0.3863806178206132 0.28668899792302394 0.02919224534021534 -0.008255016449179673 -0.05450682166663028 0.47290601110396185 -0.011982987229832797 -0.1232504135686286 0.07053535488465873 0.2779392680703223 -0.29336801030495757 -0.09597246478895487 -0.06695755870867347 0.17081016856669645 -0.13052183974923823 0.41186326437860826 0.12222550473555349 -0.18644751922461647
177 -0.04207092387270204 -0.034320232549006305 -0.13621922221346064 -0.43624864176224765 -0.31442762308385425 0.12409459332241184 0.21310327732139117 -0.10910082828943081 0.12072688654897257 0.15798413206034934 0.01878754535733095 -0.22693580965869098 -0.07345521451863478 -0.07977905120903249 -0.400473615204501 -0.0021597731706594174 0.09470756710014859 0.11571624979469501 -0.3276284101517254 -0.4726226589758411
178 0.1259136383354553 -0.22740352050613857 -0.18589230665232062 -0.16428378994023807 0.24421719247545567 -0.2480273496701184 -0.2839553166232155 -0.1484241674677635 -0.19973926069682185 -0.1983116383256254 0.021270563470531557 -0.39557131087863423 -0.05765959462989413 0.017175466700119192 0.374955738190582 0.29260522047826354 0.13281923014378286 0.19327093011991064 0.1058292158075002 0.33895762479401537
179 0.32509984194560454 0.1412128317549984 0.059298200239980565 0.07593262972506436 -0.27624881147177965 0.28698118077035334 -0.199530787006537 -0.03446221675958421 -0.25583035336847787 0.19919239217690468 0.03248669711156472 -0.20445975825831147 0.18827723713947067 0.12391623279386918 -0.3478226074842285 0.5200104163076699 -0.22296421188774607 -0.09844143771268593 0.12165869374512625 -0.0320907727938429
180 -0.11937232602344715 -0.2142230162770787 -0.42102286159661306 0.24299912535133092 0.34227726799655744 0.298535024586844 -0.17213912106735244 0.13801653162872485 -0.1080523018075261 -0.2198426195380828 0.2603255936718607 -0.2040214442705944 0.029440036409621728 0.029152503673741652 -0.0980265571199806 -0.3567342024777734 -0.12010530562622075 0.14664081560862582 -0.22988784313673158 0.22766206028385746
181 0.46541638883207764 0.07803132114062981 0.37687955703728315 -0.26832405818489086 0.03616633480785408 -0.23008609040116917 0.034914213501468734 -0.18195924612071784 0.019592054014313097 -0.11418227817627649 -0.2711030959152806 0.01920610339821585 0.25065261387004467 0.19688393877722768 -0.06239178718435086 -0.286153600031854 0.273830775924187 0.021737692137104792 0.296405489175104 -0.1916273835628062
182 0.43866895564406666 -0.1699486484480663 -0.00664634456488738 0.29259972421245173 -0.051337455747379426 0.33864085889976747 0.12504496557082487 0.003714268389300966 -0.10918207444479065 -0.10374238849075704 0.0770950201096205 0.07918711456814141 -0.19972723368625678 0.3416021875670956 -0.010871710539025798 -0.15578870143981008 0.46487214647435676 -0.34604870351029227 -0.046609949209305036 -0.07853659804882346
183 -0.1409293200668609 0.15657011337825735 0.2561047668213054 0.1350773453879647 -0.003017275210459579 0.17339809267354597 0.296189089587172 -0.2608213891876953 0.3742962592153783 0.01047171364498834 -0.20746485249732516 0.1658786932113313 -0.10536516140432746 0.2961733688910514 0.31756933644048824 0.33140355154094847 0.1968377956478132 -0.2072433479014896 -0.2820446791261169 -0.06670427561589384
184 -0.09315545591374938 0.14731759695727692 -0.42214253123572465 0.23631589735374262 0.09271505994649794 -0.11286393821861662 -0.4511506826451983 0.20727660683798416 -0.018946853996234924 -0.06101772674834121 0.11596873065234467 0.016634226298024135 -0.18211013544089985 0.02621138502468091 -0.29076877776855886 0.15357476103790194 0.280274475466826 -0.027994017218660197 0.4777200513130329 0.019768408458684463
185 0.5545523848246442 -0.05928629691056048 0.09591695910879317 -0.29157180716081194 -0.005247144498614885 -0.276562517232981 0.15576240076252681 -0.04086676194399161 -0.0638624824700662 0.0379695352500323 -0.3106542653811656 0.3322242260034407 -0.07627108866142007 -0.23970565810690794 0.023516628998775976 -0.07939793009574408 0.23818166095355645 -0.04345654473606532 0.3698721587943343 -0.11974811024645782
186 -0.24832000289962192 -0.10467362019334087 0.0689411244641556 0.2700081336659071 -0.20208497837489817 0.11828065285983551 0.43599305933974164 0.23889375302210947 -0.039863220251220466 0.1627370958735087 -0.1326790311473112 -0.3061996977077359 0.11052639124431458 -0.07721051480841278 -0.1849764815806542 0.547868790296319 0.1380003677833662 0.17651035314792274 0.054409768513023565 0.05085018666516574
187 -0.01958828162105139 0.036929236508968684 0.31986424066478686 -0.6446148875525253 0.08875378012505726 -0.16511470562398253 0.03236021010486549 -0.24068293247437483 0.009401526723972892 -0.08830809876014255 -0.21612843452145955 -0.07017732780809462 -0.04244111718731327 -0.09356203756955801 0.34577682543113397 0.3198594155450947 0.04405395839461198 -0.26421465488450885 -0.05299570495410719 0.14066615979845834
188 -0.1717268014880163 0.3530444490353147 0.35147019085271486 -0.5448699067716858 0.03386801975960668 -0.02346580740538859 -0.018267391355013787 0.31350045779553376 0.09336744784475001 -0.008480411958632425 0.34125526723613847 -0.19502952574023288 0.04632619447535997 0.08601336725063267 0.24112751774143126 0.10337759190316652 0.023029397922818513 0.22564055824902673 -0.09481188482528442 0.15183190745377947
189 -0.05458699131347798 -0.10141018100033822 -0.22256899267068536 0.21405979029419928 0.04458162181359209 0.03358865196314243 -0.24622245947492102 -0.3271762901310229 -0.08132609262351131 -0.08203686859911176 -0.21235305721105915 -0.007506926702165853 0.3758259646384876 0.2952470608909478 -0.1818025311876319 -0.2918538872505256 0.24506262828613842 -0.5014147590029159 0.04050424544838364 -0.04835347088335823
190 -0.149660780669593 -0.06793968596367896 0.15884548337370757 -0.006199014045959415 0.1814885945984557 0.04835140551501683 0.1979249629377973 -0.060988623603304204 0.015392657953950041 -0.16795750506123022 -0.5065357208455834 0.16950663203265146 -0.25347026574200104 -0.3300532267073336 0.27408928466574195 -0.3605808936359463 -0.20020413368351697 -0.07140116517123647 -0.16685113405071247 0.32317639016169625
191 0.4085461703670802 0.34886169174073534 0.3774303997485788 0.13704410111522516 -0.026433748980002992 -0.21486521309340229 0.32033383897920864 -0.17408791635626714 0.08459141246934239 0.24877956278152386 0.006789076278878596 -0.06953928938202858 0.26254134403437973 0.3348071805039783 0.1670680877949394 0.07393195757051918 0.0988403031351816 -0.12623117707447443 0.17304361860163092 0.16243927022133411
192 0.27110963898146107 0.07143675949914115 -0.09085598480254693 -0.07870389498354545 0.4665942535887764 -0.3324818815470188 -0.2205447687140416 0.04258903827531226 0.3641631802535808 0.05505022224715564 0.2398412629232302 0.0015934277023238132 0.3270250813410801 0.06474403093242996 -0.19520139019582358 0.14871745178679985 0.16749245538197877 0.03753484386566744 -0.02590524611976601 0.3654804534673202
193 0.1936506962946917 0.31978559666731154 0.11080439364487456 0.26185023167017574 -0.22092133655454127 0.022003773620595912 0.2154952416370927 0.30028859626897597 0.32323944473256705 0.02850994594216308 0.28216739863947665 0.20621011260250668 0.1272657998630854 0.12977744591693866 0.08323662100677645 0.19671343278639705 -0.4091900213671665 0.06077324740205884 -0.14628851858545902 0.3079944876086412
194 0.076834986557783 -0.16700008341347036 -0.20835510833825707 -0.06795206806652401 0.32751644682313397 0.11304981608759945 -0.2954285802839907 -0.28409571551349205 -0.6566651943636183 -0.0736259393519239 -0.15437640852991705 -0.14144675105477805 0.03852589264169594 -0.19722710278714117 0.10386156152706079 -0.08210332841453019 -0.0033197588141832585 -0.2522712683667982 0.1579724569673397 0.05617144771876852
195 -0.018822650954346022 -0.054391009778160165 0.1968701781535831 -0.014084895455227115 -0.3392603197448067 -0.2093912956551935 0.034499552675297446 -0.0064194635534893 0.32698001056922293 0.04477262064731549 0.10480672070036466 0.067621447601424 -0.26142388662835253 0.12855055933588527 0.21016846029630845 0.08821283781548186 0.31436551527200907 -0.4992574135459007 -0.12734542148641428 0.41467972214528814
196 0.139427975557479 0.451506717055669 0.1560488212759872 0.13485308163965642 -0.14648053267801472 -0.3474831659489158 0.04441949781935005 0.014344258821224335 0.44282310011946957 0.17880124324595956 0.29755902878385654 0.18487872884047019 0.07153898347210763 0.01742986767320345 -0.1066988715005708 0.010296027890135926 -0.32427921600295945 0.03995995058172129 0.33148972076430744 0.07382304079475181
197 0.35141222586794196 -0.25579436070108263 0.4948545114789739 0.035427516179507554 -0.10766147500288244 0.2726840075616585 -0.21667621713686902 0.03166062764538133 0.08553842583346052 -0.08159417645587382 -0.24539455534338273 0.14660802081924706 0.081652022378378 0.187985216827075 -0.1217279459509923 0.001095724316429294 0.3382489689353795 0.3636752125630668 -0.06002223836531739 0.16810182008919858
198 0.26251361376202437 0.10448700704270034 -0.22687797325030204 -0.19337319980928108 0.32253570341348387 -0.40053335054532363 -0.08844341075331108 0.20709501845159586 0.1145615833663056 0.20267996366485933 0.1804209992610471 -0.20314808977176274 0.11478257430725866 0.10163939980487496 -0.07163171470197666 -0.17922272536233838 -0.13276186767831777 -0.3319802471135333 0.41102437452115437 0.1748594438421082
199 -0.14394991493995757 -0.13944262420640435 0.026909169885899253 -0.02161925016994429 0.4256815256879229 0.051693291603535106 0.43399920841146117 -0.07152161818976689 -0.16942927584662817 0.17467226269824365 0.11757259184441139 -0.11121052211872026 -0.011162371519424343 0.034439200065197385 0.41402003338455123 0.06029077223231057 -0.23750045331208933 -0.44784806579981434 0.14489514145089197 -0.20386310075522676
