200 20
174 0.5141786932945251 0.7253822088241577 0.1207892894744873 -0.33668169379234314 0.9377299547195435 0.6332384943962097 0.054553281515836716 0.9390856623649597 -0.06809578835964203 1.8971292972564697 -0.025721212849020958 3.4737563133239746 0.5033659338951111 -1.0973786115646362 0.5566125512123108 -0.5036689043045044 -0.5643885135650635 3.0444600582122803 1.2528241872787476 -0.7298173308372498
7 -1.41295325756073 0.582127034664154 -0.6994949579238892 0.42936593294143677 0.3999040722846985 0.517022967338562 1.0113539695739746 1.1034924983978271 0.9373774528503418 -0.6279447674751282 1.5671064853668213 -1.5541032552719116 -0.1291530877351761 -0.9295428991317749 -1.1108968257904053 -1.180169701576233 -0.6180617213249207 0.723136305809021 0.012074708938598633 -0.6343568563461304
33 0.8212031722068787 0.26190924644470215 0.26603153347969055 0.17494823038578033 0.7034042477607727 0.4485189616680145 0.3587457537651062 1.530400037765503 0.20876142382621765 -0.8606951236724854 -1.4404175281524658 1.3214634656906128 -1.0180222988128662 0.11830797046422958 -0.249088317155838 0.47682392597198486 -0.42832422256469727 1.6106234788894653 1.0270695686340332 0.4993339776992798
138 0.9087969064712524 0.6648852825164795 0.2084694653749466 1.048841953277588 -1.7341974973678589 -0.4029333293437958 -1.1481512784957886 -0.6441346406936646 -1.183121681213379 0.5715670585632324 0.6749500632286072 0.03883330151438713 -0.823412299156189 -0.16280534863471985 0.10579279065132141 -0.3651299774646759 0.634872317314148 -0.08207421004772186 0.4189101755619049 0.518492579460144
188 0.015290339477360249 -0.2182367444038391 -2.0094144344329834 0.40741702914237976 1.4891916513442993 0.34070897102355957 -0.673843264579773 -1.119173288345337 -0.24322578310966492 3.5923585891723633 -0.7455589771270752 -2.0570473670959473 -0.17488183081150055 0.26858997344970703 -0.6134395599365234 1.3278194665908813 0.11168695241212845 0.8607226014137268 -0.07926395535469055 1.4807296991348267
95 1.29245924949646 -2.25301194190979 0.3738163113594055 -0.3218401074409485 -1.4331110715866089 0.9927319288253784 -0.6641265153884888 -1.8569362163543701 -0.260252445936203 -0.5005679726600647 0.3980700969696045 0.16838668286800385 -0.33776792883872986 -1.6575753688812256 0.417420893907547 -0.8144568800926208 -0.7033441662788391 -0.955134928226471 0.33567237854003906 -0.7255010008811951
164 -1.5869706869125366 0.8155531287193298 -0.5059431195259094 1.1852240562438965 1.6536458730697632 0.5600213408470154 0.5870736837387085 -0.5696184635162354 0.4113757312297821 -0.7909582853317261 0.0907699391245842 0.9426661133766174 -3.0690231323242188 0.6297178268432617 -1.4022921323776245 -0.27806276082992554 -0.07422100752592087 -0.934217631816864 0.5080262422561646 -0.2196340709924698
43 -0.6460578441619873 0.5423459410667419 0.3373463749885559 -0.5391718149185181 -0.4620567858219147 -0.41002047061920166 0.043320536613464355 -0.16593444347381592 0.8175569772720337 -1.8448816537857056 -0.5958170890808105 -0.589693546295166 -1.2366631031036377 1.0293564796447754 1.3659518957138062 0.6192570328712463 -0.33991122245788574 1.3330610990524292 1.6472301483154297 -0.08865632116794586
102 0.7449241876602173 0.03700156509876251 -0.3146134316921234 0.3923828899860382 0.8411649465560913 -1.2822521924972534 1.8606019020080566 0.7135128378868103 0.3073996603488922 -0.6436780095100403 -0.4943741261959076 0.4576175808906555 0.17178356647491455 1.6472117900848389 -0.649788498878479 -0.2047584056854248 0.058203328400850296 -2.288757562637329 0.34339648485183716 -0.011237709783017635
130 -2.056943655014038 -0.1448308229446411 -0.7034411430358887 1.7952189445495605 0.19099454581737518 0.7542498707771301 1.2252066135406494 1.1488089561462402 -0.6126306056976318 0.7244043946266174 2.245745897293091 -0.7323076725006104 1.209181547164917 -1.7760088443756104 -2.108588218688965 0.9470609426498413 0.43721768260002136 0.6820977330207825 0.7500923871994019 0.003378384280949831
178 -0.21519047021865845 -0.22197002172470093 0.514666736125946 1.4051578044891357 -0.7182956337928772 0.6838196516036987 -0.2468707412481308 -1.1705431938171387 -0.5823962092399597 0.09517296403646469 -2.972726821899414 -0.10685454308986664 0.4856393337249756 -0.3217189610004425 -0.8303430676460266 0.5656594038009644 -1.2886675596237183 0.04848760366439819 1.1400270462036133 1.6796166896820068
56 1.1168179512023926 0.8434648513793945 -0.5154227614402771 -0.03808639198541641 1.020379900932312 0.5619720220565796 -1.8254280090332031 -0.06498797237873077 -1.4447638988494873 -0.004300711210817099 0.39718109369277954 0.8437333106994629 -0.13506098091602325 -0.679574191570282 -1.2629244327545166 0.18826119601726532 -0.3478667140007019 0.13777559995651245 0.7342094779014587 2.0638039112091064
186 -0.9123857617378235 -0.20264960825443268 -0.5718712210655212 -1.0473308563232422 0.5548487305641174 1.030745267868042 2.913705348968506 -0.3267688453197479 -0.9060869812965393 -0.12951050698757172 -0.3355473279953003 -0.4802699089050293 -0.2126712203025818 0.6694815158843994 0.06644809991121292 -0.9277248382568359 -0.3264891505241394 0.3874291777610779 0.8348217010498047 -1.2592377662658691
81 0.3638688325881958 -0.48323914408683777 0.5821584463119507 0.725513756275177 0.20009391009807587 -0.4612583816051483 0.2621585428714752 0.48234811425209045 1.1226868629455566 -0.15734277665615082 -1.9895603656768799 1.0701487064361572 -1.4816862344741821 -0.3953923285007477 1.5031262636184692 -0.7260186672210693 -0.3833392262458801 -0.233346626162529 -1.0675150156021118 1.2221590280532837
36 -0.2908892333507538 0.24070951342582703 -0.4540586769580841 1.1198700666427612 0.3622964322566986 1.0445786714553833 2.1814472675323486 -0.6986689567565918 0.1657312959432602 1.85740327835083 -0.2997167110443115 -0.2885695695877075 -1.478110909461975 0.2437407672405243 0.7036844491958618 -1.12582528591156 -0.3893311619758606 -1.0604488849639893 -0.1477622389793396 -1.4337687492370605
166 -1.593909740447998 0.3389662504196167 1.2270177602767944 1.4425685405731201 -1.6520823240280151 -0.022563133388757706 -0.9309147596359253 -0.9737589955329895 1.4630779027938843 0.4880119264125824 0.32900941371917725 0.45059680938720703 0.13867053389549255 -1.8910696506500244 0.08857623487710953 0.7919960618019104 -0.12208579480648041 1.01716148853302 -2.1864373683929443 -0.34090346097946167
74 0.0737939104437828 0.27970564365386963 -0.624098539352417 -2.0481457710266113 -0.7406624555587769 1.9222460985183716 -0.09642814099788666 -0.22172392904758453 -0.16996553540229797 -0.24373485147953033 -0.7161839604377747 -0.2093995064496994 0.13214534521102905 -0.9636579155921936 1.1400779485702515 0.8469845056533813 -0.0910324975848198 -1.012369155883789 -0.7387346029281616 0.32361915707588196
118 -0.1467856615781784 0.6822015643119812 -0.016494398936629295 0.8298417925834656 -1.177754521369934 0.9812662601470947 -0.4937577545642853 -0.0456341989338398 0.11642154306173325 -0.34123387932777405 -0.8015013337135315 1.20695960521698 -0.022108327597379684 -0.012543213553726673 -0.27495551109313965 1.114043116569519 -1.0555894374847412 -1.3439351320266724 -1.857287883758545 1.2248377799987793
150 1.4588630199432373 1.6120712757110596 -0.7927399277687073 1.552643060684204 -0.6112554669380188 1.1885151863098145 1.8963748216629028 2.255241870880127 -0.39058566093444824 -0.7505775690078735 -0.26892462372779846 1.7645636796951294 -0.806264340877533 1.7696012258529663 -0.42248138785362244 0.5546114444732666 0.7594756484031677 -0.7458055019378662 -0.34553462266921997 -0.7909821271896362
173 -1.0073256492614746 -1.5739964246749878 1.710440754890442 -1.3458259105682373 0.813258707523346 -1.4748725891113281 0.629852831363678 1.7526888847351074 -1.382164716720581 0.2572554349899292 0.7892007827758789 1.3643230199813843 -1.3156697750091553 -0.24647442996501923 1.0420738458633423 1.7037293910980225 0.1799902766942978 -1.3279858827590942 -0.6162634491920471 -0.0549895241856575
54 0.8349069952964783 -0.5029652714729309 0.09651519358158112 1.3861515522003174 -1.0316163301467896 0.42114123702049255 1.8436400890350342 0.33817926049232483 -1.5804275274276733 2.3799118995666504 0.5702544450759888 1.9394867420196533 -0.6404672861099243 -0.7727251648902893 -0.25962111353874207 -0.7526886463165283 -0.08804149925708771 -0.9804502129554749 0.07770663499832153 -0.6867883205413818
6 -0.8646690845489502 0.11581185460090637 0.5424711108207703 -1.1992555856704712 0.15855999290943146 -1.5272072553634644 -0.04351624473929405 -0.24723900854587555 0.8963412046432495 0.5562323927879333 0.7501809000968933 -0.00520142400637269 0.2916562855243683 -0.4288850426673889 2.5748543739318848 0.49440380930900574 0.9805882573127747 -0.7754383683204651 -0.23965874314308167 -1.1487107276916504
58 -1.3427798748016357 1.191825032234192 0.8011460900306702 1.0050194263458252 0.07181720435619354 1.699053168296814 -0.04449329525232315 -2.59031081199646 1.2494072914123535 -1.1749956607818604 0.3998050093650818 0.25228068232536316 0.8609377145767212 2.3094465732574463 0.11948161572217941 -0.11109131574630737 -0.028547480702400208 -0.2411825805902481 -0.4907952845096588 1.697218894958496
18 0.2904796600341797 -0.33941003680229187 0.68784099817276 -1.8392868041992188 0.2625475525856018 -0.5340832471847534 -0.8276069760322571 -0.17925971746444702 0.5939470529556274 0.5177987813949585 0.4365425705909729 0.37215715646743774 -0.8515982627868652 -0.6976638436317444 0.6407859325408936 1.7260384559631348 0.3743009567260742 0.36744529008865356 -0.08962243795394897 0.27072617411613464
171 -1.5576460361480713 -0.8858078718185425 -1.3675822019577026 -0.7242962718009949 0.29730409383773804 0.0939030796289444 -0.31178998947143555 -1.0230975151062012 -0.08016899228096008 -0.04434308782219887 0.02072509191930294 -0.9461206793785095 1.4393000602722168 -0.2781951427459717 0.20056889951229095 -0.5514650940895081 -0.06733546406030655 0.6661936044692993 0.1621330827474594 -0.22733865678310394
167 -0.3086763024330139 -0.765331506729126 0.19490797817707062 -1.6425665616989136 -0.2778928577899933 -1.1200906038284302 0.05469163507223129 -0.35392698645591736 -0.541057288646698 0.3531748652458191 1.1293452978134155 -1.7013968229293823 1.8825454711914062 0.18232697248458862 0.5222529768943787 0.4453376531600952 1.1303155422210693 0.9374080896377563 -0.5409679412841797 -0.8828975558280945
13 -1.4442864656448364 1.3149124383926392 -0.12009669840335846 -2.215475082397461 1.7533347606658936 -1.0996057987213135 -3.2849409580230713 -1.6892454624176025 -1.5983901023864746 0.17606008052825928 1.9147754907608032 -0.9495578408241272 0.8063345551490784 0.9403855800628662 2.0041818618774414 1.2369948625564575 0.4907209575176239 0.2332744002342224 -0.04525366798043251 0.8982411026954651
146 0.34111931920051575 0.24519552290439606 0.5939662456512451 -1.2025233507156372 0.8862089514732361 -0.853781521320343 0.28480690717697144 0.6468205451965332 -0.23228125274181366 -0.6041274070739746 0.7157684564590454 0.23902757465839386 -1.708435297012329 1.6191215515136719 0.13121777772903442 -1.8078718185424805 0.22108595073223114 0.49591001868247986 0.21573229134082794 -0.7270004749298096
53 1.9344371557235718 0.8040359020233154 -1.5692607164382935 -0.12490614503622055 0.7356964945793152 1.4491088390350342 1.262681484222412 0.48077014088630676 -1.4675661325454712 -0.5783147811889648 0.21958597004413605 0.41424059867858887 0.5382747650146484 1.0823684930801392 -1.2735964059829712 -0.5302416682243347 1.4877054691314697 -1.5679888725280762 0.18778838217258453 0.23911920189857483
69 0.5300759673118591 0.21576258540153503 0.2521381676197052 -0.7011381983757019 0.3537188470363617 -0.35853666067123413 0.7605029940605164 0.1578480750322342 2.0889689922332764 0.6260638236999512 0.33137983083724976 0.8666836619377136 -0.6579726934432983 0.2852393686771393 0.2392740100622177 0.6608211398124695 -1.7584748268127441 -0.48808586597442627 -0.16699810326099396 1.409136414527893
97 -1.4887968301773071 1.0432180166244507 0.3604702651500702 -0.5255236625671387 0.026995696127414703 -1.5317184925079346 -1.4891501665115356 0.07136975973844528 -0.4437565505504608 -0.583440363407135 -0.19368848204612732 -0.0736156776547432 -1.332012414932251 0.5973474979400635 0.7242475748062134 -2.3228530883789062 -0.16283120214939117 -0.40091001987457275 -1.0583854913711548 0.24031904339790344
23 -0.19985635578632355 1.0591868162155151 0.7924526333808899 0.1998521089553833 0.16029344499111176 -0.9188348650932312 2.040193796157837 1.119389295578003 -0.219868466258049 -0.33484184741973877 -1.174942970275879 0.017473619431257248 0.08813738822937012 0.6466021537780762 -1.9594024419784546 1.127465009689331 0.9815632700920105 -0.6569241881370544 0.3268490135669708 0.04180176556110382
47 0.026932457461953163 0.416739821434021 0.25870442390441895 0.05603758245706558 -0.532896101474762 -0.030808622017502785 -1.3334485292434692 -2.5806570053100586 -0.8067175149917603 0.4153625965118408 -1.19773268699646 0.02321474254131317 0.4705463945865631 0.028740722686052322 0.5713186860084534 1.5694289207458496 -1.4003899097442627 0.2321022003889084 -1.148436427116394 1.2413727045059204
119 -2.0068094730377197 -0.2078579068183899 -0.33334606885910034 0.23919174075126648 -0.29350319504737854 -0.3797987103462219 1.0941907167434692 0.31803375482559204 0.8951703906059265 0.6902709603309631 0.38897037506103516 0.776440441608429 -1.8886137008666992 0.5517838597297668 0.6009724736213684 0.08243652433156967 1.6024447679519653 -0.34880486130714417 -0.31456562876701355 1.3538532257080078
96 -0.5088944435119629 -2.4806439876556396 -0.009359031915664673 -0.6337279677391052 -0.8911986351013184 -0.8370349407196045 0.3123684227466583 0.5265429019927979 0.07811900228261948 -0.16154390573501587 1.415439248085022 -1.5968891382217407 -1.444908618927002 0.04447507485747337 1.1144782304763794 -0.8563728928565979 -0.38794180750846863 -0.4580629765987396 0.6485446691513062 0.8936582803726196
0 0.7878366708755493 0.25086289644241333 0.12993979454040527 1.523291826248169 -0.6201225519180298 0.6143078804016113 -1.742699146270752 -0.5503622889518738 -0.5503814220428467 -1.356214165687561 -0.41999542713165283 1.7413694858551025 -0.3437008857727051 1.2588204145431519 0.057250671088695526 -0.36700525879859924 1.1066603660583496 -1.15736722946167 1.2813093662261963 -0.8122826814651489
128 0.7009972333908081 0.8260753154754639 -1.150691032409668 -2.6070899963378906 0.9235870838165283 0.1263522207736969 -0.46611493825912476 -0.9590498805046082 0.7403636574745178 -0.17896103858947754 0.04167574644088745 -0.36922335624694824 -0.5252824425697327 -2.4265990257263184 -2.0385005474090576 0.3079336881637573 -0.0412667840719223 0.2438158243894577 -1.162809133529663 0.5657934546470642
121 -0.160716250538826 0.6389498114585876 0.8711684346199036 1.8084720373153687 -0.6844909191131592 -1.719016671180725 -1.1238001585006714 0.9829303622245789 0.023035341873764992 -0.44759401679039 -0.8744980692863464 0.22232377529144287 -0.6391914486885071 -0.7226510047912598 0.6404764652252197 -0.08800366520881653 1.33189857006073 -0.19556541740894318 0.9419857263565063 0.1770162284374237
181 1.5414690971374512 1.8902366161346436 1.1057556867599487 1.6553475856781006 -0.20166562497615814 1.2473645210266113 2.320605754852295 -1.4048160314559937 -0.7964242100715637 0.366076797246933 0.7512725591659546 -0.4970013499259949 2.302198886871338 1.4428505897521973 0.7734651565551758 0.5789010524749756 1.2260481119155884 0.49168509244918823 0.956080436706543 0.37067171931266785
132 -0.03968781232833862 -0.44697973132133484 0.5780606865882874 0.181291401386261 0.20069631934165955 -2.264417886734009 0.37365391850471497 -0.7605249881744385 0.45861440896987915 -0.9413999319076538 1.3549505472183228 -0.5871445536613464 -1.430381417274475 -0.4636128842830658 -0.1898813247680664 -1.124779462814331 -3.1646273136138916 -0.09955982118844986 0.5693106651306152 0.3704654574394226
19 -0.6524004340171814 1.6335777044296265 0.10670016705989838 -1.2525571584701538 -0.959646999835968 0.23679757118225098 0.8032751679420471 -0.4975919723510742 0.7324583530426025 -0.5854974985122681 1.3540037870407104 0.008165973238646984 -0.4025270342826843 0.8243029117584229 0.03708538040518761 0.29027125239372253 -1.2249255180358887 0.7589111328125 -1.1758811473846436 -1.2443701028823853
195 0.9415137767791748 2.0957865715026855 1.3942630290985107 1.0470118522644043 -1.3485249280929565 -0.3206092417240143 0.1876440942287445 1.7439444065093994 1.2261149883270264 0.7195499539375305 1.7682206630706787 -0.5662134885787964 1.2844116687774658 -0.6940562129020691 -2.002094030380249 0.6618980169296265 -0.476301372051239 -1.1332874298095703 -0.30500271916389465 1.0667492151260376
82 0.6153233051300049 0.9732072353363037 -0.5647047162055969 -0.17534834146499634 0.07829898595809937 0.30742311477661133 -0.4891950190067291 -0.5242605805397034 1.688246250152588 -0.4874691069126129 -0.06823723763227463 0.3590843379497528 1.3953189849853516 0.35250014066696167 -1.053034782409668 0.9280447363853455 -0.502694308757782 0.12880964577198029 -0.8109678626060486 0.31099364161491394
187 1.804114818572998 0.8159916400909424 0.04711689427495003 -2.04213809967041 -0.3487548530101776 0.10808666795492172 0.7654573321342468 0.0666591078042984 -0.8557235598564148 2.902977466583252 0.458107054233551 1.5978246927261353 -1.670827031135559 -1.1485586166381836 0.04450512304902077 0.699680507183075 0.18014836311340332 0.04623923450708389 -0.09311697632074356 -0.7382640838623047
30 -0.8932424187660217 -1.0684233903884888 2.531128406524658 -1.1160743236541748 1.7018520832061768 0.837272047996521 -0.35812297463417053 0.39907407760620117 -0.9452762007713318 -0.7395971417427063 -1.894567608833313 0.7393140196800232 0.6566364765167236 -0.32924091815948486 1.9144231081008911 -0.06654755026102066 0.055903125554323196 1.4333202838897705 0.09624722599983215 1.2595865726470947
172 0.11831093579530716 1.4704840183258057 -0.022224731743335724 0.19749318063259125 0.5545666217803955 -0.8782258629798889 -0.25686001777648926 -1.874464750289917 0.24438996613025665 -1.0334221124649048 0.909589409828186 0.23348352313041687 0.5786850452423096 -1.0855753421783447 -0.19330202043056488 0.2674097418785095 0.8653944730758667 0.0874987319111824 0.3474249243736267 -1.2604891061782837
60 0.09360677003860474 -0.8810150623321533 2.06073260307312 1.508339524269104 -1.5304925441741943 1.6897732019424438 0.9563303589820862 0.49792471528053284 0.8901079297065735 -1.754681944847107 -0.19412054121494293 -0.10256434977054596 -0.992014467716217 -1.1703263521194458 -0.16314467787742615 -0.7288673520088196 0.061306182295084 0.775200366973877 1.0671277046203613 -0.5883181095123291
161 1.1878511905670166 0.1686658412218094 -1.4854344129562378 -0.2842040956020355 0.8024834394454956 -1.2426055669784546 1.390349268913269 1.0689201354980469 -0.6642787456512451 1.2382301092147827 1.1856862306594849 1.264333963394165 0.5751479864120483 -0.14897088706493378 1.0603610277175903 0.6829227805137634 -0.3350120484828949 -0.924876868724823 -1.2262506484985352 0.822226345539093
89 -0.908986508846283 -0.07315675169229507 0.7611786127090454 0.04795641824603081 -0.5828683376312256 -0.778910756111145 -2.4741859436035156 0.04538675770163536 0.5604410767555237 1.3291869163513184 0.5743293166160583 -0.8148013949394226 0.22063930332660675 -0.9020407795906067 -0.5835086107254028 0.032675325870513916 -0.8550034761428833 -0.15797509253025055 -0.4821851849555969 -1.2835081815719604
160 0.15948627889156342 0.7370041012763977 2.1045024394989014 -0.8075546622276306 1.3046003580093384 0.02468469925224781 -0.2576920688152313 -0.38534116744995117 1.6424927711486816 -1.647486686706543 0.5352970957756042 0.041299257427453995 -0.42737939953804016 0.20491458475589752 -0.556845486164093 -0.4292023479938507 -0.6147152781486511 0.6252778172492981 0.11759212613105774 0.4966723322868347
183 0.7307180166244507 -1.3918263912200928 -2.6467363834381104 0.9125451445579529 -0.39121678471565247 0.30081942677497864 0.054032884538173676 1.0282433032989502 2.038425922393799 -0.16836631298065186 -1.2776179313659668 -0.9063278436660767 1.7331411838531494 0.46044033765792847 -1.618025541305542 -0.11452167481184006 1.282791256904602 -1.8903785943984985 0.825035572052002 2.7028017044067383
79 -1.777991771697998 1.7999244928359985 -0.8344689011573792 1.4539480209350586 1.897275447845459 -0.3745279014110565 -1.1284667253494263 1.0503860712051392 -0.42488256096839905 1.3951959609985352 -0.798597514629364 -0.8391047120094299 1.0027978420257568 -0.2958376407623291 0.989292562007904 -1.6638622283935547 0.7037802338600159 -1.4187952280044556 -0.21075014770030975 0.6128780841827393
66 -0.16694439947605133 0.7375847697257996 -0.33792275190353394 0.9467592835426331 -1.098172903060913 -0.38409408926963806 0.372823566198349 0.8345605134963989 -0.23900708556175232 -0.22684013843536377 -0.545540988445282 1.168664813041687 0.026916678994894028 -1.4531668424606323 -0.23354566097259521 -0.19987307488918304 0.4532064199447632 0.8372857570648193 -0.636500895023346 2.4611454010009766
194 -1.2917542457580566 1.141664981842041 -0.507633626461029 -0.28967902064323425 -0.8070525527000427 2.8544859886169434 1.167163610458374 -0.032475072890520096 0.41825124621391296 1.152889609336853 -0.5420597195625305 -0.28248411417007446 0.3416841924190521 2.390068531036377 1.3151133060455322 -0.08533719927072525 -1.4200730323791504 -1.7123448848724365 1.1180458068847656 0.03182302415370941
176 1.5312509536743164 1.0622273683547974 1.7808276414871216 0.33181092143058777 0.29823124408721924 -1.3051283359527588 -0.6892073154449463 -0.3511336147785187 -0.07351642102003098 -0.5542193055152893 -1.6930391788482666 -0.048446640372276306 -0.12273005396127701 -0.29905965924263 0.4481896162033081 -0.6706627011299133 0.9528586268424988 0.8332321047782898 -0.9073465466499329 0.2813013792037964
156 -0.6511237621307373 -0.6201286315917969 1.197824239730835 -0.7098055481910706 0.13857248425483704 1.7383975982666016 -0.8336192965507507 0.05541091412305832 0.6566257476806641 -0.6997220516204834 -0.22572144865989685 0.010041967034339905 -1.2022662162780762 -0.03313836082816124 0.6803247928619385 -1.8588285446166992 1.4269927740097046 0.2980341613292694 -0.5232416987419128 -1.8942230939865112
14 0.8212805986404419 0.6775437593460083 -0.24595436453819275 1.008800983428955 0.8957287073135376 -0.46095389127731323 -0.5554267168045044 0.9787986874580383 1.9617120027542114 1.5851613283157349 0.7751852869987488 0.19235189259052277 -0.2418040633201599 0.48631584644317627 -0.38224607706069946 -0.6246625781059265 -0.11064736545085907 0.038768522441387177 -0.042152922600507736 2.6273131370544434
28 -1.6178959608078003 -1.3374366760253906 0.16565939784049988 -0.07440844178199768 -0.47764676809310913 -0.017473164945840836 0.7381344437599182 -0.9372208714485168 -1.8396698236465454 -0.5082513689994812 2.2529170513153076 -0.39598390460014343 -1.1744678020477295 -1.7025104761123657 1.282792568206787 -1.2950961589813232 -0.4966369569301605 1.1136515140533447 0.4816950261592865 -0.80754554271698
162 0.19766546785831451 -0.869834840297699 -1.2319903373718262 -1.1949753761291504 2.8417599201202393 0.06912357360124588 -0.11051242798566818 1.5319868326187134 -0.10500515252351761 -1.751277208328247 0.4716648757457733 1.6097263097763062 -0.399233877658844 -0.7196319103240967 0.04411405324935913 0.4707203805446625 -1.3154282569885254 -0.03091089054942131 -1.1780731678009033 0.32400038838386536
4 -0.46467530727386475 -0.17044445872306824 0.2338695079088211 0.8345332741737366 -0.5788573622703552 -1.58951735496521 -2.2675485610961914 -0.07791979610919952 -0.2656213343143463 0.5569629669189453 -0.3490769565105438 -0.5266692042350769 1.746010184288025 -0.08913843333721161 -1.7421858310699463 -0.12149206548929214 -0.3844546377658844 -0.33554887771606445 -0.29997751116752625 -0.43320590257644653
85 -0.3047657310962677 2.560133695602417 0.697587788105011 0.5721637606620789 1.5142924785614014 0.570033073425293 1.6357463598251343 0.09809794276952744 0.12798818945884705 3.1511900424957275 -0.8737947940826416 0.040489137172698975 1.4712629318237305 0.16775262355804443 -0.6816077828407288 0.5757544636726379 0.3002896010875702 -0.3355550169944763 0.811672031879425 1.580262541770935
65 0.5079027414321899 -0.23200419545173645 0.11128970980644226 -1.237836241722107 0.6749405860900879 0.6341217756271362 0.5684860348701477 0.04570963978767395 -0.5118619203567505 -2.622634172439575 -2.3918702602386475 -2.208606243133545 -1.1390345096588135 -0.2027336210012436 1.2153195142745972 -0.7748280167579651 -0.5495080947875977 0.6756874322891235 1.4183489084243774 1.2744160890579224
17 -0.3052797019481659 -1.2870759963989258 0.137019082903862 0.2316177934408188 -1.2483820915222168 1.4043159484863281 0.41704750061035156 0.643470823764801 -0.7151206135749817 0.7786290645599365 0.9823264479637146 0.2909758985042572 -0.42501381039619446 0.07838200032711029 0.14018559455871582 0.08701011538505554 0.24431826174259186 -1.3828285932540894 0.24324113130569458 0.7883574366569519
16 -1.0961452722549438 -0.14757312834262848 -1.452618956565857 -0.25472089648246765 0.8226967453956604 0.647864580154419 -0.5824198722839355 0.342807799577713 0.4351954162120819 0.5474963784217834 -0.7214486002922058 0.9768742322921753 0.5444207787513733 -0.8710545301437378 -0.7584781646728516 0.47945454716682434 -0.7338206768035889 0.47307783365249634 0.1754295378923416 0.5224978923797607
2 0.9784693717956543 -1.5673402547836304 0.39540377259254456 0.825842559337616 -2.1742005348205566 0.045447442680597305 0.45026153326034546 1.737608551979065 -0.36051830649375916 0.7158487439155579 -0.418102502822876 -1.279761552810669 0.18859894573688507 1.3293544054031372 0.7026466727256775 -0.351081520318985 -0.6613621711730957 1.554764747619629 -1.0693477392196655 -0.36123940348625183
184 -0.29933682084083557 -0.636281430721283 0.7543516159057617 1.3219547271728516 -0.27138185501098633 1.7204464673995972 -1.7431193590164185 -2.0365469455718994 -1.9312407970428467 -0.16354750096797943 -0.7626107335090637 0.38673001527786255 0.2153700441122055 1.4478271007537842 0.2209615856409073 -0.7992632985115051 -0.6641706228256226 -0.012696092016994953 -0.10020654648542404 -0.36225980520248413
142 1.0528346300125122 0.6292687058448792 1.168357491493225 -0.253155916929245 1.2240962982177734 -0.31032830476760864 -0.7766739130020142 -0.3255561590194702 0.6950804591178894 0.3670741319656372 0.28567323088645935 0.2642577886581421 1.177830457687378 -0.46216437220573425 0.02360101044178009 0.29131880402565 1.1496384143829346 0.544300377368927 -0.19448520243167877 -0.1572193056344986
87 0.6726253032684326 -0.21458321809768677 -0.9555891156196594 -0.13446442782878876 -0.13089440762996674 -1.6058132648468018 -1.059502124786377 1.1944750547409058 1.038313388824463 2.3439342975616455 -1.041107177734375 -0.4364016354084015 0.0033298407215625048 -0.024606604129076004 -0.47947031259536743 0.7500219941139221 -0.18491946160793304 -0.09613966196775436 0.20812423527240753 -0.4831278920173645
170 -0.2737938463687897 0.15745693445205688 -1.0357904434204102 1.1972733736038208 0.7133728861808777 -0.057705532759428024 -0.46458369493484497 -0.2644152343273163 1.5350207090377808 -0.5773746371269226 0.6752849817276001 -0.5917141437530518 0.34608492255210876 -0.5551183223724365 -0.38370272517204285 1.1296446323394775 -0.4205235540866852 1.7417809963226318 -0.3565838634967804 -1.4190493822097778
109 -0.3349607288837433 -0.10085361450910568 -0.13018715381622314 1.9432047605514526 -0.009838360361754894 0.6385284066200256 -0.2573757469654083 -1.0881911516189575 0.5096890926361084 -0.7863510847091675 0.5551508665084839 -0.47040536999702454 2.4905004501342773 0.28735172748565674 0.35133659839630127 -1.1452983617782593 1.2773313522338867 -2.600285053253174 1.2098209857940674 0.6760833859443665
124 -0.08188187330961227 -1.3368990421295166 -1.5540968179702759 0.5014491081237793 -1.2153476476669312 -0.9032097458839417 -0.8645704388618469 0.3848152160644531 -0.9670870900154114 -0.422847718000412 0.22715795040130615 -0.8315564393997192 -0.5167127251625061 -0.5252293348312378 0.28221118450164795 -0.7304893136024475 -0.9766908884048462 0.2193106710910797 -0.6573509573936462 -0.25049230456352234
78 0.17565511167049408 0.4851641356945038 -0.6408485174179077 -1.3578954935073853 -0.8716259598731995 -0.414450466632843 -1.8233985900878906 0.5912299752235413 -0.7982137203216553 -0.44693514704704285 0.38837698101997375 0.14043469727039337 -0.410982221364975 0.13163240253925323 -0.8541215658187866 0.4413098990917206 -2.1282176971435547 -0.615240216255188 1.1186277866363525 -0.57420814037323
20 0.2369067221879959 1.1850720643997192 0.6000930070877075 -0.9787128567695618 0.9373027086257935 0.5662409663200378 -0.19470547139644623 -0.21819569170475006 -0.10127739608287811 -0.23485465347766876 0.19609612226486206 -0.05191247910261154 3.564934730529785 1.104675054550171 -0.08929170668125153 1.2910469770431519 1.881691813468933 -0.9101070761680603 0.2342340350151062 0.4528285264968872
49 1.7664895057678223 -1.2869398593902588 -0.7236562371253967 -0.8182578086853027 0.3422016501426697 0.36923807859420776 0.25197866559028625 -0.5358745455741882 -1.4868755340576172 -0.3391531705856323 0.37039637565612793 -2.304318904876709 -2.428602933883667 1.2752448320388794 0.509432315826416 1.54110848903656 -0.03703135997056961 -1.2017799615859985 0.7584118247032166 -0.23258161544799805
177 0.05475867912173271 -0.40381765365600586 0.9787452220916748 -1.3565013408660889 1.6124598979949951 0.9196939468383789 -0.540547251701355 -0.528114914894104 0.3098057508468628 0.011018880642950535 -0.8211701512336731 1.735347867012024 -0.5784352421760559 -0.9797019362449646 -0.18162265419960022 -0.4956463873386383 -0.6160987019538879 -1.9063266515731812 0.2986938953399658 -0.5432385206222534
140 0.31985747814178467 -0.6193694472312927 -0.18772095441818237 -0.642532467842102 -0.3045819401741028 -2.026463747024536 -0.9183820486068726 0.52553391456604 0.3075011670589447 -0.6778392791748047 1.2177354097366333 0.14039582014083862 0.9806649088859558 -1.1086604595184326 -0.2286543846130371 -0.720982015132904 -0.5766866207122803 -1.9566950798034668 0.009387477301061153 0.8207203149795532
44 -1.0720292329788208 0.690437912940979 1.4431816339492798 1.795584797859192 -2.0407817363739014 -0.23466643691062927 -0.9811667799949646 0.22845090925693512 1.2770702838897705 0.28270623087882996 -0.6442717909812927 -1.3761968612670898 -0.8951268792152405 0.42509064078330994 -1.2511687278747559 -0.5408293604850769 -0.39236512780189514 0.1917373090982437 -0.010576785542070866 0.7126480340957642
192 -2.0343291759490967 1.7242546081542969 0.5331382751464844 1.2191100120544434 -0.10209318995475769 0.8789652585983276 2.233248710632324 0.8923577666282654 0.6009398698806763 -0.17401807010173798 0.01815503090620041 0.37097465991973877 1.5865504741668701 -0.036291178315877914 0.05837586149573326 -0.9555578231811523 1.4259036779403687 0.16785277426242828 -1.2636489868164062 0.20249733328819275
135 1.943796157836914 -0.45378461480140686 0.968250572681427 -0.7996485233306885 -0.9197500348091125 0.21973243355751038 0.5436353087425232 -0.18582579493522644 0.4951140582561493 1.217594861984253 -0.6255524158477783 1.0996265411376953 0.6026144027709961 0.821437656879425 0.19098468124866486 -1.2557064294815063 1.1296617984771729 -0.30262255668640137 -0.6635851860046387 -0.8412150144577026
149 -1.3147859573364258 -0.8136868476867676 0.2675969898700714 -0.7569549083709717 0.5406317710876465 -0.302095890045166 0.04448316991329193 -1.2205345630645752 -1.756493330001831 -0.03001067228615284 -0.05997976288199425 -0.3869137167930603 -0.01573004014790058 -1.4838744401931763 0.0050692930817604065 -0.5824283957481384 0.15938113629817963 0.663930356502533 -0.46543416380882263 -2.0224201679229736
52 -0.9862915277481079 0.012852703221142292 0.9118503928184509 -0.4235500693321228 1.2839521169662476 -0.1429944932460785 -0.13149437308311462 -0.9593343734741211 0.21374563872814178 -1.5998504161834717 -0.36880043148994446 0.67881178855896 -1.451505184173584 -2.857520818710327 1.1589000225067139 -1.1666626930236816 1.7545760869979858 -0.12447109818458557 -1.270890712738037 -0.5522663593292236
11 0.5391042232513428 -0.8451505899429321 0.4242671728134155 0.9259405732154846 -1.7764830589294434 0.41211989521980286 -0.8235580325126648 0.5230660438537598 -0.8199329376220703 -0.20090724527835846 0.2627202570438385 -0.8878572583198547 0.6939002871513367 0.39893659949302673 -1.0372365713119507 0.3741157650947571 0.5989050269126892 1.4201292991638184 0.9079700708389282 -0.06937558203935623
98 0.28277426958084106 -1.5089370012283325 -0.4123881161212921 -0.03195316717028618 1.8052198886871338 0.41883087158203125 0.22949449717998505 -0.05451163277029991 0.23424240946769714 -0.544033944606781 -1.8475556373596191 -1.9213241338729858 -0.42475199699401855 -1.6961019039154053 1.2226414680480957 0.7341116070747375 1.9419912099838257 -0.5555555820465088 -0.951890766620636 -0.7272650599479675
1 0.29710420966148376 -0.5479055643081665 0.5922405123710632 -1.018570065498352 0.6935931444168091 0.7226502299308777 0.09393786638975143 -0.19978749752044678 -2.55263352394104 -0.3322773575782776 0.12376240640878677 2.841508388519287 -1.0467536449432373 -1.859938621520996 0.7420384883880615 -0.5482728481292725 -2.1718547344207764 1.1626890897750854 0.07630950957536697 -1.9192270040512085
73 1.3532001972198486 1.8739948272705078 0.33842480182647705 -0.9309787154197693 0.04214916378259659 -1.2744965553283691 0.7551873326301575 1.4198431968688965 0.265836238861084 0.4256465435028076 -1.3675845861434937 0.4134623408317566 0.49568381905555725 -0.13438680768013 1.101265788078308 0.024214260280132294 -0.4767985939979553 -1.602615237236023 0.7170156240463257 1.062186360359192
180 -0.49809587001800537 0.13464143872261047 0.5071564316749573 0.575832188129425 -0.7120898365974426 -1.3869794607162476 -0.016830239444971085 -0.826677143573761 1.4137853384017944 -0.34401604533195496 0.24142591655254364 0.4092565178871155 0.061719100922346115 0.16459915041923523 -1.0177366733551025 0.011199376545846462 0.8342876434326172 0.4455593228340149 1.0292532444000244 -0.08413096517324448
29 0.40906667709350586 -1.5030169486999512 -0.16035719215869904 -0.08505894988775253 -0.6878170967102051 -0.09684044867753983 0.8564078211784363 0.3910823464393616 -1.4167888164520264 -0.6576628684997559 -0.24927295744419098 0.2959635555744171 0.44948887825012207 -0.39990463852882385 -0.6901278495788574 0.1920456737279892 1.2558156251907349 -0.5136334300041199 1.1243619918823242 -1.864571213722229
91 0.08801223337650299 0.585282027721405 0.8611058592796326 -1.2713887691497803 0.5500236749649048 -1.9235669374465942 -0.09047672897577286 1.2362875938415527 0.28111860156059265 -1.1087290048599243 0.4045157730579376 -1.716026782989502 1.3017590045928955 -0.44068852066993713 -0.18129709362983704 0.4134156405925751 -0.056849461048841476 0.4163266718387604 -0.4225718080997467 -0.14420753717422485
38 1.095369815826416 0.1418500542640686 1.4182814359664917 0.008527791127562523 -0.6108716726303101 -0.8419418334960938 0.929988443851471 0.19848164916038513 0.4148249328136444 0.5939337015151978 0.8558365106582642 0.42143210768699646 -0.7907561659812927 -0.8168293833732605 -0.0940440222620964 -0.4475019872188568 -0.7392182350158691 0.4919145107269287 -0.26430457830429077 -0.17809629440307617
147 0.42117246985435486 -1.2027150392532349 1.425679087638855 -1.0958278179168701 -0.08842974901199341 0.029479652643203735 1.53650963306427 0.13293534517288208 -0.5219981670379639 -0.5463603734970093 1.5350650548934937 -0.08450844138860703 1.090435266494751 0.38033515214920044 0.29595163464546204 -0.8311335444450378 1.1557323932647705 -0.21124403178691864 -0.9275907278060913 0.1616339087486267
26 0.5597476959228516 0.8420507311820984 -0.5507209300994873 0.877540647983551 0.14098256826400757 -0.7316685914993286 -0.09306512773036957 2.4983184337615967 -0.010597655549645424 1.2589229345321655 -1.389768123626709 1.3262767791748047 1.4654672145843506 -0.6298012137413025 -0.6085301041603088 1.9700947999954224 0.3160652816295624 0.5354657769203186 1.0884968042373657 -0.29147815704345703
94 -0.6830310821533203 0.2472994178533554 -0.5247429609298706 -0.26618078351020813 0.7545309662818909 0.9777901768684387 -1.513877034187317 -0.38862091302871704 3.0232291221618652 -1.168271780014038 -1.0665334463119507 1.1557024717330933 -1.0935379266738892 0.3772222399711609 -1.0102509260177612 -1.4978774785995483 0.16965806484222412 -0.41149798035621643 -0.4813899099826813 1.2132467031478882
159 -0.10191471129655838 -0.2744051218032837 -2.39902400970459 0.03645409643650055 0.7870905995368958 1.233593463897705 -0.7575249671936035 0.7336610555648804 -0.8530567288398743 -2.4033732414245605 0.7724034786224365 -0.4890502989292145 0.11138089746236801 -1.7676496505737305 -0.847348153591156 -0.5093783140182495 -0.36225196719169617 0.03121981956064701 2.1509125232696533 -0.46660661697387695
151 0.45197388529777527 0.8642913103103638 -0.5028762817382812 1.6806762218475342 -0.25779545307159424 0.9710718989372253 1.8935872316360474 1.3421380519866943 -0.8616684675216675 0.2595837712287903 -0.6836442947387695 -0.011465484276413918 -0.18240410089492798 -0.698763906955719 0.5157331824302673 -0.5786768794059753 -2.5567524433135986 -0.33298155665397644 -0.661129355430603 0.7039522528648376
61 0.8443501591682434 1.2247909307479858 0.43635091185569763 0.32702136039733887 0.6449732184410095 0.09964117407798767 -0.32883748412132263 -1.093360185623169 1.8784706592559814 -0.4619239866733551 1.509803295135498 -0.44561219215393066 0.6390824317932129 -1.5077006816864014 0.7477853894233704 -1.2629777193069458 -1.4604041576385498 0.851471483707428 0.017424926161766052 -0.7879863381385803
175 0.345541387796402 -2.3482863903045654 0.07294099032878876 0.5764308571815491 0.10527633130550385 -0.5778342485427856 -0.04995991289615631 -1.0378552675247192 -1.4969325065612793 1.3523201942443848 -1.5902595520019531 0.6716930866241455 2.269066333770752 0.9008322954177856 1.3237005472183228 1.3411179780960083 -1.175899863243103 -0.22335942089557648 -0.723907470703125 -0.18601879477500916
10 0.05232224613428116 1.0556339025497437 -1.2550647258758545 -1.048872470855713 -2.4580140113830566 -1.1607943773269653 -0.35172227025032043 -0.46346721053123474 0.929542601108551 1.2818185091018677 -0.5871057510375977 -0.8489264845848083 0.577474057674408 -1.7539849281311035 1.2326531410217285 -0.8727185130119324 -0.08939451724290848 1.1895023584365845 1.3919540643692017 -0.2807999849319458
57 1.605028510093689 0.047646503895521164 -0.2829420268535614 0.18893882632255554 -0.1277759075164795 -0.5437898635864258 -1.5745171308517456 -0.5019466876983643 -1.5106444358825684 1.8432426452636719 0.2838660776615143 -0.3455408215522766 0.21626980602741241 0.06346262991428375 -0.42976346611976624 0.34766292572021484 0.6895903944969177 -0.01106242649257183 -0.8317972421646118 -0.012790135107934475
123 -0.5086454749107361 -0.44537824392318726 1.968282699584961 -0.7300500869750977 -0.9178469777107239 1.0844922065734863 0.3747207522392273 -0.24618984758853912 0.39175736904144287 -0.2787643373012543 0.3169920742511749 -0.23820900917053223 -0.736646831035614 -1.2938189506530762 -1.3459715843200684 -2.4082624912261963 -1.0341781377792358 -1.576983094215393 0.00018671134603209794 -1.227054476737976
24 0.6726733446121216 1.6743680238723755 -0.7701454162597656 0.12699589133262634 -0.5097280740737915 -1.2790464162826538 0.9117071628570557 -0.4569762647151947 -1.5357712507247925 -0.08804824203252792 -0.7082008123397827 -0.49836665391921997 -1.23740553855896 -1.357008695602417 -1.1293429136276245 1.4996588230133057 0.17613990604877472 1.3688063621520996 -1.9267399311065674 -0.6572191119194031
100 0.9743295311927795 -2.1664018630981445 -1.0436445474624634 -0.13446277379989624 0.7942017912864685 0.7275103330612183 0.9460780620574951 1.1210352182388306 -1.4535083770751953 -0.458857923746109 0.1451324075460434 0.8532057404518127 0.930821418762207 -1.2970671653747559 -1.9936468601226807 0.77052241563797 -1.5529371500015259 -1.8860868215560913 1.4483016729354858 -0.8916293382644653
34 0.25792357325553894 -1.4558628797531128 -1.4242515563964844 -1.2824475765228271 -2.336290121078491 1.697300910949707 1.3916218280792236 -0.6779560446739197 0.9725199937820435 -0.29914942383766174 -0.6735488772392273 1.2623571157455444 0.41045960783958435 -1.0171406269073486 0.9838715195655823 -0.15865568816661835 2.0161280632019043 -1.141386866569519 -0.6780478358268738 -1.468294620513916
133 -1.0735704898834229 1.2303266525268555 0.3149455785751343 -0.5355303883552551 -0.07053978741168976 -0.7383245825767517 0.8519835472106934 -0.933439314365387 1.2269231081008911 0.28621262311935425 -0.4275270104408264 1.2461973428726196 -0.7001662850379944 0.25883638858795166 1.6873908042907715 2.002342462539673 1.2598066329956055 -0.3033725917339325 -1.3170866966247559 -0.7412382364273071
122 -2.0134873390197754 1.377193808555603 -0.14720335602760315 -0.16767863929271698 0.1671765148639679 -0.8214638233184814 0.18485112488269806 -1.3407464027404785 -1.067421555519104 -0.11410972476005554 0.6195759773254395 0.7304182648658752 -0.10826136916875839 0.2847006320953369 -0.07063454389572144 -1.2716201543807983 -1.0978013277053833 0.7536525130271912 0.9531901478767395 1.0575989484786987
35 -0.0030553292017430067 -0.4378664791584015 1.9951010942459106 -1.2703958749771118 0.33446991443634033 -1.0608381032943726 -1.2859842777252197 -0.06207328289747238 1.026445746421814 0.594997227191925 0.6013997793197632 0.8577309250831604 0.7657282948493958 0.5217487215995789 0.22529469430446625 -0.24004720151424408 0.5030922293663025 -0.24804744124412537 1.730082392692566 0.3721776008605957
136 -1.4823044538497925 -0.3787230849266052 -0.3722095489501953 -0.9754276275634766 0.24549317359924316 -1.0776108503341675 -0.6889734268188477 -0.8153073787689209 -1.0434774160385132 -0.36158037185668945 0.8511939644813538 -0.23424772918224335 1.8739114999771118 -1.899498701095581 -2.325784206390381 1.4898757934570312 0.05525672435760498 3.4570486545562744 -2.1747994422912598 0.5117735862731934
92 1.2413526773452759 -0.6450537443161011 -2.149050235748291 1.3343900442123413 0.08216926455497742 0.09660471975803375 0.23542451858520508 1.0839526653289795 0.43490883708000183 0.22176207602024078 1.149390697479248 0.9090271592140198 0.6992585062980652 -0.38148587942123413 0.2014574110507965 1.2737858295440674 -1.5017199516296387 1.6892977952957153 -0.021267374977469444 0.05161530524492264
110 0.31264591217041016 -2.2652878761291504 -0.003752622287720442 1.2083550691604614 0.8697774410247803 0.9944757223129272 -0.4207831621170044 1.4443104267120361 -1.1080693006515503 -0.592823326587677 0.5100530385971069 -1.008557677268982 2.0835301876068115 -0.3902828097343445 0.7529929876327515 -1.2874350547790527 -0.8841843605041504 -0.07947557419538498 0.21163178980350494 -0.3202939033508301
31 1.603419542312622 1.197115421295166 0.9444643259048462 -0.1862642765045166 0.4050385057926178 0.160666361451149 -0.15314023196697235 -2.060433864593506 -0.48378464579582214 -0.6196780204772949 0.7659933567047119 -0.5455150008201599 -0.2338203340768814 -1.7673150300979614 -0.9170351624488831 -1.2252031564712524 -0.34023317694664 -1.00388765335083 -1.187091588973999 0.2189619392156601
51 1.863651156425476 0.9627346992492676 -0.11668793857097626 0.07141539454460144 0.8848779201507568 -0.41801878809928894 1.0168559551239014 0.36698976159095764 0.7113081812858582 -1.399573802947998 -1.9748725891113281 -1.3563278913497925 1.0614194869995117 0.3867722153663635 0.20474013686180115 -0.39884018898010254 -1.311392903327942 -1.2006574869155884 0.27096104621887207 0.632831335067749
114 -1.0060570240020752 0.18706479668617249 -0.6008637547492981 -0.0948079377412796 -0.10624289512634277 1.5390310287475586 -0.074373759329319 0.43054187297821045 -0.17820477485656738 -0.7917327284812927 0.9901983141899109 -0.00238987198099494 -0.4257495701313019 1.1569323539733887 0.4209772050380707 -1.3062635660171509 -0.6855234503746033 1.1376293897628784 -1.0245225429534912 -0.08712872117757797
22 0.07870812714099884 1.415300726890564 -1.3777096271514893 1.3875689506530762 2.200018882751465 -0.546101987361908 0.30769845843315125 -0.7118659615516663 -2.4885616302490234 -0.7485466599464417 -0.644010066986084 -0.5169351100921631 -0.9880102276802063 1.9907891750335693 -0.9955635666847229 -0.7003061771392822 -1.0178295373916626 -0.13912765681743622 -0.48993730545043945 0.32785096764564514
182 -0.20994621515274048 1.0004856586456299 -0.5275015830993652 -0.3642407953739166 -0.19193696975708008 -0.3763013184070587 -1.1559176445007324 0.8480408191680908 -1.0183550119400024 0.8755750060081482 0.23898573219776154 -0.16578459739685059 -0.30472317337989807 0.05251067504286766 -0.09815184026956558 -3.1224732398986816 -1.498653769493103 0.4970536530017853 -0.8929672241210938 0.14277738332748413
77 1.841296911239624 -1.1376512050628662 1.7180513143539429 -0.017268231138586998 0.8772176504135132 0.8411334156990051 -0.3685123026371002 -1.4213764667510986 0.9809830188751221 1.5241706371307373 -0.0633004754781723 0.7254003882408142 -0.8893828988075256 -0.056681979447603226 0.17151765525341034 -0.043210115283727646 0.8919221758842468 1.5670604705810547 -0.7211838960647583 -0.09347144514322281
144 -1.259304165840149 -0.1844644397497177 -0.9237844347953796 -0.09442704170942307 0.9313611388206482 0.9970711469650269 -0.8796020150184631 -1.0038256645202637 0.3579917550086975 0.16999000310897827 0.9567245244979858 -0.4929959177970886 -1.3754119873046875 1.6142512559890747 1.6651537418365479 0.42281603813171387 0.02610357478260994 -1.1440377235412598 0.4305214285850525 0.48808032274246216
157 1.932121992111206 0.952986478805542 -0.7200972437858582 1.693292260169983 0.14062587916851044 -0.57785964012146 0.3061678111553192 -1.0789968967437744 -0.930512011051178 -0.08494089543819427 -0.6517831087112427 1.1259357929229736 -0.6622206568717957 -1.7183715105056763 0.40499621629714966 0.17638419568538666 -2.0646424293518066 0.10400857776403427 -0.9129268527030945 1.4699190855026245
9 0.09439393877983093 -0.7426159381866455 0.8630451560020447 1.175107717514038 -0.16912080347537994 0.6446314454078674 -0.09607640653848648 0.9355937838554382 -0.4584777057170868 -0.12548105418682098 0.5056037902832031 1.6180315017700195 0.7700044512748718 0.12980276346206665 -0.08177132159471512 0.8374168276786804 1.3773239850997925 0.5161346197128296 0.7974215149879456 -0.9592225551605225
189 -0.6387797594070435 -1.4424875974655151 -2.719020366668701 -0.5600746870040894 -1.3867932558059692 -0.0911090150475502 0.6750317811965942 -1.6490784883499146 -0.20500406622886658 1.7023570537567139 -1.667627215385437 -0.24656744301319122 -1.2697087526321411 -1.7477048635482788 0.13568252325057983 -0.6945050358772278 0.25036635994911194 -0.035923730581998825 -0.6918019652366638 1.4106578826904297
93 -0.10456039011478424 1.1490392684936523 -0.3910350799560547 0.4763217568397522 0.8155244588851929 -1.1329574584960938 0.4598239064216614 -1.5597906112670898 -0.4750819206237793 -1.5970306396484375 -0.30834242701530457 -0.09285301715135574 0.43060964345932007 0.2582281231880188 -0.7948880791664124 -0.4721266031265259 -0.3143059015274048 0.5995607376098633 2.973240852355957 0.9202885031700134
5 0.6323521137237549 -0.5902405977249146 -1.3135254383087158 0.5064242482185364 -0.005998361390084028 0.650071382522583 -0.5997461676597595 2.7428622245788574 -0.04649455100297928 1.0872269868850708 0.23421409726142883 -0.7113088369369507 0.04349038377404213 0.09784916043281555 0.8319869041442871 -2.628906726837158 0.48833224177360535 -0.1491638571023941 -0.19874776899814606 1.420057773590088
127 0.03428316116333008 -0.11596064269542694 -1.2172131538391113 0.39239436388015747 1.085679531097412 -0.04962795972824097 0.726219654083252 -1.282138705253601 -0.571358859539032 0.9315085411071777 -0.9187264442443848 0.2979366183280945 0.14825549721717834 -0.213550865650177 1.0500094890594482 0.4654436409473419 -0.6871641874313354 0.5868767499923706 -0.9996269345283508 0.5074514150619507
163 0.5914756059646606 -1.6462953090667725 0.20572228729724884 0.49433252215385437 2.0902724266052246 0.5131918787956238 -0.4287995398044586 1.1997774839401245 -0.8301360011100769 -0.0906289741396904 2.765861749649048 1.7007262706756592 0.3436405658721924 -0.379216730594635 0.97889244556427 -0.11432693153619766 -0.2930797040462494 -1.070871114730835 0.7521634697914124 -2.154994249343872
88 0.5179018974304199 0.7368846535682678 0.10633531212806702 -0.1699269413948059 0.08624112606048584 1.407576084136963 -2.4241292476654053 0.7190573811531067 -0.4655677378177643 -1.1139193773269653 0.08683314174413681 -0.9052904844284058 0.011272255331277847 2.3654282093048096 -0.9956420063972473 -0.34101003408432007 0.45793652534484863 -1.6193758249282837 1.7838412523269653 -1.2876266241073608
62 0.2537173330783844 2.028157949447632 -1.4746049642562866 2.042555093765259 -0.43695589900016785 -1.7102543115615845 0.14047133922576904 0.6144285202026367 1.5890026092529297 -0.2545340359210968 -0.4415394961833954 1.083633542060852 -0.024333531036973 0.13548213243484497 0.677969753742218 -0.2698379158973694 -0.6969901919364929 0.2209450751543045 -0.3138069808483124 0.7703162431716919
145 1.2388352155685425 -0.1331871747970581 0.11700691282749176 -0.5461465120315552 0.9062052965164185 -3.773947238922119 -0.8667536973953247 -0.7263749241828918 0.9057357907295227 0.44365236163139343 -0.10555341839790344 0.30022522807121277 0.8306746482849121 -1.8034327030181885 0.474277138710022 -1.0657174587249756 0.3759786784648895 -0.8689912557601929 2.4507009983062744 -0.5727145075798035
115 -1.4998215436935425 0.5189185738563538 -0.7324198484420776 1.3167016506195068 0.48970508575439453 -1.051673173904419 -0.9589635729789734 -1.135484218597412 -0.6443197131156921 -1.3317656517028809 0.18872234225273132 -0.12372022867202759 1.109619379043579 -0.09203187376260757 0.5184542536735535 -1.000993013381958 0.8882999420166016 -1.7446657419204712 0.22240811586380005 0.07203087210655212
15 1.2232916355133057 0.2500172555446625 -0.5539915561676025 -0.41137176752090454 -2.0756664276123047 -1.5005977153778076 1.1149742603302002 2.3599979877471924 0.12259747833013535 0.39123672246932983 0.4693531095981598 -0.3265206515789032 0.6896818280220032 0.2572921812534332 -1.9237619638442993 -0.8450493216514587 -0.11084794998168945 -0.04917718470096588 -0.31997355818748474 0.49124616384506226
40 0.9042433500289917 -0.32322970032691956 0.11724662035703659 0.06145382672548294 -3.3260364532470703 0.27028000354766846 0.8211702108383179 0.4325401484966278 -0.21583257615566254 -0.9450326561927795 0.28587159514427185 -0.27159371972084045 0.07958589494228363 0.6663194298744202 -2.008620262145996 0.8786982893943787 0.5315464735031128 -0.3401249647140503 -0.911095142364502 -0.17141002416610718
169 -1.5717014074325562 -0.27970752120018005 -1.0824131965637207 -0.53296959400177 -0.5233737826347351 0.8315864205360413 0.5456438064575195 0.5120882391929626 -0.6497777104377747 0.22079487144947052 -0.6815137267112732 -0.48077425360679626 -0.6223154664039612 1.2838910818099976 0.7550729513168335 -1.8606929779052734 -0.7165225744247437 -0.4860496520996094 0.3025043308734894 -1.8243956565856934
155 -0.3554037809371948 -0.2601078152656555 -0.6860794425010681 0.5897256731987 0.15499190986156464 0.6977458596229553 2.1154990196228027 -0.2595463693141937 -0.732426106929779 0.39010676741600037 2.0636775493621826 -0.6244301795959473 -0.40922465920448303 -0.9603075981140137 -0.2755363881587982 0.5629448890686035 0.5026524066925049 0.4279671013355255 -0.5066060423851013 1.0755242109298706
70 0.9844340682029724 1.280494213104248 -0.09151872992515564 0.8188443779945374 -0.27981317043304443 0.6387546062469482 -0.5102181434631348 -1.1181637048721313 -0.3900311291217804 -0.5923901796340942 0.2634408473968506 -1.0200426578521729 0.390677809715271 0.48393693566322327 0.13160039484500885 0.4594481587409973 0.11200887709856033 0.5101010799407959 -1.229979157447815 -0.45470714569091797
158 0.05216642841696739 -0.7710188031196594 0.6937859654426575 0.4919711649417877 -1.3374954462051392 1.3924379348754883 -0.49526092410087585 -0.4816628396511078 -0.9074590802192688 -0.8186328411102295 2.162811517715454 -0.09624408185482025 -0.9086756706237793 0.07010845094919205 -0.9041842222213745 -0.16764163970947266 0.3936452865600586 0.47186556458473206 -0.7182967662811279 -0.2995791435241699
75 -1.217950701713562 0.49157261848449707 -0.5561647415161133 0.4372766315937042 0.5894290804862976 -0.9128273725509644 -1.313109278678894 0.3540416657924652 -0.2230091094970703 -1.0076344013214111 -0.7810507416725159 0.8088325262069702 -0.7475873231887817 -0.7328929305076599 0.9548639059066772 -2.0662498474121094 1.3203984498977661 0.4892978072166443 -3.142078161239624 -0.4673404395580292
104 1.0753512382507324 -0.6755141615867615 0.25573045015335083 -0.4775088429450989 -0.19359204173088074 -0.562887966632843 1.2195478677749634 1.1155990362167358 1.5991624593734741 1.5213333368301392 -0.9630647897720337 -1.6305468082427979 -1.5688551664352417 0.6797307729721069 -1.733332633972168 0.8470863103866577 0.8059887886047363 2.1097023487091064 -1.6317566633224487 -1.1817355155944824
116 -2.116580009460449 -1.6078009605407715 -2.448791980743408 -0.9360746741294861 0.1401945799589157 -0.405114084482193 -2.207521677017212 -1.3347667455673218 1.1170337200164795 1.4706169366836548 -1.0066924095153809 0.9379311800003052 0.6148987412452698 1.3265000581741333 0.47559070587158203 1.1559184789657593 0.20181193947792053 -0.25513342022895813 -0.5100549459457397 -0.38244348764419556
64 1.125355839729309 0.5813023447990417 -1.997602939605713 1.1283835172653198 0.44406798481941223 0.17641663551330566 1.264087200164795 0.5105000138282776 -0.7287189364433289 -0.14902044832706451 0.34467512369155884 -0.9373510479927063 -1.1467005014419556 0.13033989071846008 -0.46703100204467773 -0.6733078956604004 -0.5350490212440491 -1.0973032712936401 -0.5407075881958008 1.6061582565307617
63 -0.9045698046684265 -1.31902277469635 0.380182147026062 1.6538214683532715 1.498930811882019 0.624130129814148 0.26200807094573975 -0.035956937819719315 0.21624118089675903 -0.8712549209594727 -1.8758915662765503 0.7661895751953125 -0.5966220498085022 1.2978425025939941 1.7812949419021606 -0.06501274555921555 -0.7748348116874695 0.736609160900116 -0.2858278453350067 -0.6521029472351074
45 -0.8081590533256531 -1.2031221389770508 -1.488183617591858 0.2269337922334671 0.9277865886688232 -0.017658717930316925 -0.03427150472998619 0.5667501091957092 2.0288474559783936 -0.32954367995262146 -0.7621117830276489 -1.8835911750793457 1.599300742149353 0.8803088068962097 0.03802729770541191 1.554573893547058 -0.4629851281642914 1.455174207687378 0.9260846972465515 -0.26050856709480286
108 0.23099523782730103 0.4404263496398926 0.5962567329406738 -1.7505481243133545 0.04627770930528641 -1.1935620307922363 1.2995073795318604 -0.2624608278274536 0.8220427632331848 1.3180969953536987 -0.6978761553764343 -0.6991223692893982 -1.6512776613235474 0.7991124391555786 -1.1512467861175537 0.5214265584945679 0.09640706330537796 -0.26407575607299805 -1.7848225831985474 -1.857965111732483
39 0.04244649410247803 0.2319106161594391 -2.19400691986084 -2.6067166328430176 -0.005646650679409504 -1.321786880493164 0.32897618412971497 0.6302331686019897 -0.5512186288833618 0.36416390538215637 0.678320586681366 -0.3716267943382263 -0.4284267723560333 0.45050764083862305 -0.00296952947974205 -0.532478392124176 1.3073838949203491 0.3734447658061981 -0.1426977515220642 -1.2151330709457397
179 0.7227470278739929 1.7879887819290161 -0.36974096298217773 -0.051011230796575546 -0.20896345376968384 0.5705308318138123 0.3416130244731903 0.9260581731796265 -0.5801836848258972 -1.505555272102356 -0.013527854345738888 -1.327571988105774 -0.9324451684951782 2.6367380619049072 -0.9240948557853699 -0.2849341630935669 0.18259888887405396 -2.385730266571045 -0.12535864114761353 -0.810731053352356
152 -1.032446026802063 0.4374619722366333 -0.6328700184822083 -1.962884783744812 0.6501238346099854 1.27048659324646 -1.0066348314285278 0.40766704082489014 -2.4425346851348877 1.2556960582733154 1.6812796592712402 0.5380849838256836 1.6768776178359985 -0.6393239498138428 0.2580268383026123 0.04018476605415344 -0.9082819819450378 -0.1360391527414322 0.09025535732507706 -0.22349214553833008
80 -0.47074878215789795 -2.5610015392303467 0.7006110548973083 -2.6259219646453857 -0.6608980894088745 2.5899367332458496 -1.7625081539154053 0.5635890364646912 -2.2537291049957275 -0.5755006670951843 0.4193001687526703 -2.079378604888916 1.418290376663208 -1.0441662073135376 -2.053856611251831 1.2499099969863892 0.04535630717873573 -0.6647825241088867 -0.7144895792007446 0.6898497939109802
50 1.163221001625061 -0.27143213152885437 0.453106552362442 0.4769333004951477 1.0213853120803833 -1.053808331489563 -0.45394256711006165 0.6883563995361328 1.336715579032898 -0.008631115779280663 -0.14379777014255524 0.6411378383636475 1.1867181062698364 0.7441210150718689 -0.5088912844657898 0.3518258333206177 0.5187739729881287 2.8085572719573975 -1.1362780332565308 -1.6749029159545898
197 -0.0011926632141694427 -0.17654822766780853 0.5579798221588135 0.6464487910270691 0.8727672696113586 0.4349723160266876 -1.0591062307357788 0.49125123023986816 1.0992993116378784 -0.4831826984882355 -0.9868080019950867 0.8873563408851624 0.017874618992209435 0.9964561462402344 2.238905906677246 0.7863124012947083 1.1128488779067993 0.9632296562194824 0.8533778190612793 -1.587781548500061
198 1.3119852542877197 -1.5496537685394287 0.5030305981636047 0.5622533559799194 -1.2686892747879028 -0.03162335604429245 -0.46895840764045715 2.1355936527252197 -0.43218013644218445 0.024731632322072983 0.856674313545227 1.2728430032730103 -0.9491099119186401 0.8719354867935181 0.5933524966239929 1.3721923828125 -0.2867674231529236 -0.35971155762672424 -0.5847436189651489 -1.1639407873153687
42 1.6004809141159058 -0.06482936441898346 1.08535897731781 -0.4612104594707489 0.8186774253845215 -1.5260065793991089 0.684992790222168 0.3155052363872528 -1.3450424671173096 -0.4108057916164398 0.3723243176937103 0.3654598891735077 -0.10455337166786194 -0.008299115113914013 -0.008624618873000145 0.8112100958824158 -1.4400955438613892 0.39104366302490234 0.6400352120399475 0.5802668333053589
101 1.5964093208312988 -0.5396167635917664 0.352260947227478 0.6181187629699707 0.3879989981651306 0.5612921118736267 0.35587435960769653 -1.9174240827560425 0.8763388991355896 1.1874849796295166 0.33427542448043823 -0.6160504221916199 0.32203927636146545 0.5589423775672913 -0.6011056900024414 0.9643926620483398 3.5459015369415283 0.5664274096488953 -0.4944761097431183 0.25449252128601074
105 1.1477482318878174 -0.5148667097091675 1.2666704654693604 -0.1773768663406372 -0.06055470556020737 0.005520410370081663 -0.3810665011405945 1.7064154148101807 0.8803321123123169 -0.16306206583976746 -0.3057483434677124 0.9301460385322571 0.7250714898109436 -0.9964537620544434 -0.469167560338974 -0.38114309310913086 -0.25533533096313477 1.0627864599227905 -0.36752399802207947 -0.1110365241765976
71 -0.0256352499127388 -0.18999746441841125 0.38165321946144104 -1.339858889579773 0.4629884958267212 -0.4043431878089905 0.5900073051452637 -0.1265164613723755 -0.9177762269973755 1.3780187368392944 -0.29478582739830017 -1.486812710762024 -0.4410306215286255 -0.4395413100719452 1.0761727094650269 -0.539296567440033 -0.05559668689966202 0.468498557806015 -1.5814682245254517 -0.7108350396156311
134 0.38776537775993347 -0.4470193386077881 -1.2641383409500122 -0.38985881209373474 -0.2510637640953064 -0.6836004853248596 -1.6797635555267334 0.9779866933822632 0.6333789825439453 0.25316062569618225 0.4339746832847595 0.7826366424560547 -0.7494673728942871 0.016613919287919998 0.8936598300933838 -1.561047077178955 -0.5824480652809143 0.6860107779502869 0.9169656038284302 0.0005055622314102948
76 -0.9319952130317688 0.391474187374115 0.8880143761634827 1.0197347402572632 -0.44472163915634155 0.5321422815322876 -0.4848867952823639 -0.33257031440734863 0.6442655920982361 -0.6260126233100891 -0.878817617893219 -1.0950778722763062 -0.6315394639968872 0.2073504775762558 0.3402346670627594 0.35130739212036133 -1.9064329862594604 -0.16330520808696747 1.2490099668502808 0.3934325873851776
190 -1.1654375791549683 -0.32777273654937744 -0.3773910701274872 0.7500731348991394 -1.4889626502990723 -1.4088214635849 0.055294860154390335 -1.4723109006881714 -0.04272325336933136 -0.8636435866355896 -1.3867006301879883 -0.8456211686134338 -1.5501503944396973 -1.0058784484863281 0.8974305987358093 -0.8972212076187134 -2.425020456314087 0.7453004121780396 -0.5772868394851685 0.7867040038108826
139 0.02073563262820244 -0.45366767048835754 1.6568173170089722 0.5691579580307007 1.5078554153442383 0.09925896674394608 1.217126488685608 -0.8395813703536987 0.3576677143573761 -1.705215334892273 -1.3812761306762695 0.6767611503601074 -0.5007131099700928 -1.2687888145446777 0.8388539552688599 0.06961771100759506 2.4585978984832764 -0.16099418699741364 2.145751476287842 -2.5272767543792725
153 -0.8827073574066162 0.045523013919591904 0.8957920670509338 -1.447509765625 -0.9151597023010254 -1.07089364528656 -0.6911889910697937 -0.11909077316522598 -1.9396270513534546 -0.5904232859611511 -0.463591605424881 -0.5263925790786743 1.2536041736602783 -0.38716375827789307 -1.8230371475219727 0.516299843788147 0.022345343604683876 -1.056151270866394 -1.5085512399673462 0.34528326988220215
27 -1.9471614360809326 1.5078649520874023 -0.46784886717796326 -0.5858965516090393 0.7886089086532593 1.737769603729248 0.7565048933029175 1.1297941207885742 -0.9842223525047302 0.7798563838005066 -1.8708354234695435 0.13340499997138977 -0.9554463028907776 -0.6812831163406372 -0.8995701670646667 0.489203542470932 1.6303033828735352 0.39782989025115967 0.7443134188652039 -0.8323732614517212
113 -1.0787320137023926 0.3155803978443146 -0.26501986384391785 0.23944947123527527 -1.6585437059402466 0.3391916751861572 0.0027002098504453897 0.7493343949317932 0.5315975546836853 1.0573087930679321 0.7521728873252869 -0.10468373447656631 -0.8580352067947388 0.3640850782394409 0.9527509212493896 -0.1379161775112152 -0.7054660320281982 -0.8664037585258484 -1.0611240863800049 -0.6481102108955383
59 -0.8152819275856018 1.3464977741241455 -0.18016201257705688 -0.7004235982894897 -0.018262162804603577 -0.30799975991249084 0.1858995258808136 -1.713158130645752 1.0763719081878662 -2.805781841278076 0.9249476194381714 -0.5615463852882385 -0.14237304031848907 1.3109103441238403 0.09897300601005554 -0.812010645866394 -0.5715276598930359 0.0921020358800888 -1.843904733657837 -0.01974497362971306
46 -0.4042178988456726 -0.028656402602791786 -0.1796150803565979 0.6663082242012024 0.21988268196582794 -1.743521809577942 -1.6065796613693237 0.13383735716342926 1.5285499095916748 0.37085676193237305 1.082525372505188 -2.8811209201812744 -0.838543176651001 0.9602932333946228 1.5446940660476685 2.2398579120635986 -0.17010337114334106 1.7594338655471802 1.2657967805862427 0.935758113861084
25 0.7339488863945007 0.3500306308269501 1.1153262853622437 -0.4435594081878662 -1.8854138851165771 2.9055685997009277 0.13332073390483856 -0.608431875705719 -0.3457445204257965 1.2909563779830933 0.36862239241600037 0.8416944146156311 0.11398319900035858 -1.3755195140838623 -1.2686004638671875 -0.3768174946308136 1.4289385080337524 -0.7685132026672363 0.15315154194831848 2.0918424129486084
84 -0.2383294403553009 -1.2112394571304321 1.4035181999206543 0.8943256139755249 -2.451897382736206 0.03853354603052139 -0.7499247789382935 0.11163179576396942 0.8257558345794678 -0.9693945050239563 -0.09008263051509857 0.16523849964141846 0.8954286575317383 0.8748103976249695 0.03996503725647926 -0.5932871103286743 0.9249861240386963 -1.0457745790481567 -0.29832324385643005 1.1381973028182983
12 -0.08670645952224731 1.1702009439468384 -0.3428272306919098 0.12381597608327866 1.4963442087173462 -2.341923952102661 -0.6335940361022949 -0.8377861976623535 6.964860949665308e-05 -0.12221714109182358 0.36146748065948486 -0.8384490609169006 -0.1486642062664032 0.2879942059516907 0.34089359641075134 -1.2956132888793945 -0.5541237592697144 -0.03505057096481323 0.5781137943267822 0.10972225666046143
126 1.401120662689209 -2.1804769039154053 -0.07001406699419022 0.6761561632156372 -1.5577863454818726 0.8293328285217285 -0.9973223209381104 -0.057158462703228 -0.49185800552368164 -0.2976531386375427 0.907605767250061 -0.9026098251342773 0.9757946133613586 0.6066199541091919 -0.3831479847431183 1.203424334526062 -1.0793851613998413 0.6988542079925537 -0.736459493637085 -1.2284891605377197
90 0.7818935513496399 -0.34571099281311035 0.6414710283279419 0.5347765684127808 0.16210120916366577 -0.0433952696621418 0.47591301798820496 -0.27519533038139343 -1.678905725479126 1.1912132501602173 -0.5485645532608032 -1.0721356868743896 -0.8566228151321411 0.47342026233673096 0.31562677025794983 1.2633219957351685 0.1488119512796402 0.02299564518034458 0.7430492043495178 0.12936249375343323
32 -1.2323660850524902 -0.8717038035392761 -0.2036287635564804 -0.4982263147830963 -0.8542080521583557 -0.45808228850364685 0.4496508240699768 -1.1899194717407227 -1.1314677000045776 0.4949146509170532 0.1064312607049942 -0.2992223799228668 0.19493795931339264 0.3856750726699829 -0.0727718323469162 0.07288593798875809 0.9066001772880554 -0.25535041093826294 1.4985225200653076 -0.9194297194480896
143 -1.1337312459945679 1.0165873765945435 1.1701914072036743 -0.09555712342262268 0.9418838620185852 0.6872161030769348 -0.03598669171333313 -0.19553999602794647 0.2599601745605469 0.4683806598186493 0.484495609998703 -0.1992426961660385 0.7552673816680908 -0.22729995846748352 -0.9538339376449585 -1.5978419780731201 -0.5996080040931702 1.9479373693466187 0.3731459081172943 -0.1953904777765274
107 0.3710882365703583 0.4497605264186859 1.1619625091552734 0.11162500828504562 0.02092612534761429 0.43094268441200256 1.1002238988876343 -1.6674549579620361 -0.4424701929092407 -1.393525242805481 -1.0815339088439941 -1.0294238328933716 1.2427401542663574 -0.32359281182289124 0.2966439425945282 -0.5487352013587952 -0.781965970993042 0.5262774229049683 0.6466918587684631 -1.5230814218521118
193 -1.0965070724487305 -0.6542702317237854 1.783076286315918 0.7907050848007202 -0.5191791653633118 1.2142627239227295 0.38563114404678345 -1.3482463359832764 -0.4451771676540375 -0.7725839614868164 -0.34266397356987 -0.6180870532989502 0.5726549625396729 1.109947681427002 -0.0384439192712307 0.9882180094718933 0.4792061150074005 0.5705702900886536 -1.899368405342102 0.6569704413414001
111 -0.19533920288085938 1.688517689704895 0.8227337598800659 -1.0510717630386353 -0.6445748805999756 0.32135212421417236 -0.3266063928604126 1.1029672622680664 -0.6781313419342041 -0.43040916323661804 0.7026283144950867 1.1782866716384888 1.1356077194213867 -0.11871964484453201 0.29328474402427673 -0.24730578064918518 1.4520158767700195 -0.8396353125572205 1.822594404220581 0.5088053345680237
3 -0.588716983795166 -0.29361510276794434 -0.10672253370285034 0.6288468241691589 -0.509697437286377 -0.07379338145256042 0.49574050307273865 -1.0565625429153442 -0.591596782207489 -0.10899853706359863 -0.24139456450939178 0.5837289690971375 0.8059501051902771 0.4137938618659973 -0.2424527406692505 -0.8047118186950684 0.6287761330604553 2.871584415435791 0.7785366177558899 -0.013491821475327015
199 -0.530876874923706 0.029099538922309875 -0.048737768083810806 1.5325666666030884 0.6565412282943726 1.2325761318206787 -1.267767071723938 1.6143983602523804 0.6207520961761475 -1.844539999961853 0.25269076228141785 0.13199907541275024 -1.2194101810455322 0.7815110087394714 1.3482531309127808 1.7904185056686401 0.5465278029441833 -0.5526818633079529 0.06327051669359207 -1.0556670427322388
41 -0.4491601586341858 -0.5225843191146851 1.3930155038833618 -0.3925853371620178 -0.1921236515045166 -0.16962677240371704 -0.5549278855323792 -0.7548195719718933 1.501222848892212 0.35570064187049866 -1.2501251697540283 0.07059650868177414 0.7453955411911011 0.4732847213745117 1.1362932920455933 -1.3575270175933838 -0.4731173813343048 -0.43999814987182617 0.3951777219772339 0.10787421464920044
131 -0.9022785425186157 -0.835091233253479 0.5981266498565674 -1.8710851669311523 -2.135000705718994 -0.8723803162574768 0.48462021350860596 -0.25229412317276 -0.3309924900531769 -0.3487304449081421 1.4581289291381836 1.5280007123947144 0.22617532312870026 0.9856153130531311 2.0278329849243164 0.4426681399345398 -1.8486685752868652 1.139644980430603 1.141554832458496 0.3628023862838745
21 0.8737689852714539 -1.1154210567474365 -1.625849962234497 -0.5465179085731506 0.6327135562896729 0.5136367082595825 0.37641197443008423 -0.17080438137054443 -0.6516114473342896 0.522432804107666 -0.6510299444198608 -0.36005261540412903 0.08230718970298767 -0.252201110124588 0.2812674939632416 0.6774213314056396 -0.8050984144210815 -0.688788890838623 0.23831847310066223 1.176296353340149
165 -1.2266913652420044 0.0300244502723217 1.6682493686676025 1.0795162916183472 -0.46926385164260864 0.9685039520263672 -0.6157406568527222 -0.31215065717697144 0.5768471956253052 1.0322657823562622 1.5522260665893555 0.3412955105304718 -1.0567736625671387 0.471832275390625 -0.4008646607398987 -0.006968609988689423 -0.20591187477111816 0.2919258773326874 1.1140791177749634 -0.391427606344223
112 -0.7953181266784668 -0.6525124311447144 -0.2204275280237198 1.9738174676895142 -1.7595081329345703 0.4139271080493927 1.6411256790161133 1.8033097982406616 1.4282753467559814 1.2774920463562012 -1.5842690467834473 1.176758885383606 0.6236510872840881 0.3512621223926544 0.6498441696166992 2.1689770221710205 0.7727835178375244 -0.7111244797706604 -2.2665090560913086 1.2405232191085815
48 1.741565227508545 0.22915151715278625 -0.3767199218273163 -0.30218344926834106 -0.41744428873062134 0.5681953430175781 0.2227310836315155 0.8723008036613464 -0.7042840719223022 -0.6654170751571655 1.1243013143539429 -0.3147076368331909 -0.7675105929374695 0.17241904139518738 0.8121541142463684 -1.5326600074768066 1.386887550354004 -0.13637816905975342 -0.45007967948913574 -0.126679465174675
148 -1.104041337966919 -0.23434457182884216 -0.17368946969509125 0.7337397933006287 0.07534883171319962 1.395329236984253 -0.04319194331765175 -0.2328784167766571 -0.0024575067218393087 -0.3065475523471832 -1.4534639120101929 1.8080239295959473 -0.965866208076477 1.3108760118484497 1.6295448541641235 -0.32509276270866394 -1.2417644262313843 2.2278409004211426 -0.04129703342914581 -2.102320909500122
72 0.6582454442977905 -1.5343596935272217 -0.5096843838691711 -1.2656350135803223 1.3979548215866089 -1.041560411453247 -1.1416015625 -0.290172815322876 -1.1411564350128174 -0.8094522953033447 0.14811962842941284 -2.0999553203582764 -0.09900593012571335 0.5450692176818848 1.3148186206817627 1.7325886487960815 0.9331009387969971 0.8315155506134033 0.5253055691719055 2.4080119132995605
141 0.9521062970161438 -0.32810768485069275 -2.2955355644226074 -0.9481748342514038 0.14817817509174347 0.46889111399650574 0.2903202176094055 -0.2977151572704315 -0.01838279701769352 0.5782667994499207 0.37932077050209045 1.082423448562622 0.09773040562868118 1.2450180053710938 -0.32110753655433655 0.49727848172187805 -1.3781856298446655 -0.8318057656288147 -0.7872583270072937 -0.6570701599121094
55 0.7051966786384583 0.2510555386543274 -0.29877862334251404 0.5894165635108948 0.546210527420044 -0.03751944750547409 -0.6580597758293152 0.9477865695953369 -0.4124411344528198 2.023874521255493 -0.8512493968009949 -1.647942066192627 -1.6667367219924927 -2.226104736328125 -0.40485987067222595 -0.417468398809433 0.46903273463249207 1.5300960540771484 -1.665909767150879 1.4759914875030518
37 -0.7454966902732849 -0.02071489579975605 0.15036623179912567 -0.7608292102813721 -0.1804543435573578 -0.9254817962646484 -0.524086594581604 -0.07332785427570343 0.2898620665073395 -0.1933525800704956 -1.436732530593872 1.5764113664627075 -0.8008365035057068 0.3113575577735901 -0.49712803959846497 0.9356594681739807 1.2438100576400757 -0.8216995596885681 1.925795316696167 -0.10612491518259048
67 0.04280465096235275 0.3080156445503235 -1.5250232219696045 -1.6695480346679688 0.5547426342964172 0.6450482606887817 0.8399164080619812 0.31840208172798157 1.746730089187622 0.32322999835014343 -1.4636386632919312 -2.515998363494873 -1.7629412412643433 0.21800833940505981 -2.8738837242126465 -0.3139054477214813 1.3057665824890137 -0.5159352421760559 0.6445993781089783 -2.403843402862549
191 -1.6216691732406616 -0.22116845846176147 -0.46933677792549133 -0.088792584836483 1.8768413066864014 0.3802925646305084 0.9050950407981873 -0.38729578256607056 1.8089072704315186 -1.3406646251678467 1.5359447002410889 0.2925211191177368 1.5507276058197021 -0.0843764990568161 -1.073725938796997 0.1926688402891159 0.5484535098075867 0.2941848933696747 -0.09823726862668991 -1.4013316631317139
8 2.3868296146392822 1.3990938663482666 0.050017960369586945 -0.9288667440414429 -0.38833656907081604 -0.16547060012817383 -0.062270231544971466 0.9443511366844177 -0.15069377422332764 0.04699022322893143 -0.1629711091518402 -0.9116118550300598 0.5334797501564026 0.43861132860183716 0.7352457046508789 0.3561328649520874 0.2612941265106201 0.2690097987651825 0.18928684294223785 -0.23103144764900208
154 0.6985788345336914 -2.134221315383911 1.168683648109436 -1.595028042793274 -2.3070333003997803 0.49077388644218445 0.7080422639846802 -1.0053811073303223 0.3370787799358368 -0.9051092267036438 -1.063202977180481 0.7733280062675476 -0.4280927777290344 1.4262621402740479 -0.14243020117282867 0.013960197567939758 2.2759225368499756 -0.9232074618339539 3.4761738777160645 -0.5946829319000244
99 -0.3817540109157562 0.15236243605613708 -2.0165796279907227 1.3903433084487915 0.5925103425979614 0.9938479065895081 1.945920467376709 1.3914155960083008 -0.38158947229385376 -0.5015043616294861 0.3209312856197357 -0.23448485136032104 1.0666166543960571 0.1675550639629364 1.8030816316604614 0.44519251585006714 -0.680963933467865 -0.9791964292526245 -0.0649041160941124 -0.12060128897428513
68 -1.2590214014053345 -0.6384098529815674 1.2209978103637695 -0.27966582775115967 0.9719631671905518 0.135779470205307 -0.3836548626422882 -1.5967150926589966 0.03420223295688629 0.08313856273889542 0.21306346356868744 0.0205793809145689 0.8271502256393433 0.90413898229599 0.684611976146698 1.3896640539169312 0.31022489070892334 -0.15713593363761902 0.5059903264045715 0.34017494320869446
125 -1.2635436058044434 1.2960058450698853 0.11095891892910004 0.2848101556301117 0.09284380823373795 0.0990365669131279 -0.9852151870727539 -0.8604207038879395 1.2114125490188599 -0.63763427734375 0.09713488072156906 0.12142104655504227 0.1434939056634903 1.7734392881393433 1.5262497663497925 -0.1405385285615921 0.5370681285858154 -0.37805694341659546 -1.3914302587509155 2.2130565643310547
137 0.3842407166957855 0.058836549520492554 0.06541319936513901 -0.5165308713912964 0.4433068633079529 -1.8121094703674316 0.5365167260169983 0.4699607789516449 -0.7743239998817444 0.7350336313247681 -2.248344659805298 0.3053174614906311 0.5561773777008057 -0.47826293110847473 -3.0529468059539795 1.6116961240768433 -0.3370491564273834 0.7606824636459351 -0.12409695237874985 -1.1773537397384644
117 -1.5167922973632812 -1.7229214906692505 1.5837416648864746 0.17727425694465637 -0.7614681720733643 0.05970703437924385 -0.20764298737049103 -0.519370436668396 0.5866597890853882 1.3155431747436523 0.24440428614616394 -0.49823397397994995 0.6757954955101013 -2.0029637813568115 0.3609848618507385 -0.31539493799209595 0.9078809022903442 -0.25351813435554504 0.10836926102638245 -0.00606031296774745
129 -0.8823684453964233 0.06546076387166977 -0.6696141362190247 -0.6121695637702942 -0.14809206128120422 -0.1076485738158226 0.36611872911453247 0.7894142270088196 1.2233844995498657 -0.6729367971420288 0.66456538438797 0.77964848279953 -0.3929849863052368 0.454361230134964 -1.3763549327850342 1.5826857089996338 -0.27103304862976074 -1.2764254808425903 1.1116787195205688 0.5143373012542725
83 1.0211199522018433 0.29757964611053467 0.5485424995422363 0.8802610635757446 1.1770001649856567 0.015027407556772232 -0.9199429750442505 1.2361005544662476 0.058473993092775345 0.5551241636276245 0.1530587524175644 0.18081724643707275 -0.21100600063800812 0.8672620058059692 -0.8188149333000183 0.9822805523872375 0.7970337867736816 0.5182368159294128 0.8934104442596436 1.7659474611282349
120 -0.5625362396240234 0.4348923861980438 -0.8126229047775269 0.24126705527305603 -0.09554831683635712 0.37735751271247864 0.8368040323257446 0.9686583876609802 0.7834235429763794 0.7205073237419128 2.753443956375122 0.7160462737083435 -0.38834670186042786 0.7601181864738464 -0.9649038910865784 -1.4911998510360718 -0.08267232775688171 -0.5726919174194336 -0.8695573210716248 0.9559162259101868
86 1.175207495689392 -1.317716121673584 0.3628232181072235 -1.5097602605819702 -0.18079610168933868 -0.0739247128367424 -0.19977149367332458 -1.2572180032730103 -0.9365603923797607 0.29165923595428467 -1.6034406423568726 -0.9889125823974609 -0.0025023941416293383 -0.8368483185768127 -0.5133628249168396 1.5734564065933228 -0.32562029361724854 -0.4154249131679535 -0.5778247117996216 0.421333372592926
103 -1.120798945426941 0.10477226227521896 0.7272636890411377 0.10052467882633209 0.190695658326149 -0.36379551887512207 -0.005326930899173021 0.11617709696292877 1.055543303489685 0.38797515630722046 0.7255263328552246 -1.7978031635284424 1.018378734588623 1.5637450218200684 -0.7556842565536499 -0.17112988233566284 -0.38377028703689575 0.08413863927125931 0.9555767774581909 -0.6760228276252747
168 0.6401738524436951 0.8917750120162964 0.304704487323761 -0.24980495870113373 -0.9071495532989502 -0.3998726010322571 0.24938252568244934 0.6557276844978333 1.2476286888122559 0.047891292721033096 1.9400056600570679 1.5887587070465088 -0.17896534502506256 0.5794007182121277 -0.2795742154121399 -0.4232945442199707 -1.0909366607666016 -0.2955285608768463 0.9940040707588196 0.4726596176624298
106 -0.5063162446022034 -0.41643252968788147 -1.6273596286773682 -0.07068075239658356 0.10662660002708435 0.013188923709094524 -0.963793933391571 -0.1013210117816925 0.45384538173675537 0.5306478142738342 -0.5500661134719849 0.19529113173484802 0.31203168630599976 0.012665999121963978 -0.31779590249061584 -0.9430378675460815 1.1680570840835571 -0.3835698664188385 0.8790992498397827 -0.08437346667051315
196 1.5319480895996094 0.022903794422745705 0.9294012784957886 0.5598880052566528 -0.9176812171936035 -1.280783772468567 0.10375308245420456 0.1772920787334442 0.6994906067848206 0.4519740343093872 0.14048731327056885 0.019329184666275978 -1.087469458580017 1.2798787355422974 -0.6533936262130737 1.9834290742874146 -0.10300751030445099 -0.06419524550437927 0.262393981218338 0.8191450834274292
185 0.18976683914661407 -0.12683184444904327 0.6256080865859985 0.940412700176239 0.6021584272384644 -0.14799484610557556 1.4551656246185303 -1.4337126016616821 0.4590149223804474 -0.9973343014717102 0.5372530817985535 -0.5322412252426147 -0.6064642667770386 -0.6181892156600952 -0.7056245803833008 1.5817662477493286 -0.6407802700996399 -0.7607377767562866 -0.5459460616111755 -0.007962774485349655
