200 20
174 0.11803402874674662 0.04505137661232745 -0.3390551033138106 -0.06712859068514716 0.0052709390305766945 -0.3438458461284943 0.4305130951176741 0.47307662197772954 0.07348841665675036 -0.14368413782344544 0.05531810576292603 -0.07886974626447511 0.12833503642640373 0.3698837500434936 0.07415092707789017 -0.16533693528816415 0.30120974943521545 -0.0688020237466706 -0.1379628723901767 0.035119380993687256
7 0.11087296860752469 0.17137530976588072 -0.08527206746103853 -0.2799654901011241 -0.12896026318683745 -0.20952170661643166 -0.19041767614872837 -0.019876051892934284 -0.038350393456815964 0.36538880355074427 -0.30490611668778334 -0.08544036747289803 -0.5733401591534368 -0.10072651923981092 -0.3012074600202474 -0.28851610086209856 0.13763397710463585 -0.04605856716952606 -0.0014557423911698217 -0.07972009981831878
33 -0.10273535819582943 0.17363286637992567 -0.08371233172738868 -0.4049193077787299 0.13034366113997678 -0.1615194904383386 0.3490805945980406 0.18958389020705652 0.20217271567007727 -0.31229966819508503 0.0061819857565254075 0.1238694878900175 -0.07629792420126523 0.1856987076413764 0.4894287743077719 -0.12941912388856205 -0.00206364387705978 -0.36648410454834546 -0.019243793793432985 -0.048837987594568755
138 0.15738879695847793 -0.3954484944673645 0.04050971079591881 0.008633645256875993 -0.09125824263800662 0.08525764605840719 0.2843978412614005 -0.1339365151585197 -0.33365150625916273 -0.013362921219924396 0.03742765821591108 -0.07127696053291493 0.3557919902521052 -0.27905874999103486 0.2230692880638376 -0.22986027884597054 -0.21515540694801852 0.3791035911258249 0.21824704434450856 -0.20007945579738717
188 0.3667820552770361 0.0945672297034663 0.17629525145503924 0.0015969247767405603 -0.128855255015534 0.3932262608111055 -0.08911682334989032 -0.07282519394104153 0.07035033947510473 0.04433911542891911 -0.21138561515322066 -0.017770311727915263 0.43100756887545577 -0.16494644728731475 -0.07463931476949005 -0.015224618374032084 0.36377298624149645 -0.1750759709023318 -0.4267613479404689 -0.15864866639715777
95 -0.23549253639244072 -0.24444809756158692 -0.114025871901828 0.2562697088687576 -0.0847209137357364 0.19336559298829498 0.014227098761269853 0.24061906406092587 -0.32017932257509824 0.005047697034380805 -0.016363777977219482 0.3398531068728212 0.06747670850441123 -0.25366911651014956 0.054184239777621976 -0.08118886131436671 -0.09027517759929189 0.17177242521839545 0.3187784462622321 0.5171386282750872
164 -0.16031625821513235 -0.09235757433346062 -0.27282779440458205 -0.23648635003239055 -0.2997719104710159 -0.23085961850814155 -0.29022319015990095 -0.21134317684237636 -0.32688208477557895 0.19182709900410555 0.16615039349662167 0.1426766248949441 -0.19644503954687947 0.04586997577345442 0.14251841049991218 -0.026201898117677865 0.041178333710029054 -0.47304180791947903 -0.14167872048051738 -0.2539904273920216
43 0.15676562118212617 -0.04196056699079949 0.32050133775467476 0.029371053070545328 0.09432095290160569 -0.39894581926715567 0.1840898814755722 -0.1722213123959922 0.03897197867166545 -0.16120711454659228 -0.041623197737745095 0.5504117815074494 -0.2934253907610854 0.06144271868799212 0.0867378531334378 0.09598388125118497 -0.38178387674890135 -0.20475917497053156 0.039196265484341034 -0.10223924814215012
102 -0.47464991902679243 -0.03259985379970393 0.10075290011777825 -0.1845844215411065 0.43188778179458714 0.027021741905041467 -0.12655179228129654 -0.18195403021889542 -0.21015145179022043 -0.10579431569173545 0.06868238617294914 -0.46615745927523594 -0.05620780517625246 0.08378196319378822 -0.08531996908872722 0.14544749034593385 -0.21249686776886945 -0.35522947159772406 -0.07030535789471387 -0.027698197103667544
130 0.22508546020444992 0.1081178844077632 -0.16696937255364852 -0.4311231568003731 -0.3465123760494639 -0.10151719538758643 -0.13064287836609412 -0.10625054261027801 0.10691296031356591 0.33985526070480054 -0.3786124121102988 -0.34454695633547827 0.00978218118711709 -0.009770606070794597 -0.1770514697521475 -0.17036945719724703 0.10420465201893732 0.07965575982866989 -0.12104970690200072 0.2894047127601419
178 -0.3275652701148111 0.21295043417876225 0.14497385786164696 -0.04481391688048022 -0.23396698159282728 0.07320554434663358 0.23331865577923583 -0.17475318987394628 0.21171805723064063 -0.10615032430969318 0.045856662797843055 0.1267613870830647 0.42906028255865486 -0.27738515167059785 0.28532850680008137 -0.24576363945608903 -0.2372069726016041 -0.059062162439207616 -0.3393163024758191 0.1650737469142068
56 0.23110205227560657 0.3936663815649478 -0.2228763477136578 -0.2244341801278821 -0.15733198811538804 0.45557669326071304 0.2681908308375516 -0.024267918635097894 -0.30031789960257477 -0.17972586212215022 0.17883692669229562 -0.029976519286097486 0.19207361253784588 0.08009909605997079 0.2962109831753527 -0.22976992539831775 -0.0046704674594421226 0.1545122260242927 -0.15263828095476373 -0.01855177223910233
186 -0.06568366153867813 -0.0947701703035227 0.11645694091002426 -0.09843966414619744 0.10701347583214098 -0.36638216600737483 -0.03945300184726132 0.04769112642234105 0.09911754254132202 0.06254322714731847 0.13900148104699142 -0.0019319585430258312 -0.2604938219256762 -0.2673362737027115 -0.47989291136926937 0.06185336748656661 0.3311459858928318 -0.39154761359865425 0.06902819794287988 0.3737525232394755
81 -0.33001233999158425 -0.07998385953144622 -0.2658038341969604 0.22127637670021263 0.10698863554993178 0.015529577910146053 -0.050003016263615675 0.19490907632318638 0.2783826879154831 -0.24998772573616673 0.09132257884981254 0.11130803535296839 0.103577224377817 -0.06050553481087723 0.25317347957818437 -0.16934947237899184 -0.29292492186517616 -0.42923346756017283 0.0849627816023716 -0.40957470759414705
36 -0.2601721734800547 -0.46319251996277194 -0.01872658663719851 -0.002720301897160937 -0.11874711196653433 -0.23442171777085455 -0.19683922334531145 0.05961767687260349 -0.07233262663698006 0.036499383884022546 0.09411463556053834 -0.18010936411203832 0.018192809186599594 -0.2491269201258393 -0.3857492531848503 -0.08032520242464933 0.3214805233602694 -0.4759001024641713 -0.004356380433373075 -0.10339231484180922
166 -0.06496485742349763 -0.10550087838508547 -0.1941827824940679 0.1437074054149338 -0.48591494273394187 -0.2358787338062573 -0.2471481390337293 0.1945058011127282 0.3055229648572431 0.1843575085880149 -0.20817392691994618 0.18012914997263632 0.17374313208237835 0.03306274257430044 0.06342082430585887 -0.05708709931473922 -0.0925811724384832 0.45677440960550986 -0.02480153832945647 -0.27589569402819053
74 -0.06717879672979894 0.06747150349381158 -0.0030992934488602154 -0.10658377002388936 -0.06792772298071825 0.40378894846935365 -0.0732969332495166 0.04434035064030311 0.3149259495727192 -0.05661308848438811 0.449657765346994 0.418901331332191 0.1168160528970587 0.004629396267053177 -0.3630870578776198 0.3161890207347346 0.045607852664025846 0.027267668351598523 0.23615758363619313 0.14298177803833892
118 -0.4085433816736164 0.057474546444899376 0.03258142073921727 -0.17350668870767522 -0.4028049869230675 0.3036100620690804 -0.15198034038474673 0.039519933227659 0.2391588621112384 0.015902746251648302 0.31506573016493433 0.020143462145985475 0.36849162280740533 0.1743536966735759 0.07228452469855938 -0.10437372904648343 -0.2405134755872435 0.14369995524746457 0.127769913692628 -0.2920345756176077
150 -0.2874244008251018 -0.24950422441825487 0.17484359960715296 -0.593733341572842 0.09932906075893763 -0.13450934232887243 -0.02052183841255826 0.05048103831065098 0.03832070177502629 -0.04205836336933563 0.3006415220659188 -0.3884611101222844 0.02314300942077985 0.17141182238232472 0.16991707883216134 -0.005647685050567642 0.03974574314375232 -0.22782254068277843 0.23943726896681664 -0.1641875965855802
173 0.03885046687980207 -0.16166001450038567 -0.43244494188089944 0.15505328365871507 -0.05547794961428513 0.16142945466388287 0.12386437164956625 -0.03274719385283236 0.24638900532228647 -0.27747569713380515 -0.12843810510643333 0.003036515100533527 0.060955863425167726 0.25079089305301583 -0.18528618670951538 0.41988340249818706 -0.05170220822399613 -0.24105895437335173 0.43285720149200824 0.19014728108064702
54 -0.2671256439710905 -0.44640494442959583 -0.2771081454520733 -0.16540848082447757 -0.07271493197070432 -0.05486191496132013 0.16407103164624506 0.2275144531581894 -0.05998665471291735 -0.003255927091024945 0.002120955257264381 -0.4363188560397805 0.37510139798815306 -0.1009925986616751 -0.16868175079788122 -0.18705447665802719 0.1986516398390069 -0.11678611076937306 0.23035169418732565 0.15408968582771732
6 0.1891623047783082 -0.2467831057488149 -0.1743859498140816 0.46225082308146526 0.15024937027004792 -0.20906288592151254 -0.08349701546735602 -0.013947057075612881 0.03944396859770284 -0.10205104535652045 -0.019745472609227162 0.09996998876083917 -0.0377200597638671 0.22518852647960882 -0.4320034815473829 0.5328185109066812 -0.18067143058444154 -0.004350183548050957 0.025025845933544767 -0.08651132244214854
58 -0.00907597910897689 -0.0044831951443696175 0.25808897857257534 0.218802173646353 -0.23521522832422193 -0.22137386924123506 -0.4981005061374634 -0.31959002112444534 0.05776202966144219 -0.05135982409674674 0.352262585444256 0.04974234935668049 0.01497372669284881 0.2365864690797554 0.04165259820519412 -0.2097922548470431 -0.2444309138891785 0.25398288458705537 -0.22225748696913414 -0.150678014134056
18 0.25934112439123586 -0.04675235414811184 -0.26626640890289754 0.11888725739808931 0.07557345878863177 0.22728124234273644 0.06107335922584218 0.09977679898353257 0.12163201053673195 -0.3236353608021433 -0.23625554540634916 0.4758339245762821 0.1459604690765846 0.3176568065657416 -0.03158379119328978 0.4622214770400484 0.04500530560760787 0.1669867725618497 0.058921897148402104 -0.04963661602939712
171 0.34599512093910906 0.32229742810486034 0.1533744950599411 0.35135168766305297 -0.08774921613121045 -0.034021000407925404 -0.1428139001426919 0.019065804891019847 0.020484788708248595 0.5160134869887347 0.017224653914754477 0.1820895316852405 -0.042994526371753196 -0.16260438034519042 -0.29277689636848486 0.007341007564169398 0.07329929577812602 -0.026488969377687986 -0.2573979795355668 0.3365879273882592
167 0.43547341463200256 0.019357303710441438 0.23614822616540654 0.3107319863853018 0.21293780980001922 -0.011445742389935844 -0.08415970328242503 -0.002029616835258248 0.15490661039398707 0.05919749038384623 -0.24784527040774282 -0.020359275295889438 -0.08449909949044104 -0.11804431597211083 -0.3108516589934733 0.3598755150561528 0.1740009567885417 0.3990581207944711 0.055498429220475466 0.2755858510896533
13 0.5988853025243082 0.19884357117903934 0.07659181397282089 0.41779295657953985 -0.18030589588607462 0.16732722500971117 0.0379829689426003 -0.20216640952691528 -0.16042147233658224 -0.11116993006373398 0.2067271458906008 0.2002786517681937 0.007059298650575849 0.1725553240210986 -0.17834911901613357 0.2636402761267345 -0.048301987453956155 0.20724916312495795 -0.11601924277349261 -0.0879239186115194
146 0.12074675254359199 -0.1634653779058557 -0.06934844934392337 0.22110524882936056 0.41063960036510083 -0.23617836683011492 0.13464335732729568 -0.014645092551292246 -0.283967435762378 -0.11787399732848422 0.09529079597305258 0.057944292246538104 -0.5719274093634816 0.03857311471285134 0.019437646706451112 -0.019735436569656498 0.2243195397466735 -0.18326739765835048 0.2920139999918504 -0.23822235962465552
53 -0.10510649468392014 0.0018443060174163936 0.112830020870351 -0.48159743361276863 0.2997640551929134 0.23175141717040101 -0.16003347680298874 -0.08783052853860404 -0.23319084374294843 -0.018322568840018028 0.4551075300006692 -0.4614918255635668 0.018307868689336603 -0.07285735173193857 0.051579857374866644 0.06142950721176339 0.18711525310880808 -0.08740596778671411 0.05899484357682506 0.18538976506527297
69 -0.240552046163411 0.03533556290084808 -0.15004183446159697 -0.0362043880615216 0.13195374311146943 0.19059707146955407 -0.06503893816877361 0.15285187022739677 0.055109777570663154 -0.354758493532745 -0.27963261436998127 0.11579356449264264 0.06404397094702444 0.5188797160729612 -0.3249389586109237 -0.14082152459535147 -0.1785486803541336 -0.10914212550375764 -0.07075996679722754 -0.4094927569179965
97 0.07762707286263096 0.06607142165915049 -0.16775802425863615 0.5062881310615096 0.006111413027071312 -0.07933400498017831 0.11631738666267752 -0.16796071547302932 -0.14953085770876073 0.2085631437153324 0.29973095831377616 0.15252868894143878 -0.3200649792228597 -0.15109042458574068 -0.04784882513238993 -0.11520070910027974 -0.13094620909875526 -0.02719023229002584 0.1415531320233001 -0.5471292095159873
23 -0.3726772059132014 0.05482680921855248 -0.01466095223312758 -0.5384342922335177 0.27044541690650187 -0.1799462603253555 -0.0112132753606089 -0.3114000872448141 0.2805810262730077 -0.11900577589304892 -0.12307268422507145 -0.33338251793686374 0.03778078183461447 -0.06766935905396643 0.050690800439551056 0.32014636960032744 -0.001055502804233949 -0.00896512603308401 -0.18606202728897275 -0.02031848589062706
47 -0.006200672128807767 0.14414823697886428 0.2365052533349939 0.2898758894743926 -0.41817394411772596 0.23229737079657198 0.013937968817955242 0.11027537458351917 0.09356692204831026 -0.2394903484165516 0.1657252098258194 0.31026668716687983 0.4943666138724706 -0.11580086743307477 0.007711968226707405 0.06744143455503016 -0.14940221072416288 0.28133479658811117 -0.16945383777093695 -0.12486823024093126
119 0.1674773397126412 -0.3711164725552157 -0.30855670401740676 0.03570562756774944 0.0734202548910602 -0.145898014000948 -0.35935002935366217 -0.27473091755768836 0.30758874574038747 0.2545410651666154 -0.048247162354719896 0.02202495934859383 0.20795357643688492 0.15581612012067533 -0.12956662038782274 0.007998569879646516 -0.18369029352346525 -0.3151879884923899 0.09229810205362218 -0.343891073022379
96 0.22776067538677094 -0.23212464047719114 -0.008205314373866554 0.2860538743035288 0.15523387745799355 0.22566333670337435 -0.00256258272798533 -0.17181025568932462 -0.049473786300673346 0.11244008098732337 -0.41473823762045947 0.18717768694361261 -0.18477654842126187 -0.1682829545034335 -0.25152653565800737 -0.2062256191718104 -0.23765428301146743 -0.23177694041592625 0.43227140336156467 0.14266646595124285
0 -0.17025549494898234 -0.22195493500523575 0.11354104200280422 0.002914905002695891 -0.022518734959352863 -0.14223304832621506 0.1140780835334537 -0.19646111187621035 -0.3992245163454296 0.07130588920199911 0.4767391278373341 -0.03177568224933873 0.10112205439507115 0.15263957161079522 0.5842641860884694 0.005485855319319438 -0.23083492201652445 -0.003957035695016915 0.03725120963180971 0.11890722610267425
128 0.013237613888037346 0.3931680754729699 -0.34697733943437675 -0.22954709726684397 0.08831915648057954 0.3533575622347619 -0.15651405916308342 0.26612314594165404 -0.09628279987768855 0.04604918166485046 -0.09358320943981153 0.35339798687356405 -0.08021544989759667 -0.12222971956477195 -0.1321937704826034 0.2423024451109553 0.26312341759612323 0.28639043403088654 -0.17319801221411996 -0.1425773667190455
121 -0.027011145616861795 -0.12976409715651432 -0.20091993515294235 -0.0037062443782482288 0.07470988950308 -0.24833962540024965 0.311287911591146 -0.29615737791288665 -0.03976050263398505 -0.011260808888957592 -0.08256433816088773 -0.12608742501978148 0.0940583516143521 -0.13649245427551307 0.5230032600108684 0.011151215181226071 -0.5379011871254585 -0.06182539393569673 -0.07884135559734351 -0.2554468768439045
181 0.05876618185521688 -0.2206509767686712 0.3615139295800591 -0.16509126916412775 0.04169925731474006 -0.3327254881798011 -0.1650725288193976 -0.13685510283411623 0.07083657194657193 -0.4533753487479076 0.15163082312961673 -0.4744052910474302 0.15999603015741606 -0.048307704571611855 -0.09402280569378342 -0.05466563566874619 -0.05813194185431098 0.2725009732911025 -0.16578320038534602 0.16729761691818595
132 -0.11784075554417102 0.09869165731664217 -0.08733581862349088 0.2163244827546467 -0.09381485450767472 -0.022659286695588178 0.15091564615268874 0.15141831933765063 -0.4299647800755183 -0.1324133658182071 -0.44514616376071225 0.17690790078807933 -0.32534320829854946 -0.13664154791611177 -0.2802313015245379 -0.3080674099198625 -0.3167998000184114 -0.04773133011364524 0.0954116752939725 -0.15930916638646617
19 -0.02870377037578932 -0.0974818919431151 0.2194831938159621 -0.07040002191330047 -0.14773829566786156 -0.3064384788224825 -0.12066045968468359 0.21599236015839673 0.013911386971683154 0.0434466751308971 0.030570824850728647 0.25935411468470054 -0.3254542294751111 0.20883307545102814 -0.48372933545407815 0.0926213602438446 0.14887097243522932 0.3284963574353912 0.23153585891423512 -0.3369503084391002
195 -0.1936841420450334 0.05108420059131556 -0.07144507847036186 -0.41010615082055185 0.013863521912271474 0.1240155950715826 0.019557589846214078 -0.19660580319695356 0.032458565490860555 -0.10041417411895687 -0.3288826882176036 -0.40654522154014483 -0.04117548817803419 0.21921689770881816 -0.13692757529208155 -0.2065680391958305 -0.11325963658147059 0.5006095948215407 -0.03822141514766531 -0.2670728948721573
82 -0.19686815209307296 0.36595385215335663 0.23487430421938618 -0.23452431412509425 0.021100310926931 0.1128748363968103 -0.28783153846355475 0.1646518225514338 -0.012892411877924182 0.024486464928452398 0.028555595504213046 0.026096089263229913 0.05860953907390825 0.42574561743475836 0.09205651610551797 0.05846956298184676 -0.03067283968506267 0.4254404797108794 -0.37586376108621605 -0.2682276603974878
187 -0.017286535192019403 -0.29805034403272557 -0.33101505545708654 -0.18515491560553088 0.1427410013134341 0.1383567614052594 0.28666472970139495 0.3315204024666193 -0.03254972709959981 -0.263895396754152 -0.026323660265288883 0.04690184427673921 0.2999927623328997 0.07078061831754717 -0.2749482284876431 0.24836533973505373 0.43822061522625927 0.061202591302097854 0.1554524302624683 -0.0979024985910275
30 0.13045956979619341 0.23496775549023038 -0.21509068451947772 0.3972125191159436 -0.04945202128939945 -0.10787756385366119 0.14495373404083584 -0.03048385988809252 0.5004492280460738 -0.4364317627174723 0.22961246217192913 0.190506240219207 -0.07281271805356082 0.048463911717752065 0.21640993658814286 0.018566250246736565 -0.02614173401268256 -0.14181976803317062 -0.0040926293738311114 0.2865774633677861
172 0.06280785832007571 0.07206384976203589 -0.13338231883019547 -0.02543864144270074 -0.09132700897985115 -0.4067493781218608 -0.19232062951632867 0.13623240689474364 -0.4865967006856695 -0.05262625255590236 0.0721765104448769 0.05471043067650921 -0.11512350080349319 -0.07328634846134703 0.0028252969278382864 0.3898022334763785 -0.16343802177771924 0.4250156603554354 -0.34207158175689284 0.02004679061958067
60 -0.28851900675678993 -0.26384629483849714 -0.10910031085010137 -0.2001958074906512 -0.08225317321069428 -0.4081440938416491 -0.023018631405873922 -0.048158806008409036 0.16834669788852097 -0.06735563079364666 -0.18536769226747432 0.15671902586620867 -0.31206388244926747 -0.16125297722162985 0.34134930872156954 -0.30550252389596 -0.17396952150793307 0.035623803870921546 0.27078447875161543 0.29844370555025596
161 0.0704078015016429 0.0011323798564189527 -0.12918013919158267 -0.1308267120200541 0.13297153303284215 0.32053134606967487 -0.02910816394298977 0.3817033829031852 -0.02852413976409552 -0.1998416002848442 -0.006727505382833462 -0.4820140304125279 0.30173695605467465 0.19814453780617342 -0.4393789625709519 0.08377552437359302 -0.04415549820835633 -0.19820643867532695 0.1395760670644204 -0.17332960366122968
89 0.05000035687798037 0.06183590984980183 -0.1108017352594168 0.3638724049098635 -0.3685337073231662 0.13230987149393875 0.2590093006468632 -0.07834537745396564 -0.16683407759744698 0.35214514673037606 -0.3645491815249205 0.202395118078403 -0.07886004224616794 0.10923863470212909 -0.027243679334993453 0.011772030860303578 0.22866826929393955 0.41789727772257734 -0.11298310568466509 -0.19499834464449062
160 -0.07102288555939913 0.2330230142047409 -0.19311096127298003 0.12680472321381325 0.08409945282917312 -0.21707834223180222 -0.15326625672306654 -0.08087569022809271 -0.06639790839320282 -0.41140291451947514 -0.0981095471612756 0.2741635063252016 -0.5670474866411395 0.26596789336454163 0.16327329716903682 -0.06364271392942032 -0.08388103371651892 0.27047229512600773 -0.11972618850911053 -0.16458874193443634
183 -0.13073060009139992 0.1889818030881145 0.13320469213248678 -0.25616586411395825 0.37117880907362744 0.40039804973372406 -0.22919433526280103 -0.27753403318076547 0.039470208660178675 0.32630093843741914 -0.0913294596691988 -0.23901334934366145 0.21478890240999007 0.04401805393569741 0.17780464180773 -0.16648360305655535 -0.25098699204528646 -0.1594174511186292 -0.2539506661413044 0.048809736142834
79 0.1543908537307213 0.24193639697902183 -0.163280572765048 0.18440052721121603 -0.12454067792717785 0.026212230465136776 0.006929041691247706 -0.3446300578600916 -0.009045191970539865 0.20221530975762494 0.3231072963611656 -0.43065961183333307 -0.03856649303843696 -0.07785884581410049 -0.1251649633027421 -0.1287486217089024 -0.016377849280690165 -0.30576580797865927 -0.38475548610602833 -0.3309415465855849
66 -0.0029643230593962505 0.17000193542739464 -0.3444107561741527 -0.29832518195683033 -0.008998439203447771 0.03260641168544903 0.05742148191554965 0.13998948397524802 0.37458853053871655 0.05335497225810098 -0.015812705791066167 -0.18178055433371304 0.34983975506877846 -0.12291329245272442 0.15517496921187834 -0.3634281939195939 -0.39795650971616503 0.12297278144986068 0.03645818966629185 -0.3074119218222334
194 -0.1700086186136085 -0.1993684792165863 0.37149674421506684 -0.03554110967810802 -0.11964017261087233 -0.06041352313323343 0.02023772833723139 -0.37022336643860104 0.1545502057744765 0.05550496074985442 0.41456524298514275 -0.027108195620018403 0.04437973399577224 0.2811113048078385 -0.4850634230273424 -0.1605730555533782 0.06212671207747519 -0.3017624049191641 -0.009209224315902587 0.0018867619635531585
176 -0.12494559320987336 0.0596295022120672 -0.07652265894359256 0.22383295408055687 0.25082945029113857 -0.1512403392220138 0.0953979564646941 0.09543627112990198 0.09188625084026665 -0.4843891941561847 0.10960128152372245 -0.004949932924043138 -0.04512790958516981 -0.32096976570829383 0.48705833798961445 0.1084152800392687 -0.09829830011598314 0.2603589731396931 -0.1154434499807286 -0.3477799498449929
156 -0.003616644605272409 -0.2598040880778044 -0.19093343667897997 0.2970224457786071 0.04694665420418009 -0.29386749977732846 -0.17148100911393513 -0.06163927090297863 0.06206052418503134 0.16682079192153892 0.3011021358034413 0.3033105049567287 -0.4656675228968166 -0.03182883809090907 0.2701024373106331 0.06389397637527705 0.33154092341642855 -0.03782638019671104 0.24048456736492435 0.08731001498706431
14 0.126621410550979 0.07777778882376031 -0.15736440766609427 -0.040817695505416494 0.18834911047678515 0.23996470619301616 -0.09658279231850773 -0.11186857368014921 -0.035072821567379536 -0.10576035238185898 -0.2431016159338763 -0.29648891747461914 0.08841555928650473 0.32726341808422954 0.07874718117518356 -0.43789580063258154 -0.08486644743864706 -0.03650369615909436 -0.25040070325740194 -0.5413495512905461
28 0.3170048431493885 -0.18237625983993025 -0.21599950388122946 0.2380639368204079 -0.30437168409742177 -0.23799990718635378 0.037957214205923816 0.16747088469228558 -0.12906285082962338 0.1264250355394367 -0.1352975842969108 0.17568332734052358 -0.19941342840980764 -0.3229686614865128 -0.310878559457286 -0.15657432179833425 -0.0353417890128353 -0.04300460309817429 0.36129412269582367 0.32166024776705876
162 0.046091999543308525 0.4696897501790565 -0.3007802331359426 -0.11503769881308665 -0.08898344299328619 0.2973647467119899 -0.0844798305672157 0.42868661621989135 -0.07336702971260307 -0.09015075355416645 0.11991556259403394 0.07632951651688731 -0.2755993903892375 0.3047668952567112 0.03140714399453352 0.08661727976181528 0.04488743237121561 -0.3896681360053371 0.1374080390312104 0.050317198152371165
4 -0.09564151609954408 0.3205283244909735 0.11588153855270145 0.22774331561932276 -0.13473576010514793 0.17387497373336927 0.24847734486769749 -0.16426176876183649 -0.1881726751184717 0.4001945138574473 -0.20570138640761648 -0.17995876247983134 0.15047937533363748 -0.04777730871781083 0.2629354344551945 -0.053507765355875044 -0.011140633835316069 0.4633810335720782 -0.320422526259685 -0.03170567367934161
85 -0.033439248331096634 0.10050713845933305 -0.12258807690932724 -0.1963848079912631 0.020685492953439466 -0.06997007398697896 0.028072225351221173 -0.245135152559486 0.25849671905524957 -0.2856587145043844 0.02894832878774619 -0.4423270030377825 0.288942444978925 0.1237144265120765 -0.2711522385116198 -0.04681710488308102 0.1946788136949127 0.0012770799077139055 -0.5320337297589488 -0.16911550969091185
65 0.021116474528791215 0.255657498535945 0.16797773219174672 -0.0003202207996728671 0.20333495161553464 0.055835280597840764 0.13317228720942825 -0.1465874232252668 0.11429775592654183 -0.29320317935047036 0.1139468892747899 0.4074403930903944 -0.3566954295159953 -0.45398029904467563 0.09509188773927153 -0.031871525017417114 -0.22257802686937145 -0.35901964571402717 0.05541264649784398 0.13918682935009033
17 -0.020265168224406133 -0.41690995179412166 -0.11118334551332876 -0.09310754969941158 -0.12716592537960988 0.3208511040401413 -0.05182522556925187 -0.28580686982269976 0.15464004000672588 0.1535713614243932 0.022480723862683898 -0.1621818834641743 0.2666689579422979 0.108493587249157 -0.17616881448617033 -0.24211909824529437 -0.032567853508306904 -0.08618392115530715 0.4728329434512628 0.3497869130057404
16 0.04349507987335187 0.48067407234608944 -0.24035583780097355 -0.1829818441731328 -0.2352763940434562 0.16386073401476384 0.08537350157733262 0.1825867120420216 0.14212280119652262 0.371324354157266 0.04913294621072814 0.12318270729275031 0.2287702094723804 0.2953795924623195 0.0006185745734978679 -0.0865424829344828 0.1482552555608744 -0.245503496587856 -0.38261913836716716 0.03978553777874945
2 0.005067838541793917 -0.27081275262805005 0.48869434557771585 0.05930193291760893 0.10568192162057392 0.05013154553184034 0.17669140383991427 0.14708234907895054 0.376692320421174 0.03572911946998833 -0.28513458387340485 -0.13479373117557034 0.01130115861797661 -0.1902867655491695 0.0970745852997131 -0.32561565393617997 0.13727135743787083 -0.02632521933914008 0.45028306062869217 -0.03223510897797431
184 -0.02691268661110202 -0.09954927941191055 0.2840298410347727 0.40043914724624347 -0.43945571864442756 -0.03695873860386908 0.054006167692549595 -0.1058061652174071 -0.1386252481976617 0.020837889286187076 0.4750360539672626 0.09353362805083297 0.15624236805797817 -0.1464439117553217 0.3410644011516354 -0.2262356192549828 0.09365329525453515 0.0721496001456364 0.038057286042848505 0.23852349461397093
142 0.1604209533117137 0.1410296798790358 -0.21884665686292518 0.14909131329968597 0.20310861379128287 -0.09525769790308466 -0.11123456730257446 0.07360083158342165 -0.020956345142783134 -0.4384988542640984 -0.030340669748803714 -0.16733228087799393 -0.04010418233320848 0.25292837103173593 0.287828471708035 0.2637522824742109 0.15903604019024425 0.4549856635896343 -0.3784793920069644 -0.030865248720601073
87 -0.04103766881756858 0.03194043911600222 0.06912506343966336 -0.05759676635954315 0.28630305413914797 0.32927611010608654 0.3655462527825371 0.05182547917389076 -0.017436904429522334 0.18370204216150518 -0.43174515533314967 -0.06956310807219518 0.3201336727415434 0.13692206561584683 0.04229525420980418 0.1590842539503895 0.22965848405171876 -0.16961012647147952 -0.2995442524345096 -0.3429827976166445
170 0.2036661318135263 0.18565099031180046 0.22913011339170702 -0.21334487130120053 -0.33738496951631247 -0.2643841247041756 -0.27568808101798103 0.36262719712373975 -0.1266542818175177 0.22500219852099063 -0.37772278060405445 0.1439195260865561 -0.20107331689038574 0.12523249708507847 0.18500288866681114 0.054286692005998075 0.09723339352224893 0.030663352761034036 -0.2952958545255976 -0.11777773373571561
109 -0.10527493155764903 -0.013120317690945084 0.07926167840995098 0.13456326812382025 0.031318303522194384 -0.041461878784288565 -0.30467357677640705 -0.4491886002094001 -0.2448305996531862 0.15247503500009463 0.248738936392727 -0.4041598843341696 0.03823760927630994 0.02261375730557176 0.034931486021939406 -0.15207203796686114 -0.4222417641692745 0.08451641618983875 -0.25681989647886644 0.2845081838225426
124 0.11695416753613609 0.02744853687851643 0.19529929420014977 0.12580798198763937 -0.1542628393971107 0.2924797557903945 0.1811713258060773 0.2564092426867133 -0.20057373938053238 0.460199709890971 -0.17670363174282167 0.11627296448498659 -0.0033449922613444844 -0.4145478697147652 -0.01551152235771892 -0.2484616726621232 -0.14031807168291993 -0.1561221877828149 0.38575998295460334 -0.014919115445362448
78 -0.061237672472576374 0.2379964448737776 0.132862927581307 -0.13224739875903238 -0.11616699681934665 0.31804610834655783 0.620373472870684 -0.023276620513603026 -0.4179444184354152 0.1573776557907517 0.011677042163434709 0.32225691893873804 -0.10829544685359442 0.19912374820620074 -0.12424959928397161 0.006123378189623696 -0.026748650602768327 0.09339246858320381 0.15682524591355268 0.009791362805981217
20 0.10695396964321892 0.21621566771921377 0.16030652253405706 -0.021539411617979405 0.1865828935742326 0.02994429124793704 -0.16801684273723577 -0.3148910869074889 0.14161294306975666 -0.18553703262788054 0.2982359944487519 -0.31212897641184095 0.08722208613112843 0.3218893239659468 -0.02765790528537385 0.3339120587899786 -0.015728222669893942 0.3665561796322875 -0.309953792345111 0.23987772672724597
49 0.1492693019796324 -0.24576425666765625 0.3646064490754204 -0.09907741066841601 0.0440849702383511 0.4290051804474332 -0.027833426240850626 -0.15907878080316218 -0.25691944471054 -0.25101224402306127 -0.0836462273949283 0.24213728333638915 -0.017430507422791473 -0.2852030102316383 -0.0349858605765294 0.2643225644843958 0.08098356174029808 -0.29570500264466565 0.29319761479581063 0.1874916123656272
177 -0.4049334096548482 0.10854156863413464 -0.5502134810841859 0.1850773357060725 -0.026314659760265653 0.12113847159861406 0.054016095142958756 0.037869247399027785 -0.18257458792011017 -0.19064640605890465 0.3448042471675553 0.22239450777866177 -0.08669326875196878 0.24408316197678348 0.021071522211298016 0.21411556270759363 0.15841430796596903 -0.1698306959203551 -0.10161831209430354 0.22774057797417746
140 -0.11822055793299725 0.25791737503740864 -0.2986746345828023 0.1772272453873831 0.22957816566727846 0.3975020261333184 0.10859409635376122 -0.036939866826054345 -0.37603534157849944 0.12773716238661958 -0.20157525172743396 -0.1548345729044731 -0.0913923014161826 0.10960173125923209 -0.2153457746187858 -0.04230942278416869 -0.4771688135353573 0.21840412309252766 0.09121490153909984 0.021213297281352236
44 -0.19007169690961095 -0.12593645430651468 0.13313943644396597 0.005895685097160812 -0.1498828139815399 -0.12750890795178937 0.04131357455395478 -0.43472913385770223 0.15831262186025188 0.22703179659439318 -0.3041290559240162 0.09047377999633274 -0.05206208450042184 -0.13899759987666924 0.24166916682118372 -0.3965263798404248 -0.17321974027809892 0.2599823137416326 -0.06532092830084592 -0.4289699498670681
192 -0.08886322074606669 -0.0052955874842914264 -0.1272322067413488 -0.14698912122259672 -0.042372538634530055 -0.4715191653166223 -0.3621048348737578 -0.12967707471477027 0.46107926646864916 0.1630427167594017 0.20542632792732926 -0.4432505371602739 -0.11677751317401594 0.030373775636937363 -0.19539161223608645 -0.12071327451365148 -0.020742207878832637 0.08028411691507265 -0.09864069613709922 -0.1430269341799298
135 -0.3328525329068985 -0.4042945012489749 -0.017188893991989595 0.20968981941116335 0.5595550310541694 -0.07618854496739426 0.011920551602687644 0.18510523357759132 0.07924981762571601 -0.1611761046203732 0.18146190514505728 -0.21199605775303595 0.14881872537793225 0.0702839109742134 0.11326326678439365 0.0711834617576098 0.31062045590660026 0.23590123924896844 0.14240112875947242 0.025558087321335497
149 0.11648830790727731 0.03805057652164837 -0.2108929932103636 0.3062258841753023 -0.2710443300361675 -0.22386180453426696 0.03869295821578448 0.22563214960201616 -0.04503360510346966 0.1781680077702973 0.040226518506329564 0.2106923222218777 -0.12986526535082554 -0.4530898534978721 -0.15503383227499065 0.2845801865884988 0.3220497192239233 0.04462972510101046 0.05032161778146932 0.39439588342569015
52 0.0028172485451476536 0.009351534903261615 -0.6274853036936139 0.23372502869377018 -0.08353118624082727 -0.2346657376676808 -0.30879796386618774 0.16585946400714885 0.025253169667496408 -0.04072141413855131 0.21081005616785875 0.27817997038891085 -0.2510478544281802 -0.2814215038320046 0.13100218110097295 0.2650871601550484 -0.09184457368785728 -0.03688952042348621 0.05328195635501881 -0.014707550139902891
11 0.19257705740129527 -0.10465632573705584 0.3800234196698276 -0.1865678410558637 -0.008701771441154072 -0.010711175655989145 0.24958707801531557 -0.1688540087331708 0.09144431663478043 0.16872485378548885 -0.2851076675088711 -0.04988065805448438 0.0923577193717437 -0.15257093036207056 0.45032388088831715 -0.24052926243264355 0.023528474416158792 0.3614387448151351 0.15938123198402693 0.334794790491168
98 0.053174382932864334 0.04725761455268434 -0.0855580856262219 0.05388057203817009 0.0580386924623881 0.185812548324211 -0.39375622172391267 0.02123345329493764 0.22365987622961098 -0.09269989108617327 0.0025184789527978 0.15520020478217206 -0.07203197591673746 -0.4544131563516218 0.20567592259105055 0.47481554321408476 0.10168907739403853 -0.39792456901258716 -0.0900298997524431 0.2288960055504227
1 -0.07810803831890487 0.02619192827412254 -0.31831033860634517 0.06602343975833994 -0.2951908704255859 -0.14418224421985154 0.3851733085282746 0.5290110054462968 -0.1273375993994197 -0.1742436733826071 0.20549519601215352 0.1875393419062967 -0.05370533423705782 -0.020552499510017176 -0.048846048185689155 0.0009624998141137652 0.2165825660996807 -0.11780861518305075 0.2734456371535568 0.29354262519730767
73 -0.28959271475245174 0.12264957673514602 -0.09289381476904668 -0.14404377146355307 0.4169178149438569 0.13348124222760507 0.3678618636972922 -0.08941795558610495 0.057263771485050824 -0.4207417215970911 0.133640890245639 -0.22650268026499146 0.07287928034577636 0.11060533613188926 -0.26194447107016894 0.11512143854891742 -0.2818386158714671 -0.13610804597324058 -0.0994502911270529 -0.2828993633387334
180 -0.09065285838134596 -0.12239851235345128 -0.08021956890045977 0.018467178510633946 0.2429281589173606 -0.464300475231132 -0.07711268192994147 -0.18857178220014673 -0.17408508250816482 0.20822170381596963 -0.380258794293555 0.06572010877433108 0.05501407255423151 0.13728052980435348 0.25380214802505524 0.035802812483987305 -0.32762515802833103 0.33645545575148933 -0.33820404248679015 -0.09412576194671236
29 -0.1673678155214893 -0.19740872824341607 0.00968779841874164 -0.21201516134038603 0.19690104204430844 -0.12293744826085339 0.15874018237105098 0.0183409055112067 -0.10198878879394153 0.19368773752830776 -0.012238298351602252 -0.12555726833873626 0.0441869132067858 -0.23638280966364195 0.1604233689145686 0.31834829260695313 0.08434050669225641 -0.07274980967357314 0.20676665851260173 0.710390615346478
91 0.14715055082734876 0.4464720432738537 0.06115572645975907 0.011724089691615815 0.2814630684961396 0.046291953663971305 0.09321397549945862 -0.07047392676513967 0.11839015338185775 -0.19718560729031925 -0.3753907349959337 -0.049667486827761724 -0.49189903103077426 -0.05415480016652425 -0.18400573425929084 0.2813782433873392 -0.11994757186555033 0.3214143314323537 -0.039753741666359706 -0.08139053854787232
38 -0.21038493456945853 -0.2696798234660617 -0.30147717254644013 -0.022044546617928533 0.12602083079270815 -0.1648919892984941 0.1639697089596692 0.34110730847318466 -0.03969885326184461 -0.38762236021084995 -0.4547894089509354 -0.07280533764652342 -0.10501552574024295 -0.04211442567885243 -0.16288237685915613 -0.1793254009023252 0.03213711362352079 0.2622276163469017 0.24953862048112682 -0.19444466752731784
147 0.06758876409767359 -0.18397616487593949 -0.10708789503384614 0.23376199432034883 0.33123157733165287 -0.051616224762103535 -0.32076881034687593 0.0017846489684864987 0.20348866855045883 -0.20666431152453235 -0.033242039808713715 -0.2855279454289184 -0.22872117155971136 -0.024196853440864693 -0.21384184762542102 0.049655440178332 0.05687149056274958 0.3227697778536481 0.40085940049773683 0.37980621431060735
26 -0.085319694274975 0.18612312608913276 -0.03953174192741425 -0.4702686073659014 0.08456128730210156 -0.011664235658033014 0.4223970549461869 0.08073549508254789 0.2167489829846958 -0.028070905006026894 -0.12546452623657006 -0.3418062885086927 0.34234841466188326 0.2935521100927869 0.20269795679172284 0.13831684055607996 0.02564629410450996 -0.12745159201312603 -0.2867959458957405 0.007164756366422801
94 -0.2008566250416381 0.19562107406477414 -0.23187278987448037 0.08672388760902361 0.12729667067363523 0.028622767361493322 -0.3043118745667596 -0.10234887851050709 -0.06760528543861334 0.27597013774317 0.2284013446940611 0.31399812358980295 -0.19196320276870757 0.2971723198986864 0.36319341312328884 -0.1925084203650828 -0.08068061786942674 -0.08270040759009462 -0.2325222113846328 -0.3833545960482733
159 0.16189260672607833 0.35882042276372295 -0.0570711108341517 -0.39082621227892256 -0.1164488602623781 0.09915338034738527 0.13428738861526857 0.024420416070846603 -0.39918772885932063 0.31780826258647055 0.0773814325246051 0.11346308225505108 -0.32293457174210494 -0.11353189663983243 0.09275160950950938 -0.11012122451492837 -0.10327406337458334 -0.22715295803827448 0.001398216063788487 0.4094247942358241
151 -0.305902672909274 0.0741632325287202 0.05193364051756914 -0.314951842155667 -0.2769273813588767 0.056464691449995726 0.14526312174627654 0.23704724341178537 0.15397948343119902 -0.15634554563120398 0.056460644230892476 -0.30812201159333563 0.003117843607181442 -0.21428209902966455 -0.28658939894317914 -0.4481876174480853 -0.06324870823973529 -0.33715458418286587 0.16284159985928845 -0.14985998899933456
61 0.008398202891502277 0.13670244040170493 -0.11190043560793604 0.14217278332241778 -0.11412610433764564 -0.28369612961112833 -0.09857370501381062 0.36030208279629217 -0.3774423500399475 -0.2104634493554897 -0.16807401261320404 0.07531044396872554 -0.4610557659362074 0.07114626942718755 -0.2090122636955798 -0.26211668242313674 -0.0656008095395769 0.2906964481622507 -0.18716425092748123 -0.2022929593734548
175 -0.10475663405565742 0.012635175271142288 0.313898419277825 0.41867895182366255 -0.16528491630930486 0.17991712485484562 0.11714145322542742 0.22897019538667782 0.1999635729593563 -0.16358623771042974 0.06532401359245649 -0.15233020300113537 0.558340725813744 -0.015141942621987014 0.005659546871081451 0.10969222917369362 -0.00471710082490646 -0.12554827922147155 -0.06778863862326577 0.3880304194348419
10 0.12849301673816388 -0.04713061617206985 0.032204051891691114 0.04930502452802749 0.32253444123374797 -0.17665463146307173 0.4819576169622583 0.1619020041550286 -0.02118123643623462 0.2697921342933906 -0.22985068697946895 0.26467450620676913 0.17390572908771765 -0.23515200813069903 -0.40237945668679403 -0.05246861803622692 -0.17844493423993438 0.1931755273122368 -0.15911109544894017 -0.20801808301194263
57 0.24985698961125208 -0.10538575537743378 0.11242698608475588 0.11438498368296557 -0.026730006904256375 0.468657350798906 0.16475956862920438 0.09947292848968521 -0.22351480870206503 -0.08652052971153691 0.001060668383980358 -0.21698734648296847 0.4478460051025643 -0.20411416582721464 0.19178588551701511 0.10368064707799766 0.35249091506989827 0.33416620268825536 -0.012093494520068103 -0.11399179423630192
123 -0.507002897741816 -0.1258559382113673 -0.3844133551253851 0.12321436436086658 -0.0280908407818038 -0.10457500896583853 0.02554918875933924 -0.1093465132040869 -0.1289167101759696 0.13755585390256508 -0.018553807211306766 0.13611944816457391 -0.44871805593316066 -0.1842489419415986 -0.19403256121905962 -0.20111876332177567 0.18113805272636008 0.2129761534950394 0.23316922941509516 0.19868013122618752
24 -0.009762833301612242 0.05737847960394044 0.03431094914446403 -0.41155934152397505 -0.1795086367176872 -0.00013359659428778067 0.0076152991676260336 0.40514708731391436 0.08767114895180841 -0.07006133954475009 -0.1296179179174028 0.08155770363371008 0.1791616859769993 -0.5290729416904988 -0.02241582785546978 0.32358972078334225 0.17693791199962303 0.1913635832438735 0.05204777928496868 -0.32513882540385036
100 -0.30080204607338945 0.19354854650537598 -0.11886091499657746 -0.35784522345230874 -0.052035236770276286 0.3069163883975536 0.1889142531474602 0.1383826435749766 -0.22336437939797094 0.06820818156103678 -0.09803793302423436 -0.1759872595071674 0.04049432914022871 0.021845000035261346 -0.04674390303684686 0.03381135677274566 0.08712086447339401 -0.23184789722303903 0.06634989709024756 0.6417273807729745
34 -0.270355298557932 -0.3713431279797274 -0.0646674631879137 -0.08525488082512914 0.26428175663873466 -0.06116655864718169 -0.28426585418036987 0.2196257195119566 0.18125710688895225 0.3454284068658029 0.2684161172816527 0.15082116828446906 0.2194087360005257 -0.022864744194076064 -0.10699421112521017 0.29568178360671915 0.019212373632248876 -0.006843237617162978 0.26662115917174833 0.3300345548263487
133 -0.04161554287136956 -0.2694456193951575 -0.07594421145932866 0.07338980504974732 -0.045506051945391035 -0.29508846375343856 -0.2997274452756337 0.07897601838916928 0.26633069583870456 -0.12896535087726504 0.15678318827769538 0.17964184926248503 0.24063183122091972 0.24795642776163057 -0.17122672270156675 0.5620502620885077 -0.10807978049299412 -0.003539837259742435 -0.06684873862066856 -0.3226574342229079
122 0.23206163437293256 0.2211531472745227 -0.16409417846948052 0.2726189915690998 -0.25370456593834045 -0.3870688199512889 0.23820588780810562 -0.10626343016878415 -0.208350173683036 0.1316956142402046 0.19006044264458632 0.06772798825155885 -0.017684459402842856 -0.04798736726937522 -0.40094184869621624 -0.34010214332245353 -0.2329489565466254 0.06983508550824116 -0.2106153362428031 -0.17252395563478654
35 0.08488850995045191 -0.01897777470305733 -0.24731936749776384 0.410513744315887 0.3442260760566677 -0.0899109463097315 0.26094214316401204 -0.29918806579976037 -0.10586489496311077 -0.2208432364951489 -0.13661287185834828 0.06089461405200437 -0.03753073260735822 0.49526106261659475 0.09493028391316681 0.07590454559840078 -0.12413778353443035 0.26083858085782535 -0.18400162690261068 0.13208403541784897
136 0.33009237414748666 0.43000486829919027 -0.09168284097096135 -0.020634980069826177 -0.25114616133037226 0.025188908206264838 -0.10200488169071291 0.3160276459970532 0.24864902868161873 0.19405286277258033 -0.28624670347653663 0.12378759034998067 0.08753531299408604 -0.11616649454963271 0.025109406834363985 0.09104977001854124 0.18227979046481269 0.4911524012179822 -0.12375189578246124 0.08199803384723847
92 0.1756961041981363 0.12228558553544018 0.20617336574399087 -0.3792837596407873 -0.17515535091502088 0.116019027360683 0.08194732477245271 0.5844768700892858 -0.0847896510485012 0.04976631896744463 -0.31182599386995524 -0.18791945234465451 0.18912740193416042 0.2818462361388394 0.03950815893028518 -0.28214472038481037 -0.030291941437863627 -0.18459158771230696 0.04167573423534625 0.005322901019388842
110 0.1034174457225702 0.2171204252769979 0.13322692654546184 0.1919020563515232 -0.1420934868587677 0.1726340430041648 0.0732874336625618 0.05041001185269825 -0.012206796259619998 0.05604210937012439 -0.023342199161298014 -0.3720781159338117 -0.2810334115246365 -0.1153485098544891 0.09663394425637345 -0.4017824016491505 0.015034539197501822 -0.229782627743011 0.17690954564410835 0.5831210988225228
31 -0.21272567352948193 0.09527111062181667 -0.27934036942322177 0.049281827803844935 -0.10065107054166193 0.1568972925032043 -0.22268927894357976 0.1632495695961515 -0.3974797723230361 -0.3117486537331652 0.1073592594923038 0.012122326664050838 -0.18024075747579285 -0.42281963391640265 -0.08773009124756714 -0.02767486134028958 0.03331383102492174 0.5074476536289599 -0.010922154133666036 -0.09441817761136993
51 -0.42410934730885225 0.35033295563000744 0.3001693792217902 -0.15443407787697558 0.3202389487468801 0.1522801038801081 0.03648674703280453 -0.036545871865930245 -0.06295145056331601 -0.39104985611261334 0.08954347546915478 -0.15550340481375793 -0.23235070092205787 -0.2064460578650817 -0.04496099445690972 -0.019973711949967703 -0.2614207382730882 -0.200440778606844 -0.21888260251789793 -0.1024745049079993
114 0.25230766702463714 0.004153280162809279 0.20012232986769515 0.09683525629529711 -0.2434856728755867 -0.15122176769691084 -0.17166201837077985 0.1014949690512714 0.08694757422923996 0.2921586738712799 0.30361054510407126 0.09252728718185534 -0.4117884073366193 0.10335344715051074 -0.09906309730051731 -0.41896422123107907 0.2065409138143358 -0.08149931275471942 0.3567243754744793 -0.1707873088028128
22 0.04968919943185228 0.2548717283950955 0.3150944437571767 -0.07312348822097586 -0.24906331051447755 0.0635867584821418 -0.017814051134050372 -0.03334067032675236 -0.3803006943004263 -0.06404988449192799 0.3624466222027702 -0.24435913035931178 -0.08514186704098677 -0.38993088263784026 0.0825479263997777 -0.12267331400269936 0.1161512392817118 -0.36466520735153624 -0.153783650455235 -0.263335624689981
182 0.07361437453149124 0.16889570681195643 -0.09152230426455019 0.25005559212766126 -0.013271216460537031 0.08563257508423765 0.3506463013133889 0.13278748984153646 -0.17745434360252904 0.23860844170070566 0.17688320515881725 -0.11439971411370767 -0.2604789216934366 -0.17660613790414523 -0.1910143517847927 -0.4872908320414501 0.23323647734241146 0.013214638229972809 0.14721478936016189 -0.4062433199094851
77 0.06889064583511241 -0.3086407790119367 -0.1802858994459727 0.2904176985304244 0.09300490437484427 -0.04561972113966423 -0.20438182833456348 0.29022768438558466 0.08030242724987968 -0.436316499882408 -0.14716173163908444 0.15144892386842945 0.15292963103164603 0.062406027213718185 0.4124998882934879 0.0008038247769734752 0.4134249243868033 0.18126863475837596 -0.061286841602832424 -0.0052144972858044515
144 0.34601074433455725 -0.19952215684818098 0.1764377551064794 0.2892400037236432 -0.24254735556396823 0.1434237797079488 -0.2835267936548401 -0.35173138406725796 -0.20287994352287966 0.07297438152671362 0.2669672954342283 0.2556944269328045 -0.006212413947259059 0.2510588745649608 -0.17011265861681063 0.04518371628975043 -0.09013973845912489 -0.3792010754427013 0.012614680446585725 -0.11362989071357994
157 -0.20578460349943253 0.1371495548949148 -0.10267671820908386 -0.14617582458227446 -0.2776290101679314 0.1820584409450529 0.10644324645351763 0.489424799951247 -0.18934682690746688 -0.35167347307591373 0.0398074592017873 -0.0752068283898981 0.3200971657766939 -0.2727420211987568 0.02867122987169616 -0.24980518106668614 -0.26260690957342026 -0.050735232220972114 -0.02748467726426634 -0.25828039238432504
9 0.044936366109317345 -0.25167208356266696 -0.0939461027796644 -0.1860871128653979 -0.07704288159131926 -0.33225474939604627 0.08570365571611888 -0.0051245996235708535 0.11926463181019277 -0.0068046110864877375 0.04191755515961394 -0.3059716329736702 0.1621983232804952 0.36758493205582976 0.4952302000444109 0.07172993737536486 0.034162591040527004 0.0643447442672278 0.09710229872075707 0.480915719485548
189 -0.004912689918055593 -0.07903707908706728 -0.14883273028905245 0.07021532351692614 0.046913616501518846 0.28207042508100916 -0.09603080249398428 0.20835669674097582 0.12787770296731552 0.39460630745948927 -0.04996036093366456 0.2586257075367272 0.5031758904420216 -0.4784425458356819 -0.2128252644943573 -0.0565875493737156 0.013560072888474665 -0.23604605672590456 -0.02701090051446638 -0.05981034782225924
93 0.060873163187632896 0.30822613501763735 0.0867147518697347 -0.10572785068796631 0.1214951522200175 -0.3242852399062701 0.21259910150920863 -0.2072148886024843 -0.4305451668323545 -0.12402799237335724 0.003071504912822265 0.024476758664923323 -0.07367910541272034 -0.16842731639344982 0.07645732110156331 -0.1084746872477957 -0.422656674137362 -0.024900314881928495 -0.4656540373177711 0.16022805113013608
5 0.2158160227204311 0.014838030664908915 -0.06910373830874267 0.02141757909004157 0.290046576788182 0.3259327823260084 0.1159976256743765 -0.08590088887587818 0.06616107910912321 0.24032415265383228 0.05934509484722895 -0.3843562521589702 -0.14124955703167635 -0.05050124768916667 0.026201706841026927 -0.5429824199990494 0.08393685734180203 -0.3364240538808719 0.21114049541939053 -0.20141002717586867
127 0.10379251702963858 0.11766434217683802 0.0887702315745345 0.1828189233707239 -0.26859308747892424 0.09116059260536548 -0.1803994220147258 0.4707863332252797 0.12950002911958644 -0.17790062502707224 0.15977431251779828 -0.02042076860828765 0.45867295146659415 -0.23528541208293255 -0.21264929178762002 0.040629758638383764 0.09376207082496273 -0.3593981808719546 -0.24935163926104525 -0.11105887246808764
163 0.11814082410102006 -0.12123470308588243 -0.2547138299595261 0.08149429831446182 -0.17170968917727153 -0.00893202158122357 0.05064355374680334 0.20304003741112087 -0.4130251536729609 -0.08760252979537446 0.04724782485985181 -0.2839032015166328 -0.2299915160041798 0.40040762437040234 0.0026501066660606564 0.041526037855250685 0.14022902155729644 -0.24232999369580632 0.2342091005504249 0.46602271601041106
88 -0.014433288115022667 0.003015381620700536 0.34759679575134383 -0.08290778730344628 0.06134923218848857 0.11831170477128844 0.18713577283709393 -0.5221012525837002 -0.3851347302904701 0.13136291337354578 0.34530823548172557 0.02683037256177646 -0.30492722013295875 0.19382262117629354 0.31665390838981233 0.051666045026709816 0.1083563136960576 0.019344849584034984 0.008815505772972602 0.12446606505612666
62 -0.14219997551949765 0.07444389305961359 0.06520561426631763 -0.18232088202518246 0.0416009503539303 -0.18925215566571757 0.035264122129629705 0.19292000159772935 -0.119361037904265 0.07972696069397042 -0.0031861843422358333 -0.23383015791376055 0.12269947355393493 0.14183162054584983 0.03240293032815213 -0.2368160222363647 -0.4413674350994831 -0.14805967063297687 -0.20736115123930318 -0.658344076751902
145 -0.04716146848735188 0.1080170368929086 -0.30143628563194835 0.24439416086599317 0.4178707082602002 -0.06586767679191252 0.3180916368500819 0.049924144976986565 -0.47671684347322085 -0.1134767300533123 -0.26108113384487475 -0.05596917518136015 0.007202081260236373 -0.037958641236520076 -0.019089451588364597 0.1826092395956611 -0.2875599912323427 0.018445800516721282 -0.34710510091277813 0.052330830822539816
115 0.043523502593299845 0.15316358523220058 -0.028945712150425826 0.287679488113521 -0.15934731578538466 -0.1171686768512081 -0.195061333845901 -0.3140550920509485 -0.358651610725209 0.3173703287675952 0.36433671691399444 -0.2063297513982771 -0.02082414463411466 -0.16052087386820504 0.015994520751086063 0.048624968615100336 -0.476486463186713 -0.013026885222384712 -0.2300395765184815 0.04041729984545981
15 -0.1950683623574826 0.02054883606013512 0.06905161750630796 -0.3741961481050417 0.4737807206055508 0.16255807060312943 0.23070108770393832 0.04202525843706298 0.06234474209441159 0.21421233269519518 -0.3444784977215454 -0.3724773364161343 -0.03487434602876927 -0.0532100335106835 -0.140846503846208 -0.21146849835001474 0.005641637527593259 0.22895051828762333 0.22046901305755034 -0.18442694590519607
40 -0.3061606251202101 -0.2440486156395908 0.3108056606087288 -0.42360125367250284 0.1321731192569833 0.10917998121523372 -0.081388754938329 -0.04402193988097404 0.15269477456328298 0.22636914502747288 -0.15471597887629937 -0.03023550349929583 0.13067995467639656 -0.12455896903404062 0.10827502809053034 0.017163945484774578 -0.053396636243347735 0.46402404897718874 0.4066539543814205 0.07182253501706291
169 -0.08861911485601313 -0.1659722697238495 0.21529553047546568 0.17093644809455066 -0.005917619831329581 -0.19850944210955235 0.15329042070918997 -0.08888417102881756 -0.028156911889758367 0.4485628484617085 0.3188604568617788 0.07330376399668262 -0.2629776079001582 -0.1417042500156107 -0.31157924406941595 -0.09024288155477242 0.2510333640897073 -0.4515698863373795 0.21047688408936188 0.058701680585873786
155 0.3312623048835344 -0.14822390466757862 -0.1493624510858165 -0.34151612275103943 -0.230712801509786 0.05661659755324313 -0.4436893225760509 0.09671358492719362 0.13187851158368474 -0.01429769647697436 -0.2978041590488699 -0.24305765879748287 0.0973477606314272 -0.22729845718638314 -0.40493294824689224 -0.1467827402536475 0.0479687530494273 0.016217322454176373 0.17926891934973288 0.14137129417690353
70 0.11050450280418762 -0.02971747442783031 0.5481374299502861 -0.08164379629152482 -0.3068276928948975 -0.011846282448894399 -0.2985779002361506 0.11948036925663706 -0.12535506801424115 -0.18779601569842455 0.24221867846004855 -0.019183233744169387 -0.040362572698130345 -0.27476012982015685 0.15417893627744514 0.05197007796969784 0.08456208821547585 0.44352066783218996 0.00439657000343864 -0.25413225399032513
158 0.1725739970322261 -0.3205693808107855 0.03293020971152471 -0.06247363256954699 -0.332772769849532 0.016744979386948904 -0.22576200568003688 -0.006568669835038118 -0.11657936777613495 0.16390370757511016 -0.046986022498751806 0.11239602247062176 -0.14094920140681394 -0.08291111452393247 0.1901250285330277 -0.22293033229103607 0.12961518939011654 0.43837205583539574 0.5291200816146299 0.20884457421499195
75 0.07507491056492958 0.09743042029099801 -0.28403820508112904 0.34063938708259145 -0.08387439740151156 -0.12777077987267735 -0.23445286486492592 0.24765721181547504 0.08736160274091113 0.3251560620700687 0.38898237184890055 0.01880861443316363 -0.18278446633639253 -0.22533764638747308 0.2461694292372909 0.02446321942878561 0.017277710885200748 -0.0635948635554436 0.13411327064633052 -0.46450161412255353
104 -0.03636841414245095 -0.16956668005210027 0.1514684782262289 -0.20746205208249796 0.27522246440160053 0.002093296709645467 -0.14306925759893976 0.17137007822326134 0.31770850866246947 0.01265250735059588 -0.5007836365523965 0.08644292929629076 -0.06738805739946274 -0.15646317557223507 0.15207579834131355 0.15580824905580345 0.5150982423632358 0.0011110883773118177 0.02296734592133708 -0.2769792292867983
116 0.15539037271912298 0.05325234562126343 0.1458842944227093 0.36474131615569505 -0.08173870753605841 0.16913709081371392 -0.10275061471610833 0.0023740919286123004 0.017654280971634236 0.5014469069218376 0.13033345018784032 0.2853427442374586 0.3982220943142634 0.3211403636003186 0.0149951778969805 0.23839708903983958 0.07939932871961872 -0.17431924903398738 -0.2566871969033432 -0.03646930921126105
64 -0.03298395016804837 0.046334210238244654 0.10040732447990224 -0.39441954770494064 0.0183445702494587 0.39785749549443294 -0.18887458184095557 0.016600199144560665 -0.2201108281468634 0.0033218770287672364 0.026770463419913366 -0.3219491051266773 0.010699208502551454 -0.3551904120389058 -0.17159548980763314 -0.3151400780559609 -0.09666980546861513 -0.35177572337482843 0.11459122340604261 -0.2871539040813173
63 -0.10731804151057663 -0.04176413696247891 0.17715058936005754 0.3160175766175253 -0.25852392571929134 -0.3103633106502028 -0.1084537746116067 0.12179335232588118 0.2016798075146166 -0.11969447322057127 0.23606763950332893 0.09737352132084866 -0.06202245716232263 0.037105668603960786 0.351455823321294 -0.08456832563800967 -0.06122720598273564 -0.6326272842170588 -0.029309564931255513 0.06928520573183
45 0.218733937787437 0.32064254193439035 0.49585537533077373 -0.07314376578745808 0.060920103653425636 -0.01311805382374504 -0.14111413609069334 -0.06420080292652146 0.2063903050507259 0.21318910990458556 -0.38849378147065816 0.12446051359430714 -0.09929702465800422 0.1853649412640291 0.059892751360034725 0.05848097949621462 -0.014055634714331336 -0.2879038916344385 -0.398616536729052 0.15009975393317632
108 -0.27046313913509973 -0.22575098274144986 0.018792220153588612 -0.002809082651476257 0.23725123958468117 -0.02555132224807272 -0.13667728687665714 0.12125127569067207 0.10724238172826807 -0.04185275264303357 -0.21515478600661495 0.17192350270605933 -0.09034328732326331 -0.12232425287363904 -0.2479692860871687 0.4750394257766302 0.5057018851500401 0.05496037685586351 0.039227556625760725 -0.354301439718952
39 0.32765419842571114 -0.020929835097866153 0.032438342080951046 -0.05254680494299118 0.49218483939386726 0.07697905122319632 0.09773228439962019 0.14757039810209321 -0.1704035616900371 0.35734069782117006 0.03252183997071648 0.07332066286721997 -0.1351831446333374 -0.07053987467840106 -0.34490792398403847 0.40196571685970683 0.31719442834530354 -0.08801968717455458 0.15307608628569533 -0.10073432528500592
179 -0.24023331531784395 -0.0955952759045407 0.41817737980079417 -0.307310516748089 0.14379572031344579 0.1203681048113864 -0.07731932618139417 -0.42102921180123354 -0.2582416194741602 0.028709839176122125 0.3507560439920321 -0.15081327545832374 -0.3492579936064041 -0.05817398107663065 -0.027463522280804772 0.12256817145881858 0.03167715727527944 -0.08814195707366063 0.19588172300515228 -0.2094173593583695
152 0.34564453197847206 0.2452546375460958 -0.13462076139617563 0.07672435947784963 -0.2881879938404847 0.22610863331008346 0.28276928150790465 0.048163826649915434 -0.031217391734369992 0.09376459222150273 0.2817928937092683 -0.08465567281245936 0.028423257358297004 0.2135401236036968 -0.4569303602779467 0.013838374892374421 0.32750431171768907 0.14451803988085687 0.08607935324826357 0.30436246625424684
80 0.12601283543125072 0.23277758352998407 0.026742186510268936 -0.025737892197466698 -0.15170346278585672 0.5128970381824985 0.0012445007991717955 -0.19789908329126316 0.21850203307636665 0.12340726027907199 -0.018145285343692235 0.20154814432046309 -0.040519112257645054 -0.10296181125243176 0.016258775914593376 0.08915618136094577 0.24911794548410443 0.2916118219365271 0.22945473518021964 0.5283829541690989
50 0.09078578527143177 0.1040779591094994 0.16131063355984201 0.05147815465893515 0.18754706714109165 -0.31797896457365155 -0.04828372919602411 0.45939868294092706 0.10036729911813361 -0.0784735685828155 -0.255102641834653 -0.12775152444474389 -0.1470376329034328 0.24248867008643157 0.4716376179242794 0.0992967357009371 0.32502169831953936 0.1851259148928297 -0.17849454292125683 -0.143067915226098
197 0.13492974387829362 -0.1846438673918333 0.16502719575958158 0.19951173738324224 0.03129432563727076 -0.4178183411124511 0.057120977138723994 0.0025470540118612494 0.09604005768009215 -0.16674332466993178 0.23748512248666484 0.14884565238266095 -0.07226912579944186 0.39265094371616216 0.48532000641743556 0.2610523988785328 -0.04012009947236603 -0.3264692053126262 -0.112663553994663 0.04788881301546226
198 -0.10583366603534447 -0.4119547710632377 0.1357197749964572 -0.14340866268621683 -0.042252771469389175 0.1832975565620794 0.21635372134662445 0.20131802278008293 0.031353235654995135 -0.0742124045526201 -0.13123064835814593 -0.08577350650038039 0.10395282134172901 0.34705756875833904 0.2734061261332135 0.05213890852765865 0.023109066915327717 -0.11129645779830612 0.6295850209168333 0.09106913612422061
42 -0.021528337435993417 0.17687820391348819 -0.02155974701416989 -0.06144093422422254 0.08753068689928746 0.13197261409500843 0.43059739290881444 0.24234533207801437 -0.16702072089530293 -0.7175651619138536 -0.27816452072347964 -0.1026133729408665 -0.014391173090927054 -0.027992759726868766 -0.060682692006393875 0.03734961868359696 -0.15123424240071343 0.021509946294694347 0.12327172638177465 0.13959961606128096
101 0.19334184530094894 -0.3213234714127003 0.07770027804685754 -0.00695609458802158 0.24093824739341196 -0.006139607331339036 -0.5192390850801109 -0.08911408223737924 0.06170425650851197 -0.14576257847459884 -0.10487930682534717 -0.12757085716903044 0.3046905002109776 -0.08401343582303543 0.3349184733826597 0.2535515434957034 0.2158752380955043 0.292839938666399 -0.22778420199115976 0.06870527718386762
105 -0.21336659381875486 0.18969433781024178 -0.30951874067273105 -0.09963546933240922 0.2425656924166494 -0.027244136875977387 0.2574186127240749 0.3496168917351142 0.2679502213626175 -0.2003024642263602 -0.2543302293695704 -0.10221862943613237 -0.2024224827308075 0.26216181430925933 0.39021223147279543 -0.19633071405602542 0.1198244039489672 0.2226424778724805 0.10667249248097133 0.04257307805481378
71 0.17941880066502294 -0.08611616230337577 -0.02352637964009637 0.3499865171442526 0.033740236487009655 0.1059018439904091 -0.010518201136401579 0.19972524784085238 0.2509663318817862 -0.16750972734989059 -0.06223907126999178 0.07606359847506758 -0.1092407869587957 -0.4378150644093318 -0.42546006633727873 0.21105435593029642 0.4548314336070535 -0.05337103451454162 0.1779837308502736 -0.11712124139009039
134 0.2319396451898257 0.016991877700439483 -0.10310890379187307 0.21175819326460327 0.24060192655256463 0.07904217211904227 0.4319503159712045 0.20078798020624403 -0.36470946519564745 0.28520946740826447 -0.019722689296805804 0.1588416056257882 -0.13303959462727818 0.24302586827972558 0.12123945722130425 -0.34151753924004136 -0.07917709116927235 -0.26453991630268237 0.12740584817672665 -0.24259906605839385
76 -0.2036426010849209 0.08745516922906349 0.2749144385641849 0.04306678369668714 -0.418799466815332 -0.1292362994128369 0.2128168531446745 -0.37755074363386876 0.019090081713515415 -0.1261190730484997 -0.12140763427595662 0.3686976140861866 -0.16608377076886574 -0.04458295476791926 0.0177445061301435 -0.31113483913250345 -0.371928057919397 -0.18148651711103236 -0.15263992895092543 -0.07288237483346018
190 -0.14180061811631128 0.06263098991083751 0.07372314318326899 0.2650233902554531 -0.2606656522951577 -0.06981125809324523 0.11321447801808926 0.19290229568188846 0.008417229909406337 0.11170704389893472 -0.15483890541197115 0.41009808904542955 0.031160901455741897 -0.48789972558277617 -0.13456406985880567 -0.2714489535530834 -0.38134791283310343 -0.13706800309452596 0.08411644978881828 -0.26579125571392603
139 -0.1599354411655524 -0.16957784104086066 -0.2333792952535955 -0.009484989131393347 0.1313409690805557 -0.5104320526599326 -0.07183259087335621 -0.052358259340806804 -0.06810001394540836 -0.2017527113858194 0.09610814774158186 0.08504874737547777 -0.17503515665463135 -0.132996182663617 0.3063673237871137 0.39637650883756576 -0.06736676221164316 -0.20449399114807593 -0.16060706530042082 0.4149124184559294
153 -0.16075594811007252 0.3564398898459091 -0.04855261238458865 0.0876154205991554 -0.08620318820502113 0.3478360696256222 0.09876458254245313 -0.2017741240208988 0.1998426834895593 0.15875225993579709 0.07791571628080153 0.013024575597660097 0.09399447321954064 -0.27488569462246126 -0.11733410927343853 0.31269925669977067 0.016170778213848876 0.5925188974996056 0.11816889388155531 0.15986520678043395
27 0.03677423318907767 0.05722100459695701 -0.2293764730801904 -0.40841957626608894 -0.09679352071002939 -0.21383950666822277 0.10253305746846125 -0.23219413109286266 0.3569554160138429 0.21136769143704806 0.29302028246150125 0.06235190410342259 0.013216653965466965 -0.10833644916566722 0.011131812485260581 0.2712755936474076 0.42118170275484235 -0.3012999747797623 -0.19415024606533562 0.05560429275808281
113 -0.08870347177865993 -0.4239216274565403 0.08588010756053016 0.06779822456674914 -0.25233528741304223 0.008220618512585676 -0.02496394382529078 -0.04561290455393891 0.14139645102039983 0.3539927462938014 0.01025620857013475 0.018027043952135436 0.01990416413173704 0.16838473020495268 -0.45722512815909216 -0.13605797202065822 0.029701113732029365 -0.07397219114288899 0.40402298126171793 -0.40294787753221906
59 -0.023409643192304028 0.13355102420889367 0.23994296513557947 0.19028920358145587 -0.0549360485632711 -0.20228850146616267 -0.4675718511334341 0.036723280868373946 -0.1498937929518284 0.07906034538609616 0.23200941690868762 0.2572063840398264 -0.4417162161218305 -0.016895296278791574 -0.15849366740688664 0.02672765686472416 -0.21912660197268738 0.27312730408362657 0.08267111318402053 -0.3528991039153035
46 0.5335340861356151 -0.009326656413363048 0.36071678405363655 0.10912449439631795 -0.05950169990568279 0.05985427079839065 0.02751237518646138 -0.23437907118459503 -0.016788296723944156 -0.11942785155247017 -0.514619739818522 0.24289169078514625 -0.03425685067323489 0.09870390818636468 0.03702878048280797 0.023619056644500903 -0.24146791740004492 -0.06013013017669309 -0.15031377299138615 -0.2732759249389758
25 -0.11346551247526941 -0.2206580855889281 -0.3715862764716062 -0.25752991637497963 0.017095163175824067 0.23216778020676487 -0.0917629265708097 -0.22421576857775444 0.254613031041847 -0.056762306547665495 0.1789838141378832 -0.055724397329429305 0.36909630047302944 -0.0007980687374017234 0.03628407768603441 -0.2456827467918902 0.12329870390443837 0.5062873189285683 0.1104985574908866 0.1905553855804439
84 -0.22436196648637877 -0.2257372421079961 0.118277239991005 0.23574719264397045 0.14994187670481604 0.017677712285952173 -0.14582239120635598 -0.36966338213157046 0.20012028199789011 0.1756045162625808 0.01924996822036483 -0.06798088403361915 0.10913959280689443 0.0949346350997315 0.3139623261351471 -0.23616250423974014 -0.46310744950145216 0.3476867466802502 0.23590393024776407 0.0792243712652886
12 0.19402523101030775 0.2454162740510085 -0.009469847314925492 0.348219738229887 0.12063031686488236 -0.10603575706765717 0.12205133499862572 -0.06284845733892756 -0.5309533276786382 -0.08768373689879504 -0.06592731282287449 -0.07006040787216226 -0.26295859279724093 -0.17842321190146568 -0.15704885252937162 -0.03655959390120766 -0.1893479834919288 -0.07541646883631907 -0.3501813542980271 -0.3822714717333933
126 0.01937442111730376 -0.12730445199488527 0.5400800619476718 0.0005150933341408687 -0.2302563589938728 0.26468609043137764 0.011378614357821908 0.2398983243529537 -0.04603322340217979 0.08359298549971388 -0.2644427253537649 0.0637898541908417 0.07089487887579536 -0.012248068838106564 0.22209383129902346 -0.09710430253010034 0.1387169493468094 0.26955075376258353 0.35354209025575556 0.38346450689759226
90 0.14737152720052785 -0.291201786535211 0.26199859228604133 -0.06692746852966533 -0.12111437742304543 0.17904495080229849 0.23074688163329415 -0.20078474227068338 0.0766333649895567 -0.4731923733311111 -0.17274756179541562 -0.062473577274589645 0.3551838775504807 -0.38410063051119414 0.045541591350429844 0.16617633741882873 0.16273740554676894 -0.2065691646263342 0.03696965926984361 0.20651693019922587
32 0.14383993421178076 -0.29492523279457705 0.10829901408783102 0.2047594421256695 0.05714529264087035 -0.24712777234404454 0.1369581267884896 -0.2987228839874358 -0.11054750286307147 0.3333607044184675 -0.02409129010726866 0.10575100842069775 0.23844580594123335 -0.22514486469619324 -0.2234452358520717 0.28171540476026985 0.016567574391706585 0.0029812740846091885 -0.03393178015480814 0.5412548682192104
143 0.16881240403374476 0.26228906229691784 -0.18694929220318626 0.14307689728052872 -0.13964735230163391 -0.4487185407555601 0.0864162992156396 -0.009990580988297379 0.08420839089078154 0.02217952168336874 -0.0632781196042354 -0.04363781790363925 -0.40190107476945464 0.04372682645948811 -0.0696025767528159 -0.37647274893862226 0.3677680858954145 0.2637275431743916 -0.2981704198997196 -0.040659302720733925
107 -0.2860406349420098 0.0936914661576207 0.27921432295998727 0.10901634543099945 -0.0607698894450282 -0.458446720496719 0.036462227956449045 0.09712986233450376 -0.048443230522441434 -0.289188756898371 0.12359524954018945 0.10518118674265699 -0.2884225822258508 -0.4272068182355744 -0.06761898208254205 0.09012555531754143 -0.027100070180076485 0.16216680793889274 -0.15310005727541137 0.3921112193195789
193 0.000633404374849811 -0.10028146798437784 0.2682440418372477 0.22789266800503075 -0.36222875323801385 -0.11013500730880164 -0.4767625454720908 -0.16711163637845658 0.49772788006719204 -0.12334523426740769 0.10735080505143944 0.07992666735927645 0.10397627119131657 -0.1285389705084445 0.17734078164221012 0.011649316554543314 -0.008048279517302658 0.3179970043950999 0.1064845467456034 0.12321031353542158
111 0.08870489864134727 0.01786425454811369 -0.2550886487069046 -0.18739304795265624 0.2698906399754485 -0.16148601744373717 0.3490712574536919 -0.41078712965013015 -0.007174557865967307 -0.08534383133248535 0.3682555399651987 -0.21631663036151946 -0.041600080049791634 0.3639825605394037 -0.07884404495538115 0.09349054226302746 -0.23281503974977216 0.28150821144291416 0.024424550236099733 0.17074330479842761
3 0.3129182874409529 -0.013037736399438215 0.1595299906088656 0.14145162537744294 0.029498393489968 -0.631749443053455 0.10222501911846488 0.2153870012843006 0.15017286523723564 0.18116875073290425 -0.03941979063492619 -0.0012356273292746735 0.14658805406474001 -0.19608790343381555 0.274189519404503 -0.2920551839241239 0.0628250403077819 0.17790869044956242 -0.18211384731053026 0.23135830753236625
199 0.1013743873349888 -0.12701574010580133 0.18703658867177908 -0.21331313038154437 -0.35138888248041944 -0.058550365691945896 -0.16037888376151063 -0.19820748529836435 0.003157686256854198 0.004707262418555768 0.20350515176894757 0.13019977932909693 -0.23780211077536786 0.36282689305975147 0.43629642394350293 0.17794196758831876 -0.19616861486751166 -0.38881122570212734 0.2036907738644402 -0.03793896940853613
41 -0.2985995870089784 -0.040552287437165414 -0.03092236717822677 0.7302255681224585 0.25023390703981835 -0.22198401916739333 0.07193529170734297 -0.19855835478648787 0.13097724494705826 -0.10105040587103 0.1127321010003536 0.1862121421834228 -0.08237088220630936 0.1540607926336481 -0.0003483017589201805 -0.14767647710777326 -0.18854053842580418 0.00647011852524551 -0.23436544908370374 -0.03032551753033422
131 0.14735798497180716 -0.15986449504417125 0.11182217653588135 0.2867006298457099 0.022419431078384365 -0.19248576401061065 0.3624967628034421 0.14782318593064186 0.08227196577957778 -0.08305142175072974 -0.08433984964452233 0.28296429682250945 0.07707055214026995 0.3527913802556214 -0.39676971552411605 -0.09382120217967489 -0.311649329098797 0.10729152738517082 0.3696415451850637 0.15642381797110974
21 0.035133446410327715 0.20441668635746174 0.12537347508137633 -0.12199683697794227 0.0366230447146895 0.6547034867918358 0.023352258913537986 0.14598397480414138 -0.021236621074018185 -0.1080326896552275 0.016532778542595498 0.03560558130918438 0.36516077115887785 -0.1448037292215215 -0.197571154298927 -0.0017684961637109372 0.008061534558626147 -0.4441679847086266 -0.033327366109595684 0.26281363651283135
165 0.11970759877079956 -0.4230783327421513 -0.1501668982987796 0.11160606627581152 -0.4070398932891667 -0.3534993882450487 0.03249509876237831 -0.3576936625611447 -0.08618741482141756 0.055686758392632804 -0.22361059359737243 0.08200539155132038 -0.06863045836610826 0.36147335033604544 0.07239480474101963 -0.3143931720272401 0.1213159963981408 0.17377104480156813 0.01707490348037464 0.010304847562065867
112 -0.2487871433126513 -0.19286443428258782 0.056847347932717764 -0.20279005270116104 -0.060147414240811777 0.053182862736665594 -0.25097353682558365 0.0172926306891504 0.6160136540439813 0.09854827693966332 -0.05773200247607532 -0.25275502338092215 0.46186147442373215 0.18256540447277686 0.0391035604689813 0.00021509795654667114 -0.15132425488382398 -0.1402086088407644 0.06638495147472763 -0.18782277981273
48 0.19558128057600202 -0.3179872182381116 0.005251664040526251 -0.11671716510884539 0.39174094842778306 0.10581638577814205 -0.07999271758987059 0.08210256244599552 -0.2122515289322282 -0.0837964308616038 0.26064625115880286 -0.2139584965389701 -0.32675793946504433 -0.22543140549676563 0.07375937784545156 -0.11648710433926156 0.08349748868661053 0.015154542443489478 0.5596591185650657 -0.079856502489142
148 -0.04261582009937384 -0.15138257655463924 0.19489233327429387 0.17154213103635926 -0.28884295874432725 -0.49108845342558666 0.15068104795363957 0.32730714931406374 0.13274346976623136 0.0792363121894947 0.31429444694692243 0.27050082734140996 -0.04791689530402097 0.1450339090093209 0.19846229153760964 -0.09553514513449461 0.19107995809807232 -0.37711649117265683 0.08296509044370519 -0.010814541996112823
72 0.5714151431120632 0.2102514409098775 0.2098113366474797 0.1865763473343382 0.12676097453266502 0.4391514527872528 -0.03738385341955232 -0.17463139991618334 0.05581582217918518 -0.28921276394942225 -0.15781738189448802 0.2173399415389326 0.08140559276564656 -0.13739149204944476 0.12470964962561021 0.19138584280442933 -0.20100161456079407 -0.10316797920081856 0.005685152370517455 0.1482128800529982
141 -0.15932736881923776 0.004571376993771402 0.290343458806755 -0.14029513901123686 0.0241198943377846 0.3751012360607585 -0.049100180441260646 0.4144746974855326 -0.29809917608981856 0.18820083133686 0.22506590220960992 -0.016658412062236876 0.21704367581156678 0.3102337528367556 -0.30150439862926864 0.093181684698715 0.28173166783777315 -0.20970522302328665 0.10896672579403396 -0.041841860005733617
55 0.24323495146434784 0.09570786946139699 -0.2646365868150988 -0.10564114643188999 -0.08391332278480829 0.3391022891371432 0.012832824151359728 0.1578322187997317 0.2560466563906063 -0.05723386125983352 -0.28787723518338204 0.004683885807396696 0.1045601782614481 -0.46684461005123035 0.13209920248229395 -0.19187728028719062 0.3129676883122096 -0.057835183992359686 -0.030643923616781792 -0.40776118070635026
37 -0.16940267933138925 -0.06625962071911967 -0.22775403308565081 -0.06514541481303965 0.26721458613108556 -0.1372333988337936 0.2743351246449053 -0.3194441507342504 -0.053727773529683706 0.10349141456184853 0.12156983514999767 0.2588867618171439 0.27864488824735906 0.2558793095725883 0.2913854587281097 0.4239361447627081 -0.21371170185320124 -0.1661035968094872 -0.23176861811736915 0.11459724683120047
67 -0.16254048447118627 -0.012576005525231991 0.07803310507686717 -0.3350495360726358 0.32116470618557585 0.022582629136035058 -0.1392960717234201 -0.16841876238397493 -0.09257235883892229 0.3292982100568422 -0.14958232570989236 0.2163232694688564 -0.2947046056958692 -0.2211902946971934 -0.004794899065386026 0.30939043978861264 0.46893696849853644 -0.16910065475490185 -0.18719876017496237 -0.04910073903572597
191 0.05277119175499878 0.2233952675152513 -0.10437156435158154 -0.06806408015266065 -0.0597345280654042 -0.3572001278784585 -0.508119905458788 0.05011300647238689 -0.07469935351217293 0.2746868734497991 -0.08451427985257795 -0.07592673743449738 -0.3809247365472019 0.33509033152969625 -0.09724797336445226 0.1701947787648587 0.09639115942968474 0.056156750358213166 -0.28784307919184415 0.23425364193229298
8 0.0681020063098243 -0.0033810308755051767 0.37846568683599974 -0.27190790638056817 0.47058979749795143 0.175938646607129 0.3254153597290747 0.0679592477199386 -0.03435728173009412 -0.48957814508769987 0.0588518063531507 -0.13342473923051126 -0.12504500822897716 -0.019873226942198993 -0.0430094738815775 0.18568664353935077 0.08142979119080533 0.19911997952517133 0.11397961087491328 -0.20369937023143897
154 -0.1787631691353458 -0.37402497140549557 0.07945752706925835 0.034815013863166176 0.47063657050639285 -0.16052343631422694 0.13156266476220158 -0.31507474749540876 -0.03210659772867894 0.011076193686954677 0.042090049987223606 0.2356561884446586 0.11728143944882331 0.04635338074567998 0.21762501501541814 0.2100712591214552 -0.14884447416567873 0.023032908757457275 0.1121206072965226 0.5056348719315188
99 0.0006097452406776761 0.0329479003673481 0.24844214892696015 -0.30111964611447156 -0.17826697801715374 -0.003783682734145255 -0.1680287920812027 0.09059105983812962 0.09781985356529843 0.059288561429824846 0.20014036057180618 -0.42273209178102683 -0.020936033166729883 0.04283150935509976 -0.38452367532934767 -0.10133106645596343 -0.2007866442492317 -0.5655338672391441 0.09944644267351777 0.12652466916360486
68 0.22247788421577339 0.0005740267876757673 0.08611254905912329 0.4479539690736839 -0.23904132408302745 -0.11423785018180667 -0.2263968775762384 -0.32555827743953053 0.12957730593380273 -0.24210519301194572 0.05640971141051576 0.17475544419610087 0.17886323229002085 0.2869950418134848 -0.01694336264088773 0.2871909436028175 -0.11336449644051243 0.10750026700908347 -0.27853052581561144 0.3267300527028095
125 0.17733992350308883 0.032323911808092125 0.13575261962848592 0.3303292350332393 -0.07274951833043856 -0.001883968743832863 -0.37232198421810947 -0.281249837900837 0.1639843362569418 -0.022291484584114 0.34265883930360336 0.05726337633658648 0.045831355610844414 0.2546280677817292 0.004877822426619707 -0.10525675800299443 -0.3485735524975082 0.09092579572971286 -0.08928468826876743 -0.5030653172409059
137 -0.31185708458432565 0.3011200803005871 -0.01696543533407477 -0.31974671210795275 0.10702239454463652 0.02697422898833434 0.29884969572020065 0.18928341719309422 0.12582384914253525 0.02127342298028814 -0.2889887334709732 -0.041921862758390105 0.22199258887367956 -0.1682443746060987 0.17820452252580593 0.3702191939414673 0.33054351856530045 0.08414094999700927 -0.3184484383331981 0.08071561603665701
117 0.0364066330065883 -0.1948632724109522 -0.4501778574521297 0.4077359935171171 -0.12302582370350701 -0.09654188161277318 -0.12584497582889032 -0.18169878057775643 0.3281701683428076 0.17302820396312718 -0.3628600221321774 0.06073444776159779 0.15243225304970198 -0.11982604506365041 -0.10311685565329905 -0.014573284432261267 -0.02642992584674507 0.2300621523489919 -0.053489794857851485 0.37492497990643353
129 -0.17350230361490984 0.10485404565911437 -0.09001141316490217 -0.4875955581686316 0.06815679735537336 0.13802073424747408 -0.0630976104979747 -0.31002131933651905 -0.0800309162558179 0.24176089985994928 -0.1901800202093619 0.11521813949356319 0.024286580181250655 0.5827878836790445 -0.13059879708999977 0.18084974951050767 -0.25959273929095583 -0.0997269926951147 -0.07944866020879689 0.036390959998432205
83 0.2669887036855615 0.11538306241019977 -0.019099085494829478 -0.2519904772052475 0.10970960256845802 0.24210413157992372 0.10468200091666555 -0.2998230855795543 0.036187154868175996 -0.3281340444584937 -0.16202249847813535 -0.25893229557705105 0.14740182230016233 0.3132819219486187 0.5135175799010177 -0.1553080259408152 0.0010747629403214168 -0.02880562301040135 -0.21870463175112417 -0.14629411246235016
120 0.09638257940400667 -0.12570674538600846 -0.20160028499790084 -0.1281241788349341 0.046705834920964126 0.05535919668046813 -0.2889605739325787 -0.03211858203278169 -0.12926588023219907 0.30894853228901037 -0.06688170955929044 -0.3733274348403636 -0.1635714868421934 0.31773688854799775 -0.3296853746570282 -0.4269196136210028 0.09907009891757405 0.06588580438222047 0.19475841564424307 -0.31830276454178036
86 -0.13808577552251408 0.11828090313992745 0.0818815245774766 0.0597986124015693 0.027373797589428574 0.4850066966361818 0.04313721692262428 0.09340997468246591 0.1539234236832257 -0.27099959485858255 -0.11593242160668008 0.3435945142815055 0.31739715539278435 -0.3528544720069464 0.032465829850216656 0.3694848557202636 0.12014353903476885 0.13495721866352076 -0.0007119347667811186 0.2932489018277544
103 0.1007887879553336 0.04096319977926922 0.38171890140253745 0.1617495473525989 0.06798721655416279 -0.23180684379484867 -0.0456116205874156 -0.4992760595485382 -0.03932289270410514 0.16818553670182276 -0.35745777353467934 -0.11117799676963784 -0.3728348047258491 0.1806549051843184 -0.20669192063170483 -0.08560510277769193 0.11322289929481999 0.1391467630573679 -0.2864796681742186 0.025783839083697753
168 -0.12461973576699321 -0.13923444955339379 -0.1307306286163287 -0.16740459706503868 0.18948467549963754 -0.1153337506376551 0.20902404762020843 0.04659175694138769 -0.30033609992289156 -0.07500695130393062 -0.14978054577730082 -0.12726154457459496 -0.10462641851031132 0.5951892795795222 -0.21735289726622972 -0.3203429451812749 -0.23205981646291501 0.21177698882070206 0.14180156589395804 -0.23785569629592376
106 0.13631895645884856 0.06546251134276712 -0.09155058983818685 0.08799891926747037 0.3027952221299348 0.07938697202117848 0.01469218409083648 -0.2017474299382858 -0.2500808019820144 0.6727644109096462 0.20295578873500558 -0.014678119996571974 0.1730707973710295 0.037361489644367425 0.1965889734767666 -0.002151823142452566 0.05994746299401361 -0.25205701667017016 -0.3528763954934002 0.06239626619109281
196 -0.12029282946651634 -0.2830925839934057 0.25110325027771485 -0.22304531008274217 0.1720782773516129 0.17283679329774937 0.07864658250219597 -0.1160938099959418 -0.0081483174552328 -0.38739783627998076 -0.4544027263715238 0.00639088795330692 0.3117566033092378 0.19427364794736382 0.24465178722968647 0.09518292205045266 -0.19896458073473244 0.16626779116154652 0.0558096647167155 -0.2873640710863962
185 -0.29411305258951037 -0.04339248027355561 0.0030749256263334647 -0.24071804641789168 -0.358567037595704 -0.02284601369071336 -0.5414087548873285 0.07976049555040553 -0.10656306844506683 -0.34983963898993237 -0.33501270090489055 0.07764475272201549 -0.007339179016118272 -0.19227148306557304 -0.10620804923548406 0.22442054799072614 -0.22435876198123866 0.0816065414165567 -0.07956490967127744 0.10527517833706984
